~o
<STREAMINFO> 1 25
<VECSIZE> 25<NULLD><MFCC_D_N_Z_0><DIAGC>
~h "b"
<BEGINHMM>
<NUMSTATES> 5
<STATE> 2
<MEAN> 25
 -8.535493e-001 2.117988e+000 -7.022350e-001 2.564731e+000 1.905324e+000 7.191976e-001 2.663243e+000 -7.866857e-002 4.677349e-001 7.918704e-001 2.645714e-002 2.355608e-001 -3.037623e-001 1.077469e-002 -1.807035e-002 1.883910e-001 2.442266e-001 3.324730e-001 5.673544e-001 3.197473e-001 3.752654e-001 4.694470e-001 1.736496e-001 8.007430e-002 -3.946472e-001
<VARIANCE> 25
 6.112831e+001 5.243090e+001 4.795949e+001 4.117374e+001 4.071163e+001 5.204994e+001 4.961154e+001 3.929831e+001 3.842854e+001 4.413800e+001 4.279342e+001 2.836146e+001 1.417946e+000 1.977272e+000 2.305546e+000 1.939111e+000 2.311668e+000 2.596802e+000 2.692350e+000 2.708036e+000 2.746641e+000 2.417601e+000 2.524972e+000 2.135759e+000 9.318898e-001
<GCONST> 1.011942e+002
<STATE> 3
<MEAN> 25
 -1.474595e+000 2.986314e+000 1.003148e+000 2.799172e+000 1.845214e+000 9.983456e-001 2.357897e+000 -2.219242e-001 7.969014e-001 1.261209e+000 -1.317951e-001 -4.774670e-001 1.857759e-001 3.133747e-001 2.041273e-001 9.023122e-002 -4.414839e-002 -3.371814e-002 4.849219e-003 3.943315e-002 9.018469e-003 5.533016e-002 -1.869455e-001 -1.973697e-001 -1.079075e-001
<VARIANCE> 25
 7.826490e+001 5.539948e+001 4.963625e+001 3.905745e+001 3.439233e+001 4.463610e+001 4.054775e+001 3.353514e+001 3.228802e+001 3.737562e+001 3.290055e+001 2.589897e+001 2.325203e+000 2.246632e+000 1.860924e+000 1.614121e+000 1.953268e+000 2.197686e+000 2.348337e+000 2.038878e+000 2.010847e+000 1.957483e+000 1.897960e+000 1.723270e+000 1.186683e+000
<GCONST> 9.878871e+001
<STATE> 4
<MEAN> 25
 -4.956735e+000 2.005022e+000 -7.660561e-001 3.701566e+000 1.711233e+000 1.047294e+000 2.762711e+000 1.639769e+000 1.856168e+000 2.102819e+000 5.766023e-001 1.004079e+000 -5.110227e-002 2.345518e-002 2.190345e-002 2.315964e-002 2.137991e-002 5.077020e-002 4.224368e-002 1.088545e-002 -1.189293e-002 3.400476e-002 1.845781e-003 -2.317700e-002 -5.839742e-002
<VARIANCE> 25
 6.314459e+001 3.958078e+001 3.845982e+001 2.954991e+001 1.790255e+001 3.594841e+001 2.616630e+001 2.510108e+001 2.093530e+001 2.902161e+001 2.090959e+001 2.093293e+001 2.890190e-001 4.297381e-001 5.649409e-001 6.674711e-001 8.154220e-001 9.419749e-001 1.112917e+000 1.161023e+000 1.178457e+000 1.087305e+000 1.065680e+000 9.991805e-001 1.687912e-001
<GCONST> 8.171474e+001
<TRANSP> 5
 0.000000e+000 1.000000e+000 0.000000e+000 0.000000e+000 0.000000e+000
 0.000000e+000 5.205796e-001 4.794203e-001 0.000000e+000 0.000000e+000
 0.000000e+000 0.000000e+000 4.737460e-001 5.262541e-001 0.000000e+000
 0.000000e+000 0.000000e+000 0.000000e+000 9.028813e-001 9.711867e-002
 0.000000e+000 0.000000e+000 0.000000e+000 0.000000e+000 0.000000e+000
<ENDHMM>
~h "d"
<BEGINHMM>
<NUMSTATES> 5
<STATE> 2
<MEAN> 25
 1.151949e+000 3.620256e+000 3.287228e+000 3.911517e+000 1.511108e+000 8.405440e-001 1.515694e+000 -1.837703e+000 -5.587057e-001 9.394442e-001 -4.347682e-001 -8.926120e-001 9.534712e-001 -5.386824e-001 4.984916e-001 -3.631379e-001 -2.549468e-001 -6.118758e-001 -6.626333e-001 -1.553135e-001 -6.095464e-001 -4.453058e-001 1.329210e-001 -3.694568e-001 1.883166e+000
<VARIANCE> 25
 5.897229e+001 8.449406e+001 5.865187e+001 4.806814e+001 5.863961e+001 4.744501e+001 4.239973e+001 4.135666e+001 4.139589e+001 3.636633e+001 3.783516e+001 3.059253e+001 5.092158e+000 1.015503e+001 4.878262e+000 5.795052e+000 4.771397e+000 5.230208e+000 5.282588e+000 4.731968e+000 4.765336e+000 3.974686e+000 3.767770e+000 2.920843e+000 5.938241e+000
<GCONST> 1.130205e+002
<STATE> 3
<MEAN> 25
 5.714325e+000 -3.839603e+000 3.093843e+000 -2.059174e+000 -1.101713e+000 -2.540530e+000 -4.030884e+000 5.449642e-001 -3.201568e+000 -3.032862e+000 1.582954e-001 -1.458697e+000 6.215711e-001 -1.383802e+000 -5.643931e-001 -1.247614e+000 -4.208396e-001 -5.086586e-001 -9.398804e-001 8.179030e-001 -3.957238e-001 -7.732812e-001 6.010180e-002 2.802526e-001 1.792593e+000
<VARIANCE> 25
 3.513270e+001 8.407515e+001 5.754942e+001 8.035036e+001 1.047370e+002 7.840909e+001 9.558435e+001 9.183170e+001 5.559219e+001 6.463342e+001 6.170988e+001 4.157501e+001 2.496271e+000 7.841095e+000 4.141023e+000 6.204737e+000 6.220404e+000 6.444295e+000 9.692924e+000 6.786881e+000 5.982495e+000 6.217115e+000 5.945749e+000 4.400288e+000 6.010377e+000
<GCONST> 1.192787e+002
<STATE> 4
<MEAN> 25
 8.414402e+000 -9.928598e+000 1.895753e+000 -7.290180e+000 -3.019128e-001 -1.280145e+000 -5.016219e+000 2.210333e+000 -3.248478e+000 -4.314821e+000 3.561136e-001 -1.720670e+000 -3.815380e-002 1.625590e-001 -2.016664e-001 2.116134e-001 1.095576e-001 1.387620e-001 2.663578e-001 -8.753607e-002 9.537221e-002 2.193234e-002 -1.096248e-001 5.114686e-002 -3.909736e-001
<VARIANCE> 25
 2.553515e+001 1.004788e+002 5.699202e+001 1.002577e+002 5.870946e+001 5.763004e+001 9.984368e+001 8.113638e+001 5.791654e+001 8.543182e+001 1.034115e+002 5.964841e+001 3.835953e-001 1.605735e+000 1.055909e+000 1.807534e+000 1.858747e+000 1.809918e+000 2.420443e+000 2.205873e+000 1.934083e+000 1.920868e+000 2.095626e+000 2.013905e+000 8.028401e-001
<GCONST> 1.023906e+002
<TRANSP> 5
 0.000000e+000 1.000000e+000 0.000000e+000 0.000000e+000 0.000000e+000
 0.000000e+000 7.151731e-001 2.848268e-001 0.000000e+000 0.000000e+000
 0.000000e+000 0.000000e+000 7.118042e-001 2.881958e-001 0.000000e+000
 0.000000e+000 0.000000e+000 0.000000e+000 9.159973e-001 8.400276e-002
 0.000000e+000 0.000000e+000 0.000000e+000 0.000000e+000 0.000000e+000
<ENDHMM>
~h "g"
<BEGINHMM>
<NUMSTATES> 5
<STATE> 2
<MEAN> 25
 -1.301458e+000 4.880629e+000 4.110843e+000 4.876618e+000 2.700648e+000 1.734347e+000 1.840138e+000 -1.447085e+000 5.463216e-001 1.653976e+000 -8.026729e-002 -3.216130e-001 2.452183e-001 3.723533e-002 3.298264e-001 1.808396e-001 3.101146e-001 6.356093e-002 2.012994e-001 -1.148976e-001 -3.043307e-001 4.959862e-002 -7.624082e-002 -2.946967e-001 5.014353e-001
<VARIANCE> 25
 4.423770e+001 5.115962e+001 6.154260e+001 3.484528e+001 3.677800e+001 3.132407e+001 3.247441e+001 2.903608e+001 3.002439e+001 2.932575e+001 2.715433e+001 2.016492e+001 3.592673e+000 4.689273e+000 3.925298e+000 4.364266e+000 2.820877e+000 2.925859e+000 3.246318e+000 2.856141e+000 3.019882e+000 2.893572e+000 2.428352e+000 1.794434e+000 2.653748e+000
<GCONST> 1.029446e+002
<STATE> 3
<MEAN> 25
 -5.851868e-001 1.840683e+000 4.899612e+000 9.120097e-001 5.758591e-001 -2.096072e-001 3.077703e-001 -7.386283e-001 3.779005e-001 -4.717970e-002 -7.243111e-001 -1.369690e+000 5.746962e-001 -4.971934e-001 -7.945256e-002 -1.401707e+000 -4.520038e-001 -4.499906e-001 -7.253203e-001 3.105756e-001 -1.387475e-001 -5.273479e-001 -6.984010e-003 -8.913940e-002 1.926061e+000
<VARIANCE> 25
 7.661386e+001 1.104906e+002 9.232807e+001 7.970064e+001 8.211392e+001 6.811855e+001 6.222391e+001 5.431400e+001 5.085703e+001 4.510202e+001 4.392998e+001 3.317367e+001 7.320628e+000 9.379874e+000 6.965492e+000 8.029875e+000 6.226646e+000 5.582839e+000 6.531257e+000 5.348992e+000 5.119955e+000 4.741936e+000 3.626405e+000 2.927209e+000 5.122262e+000
<GCONST> 1.182124e+002
<STATE> 4
<MEAN> 25
 1.368173e-001 4.624483e-001 9.206840e+000 2.347485e+000 1.989622e+000 -7.363123e-002 -3.805612e+000 7.274988e-001 1.424474e-001 -3.117924e+000 -6.177682e-001 -1.551049e+000 2.126586e-001 8.287746e-002 -1.519792e-001 4.318292e-002 -3.174658e-002 -5.398979e-002 -7.992093e-002 2.473801e-002 -1.025604e-001 -1.335035e-001 -3.608792e-002 6.557567e-002 8.739677e-003
<VARIANCE> 25
 4.868518e+001 9.128339e+001 1.351629e+002 9.404034e+001 8.693796e+001 3.293805e+001 7.601126e+001 4.429110e+001 4.096360e+001 5.542798e+001 3.160025e+001 2.376032e+001 8.946900e-001 1.867158e+000 1.658420e+000 1.829780e+000 2.005829e+000 1.748612e+000 2.664193e+000 1.792926e+000 1.893330e+000 2.039622e+000 1.679917e+000 1.508567e+000 1.187365e+000
<GCONST> 1.011215e+002
<TRANSP> 5
 0.000000e+000 1.000000e+000 0.000000e+000 0.000000e+000 0.000000e+000
 0.000000e+000 6.000277e-001 3.999723e-001 0.000000e+000 0.000000e+000
 0.000000e+000 0.000000e+000 7.040938e-001 2.959062e-001 0.000000e+000
 0.000000e+000 0.000000e+000 0.000000e+000 7.551121e-001 2.448878e-001
 0.000000e+000 0.000000e+000 0.000000e+000 0.000000e+000 0.000000e+000
<ENDHMM>
~h "k"
<BEGINHMM>
<NUMSTATES> 5
<STATE> 2
<MEAN> 25
 -3.844080e-001 -2.278534e+000 -2.314551e+000 -6.041011e-001 8.710954e-001 2.253696e-001 9.129801e-001 5.644652e-001 5.243501e-001 1.000706e+000 6.813943e-001 -7.216566e-001 1.154556e+000 -5.364214e-001 -8.940893e-001 -1.199894e+000 -3.953939e-001 -4.964589e-001 -1.529398e-001 3.671706e-001 -5.261610e-001 -1.949090e-001 2.394770e-001 -2.099172e-001 1.722252e+000
<VARIANCE> 25
 6.505711e+001 6.978810e+001 7.699489e+001 9.237440e+001 6.958331e+001 5.721413e+001 5.640195e+001 5.392429e+001 4.472690e+001 5.281317e+001 3.704262e+001 3.039760e+001 5.048433e+000 5.810369e+000 7.034899e+000 1.007684e+001 5.877459e+000 5.843914e+000 5.477424e+000 6.016241e+000 4.576095e+000 5.141790e+000 4.064482e+000 2.919877e+000 6.641927e+000
<GCONST> 1.165374e+002
<STATE> 3
<MEAN> 25
 6.108207e+000 -1.464811e+000 -4.962263e+000 -5.980316e+000 -2.253554e+000 -1.365130e+000 -5.194610e-001 4.090640e-001 -3.259871e+000 -1.149127e+000 1.638296e+000 -1.570295e+000 9.654363e-001 3.646341e-002 8.014266e-002 -8.782775e-002 -1.623944e-001 -1.760623e-001 -4.204261e-001 -4.192117e-001 -4.324859e-001 -5.376974e-001 -2.848839e-001 -9.906938e-003 6.563710e-001
<VARIANCE> 25
 7.246498e+001 9.104750e+001 8.693498e+001 1.055871e+002 7.519788e+001 6.913279e+001 6.994102e+001 7.893658e+001 5.607680e+001 7.355034e+001 4.572500e+001 3.534261e+001 3.497776e+000 4.176067e+000 4.524510e+000 6.018253e+000 4.724577e+000 3.967426e+000 5.359943e+000 6.291139e+000 3.851882e+000 5.150561e+000 3.787905e+000 3.136022e+000 2.592979e+000
<GCONST> 1.156010e+002
<STATE> 4
<MEAN> 25
 8.161893e+000 -6.221111e+000 -1.734886e+000 -6.056908e+000 4.695375e-001 -1.366203e+000 -2.036382e+000 -1.146199e+000 -3.880497e+000 -1.587789e+000 -2.501404e-001 -2.575202e+000 -1.537175e-001 1.079885e-001 1.385506e-002 1.663365e-001 5.636417e-002 1.299507e-001 9.090538e-002 -1.735314e-002 4.481984e-002 8.016305e-002 -2.442311e-002 4.958226e-002 -2.438251e-001
<VARIANCE> 25
 7.010535e+001 1.518696e+002 6.308192e+001 1.501774e+002 7.383613e+001 6.422923e+001 6.538612e+001 7.655853e+001 5.302296e+001 7.758279e+001 5.888388e+001 3.781870e+001 4.166340e-001 1.102357e+000 1.053227e+000 1.478981e+000 1.550596e+000 1.479697e+000 1.863391e+000 1.908885e+000 1.648020e+000 1.747696e+000 1.745886e+000 1.412796e+000 5.092912e-001
<GCONST> 1.004398e+002
<TRANSP> 5
 0.000000e+000 1.000000e+000 0.000000e+000 0.000000e+000 0.000000e+000
 0.000000e+000 7.017503e-001 2.982498e-001 0.000000e+000 0.000000e+000
 0.000000e+000 0.000000e+000 6.216566e-001 3.783434e-001 0.000000e+000
 0.000000e+000 0.000000e+000 0.000000e+000 8.621472e-001 1.378528e-001
 0.000000e+000 0.000000e+000 0.000000e+000 0.000000e+000 0.000000e+000
<ENDHMM>
~h "l"
<BEGINHMM>
<NUMSTATES> 5
<STATE> 2
<MEAN> 25
 4.354825e+000 -1.568736e-001 1.876335e+000 -1.914348e+000 -2.506768e+000 -4.332211e+000 -3.139829e+000 -6.905941e-001 4.903720e-001 -1.275289e+000 -3.364511e-001 -7.295788e-001 7.228495e-001 -6.184052e-001 -3.474211e-001 -3.808733e-001 -2.973191e-002 -6.266716e-001 -3.330815e-001 1.410431e-001 2.594596e-001 -5.516171e-001 -2.194167e-001 1.237157e-001 1.236307e+000
<VARIANCE> 25
 8.899400e+001 8.096620e+001 8.025536e+001 8.961665e+001 7.981709e+001 1.031542e+002 8.588487e+001 9.682024e+001 8.008629e+001 6.696001e+001 6.176539e+001 5.032304e+001 4.226552e+000 6.691474e+000 5.635928e+000 7.247533e+000 6.231444e+000 8.097651e+000 6.959594e+000 7.763922e+000 6.739667e+000 5.011892e+000 5.161232e+000 4.321343e+000 5.198852e+000
<GCONST> 1.216170e+002
<STATE> 3
<MEAN> 25
 8.357273e+000 -3.356356e+000 -3.086971e+000 -5.327023e+000 -7.822990e-001 -5.919347e+000 -3.626633e+000 4.097715e-001 1.521276e+000 -4.582390e+000 -3.034277e+000 1.484270e+000 9.636402e-002 -6.611266e-001 -6.388361e-001 -1.399010e-001 3.368226e-001 7.102177e-001 6.423430e-001 -1.485972e-001 -4.414416e-001 -1.691563e-001 -3.104686e-001 5.215042e-002 2.790512e-001
<VARIANCE> 25
 4.617731e+001 7.048731e+001 5.832984e+001 7.248946e+001 6.278963e+001 9.480204e+001 8.761635e+001 9.707302e+001 1.266089e+002 6.751184e+001 7.562144e+001 5.729066e+001 1.671883e+000 3.401341e+000 2.799756e+000 3.579296e+000 3.953776e+000 5.779421e+000 4.676304e+000 4.865298e+000 5.465487e+000 4.428531e+000 4.557336e+000 3.031098e+000 1.360663e+000
<GCONST> 1.139683e+002
<STATE> 4
<MEAN> 25
 1.093156e+001 -7.617904e+000 -2.829183e+000 -7.255810e+000 -1.421680e+000 -3.479987e+000 -2.961992e+000 4.052943e-001 -1.569749e+000 -5.207160e+000 -2.002776e+000 -3.924773e-001 -6.915329e-002 1.350151e-001 -9.981390e-002 1.460068e-001 3.034388e-002 1.144043e-001 1.566682e-001 -1.212778e-001 -3.770415e-002 1.790704e-002 1.070397e-002 -5.541038e-003 -2.590914e-001
<VARIANCE> 25
 4.150497e+001 1.019657e+002 8.208022e+001 8.754509e+001 8.868307e+001 1.042278e+002 6.752456e+001 8.186677e+001 8.491827e+001 6.781361e+001 9.350954e+001 5.920028e+001 3.540196e-001 1.499374e+000 1.189491e+000 1.552292e+000 1.575348e+000 2.034780e+000 1.927174e+000 1.994606e+000 2.198167e+000 2.043674e+000 1.935396e+000 1.731411e+000 5.364867e-001
<GCONST> 1.027841e+002
<TRANSP> 5
 0.000000e+000 1.000000e+000 0.000000e+000 0.000000e+000 0.000000e+000
 0.000000e+000 7.480185e-001 2.519815e-001 0.000000e+000 0.000000e+000
 0.000000e+000 0.000000e+000 6.352224e-001 3.647776e-001 0.000000e+000
 0.000000e+000 0.000000e+000 0.000000e+000 9.180118e-001 8.198824e-002
 0.000000e+000 0.000000e+000 0.000000e+000 0.000000e+000 0.000000e+000
<ENDHMM>
~h "m"
<BEGINHMM>
<NUMSTATES> 5
<STATE> 2
<MEAN> 25
 3.775187e+000 7.189732e-001 -4.481771e-001 1.018957e+000 1.856258e+000 -4.543849e-001 -1.512877e-001 -9.564191e-001 -2.294424e-001 1.125532e-001 -1.141774e+000 -2.347285e+000 1.252794e+000 -7.159474e-001 -3.260081e-001 -6.904956e-001 2.703371e-001 -2.450539e-001 -5.438413e-001 1.437467e-001 -2.450026e-001 -7.443352e-001 -5.777561e-001 -5.277700e-001 1.693679e+000
<VARIANCE> 25
 7.745936e+001 6.852758e+001 5.368121e+001 5.509077e+001 4.999401e+001 6.455180e+001 6.362263e+001 5.604184e+001 5.336749e+001 5.091285e+001 3.626483e+001 3.811352e+001 5.165517e+000 7.655309e+000 5.435286e+000 7.209034e+000 5.286802e+000 6.500292e+000 5.667719e+000 5.312006e+000 5.026712e+000 4.743972e+000 3.434912e+000 3.510721e+000 7.969413e+000
<GCONST> 1.159377e+002
<STATE> 3
<MEAN> 25
 7.840898e+000 -4.367417e+000 -2.647049e+000 -3.193333e+000 3.327725e+000 -1.481987e+000 -2.296466e+000 2.298833e+000 1.492087e-001 -4.747450e+000 -2.956318e+000 -3.111817e+000 2.301034e-001 -1.280758e+000 -1.897228e-001 -6.192397e-001 4.030326e-001 4.384356e-002 1.341016e-001 5.043067e-001 -1.377193e-001 -5.414468e-001 -1.437119e-001 5.482413e-002 1.016546e+000
<VARIANCE> 25
 3.886957e+001 7.889284e+001 4.606041e+001 7.288525e+001 7.745394e+001 6.477964e+001 5.954114e+001 6.879747e+001 5.780803e+001 5.674328e+001 4.062039e+001 3.984795e+001 2.996643e+000 7.100189e+000 4.636151e+000 6.758823e+000 5.858883e+000 5.494096e+000 5.211339e+000 5.451585e+000 4.465339e+000 4.852804e+000 3.978033e+000 3.811162e+000 6.474484e+000
<GCONST> 1.154008e+002
<STATE> 4
<MEAN> 25
 8.631519e+000 -6.950243e+000 -3.650908e-001 -4.009871e+000 3.958938e+000 5.250658e-001 -2.427097e+000 -5.256690e-001 -2.813218e+000 -3.074665e+000 -3.176225e+000 -5.048033e+000 -2.524548e-001 4.088868e-001 9.889919e-002 4.250263e-001 -6.397099e-002 8.344057e-002 1.782097e-001 -1.360387e-001 2.032109e-002 1.370914e-001 -1.716319e-002 1.063266e-001 -5.738372e-001
<VARIANCE> 25
 2.744441e+001 1.333263e+002 4.385470e+001 1.244952e+002 6.220198e+001 4.470865e+001 7.242818e+001 7.639723e+001 6.980828e+001 8.092712e+001 5.782542e+001 3.771344e+001 5.840015e-001 1.677019e+000 1.168872e+000 1.878649e+000 1.592817e+000 1.588589e+000 2.064943e+000 2.278130e+000 2.108543e+000 2.018041e+000 1.940781e+000 1.693056e+000 9.535121e-001
<GCONST> 1.014656e+002
<TRANSP> 5
 0.000000e+000 1.000000e+000 0.000000e+000 0.000000e+000 0.000000e+000
 0.000000e+000 6.333566e-001 3.666434e-001 0.000000e+000 0.000000e+000
 0.000000e+000 0.000000e+000 6.047167e-001 3.952833e-001 0.000000e+000
 0.000000e+000 0.000000e+000 0.000000e+000 9.154229e-001 8.457711e-002
 0.000000e+000 0.000000e+000 0.000000e+000 0.000000e+000 0.000000e+000
<ENDHMM>
~h "n"
<BEGINHMM>
<NUMSTATES> 5
<STATE> 2
<MEAN> 25
 2.441366e+000 1.007603e+000 8.294128e-001 -4.395548e-001 -3.918087e-001 -1.482750e+000 -8.422660e-001 -5.705267e-001 -1.010132e+000 -1.418890e+000 -8.740800e-001 -1.318828e+000 1.175570e+000 5.854662e-001 5.031617e-001 1.936900e-001 -2.420682e-001 -3.448748e-001 -5.399884e-001 -5.174475e-001 -5.076791e-001 -5.207386e-001 -3.738116e-001 -4.163765e-001 8.445911e-001
<VARIANCE> 25
 7.399591e+001 7.210683e+001 6.792664e+001 7.280630e+001 5.916518e+001 6.259293e+001 6.299843e+001 5.380011e+001 5.471743e+001 6.131709e+001 4.750698e+001 3.469035e+001 5.460109e+000 6.376576e+000 5.815682e+000 7.211599e+000 5.412193e+000 5.398422e+000 6.388984e+000 5.599801e+000 5.238336e+000 5.034504e+000 4.134501e+000 3.153631e+000 7.867742e+000
<GCONST> 1.170477e+002
<STATE> 3
<MEAN> 25
 6.181540e+000 1.379706e+000 5.138727e+000 -4.986040e-001 -1.882972e+000 -3.217817e+000 -4.393897e+000 -1.174841e+000 -3.021415e+000 -4.971865e+000 -1.933206e+000 -2.840777e+000 1.754325e-001 -2.530163e-001 -1.158564e-001 2.765443e-001 1.788988e-001 7.818992e-002 1.032740e-001 -4.417942e-002 -2.144351e-001 -1.579679e-001 -1.574430e-001 1.968766e-003 2.036263e-001
<VARIANCE> 25
 5.157454e+001 9.334389e+001 9.396112e+001 8.611810e+001 7.419168e+001 8.100955e+001 8.207387e+001 9.566724e+001 7.055828e+001 7.610653e+001 6.008748e+001 4.244720e+001 2.406081e+000 6.318515e+000 4.463374e+000 5.419596e+000 5.288575e+000 5.703726e+000 5.634246e+000 7.404836e+000 5.211836e+000 5.185708e+000 4.628578e+000 3.555076e+000 3.598262e+000
<GCONST> 1.179502e+002
<STATE> 4
<MEAN> 25
 6.443661e+000 3.453918e+000 3.610876e+000 3.380167e+000 -5.284063e-001 -1.677862e+000 -2.164015e+000 -5.081305e+000 -4.903733e+000 -2.440545e+000 -2.447291e+000 -3.081802e+000 -4.255986e-001 1.555118e-001 -6.135658e-003 1.799923e-001 1.428285e-001 1.770870e-001 2.743540e-001 2.731271e-002 2.050360e-001 2.425246e-001 3.879232e-002 8.092117e-002 -4.921286e-001
<VARIANCE> 25
 4.053246e+001 8.294829e+001 5.359028e+001 7.336811e+001 6.472537e+001 4.765525e+001 6.884551e+001 1.077699e+002 6.975174e+001 6.831580e+001 5.486325e+001 3.822116e+001 5.665199e-001 1.457796e+000 1.393089e+000 1.634753e+000 1.914586e+000 1.962163e+000 2.383342e+000 2.907945e+000 2.424553e+000 2.479691e+000 2.448138e+000 1.807471e+000 5.267048e-001
<GCONST> 1.019386e+002
<TRANSP> 5
 0.000000e+000 1.000000e+000 0.000000e+000 0.000000e+000 0.000000e+000
 0.000000e+000 5.849156e-001 4.150844e-001 0.000000e+000 0.000000e+000
 0.000000e+000 0.000000e+000 6.506033e-001 3.493967e-001 0.000000e+000
 0.000000e+000 0.000000e+000 0.000000e+000 8.851600e-001 1.148399e-001
 0.000000e+000 0.000000e+000 0.000000e+000 0.000000e+000 0.000000e+000
<ENDHMM>
~h "p"
<BEGINHMM>
<NUMSTATES> 5
<STATE> 2
<MEAN> 25
 -3.790786e+000 4.878662e-001 -1.214060e+000 2.756867e+000 2.242455e+000 2.209924e+000 4.040007e+000 3.349078e-001 2.249463e+000 2.854713e+000 2.193002e-001 6.817902e-001 -3.116632e-002 -5.839335e-001 -2.862596e-001 -3.745546e-001 -1.079758e-001 -1.092564e-001 1.760007e-001 1.902155e-001 1.529882e-001 1.841072e-001 2.356910e-001 5.241283e-002 4.516695e-001
<VARIANCE> 25
 4.316949e+001 3.565619e+001 3.890953e+001 3.372523e+001 2.784526e+001 3.685748e+001 3.443272e+001 2.536806e+001 2.936942e+001 2.432657e+001 2.978141e+001 1.888103e+001 2.803101e+000 3.187690e+000 2.586931e+000 2.800843e+000 2.830405e+000 3.273551e+000 2.950519e+000 2.652570e+000 2.607322e+000 2.321621e+000 2.419436e+000 1.963548e+000 4.423850e+000
<GCONST> 1.003754e+002
<STATE> 3
<MEAN> 25
 1.288817e+000 -4.526210e+000 -3.064404e+000 -2.518760e+000 1.907840e-001 1.855599e-001 1.334921e+000 7.350854e-001 1.008320e+000 8.065436e-001 4.321405e-001 -9.130693e-001 2.370222e+000 -1.394588e+000 -9.174074e-001 -1.507382e+000 -3.994332e-001 -4.979782e-001 -8.510130e-001 -5.160781e-002 -3.901848e-001 -7.861027e-001 -5.546819e-001 -5.030448e-001 3.233029e+000
<VARIANCE> 25
 7.196427e+001 7.494436e+001 4.921179e+001 6.379410e+001 6.770361e+001 6.360218e+001 4.706466e+001 3.992528e+001 3.607700e+001 3.559709e+001 3.830213e+001 2.629377e+001 6.503201e+000 9.353091e+000 5.900926e+000 8.813379e+000 8.102136e+000 7.364223e+000 5.466487e+000 5.343838e+000 4.492578e+000 4.717035e+000 5.257955e+000 2.822376e+000 1.054330e+001
<GCONST> 1.161999e+002
<STATE> 4
<MEAN> 25
 5.805066e+000 -1.078533e+001 -4.265029e+000 -7.803305e+000 4.194746e+000 5.808231e-001 4.200301e-001 -8.842225e-002 3.146202e-001 -9.905148e-001 -1.684434e+000 -1.171378e+000 1.142669e-001 1.689102e-001 9.912985e-002 1.946858e-001 -8.691525e-002 -2.054532e-001 -3.824952e-002 -8.876233e-002 -1.420987e-001 -2.184342e-001 -8.656479e-002 9.261043e-002 4.034327e-002
<VARIANCE> 25
 5.606783e+001 9.580058e+001 5.353707e+001 1.100798e+002 9.231953e+001 5.590877e+001 5.114014e+001 4.618810e+001 3.629951e+001 7.514665e+001 3.934431e+001 2.832535e+001 1.619644e+000 3.040069e+000 1.942839e+000 3.654491e+000 3.071719e+000 3.008769e+000 3.002900e+000 2.494355e+000 2.219618e+000 2.470496e+000 1.983609e+000 1.845075e+000 3.768430e+000
<GCONST> 1.065784e+002
<TRANSP> 5
 0.000000e+000 1.000000e+000 0.000000e+000 0.000000e+000 0.000000e+000
 0.000000e+000 6.639813e-001 3.360187e-001 0.000000e+000 0.000000e+000
 0.000000e+000 0.000000e+000 6.136923e-001 3.863077e-001 0.000000e+000
 0.000000e+000 0.000000e+000 0.000000e+000 7.727394e-001 2.272606e-001
 0.000000e+000 0.000000e+000 0.000000e+000 0.000000e+000 0.000000e+000
<ENDHMM>
~h "r"
<BEGINHMM>
<NUMSTATES> 5
<STATE> 2
<MEAN> 25
 7.828394e+000 -8.802636e+000 -3.886556e+000 -2.599248e+000 -1.008669e+000 2.404856e+000 -2.444372e+000 2.860492e+000 -3.547251e-001 -4.520365e+000 -3.519032e+000 1.193894e+000 -1.002490e-001 -2.027678e-001 -2.006370e-001 8.601500e-002 1.287962e-001 1.094285e-001 1.890387e-001 -6.751333e-002 7.865790e-002 -2.392632e-002 4.924496e-002 1.573072e-001 -1.334989e-001
<VARIANCE> 25
 5.390851e+001 7.058154e+001 4.126104e+001 4.553576e+001 5.546428e+001 7.717882e+001 7.516387e+001 5.464884e+001 4.719037e+001 5.111866e+001 6.852709e+001 3.474313e+001 7.720172e-001 1.410999e+000 1.699823e+000 1.669818e+000 2.766903e+000 2.443045e+000 2.648753e+000 2.448456e+000 2.322027e+000 2.541490e+000 2.387199e+000 1.755436e+000 7.723978e-001
<GCONST> 1.018345e+002
<STATE> 3
<MEAN> 25
 5.891865e+000 -7.067091e+000 -4.943757e+000 -1.641676e+000 1.659672e+000 9.983099e-001 -1.281440e+000 1.117673e+000 -2.784999e-002 -5.371005e+000 -2.123864e+000 6.825725e-001 -2.000251e-001 5.502426e-002 -6.302487e-002 1.405052e-001 1.852432e-001 -2.458456e-001 1.341536e-001 -1.013141e-001 1.830777e-001 2.594116e-001 1.636547e-001 -2.569520e-001 -3.383253e-001
<VARIANCE> 25
 5.920911e+001 7.696364e+001 3.552393e+001 3.316571e+001 4.926450e+001 5.695974e+001 5.414751e+001 4.448926e+001 3.359309e+001 5.479193e+001 4.690244e+001 3.287683e+001 6.382541e-001 1.127197e+000 1.317015e+000 1.374821e+000 2.694610e+000 2.207024e+000 2.264418e+000 2.291781e+000 2.047189e+000 2.075633e+000 1.963380e+000 2.004635e+000 6.604804e-001
<GCONST> 9.812430e+001
<STATE> 4
<MEAN> 25
 -3.017606e+000 -2.590277e-001 -3.218842e+000 1.757622e+000 3.168434e-001 1.295112e-001 2.344167e+000 1.674432e+000 1.339423e+000 1.246992e+000 1.040597e+000 1.556110e+000 -9.656095e-002 3.674984e-002 3.406690e-002 1.395113e-002 -9.880285e-003 1.820946e-002 4.499421e-002 5.487409e-003 4.649181e-002 5.791730e-002 -2.568022e-005 -2.511776e-003 -1.152993e-001
<VARIANCE> 25
 1.005989e+002 4.308153e+001 3.363742e+001 2.544903e+001 1.781907e+001 4.476437e+001 1.899519e+001 2.455503e+001 2.026531e+001 2.837753e+001 1.872361e+001 1.801451e+001 2.298685e-001 3.927543e-001 4.738517e-001 6.124256e-001 7.601072e-001 8.649116e-001 9.865784e-001 9.851440e-001 1.010447e+000 9.945624e-001 9.310574e-001 9.116869e-001 1.580662e-001
<GCONST> 7.998213e+001
<TRANSP> 5
 0.000000e+000 1.000000e+000 0.000000e+000 0.000000e+000 0.000000e+000
 0.000000e+000 7.270492e-001 2.729508e-001 0.000000e+000 0.000000e+000
 0.000000e+000 0.000000e+000 5.931633e-001 4.068367e-001 0.000000e+000
 0.000000e+000 0.000000e+000 0.000000e+000 9.443209e-001 5.567916e-002
 0.000000e+000 0.000000e+000 0.000000e+000 0.000000e+000 0.000000e+000
<ENDHMM>
~h "s"
<BEGINHMM>
<NUMSTATES> 5
<STATE> 2
<MEAN> 25
 -8.082681e+000 1.599239e+000 -2.656023e+000 3.884574e+000 2.916271e+000 -5.018070e-001 6.289390e+000 -9.556524e-003 -3.057754e-001 7.966036e-001 5.765219e-001 2.628692e-002 -1.561140e+000 5.515269e-001 -2.388510e-001 -4.345707e-002 2.848872e-001 -2.738425e-001 8.598951e-001 3.369665e-001 1.519785e-001 4.888072e-001 4.077335e-001 -7.734025e-002 3.378726e-001
<VARIANCE> 25
 7.592314e+001 3.901886e+001 4.680687e+001 2.746535e+001 3.331045e+001 3.934723e+001 4.068382e+001 3.251206e+001 3.513949e+001 4.378540e+001 3.488699e+001 2.228791e+001 3.507621e+000 3.593841e+000 3.349138e+000 2.534038e+000 2.851963e+000 3.683210e+000 3.336004e+000 2.629246e+000 2.912472e+000 2.674365e+000 2.296577e+000 2.158238e+000 2.252004e+000
<GCONST> 1.031214e+002
<STATE> 3
<MEAN> 25
 -1.335278e+001 1.522675e+000 -3.602000e+000 -1.018682e-001 3.397447e+000 -3.375576e+000 7.279158e+000 3.033211e+000 2.206249e+000 1.770799e+000 2.892994e+000 1.051741e-002 1.703435e-001 -5.595683e-001 -1.059944e-001 -6.059857e-001 -1.968912e-001 -7.173739e-002 -4.326229e-001 1.249402e-001 1.587986e-001 -3.173211e-001 -4.909683e-002 -9.232568e-003 1.200817e+000
<VARIANCE> 25
 1.303624e+002 7.794733e+001 8.099117e+001 5.358493e+001 5.124928e+001 6.920887e+001 7.951346e+001 6.155527e+001 4.187907e+001 4.341697e+001 4.029937e+001 2.660272e+001 1.135802e+001 5.288228e+000 4.449091e+000 3.351484e+000 3.545523e+000 3.912169e+000 5.378521e+000 4.938548e+000 3.992322e+000 4.848114e+000 4.176362e+000 2.410944e+000 3.325902e+000
<GCONST> 1.138825e+002
<STATE> 4
<MEAN> 25
 -1.516877e+001 -3.822202e-001 7.075144e-001 -4.192052e-001 1.377676e+000 5.844759e-001 6.719835e+000 5.863300e-001 2.296453e+000 3.902137e+000 2.623296e+000 4.608700e-001 4.658358e-001 -1.450219e-001 1.162686e-001 -2.353987e-002 -9.098866e-002 -3.548408e-002 -1.987239e-001 1.968468e-003 4.526259e-002 -4.024230e-002 -5.338665e-002 1.406633e-002 -8.084112e-002
<VARIANCE> 25
 8.736732e+001 9.313532e+001 1.043447e+002 6.125230e+001 3.465232e+001 5.521296e+001 5.289242e+001 4.291103e+001 2.686344e+001 2.687538e+001 2.511182e+001 1.971029e+001 2.693110e+000 1.542839e+000 1.599640e+000 1.564751e+000 1.547698e+000 1.976934e+000 1.923903e+000 1.964702e+000 1.910949e+000 1.866470e+000 1.656868e+000 1.536324e+000 1.048756e+000
<GCONST> 9.882762e+001
<TRANSP> 5
 0.000000e+000 1.000000e+000 0.000000e+000 0.000000e+000 0.000000e+000
 0.000000e+000 7.530685e-001 2.469315e-001 0.000000e+000 0.000000e+000
 0.000000e+000 0.000000e+000 6.998260e-001 3.001740e-001 0.000000e+000
 0.000000e+000 0.000000e+000 0.000000e+000 8.445191e-001 1.554809e-001
 0.000000e+000 0.000000e+000 0.000000e+000 0.000000e+000 0.000000e+000
<ENDHMM>
~h "t"
<BEGINHMM>
<NUMSTATES> 5
<STATE> 2
<MEAN> 25
 -3.008813e+000 1.634238e+000 9.275329e-001 3.194355e+000 1.969690e+000 1.487141e+000 2.054587e+000 -8.472422e-001 1.017563e+000 1.766116e+000 1.240794e-001 3.120821e-001 -3.400350e-001 -4.228379e-001 2.504562e-002 -4.332221e-001 6.479978e-002 -2.127111e-001 2.486837e-001 1.164783e-001 2.316077e-001 3.826546e-001 1.466855e-001 -7.965578e-002 6.252177e-001
<VARIANCE> 25
 5.377606e+001 3.844371e+001 4.905698e+001 4.497046e+001 3.710451e+001 3.165848e+001 4.023139e+001 3.313474e+001 3.518484e+001 3.574813e+001 3.623611e+001 2.494203e+001 2.583388e+000 3.399004e+000 3.160600e+000 4.829490e+000 3.334543e+000 4.764151e+000 4.428476e+000 3.724830e+000 3.535003e+000 3.216311e+000 3.063126e+000 2.320074e+000 6.705700e+000
<GCONST> 1.062492e+002
<STATE> 3
<MEAN> 25
 1.576114e-001 -1.874075e+000 1.287062e+000 -8.794346e-001 5.686078e-001 -1.504906e+000 -1.058856e+000 -1.237156e+000 4.813143e-001 1.256793e+000 9.265295e-001 -7.648659e-001 1.492273e+000 -7.600088e-002 -4.544118e-002 -8.046596e-001 -4.720045e-001 -6.208987e-001 -1.116821e+000 -2.177283e-001 -7.293808e-001 -6.041012e-001 7.695370e-002 -3.733795e-001 1.834952e+000
<VARIANCE> 25
 7.338969e+001 8.366517e+001 7.521833e+001 8.011153e+001 5.605227e+001 8.579364e+001 9.673790e+001 5.748154e+001 5.647283e+001 5.891530e+001 5.512766e+001 4.219273e+001 7.066117e+000 8.506526e+000 5.497348e+000 6.725023e+000 5.431934e+000 8.884463e+000 1.067890e+001 6.896149e+000 6.528275e+000 6.123044e+000 5.417175e+000 4.069071e+000 7.919322e+000
<GCONST> 1.210694e+002
<STATE> 4
<MEAN> 25
 2.219584e+000 -7.148736e-001 1.178965e+000 -7.729373e-001 -6.548056e-001 1.075952e+000 8.743226e-001 -1.472209e+000 -1.806964e+000 4.700964e-001 5.274632e-001 -1.521528e+000 -1.211450e-001 1.095580e-001 -8.116025e-002 -7.398562e-002 -1.244382e-001 2.433415e-002 5.832549e-002 4.910374e-002 -4.010493e-002 2.669484e-002 3.816864e-002 3.412979e-002 -1.441547e-001
<VARIANCE> 25
 7.749381e+001 8.077988e+001 7.710275e+001 8.759889e+001 8.242587e+001 5.524732e+001 8.904217e+001 6.135664e+001 5.620166e+001 5.525027e+001 5.535727e+001 4.394268e+001 1.354908e+000 2.387018e+000 1.912739e+000 2.100522e+000 2.473778e+000 2.581623e+000 2.972118e+000 2.759426e+000 2.720329e+000 2.591396e+000 2.315406e+000 1.995931e+000 1.730436e+000
<GCONST> 1.069288e+002
<TRANSP> 5
 0.000000e+000 1.000000e+000 0.000000e+000 0.000000e+000 0.000000e+000
 0.000000e+000 5.047094e-001 4.952905e-001 0.000000e+000 0.000000e+000
 0.000000e+000 0.000000e+000 6.266259e-001 3.733740e-001 0.000000e+000
 0.000000e+000 0.000000e+000 0.000000e+000 6.841913e-001 3.158087e-001
 0.000000e+000 0.000000e+000 0.000000e+000 0.000000e+000 0.000000e+000
<ENDHMM>
~h "y"
<BEGINHMM>
<NUMSTATES> 5
<STATE> 2
<MEAN> 25
 -2.255929e+000 1.711789e+000 1.711032e+000 3.761862e+000 3.977189e+000 1.316566e+000 7.905512e-001 8.514567e-002 -2.336019e+000 -4.707160e+000 -2.661522e+000 1.355894e+000 -8.925492e-001 7.686421e-002 2.012031e-001 7.123788e-002 -9.383930e-002 6.582943e-001 6.332945e-001 6.007763e-002 2.219267e-001 6.905485e-001 6.503334e-001 1.784801e-001 -7.162843e-001
<VARIANCE> 25
 1.796284e+001 2.541131e+001 3.711915e+001 2.457075e+001 1.974328e+001 2.385628e+001 3.545320e+001 1.561067e+001 1.787255e+001 2.578764e+001 2.725550e+001 2.410635e+001 3.148379e-001 5.144573e-001 1.674350e+000 8.852997e-001 6.714439e-001 1.516899e+000 1.552981e+000 1.554273e+000 1.295544e+000 1.304034e+000 1.214285e+000 1.762921e+000 1.817307e-001
<GCONST> 8.303111e+001
<STATE> 3
<MEAN> 25
 -6.297604e+000 4.130126e+000 4.052489e+000 2.736092e+000 3.119384e+000 4.246629e+000 2.656261e+000 -1.182617e+000 -1.260321e+000 8.726144e-001 5.626001e-001 5.620868e-001 -5.398446e-001 -1.086824e-001 6.762899e-002 -3.256314e-002 -3.338304e-002 1.894612e-001 2.236355e-002 -2.468581e-001 6.175563e-002 5.717546e-001 3.298959e-001 -1.734930e-001 -3.603638e-001
<VARIANCE> 25
 1.570666e+001 3.012591e+001 2.097485e+001 1.471765e+001 1.670488e+001 2.357214e+001 2.103677e+001 1.483741e+001 1.423198e+001 1.783153e+001 1.791087e+001 1.743149e+001 2.368730e-001 3.557564e-001 8.138268e-001 8.584160e-001 7.127172e-001 8.291218e-001 1.020859e+000 9.143758e-001 1.000011e+000 1.420509e+000 9.861019e-001 9.810714e-001 7.632597e-002
<GCONST> 7.515594e+001
<STATE> 4
<MEAN> 25
 -2.518173e+000 1.228028e+000 9.601759e-001 4.230826e-002 4.544424e-001 1.578544e+000 4.956485e-001 -5.195454e-001 -2.516066e-002 1.010586e+000 6.426265e-001 2.146821e-001 -8.559212e-003 1.881914e-003 3.286303e-003 -5.201814e-003 -1.409120e-003 -2.520888e-003 3.090890e-003 7.909781e-003 8.310505e-003 1.721997e-002 3.856877e-003 -6.304531e-003 -6.533489e-003
<VARIANCE> 25
 4.831490e+001 2.087442e+001 2.215228e+001 1.492968e+001 1.684178e+001 2.082864e+001 1.977267e+001 1.907043e+001 2.224816e+001 3.401709e+001 1.795271e+001 1.799402e+001 3.584353e-001 4.453965e-001 5.438345e-001 6.928809e-001 7.424224e-001 8.149278e-001 1.062476e+000 9.741985e-001 1.072670e+000 1.209358e+000 1.026811e+000 8.726920e-001 2.443500e-001
<GCONST> 7.832655e+001
<TRANSP> 5
 0.000000e+000 1.000000e+000 0.000000e+000 0.000000e+000 0.000000e+000
 0.000000e+000 6.040702e-001 3.959298e-001 0.000000e+000 0.000000e+000
 0.000000e+000 0.000000e+000 7.333207e-001 2.666793e-001 0.000000e+000
 0.000000e+000 0.000000e+000 0.000000e+000 9.921799e-001 7.820125e-003
 0.000000e+000 0.000000e+000 0.000000e+000 0.000000e+000 0.000000e+000
<ENDHMM>
~h "aa"
<BEGINHMM>
<NUMSTATES> 5
<STATE> 2
<MEAN> 25
 5.715845e+000 -6.182557e+000 -4.654244e+000 -1.440670e+000 2.098222e+000 -3.841438e-001 8.084984e-001 9.440731e-001 3.089705e-002 -3.279707e+000 -3.459211e+000 2.374753e-001 -1.215397e-001 1.493364e-001 -1.096107e-001 2.260178e-001 3.700522e-001 2.372291e-001 1.020411e-001 9.140299e-002 1.311340e-001 5.846343e-003 -1.744029e-002 1.205989e-001 -3.961727e-001
<VARIANCE> 25
 5.421760e+001 8.217061e+001 5.372755e+001 5.498953e+001 6.878855e+001 5.198147e+001 5.316248e+001 4.669022e+001 4.189959e+001 5.561996e+001 5.232777e+001 3.471695e+001 1.576203e+000 3.464006e+000 2.380858e+000 2.787992e+000 3.215129e+000 3.040040e+000 3.054330e+000 2.761662e+000 2.958384e+000 2.837622e+000 2.684484e+000 2.261603e+000 2.900271e+000
<GCONST> 1.065955e+002
<STATE> 3
<MEAN> 25
 3.018472e+000 -3.666807e+000 -4.427053e+000 8.233529e-001 4.024949e+000 1.156529e+000 2.023561e+000 1.004012e+000 2.244383e-001 -2.620975e+000 -2.389521e+000 9.791680e-001 -6.182135e-001 4.198220e-001 1.410216e-001 3.079270e-001 1.043168e-002 2.186320e-001 1.970614e-001 7.751232e-002 9.176671e-002 3.597988e-001 3.386180e-001 7.266743e-002 -1.017807e+000
<VARIANCE> 25
 5.453865e+001 5.795096e+001 3.882048e+001 4.043811e+001 5.200985e+001 4.298152e+001 4.335730e+001 3.715488e+001 3.479837e+001 5.023792e+001 3.923342e+001 2.781808e+001 1.142813e+000 1.865820e+000 1.879792e+000 1.944729e+000 2.374347e+000 2.312980e+000 2.458880e+000 2.205621e+000 2.353865e+000 2.470500e+000 2.290000e+000 1.968807e+000 1.185601e+000
<GCONST> 9.980664e+001
<STATE> 4
<MEAN> 25
 -4.336449e+000 1.047516e+000 -2.319427e+000 3.438066e+000 1.934800e+000 1.354162e+000 3.603026e+000 1.731637e+000 1.805532e+000 1.626518e+000 5.468612e-001 1.591645e+000 -1.849259e-001 7.763075e-002 1.036755e-001 2.551192e-002 -4.754830e-002 2.280976e-002 3.513429e-002 -9.618185e-003 3.924890e-002 1.055453e-001 5.087537e-002 -3.916141e-003 -1.997048e-001
<VARIANCE> 25
 4.512354e+001 2.826294e+001 2.681563e+001 2.944928e+001 2.023502e+001 2.517981e+001 2.064647e+001 2.170303e+001 2.270785e+001 2.745014e+001 2.193101e+001 1.834913e+001 3.367834e-001 5.002928e-001 6.441336e-001 7.352830e-001 9.120727e-001 1.035419e+000 1.162236e+000 1.224630e+000 1.253305e+000 1.263698e+000 1.180933e+000 1.074809e+000 2.345149e-001
<GCONST> 8.155612e+001
<TRANSP> 5
 0.000000e+000 1.000000e+000 0.000000e+000 0.000000e+000 0.000000e+000
 0.000000e+000 7.035248e-001 2.964752e-001 0.000000e+000 0.000000e+000
 0.000000e+000 0.000000e+000 5.977011e-001 4.022989e-001 0.000000e+000
 0.000000e+000 0.000000e+000 0.000000e+000 9.285160e-001 7.148398e-002
 0.000000e+000 0.000000e+000 0.000000e+000 0.000000e+000 0.000000e+000
<ENDHMM>
~h "eu"
<BEGINHMM>
<NUMSTATES> 5
<STATE> 2
<MEAN> 25
 -4.767283e+000 1.601460e+000 1.052669e+000 1.520651e+000 1.720294e+000 -1.083050e+000 3.354913e+000 1.224953e+000 1.660172e+000 1.939720e+000 7.606427e-001 4.557121e-001 1.967633e+000 -6.098605e-001 4.200669e-001 -9.978455e-001 -3.094109e-001 -1.047396e+000 -1.416527e+000 -1.110979e-001 -3.234605e-001 -8.378862e-001 -2.317788e-001 -4.660494e-001 2.330739e+000
<VARIANCE> 25
 9.538604e+001 7.956818e+001 7.030276e+001 5.505685e+001 4.243727e+001 7.778685e+001 6.050610e+001 4.732127e+001 4.385500e+001 3.737122e+001 3.919920e+001 2.849010e+001 1.003606e+001 8.144737e+000 6.560537e+000 7.013730e+000 4.972274e+000 6.289100e+000 7.649063e+000 5.699491e+000 5.448291e+000 5.623001e+000 4.593955e+000 3.216821e+000 5.615880e+000
<GCONST> 1.169154e+002
<STATE> 3
<MEAN> 25
 4.566298e+000 -2.152399e+000 2.629717e+000 -3.600962e+000 -5.973307e-002 -4.514074e+000 -5.087735e+000 1.274244e+000 1.168879e-001 -2.877923e+000 3.929836e-001 -1.398517e+000 2.117589e+000 -1.308546e+000 -2.085244e-001 -1.669997e+000 -5.480032e-001 -4.732389e-001 -1.962117e+000 3.420943e-001 -1.823606e-001 -1.088147e+000 8.408286e-002 -2.271304e-001 2.490706e+000
<VARIANCE> 25
 6.047992e+001 9.666875e+001 8.848022e+001 9.388812e+001 7.710446e+001 9.565847e+001 8.845669e+001 7.367039e+001 7.794657e+001 6.787605e+001 5.342719e+001 3.873535e+001 6.833668e+000 1.066735e+001 6.817508e+000 9.051727e+000 6.283496e+000 7.101063e+000 9.742175e+000 8.450612e+000 8.812919e+000 7.067677e+000 5.870211e+000 4.967410e+000 7.168999e+000
<GCONST> 1.236369e+002
<STATE> 4
<MEAN> 25
 9.010851e+000 -1.199916e+001 6.297447e+000 -1.234418e+001 1.517692e-001 9.381669e-001 -9.079878e+000 2.531689e+000 -6.193190e-001 9.781559e-001 2.681554e+000 -4.626135e+000 1.044182e-001 1.884203e-001 -1.266087e-001 2.251455e-001 4.306206e-002 1.118490e-001 1.633462e-001 -5.967880e-002 -8.951798e-002 -5.073992e-003 -1.734305e-001 1.152334e-002 -2.284516e-001
<VARIANCE> 25
 5.227644e+001 1.310082e+002 7.651945e+001 1.062221e+002 6.096240e+001 6.927203e+001 7.312946e+001 6.386901e+001 8.249482e+001 1.041295e+002 7.798681e+001 5.223188e+001 8.382804e-001 2.555510e+000 1.753520e+000 2.737463e+000 2.037238e+000 2.099237e+000 2.782808e+000 2.657680e+000 2.520533e+000 2.087486e+000 2.402485e+000 1.980888e+000 1.510876e+000
<GCONST> 1.073675e+002
<TRANSP> 5
 0.000000e+000 1.000000e+000 0.000000e+000 0.000000e+000 0.000000e+000
 0.000000e+000 6.323087e-001 3.676912e-001 0.000000e+000 0.000000e+000
 0.000000e+000 0.000000e+000 6.514481e-001 3.485519e-001 0.000000e+000
 0.000000e+000 0.000000e+000 0.000000e+000 8.908875e-001 1.091124e-001
 0.000000e+000 0.000000e+000 0.000000e+000 0.000000e+000 0.000000e+000
<ENDHMM>
~h "hh"
<BEGINHMM>
<NUMSTATES> 5
<STATE> 2
<MEAN> 25
 7.817979e-001 -9.750487e-001 -4.965752e+000 -2.654441e-001 2.779723e+000 3.537761e+000 3.483226e+000 -1.305788e-001 6.997180e-001 2.010421e+000 7.894704e-001 1.439612e-002 -5.935020e-001 1.270928e-002 -1.654188e-001 7.397201e-002 3.240485e-001 4.448257e-001 5.849420e-001 3.778332e-001 5.519063e-001 5.448169e-001 2.599477e-001 2.460575e-001 -7.510222e-001
<VARIANCE> 25
 3.960921e+001 4.443031e+001 5.950830e+001 4.569632e+001 6.096214e+001 4.977013e+001 6.881731e+001 4.746964e+001 4.407959e+001 4.419345e+001 4.342043e+001 3.154600e+001 9.943625e-001 2.014088e+000 2.261410e+000 2.297591e+000 2.946405e+000 2.873496e+000 2.751793e+000 2.918022e+000 3.016598e+000 2.569009e+000 2.618942e+000 2.445278e+000 7.724065e-001
<GCONST> 1.024422e+002
<STATE> 3
<MEAN> 25
 -1.861834e+000 -5.832663e-001 -4.708972e+000 6.196618e-001 2.754273e+000 3.522029e+000 4.725741e+000 8.999295e-001 2.267018e+000 3.725215e+000 1.658411e+000 1.444770e+000 -4.820077e-001 -1.555405e-001 -2.633789e-002 6.603032e-002 -1.857205e-001 -3.709653e-002 1.937453e-001 1.663007e-001 2.097101e-001 3.004350e-001 1.687620e-001 2.789714e-001 -4.296295e-001
<VARIANCE> 25
 3.494918e+001 3.770498e+001 5.531684e+001 4.277803e+001 3.595996e+001 3.701277e+001 4.523013e+001 4.320320e+001 4.344897e+001 4.340226e+001 4.139285e+001 3.209428e+001 1.048032e+000 1.734499e+000 2.907520e+000 2.618763e+000 2.523537e+000 3.031213e+000 2.916642e+000 3.004643e+000 2.951133e+000 2.715069e+000 2.600450e+000 2.448638e+000 8.210915e-001
<GCONST> 1.009729e+002
<STATE> 4
<MEAN> 25
 -4.805422e+000 3.355357e-001 -2.443766e+000 2.864018e+000 1.189772e+000 2.314656e+000 3.986234e+000 2.153957e+000 2.510562e+000 3.855417e+000 1.840387e+000 1.360512e+000 -1.362589e-001 2.918261e-002 7.540837e-002 4.401149e-002 -2.726207e-002 -4.518803e-006 -1.628739e-003 3.409291e-003 -7.926062e-003 -1.114268e-003 -1.326167e-002 -2.628292e-003 -1.209583e-001
<VARIANCE> 25
 2.036186e+001 2.057885e+001 2.923337e+001 3.039955e+001 2.053564e+001 2.213670e+001 1.893018e+001 2.573405e+001 2.499386e+001 2.513433e+001 2.500378e+001 1.671280e+001 3.421279e-001 5.086867e-001 7.988432e-001 9.322302e-001 1.089387e+000 1.176920e+000 1.330677e+000 1.455742e+000 1.445895e+000 1.468500e+000 1.422920e+000 1.223471e+000 1.883944e-001
<GCONST> 8.206525e+001
<TRANSP> 5
 0.000000e+000 1.000000e+000 0.000000e+000 0.000000e+000 0.000000e+000
 0.000000e+000 5.265267e-001 4.734733e-001 0.000000e+000 0.000000e+000
 0.000000e+000 0.000000e+000 4.712473e-001 5.287527e-001 0.000000e+000
 0.000000e+000 0.000000e+000 0.000000e+000 9.134048e-001 8.659521e-002
 0.000000e+000 0.000000e+000 0.000000e+000 0.000000e+000 0.000000e+000
<ENDHMM>
~h "ih"
<BEGINHMM>
<NUMSTATES> 5
<STATE> 2
<MEAN> 25
 -1.774929e-001 1.487030e+000 6.963458e+000 -1.567594e-001 -1.212392e+000 -1.488700e+000 -1.450279e+000 -1.983933e+000 2.558874e-001 -4.191878e-001 -4.295981e-003 -1.542693e+000 5.627417e-001 -6.284746e-002 1.797681e+000 -1.159374e+000 -1.007652e+000 -7.488635e-001 -1.740689e+000 -5.340862e-001 -1.550787e-001 -7.366185e-001 -1.826955e-001 -1.556259e-001 2.064097e+000
<VARIANCE> 25
 7.728379e+001 9.937302e+001 8.358961e+001 8.586361e+001 9.175979e+001 6.797246e+001 8.944954e+001 6.228115e+001 5.614815e+001 5.583432e+001 4.970582e+001 3.636158e+001 5.954518e+000 9.813011e+000 7.911129e+000 1.029956e+001 9.099885e+000 7.057183e+000 9.475616e+000 6.738507e+000 6.068990e+000 6.466589e+000 5.317161e+000 4.217978e+000 6.207233e+000
<GCONST> 1.220786e+002
<STATE> 3
<MEAN> 25
 2.577114e+000 3.503181e+000 1.244243e+001 -3.992647e+000 -4.951971e+000 -3.554340e+000 -8.220916e+000 -3.568075e+000 -5.052693e-001 -3.311653e+000 -1.507629e+000 -9.388733e-001 2.797488e-001 3.524289e-001 7.718431e-001 -5.400274e-001 -4.667873e-001 -9.503417e-002 -1.234490e+000 1.767121e-001 -6.889713e-003 -6.118740e-001 -2.091480e-001 4.136361e-001 5.012792e-001
<VARIANCE> 25
 4.090417e+001 1.141346e+002 1.085321e+002 1.365309e+002 1.313774e+002 7.210237e+001 9.033765e+001 7.471541e+001 6.290748e+001 5.599638e+001 5.754178e+001 4.532297e+001 2.656266e+000 5.144389e+000 5.196553e+000 7.249472e+000 5.461641e+000 6.322111e+000 8.374873e+000 5.277716e+000 4.887612e+000 4.286881e+000 4.310369e+000 4.318472e+000 2.629187e+000
<GCONST> 1.185130e+002
<STATE> 4
<MEAN> 25
 3.466032e+000 4.449011e+000 1.525649e+001 -3.100207e+000 -6.329365e+000 -3.696027e+000 -9.918829e+000 -3.201274e+000 -1.511941e+000 -6.092571e+000 -1.511025e+000 -7.028351e-001 8.395248e-002 7.397922e-002 -4.543283e-001 4.050512e-001 2.336570e-001 1.291138e-001 3.624650e-001 -7.535394e-002 -6.596745e-002 1.535026e-001 4.298430e-002 -5.022393e-002 -5.325000e-001
<VARIANCE> 25
 2.310320e+001 9.321094e+001 1.011232e+002 1.590774e+002 1.103422e+002 6.664806e+001 5.791636e+001 8.064724e+001 7.040262e+001 5.874950e+001 7.190268e+001 5.438517e+001 6.133323e-001 1.390526e+000 1.758453e+000 2.776956e+000 2.297199e+000 2.316856e+000 2.693300e+000 2.591954e+000 2.468684e+000 2.289917e+000 2.222897e+000 2.077449e+000 7.126845e-001
<GCONST> 1.052236e+002
<TRANSP> 5
 0.000000e+000 1.000000e+000 0.000000e+000 0.000000e+000 0.000000e+000
 0.000000e+000 7.253006e-001 2.746995e-001 0.000000e+000 0.000000e+000
 0.000000e+000 0.000000e+000 5.372741e-001 4.627259e-001 0.000000e+000
 0.000000e+000 0.000000e+000 0.000000e+000 9.218981e-001 7.810193e-002
 0.000000e+000 0.000000e+000 0.000000e+000 0.000000e+000 0.000000e+000
<ENDHMM>
~h "jh"
<BEGINHMM>
<NUMSTATES> 5
<STATE> 2
<MEAN> 25
 1.670212e+000 6.162129e+000 7.202364e+000 4.279129e+000 1.958281e+000 4.556849e-001 -2.363104e-001 -2.573081e+000 -7.517329e-001 1.460636e-001 -4.078782e-001 -6.113382e-001 -1.321658e+000 -2.912149e-001 1.647048e-001 -1.830859e-001 5.549336e-001 2.040082e-001 1.060541e+000 1.495804e-001 3.256059e-001 4.661379e-001 2.190739e-001 -8.727080e-002 9.625386e-002
<VARIANCE> 25
 4.320063e+001 4.080300e+001 5.934495e+001 3.772183e+001 6.753751e+001 4.113820e+001 4.739642e+001 2.890107e+001 3.553970e+001 3.154162e+001 2.915387e+001 2.317126e+001 3.915909e+000 3.910684e+000 3.369580e+000 4.978086e+000 4.759756e+000 3.951817e+000 4.092449e+000 2.251159e+000 3.237279e+000 2.630565e+000 1.851118e+000 1.986268e+000 4.118486e+000
<GCONST> 1.053877e+002
<STATE> 3
<MEAN> 25
 -6.705221e+000 2.503448e+000 6.374071e+000 -1.066154e+000 -2.141681e+000 -3.533189e+000 2.973487e+000 -1.022704e+000 -1.323456e+000 1.136452e+000 2.410871e+000 -2.280353e+000 4.348359e-001 -6.991862e-001 -6.864390e-001 -3.720700e-001 -7.887667e-001 -7.754261e-001 -8.726288e-002 4.956259e-001 -1.547589e-001 -3.263367e-001 1.443515e-001 1.598235e-001 1.238177e+000
<VARIANCE> 25
 1.149372e+002 6.162487e+001 7.092927e+001 7.978793e+001 1.016295e+002 8.025113e+001 7.224962e+001 3.814598e+001 4.380864e+001 4.792648e+001 3.508456e+001 2.635281e+001 1.423399e+001 5.251903e+000 4.852916e+000 4.739930e+000 7.432007e+000 7.438978e+000 9.180774e+000 4.785256e+000 4.848457e+000 5.876015e+000 4.009302e+000 2.993166e+000 4.501492e+000
<GCONST> 1.174442e+002
<STATE> 4
<MEAN> 25
 -7.744415e+000 3.697153e+000 1.585552e+000 2.047146e+000 1.434672e+000 2.905315e+000 2.885258e+000 -3.883488e-001 -3.919722e-002 2.984571e+000 1.226269e+000 7.249336e-002 -9.288296e-002 -1.307161e-001 -1.001732e-001 -1.234501e-002 3.862801e-002 8.140404e-002 4.078576e-002 6.066111e-002 6.083574e-002 4.430244e-002 8.857385e-003 4.137181e-002 -8.189777e-002
<VARIANCE> 25
 3.764878e+001 1.781004e+001 2.352180e+001 2.279388e+001 1.703569e+001 2.602732e+001 1.767030e+001 2.298257e+001 1.873091e+001 1.952268e+001 1.693787e+001 1.503791e+001 5.483627e-001 6.620896e-001 7.422371e-001 7.892347e-001 1.050463e+000 1.199570e+000 1.251941e+000 1.241392e+000 1.301566e+000 1.357395e+000 1.173213e+000 1.069260e+000 2.402309e-001
<GCONST> 8.077623e+001
<TRANSP> 5
 0.000000e+000 1.000000e+000 0.000000e+000 0.000000e+000 0.000000e+000
 0.000000e+000 6.092651e-001 3.907349e-001 0.000000e+000 0.000000e+000
 0.000000e+000 0.000000e+000 7.155325e-001 2.844675e-001 0.000000e+000
 0.000000e+000 0.000000e+000 0.000000e+000 9.137492e-001 8.625080e-002
 0.000000e+000 0.000000e+000 0.000000e+000 0.000000e+000 0.000000e+000
<ENDHMM>
~h "ng"
<BEGINHMM>
<NUMSTATES> 5
<STATE> 2
<MEAN> 25
 7.911542e+000 7.271311e+000 1.722293e+000 2.315770e+000 -1.172379e+000 -2.942447e+000 -4.165825e+000 -6.742876e+000 -4.733839e+000 -3.135058e+000 -5.270139e+000 -5.621236e+000 -6.479658e-001 3.421739e-001 3.776712e-001 5.243782e-001 1.894061e-001 6.335921e-002 3.187930e-001 -9.302159e-002 -7.516287e-002 1.460911e-001 -5.528739e-002 -8.741808e-003 -6.957038e-001
<VARIANCE> 25
 2.743754e+001 3.115816e+001 3.705072e+001 3.467968e+001 5.212292e+001 3.658358e+001 6.172871e+001 4.624289e+001 4.612017e+001 4.431666e+001 4.160300e+001 4.232561e+001 4.712918e-001 1.097021e+000 1.342296e+000 1.561206e+000 2.104214e+000 2.034540e+000 2.249880e+000 2.594070e+000 2.532490e+000 2.427792e+000 2.249869e+000 2.121903e+000 2.239796e-001
<GCONST> 9.564404e+001
<STATE> 3
<MEAN> 25
 6.923453e-002 6.192017e+000 3.563440e+000 6.309120e+000 2.598409e+000 1.707474e-001 1.746672e-001 -3.452481e+000 -2.190563e+000 -1.062345e+000 -3.360100e+000 -3.372664e+000 -1.038506e+000 -6.452944e-001 -3.488268e-001 5.040833e-002 2.907189e-001 5.966152e-001 8.184920e-001 6.603781e-001 6.206121e-001 5.885722e-001 4.949497e-001 4.615828e-001 -6.396589e-001
<VARIANCE> 25
 2.376047e+001 1.887371e+001 3.334629e+001 2.055079e+001 2.780381e+001 2.798731e+001 3.648759e+001 3.039132e+001 3.494948e+001 3.256243e+001 3.243929e+001 2.712685e+001 3.789901e-001 1.004550e+000 1.617263e+000 1.574956e+000 1.864666e+000 2.100092e+000 2.196143e+000 2.431849e+000 2.122092e+000 2.345987e+000 2.166301e+000 1.988595e+000 1.824740e-001
<GCONST> 9.044166e+001
<STATE> 4
<MEAN> 25
 -6.631909e+000 2.804415e+000 -8.879586e-001 4.464282e+000 1.755240e+000 1.648537e+000 3.604365e+000 1.555804e+000 2.225792e+000 2.688036e+000 5.195791e-001 1.442110e+000 -1.554505e-001 -8.836242e-002 -6.892799e-002 -4.925206e-002 -6.144353e-003 4.372877e-002 5.726625e-002 6.990505e-002 7.954158e-002 8.470711e-002 7.902078e-002 6.901000e-002 -9.373157e-002
<VARIANCE> 25
 2.387930e+001 1.065746e+001 2.278926e+001 1.731032e+001 1.186171e+001 2.068644e+001 1.402579e+001 1.916416e+001 1.879090e+001 1.927743e+001 1.718585e+001 1.664670e+001 3.003197e-001 3.848582e-001 5.444995e-001 6.555483e-001 8.311667e-001 9.765956e-001 1.127437e+000 1.195618e+000 1.245625e+000 1.281861e+000 1.209092e+000 1.058963e+000 1.437046e-001
<GCONST> 7.578629e+001
<TRANSP> 5
 0.000000e+000 1.000000e+000 0.000000e+000 0.000000e+000 0.000000e+000
 0.000000e+000 8.627351e-001 1.372649e-001 0.000000e+000 0.000000e+000
 0.000000e+000 0.000000e+000 7.317203e-001 2.682797e-001 0.000000e+000
 0.000000e+000 0.000000e+000 0.000000e+000 9.675593e-001 3.244074e-002
 0.000000e+000 0.000000e+000 0.000000e+000 0.000000e+000 0.000000e+000
<ENDHMM>
~h "ny"
<BEGINHMM>
<NUMSTATES> 5
<STATE> 2
<MEAN> 25
 7.914310e-001 3.310413e+000 3.609737e+000 2.648934e-001 2.268474e-001 -2.473402e-001 -5.929225e-001 -1.467674e+000 7.385766e-002 1.943958e+000 -6.714655e-001 -1.787420e+000 1.317854e+000 2.261508e-001 1.144267e+000 -1.163309e+000 -6.653287e-001 -5.130313e-001 -9.040633e-001 -5.152059e-001 -6.237441e-001 -4.825642e-001 -2.059225e-001 -6.936042e-001 2.069635e+000
<VARIANCE> 25
 7.835883e+001 9.518724e+001 7.754589e+001 7.843921e+001 5.746564e+001 6.200607e+001 5.677637e+001 4.493437e+001 4.929177e+001 3.706377e+001 4.609824e+001 3.892139e+001 5.942535e+000 9.146843e+000 7.177670e+000 8.416982e+000 5.720970e+000 6.904866e+000 5.946800e+000 4.802348e+000 4.703987e+000 4.291187e+000 5.133084e+000 3.790197e+000 5.929163e+000
<GCONST> 1.174808e+002
<STATE> 3
<MEAN> 25
 5.504064e+000 -3.868007e-001 9.150453e+000 -5.360004e+000 -4.402999e+000 -2.156945e+000 -2.503976e+000 -2.320382e+000 -3.660484e+000 -2.147196e+000 -1.264975e+000 -5.330348e+000 1.521122e-001 -1.807840e+000 -4.264350e-001 1.093307e-002 1.230202e-001 -2.089890e-001 8.301719e-002 6.581329e-001 -2.283200e-001 -5.173249e-001 4.299203e-001 6.836551e-002 1.187056e+000
<VARIANCE> 25
 3.303381e+001 1.043355e+002 8.288450e+001 1.258557e+002 7.489313e+001 8.354053e+001 1.021264e+002 6.724394e+001 4.772377e+001 5.496556e+001 6.450507e+001 5.902982e+001 1.933495e+000 6.225720e+000 5.647039e+000 7.132372e+000 4.667171e+000 6.439697e+000 7.037215e+000 5.515897e+000 3.965654e+000 4.433755e+000 4.685323e+000 3.900038e+000 2.694360e+000
<GCONST> 1.170467e+002
<STATE> 4
<MEAN> 25
 7.259553e+000 -3.632013e+000 5.025633e+000 -6.451906e+000 -3.333538e+000 -6.042193e-001 -2.953363e+000 -4.521646e-001 -5.695417e+000 -3.163449e+000 2.961246e+000 -3.299845e+000 -2.654431e-002 2.334505e-001 -1.816528e-001 1.659727e-001 1.265305e-001 6.591750e-002 1.140516e-001 -7.235638e-002 8.824412e-002 1.077440e-001 -7.629830e-002 1.192264e-001 -3.120691e-001
<VARIANCE> 25
 2.508168e+001 1.235681e+002 1.058485e+002 1.048514e+002 7.771876e+001 8.320567e+001 9.707011e+001 9.350548e+001 6.461168e+001 6.264241e+001 1.021997e+002 6.208856e+001 5.529138e-001 1.985196e+000 2.497889e+000 2.632315e+000 2.278311e+000 2.511572e+000 2.703258e+000 2.569384e+000 2.387269e+000 2.255153e+000 2.669065e+000 2.184354e+000 7.821010e-001
<GCONST> 1.071092e+002
<TRANSP> 5
 0.000000e+000 1.000000e+000 0.000000e+000 0.000000e+000 0.000000e+000
 0.000000e+000 8.192044e-001 1.807956e-001 0.000000e+000 0.000000e+000
 0.000000e+000 0.000000e+000 7.646915e-001 2.353085e-001 0.000000e+000
 0.000000e+000 0.000000e+000 0.000000e+000 9.374091e-001 6.259090e-002
 0.000000e+000 0.000000e+000 0.000000e+000 0.000000e+000 0.000000e+000
<ENDHMM>
~h "uw"
<BEGINHMM>
<NUMSTATES> 5
<STATE> 2
<MEAN> 25
 6.806529e+000 2.005894e+000 4.449356e-001 -2.306233e+000 -2.908814e+000 -1.440892e+000 -3.591335e+000 -1.677086e+000 -2.096689e+000 -1.942649e+000 -9.804198e-002 -1.183585e+000 5.727996e-001 5.405123e-001 1.312539e-001 8.970475e-002 -3.370004e-001 -3.475980e-001 -6.783373e-001 -4.061312e-001 -2.469631e-001 -7.904156e-002 -7.060675e-002 -6.607135e-002 2.439013e-001
<VARIANCE> 25
 6.068353e+001 7.618742e+001 8.420619e+001 8.781636e+001 7.820829e+001 7.911604e+001 9.306458e+001 7.140290e+001 6.879030e+001 6.861799e+001 6.074800e+001 4.046348e+001 3.141011e+000 5.850574e+000 4.069893e+000 5.025582e+000 5.156798e+000 5.895961e+000 7.176785e+000 5.322564e+000 5.610542e+000 4.952741e+000 4.267783e+000 3.217238e+000 2.830184e+000
<GCONST> 1.170642e+002
<STATE> 3
<MEAN> 25
 9.063983e+000 5.379532e+000 1.228257e+000 -3.178218e+000 -5.878469e+000 -3.169594e+000 -7.530068e+000 -4.377052e+000 -2.406452e+000 -8.548113e-001 -9.080244e-001 -1.752792e+000 -1.737640e-002 8.300612e-002 -6.180196e-002 4.119586e-002 8.463147e-002 2.008742e-001 1.650758e-001 -9.513035e-002 1.570788e-002 -5.247416e-002 -1.553929e-001 7.039429e-002 -1.927712e-001
<VARIANCE> 25
 3.610921e+001 5.492390e+001 7.405975e+001 7.898535e+001 8.476949e+001 8.078111e+001 9.610804e+001 8.210531e+001 6.688660e+001 6.675211e+001 6.946046e+001 4.749119e+001 8.670257e-001 2.309776e+000 3.386931e+000 3.927313e+000 4.202330e+000 4.605665e+000 5.113062e+000 4.261909e+000 4.490396e+000 3.911306e+000 3.620775e+000 3.121923e+000 8.863769e-001
<GCONST> 1.110211e+002
<STATE> 4
<MEAN> 25
 7.000898e+000 5.657359e+000 1.031939e+000 -2.569665e+000 -4.441440e+000 -1.983740e+000 -3.434551e+000 -4.886608e+000 -4.617261e+000 -1.606968e+000 9.780083e-001 -1.084638e+000 -4.247989e-001 -8.820813e-002 7.613918e-002 2.622201e-001 2.234458e-001 1.272284e-001 3.419044e-001 1.112260e-001 1.786960e-001 1.500423e-001 -2.109195e-002 1.394302e-002 -4.095968e-001
<VARIANCE> 25
 6.980198e+001 4.383252e+001 4.216347e+001 7.508588e+001 4.813700e+001 5.613166e+001 5.587816e+001 6.538136e+001 5.404902e+001 4.979280e+001 6.086109e+001 3.513047e+001 4.983625e-001 9.055593e-001 1.061361e+000 1.412446e+000 1.525585e+000 1.740081e+000 1.929293e+000 1.929115e+000 1.938459e+000 1.948401e+000 1.891109e+000 1.664853e+000 3.111374e-001
<GCONST> 9.691179e+001
<TRANSP> 5
 0.000000e+000 1.000000e+000 0.000000e+000 0.000000e+000 0.000000e+000
 0.000000e+000 7.353587e-001 2.646414e-001 0.000000e+000 0.000000e+000
 0.000000e+000 0.000000e+000 7.031426e-001 2.968574e-001 0.000000e+000
 0.000000e+000 0.000000e+000 0.000000e+000 8.979797e-001 1.020203e-001
 0.000000e+000 0.000000e+000 0.000000e+000 0.000000e+000 0.000000e+000
<ENDHMM>
~h "sil"
<BEGINHMM>
<NUMSTATES> 5
<STATE> 2
<MEAN> 25
 -9.291653e+000 1.636739e+000 -2.422670e+000 4.514472e+000 1.691264e+000 2.032330e+000 3.952264e+000 2.472288e+000 3.103658e+000 4.047233e+000 1.334663e+000 2.795663e+000 -1.399968e-003 -4.060735e-003 2.365779e-003 -5.696755e-003 -6.588412e-003 -4.484601e-003 -1.213525e-002 -6.614442e-003 -5.611976e-003 5.170675e-003 -1.856352e-003 1.988770e-003 -3.710753e-003
<VARIANCE> 25
 2.946938e+001 8.187407e+000 2.437464e+001 1.412548e+001 1.368717e+001 1.882206e+001 1.233120e+001 1.538871e+001 2.095906e+001 1.603378e+001 1.721032e+001 1.739540e+001 1.155836e-001 2.132378e-001 3.400224e-001 4.919184e-001 6.300401e-001 7.492172e-001 9.047968e-001 1.001701e+000 1.064598e+000 1.033383e+000 9.935169e-001 9.412643e-001 5.601028e-002
<GCONST> 7.039648e+001
<STATE> 3
<MEAN> 25
 -6.143404e+000 3.009384e-001 -3.440878e+000 -1.667482e+000 -2.319298e+000 3.627984e+000 1.059052e-001 -3.418252e-001 1.965315e+000 3.638679e+000 1.017882e+000 1.699066e+000 5.948799e-002 8.958643e-003 -2.388788e-002 1.774982e-002 -3.381822e-002 2.735503e-002 -2.431086e-002 7.219908e-003 -1.737308e-002 -3.490461e-003 -6.814827e-005 -1.459753e-002 -1.632439e-001
<VARIANCE> 25
 5.772122e+001 7.117422e+000 1.939550e+001 1.420251e+001 1.703452e+001 1.848234e+001 1.082108e+001 8.402674e+000 9.609933e+000 6.115983e+000 6.217035e+000 8.895326e+000 4.076040e-001 1.659926e-001 2.926737e-001 3.402236e-001 4.169068e-001 4.996299e-001 5.310107e-001 5.404414e-001 6.005142e-001 5.361192e-001 4.930119e-001 4.748447e-001 2.540478e+000
<GCONST> 6.646194e+001
<STATE> 4
<MEAN> 25
 1.198453e+000 -2.827256e-001 -2.472316e-002 -4.802817e-001 -3.791171e-001 -3.654907e-001 -4.026762e-001 -3.365746e-001 -4.041111e-001 -4.780207e-001 -1.109333e-001 -3.231674e-001 8.479729e-003 6.512019e-004 3.607020e-003 5.015129e-004 1.877419e-003 -1.630841e-004 -1.260521e-004 -3.484946e-004 -9.501564e-004 -1.641947e-003 -8.336219e-004 -2.778607e-003 7.142298e-003
<VARIANCE> 25
 1.044366e+002 8.144101e+001 7.164017e+001 8.651366e+001 4.652826e+001 6.250017e+001 5.753919e+001 5.688266e+001 5.219005e+001 5.588818e+001 4.587888e+001 3.612413e+001 1.213900e+000 1.941224e+000 1.649215e+000 2.316320e+000 1.735490e+000 2.205929e+000 2.261035e+000 2.333286e+000 2.230670e+000 2.205037e+000 1.999209e+000 1.672405e+000 1.818449e+000
<GCONST> 1.037883e+002
<TRANSP> 5
 0.000000e+000 1.000000e+000 0.000000e+000 0.000000e+000 0.000000e+000
 0.000000e+000 9.852148e-001 1.478525e-002 0.000000e+000 0.000000e+000
 0.000000e+000 0.000000e+000 9.569181e-001 4.308192e-002 0.000000e+000
 0.000000e+000 0.000000e+000 0.000000e+000 9.928643e-001 7.135680e-003
 0.000000e+000 0.000000e+000 0.000000e+000 0.000000e+000 0.000000e+000
<ENDHMM>
