~o
<STREAMINFO> 1 25
<VECSIZE> 25<NULLD><MFCC_D_N_Z_0><DIAGC>
~h "proto"
<BEGINHMM>
<NUMSTATES> 5
<STATE> 2
<MEAN> 25
 -7.319267e-008 1.596076e-008 4.327763e-008 6.100401e-008 -1.071510e-009 -1.340241e-008 5.586455e-008 6.363822e-008 1.094268e-008 5.014288e-009 7.076708e-009 1.384619e-008 5.211493e-003 -1.639864e-004 3.007826e-003 -4.535232e-004 5.461916e-004 -1.399442e-004 -9.734031e-005 -5.038507e-004 -4.183327e-004 3.175278e-004 -2.676909e-004 -1.201954e-003 5.667296e-003
<VARIANCE> 25
 8.566238e+001 7.622359e+001 7.237792e+001 9.594890e+001 4.812042e+001 5.939164e+001 6.170684e+001 6.323454e+001 5.836271e+001 6.099905e+001 5.066853e+001 3.936467e+001 1.078778e+000 1.989747e+000 1.743992e+000 2.526626e+000 1.862544e+000 2.335491e+000 2.432160e+000 2.518658e+000 2.381183e+000 2.330091e+000 2.164664e+000 1.761518e+000 1.854721e+000
<GCONST> 1.047788e+002
<STATE> 3
<MEAN> 25
 -7.319267e-008 1.596076e-008 4.327763e-008 6.100401e-008 -1.071510e-009 -1.340241e-008 5.586455e-008 6.363822e-008 1.094268e-008 5.014288e-009 7.076708e-009 1.384619e-008 5.211493e-003 -1.639864e-004 3.007826e-003 -4.535232e-004 5.461916e-004 -1.399442e-004 -9.734031e-005 -5.038507e-004 -4.183327e-004 3.175278e-004 -2.676909e-004 -1.201954e-003 5.667296e-003
<VARIANCE> 25
 8.566238e+001 7.622359e+001 7.237792e+001 9.594890e+001 4.812042e+001 5.939164e+001 6.170684e+001 6.323454e+001 5.836271e+001 6.099905e+001 5.066853e+001 3.936467e+001 1.078778e+000 1.989747e+000 1.743992e+000 2.526626e+000 1.862544e+000 2.335491e+000 2.432160e+000 2.518658e+000 2.381183e+000 2.330091e+000 2.164664e+000 1.761518e+000 1.854721e+000
<GCONST> 1.047788e+002
<STATE> 4
<MEAN> 25
 -7.319267e-008 1.596076e-008 4.327763e-008 6.100401e-008 -1.071510e-009 -1.340241e-008 5.586455e-008 6.363822e-008 1.094268e-008 5.014288e-009 7.076708e-009 1.384619e-008 5.211493e-003 -1.639864e-004 3.007826e-003 -4.535232e-004 5.461916e-004 -1.399442e-004 -9.734031e-005 -5.038507e-004 -4.183327e-004 3.175278e-004 -2.676909e-004 -1.201954e-003 5.667296e-003
<VARIANCE> 25
 8.566238e+001 7.622359e+001 7.237792e+001 9.594890e+001 4.812042e+001 5.939164e+001 6.170684e+001 6.323454e+001 5.836271e+001 6.099905e+001 5.066853e+001 3.936467e+001 1.078778e+000 1.989747e+000 1.743992e+000 2.526626e+000 1.862544e+000 2.335491e+000 2.432160e+000 2.518658e+000 2.381183e+000 2.330091e+000 2.164664e+000 1.761518e+000 1.854721e+000
<GCONST> 1.047788e+002
<TRANSP> 5
 0.000000e+000 1.000000e+000 0.000000e+000 0.000000e+000 0.000000e+000
 0.000000e+000 6.000000e-001 4.000000e-001 0.000000e+000 0.000000e+000
 0.000000e+000 0.000000e+000 6.000000e-001 4.000000e-001 0.000000e+000
 0.000000e+000 0.000000e+000 0.000000e+000 7.000000e-001 3.000000e-001
 0.000000e+000 0.000000e+000 0.000000e+000 0.000000e+000 0.000000e+000
<ENDHMM>
