~o
<STREAMINFO> 1 25
<VECSIZE> 25<NULLD><MFCC_D_N_Z_0><DIAGC>
~h "proto"
<BEGINHMM>
<NUMSTATES> 5
<STATE> 2
<MEAN> 25
 -1.088412e-007 3.240298e-008 1.956557e-008 5.531366e-008 -1.402047e-008 -3.731046e-008 1.976242e-008 5.680401e-008 3.267234e-008 1.109500e-008 2.343835e-008 6.028116e-009 3.243694e-003 -4.013193e-004 3.397278e-003 6.089528e-004 1.087114e-003 7.453977e-005 -5.843627e-004 -8.988050e-004 -5.314710e-004 -2.463007e-004 -5.465019e-004 -1.114679e-003 4.132306e-003
<VARIANCE> 25
 8.943692e+001 8.222128e+001 7.469179e+001 8.904936e+001 5.299388e+001 5.157928e+001 6.582153e+001 5.969685e+001 5.691528e+001 5.810154e+001 5.103717e+001 3.891095e+001 1.195717e+000 2.115147e+000 1.789844e+000 2.446486e+000 2.055826e+000 2.322902e+000 2.646532e+000 2.586893e+000 2.469818e+000 2.395728e+000 2.266719e+000 1.866827e+000 1.727007e+000
<GCONST> 1.051982e+002
<STATE> 3
<MEAN> 25
 -1.088412e-007 3.240298e-008 1.956557e-008 5.531366e-008 -1.402047e-008 -3.731046e-008 1.976242e-008 5.680401e-008 3.267234e-008 1.109500e-008 2.343835e-008 6.028116e-009 3.243694e-003 -4.013193e-004 3.397278e-003 6.089528e-004 1.087114e-003 7.453977e-005 -5.843627e-004 -8.988050e-004 -5.314710e-004 -2.463007e-004 -5.465019e-004 -1.114679e-003 4.132306e-003
<VARIANCE> 25
 8.943692e+001 8.222128e+001 7.469179e+001 8.904936e+001 5.299388e+001 5.157928e+001 6.582153e+001 5.969685e+001 5.691528e+001 5.810154e+001 5.103717e+001 3.891095e+001 1.195717e+000 2.115147e+000 1.789844e+000 2.446486e+000 2.055826e+000 2.322902e+000 2.646532e+000 2.586893e+000 2.469818e+000 2.395728e+000 2.266719e+000 1.866827e+000 1.727007e+000
<GCONST> 1.051982e+002
<STATE> 4
<MEAN> 25
 -1.088412e-007 3.240298e-008 1.956557e-008 5.531366e-008 -1.402047e-008 -3.731046e-008 1.976242e-008 5.680401e-008 3.267234e-008 1.109500e-008 2.343835e-008 6.028116e-009 3.243694e-003 -4.013193e-004 3.397278e-003 6.089528e-004 1.087114e-003 7.453977e-005 -5.843627e-004 -8.988050e-004 -5.314710e-004 -2.463007e-004 -5.465019e-004 -1.114679e-003 4.132306e-003
<VARIANCE> 25
 8.943692e+001 8.222128e+001 7.469179e+001 8.904936e+001 5.299388e+001 5.157928e+001 6.582153e+001 5.969685e+001 5.691528e+001 5.810154e+001 5.103717e+001 3.891095e+001 1.195717e+000 2.115147e+000 1.789844e+000 2.446486e+000 2.055826e+000 2.322902e+000 2.646532e+000 2.586893e+000 2.469818e+000 2.395728e+000 2.266719e+000 1.866827e+000 1.727007e+000
<GCONST> 1.051982e+002
<TRANSP> 5
 0.000000e+000 1.000000e+000 0.000000e+000 0.000000e+000 0.000000e+000
 0.000000e+000 6.000000e-001 4.000000e-001 0.000000e+000 0.000000e+000
 0.000000e+000 0.000000e+000 6.000000e-001 4.000000e-001 0.000000e+000
 0.000000e+000 0.000000e+000 0.000000e+000 7.000000e-001 3.000000e-001
 0.000000e+000 0.000000e+000 0.000000e+000 0.000000e+000 0.000000e+000
<ENDHMM>
