~o
<STREAMINFO> 1 25
<VECSIZE> 25<NULLD><MFCC_D_N_Z_0><DIAGC>
~h "proto"
<BEGINHMM>
<NUMSTATES> 5
<STATE> 2
<MEAN> 25
 -8.846441e-008 4.608431e-008 1.768757e-009 3.992611e-008 -4.012527e-009 -1.816185e-008 4.385750e-009 5.854675e-008 2.087251e-008 1.373405e-008 1.457196e-008 -3.238788e-009 4.431510e-003 4.754830e-004 1.893876e-003 1.013493e-003 8.569853e-005 7.247003e-004 -1.032191e-003 -4.471501e-004 -5.339588e-004 -8.329892e-005 -5.122193e-004 -1.157209e-003 -1.868421e-003
<VARIANCE> 25
 9.639524e+001 7.425942e+001 7.125409e+001 7.633000e+001 5.020475e+001 5.377068e+001 6.016994e+001 5.244217e+001 5.007285e+001 5.381663e+001 4.421613e+001 3.519938e+001 1.273686e+000 1.948365e+000 1.733028e+000 2.165500e+000 1.917482e+000 2.174889e+000 2.444906e+000 2.319510e+000 2.230778e+000 2.185719e+000 2.007703e+000 1.688401e+000 1.836004e+000
<GCONST> 1.034386e+002
<STATE> 3
<MEAN> 25
 -8.846441e-008 4.608431e-008 1.768757e-009 3.992611e-008 -4.012527e-009 -1.816185e-008 4.385750e-009 5.854675e-008 2.087251e-008 1.373405e-008 1.457196e-008 -3.238788e-009 4.431510e-003 4.754830e-004 1.893876e-003 1.013493e-003 8.569853e-005 7.247003e-004 -1.032191e-003 -4.471501e-004 -5.339588e-004 -8.329892e-005 -5.122193e-004 -1.157209e-003 -1.868421e-003
<VARIANCE> 25
 9.639524e+001 7.425942e+001 7.125409e+001 7.633000e+001 5.020475e+001 5.377068e+001 6.016994e+001 5.244217e+001 5.007285e+001 5.381663e+001 4.421613e+001 3.519938e+001 1.273686e+000 1.948365e+000 1.733028e+000 2.165500e+000 1.917482e+000 2.174889e+000 2.444906e+000 2.319510e+000 2.230778e+000 2.185719e+000 2.007703e+000 1.688401e+000 1.836004e+000
<GCONST> 1.034386e+002
<STATE> 4
<MEAN> 25
 -8.846441e-008 4.608431e-008 1.768757e-009 3.992611e-008 -4.012527e-009 -1.816185e-008 4.385750e-009 5.854675e-008 2.087251e-008 1.373405e-008 1.457196e-008 -3.238788e-009 4.431510e-003 4.754830e-004 1.893876e-003 1.013493e-003 8.569853e-005 7.247003e-004 -1.032191e-003 -4.471501e-004 -5.339588e-004 -8.329892e-005 -5.122193e-004 -1.157209e-003 -1.868421e-003
<VARIANCE> 25
 9.639524e+001 7.425942e+001 7.125409e+001 7.633000e+001 5.020475e+001 5.377068e+001 6.016994e+001 5.244217e+001 5.007285e+001 5.381663e+001 4.421613e+001 3.519938e+001 1.273686e+000 1.948365e+000 1.733028e+000 2.165500e+000 1.917482e+000 2.174889e+000 2.444906e+000 2.319510e+000 2.230778e+000 2.185719e+000 2.007703e+000 1.688401e+000 1.836004e+000
<GCONST> 1.034386e+002
<TRANSP> 5
 0.000000e+000 1.000000e+000 0.000000e+000 0.000000e+000 0.000000e+000
 0.000000e+000 6.000000e-001 4.000000e-001 0.000000e+000 0.000000e+000
 0.000000e+000 0.000000e+000 6.000000e-001 4.000000e-001 0.000000e+000
 0.000000e+000 0.000000e+000 0.000000e+000 7.000000e-001 3.000000e-001
 0.000000e+000 0.000000e+000 0.000000e+000 0.000000e+000 0.000000e+000
<ENDHMM>
