~o
<STREAMINFO> 1 25
<VECSIZE> 25<NULLD><MFCC_D_N_Z_0><DIAGC>
~h "b"
<BEGINHMM>
<NUMSTATES> 5
<STATE> 2
<MEAN> 25
 1.476758e-001 7.388256e-001 -2.780558e+000 2.164548e+000 2.244214e+000 1.449001e+000 2.714522e+000 -6.698921e-001 1.958607e-001 2.888430e-001 -4.883158e-001 1.131734e+000 -2.970253e-001 4.759990e-002 -7.224833e-002 7.405130e-002 2.098832e-002 -1.055604e-001 6.044270e-002 1.773774e-001 4.207987e-001 2.571016e-001 4.777993e-002 1.361326e-001 -3.089581e-001
<VARIANCE> 25
 6.415041e+001 6.103794e+001 4.968018e+001 7.167292e+001 3.873679e+001 6.607883e+001 8.849413e+001 5.616315e+001 5.822883e+001 6.946844e+001 5.153061e+001 4.075914e+001 4.680749e-001 1.009824e+000 1.290151e+000 1.467376e+000 1.495545e+000 1.753662e+000 1.976792e+000 1.996474e+000 2.081215e+000 1.965633e+000 1.895755e+000 1.757233e+000 4.047714e-001
<GCONST> 9.864494e+001
<STATE> 3
<MEAN> 25
 -1.102057e+000 1.183686e+000 -2.296042e+000 2.388027e+000 1.276324e+000 -6.569098e-002 1.870651e+000 -2.320735e-002 1.214785e+000 6.083804e-001 -3.524689e-001 9.731657e-001 -2.090742e-001 3.783974e-002 -5.053897e-003 8.791965e-002 -2.305988e-003 -1.064272e-001 4.248927e-003 1.446851e-001 1.438276e-001 6.705635e-002 -3.675364e-004 2.375985e-002 -1.840837e-001
<VARIANCE> 25
 5.551711e+001 6.605066e+001 3.772186e+001 7.098023e+001 2.819716e+001 5.375752e+001 4.709518e+001 4.696626e+001 4.650748e+001 6.038329e+001 3.947025e+001 2.966851e+001 3.892290e-001 6.439644e-001 9.170551e-001 1.001879e+000 1.423288e+000 1.424009e+000 1.661216e+000 1.589004e+000 1.689431e+000 1.628418e+000 1.564490e+000 1.442826e+000 3.075983e-001
<GCONST> 9.293385e+001
<STATE> 4
<MEAN> 25
 -4.891219e+000 1.875284e+000 -2.711658e+000 4.389543e+000 2.078134e+000 1.016042e+000 3.048095e+000 2.434751e+000 2.936180e+000 1.961583e+000 2.762728e-001 1.648995e+000 -3.738600e-002 1.946940e-002 3.030177e-003 2.736745e-002 1.289927e-002 2.106466e-002 2.455299e-002 1.695713e-002 -1.179200e-002 -2.131493e-002 -1.942290e-002 -3.542320e-003 -4.839270e-002
<VARIANCE> 25
 3.638573e+001 3.759952e+001 2.279250e+001 4.236163e+001 1.245203e+001 2.846664e+001 2.920625e+001 2.422263e+001 2.205346e+001 3.487013e+001 2.145740e+001 2.173367e+001 2.657849e-001 3.645575e-001 4.279855e-001 5.782381e-001 7.000436e-001 8.194085e-001 9.705372e-001 1.118243e+000 1.132536e+000 1.075714e+000 1.010779e+000 9.780927e-001 1.427797e-001
<GCONST> 7.929814e+001
<TRANSP> 5
 0.000000e+000 1.000000e+000 0.000000e+000 0.000000e+000 0.000000e+000
 0.000000e+000 4.595300e-001 5.404701e-001 0.000000e+000 0.000000e+000
 0.000000e+000 0.000000e+000 4.170713e-001 5.829287e-001 0.000000e+000
 0.000000e+000 0.000000e+000 0.000000e+000 9.308732e-001 6.912675e-002
 0.000000e+000 0.000000e+000 0.000000e+000 0.000000e+000 0.000000e+000
<ENDHMM>
~h "d"
<BEGINHMM>
<NUMSTATES> 5
<STATE> 2
<MEAN> 25
 3.605949e+000 -2.744780e-001 1.182757e-001 9.957801e-001 6.461310e-001 -7.301646e-001 -5.729914e-001 -3.592834e+000 -8.482390e-001 2.375787e-001 -1.065978e+000 -5.225446e-001 7.379470e-001 -6.814633e-001 3.249075e-001 -7.470223e-002 -6.205415e-002 -1.240988e-001 -7.762725e-001 1.410407e-002 -4.346628e-001 -3.603885e-001 3.916900e-001 -2.204353e-001 1.029702e+000
<VARIANCE> 25
 6.478183e+001 1.230850e+002 4.551730e+001 9.187522e+001 4.151264e+001 5.202903e+001 6.891547e+001 5.524223e+001 6.089207e+001 7.345383e+001 5.339119e+001 3.571973e+001 3.367965e+000 1.169574e+001 3.456743e+000 6.830154e+000 3.548267e+000 4.694894e+000 6.838050e+000 5.310439e+000 5.166519e+000 4.773293e+000 3.770925e+000 3.329496e+000 7.411444e+000
<GCONST> 1.161296e+002
<STATE> 3
<MEAN> 25
 6.150477e+000 -3.985297e+000 1.806785e+000 -2.222752e+000 -3.761287e-001 -2.254204e+000 -5.078767e+000 -3.238526e+000 -2.434996e+000 -3.132636e+000 -3.497656e-001 -2.935707e+000 -7.991346e-002 -6.911665e-001 -6.411386e-002 -4.992498e-001 1.817275e-001 4.384138e-002 -6.035639e-001 4.377046e-001 1.109426e-001 -1.593863e-001 4.530406e-001 -1.780939e-001 5.542057e-001
<VARIANCE> 25
 6.430414e+001 1.056148e+002 5.730243e+001 1.040532e+002 6.355671e+001 7.502585e+001 1.123914e+002 5.325228e+001 6.016087e+001 8.608648e+001 7.864673e+001 5.269358e+001 9.277661e-001 6.052196e+000 1.891180e+000 5.976526e+000 3.154329e+000 4.442251e+000 7.024457e+000 3.550375e+000 3.880834e+000 3.452327e+000 3.368909e+000 3.331651e+000 3.585067e+000
<GCONST> 1.138090e+002
<STATE> 4
<MEAN> 25
 8.556815e+000 -1.267788e+001 2.875822e+000 -8.690820e+000 -1.568420e-001 8.575864e-001 -8.508530e+000 6.465779e-001 -3.207904e+000 -1.999728e+000 4.746107e+000 -2.943376e+000 -5.998434e-002 2.032738e-001 -2.209044e-001 1.083067e-001 -5.998012e-002 1.744040e-001 3.289509e-001 1.358185e-001 4.402605e-002 3.812864e-002 -8.540154e-002 3.128599e-002 -2.666776e-001
<VARIANCE> 25
 2.926376e+001 8.107856e+001 4.191445e+001 9.253468e+001 3.620513e+001 5.949136e+001 8.254425e+001 6.409206e+001 5.657913e+001 8.600562e+001 8.592321e+001 5.900054e+001 2.996752e-001 1.255859e+000 7.453014e-001 1.558732e+000 1.302885e+000 1.459854e+000 1.964607e+000 1.656773e+000 1.560333e+000 1.547843e+000 1.669191e+000 1.572418e+000 6.160133e-001
<GCONST> 9.760963e+001
<TRANSP> 5
 0.000000e+000 1.000000e+000 0.000000e+000 0.000000e+000 0.000000e+000
 0.000000e+000 5.939413e-001 4.060587e-001 0.000000e+000 0.000000e+000
 0.000000e+000 0.000000e+000 4.732320e-001 5.267680e-001 0.000000e+000
 0.000000e+000 0.000000e+000 0.000000e+000 8.527937e-001 1.472063e-001
 0.000000e+000 0.000000e+000 0.000000e+000 0.000000e+000 0.000000e+000
<ENDHMM>
~h "g"
<BEGINHMM>
<NUMSTATES> 5
<STATE> 2
<MEAN> 25
 1.205375e+000 5.836531e+000 1.585690e+000 2.477082e+000 1.550915e+000 1.530685e-001 6.714543e-001 -2.693188e+000 3.769965e-001 2.210128e-001 -3.362554e+000 -5.760841e-001 4.303663e-001 2.006998e-001 7.603228e-001 -2.574374e-001 -8.701015e-002 -3.256888e-001 -5.502705e-001 -5.484253e-001 -2.690609e-001 -3.454898e-001 -3.143814e-001 -3.380693e-001 1.116286e+000
<VARIANCE> 25
 6.744603e+001 7.863679e+001 9.444269e+001 8.745377e+001 4.839976e+001 6.361764e+001 6.254165e+001 6.245351e+001 7.423299e+001 6.478940e+001 4.904486e+001 5.089715e+001 6.599857e+000 7.020619e+000 5.612780e+000 6.359355e+000 4.521317e+000 4.943996e+000 5.394698e+000 5.250821e+000 5.815490e+000 5.483126e+000 3.907947e+000 3.272141e+000 4.967340e+000
<GCONST> 1.176209e+002
<STATE> 3
<MEAN> 25
 3.375271e+000 -6.313460e-001 8.014997e+000 -1.838290e+000 -6.304947e-001 -1.698253e+000 -4.788873e+000 -3.154155e+000 -3.627976e-002 -3.393183e+000 -2.215601e+000 -2.042393e+000 6.368965e-001 -1.270619e+000 8.358053e-001 -1.259112e+000 -6.048169e-001 -4.681041e-001 -7.824729e-001 -1.901054e-001 -3.962230e-001 -7.668554e-001 3.046304e-001 -3.375226e-001 1.953037e+000
<VARIANCE> 25
 6.066978e+001 1.576497e+002 1.249773e+002 9.004095e+001 7.240827e+001 8.897069e+001 7.861485e+001 7.578828e+001 7.837862e+001 6.860922e+001 7.273680e+001 4.204848e+001 4.316671e+000 1.087726e+001 7.776404e+000 8.445212e+000 6.146424e+000 8.143197e+000 7.119692e+000 6.960974e+000 6.991508e+000 7.016617e+000 5.196246e+000 3.498479e+000 6.995467e+000
<GCONST> 1.231085e+002
<STATE> 4
<MEAN> 25
 4.215877e+000 -1.572239e+000 1.975120e+001 -2.097239e+000 -8.085578e+000 -3.246272e+000 -8.270051e+000 -1.748189e+000 -2.204970e+000 -8.282387e+000 1.590938e+000 -2.746102e+000 2.411342e-001 1.432013e-001 -2.897878e-001 4.519122e-002 -2.094020e-001 -1.139075e-001 5.726176e-002 3.601303e-002 -1.250591e-001 -1.082356e-001 4.926196e-002 -1.174709e-002 -1.149212e-001
<VARIANCE> 25
 2.479310e+001 6.891917e+001 1.815943e+002 6.199330e+001 7.930886e+001 5.828296e+001 6.996146e+001 8.766015e+001 5.815823e+001 5.875118e+001 6.892382e+001 2.638204e+001 8.295833e-001 1.793911e+000 2.099128e+000 2.015612e+000 2.335580e+000 2.451116e+000 2.742969e+000 2.498371e+000 2.411393e+000 2.333174e+000 2.394997e+000 1.716950e+000 1.088762e+000
<GCONST> 1.042574e+002
<TRANSP> 5
 0.000000e+000 1.000000e+000 0.000000e+000 0.000000e+000 0.000000e+000
 0.000000e+000 6.356553e-001 3.643447e-001 0.000000e+000 0.000000e+000
 0.000000e+000 0.000000e+000 7.267974e-001 2.732025e-001 0.000000e+000
 0.000000e+000 0.000000e+000 0.000000e+000 8.069090e-001 1.930910e-001
 0.000000e+000 0.000000e+000 0.000000e+000 0.000000e+000 0.000000e+000
<ENDHMM>
~h "k"
<BEGINHMM>
<NUMSTATES> 5
<STATE> 2
<MEAN> 25
 1.710986e+000 -5.657433e-001 2.150649e-001 -1.740478e+000 -2.347018e-001 -1.484983e+000 -1.754177e+000 -1.587862e+000 5.381868e-001 1.145367e+000 8.823796e-002 -8.285803e-001 1.287462e+000 -5.092957e-001 1.313947e-001 -1.258239e+000 -4.416396e-001 -5.530605e-001 -7.147587e-001 -8.004657e-001 -9.557961e-001 -8.339289e-001 1.463050e-001 -4.346044e-001 1.847948e+000
<VARIANCE> 25
 7.112531e+001 8.882059e+001 6.924181e+001 9.144078e+001 7.295079e+001 6.638866e+001 7.978132e+001 7.459159e+001 7.273278e+001 6.121360e+001 4.962134e+001 3.857340e+001 4.553769e+000 8.171674e+000 6.349309e+000 9.888154e+000 5.783868e+000 8.111948e+000 7.993418e+000 8.170881e+000 6.133069e+000 5.490868e+000 4.756685e+000 3.818588e+000 8.881858e+000
<GCONST> 1.209702e+002
<STATE> 3
<MEAN> 25
 4.033112e+000 -1.649321e+000 -1.996803e+000 -1.625792e+000 1.080281e+000 6.233262e-001 -4.405469e-001 -3.988737e+000 -3.848150e+000 -1.051027e+000 1.330547e+000 -1.211775e+000 4.280761e-002 -2.462842e-001 -2.415603e-001 -2.991654e-001 1.321560e-001 1.745923e-001 1.464556e-001 -2.246562e-002 6.890216e-002 -2.241417e-002 7.937757e-002 -1.020893e-001 1.385318e-001
<VARIANCE> 25
 6.959486e+001 8.826122e+001 9.249803e+001 1.153913e+002 6.443846e+001 7.954666e+001 9.685212e+001 1.098096e+002 1.212166e+002 9.726894e+001 7.742139e+001 6.449895e+001 1.688967e+000 4.294333e+000 3.876527e+000 5.389768e+000 3.913764e+000 5.491406e+000 5.436759e+000 5.442215e+000 4.775372e+000 4.877549e+000 5.103724e+000 4.054020e+000 2.791215e+000
<GCONST> 1.183306e+002
<STATE> 4
<MEAN> 25
 7.106508e+000 -5.458250e+000 -1.338523e+000 -5.626760e+000 -6.805539e-001 6.396511e-001 -8.536894e-001 -2.938775e+000 -4.588361e+000 -4.276639e+000 -7.517233e-001 -3.729592e+000 -2.093552e-001 2.836307e-001 -7.450561e-002 8.053529e-002 -4.636704e-002 7.429028e-002 1.114003e-001 7.360984e-002 1.632901e-001 -7.957285e-002 -8.160956e-002 2.591029e-001 -4.008268e-001
<VARIANCE> 25
 5.461642e+001 1.116173e+002 7.086455e+001 1.034347e+002 7.488221e+001 6.301223e+001 8.609344e+001 1.060910e+002 6.578028e+001 7.722737e+001 8.346011e+001 4.638927e+001 4.575691e-001 1.571380e+000 1.225362e+000 1.864142e+000 2.139521e+000 2.073493e+000 1.980561e+000 2.516842e+000 1.942855e+000 1.913863e+000 2.533732e+000 1.745668e+000 7.527494e-001
<GCONST> 1.040440e+002
<TRANSP> 5
 0.000000e+000 1.000000e+000 0.000000e+000 0.000000e+000 0.000000e+000
 0.000000e+000 7.291635e-001 2.708366e-001 0.000000e+000 0.000000e+000
 0.000000e+000 0.000000e+000 6.344216e-001 3.655784e-001 0.000000e+000
 0.000000e+000 0.000000e+000 0.000000e+000 7.843030e-001 2.156970e-001
 0.000000e+000 0.000000e+000 0.000000e+000 0.000000e+000 0.000000e+000
<ENDHMM>
~h "l"
<BEGINHMM>
<NUMSTATES> 5
<STATE> 2
<MEAN> 25
 7.205592e+000 -3.541278e+000 1.387816e+000 -7.126300e+000 -2.714627e+000 -3.161336e+000 -5.457083e+000 -4.705538e+000 -3.354321e+000 -5.291350e+000 1.910111e-002 -2.662978e+000 2.410247e-001 -7.663941e-001 1.005177e-002 -3.808655e-001 -1.423701e-001 -1.629902e-001 -2.223699e-001 -5.712232e-002 4.221528e-002 -2.248727e-001 2.308573e-001 -1.472636e-002 6.762338e-001
<VARIANCE> 25
 5.951343e+001 9.768959e+001 1.049317e+002 1.155482e+002 7.815359e+001 1.021086e+002 9.629189e+001 9.600123e+001 7.595863e+001 8.493501e+001 8.446826e+001 4.639883e+001 2.316427e+000 5.972400e+000 4.301727e+000 9.068548e+000 4.893766e+000 6.229013e+000 6.726942e+000 6.049546e+000 6.153130e+000 5.658331e+000 5.109377e+000 3.908408e+000 5.049030e+000
<GCONST> 1.207579e+002
<STATE> 3
<MEAN> 25
 6.834466e+000 -4.693190e+000 -2.336946e-002 -8.696651e+000 -3.312841e+000 -5.792536e+000 -4.691006e+000 -4.621470e+000 -3.519684e+000 -7.558662e+000 7.367356e-001 -1.381607e+000 -2.631405e-001 -1.385610e-001 -2.582683e-002 6.859940e-003 2.764741e-001 1.927215e-001 1.632102e-001 2.107538e-001 1.795545e-001 3.782755e-001 1.558493e-001 1.757293e-002 -1.255372e-001
<VARIANCE> 25
 3.679279e+001 9.309045e+001 8.277943e+001 9.497620e+001 6.495576e+001 1.106722e+002 1.116867e+002 8.662730e+001 8.324060e+001 1.041765e+002 8.091167e+001 6.335192e+001 8.328220e-001 2.380370e+000 2.039827e+000 3.115576e+000 3.126109e+000 3.154177e+000 3.394253e+000 3.933498e+000 3.641848e+000 3.599598e+000 3.039759e+000 2.728888e+000 1.316961e+000
<GCONST> 1.111011e+002
<STATE> 4
<MEAN> 25
 1.020391e+001 -1.255596e+001 3.160436e+000 -1.340415e+001 -2.016005e-001 5.607879e-001 -7.411488e+000 3.923474e-001 -2.455805e+000 -9.119637e-001 2.345285e+000 -4.632269e+000 -5.654299e-002 2.391274e-001 -2.021069e-001 2.198214e-001 3.213308e-002 7.893533e-002 2.316903e-001 2.873926e-002 -2.816598e-002 7.084390e-002 -1.333221e-001 -1.522103e-002 -3.224308e-001
<VARIANCE> 25
 3.604721e+001 1.267901e+002 6.754201e+001 8.953243e+001 5.650237e+001 6.888884e+001 5.800120e+001 7.439388e+001 6.186356e+001 1.185796e+002 8.530096e+001 6.342690e+001 3.652407e-001 1.199859e+000 9.592904e-001 1.449882e+000 1.457457e+000 1.558549e+000 1.618322e+000 1.784514e+000 1.622382e+000 1.575049e+000 1.780163e+000 1.457977e+000 5.908445e-001
<GCONST> 9.996649e+001
<TRANSP> 5
 0.000000e+000 1.000000e+000 0.000000e+000 0.000000e+000 0.000000e+000
 0.000000e+000 7.172168e-001 2.827832e-001 0.000000e+000 0.000000e+000
 0.000000e+000 0.000000e+000 5.821829e-001 4.178171e-001 0.000000e+000
 0.000000e+000 0.000000e+000 0.000000e+000 8.906075e-001 1.093925e-001
 0.000000e+000 0.000000e+000 0.000000e+000 0.000000e+000 0.000000e+000
<ENDHMM>
~h "m"
<BEGINHMM>
<NUMSTATES> 5
<STATE> 2
<MEAN> 25
 2.393217e+000 -1.228712e+000 -2.447358e+000 -7.345139e-001 1.077688e+000 9.165260e-001 1.834249e+000 -4.681396e-001 -1.893317e+000 -1.557993e+000 -4.980607e-001 -1.705602e-001 4.520794e-001 2.037376e-001 -1.091372e-001 3.414191e-001 4.799256e-002 2.651071e-002 2.345665e-001 -3.226174e-001 -5.559673e-001 -1.553159e-001 -2.275574e-001 -4.382984e-001 2.464860e-001
<VARIANCE> 25
 8.107288e+001 8.015439e+001 6.127261e+001 7.788526e+001 4.395637e+001 5.927090e+001 6.343772e+001 5.784951e+001 7.683624e+001 7.855878e+001 5.596808e+001 3.855631e+001 3.893794e+000 5.437554e+000 2.942845e+000 4.494236e+000 3.514856e+000 3.819102e+000 5.188767e+000 4.984655e+000 4.576421e+000 4.088936e+000 3.695978e+000 2.713580e+000 5.913917e+000
<GCONST> 1.141492e+002
<STATE> 3
<MEAN> 25
 5.674520e+000 -1.351676e+000 -1.767557e+000 -1.297986e+000 -5.409062e-001 -1.044932e-001 1.498219e+000 -2.847627e+000 -4.798060e+000 -2.090694e+000 -1.224131e+000 -2.876531e+000 1.059182e-001 -8.185937e-001 -1.131593e-001 -3.061032e-001 7.687880e-002 3.693780e-002 -2.613677e-002 1.177006e-001 2.913839e-002 3.040576e-002 1.682901e-001 -2.758819e-001 6.347540e-001
<VARIANCE> 25
 5.801447e+001 1.008185e+002 4.878835e+001 8.299937e+001 5.287931e+001 5.634156e+001 8.014370e+001 7.335419e+001 8.280659e+001 7.180356e+001 6.010994e+001 4.453101e+001 3.482842e+000 8.052908e+000 2.780087e+000 7.048119e+000 3.263590e+000 4.381278e+000 5.736166e+000 5.257596e+000 4.366244e+000 4.527622e+000 4.559602e+000 3.367731e+000 8.059611e+000
<GCONST> 1.163668e+002
<STATE> 4
<MEAN> 25
 7.331753e+000 -4.273839e+000 -1.106913e+000 -2.706551e+000 1.094382e-001 2.464658e+000 1.346528e+000 -1.168870e+000 -6.367113e+000 -3.093281e+000 1.760433e+000 -2.592724e+000 -3.256431e-001 3.019902e-001 -2.009926e-002 2.538889e-001 2.456283e-001 1.502417e-001 1.732603e-001 8.439923e-002 3.326100e-001 2.476240e-001 -9.381647e-002 1.422688e-001 -4.516459e-001
<VARIANCE> 25
 5.150311e+001 1.329311e+002 4.016800e+001 9.804731e+001 4.267776e+001 4.401523e+001 6.874534e+001 8.109664e+001 6.540253e+001 6.723013e+001 9.523849e+001 3.511586e+001 7.277216e-001 2.267166e+000 1.317524e+000 2.342203e+000 1.668662e+000 1.875872e+000 2.232043e+000 2.423996e+000 2.535049e+000 2.291828e+000 2.706721e+000 1.782216e+000 1.223137e+000
<GCONST> 1.037165e+002
<TRANSP> 5
 0.000000e+000 1.000000e+000 0.000000e+000 0.000000e+000 0.000000e+000
 0.000000e+000 3.868166e-001 6.131834e-001 0.000000e+000 0.000000e+000
 0.000000e+000 0.000000e+000 4.154998e-001 5.845002e-001 0.000000e+000
 0.000000e+000 0.000000e+000 0.000000e+000 6.859078e-001 3.140922e-001
 0.000000e+000 0.000000e+000 0.000000e+000 0.000000e+000 0.000000e+000
<ENDHMM>
~h "n"
<BEGINHMM>
<NUMSTATES> 5
<STATE> 2
<MEAN> 25
 8.499493e+000 1.372260e-001 -1.144967e-001 1.314517e+000 -2.167276e+000 -1.759788e+000 -9.301348e-001 -9.728547e+000 -7.735218e+000 5.718230e-001 -1.117189e+000 -3.331423e+000 -1.059565e-002 8.924155e-001 1.764703e-001 8.615170e-001 7.008882e-002 2.005743e-001 2.214023e-001 -1.012822e+000 -4.681620e-001 3.622403e-001 -1.916683e-001 2.514024e-001 -7.583883e-001
<VARIANCE> 25
 4.993122e+001 6.868972e+001 5.017848e+001 8.920293e+001 4.615979e+001 5.748767e+001 7.176434e+001 1.434078e+002 9.312823e+001 8.943086e+001 6.558700e+001 4.401401e+001 1.484307e+000 3.210642e+000 2.499375e+000 4.048148e+000 2.700322e+000 3.164928e+000 4.120085e+000 6.889235e+000 4.399718e+000 4.491135e+000 3.499673e+000 2.748728e+000 2.420534e+000
<GCONST> 1.121103e+002
<STATE> 3
<MEAN> 25
 4.639798e+000 3.427767e+000 2.317908e-002 3.558477e+000 8.555351e-001 1.712686e-001 -3.334337e-002 -1.046581e+001 -6.863943e+000 3.512933e-001 -2.015539e+000 -1.502718e+000 -5.993848e-001 -5.697911e-002 9.398375e-003 1.358186e-001 5.345834e-001 2.881883e-001 1.081408e-001 9.866769e-001 6.556528e-001 -1.143447e-001 1.204058e-001 2.496480e-001 -4.853111e-001
<VARIANCE> 25
 5.050271e+001 7.986122e+001 5.263864e+001 8.242474e+001 5.632413e+001 6.328015e+001 6.937814e+001 1.433697e+002 9.353741e+001 8.101962e+001 7.446983e+001 4.581991e+001 1.075079e+000 3.519917e+000 2.449795e+000 3.408105e+000 3.027245e+000 4.087050e+000 4.617867e+000 5.337087e+000 5.098876e+000 4.859715e+000 5.953019e+000 3.053011e+000 1.836051e+000
<GCONST> 1.129672e+002
<STATE> 4
<MEAN> 25
 2.900107e+000 3.014481e+000 2.640401e-001 3.717671e+000 1.349010e+000 6.229947e-001 1.901160e-001 -3.363935e+000 -2.690804e+000 -3.671395e-001 -1.565362e+000 -1.264902e+000 -5.802966e-001 -1.071095e-001 -1.399852e-001 -2.635906e-002 1.721654e-001 1.590906e-001 2.935306e-001 5.330216e-001 6.097369e-001 2.647156e-001 6.110139e-002 2.041970e-001 -4.094400e-001
<VARIANCE> 25
 5.926134e+001 8.801679e+001 4.700980e+001 7.729568e+001 4.954852e+001 4.723433e+001 6.563012e+001 6.281829e+001 8.084927e+001 5.817717e+001 8.399729e+001 5.649038e+001 5.998624e-001 1.297558e+000 1.245944e+000 1.446098e+000 1.762922e+000 1.756512e+000 2.225825e+000 2.622154e+000 2.313117e+000 2.186869e+000 2.420048e+000 1.985907e+000 6.352180e-001
<GCONST> 1.016775e+002
<TRANSP> 5
 0.000000e+000 1.000000e+000 0.000000e+000 0.000000e+000 0.000000e+000
 0.000000e+000 6.125179e-001 3.874821e-001 0.000000e+000 0.000000e+000
 0.000000e+000 0.000000e+000 5.705466e-001 4.294534e-001 0.000000e+000
 0.000000e+000 0.000000e+000 0.000000e+000 7.098318e-001 2.901682e-001
 0.000000e+000 0.000000e+000 0.000000e+000 0.000000e+000 0.000000e+000
<ENDHMM>
~h "p"
<BEGINHMM>
<NUMSTATES> 5
<STATE> 2
<MEAN> 25
 -4.213848e+000 2.918654e+000 -3.665648e+000 3.980003e+000 2.709854e+000 2.312298e+000 4.581412e+000 1.970629e+000 4.214429e+000 3.751602e+000 -3.650036e-001 2.330197e+000 -5.536091e-002 -1.719728e-001 1.934985e-002 -4.100357e-002 1.313105e-001 -6.477654e-002 -1.031303e-001 -1.805942e-002 2.118859e-001 1.983195e-001 7.822421e-002 9.866638e-002 2.948321e-001
<VARIANCE> 25
 4.726131e+001 3.072088e+001 3.366970e+001 4.059803e+001 2.723317e+001 3.619224e+001 4.088386e+001 3.161876e+001 3.470512e+001 3.829003e+001 3.392661e+001 2.262924e+001 2.007446e+000 2.162673e+000 1.990117e+000 2.916817e+000 2.128819e+000 2.770381e+000 3.077335e+000 2.858479e+000 2.764435e+000 3.238566e+000 2.596517e+000 1.755276e+000 2.905816e+000
<GCONST> 1.002924e+002
<STATE> 3
<MEAN> 25
 -6.434197e-002 -9.782440e-001 -1.347277e+000 -4.766247e-001 2.372997e+000 1.125609e+000 6.101887e-001 1.471768e+000 1.982636e+000 8.767097e-001 6.562476e-001 1.396622e+000 1.702821e+000 -1.807166e+000 1.303129e-001 -2.361743e+000 -5.337965e-001 -6.545263e-001 -1.082604e+000 -3.229996e-001 -7.631465e-001 -9.924960e-001 5.793685e-002 -5.426332e-001 3.236391e+000
<VARIANCE> 25
 6.324550e+001 6.550298e+001 4.291795e+001 6.735324e+001 4.370581e+001 6.280156e+001 4.799746e+001 5.091533e+001 4.252575e+001 5.429168e+001 3.802229e+001 2.896273e+001 5.875560e+000 9.596099e+000 5.107158e+000 1.049885e+001 5.324424e+000 7.100368e+000 6.118607e+000 7.032406e+000 4.899786e+000 7.538638e+000 4.255732e+000 3.450760e+000 1.170901e+001
<GCONST> 1.168776e+002
<STATE> 4
<MEAN> 25
 4.916339e+000 -7.625912e+000 -1.682392e+000 -7.960669e+000 2.072386e+000 1.510903e+000 -1.791496e+000 5.991328e-001 -2.273525e-001 -1.112559e-001 -3.764164e-002 -1.287871e+000 7.434490e-001 -4.377413e-001 1.291647e-001 -1.034704e+000 -4.085408e-001 -3.808860e-001 -4.092677e-001 -3.638902e-001 -6.104525e-001 -6.669610e-001 -1.007727e-001 -4.741712e-001 1.149788e+000
<VARIANCE> 25
 6.790980e+001 1.221879e+002 6.286044e+001 1.348887e+002 5.595971e+001 7.028535e+001 5.137398e+001 5.296558e+001 3.377195e+001 9.493041e+001 3.134361e+001 2.790169e+001 2.886927e+000 7.679634e+000 4.297233e+000 8.513869e+000 3.077550e+000 4.672730e+000 3.869822e+000 4.295591e+000 3.525273e+000 4.659258e+000 2.836708e+000 2.355931e+000 7.699754e+000
<GCONST> 1.139632e+002
<TRANSP> 5
 0.000000e+000 1.000000e+000 0.000000e+000 0.000000e+000 0.000000e+000
 0.000000e+000 6.494502e-001 3.505498e-001 0.000000e+000 0.000000e+000
 0.000000e+000 0.000000e+000 5.259740e-001 4.740260e-001 0.000000e+000
 0.000000e+000 0.000000e+000 0.000000e+000 4.463634e-001 5.536366e-001
 0.000000e+000 0.000000e+000 0.000000e+000 0.000000e+000 0.000000e+000
<ENDHMM>
~h "r"
<BEGINHMM>
<NUMSTATES> 5
<STATE> 2
<MEAN> 25
 3.973578e+000 -6.125563e+000 -1.109778e+000 -4.137242e+000 3.580335e+000 1.074971e+000 -3.221914e+000 2.736975e+000 -1.848405e+000 -2.428641e+000 3.875631e+000 -7.058864e-001 -1.436715e-001 -5.125837e-001 -1.463926e-001 -1.286431e-001 1.075039e-001 6.834615e-002 1.415844e-001 1.689469e-001 1.889770e-001 3.319032e-001 8.017843e-002 -1.683081e-001 6.320557e-002
<VARIANCE> 25
 5.855911e+001 1.064940e+002 5.408823e+001 9.747826e+001 4.187512e+001 5.452453e+001 7.507225e+001 7.276931e+001 5.945715e+001 8.863478e+001 6.800693e+001 4.267832e+001 4.372973e-001 1.782219e+000 8.046347e-001 1.897182e+000 1.895997e+000 1.675842e+000 1.638397e+000 2.431451e+000 1.926199e+000 1.557769e+000 2.346359e+000 1.729054e+000 6.254374e-001
<GCONST> 1.008794e+002
<STATE> 3
<MEAN> 25
 2.844822e+000 -5.873468e+000 -1.361298e+000 -2.839182e+000 2.838439e+000 7.849417e-001 -1.428379e+000 1.009307e+000 -7.875473e-001 -4.957223e-001 2.044822e+000 -1.266059e+000 -1.170851e-001 -1.388659e-001 -1.026882e-001 6.199424e-002 -9.880727e-002 6.582536e-002 9.339802e-002 3.117420e-002 3.081520e-001 1.898078e-001 -2.156008e-001 1.400321e-002 -1.329407e-001
<VARIANCE> 25
 6.157437e+001 1.235658e+002 5.524977e+001 1.033863e+002 3.851802e+001 5.668363e+001 6.390563e+001 6.102659e+001 5.474492e+001 6.926490e+001 5.882464e+001 3.975258e+001 2.826232e-001 7.410926e-001 5.990612e-001 9.669009e-001 1.222395e+000 1.284308e+000 1.185787e+000 1.421933e+000 1.457317e+000 1.270551e+000 1.536601e+000 1.278170e+000 3.296055e-001
<GCONST> 9.453480e+001
<STATE> 4
<MEAN> 25
 8.050366e+000 -1.407106e+001 1.968462e+000 -9.304173e+000 2.467335e+000 1.984472e+000 -6.600214e+000 3.378124e+000 -1.345031e+000 1.602675e+000 3.225860e+000 -3.886906e+000 -3.404524e-003 2.318495e-001 -1.159298e-001 1.388602e-001 -1.738988e-001 5.784655e-002 2.013245e-001 -1.558270e-002 -8.959463e-002 -7.153921e-002 -1.618575e-001 5.515243e-002 -2.464417e-001
<VARIANCE> 25
 4.302727e+001 9.766859e+001 3.724368e+001 1.073732e+002 3.606308e+001 3.518401e+001 8.575150e+001 5.065174e+001 4.719221e+001 7.350401e+001 7.105539e+001 3.708738e+001 2.520698e-001 8.323018e-001 6.255548e-001 1.151311e+000 1.091569e+000 1.114430e+000 1.418740e+000 1.319122e+000 1.274956e+000 1.196540e+000 1.465502e+000 1.012728e+000 3.031003e-001
<GCONST> 9.269109e+001
<TRANSP> 5
 0.000000e+000 1.000000e+000 0.000000e+000 0.000000e+000 0.000000e+000
 0.000000e+000 3.164782e-001 6.835217e-001 0.000000e+000 0.000000e+000
 0.000000e+000 0.000000e+000 2.048028e-001 7.951972e-001 0.000000e+000
 0.000000e+000 0.000000e+000 0.000000e+000 8.464023e-001 1.535977e-001
 0.000000e+000 0.000000e+000 0.000000e+000 0.000000e+000 0.000000e+000
<ENDHMM>
~h "s"
<BEGINHMM>
<NUMSTATES> 5
<STATE> 2
<MEAN> 25
 -2.875766e+000 3.772735e-001 -2.327399e+000 2.801969e+000 3.582135e+000 3.558022e+000 3.070821e+000 5.447594e-001 1.972741e+000 2.916654e+000 3.198618e-002 6.211632e-001 -7.603192e-001 -4.437768e-002 7.909597e-002 1.800697e-001 2.828398e-001 4.782635e-001 4.046750e-001 4.144110e-001 8.277033e-001 7.092773e-001 4.342151e-001 4.173606e-001 -4.213204e-001
<VARIANCE> 25
 3.539194e+001 4.824952e+001 6.409031e+001 4.981966e+001 3.173038e+001 4.311142e+001 4.138903e+001 3.994947e+001 3.919555e+001 4.669891e+001 4.368977e+001 4.127230e+001 1.665558e+000 1.419998e+000 1.961133e+000 1.764133e+000 1.935716e+000 2.159354e+000 2.471656e+000 3.523220e+000 3.353619e+000 2.952648e+000 2.852167e+000 2.415697e+000 5.988733e-001
<GCONST> 1.005064e+002
<STATE> 3
<MEAN> 25
 -5.671941e+000 -1.070350e+000 4.223603e-001 2.153609e+000 3.811202e+000 6.185883e+000 2.342982e+000 3.298783e+000 4.533777e+000 4.668904e+000 2.669354e+000 1.836415e+000 -2.839222e-001 9.464466e-002 -5.423362e-002 6.181539e-002 -1.022002e-001 -3.007721e-002 7.764412e-002 1.562585e-001 2.132059e-001 1.193189e-001 3.348576e-002 1.217702e-001 -3.028286e-001
<VARIANCE> 25
 3.901395e+001 4.685835e+001 1.003161e+002 5.339958e+001 2.869132e+001 4.588092e+001 4.439595e+001 3.496554e+001 3.416470e+001 3.463146e+001 3.033457e+001 2.269884e+001 1.038337e+000 1.381160e+000 2.616247e+000 1.702812e+000 1.671862e+000 2.346812e+000 2.716851e+000 2.567230e+000 2.937736e+000 2.134014e+000 2.366800e+000 1.778407e+000 6.494334e-001
<GCONST> 9.818993e+001
<STATE> 4
<MEAN> 25
 -7.460145e+000 2.907958e+000 -2.711915e+000 5.668972e+000 1.927748e+000 1.682159e+000 4.548687e+000 3.330700e+000 3.551877e+000 3.075439e+000 6.736636e-001 2.499843e+000 6.507336e-003 9.740546e-003 -2.559898e-003 -6.136250e-003 -4.226716e-002 -3.122294e-002 -1.890416e-002 -1.040470e-002 -2.733285e-002 -2.720897e-002 -5.473539e-003 1.594897e-003 -4.096343e-002
<VARIANCE> 25
 2.719936e+001 1.461380e+001 2.295977e+001 1.723099e+001 1.457125e+001 2.991338e+001 1.791708e+001 1.875595e+001 1.928016e+001 2.238640e+001 1.659943e+001 1.534048e+001 5.640715e-001 4.659635e-001 6.991217e-001 7.890726e-001 8.791116e-001 1.043227e+000 1.298234e+000 1.236533e+000 1.332490e+000 1.295806e+000 1.232518e+000 1.187383e+000 3.970986e-001
<GCONST> 7.987372e+001
<TRANSP> 5
 0.000000e+000 1.000000e+000 0.000000e+000 0.000000e+000 0.000000e+000
 0.000000e+000 6.256998e-001 3.743002e-001 0.000000e+000 0.000000e+000
 0.000000e+000 0.000000e+000 6.533536e-001 3.466464e-001 0.000000e+000
 0.000000e+000 0.000000e+000 0.000000e+000 9.483588e-001 5.164120e-002
 0.000000e+000 0.000000e+000 0.000000e+000 0.000000e+000 0.000000e+000
<ENDHMM>
~h "t"
<BEGINHMM>
<NUMSTATES> 5
<STATE> 2
<MEAN> 25
 7.114351e-001 6.242585e-001 -2.121319e+000 1.605529e-001 1.038026e+000 1.069971e+000 1.578684e+000 -1.128480e+000 -5.968764e-001 4.842989e-001 -2.614464e-001 2.162418e-001 -8.840106e-002 -1.630307e-001 -7.480881e-003 -1.393380e-001 1.794711e-001 -6.782846e-002 2.074541e-002 6.151384e-004 2.487465e-001 2.271433e-001 -2.250214e-002 2.069959e-001 3.268727e-001
<VARIANCE> 25
 5.592776e+001 8.378894e+001 7.529222e+001 8.961245e+001 4.965700e+001 5.703328e+001 8.508329e+001 6.305072e+001 5.946762e+001 5.925413e+001 5.838406e+001 4.271359e+001 2.218935e+000 4.979373e+000 3.747110e+000 5.543607e+000 3.597670e+000 4.210723e+000 5.852539e+000 4.253545e+000 4.848418e+000 3.730799e+000 4.112084e+000 2.883271e+000 5.658328e+000
<GCONST> 1.142111e+002
<STATE> 3
<MEAN> 25
 1.021856e+000 -9.105670e-001 -8.331003e-001 -9.946538e-001 1.337743e+000 -2.171229e-001 7.116181e-002 -1.476440e+000 -1.731199e-001 2.666127e-001 -7.954632e-001 2.899942e-001 3.349677e-001 -7.020754e-001 2.096260e-001 -9.975767e-001 -2.046274e-001 -7.174234e-001 -4.749408e-001 -3.685713e-001 -1.096365e-001 -2.368693e-001 -2.745441e-002 3.372411e-002 1.379391e+000
<VARIANCE> 25
 5.641098e+001 8.844167e+001 7.822205e+001 9.506097e+001 4.896755e+001 6.372700e+001 7.543696e+001 5.935611e+001 5.973804e+001 5.614384e+001 5.753069e+001 4.300495e+001 4.026855e+000 6.528664e+000 4.088794e+000 8.140951e+000 3.321152e+000 5.821808e+000 5.828927e+000 4.688952e+000 5.102824e+000 4.222034e+000 4.322212e+000 3.362381e+000 8.880958e+000
<GCONST> 1.167349e+002
<STATE> 4
<MEAN> 25
 -8.820027e-001 -7.777479e-001 -6.235480e-001 -2.358880e+000 1.848783e+000 -1.087044e-001 9.972546e-001 -9.923003e-001 9.544390e-001 5.644661e-001 -3.596027e-001 1.083459e+000 9.639820e-002 -8.777603e-002 1.919039e-001 -2.039692e-001 -2.140439e-001 -3.183663e-001 -3.376716e-001 -2.731867e-002 -9.411921e-002 -1.804526e-001 -4.460889e-002 -1.413267e-001 2.664904e-001
<VARIANCE> 25
 7.010099e+001 7.199883e+001 1.158849e+002 1.038073e+002 7.693149e+001 6.050878e+001 7.121905e+001 5.474630e+001 6.114322e+001 6.195655e+001 4.811443e+001 4.189412e+001 1.932935e+000 3.508662e+000 2.768948e+000 3.453265e+000 2.131377e+000 3.345333e+000 3.523950e+000 3.228814e+000 3.459132e+000 2.956149e+000 2.880949e+000 2.202753e+000 3.491913e+000
<GCONST> 1.104225e+002
<TRANSP> 5
 0.000000e+000 1.000000e+000 0.000000e+000 0.000000e+000 0.000000e+000
 0.000000e+000 3.834618e-001 6.165382e-001 0.000000e+000 0.000000e+000
 0.000000e+000 0.000000e+000 3.592609e-001 6.407390e-001 0.000000e+000
 0.000000e+000 0.000000e+000 0.000000e+000 4.371351e-001 5.628650e-001
 0.000000e+000 0.000000e+000 0.000000e+000 0.000000e+000 0.000000e+000
<ENDHMM>
~h "aa"
<BEGINHMM>
<NUMSTATES> 5
<STATE> 2
<MEAN> 25
 1.870200e+000 -3.074671e+000 -2.501381e+000 -1.783718e+000 1.993923e+000 1.031222e+000 9.743170e-001 7.076872e-002 -5.903726e-001 -4.591108e-001 3.103162e-001 -5.175050e-001 -1.853321e-001 1.597909e-001 -1.448066e-001 2.106290e-001 2.063164e-001 3.107745e-001 2.435656e-001 1.563785e-001 2.278678e-001 2.147484e-001 -2.543168e-002 4.416351e-002 -3.400800e-001
<VARIANCE> 25
 6.005046e+001 1.042067e+002 5.642473e+001 1.021541e+002 4.450023e+001 5.436864e+001 6.358967e+001 5.999767e+001 5.182585e+001 7.762225e+001 5.337801e+001 4.081684e+001 1.193600e+000 2.742898e+000 1.883424e+000 2.572450e+000 1.955546e+000 2.296262e+000 2.961108e+000 2.581742e+000 2.757205e+000 2.497017e+000 2.735551e+000 2.146557e+000 1.928972e+000
<GCONST> 1.060286e+002
<STATE> 3
<MEAN> 25
 1.111067e+000 -2.558564e+000 -2.428945e+000 -9.418463e-001 2.185254e+000 1.599727e+000 1.076821e+000 4.464036e-001 3.474605e-001 3.331425e-001 3.706018e-001 -7.128461e-002 -2.083191e-001 1.387091e-001 -6.600592e-002 1.631753e-001 2.432946e-002 1.119197e-001 8.918153e-002 1.031354e-001 2.003139e-001 2.022429e-001 -2.906370e-004 2.554589e-002 -3.340225e-001
<VARIANCE> 25
 6.249589e+001 9.572218e+001 4.973006e+001 9.220187e+001 3.737999e+001 5.135596e+001 5.855980e+001 4.939129e+001 4.880194e+001 6.837741e+001 4.561303e+001 3.829503e+001 7.011157e-001 2.316965e+000 1.316081e+000 1.951923e+000 1.575505e+000 1.888472e+000 2.409706e+000 2.107409e+000 2.237132e+000 2.024920e+000 2.324691e+000 1.803653e+000 1.488398e+000
<GCONST> 1.016679e+002
<STATE> 4
<MEAN> 25
 -2.244199e+000 -1.489192e+000 -1.885462e+000 1.192509e+000 2.224601e+000 2.013747e+000 1.874337e+000 3.071997e+000 2.339441e+000 2.825869e+000 6.834819e-001 5.341721e-001 -5.975323e-002 1.260005e-001 -7.062912e-003 1.056641e-001 -2.627164e-002 -2.043284e-002 3.231631e-002 2.416294e-003 1.003716e-002 2.968194e-002 -2.620428e-002 5.857164e-003 -1.608555e-001
<VARIANCE> 25
 6.149118e+001 8.973384e+001 3.159752e+001 9.191373e+001 1.945833e+001 2.743135e+001 3.799501e+001 2.697685e+001 2.983057e+001 3.716603e+001 2.940255e+001 3.019605e+001 2.584532e-001 6.182258e-001 5.278252e-001 7.998517e-001 8.079020e-001 9.619426e-001 1.131207e+000 1.192616e+000 1.241868e+000 1.152753e+000 1.163723e+000 1.029536e+000 3.112016e-001
<GCONST> 8.627196e+001
<TRANSP> 5
 0.000000e+000 1.000000e+000 0.000000e+000 0.000000e+000 0.000000e+000
 0.000000e+000 3.870529e-001 6.129472e-001 0.000000e+000 0.000000e+000
 0.000000e+000 0.000000e+000 2.795723e-001 7.204277e-001 0.000000e+000
 0.000000e+000 0.000000e+000 0.000000e+000 8.751032e-001 1.248967e-001
 0.000000e+000 0.000000e+000 0.000000e+000 0.000000e+000 0.000000e+000
<ENDHMM>
~h "eu"
<BEGINHMM>
<NUMSTATES> 5
<STATE> 2
<MEAN> 25
 -3.768798e+000 1.718436e+000 -2.741467e+000 2.308190e+000 2.579628e+000 9.885212e-001 4.058501e+000 1.858777e+000 3.358387e+000 2.455424e+000 3.836360e-002 2.179915e+000 6.532982e-001 -1.066470e-001 7.011349e-001 -4.489936e-001 7.927942e-002 -4.734299e-001 -6.386753e-001 -4.707816e-001 -3.888125e-001 -2.587189e-001 7.000165e-002 -1.277108e-001 1.236181e+000
<VARIANCE> 25
 6.506589e+001 5.215730e+001 5.294299e+001 5.720626e+001 2.999518e+001 5.302281e+001 5.271634e+001 4.079649e+001 3.969974e+001 4.640971e+001 3.939447e+001 2.794277e+001 4.711945e+000 5.701025e+000 5.511593e+000 5.287976e+000 3.293208e+000 4.773636e+000 5.646104e+000 4.659859e+000 4.266766e+000 4.467277e+000 4.143867e+000 2.650663e+000 5.254542e+000
<GCONST> 1.113515e+002
<STATE> 3
<MEAN> 25
 1.223009e+000 3.395182e-001 2.373688e+000 -3.579441e-001 1.884123e+000 -1.166354e+000 -1.355498e+000 -8.992590e-001 1.165173e-002 1.801941e-001 2.999958e-001 5.736486e-001 1.829605e+000 -1.885509e+000 9.232901e-001 -2.132153e+000 -4.128145e-001 -7.615888e-001 -1.872519e+000 -5.829554e-001 -9.880999e-001 -1.012869e+000 4.154316e-001 -7.293991e-001 3.348783e+000
<VARIANCE> 25
 8.520969e+001 9.316326e+001 7.204964e+001 8.599864e+001 4.812157e+001 7.161623e+001 6.366458e+001 5.680463e+001 5.776945e+001 5.408260e+001 5.310055e+001 2.967736e+001 7.874434e+000 1.153261e+001 8.393909e+000 9.349178e+000 5.316986e+000 8.000900e+000 7.823028e+000 8.457926e+000 7.369086e+000 7.932883e+000 7.007975e+000 3.700265e+000 9.252910e+000
<GCONST> 1.217689e+002
<STATE> 4
<MEAN> 25
 4.499634e+000 -8.161382e+000 6.011711e+000 -6.885721e+000 9.436793e-001 6.748863e-001 -6.391217e+000 4.226249e-001 -2.100043e+000 -3.451446e-001 2.737597e+000 -1.887643e+000 6.265080e-001 -1.645558e-002 -2.602958e-001 -2.380692e-001 -2.250030e-001 -2.034896e-001 -4.616746e-002 -2.098941e-001 -4.639859e-001 -4.257025e-001 -8.362922e-002 -2.822815e-001 4.950121e-001
<VARIANCE> 25
 9.541953e+001 1.386695e+002 1.089807e+002 1.192398e+002 6.511966e+001 7.742802e+001 8.613940e+001 6.007333e+001 7.417438e+001 8.786256e+001 6.355418e+001 3.630677e+001 3.438716e+000 7.176813e+000 3.555048e+000 5.578275e+000 3.691846e+000 3.945125e+000 5.026506e+000 4.287793e+000 5.299822e+000 4.380090e+000 4.290642e+000 2.711923e+000 4.658042e+000
<GCONST> 1.175925e+002
<TRANSP> 5
 0.000000e+000 1.000000e+000 0.000000e+000 0.000000e+000 0.000000e+000
 0.000000e+000 4.481583e-001 5.518417e-001 0.000000e+000 0.000000e+000
 0.000000e+000 0.000000e+000 5.504054e-001 4.495946e-001 0.000000e+000
 0.000000e+000 0.000000e+000 0.000000e+000 7.367929e-001 2.632072e-001
 0.000000e+000 0.000000e+000 0.000000e+000 0.000000e+000 0.000000e+000
<ENDHMM>
~h "hh"
<BEGINHMM>
<NUMSTATES> 5
<STATE> 2
<MEAN> 25
 5.757489e-001 -5.495673e-001 -5.451944e+000 -1.335069e+000 1.795860e+000 2.861277e+000 4.988140e+000 5.452823e-001 8.531070e-001 2.399192e-001 -1.593210e+000 1.092248e+000 -4.387058e-001 3.327338e-001 -1.187312e-001 5.188597e-001 5.496602e-001 4.065419e-001 3.064908e-001 3.687055e-001 5.138952e-001 4.759328e-001 -2.012357e-001 1.593755e-001 -6.444705e-001
<VARIANCE> 25
 4.576387e+001 5.730268e+001 6.043589e+001 7.322134e+001 6.880933e+001 6.531930e+001 9.540517e+001 7.533073e+001 6.577715e+001 5.844876e+001 6.624618e+001 4.298281e+001 8.394791e-001 2.329580e+000 2.285361e+000 3.265610e+000 3.148419e+000 3.382293e+000 3.139027e+000 3.806975e+000 2.974280e+000 3.176608e+000 3.137764e+000 2.740987e+000 8.911017e-001
<GCONST> 1.075223e+002
<STATE> 3
<MEAN> 25
 -1.173798e+000 7.246604e-001 -5.184998e+000 1.137077e+000 4.613006e+000 4.347446e+000 5.131551e+000 1.458273e+000 3.057823e+000 2.535833e+000 -1.478910e+000 1.212095e+000 -3.125492e-001 1.790964e-001 1.371712e-001 2.949859e-001 1.048805e-002 -4.509998e-002 -3.821876e-003 2.082684e-001 3.095219e-001 3.068099e-001 4.108487e-002 7.195846e-002 -5.435892e-001
<VARIANCE> 25
 4.249193e+001 4.176453e+001 4.794934e+001 5.886072e+001 5.377610e+001 6.045161e+001 6.366445e+001 6.278345e+001 6.830514e+001 4.980688e+001 4.876130e+001 3.784959e+001 7.351034e-001 1.283042e+000 1.962435e+000 2.192494e+000 2.352774e+000 2.622311e+000 2.777778e+000 3.085098e+000 2.759859e+000 2.253607e+000 2.260445e+000 1.957430e+000 6.367793e-001
<GCONST> 1.016385e+002
<STATE> 4
<MEAN> 25
 -5.943003e+000 3.574412e+000 -4.189023e+000 5.196308e+000 2.478221e+000 2.684607e-001 3.956246e+000 1.746466e+000 2.225006e+000 1.143821e+000 -1.249792e+000 1.687603e+000 -1.247817e-001 3.414088e-003 6.766960e-003 4.139593e-002 -3.401504e-002 -4.985894e-002 -1.322400e-002 2.865600e-002 3.145004e-002 3.032447e-002 4.302226e-002 2.814807e-002 -1.449079e-001
<VARIANCE> 25
 3.144986e+001 1.395313e+001 1.912819e+001 2.173100e+001 1.609872e+001 2.386668e+001 1.767178e+001 2.089938e+001 2.719560e+001 2.537467e+001 1.991514e+001 1.916720e+001 3.542850e-001 4.265691e-001 6.359946e-001 7.984808e-001 1.036873e+000 1.082729e+000 1.232306e+000 1.408026e+000 1.460786e+000 1.305967e+000 1.326887e+000 1.223185e+000 2.092095e-001
<GCONST> 8.007065e+001
<TRANSP> 5
 0.000000e+000 1.000000e+000 0.000000e+000 0.000000e+000 0.000000e+000
 0.000000e+000 4.900898e-001 5.099103e-001 0.000000e+000 0.000000e+000
 0.000000e+000 0.000000e+000 4.676388e-001 5.323613e-001 0.000000e+000
 0.000000e+000 0.000000e+000 0.000000e+000 9.254330e-001 7.456695e-002
 0.000000e+000 0.000000e+000 0.000000e+000 0.000000e+000 0.000000e+000
<ENDHMM>
~h "ih"
<BEGINHMM>
<NUMSTATES> 5
<STATE> 2
<MEAN> 25
 3.839480e+000 -2.069005e+000 1.030915e+001 8.417806e-001 -1.778490e+000 -5.949323e+000 -7.518102e+000 6.679261e-001 -2.531983e+000 -6.472190e+000 -1.383614e+000 -2.292726e+000 1.876701e-001 -1.271625e-001 1.270821e+000 1.483250e-001 -5.715145e-001 -6.509532e-001 -7.752634e-001 2.655005e-001 -4.189047e-001 -7.653770e-001 1.551042e-002 -1.803041e-001 5.237051e-001
<VARIANCE> 25
 4.538958e+001 9.100977e+001 1.588806e+002 1.047222e+002 5.998367e+001 8.795261e+001 8.333404e+001 1.002112e+002 6.806409e+001 8.377457e+001 6.434818e+001 3.960494e+001 2.551523e+000 6.484018e+000 7.716609e+000 7.306691e+000 4.686210e+000 6.470819e+000 7.306076e+000 6.146531e+000 5.708113e+000 5.804813e+000 4.204203e+000 3.456661e+000 5.318886e+000
<GCONST> 1.199884e+002
<STATE> 3
<MEAN> 25
 4.094504e+000 -4.758328e-001 1.107870e+001 2.764663e+000 -2.093382e+000 -8.049187e+000 -8.040157e+000 2.083578e-001 -4.699986e+000 -1.007977e+001 -2.813426e+000 -1.757508e+000 -6.969289e-003 4.126674e-001 -6.872336e-001 9.066380e-002 2.360073e-001 7.258514e-001 4.157738e-001 -4.138200e-001 -9.282597e-002 3.852240e-001 2.389129e-002 1.726243e-001 -4.993716e-001
<VARIANCE> 25
 2.656111e+001 7.448431e+001 1.680599e+002 1.313820e+002 6.125253e+001 1.057955e+002 8.942290e+001 9.580678e+001 6.973834e+001 7.650723e+001 6.781829e+001 4.140298e+001 9.245312e-001 3.013608e+000 4.278553e+000 4.440552e+000 3.652093e+000 5.084540e+000 4.402216e+000 4.964497e+000 4.004432e+000 3.929484e+000 3.429121e+000 3.250807e+000 1.633774e+000
<GCONST> 1.135269e+002
<STATE> 4
<MEAN> 25
 5.829562e+000 2.003821e-001 1.267703e+001 -5.587989e+000 -9.145630e+000 -2.570760e+000 -6.420601e+000 -3.100760e+000 -7.089093e+000 -5.477466e+000 2.067173e+000 -2.764480e+000 5.420508e-003 2.120451e-001 -4.517238e-001 2.449727e-001 1.798856e-001 1.652091e-001 2.823271e-001 -9.306818e-002 5.964037e-002 2.493975e-001 -5.710281e-003 7.179379e-002 -4.097640e-001
<VARIANCE> 25
 3.206716e+001 8.156049e+001 1.683622e+002 1.215440e+002 1.025578e+002 1.062966e+002 7.155948e+001 8.133308e+001 7.216911e+001 6.171608e+001 1.282712e+002 5.336922e+001 5.730038e-001 1.196408e+000 1.804639e+000 2.159516e+000 2.282689e+000 2.330100e+000 2.222030e+000 2.425313e+000 2.243994e+000 2.218164e+000 2.263515e+000 1.771964e+000 8.361976e-001
<GCONST> 1.060946e+002
<TRANSP> 5
 0.000000e+000 1.000000e+000 0.000000e+000 0.000000e+000 0.000000e+000
 0.000000e+000 7.283505e-001 2.716495e-001 0.000000e+000 0.000000e+000
 0.000000e+000 0.000000e+000 6.613044e-001 3.386955e-001 0.000000e+000
 0.000000e+000 0.000000e+000 0.000000e+000 8.337058e-001 1.662942e-001
 0.000000e+000 0.000000e+000 0.000000e+000 0.000000e+000 0.000000e+000
<ENDHMM>
~h "jh"
<BEGINHMM>
<NUMSTATES> 5
<STATE> 2
<MEAN> 25
 2.839295e+000 4.861573e+000 3.835575e+000 -1.663142e+000 1.197819e-001 -3.300078e+000 -2.591552e+000 -4.936987e+000 -3.346161e+000 -4.908883e+000 -8.055509e+000 -3.762448e+000 -1.496096e-001 -2.370946e-002 1.053806e+000 7.555583e-001 3.343818e-001 5.037003e-001 -5.591500e-001 5.676082e-001 5.804806e-002 -2.874573e-001 -5.992151e-002 -7.431408e-001 1.874341e-001
<VARIANCE> 25
 4.594085e+001 4.432758e+001 6.708724e+001 1.079999e+002 4.632077e+001 7.366324e+001 5.241378e+001 9.779514e+001 6.628742e+001 5.515841e+001 9.686253e+001 4.551588e+001 3.918952e+000 5.954492e+000 7.441299e+000 6.731336e+000 4.750158e+000 6.944387e+000 5.812004e+000 5.595915e+000 4.807929e+000 4.092238e+000 4.918032e+000 2.719343e+000 4.691825e+000
<GCONST> 1.168871e+002
<STATE> 3
<MEAN> 25
 2.893848e+000 2.163849e+000 6.471039e+000 1.527803e+000 1.999924e+000 -2.223728e+000 -4.270324e+000 -1.707607e+000 -2.999434e+000 -3.801625e+000 -4.644969e+000 -4.379728e+000 -5.964754e-002 -1.578366e+000 8.916806e-002 -6.707475e-001 1.183856e-001 -4.507446e-001 -9.247924e-002 -1.069788e-001 6.442975e-002 4.058488e-001 5.078731e-001 1.447662e-001 1.611504e+000
<VARIANCE> 25
 4.883728e+001 9.485942e+001 9.147087e+001 9.450081e+001 4.889932e+001 1.155467e+002 7.431338e+001 6.686803e+001 5.437144e+001 5.656740e+001 7.515990e+001 4.448658e+001 5.922936e+000 1.125617e+001 7.353523e+000 1.182886e+001 5.866626e+000 1.183696e+001 7.300945e+000 6.651855e+000 6.159952e+000 6.251148e+000 7.315043e+000 4.736923e+000 8.134314e+000
<GCONST> 1.228301e+002
<STATE> 4
<MEAN> 25
 -4.913294e-002 -6.858865e+000 1.270152e+001 -9.535257e-001 1.340307e+000 -1.421413e+000 -9.112644e+000 -2.478510e-001 7.933747e-001 -2.954754e+000 7.990072e-001 -2.569849e+000 4.429629e-001 -7.033959e-001 -1.334428e-001 -6.261121e-001 -3.550931e-001 -1.346903e-001 -5.080780e-001 -5.476261e-002 2.336877e-001 -4.318965e-002 2.855737e-001 -1.276335e-001 7.199839e-001
<VARIANCE> 25
 7.345710e+001 1.617974e+002 1.278155e+002 1.199018e+002 1.141578e+002 8.206158e+001 1.570752e+002 6.781637e+001 5.014212e+001 4.568785e+001 4.615583e+001 3.752304e+001 4.942679e+000 7.729957e+000 5.283803e+000 6.066556e+000 5.689221e+000 4.917635e+000 6.633794e+000 5.911375e+000 4.726656e+000 3.922784e+000 3.705369e+000 3.457695e+000 2.686074e+000
<GCONST> 1.191489e+002
<TRANSP> 5
 0.000000e+000 1.000000e+000 0.000000e+000 0.000000e+000 0.000000e+000
 0.000000e+000 5.139930e-001 4.860070e-001 0.000000e+000 0.000000e+000
 0.000000e+000 0.000000e+000 6.293672e-001 3.706328e-001 0.000000e+000
 0.000000e+000 0.000000e+000 0.000000e+000 7.510403e-001 2.489597e-001
 0.000000e+000 0.000000e+000 0.000000e+000 0.000000e+000 0.000000e+000
<ENDHMM>
~h "ng"
<BEGINHMM>
<NUMSTATES> 5
<STATE> 2
<MEAN> 25
 7.417677e+000 6.574857e+000 -1.374020e-001 3.940394e+000 -2.312171e+000 -6.764255e-001 2.390360e-001 -9.541347e+000 -8.197801e+000 -1.535399e+000 -3.300737e+000 -2.126337e+000 -7.368159e-001 2.680719e-001 5.166454e-002 5.195978e-001 5.167633e-001 3.258702e-001 3.063960e-001 1.659159e-001 6.668186e-001 4.178262e-001 -2.746975e-001 3.733029e-002 -7.783858e-001
<VARIANCE> 25
 4.926997e+001 4.079510e+001 3.040687e+001 3.661814e+001 5.955462e+001 4.862051e+001 1.009418e+002 7.475205e+001 6.634501e+001 5.915882e+001 7.558557e+001 6.404608e+001 5.877154e-001 1.822006e+000 1.788030e+000 1.668106e+000 2.486637e+000 2.964963e+000 3.903683e+000 4.132331e+000 3.681539e+000 3.534324e+000 3.604126e+000 2.796203e+000 3.738638e-001
<GCONST> 1.040598e+002
<STATE> 3
<MEAN> 25
 -2.227948e+000 3.809989e+000 -3.082233e+000 5.311734e+000 5.214772e+000 3.272092e+000 4.463101e+000 -6.827821e-001 1.154172e+000 2.198755e+000 -1.872239e+000 6.205454e-001 -7.232823e-001 -2.723039e-001 -3.081990e-001 -1.088822e-002 3.137843e-002 2.359083e-001 5.627272e-001 7.974714e-001 9.345391e-001 7.693514e-001 4.584680e-001 4.325218e-001 -6.393620e-001
<VARIANCE> 25
 2.950869e+001 4.201711e+001 5.497861e+001 3.599775e+001 3.940910e+001 4.623914e+001 5.992091e+001 4.027024e+001 4.454564e+001 4.958788e+001 6.528548e+001 4.780860e+001 5.845813e-001 1.611089e+000 1.869939e+000 1.722802e+000 2.713618e+000 3.693605e+000 3.821620e+000 3.401233e+000 3.049362e+000 3.202760e+000 3.353402e+000 3.381086e+000 3.420436e-001
<GCONST> 1.013167e+002
<STATE> 4
<MEAN> 25
 -5.878110e+000 3.029082e+000 -2.067623e+000 5.737658e+000 1.629224e+000 2.085783e+000 3.938705e+000 3.322146e+000 3.220387e+000 3.091463e+000 5.148476e-001 2.066014e+000 -8.024219e-002 -3.601231e-002 -1.857525e-002 -1.187466e-002 -1.295991e-002 6.830903e-005 1.854873e-002 4.222236e-002 4.316062e-002 1.587627e-002 9.859766e-003 1.500999e-002 -4.753543e-002
<VARIANCE> 25
 1.603736e+001 6.755108e+000 1.971638e+001 9.232175e+000 1.079705e+001 2.412021e+001 1.358041e+001 1.747994e+001 1.765974e+001 2.184972e+001 1.756339e+001 1.384210e+001 2.221166e-001 3.007791e-001 4.540435e-001 6.440312e-001 7.948818e-001 9.879507e-001 1.139831e+000 1.218795e+000 1.224831e+000 1.195759e+000 1.195349e+000 1.055000e+000 1.189966e-001
<GCONST> 7.295376e+001
<TRANSP> 5
 0.000000e+000 1.000000e+000 0.000000e+000 0.000000e+000 0.000000e+000
 0.000000e+000 8.410718e-001 1.589282e-001 0.000000e+000 0.000000e+000
 0.000000e+000 0.000000e+000 6.722043e-001 3.277958e-001 0.000000e+000
 0.000000e+000 0.000000e+000 0.000000e+000 9.797990e-001 2.020099e-002
 0.000000e+000 0.000000e+000 0.000000e+000 0.000000e+000 0.000000e+000
<ENDHMM>
~h "ny"
<BEGINHMM>
<NUMSTATES> 5
<STATE> 2
<MEAN> 25
 -9.845306e-001 -6.942292e-001 -6.200665e-001 -3.207321e-001 1.754396e+000 1.478166e+000 6.063511e-001 -3.531304e+000 5.459324e-001 8.780693e-001 -1.127726e+000 -1.628937e-001 9.607056e-001 -1.184452e-001 1.211231e+000 -3.674245e-001 -5.080827e-001 -6.269979e-002 -7.034699e-001 -5.198691e-001 -9.010952e-001 -8.879770e-001 -4.125807e-002 -4.285575e-001 1.221379e+000
<VARIANCE> 25
 8.520187e+001 1.100266e+002 9.462914e+001 9.491360e+001 3.594529e+001 9.415802e+001 6.324353e+001 7.442267e+001 6.787828e+001 7.129898e+001 6.551893e+001 5.186710e+001 4.022581e+000 6.735481e+000 9.701211e+000 5.238504e+000 4.046808e+000 6.540902e+000 5.464976e+000 5.269601e+000 6.226896e+000 4.833771e+000 5.423637e+000 3.754614e+000 4.844965e+000
<GCONST> 1.192551e+002
<STATE> 3
<MEAN> 25
 4.747798e+000 -4.596740e+000 6.087563e+000 -1.778165e+000 -7.594189e-001 -2.929262e+000 -4.898793e+000 -2.751612e+000 -4.535410e+000 -5.675828e+000 -7.588686e-001 -3.738951e+000 4.032965e-001 -1.351579e+000 -3.821278e-001 -4.685406e-001 2.688934e-002 -3.323386e-001 -2.456350e-001 6.082543e-001 -2.551986e-002 -5.608600e-002 7.887093e-001 -3.466841e-001 9.962237e-001
<VARIANCE> 25
 4.231277e+001 1.044302e+002 1.426430e+002 1.020052e+002 4.499345e+001 1.025842e+002 7.199347e+001 7.219927e+001 5.158573e+001 6.927679e+001 6.025513e+001 5.813946e+001 1.648553e+000 5.015069e+000 7.105302e+000 4.935634e+000 4.116971e+000 8.320280e+000 4.422628e+000 4.191541e+000 3.984064e+000 4.124039e+000 3.519555e+000 2.858227e+000 2.842574e+000
<GCONST> 1.155376e+002
<STATE> 4
<MEAN> 25
 8.517745e+000 -7.283480e+000 1.278529e+000 -8.302376e+000 -3.640785e+000 5.974028e-002 -5.397153e-001 5.616926e-001 -8.462904e+000 -7.306807e+000 5.574309e+000 -4.201295e+000 6.701034e-003 2.526150e-001 -1.876283e-001 2.158854e-002 -4.434212e-002 9.410735e-002 2.103084e-001 -8.802763e-003 -7.243200e-002 -4.125512e-002 -8.218587e-002 1.066270e-001 -2.295057e-001
<VARIANCE> 25
 3.029459e+001 7.916928e+001 9.024464e+001 6.857940e+001 8.833456e+001 4.977448e+001 8.231811e+001 9.777979e+001 5.037243e+001 5.935960e+001 6.142647e+001 4.478320e+001 3.421646e-001 1.486997e+000 1.369007e+000 1.618284e+000 2.088565e+000 2.004900e+000 2.034098e+000 1.784199e+000 1.607672e+000 1.678755e+000 1.946388e+000 1.463484e+000 5.314246e-001
<GCONST> 1.000130e+002
<TRANSP> 5
 0.000000e+000 1.000000e+000 0.000000e+000 0.000000e+000 0.000000e+000
 0.000000e+000 6.492449e-001 3.507551e-001 0.000000e+000 0.000000e+000
 0.000000e+000 0.000000e+000 5.975717e-001 4.024283e-001 0.000000e+000
 0.000000e+000 0.000000e+000 0.000000e+000 8.780339e-001 1.219661e-001
 0.000000e+000 0.000000e+000 0.000000e+000 0.000000e+000 0.000000e+000
<ENDHMM>
~h "uw"
<BEGINHMM>
<NUMSTATES> 5
<STATE> 2
<MEAN> 25
 7.087192e+000 3.028708e+000 2.809881e+000 -6.584548e+000 -5.074977e+000 -4.628335e+000 -4.838311e+000 -3.545436e+000 -2.235710e+000 -5.255481e+000 -2.949990e+000 -3.202889e+000 3.567982e-001 5.948294e-001 2.799852e-001 -1.616598e-001 -4.741959e-001 -4.321859e-001 -6.833069e-002 -4.343733e-001 -3.350973e-001 -1.344824e-001 -3.640915e-001 -1.969603e-001 1.070935e-002
<VARIANCE> 25
 4.163133e+001 7.824197e+001 1.029334e+002 9.795657e+001 7.756436e+001 1.017637e+002 9.457640e+001 9.012654e+001 7.188029e+001 7.433224e+001 7.789211e+001 4.869035e+001 1.669147e+000 4.612881e+000 4.804408e+000 6.015467e+000 5.448177e+000 6.220722e+000 6.049191e+000 5.880367e+000 4.965775e+000 5.721862e+000 5.001797e+000 3.762531e+000 2.593532e+000
<GCONST> 1.178374e+002
<STATE> 3
<MEAN> 25
 7.288582e+000 5.684566e+000 4.076119e+000 -6.719104e+000 -9.018311e+000 -6.428377e+000 -2.657024e+000 -5.939514e+000 -3.356777e+000 -2.873018e+000 -5.101547e+000 -4.095776e+000 -1.779857e-001 -9.096330e-002 -3.178525e-001 2.495413e-001 4.065858e-001 4.226266e-001 2.695431e-001 -3.228875e-002 -5.433339e-002 -3.808523e-002 2.460120e-002 2.029723e-001 -2.454809e-001
<VARIANCE> 25
 3.610464e+001 6.029476e+001 1.014672e+002 1.096876e+002 1.216823e+002 1.019288e+002 7.195671e+001 9.461699e+001 6.998180e+001 6.955382e+001 8.682751e+001 6.265168e+001 6.693829e-001 2.051048e+000 2.786589e+000 3.294068e+000 4.025017e+000 3.990968e+000 3.880719e+000 4.577539e+000 3.760203e+000 4.011411e+000 3.893680e+000 3.266057e+000 8.604023e-001
<GCONST> 1.115872e+002
<STATE> 4
<MEAN> 25
 1.077884e+001 4.241633e+000 -1.036744e-001 -7.496851e+000 -5.271052e+000 -1.718646e+000 -2.025374e+000 -9.035213e+000 -7.862045e+000 -5.714285e+000 -5.437667e-001 -8.962715e-001 -2.768010e-001 8.766038e-002 -5.569151e-002 4.035763e-001 2.835135e-001 1.653021e-001 1.198162e-001 1.675067e-001 1.570620e-001 2.244766e-001 6.128827e-002 1.288960e-001 -4.029630e-001
<VARIANCE> 25
 5.658237e+001 5.670729e+001 6.192167e+001 1.413559e+002 6.561511e+001 8.206918e+001 6.182554e+001 7.054391e+001 6.423737e+001 6.089821e+001 1.340652e+002 5.254617e+001 5.463101e-001 1.195464e+000 1.181378e+000 1.652271e+000 1.644910e+000 1.850952e+000 1.949169e+000 2.146495e+000 2.149081e+000 1.974651e+000 2.335577e+000 1.889742e+000 5.510305e-001
<GCONST> 1.023230e+002
<TRANSP> 5
 0.000000e+000 1.000000e+000 0.000000e+000 0.000000e+000 0.000000e+000
 0.000000e+000 7.702044e-001 2.297956e-001 0.000000e+000 0.000000e+000
 0.000000e+000 0.000000e+000 7.368799e-001 2.631201e-001 0.000000e+000
 0.000000e+000 0.000000e+000 0.000000e+000 8.190392e-001 1.809607e-001
 0.000000e+000 0.000000e+000 0.000000e+000 0.000000e+000 0.000000e+000
<ENDHMM>
~h "sil"
<BEGINHMM>
<NUMSTATES> 5
<STATE> 2
<MEAN> 25
 -1.320963e+001 2.805402e+000 -6.877948e+000 4.056117e+000 2.947541e+000 -1.138735e+000 4.977100e+000 2.406110e+000 5.759400e+000 3.281099e+000 -1.164135e+000 5.600480e+000 5.549985e-003 -1.048147e-002 5.181354e-003 -6.129707e-003 -9.549706e-003 3.919119e-003 -1.616498e-002 -1.587964e-002 -2.368118e-003 -4.959631e-003 -4.571483e-003 -1.728883e-002 7.336413e-003
<VARIANCE> 25
 3.291477e+001 7.642356e+000 1.086472e+001 1.058230e+001 1.060114e+001 8.858335e+000 1.020463e+001 1.022050e+001 1.537902e+001 1.674472e+001 1.213503e+001 1.180931e+001 6.296683e-002 1.325164e-001 1.999423e-001 2.984083e-001 3.904163e-001 4.085417e-001 5.808272e-001 7.722369e-001 7.752647e-001 6.945282e-001 6.368209e-001 6.486086e-001 3.719262e-002
<GCONST> 6.088729e+001
<STATE> 3
<MEAN> 25
 -4.468521e+000 1.958343e+000 4.963547e-001 5.606236e+000 6.482908e-001 5.594554e+000 2.555696e+000 5.322287e+000 4.273360e+000 5.087113e+000 2.964803e+000 1.734489e+000 5.797635e-002 7.128833e-003 4.502722e-002 -4.111103e-003 1.350007e-002 -1.575924e-002 7.313984e-003 6.520847e-003 -7.025330e-003 1.063727e-002 1.128426e-003 9.074645e-003 6.490490e-002
<VARIANCE> 25
 7.544818e+000 3.940709e+000 1.057124e+001 6.647086e+000 8.663754e+000 1.024579e+001 1.086241e+001 1.068242e+001 1.050084e+001 1.205758e+001 1.169787e+001 1.100703e+001 1.555599e-001 2.330241e-001 3.934345e-001 5.636907e-001 6.455119e-001 7.743599e-001 9.268784e-001 9.866110e-001 1.028929e+000 1.021531e+000 9.664164e-001 8.932505e-001 1.035614e-001
<GCONST> 6.455939e+001
<STATE> 4
<MEAN> 25
 1.105277e+000 -2.573805e-001 3.404924e-001 -6.339791e-001 -3.250401e-001 -4.942678e-001 -5.741509e-001 -6.259573e-001 -6.464701e-001 -6.023434e-001 -2.348435e-001 -4.378508e-001 4.042072e-003 -9.959405e-004 9.657147e-004 -7.052330e-004 -9.594650e-005 -2.185437e-004 -4.442855e-004 -1.818004e-004 -2.926622e-004 -2.502154e-004 5.540639e-004 -1.490687e-003 4.248115e-003
<VARIANCE> 25
 8.136269e+001 8.024119e+001 7.275034e+001 1.025098e+002 4.916997e+001 6.436967e+001 6.063058e+001 6.561636e+001 5.828651e+001 6.078323e+001 5.158358e+001 3.952247e+001 1.177350e+000 2.029330e+000 1.801882e+000 2.795656e+000 1.904031e+000 2.476814e+000 2.438332e+000 2.588041e+000 2.440620e+000 2.394439e+000 2.207757e+000 1.798861e+000 2.137008e+000
<GCONST> 1.055742e+002
<TRANSP> 5
 0.000000e+000 1.000000e+000 0.000000e+000 0.000000e+000 0.000000e+000
 0.000000e+000 9.783802e-001 2.161977e-002 0.000000e+000 0.000000e+000
 0.000000e+000 0.000000e+000 9.781700e-001 2.183001e-002 0.000000e+000
 0.000000e+000 0.000000e+000 0.000000e+000 9.973680e-001 2.631955e-003
 0.000000e+000 0.000000e+000 0.000000e+000 0.000000e+000 0.000000e+000
<ENDHMM>
~h "sp"
<BEGINHMM>
<NUMSTATES> 3
<STATE> 2
<MEAN> 25
 -4.468521e+000 1.958343e+000 4.963547e-001 5.606236e+000 6.482908e-001 5.594554e+000 2.555696e+000 5.322287e+000 4.273360e+000 5.087113e+000 2.964803e+000 1.734489e+000 5.797635e-002 7.128833e-003 4.502722e-002 -4.111103e-003 1.350007e-002 -1.575924e-002 7.313984e-003 6.520847e-003 -7.025330e-003 1.063727e-002 1.128426e-003 9.074645e-003 6.490490e-002
<VARIANCE> 25
 7.544818e+000 3.940709e+000 1.057124e+001 6.647086e+000 8.663754e+000 1.024579e+001 1.086241e+001 1.068242e+001 1.050084e+001 1.205758e+001 1.169787e+001 1.100703e+001 1.555599e-001 2.330241e-001 3.934345e-001 5.636907e-001 6.455119e-001 7.743599e-001 9.268784e-001 9.866110e-001 1.028929e+000 1.021531e+000 9.664164e-001 8.932505e-001 1.035614e-001
<GCONST> 6.455939e+001
<TRANSP> 3
 0.0 1.0 0.0
 0.0 0.9 0.1
 0.0 0.0 0.0
<ENDHMM>
