~o
<STREAMINFO> 1 25
<VECSIZE> 25<NULLD><MFCC_D_N_Z_0><DIAGC>
~h "b"
<BEGINHMM>
<NUMSTATES> 5
<STATE> 2
<MEAN> 25
 -5.565000e-001 1.450857e+000 -1.514461e+000 2.064882e+000 1.504631e+000 6.425520e-001 2.585275e+000 4.365698e-001 3.101808e-001 2.895887e-001 2.490370e-001 3.875097e-001 -2.670562e-001 4.063528e-002 -6.205872e-004 1.279370e-001 1.743064e-001 1.675734e-001 3.703462e-001 2.248266e-001 3.471056e-001 3.550655e-001 9.668176e-002 8.982024e-002 -3.324310e-001
<VARIANCE> 25
 5.864116e+001 5.442411e+001 4.695187e+001 4.519540e+001 3.699392e+001 5.001823e+001 4.304348e+001 3.784388e+001 3.827564e+001 4.184151e+001 3.995540e+001 2.841755e+001 8.553553e-001 1.254371e+000 1.553547e+000 1.540965e+000 1.784338e+000 1.994788e+000 2.209213e+000 2.107756e+000 2.190569e+000 1.926552e+000 2.068956e+000 1.859368e+000 6.412256e-001
<GCONST> 9.710158e+001
<STATE> 3
<MEAN> 25
 -1.305802e+000 2.493920e+000 9.367138e-002 2.430488e+000 2.143426e+000 1.106340e+000 2.750382e+000 1.316874e-001 1.092858e+000 7.483265e-001 -4.914913e-001 -1.941655e-001 7.613188e-002 9.033847e-002 1.245667e-001 1.143126e-001 5.063692e-002 -1.814130e-002 1.021853e-001 4.072946e-002 4.699865e-002 5.212019e-002 -1.254644e-001 -9.825987e-002 -4.541470e-002
<VARIANCE> 25
 7.233695e+001 6.021911e+001 5.017904e+001 4.634040e+001 3.491492e+001 4.802455e+001 3.701298e+001 3.252242e+001 3.330398e+001 3.970617e+001 3.241785e+001 2.417491e+001 1.299979e+000 1.754848e+000 1.689667e+000 1.334451e+000 1.519262e+000 1.833643e+000 1.983781e+000 1.760096e+000 1.696574e+000 1.654114e+000 1.672506e+000 1.541622e+000 1.098499e+000
<GCONST> 9.643256e+001
<STATE> 4
<MEAN> 25
 2.570912e+000 -3.223322e+000 -1.587466e+000 -8.597890e-001 1.420416e+000 -3.254012e+000 1.453584e-001 1.445410e+000 1.060200e+000 -7.677558e-001 -1.007667e+000 -5.370596e-004 -7.510358e-002 5.466517e-002 3.174902e-002 4.889923e-002 -8.755015e-004 8.757399e-002 7.614829e-002 2.714369e-003 -6.049751e-002 5.289544e-002 -2.068715e-002 -3.505621e-002 -1.580303e-001
<VARIANCE> 25
 1.121593e+002 1.432381e+002 7.300562e+001 9.172061e+001 3.986821e+001 8.304460e+001 6.295644e+001 4.642976e+001 3.404607e+001 5.466673e+001 3.227321e+001 3.113086e+001 3.371125e-001 6.586202e-001 6.898289e-001 8.357217e-001 9.144518e-001 9.370520e-001 1.048736e+000 1.111063e+000 1.143638e+000 9.944041e-001 1.066614e+000 8.761910e-001 2.683921e-001
<GCONST> 9.165574e+001
<TRANSP> 5
 0.000000e+000 1.000000e+000 0.000000e+000 0.000000e+000 0.000000e+000
 0.000000e+000 5.859045e-001 4.140955e-001 0.000000e+000 0.000000e+000
 0.000000e+000 0.000000e+000 5.367381e-001 4.632619e-001 0.000000e+000
 0.000000e+000 0.000000e+000 0.000000e+000 8.013250e-001 1.986749e-001
 0.000000e+000 0.000000e+000 0.000000e+000 0.000000e+000 0.000000e+000
<ENDHMM>
~h "d"
<BEGINHMM>
<NUMSTATES> 5
<STATE> 2
<MEAN> 25
 1.867741e+000 2.443822e+000 2.773940e+000 3.446131e+000 2.250883e+000 1.331578e+000 4.922150e-001 -2.688608e+000 -4.862355e-001 4.823044e-001 -4.305625e-002 -2.351218e-001 1.180681e+000 -7.582700e-001 3.582487e-001 -5.296662e-001 -1.483217e-001 -5.134079e-001 -9.295013e-001 -8.681338e-002 -7.202092e-001 -4.503862e-001 1.879547e-001 -3.637318e-001 2.023544e+000
<VARIANCE> 25
 5.675128e+001 1.006063e+002 7.757423e+001 5.703491e+001 7.102584e+001 5.088720e+001 5.252023e+001 4.657881e+001 4.554087e+001 4.202193e+001 3.855289e+001 3.014153e+001 4.629158e+000 9.831734e+000 5.802145e+000 6.246859e+000 4.615883e+000 5.286507e+000 6.096571e+000 4.984345e+000 4.863707e+000 4.036267e+000 3.832246e+000 3.001482e+000 6.731347e+000
<GCONST> 1.149449e+002
<STATE> 3
<MEAN> 25
 5.433189e+000 -3.518527e+000 2.631912e+000 -1.549035e+000 6.952385e-001 -1.149476e+000 -4.934852e+000 2.621215e-001 -3.398362e+000 -2.509667e+000 4.870235e-001 -1.485140e+000 2.404439e-001 -9.841504e-001 -2.877272e-001 -8.864309e-001 -1.361000e-001 -3.682632e-001 -3.823392e-001 5.968298e-001 -1.718273e-001 -2.501310e-001 9.459963e-002 6.693607e-002 1.120630e+000
<VARIANCE> 25
 4.757197e+001 9.830128e+001 7.260212e+001 8.545876e+001 9.941273e+001 7.018996e+001 1.002260e+002 7.929879e+001 7.034538e+001 6.662984e+001 7.849986e+001 4.721851e+001 1.753123e+000 6.798065e+000 3.533982e+000 5.458256e+000 5.727976e+000 5.146003e+000 8.002978e+000 5.232358e+000 5.388638e+000 5.363446e+000 5.014486e+000 4.085435e+000 5.033285e+000
<GCONST> 1.181874e+002
<STATE> 4
<MEAN> 25
 9.068421e+000 -1.130228e+001 2.212853e+000 -8.912902e+000 7.102672e-001 -4.619530e-001 -6.035346e+000 1.446886e+000 -3.036391e+000 -1.743284e+000 1.262099e+000 -2.924806e+000 -6.494416e-002 2.028343e-001 -1.971000e-001 2.283852e-001 4.349357e-002 1.326999e-001 3.110496e-001 -5.784596e-003 4.679339e-002 -1.322517e-002 -6.388284e-002 2.693538e-002 -3.727180e-001
<VARIANCE> 25
 2.995110e+001 1.105527e+002 5.774499e+001 1.105560e+002 5.533932e+001 6.859238e+001 9.754412e+001 7.613984e+001 5.471827e+001 8.206856e+001 9.815015e+001 5.869905e+001 4.086409e-001 1.857519e+000 1.118882e+000 2.079238e+000 1.837174e+000 1.823823e+000 2.519690e+000 2.184618e+000 2.004328e+000 1.994926e+000 2.098492e+000 1.982399e+000 1.036282e+000
<GCONST> 1.033672e+002
<TRANSP> 5
 0.000000e+000 1.000000e+000 0.000000e+000 0.000000e+000 0.000000e+000
 0.000000e+000 7.366599e-001 2.633401e-001 0.000000e+000 0.000000e+000
 0.000000e+000 0.000000e+000 7.575465e-001 2.424534e-001 0.000000e+000
 0.000000e+000 0.000000e+000 0.000000e+000 9.255623e-001 7.443763e-002
 0.000000e+000 0.000000e+000 0.000000e+000 0.000000e+000 0.000000e+000
<ENDHMM>
~h "g"
<BEGINHMM>
<NUMSTATES> 5
<STATE> 2
<MEAN> 25
 -9.089434e-001 4.424173e+000 3.611884e+000 4.236328e+000 2.778896e+000 2.371219e+000 2.411083e+000 -9.733089e-001 1.160126e+000 1.465682e+000 -6.836510e-001 -1.390132e-001 2.986841e-001 3.027845e-001 3.874964e-001 4.135400e-001 2.765726e-001 1.839978e-001 1.468690e-001 -1.664868e-001 -1.529147e-001 4.885285e-002 -2.917339e-002 -1.762949e-001 1.361668e-001
<VARIANCE> 25
 4.213186e+001 5.444986e+001 6.948381e+001 3.778422e+001 3.727623e+001 2.940881e+001 3.301260e+001 2.648836e+001 3.407871e+001 2.896104e+001 2.670535e+001 2.006516e+001 2.085071e+000 3.105526e+000 2.761271e+000 2.405347e+000 2.057082e+000 1.721986e+000 2.367887e+000 1.993762e+000 2.303926e+000 2.062984e+000 1.770721e+000 1.530795e+000 1.773210e+000
<GCONST> 9.821661e+001
<STATE> 3
<MEAN> 25
 -7.120228e-002 3.796765e+000 7.003181e+000 3.346938e+000 2.506023e+000 1.020439e+000 6.266457e-001 -1.434059e+000 5.174969e-001 -1.572557e-001 -4.030235e-001 -1.679712e+000 3.681735e-001 -4.698500e-001 5.491742e-001 -6.642960e-001 -2.683747e-001 -6.474912e-001 -6.629206e-001 5.812722e-002 -3.245394e-001 -6.774999e-001 7.608210e-002 -1.977389e-001 1.817237e+000
<VARIANCE> 25
 6.717233e+001 1.009541e+002 8.602486e+001 6.397498e+001 6.719878e+001 4.272378e+001 4.547050e+001 3.699157e+001 3.495148e+001 3.702118e+001 3.241695e+001 2.101746e+001 7.545025e+000 9.446754e+000 5.784639e+000 5.953973e+000 5.207229e+000 3.783689e+000 4.695308e+000 3.846229e+000 3.717559e+000 3.915616e+000 2.788933e+000 2.212932e+000 5.190588e+000
<GCONST> 1.122867e+002
<STATE> 4
<MEAN> 25
 1.057553e+000 1.681198e+000 1.517920e+001 2.601216e+000 -3.983050e-001 -9.257146e-001 -5.941423e+000 2.331747e-003 3.283494e-001 -5.411583e+000 -1.585377e-001 -2.301544e+000 3.781825e-001 2.375720e-002 -1.821805e-001 1.146863e-001 -1.124945e-001 -1.316314e-001 -2.704759e-001 5.819281e-002 -6.283306e-002 -1.662505e-001 -1.006849e-001 9.713611e-002 8.868765e-003
<VARIANCE> 25
 4.052741e+001 1.044012e+002 1.607736e+002 7.863660e+001 1.104942e+002 3.773780e+001 5.861011e+001 5.516293e+001 3.502999e+001 4.813737e+001 3.995034e+001 2.262369e+001 1.003633e+000 1.660415e+000 1.717154e+000 1.688029e+000 2.273091e+000 1.959448e+000 2.638367e+000 2.043466e+000 1.863319e+000 1.972625e+000 1.810272e+000 1.502613e+000 1.158768e+000
<GCONST> 1.015990e+002
<TRANSP> 5
 0.000000e+000 1.000000e+000 0.000000e+000 0.000000e+000 0.000000e+000
 0.000000e+000 6.515548e-001 3.484452e-001 0.000000e+000 0.000000e+000
 0.000000e+000 0.000000e+000 6.695589e-001 3.304411e-001 0.000000e+000
 0.000000e+000 0.000000e+000 0.000000e+000 7.265751e-001 2.734249e-001
 0.000000e+000 0.000000e+000 0.000000e+000 0.000000e+000 0.000000e+000
<ENDHMM>
~h "k"
<BEGINHMM>
<NUMSTATES> 5
<STATE> 2
<MEAN> 25
 8.602000e-001 -2.724133e+000 -2.189085e+000 -3.494654e-001 1.054868e+000 -3.017287e-001 7.960130e-001 -3.857723e-001 -1.685921e-001 -7.150773e-001 -5.072207e-002 -1.162126e-001 9.805095e-001 -5.670823e-001 -4.780940e-001 -7.052666e-001 -1.522257e-001 -4.104913e-001 -1.774977e-001 4.166257e-002 -5.951246e-001 -2.970907e-001 7.031675e-002 -1.616518e-001 1.437525e+000
<VARIANCE> 25
 7.118517e+001 7.870064e+001 6.671289e+001 7.708191e+001 5.855303e+001 6.295082e+001 5.793962e+001 5.000506e+001 5.046762e+001 6.122462e+001 3.843871e+001 3.095182e+001 4.181451e+000 5.901232e+000 4.983757e+000 7.378356e+000 4.997806e+000 5.167135e+000 5.009199e+000 5.449141e+000 4.409747e+000 4.791450e+000 4.090236e+000 2.847066e+000 7.273251e+000
<GCONST> 1.152827e+002
<STATE> 3
<MEAN> 25
 5.245395e+000 -3.858083e+000 -4.211178e+000 -2.225061e+000 7.945726e-002 -2.174339e+000 -5.173578e-001 -5.105690e-001 -3.479724e+000 -2.410165e+000 3.344402e-001 -2.116802e-001 3.904388e-001 -1.935187e-001 -1.813394e-001 -3.611901e-001 8.521717e-002 -9.137319e-002 -2.033655e-002 -2.832981e-002 -1.836507e-001 -9.406515e-002 -8.657254e-002 -4.896763e-002 4.725254e-001
<VARIANCE> 25
 9.001719e+001 9.181778e+001 7.049103e+001 8.354481e+001 6.011003e+001 6.791165e+001 6.184906e+001 8.976731e+001 7.235834e+001 7.890601e+001 4.725731e+001 3.760540e+001 2.300427e+000 3.658219e+000 3.439144e+000 5.439111e+000 4.232210e+000 3.594468e+000 4.129542e+000 5.562457e+000 3.897440e+000 4.538635e+000 3.819131e+000 2.753134e+000 3.184015e+000
<GCONST> 1.140156e+002
<STATE> 4
<MEAN> 25
 8.646613e+000 -7.520050e+000 -3.005333e+000 -6.000645e+000 1.745905e+000 -2.276494e+000 -1.436426e+000 -2.262470e+000 -3.707777e+000 -3.172167e+000 -1.221529e+000 -2.416873e+000 -1.406705e-001 2.165715e-001 4.246501e-003 1.635397e-001 -1.491198e-002 8.613785e-002 3.562011e-002 1.253646e-002 5.710084e-002 6.192019e-002 -2.627486e-002 -1.298214e-002 -3.117033e-001
<VARIANCE> 25
 6.393985e+001 1.386859e+002 6.597361e+001 1.386886e+002 7.015150e+001 7.368796e+001 6.049294e+001 7.854658e+001 4.845900e+001 7.991786e+001 5.538682e+001 3.491665e+001 5.312662e-001 1.378600e+000 1.152873e+000 1.669569e+000 1.693750e+000 1.543485e+000 1.931512e+000 2.097914e+000 1.843426e+000 1.900656e+000 1.806339e+000 1.552350e+000 7.699816e-001
<GCONST> 1.017314e+002
<TRANSP> 5
 0.000000e+000 1.000000e+000 0.000000e+000 0.000000e+000 0.000000e+000
 0.000000e+000 6.477851e-001 3.522149e-001 0.000000e+000 0.000000e+000
 0.000000e+000 0.000000e+000 5.350203e-001 4.649796e-001 0.000000e+000
 0.000000e+000 0.000000e+000 0.000000e+000 8.615394e-001 1.384606e-001
 0.000000e+000 0.000000e+000 0.000000e+000 0.000000e+000 0.000000e+000
<ENDHMM>
~h "l"
<BEGINHMM>
<NUMSTATES> 5
<STATE> 2
<MEAN> 25
 5.534162e+000 -6.305670e-001 1.446623e+000 -2.293169e+000 -1.324165e+000 -2.930580e+000 -3.868936e+000 -2.412791e+000 -3.658499e-001 -2.357539e+000 -2.111248e+000 -1.470805e+000 6.350133e-001 -6.943775e-001 -1.857422e-001 -2.121577e-001 -7.904333e-002 -6.441352e-001 -2.692715e-001 1.203719e-001 -1.439215e-001 -4.765903e-001 -9.727930e-002 -3.418025e-002 1.127952e+000
<VARIANCE> 25
 7.633223e+001 8.163255e+001 7.442677e+001 1.044850e+002 6.862362e+001 9.080508e+001 8.447557e+001 9.370818e+001 8.191219e+001 7.997934e+001 6.765059e+001 4.829781e+001 3.568708e+000 6.815485e+000 5.372328e+000 6.916804e+000 5.866131e+000 7.252966e+000 7.018624e+000 7.636714e+000 6.115714e+000 5.225479e+000 5.047763e+000 3.972928e+000 4.731805e+000
<GCONST> 1.207922e+002
<STATE> 3
<MEAN> 25
 8.024192e+000 -3.371362e+000 -1.583683e+000 -4.891606e+000 -5.347992e-001 -6.513056e+000 -2.794541e+000 -1.396881e+000 -1.784721e+000 -4.876539e+000 -2.540505e+000 -5.291084e-001 -4.590859e-002 -3.607827e-001 -4.332596e-001 -1.514987e-001 2.058596e-001 9.227119e-002 4.788288e-001 2.064588e-001 -3.070105e-001 -1.025873e-001 1.346797e-001 1.191013e-001 1.489265e-001
<VARIANCE> 25
 5.259150e+001 8.039516e+001 6.296278e+001 8.576295e+001 7.984061e+001 7.556833e+001 8.420340e+001 9.559313e+001 1.146755e+002 7.753733e+001 8.963154e+001 5.129784e+001 1.522575e+000 3.032216e+000 2.896153e+000 3.854600e+000 3.767764e+000 4.303669e+000 4.586650e+000 4.543074e+000 5.106818e+000 4.646005e+000 4.349871e+000 3.606751e+000 1.684681e+000
<GCONST> 1.143214e+002
<STATE> 4
<MEAN> 25
 1.139478e+001 -7.536638e+000 -1.413864e+000 -7.649491e+000 -2.229023e+000 -4.260554e+000 -3.594131e+000 1.961539e-001 -4.123449e+000 -5.595903e+000 3.168449e-001 -1.220955e+000 -9.906002e-002 1.897704e-001 -1.128087e-001 1.598333e-001 -1.009056e-003 1.450763e-001 1.924984e-001 -2.192438e-002 3.664639e-002 7.819080e-002 5.337093e-002 4.110906e-002 -2.787173e-001
<VARIANCE> 25
 4.811859e+001 1.073528e+002 8.847963e+001 9.093534e+001 8.866383e+001 1.053768e+002 6.700228e+001 9.079868e+001 6.563595e+001 7.303824e+001 9.592849e+001 6.379327e+001 3.807012e-001 1.414213e+000 1.226022e+000 1.651375e+000 1.629399e+000 1.747581e+000 1.943611e+000 2.025139e+000 2.085134e+000 2.024508e+000 2.065969e+000 1.772230e+000 5.784193e-001
<GCONST> 1.032331e+002
<TRANSP> 5
 0.000000e+000 1.000000e+000 0.000000e+000 0.000000e+000 0.000000e+000
 0.000000e+000 7.449341e-001 2.550659e-001 0.000000e+000 0.000000e+000
 0.000000e+000 0.000000e+000 6.838516e-001 3.161484e-001 0.000000e+000
 0.000000e+000 0.000000e+000 0.000000e+000 9.203919e-001 7.960821e-002
 0.000000e+000 0.000000e+000 0.000000e+000 0.000000e+000 0.000000e+000
<ENDHMM>
~h "m"
<BEGINHMM>
<NUMSTATES> 5
<STATE> 2
<MEAN> 25
 3.684328e+000 -6.876554e-002 -8.533499e-001 8.798614e-001 1.754055e+000 2.297177e-001 5.778288e-001 -7.987332e-001 -5.326653e-001 -4.912666e-001 -1.018079e+000 -1.591528e+000 1.070342e+000 -2.881077e-001 -9.387887e-002 -7.859767e-002 3.011905e-001 -3.068637e-001 -3.533067e-001 -2.497694e-002 -3.405454e-001 -8.190456e-001 -4.824540e-001 -3.745654e-001 1.174098e+000
<VARIANCE> 25
 8.280434e+001 6.654959e+001 5.623950e+001 5.209230e+001 5.722008e+001 5.383754e+001 6.135356e+001 5.686630e+001 5.950871e+001 5.713630e+001 3.999546e+001 3.656882e+001 5.412369e+000 6.684094e+000 4.398658e+000 5.959674e+000 4.812287e+000 4.860312e+000 5.461996e+000 5.626450e+000 5.137257e+000 4.762349e+000 3.578430e+000 3.374193e+000 7.848985e+000
<GCONST> 1.153348e+002
<STATE> 3
<MEAN> 25
 6.943798e+000 -4.232407e+000 -2.124646e+000 -1.638631e+000 4.338116e+000 -1.848918e+000 -1.663046e+000 8.551152e-001 3.612351e-001 -5.291953e+000 -3.137355e+000 -2.489319e+000 2.120063e-001 -9.633432e-001 -8.984488e-002 -5.440889e-001 1.920783e-001 -2.495691e-001 1.753913e-001 1.905403e-001 -1.360925e-001 -2.721162e-001 -6.205397e-002 2.623718e-002 9.461334e-001
<VARIANCE> 25
 4.196673e+001 8.645457e+001 4.563486e+001 7.359036e+001 8.171583e+001 6.139986e+001 5.594403e+001 6.564597e+001 7.141350e+001 6.054284e+001 4.239830e+001 3.999185e+001 3.023713e+000 7.528812e+000 4.203187e+000 7.180447e+000 5.179650e+000 5.410108e+000 4.833343e+000 5.836990e+000 4.283603e+000 5.031901e+000 3.667499e+000 3.762306e+000 7.716852e+000
<GCONST> 1.157432e+002
<STATE> 4
<MEAN> 25
 8.522063e+000 -7.310126e+000 -3.684111e-003 -4.298630e+000 2.985047e+000 4.829646e-002 -1.329246e+000 -5.940959e-001 -4.013963e+000 -2.925287e+000 -2.338177e+000 -5.040986e+000 -2.092048e-001 3.962316e-001 1.596466e-002 3.514047e-001 -6.935430e-002 1.313877e-001 1.286776e-001 -7.578436e-002 6.556538e-002 1.688170e-001 1.587969e-002 1.298932e-001 -5.319036e-001
<VARIANCE> 25
 2.880112e+001 1.313620e+002 4.257139e+001 1.362695e+002 6.755819e+001 5.114833e+001 7.919648e+001 8.271064e+001 7.545428e+001 8.936076e+001 6.580033e+001 3.919334e+001 6.204627e-001 1.887561e+000 1.282654e+000 2.169793e+000 1.676702e+000 1.767026e+000 2.352817e+000 2.233381e+000 2.287595e+000 2.024058e+000 2.075082e+000 1.825024e+000 1.208303e+000
<GCONST> 1.034377e+002
<TRANSP> 5
 0.000000e+000 1.000000e+000 0.000000e+000 0.000000e+000 0.000000e+000
 0.000000e+000 6.237745e-001 3.762255e-001 0.000000e+000 0.000000e+000
 0.000000e+000 0.000000e+000 6.738747e-001 3.261253e-001 0.000000e+000
 0.000000e+000 0.000000e+000 0.000000e+000 9.004682e-001 9.953185e-002
 0.000000e+000 0.000000e+000 0.000000e+000 0.000000e+000 0.000000e+000
<ENDHMM>
~h "n"
<BEGINHMM>
<NUMSTATES> 5
<STATE> 2
<MEAN> 25
 3.114459e+000 1.873392e+000 1.371977e+000 -5.188432e-001 -5.169433e-001 -1.109233e+000 -1.478962e+000 -1.486077e+000 -1.327271e+000 -1.753560e+000 -1.237907e+000 -1.434333e+000 1.079976e+000 4.049316e-001 5.710694e-001 6.991155e-002 -1.525525e-001 -3.630352e-001 -6.076502e-001 -5.782636e-001 -6.194714e-001 -5.246603e-001 -3.575869e-001 -4.119279e-001 1.020087e+000
<VARIANCE> 25
 7.199204e+001 7.227223e+001 7.025412e+001 8.104917e+001 6.607245e+001 6.013187e+001 6.937746e+001 6.119070e+001 6.300595e+001 6.725243e+001 4.763624e+001 3.559114e+001 5.454576e+000 6.798808e+000 5.787605e+000 7.618186e+000 5.600923e+000 5.845240e+000 6.851671e+000 6.251756e+000 5.503291e+000 5.910664e+000 4.066220e+000 3.081206e+000 8.096672e+000
<GCONST> 1.183263e+002
<STATE> 3
<MEAN> 25
 5.945523e+000 8.997416e-001 4.575102e+000 3.114187e-001 -6.847500e-001 -2.335807e+000 -4.274622e+000 -3.073271e+000 -4.022295e+000 -4.338173e+000 -2.307290e+000 -3.093920e+000 4.160321e-002 -4.466908e-001 -1.512951e-001 1.207647e-001 1.686798e-001 4.680594e-002 1.294574e-001 -6.836253e-002 -7.064450e-002 -4.639876e-002 -8.255893e-002 3.129290e-002 3.231514e-001
<VARIANCE> 25
 5.333365e+001 9.693582e+001 9.827784e+001 9.231805e+001 7.088636e+001 7.625969e+001 8.501530e+001 1.006113e+002 7.684451e+001 8.232778e+001 6.724076e+001 4.504076e+001 2.276485e+000 6.566926e+000 4.405113e+000 6.062278e+000 4.712436e+000 5.608884e+000 6.025381e+000 6.950929e+000 5.718290e+000 5.656205e+000 4.988139e+000 3.663883e+000 3.883275e+000
<GCONST> 1.187659e+002
<STATE> 4
<MEAN> 25
 6.831349e+000 1.463156e+000 2.945844e+000 2.241330e+000 -3.559652e-001 -1.385150e+000 -2.746207e+000 -5.709205e+000 -5.427792e+000 -2.662036e+000 -1.753032e+000 -2.904130e+000 -3.594600e-001 1.902086e-001 -4.475176e-002 1.538984e-001 1.252798e-001 1.407113e-001 2.557743e-001 9.900449e-002 2.317178e-001 1.899356e-001 6.711108e-003 1.169902e-001 -4.551348e-001
<VARIANCE> 25
 4.122726e+001 1.009558e+002 6.457972e+001 9.165684e+001 7.008925e+001 5.596854e+001 7.640232e+001 1.169840e+002 8.243820e+001 7.760100e+001 7.618365e+001 4.341562e+001 5.846391e-001 1.657824e+000 1.586462e+000 1.902404e+000 2.007778e+000 2.162744e+000 2.501550e+000 3.203311e+000 2.639800e+000 2.678300e+000 2.820128e+000 2.012451e+000 6.987872e-001
<GCONST> 1.051634e+002
<TRANSP> 5
 0.000000e+000 1.000000e+000 0.000000e+000 0.000000e+000 0.000000e+000
 0.000000e+000 6.715276e-001 3.284725e-001 0.000000e+000 0.000000e+000
 0.000000e+000 0.000000e+000 6.891289e-001 3.108711e-001 0.000000e+000
 0.000000e+000 0.000000e+000 0.000000e+000 8.788202e-001 1.211798e-001
 0.000000e+000 0.000000e+000 0.000000e+000 0.000000e+000 0.000000e+000
<ENDHMM>
~h "p"
<BEGINHMM>
<NUMSTATES> 5
<STATE> 2
<MEAN> 25
 -2.743476e+000 9.473041e-001 -2.473040e+000 1.035620e+000 1.330907e+000 1.755131e+000 4.304225e+000 6.002147e-001 3.019025e+000 2.239903e+000 -6.468706e-001 1.146537e+000 4.657185e-002 -2.985703e-001 -1.516626e-001 -2.356266e-001 6.940134e-002 -6.411332e-002 8.891152e-003 8.524472e-002 1.601818e-002 1.018544e-001 1.004798e-001 7.447077e-002 3.339923e-001
<VARIANCE> 25
 4.537235e+001 3.195455e+001 4.099420e+001 4.007441e+001 3.630547e+001 3.932372e+001 3.338085e+001 3.018253e+001 3.592284e+001 2.870291e+001 2.824330e+001 2.099386e+001 3.278511e+000 2.761103e+000 2.598127e+000 2.718062e+000 2.633161e+000 3.046517e+000 3.196194e+000 2.945211e+000 2.888269e+000 2.674703e+000 2.550610e+000 2.194268e+000 4.894527e+000
<GCONST> 1.019697e+002
<STATE> 3
<MEAN> 25
 1.604764e+000 -1.935144e+000 -1.835076e+000 -1.487362e+000 9.097708e-001 2.551477e-002 1.122540e-001 7.362731e-001 1.098284e+000 1.721936e-001 -3.113087e-001 -2.281828e-001 2.143898e+000 -1.374755e+000 -5.118893e-001 -1.394716e+000 -4.026531e-001 -1.005869e+000 -8.824779e-001 2.508092e-001 -5.251538e-001 -9.479636e-001 -2.105843e-001 -4.279225e-001 3.492837e+000
<VARIANCE> 25
 6.325388e+001 6.125324e+001 5.236927e+001 5.633801e+001 6.805230e+001 6.366214e+001 4.631193e+001 4.455796e+001 4.474496e+001 3.650359e+001 3.556054e+001 2.598420e+001 6.152172e+000 8.595910e+000 6.632918e+000 9.683611e+000 9.035973e+000 6.517351e+000 6.416100e+000 6.668244e+000 5.064696e+000 5.643791e+000 4.675067e+000 2.896952e+000 1.084320e+001
<GCONST> 1.167367e+002
<STATE> 4
<MEAN> 25
 5.607825e+000 -9.662975e+000 -4.222555e+000 -7.784453e+000 4.039183e+000 1.785324e-001 3.148893e-001 -4.149663e-001 -5.780930e-001 -2.350600e+000 -1.005874e+000 -1.260382e+000 8.163604e-002 1.830155e-001 1.407518e-001 1.424492e-001 -8.054746e-003 -1.545796e-001 -1.103981e-002 -8.525697e-002 -1.851342e-001 -1.725973e-001 -2.268400e-002 4.283426e-002 1.629780e-002
<VARIANCE> 25
 4.699863e+001 9.372808e+001 5.445726e+001 1.083787e+002 9.726934e+001 6.612708e+001 5.841191e+001 6.009399e+001 4.593649e+001 8.567822e+001 4.526479e+001 3.097841e+001 1.645602e+000 3.532101e+000 2.550995e+000 4.285597e+000 3.497122e+000 3.282221e+000 3.482792e+000 2.978253e+000 2.493022e+000 3.226209e+000 2.247613e+000 2.082232e+000 4.532010e+000
<GCONST> 1.095473e+002
<TRANSP> 5
 0.000000e+000 1.000000e+000 0.000000e+000 0.000000e+000 0.000000e+000
 0.000000e+000 7.033681e-001 2.966319e-001 0.000000e+000 0.000000e+000
 0.000000e+000 0.000000e+000 5.672803e-001 4.327197e-001 0.000000e+000
 0.000000e+000 0.000000e+000 0.000000e+000 8.066895e-001 1.933105e-001
 0.000000e+000 0.000000e+000 0.000000e+000 0.000000e+000 0.000000e+000
<ENDHMM>
~h "r"
<BEGINHMM>
<NUMSTATES> 5
<STATE> 2
<MEAN> 25
 3.283079e+000 -2.739194e+000 -3.980775e+000 -6.516122e-002 1.232446e+000 -9.567414e-001 5.387726e-001 -5.739477e-001 -2.153910e+000 -1.775469e+000 1.419443e+000 5.459383e-001 -2.661757e-001 -1.445754e-001 -1.063424e-001 5.925253e-002 -9.151456e-002 1.326085e-001 3.622453e-001 1.584338e-001 2.262451e-001 2.499799e-001 1.556823e-001 1.246981e-001 -2.324130e-001
<VARIANCE> 25
 5.502065e+001 6.515166e+001 3.932271e+001 3.142941e+001 3.577156e+001 4.745916e+001 4.816467e+001 3.426206e+001 3.217500e+001 4.503560e+001 4.873212e+001 3.330226e+001 3.810770e-001 7.631814e-001 8.692102e-001 1.103016e+000 1.669049e+000 1.749593e+000 1.708055e+000 1.733796e+000 1.618574e+000 1.626258e+000 1.733459e+000 1.422845e+000 4.250309e-001
<GCONST> 9.266238e+001
<STATE> 3
<MEAN> 25
 1.845017e+000 -1.764710e+000 -3.620212e+000 7.017357e-001 1.022184e+000 3.767533e-001 2.112525e+000 6.325966e-001 -6.283190e-001 -4.979877e-001 1.492010e+000 8.059590e-001 -2.521713e-001 -4.477252e-003 -1.287381e-002 3.889214e-002 -1.623864e-001 1.321138e-002 1.877541e-001 2.222931e-001 2.698439e-001 2.529556e-001 7.276288e-002 5.496889e-002 -2.795705e-001
<VARIANCE> 25
 5.571191e+001 4.982903e+001 3.213425e+001 2.855214e+001 2.976176e+001 3.687122e+001 3.439280e+001 2.810971e+001 2.777637e+001 3.935559e+001 3.297937e+001 2.593468e+001 4.641395e-001 7.068347e-001 7.861359e-001 9.974986e-001 1.558412e+000 1.673009e+000 1.642890e+000 1.496477e+000 1.616192e+000 1.806358e+000 1.537752e+000 1.476446e+000 4.526361e-001
<GCONST> 8.991916e+001
<STATE> 4
<MEAN> 25
 -4.686292e+000 1.017364e+000 -2.072919e+000 1.852083e+000 4.400586e-001 1.213254e+000 2.639925e+000 1.748191e+000 1.690953e+000 2.268027e+000 1.343763e+000 1.558260e+000 -9.768280e-002 2.416506e-002 3.107339e-002 -2.099453e-003 3.089565e-003 3.732951e-002 1.949277e-002 3.093374e-003 2.827397e-002 3.889527e-002 -2.434554e-003 -1.650025e-003 -9.442382e-002
<VARIANCE> 25
 8.995564e+001 3.192229e+001 3.334866e+001 2.344620e+001 1.331591e+001 3.984475e+001 1.486476e+001 2.229293e+001 1.853914e+001 2.252936e+001 1.462184e+001 1.676801e+001 2.214497e-001 3.676862e-001 4.259839e-001 5.604371e-001 6.685961e-001 8.341198e-001 9.413459e-001 9.459149e-001 9.806787e-001 9.362837e-001 8.805543e-001 8.500844e-001 1.383914e-001
<GCONST> 7.719206e+001
<TRANSP> 5
 0.000000e+000 1.000000e+000 0.000000e+000 0.000000e+000 0.000000e+000
 0.000000e+000 6.024046e-001 3.975953e-001 0.000000e+000 0.000000e+000
 0.000000e+000 0.000000e+000 5.921084e-001 4.078916e-001 0.000000e+000
 0.000000e+000 0.000000e+000 0.000000e+000 9.570789e-001 4.292108e-002
 0.000000e+000 0.000000e+000 0.000000e+000 0.000000e+000 0.000000e+000
<ENDHMM>
~h "s"
<BEGINHMM>
<NUMSTATES> 5
<STATE> 2
<MEAN> 25
 -4.614268e+000 7.567413e-001 -3.125822e+000 3.154724e+000 1.575911e+000 1.607968e+000 4.203057e+000 -3.050420e-002 1.126299e-001 1.592446e+000 1.080248e+000 7.417639e-001 -8.860906e-001 2.101234e-001 5.951020e-003 7.248412e-003 8.643311e-002 1.403084e-001 4.716658e-001 1.154407e-001 1.311910e-001 4.071854e-001 2.533984e-001 3.618427e-002 1.886450e-002
<VARIANCE> 25
 6.096460e+001 3.336128e+001 5.226037e+001 3.134926e+001 3.551573e+001 2.944501e+001 2.784017e+001 3.176502e+001 3.745051e+001 4.018118e+001 2.437958e+001 2.008905e+001 2.575271e+000 2.802104e+000 3.448632e+000 2.233972e+000 2.137274e+000 2.203149e+000 2.412592e+000 2.250984e+000 2.567129e+000 2.206897e+000 1.900895e+000 1.655502e+000 2.394507e+000
<GCONST> 9.922729e+001
<STATE> 3
<MEAN> 25
 -1.036546e+001 1.283347e+000 -2.354336e+000 1.657224e+000 1.484358e+000 2.528008e-001 6.330273e+000 8.381974e-001 9.469161e-001 2.668046e+000 2.650111e+000 6.031337e-001 -1.102282e+000 -2.735375e-001 4.160506e-001 -5.667199e-001 -1.201542e-002 -2.485192e-001 5.808939e-002 1.990826e-001 1.538204e-001 3.907112e-002 1.474376e-001 -9.486496e-002 1.202448e+000
<VARIANCE> 25
 1.035479e+002 8.545599e+001 1.006380e+002 5.125539e+001 4.107124e+001 5.654901e+001 5.866884e+001 4.148950e+001 3.778411e+001 3.518824e+001 2.838989e+001 2.280630e+001 8.504236e+000 6.042110e+000 5.724720e+000 3.329072e+000 3.367049e+000 4.101503e+000 4.486317e+000 2.991426e+000 3.430650e+000 3.457469e+000 3.078153e+000 2.002799e+000 4.674309e+000
<GCONST> 1.107400e+002
<STATE> 4
<MEAN> 25
 -1.349471e+001 -2.090102e+000 2.399198e+000 -2.467674e+000 -1.345983e-002 1.499065e+000 5.122851e+000 1.280158e-001 1.464564e+000 3.609047e+000 2.641866e+000 -1.863734e-001 6.673979e-001 -2.254951e-003 -8.222434e-002 -2.299260e-002 -5.337426e-002 -6.387381e-002 -1.676027e-001 5.891258e-002 -3.049437e-002 -2.061090e-001 -1.312816e-001 -5.410032e-002 1.058384e-001
<VARIANCE> 25
 1.380037e+002 1.137175e+002 1.365042e+002 6.756827e+001 3.666297e+001 6.858147e+001 5.251152e+001 4.810544e+001 2.630710e+001 2.943262e+001 2.316147e+001 1.794488e+001 4.027676e+000 2.245898e+000 2.330167e+000 1.782192e+000 1.846028e+000 2.113583e+000 2.037933e+000 2.114999e+000 2.027040e+000 1.912927e+000 1.743591e+000 1.559728e+000 1.371387e+000
<GCONST> 1.022034e+002
<TRANSP> 5
 0.000000e+000 1.000000e+000 0.000000e+000 0.000000e+000 0.000000e+000
 0.000000e+000 7.229220e-001 2.770780e-001 0.000000e+000 0.000000e+000
 0.000000e+000 0.000000e+000 6.450905e-001 3.549095e-001 0.000000e+000
 0.000000e+000 0.000000e+000 0.000000e+000 8.446570e-001 1.553430e-001
 0.000000e+000 0.000000e+000 0.000000e+000 0.000000e+000 0.000000e+000
<ENDHMM>
~h "t"
<BEGINHMM>
<NUMSTATES> 5
<STATE> 2
<MEAN> 25
 -1.351209e+000 1.010433e+000 -4.292223e-001 1.850963e+000 2.029081e+000 1.507059e+000 2.386327e+000 -2.406698e-001 8.150059e-001 4.952088e-001 -1.512849e-001 4.877080e-001 -1.947880e-001 -1.268649e-001 3.021275e-002 -6.475378e-002 1.627877e-001 -2.909430e-001 3.071633e-001 6.314968e-002 1.640004e-001 1.553679e-001 -9.268789e-002 -9.891170e-002 4.097649e-001
<VARIANCE> 25
 5.564789e+001 4.738175e+001 5.687609e+001 5.048048e+001 4.769366e+001 4.251783e+001 4.758573e+001 4.137793e+001 4.168689e+001 4.440227e+001 4.144771e+001 3.106545e+001 2.922511e+000 3.659175e+000 3.516909e+000 3.901517e+000 3.362273e+000 5.407050e+000 4.063781e+000 3.668707e+000 3.707961e+000 3.909202e+000 3.375164e+000 2.570972e+000 7.069538e+000
<GCONST> 1.090519e+002
<STATE> 3
<MEAN> 25
 4.119509e-001 -7.460456e-001 7.122532e-001 6.548143e-001 8.233877e-001 -1.763460e+000 1.869342e-001 -1.056513e+000 3.648197e-001 6.659284e-001 -9.666190e-002 -1.697169e-001 1.105780e+000 5.298425e-002 3.788321e-002 -3.530379e-001 -5.517287e-001 -6.813141e-001 -7.820527e-001 -2.073073e-001 -5.656226e-001 -4.187468e-001 -1.294678e-002 -2.788122e-001 1.317455e+000
<VARIANCE> 25
 7.509464e+001 8.163503e+001 8.174701e+001 6.225405e+001 5.966286e+001 8.786525e+001 9.429989e+001 5.745453e+001 5.699410e+001 6.066829e+001 4.775100e+001 4.089083e+001 7.000090e+000 6.907004e+000 5.228910e+000 5.157627e+000 5.146694e+000 8.759329e+000 1.007038e+001 6.707435e+000 5.884962e+000 5.897459e+000 4.883116e+000 4.149409e+000 6.681427e+000
<GCONST> 1.197395e+002
<STATE> 4
<MEAN> 25
 3.163663e+000 1.243635e-001 9.096836e-001 -5.810614e-001 -2.159902e+000 4.355891e-001 7.200902e-001 -2.176421e+000 -1.484538e+000 5.094906e-001 1.514778e-001 -1.371843e+000 -1.122697e-001 1.058363e-001 2.116412e-002 -1.391540e-001 -1.461975e-001 1.551380e-002 7.049542e-003 -5.519060e-002 -4.454057e-002 -3.308772e-003 2.676061e-004 -5.024692e-002 -5.210460e-003
<VARIANCE> 25
 8.545615e+001 8.359473e+001 8.086394e+001 7.794524e+001 8.204716e+001 5.780000e+001 7.899701e+001 6.614323e+001 6.131950e+001 5.802293e+001 5.116524e+001 4.255224e+001 1.461833e+000 2.686214e+000 2.224875e+000 2.309617e+000 2.603472e+000 2.779843e+000 3.122418e+000 3.190635e+000 2.736332e+000 2.687820e+000 2.515564e+000 2.000806e+000 2.270763e+000
<GCONST> 1.081721e+002
<TRANSP> 5
 0.000000e+000 1.000000e+000 0.000000e+000 0.000000e+000 0.000000e+000
 0.000000e+000 5.818845e-001 4.181155e-001 0.000000e+000 0.000000e+000
 0.000000e+000 0.000000e+000 6.027205e-001 3.972795e-001 0.000000e+000
 0.000000e+000 0.000000e+000 0.000000e+000 6.574511e-001 3.425488e-001
 0.000000e+000 0.000000e+000 0.000000e+000 0.000000e+000 0.000000e+000
<ENDHMM>
~h "y"
<BEGINHMM>
<NUMSTATES> 5
<STATE> 2
<MEAN> 25
 4.962998e+000 -1.126123e+000 1.443315e+000 6.914059e-001 -1.857327e+000 -6.791434e-002 -1.434222e+000 -9.686365e-001 -1.926629e+000 -4.597899e+000 -1.515669e+000 -1.519093e-001 -1.605364e-001 2.540709e-001 3.761520e-002 3.217879e-002 -7.192507e-002 4.165096e-002 5.180851e-002 -2.364568e-002 7.407920e-002 8.810787e-002 -3.275434e-002 -6.042989e-002 -2.930953e-001
<VARIANCE> 25
 1.512302e+001 4.363104e+001 1.946995e+001 1.894552e+001 3.576598e+001 2.023420e+001 2.980494e+001 1.468710e+001 1.437203e+001 2.327778e+001 2.029515e+001 1.883791e+001 2.335373e-001 4.834616e-001 4.627149e-001 5.791113e-001 7.430022e-001 8.817343e-001 1.143266e+000 1.084466e+000 1.162333e+000 1.593779e+000 1.101539e+000 8.238623e-001 2.019006e-001
<GCONST> 7.798788e+001
<STATE> 3
<MEAN> 25
 -2.792906e+000 3.290176e+000 2.439709e+000 3.448684e+000 1.760696e+000 3.243543e+000 1.253493e+000 -1.442463e-001 7.278938e-002 7.148935e-001 6.950346e-001 9.394701e-001 -3.865779e-001 -1.564030e-001 -1.225107e-001 -8.927676e-002 4.242448e-002 2.371794e-001 2.649641e-001 1.394691e-001 1.854465e-001 3.582042e-001 2.065462e-001 -1.258991e-003 -2.531141e-001
<VARIANCE> 25
 1.696145e+001 1.712728e+001 1.546953e+001 1.104851e+001 8.852478e+000 2.228806e+001 1.679168e+001 1.542655e+001 1.342432e+001 2.462132e+001 2.308862e+001 1.866400e+001 2.017808e-001 3.926433e-001 4.923053e-001 6.364257e-001 6.059076e-001 1.131289e+000 1.382415e+000 1.101923e+000 9.912392e-001 1.524281e+000 1.291142e+000 8.113087e-001 1.065229e-001
<GCONST> 7.403505e+001
<STATE> 4
<MEAN> 25
 -3.287862e+000 1.538033e+000 1.286220e+000 -1.681107e-001 4.617293e-001 1.930481e+000 8.344950e-001 -8.396123e-001 -2.809989e-001 1.202886e+000 6.226952e-001 -2.190473e-002 -4.304117e-003 3.259191e-004 3.518067e-003 -1.880640e-003 -2.606541e-003 -6.578152e-003 -6.105459e-003 -3.810723e-003 -5.200932e-003 3.361272e-003 7.802582e-004 -5.450883e-003 -2.244119e-004
<VARIANCE> 25
 5.326078e+001 2.031800e+001 2.371033e+001 1.409292e+001 1.552585e+001 2.148521e+001 1.964688e+001 1.909345e+001 2.225066e+001 3.324158e+001 1.727717e+001 1.755933e+001 3.520378e-001 4.399333e-001 5.421530e-001 6.758882e-001 7.158278e-001 7.764307e-001 1.010871e+000 9.248333e-001 1.013395e+000 1.120497e+000 9.644308e-001 8.457250e-001 2.435953e-001
<GCONST> 7.779077e+001
<TRANSP> 5
 0.000000e+000 1.000000e+000 0.000000e+000 0.000000e+000 0.000000e+000
 0.000000e+000 8.716939e-001 1.283061e-001 0.000000e+000 0.000000e+000
 0.000000e+000 0.000000e+000 9.069676e-001 9.303243e-002 0.000000e+000
 0.000000e+000 0.000000e+000 0.000000e+000 9.936299e-001 6.370085e-003
 0.000000e+000 0.000000e+000 0.000000e+000 0.000000e+000 0.000000e+000
<ENDHMM>
~h "aa"
<BEGINHMM>
<NUMSTATES> 5
<STATE> 2
<MEAN> 25
 4.139474e+000 -4.638540e+000 -4.409825e+000 -5.026017e-001 2.440424e+000 -1.522246e+000 2.545522e+000 7.069426e-001 -5.906116e-001 -2.473124e+000 -1.688334e+000 4.770176e-001 -2.614841e-001 1.244985e-001 -3.945871e-002 2.337620e-001 1.399446e-001 2.969112e-001 2.092925e-001 8.621764e-002 2.412575e-001 1.984843e-001 9.195904e-002 1.584095e-001 -5.858918e-001
<VARIANCE> 25
 5.621273e+001 7.530436e+001 4.945176e+001 4.891940e+001 6.994422e+001 4.774140e+001 4.637222e+001 4.008019e+001 3.925826e+001 5.400628e+001 4.379176e+001 3.070001e+001 1.110994e+000 1.994518e+000 1.856538e+000 1.999089e+000 2.431920e+000 2.246522e+000 2.393709e+000 2.281056e+000 2.243693e+000 2.328168e+000 2.105312e+000 1.846736e+000 1.692938e+000
<GCONST> 1.016330e+002
<STATE> 3
<MEAN> 25
 1.351955e+000 -2.353172e+000 -3.710787e+000 1.141143e+000 2.333010e+000 7.094470e-001 3.151666e+000 1.311784e+000 5.524040e-001 -5.271176e-001 -3.044711e-001 1.080222e+000 -4.532337e-001 2.484906e-001 6.091863e-002 1.083105e-001 -1.121702e-001 1.879884e-001 5.809746e-002 3.085832e-002 1.967605e-001 2.617209e-001 1.517503e-001 7.698596e-002 -7.706993e-001
<VARIANCE> 25
 5.437848e+001 5.793231e+001 3.779461e+001 4.169313e+001 4.312254e+001 3.962676e+001 3.524690e+001 3.351183e+001 3.484516e+001 4.611165e+001 3.565313e+001 2.560108e+001 8.718919e-001 1.326178e+000 1.610514e+000 1.673939e+000 1.879851e+000 1.899520e+000 1.940727e+000 1.912112e+000 1.936762e+000 2.021396e+000 1.878029e+000 1.672653e+000 9.429946e-001
<GCONST> 9.625271e+001
<STATE> 4
<MEAN> 25
 -4.788341e+000 1.527358e+000 -2.345791e+000 3.491130e+000 1.448000e+000 1.634604e+000 3.624472e+000 2.003120e+000 2.265769e+000 2.124763e+000 8.496276e-001 1.783015e+000 -1.183626e-001 5.274190e-002 6.305124e-002 1.195823e-002 -2.240336e-002 2.299356e-002 2.564342e-003 -1.782441e-002 2.359831e-002 5.225962e-002 1.478558e-002 -7.184330e-003 -1.317573e-001
<VARIANCE> 25
 3.815056e+001 2.480396e+001 2.520867e+001 2.994284e+001 1.770797e+001 2.427732e+001 1.749725e+001 2.075606e+001 2.158632e+001 2.432865e+001 1.981082e+001 1.722540e+001 2.817132e-001 4.277928e-001 5.557722e-001 6.847863e-001 8.270409e-001 9.619980e-001 1.072971e+000 1.169252e+000 1.200119e+000 1.156278e+000 1.109970e+000 1.016365e+000 1.985025e-001
<GCONST> 7.922808e+001
<TRANSP> 5
 0.000000e+000 1.000000e+000 0.000000e+000 0.000000e+000 0.000000e+000
 0.000000e+000 6.818706e-001 3.181294e-001 0.000000e+000 0.000000e+000
 0.000000e+000 0.000000e+000 5.759788e-001 4.240212e-001 0.000000e+000
 0.000000e+000 0.000000e+000 0.000000e+000 9.347425e-001 6.525755e-002
 0.000000e+000 0.000000e+000 0.000000e+000 0.000000e+000 0.000000e+000
<ENDHMM>
~h "eu"
<BEGINHMM>
<NUMSTATES> 5
<STATE> 2
<MEAN> 25
 -3.906295e+000 2.569988e+000 8.517376e-001 1.614980e+000 1.906358e+000 -1.191201e-001 3.621822e+000 3.341644e-001 1.980148e+000 1.625562e+000 -4.199771e-002 1.517322e-001 1.809363e+000 -5.637703e-001 5.708039e-001 -6.657109e-001 -3.018147e-001 -8.254160e-001 -1.200379e+000 -1.613155e-001 -4.733321e-001 -8.562021e-001 -1.782606e-001 -2.754178e-001 2.002729e+000
<VARIANCE> 25
 9.205881e+001 7.063390e+001 7.122481e+001 5.442708e+001 4.573406e+001 6.590380e+001 5.490598e+001 5.102848e+001 4.911383e+001 4.134058e+001 4.395907e+001 2.711798e+001 9.594222e+000 7.340463e+000 6.311223e+000 6.432288e+000 4.947201e+000 5.817036e+000 6.974885e+000 5.901975e+000 5.559364e+000 6.168197e+000 5.208718e+000 2.988076e+000 5.288367e+000
<GCONST> 1.166189e+002
<STATE> 3
<MEAN> 25
 4.494721e+000 -2.415327e+000 3.678047e+000 -2.901572e+000 -5.592667e-001 -2.899784e+000 -4.326653e+000 -5.431371e-001 -8.191661e-001 -3.073171e+000 6.717070e-001 -8.058988e-001 1.813452e+000 -1.751323e+000 3.443689e-002 -1.731191e+000 -5.670266e-001 -6.052024e-001 -1.775004e+000 1.803419e-001 -3.368072e-001 -1.096812e+000 7.695781e-002 -3.706678e-001 2.736449e+000
<VARIANCE> 25
 6.943039e+001 1.034761e+002 8.572339e+001 9.770097e+001 7.597362e+001 8.163278e+001 8.512923e+001 7.060817e+001 7.646337e+001 7.063422e+001 5.564063e+001 3.788165e+001 6.948338e+000 1.116230e+001 7.045705e+000 9.808016e+000 6.737902e+000 7.142594e+000 9.163662e+000 7.943192e+000 8.833014e+000 7.818436e+000 6.193330e+000 4.766257e+000 8.255658e+000
<GCONST> 1.240202e+002
<STATE> 4
<MEAN> 25
 8.806143e+000 -1.275562e+001 6.200323e+000 -1.258329e+001 5.420064e-001 1.373688e+000 -8.898696e+000 2.106787e+000 -1.237456e-001 1.352381e+000 2.164730e+000 -4.714042e+000 1.181604e-001 1.920530e-001 -1.878333e-001 1.846971e-001 6.568813e-002 6.368452e-002 1.545690e-001 -3.430202e-002 -1.066175e-001 -4.024499e-002 -1.757545e-001 -3.235072e-002 -1.855635e-001
<VARIANCE> 25
 5.911448e+001 1.219718e+002 8.056164e+001 1.082280e+002 6.487984e+001 6.559913e+001 7.966853e+001 6.265265e+001 7.891249e+001 1.076657e+002 8.166318e+001 4.885283e+001 9.146476e-001 2.969822e+000 1.850825e+000 2.962698e+000 2.154230e+000 2.152146e+000 2.867260e+000 2.820849e+000 2.657970e+000 2.272035e+000 2.653447e+000 2.001712e+000 1.729555e+000
<GCONST> 1.084551e+002
<TRANSP> 5
 0.000000e+000 1.000000e+000 0.000000e+000 0.000000e+000 0.000000e+000
 0.000000e+000 5.867853e-001 4.132148e-001 0.000000e+000 0.000000e+000
 0.000000e+000 0.000000e+000 6.601638e-001 3.398363e-001 0.000000e+000
 0.000000e+000 0.000000e+000 0.000000e+000 8.981236e-001 1.018764e-001
 0.000000e+000 0.000000e+000 0.000000e+000 0.000000e+000 0.000000e+000
<ENDHMM>
~h "hh"
<BEGINHMM>
<NUMSTATES> 5
<STATE> 2
<MEAN> 25
 1.984735e+000 1.588880e+000 -1.121164e+000 -7.819661e-001 9.191419e-001 6.765626e-001 1.721182e+000 -4.831303e-001 6.411792e-001 3.663880e-003 -1.564392e+000 -1.246270e+000 1.329478e-001 -2.301372e-002 -1.687698e-002 -2.052021e-002 5.357442e-001 1.709929e-001 2.750320e-002 2.648890e-001 4.085988e-001 1.936837e-001 -3.103224e-001 2.261564e-002 2.430370e-001
<VARIANCE> 25
 5.271696e+001 6.228726e+001 6.780766e+001 8.375422e+001 7.147797e+001 5.643959e+001 7.401247e+001 6.050334e+001 4.961636e+001 4.898592e+001 5.036301e+001 3.654207e+001 3.079150e+000 5.325519e+000 4.362083e+000 5.465441e+000 3.850934e+000 4.251580e+000 4.565938e+000 4.690000e+000 4.290833e+000 3.575920e+000 4.139806e+000 3.262078e+000 3.912437e+000
<GCONST> 1.132374e+002
<STATE> 3
<MEAN> 25
 -4.857507e-001 9.974454e-002 -3.256911e+000 9.680731e-001 3.447195e+000 2.530358e+000 3.612914e+000 8.901215e-001 2.269116e+000 1.796395e+000 -1.056931e+000 1.034209e+000 -1.740577e-001 -1.880170e-001 -1.757883e-001 9.277562e-002 -5.205225e-003 -1.636079e-002 1.861154e-002 2.423872e-002 7.961448e-002 2.300742e-001 2.246654e-001 3.114210e-001 -6.821146e-002
<VARIANCE> 25
 5.465368e+001 6.523988e+001 7.239202e+001 5.957110e+001 5.690475e+001 5.151371e+001 7.943316e+001 6.247800e+001 6.593317e+001 5.149329e+001 5.456246e+001 3.718455e+001 1.851871e+000 3.139449e+000 3.604452e+000 3.193268e+000 3.588832e+000 3.603901e+000 3.947330e+000 3.794689e+000 4.191012e+000 3.129462e+000 3.332420e+000 2.783295e+000 1.919197e+000
<GCONST> 1.096566e+002
<STATE> 4
<MEAN> 25
 -2.441451e+000 -8.555394e-001 -2.869172e+000 1.580869e+000 2.464436e+000 2.098981e+000 2.951844e+000 1.416826e+000 2.081871e+000 2.626316e+000 1.667115e-001 1.085658e+000 -1.922217e-001 3.698949e-002 1.850596e-002 7.418568e-002 -7.163081e-002 4.430583e-002 4.807537e-002 -1.952229e-002 1.273576e-002 3.068574e-002 9.906251e-002 2.219128e-002 -2.660873e-001
<VARIANCE> 25
 4.662513e+001 4.397477e+001 3.429013e+001 4.608691e+001 4.043687e+001 3.301830e+001 3.522781e+001 4.012660e+001 4.024361e+001 3.720976e+001 4.212843e+001 2.561546e+001 4.261973e-001 7.369011e-001 9.737657e-001 1.029983e+000 1.312436e+000 1.294969e+000 1.603544e+000 1.755816e+000 1.636794e+000 1.530231e+000 1.551477e+000 1.331655e+000 3.682019e-001
<GCONST> 9.073918e+001
<TRANSP> 5
 0.000000e+000 1.000000e+000 0.000000e+000 0.000000e+000 0.000000e+000
 0.000000e+000 6.261074e-001 3.738926e-001 0.000000e+000 0.000000e+000
 0.000000e+000 0.000000e+000 4.765016e-001 5.234984e-001 0.000000e+000
 0.000000e+000 0.000000e+000 0.000000e+000 8.582463e-001 1.417538e-001
 0.000000e+000 0.000000e+000 0.000000e+000 0.000000e+000 0.000000e+000
<ENDHMM>
~h "ih"
<BEGINHMM>
<NUMSTATES> 5
<STATE> 2
<MEAN> 25
 1.279565e+000 5.875551e-001 7.601835e+000 1.769161e+000 -3.271663e-001 -2.950834e+000 -3.846241e+000 -1.246776e+000 -9.266199e-001 -2.307982e+000 -1.139605e+000 -2.050465e+000 2.803237e-001 -3.066754e-001 1.485753e+000 -4.897333e-001 -3.855887e-001 -7.404370e-001 -1.515070e+000 -8.180699e-002 -2.688445e-001 -6.820260e-001 -1.666140e-001 -9.735182e-002 1.569463e+000
<VARIANCE> 25
 6.152568e+001 9.730975e+001 1.107233e+002 8.351924e+001 8.409142e+001 8.922054e+001 9.451544e+001 6.903699e+001 6.344238e+001 6.905816e+001 5.679538e+001 3.918660e+001 4.561642e+000 8.581053e+000 8.636273e+000 9.044446e+000 7.201405e+000 7.448281e+000 9.215586e+000 6.916306e+000 6.178550e+000 6.472076e+000 5.412127e+000 4.386987e+000 6.004785e+000
<GCONST> 1.223865e+002
<STATE> 3
<MEAN> 25
 2.044674e+000 1.173000e+000 1.080616e+001 -6.215447e-001 -6.710089e-001 -4.347239e+000 -8.146485e+000 -2.513831e+000 -1.197787e+000 -3.954968e+000 -2.064518e+000 -1.303412e+000 3.636932e-002 1.455010e-001 3.836888e-001 -4.371938e-001 -3.225576e-001 -2.707232e-002 -6.206243e-001 5.983776e-002 2.816528e-002 -1.834299e-001 -3.756680e-002 3.198802e-001 3.229722e-001
<VARIANCE> 25
 4.241521e+001 1.100832e+002 1.365818e+002 1.463630e+002 1.249820e+002 8.172688e+001 9.305568e+001 7.288452e+001 6.617001e+001 6.196939e+001 6.309840e+001 5.129278e+001 1.943534e+000 4.778001e+000 4.928325e+000 6.819423e+000 4.724966e+000 5.619860e+000 7.007448e+000 4.583058e+000 4.433667e+000 4.033191e+000 4.193953e+000 4.156404e+000 2.806350e+000
<GCONST> 1.180192e+002
<STATE> 4
<MEAN> 25
 3.432072e+000 2.034547e+000 1.498910e+001 -1.679882e+000 -4.706161e+000 -4.250632e+000 -9.914725e+000 -2.379561e+000 -2.412769e+000 -6.390910e+000 -1.478455e+000 -1.121026e+000 1.108839e-001 1.253514e-001 -4.633305e-001 2.165662e-001 1.615459e-001 2.318986e-001 3.894765e-001 -8.797633e-002 -6.999916e-003 1.297569e-001 2.311736e-002 -2.385361e-002 -5.004973e-001
<VARIANCE> 25
 2.709047e+001 1.003562e+002 1.098405e+002 1.690243e+002 1.301852e+002 6.958301e+001 6.084856e+001 7.994823e+001 7.178677e+001 6.355737e+001 8.102632e+001 5.948004e+001 5.842148e-001 1.414355e+000 1.751574e+000 2.395508e+000 2.131930e+000 2.156001e+000 2.454499e+000 2.479169e+000 2.319599e+000 2.144279e+000 2.213569e+000 2.036396e+000 7.655789e-001
<GCONST> 1.056085e+002
<TRANSP> 5
 0.000000e+000 1.000000e+000 0.000000e+000 0.000000e+000 0.000000e+000
 0.000000e+000 7.507861e-001 2.492139e-001 0.000000e+000 0.000000e+000
 0.000000e+000 0.000000e+000 5.334273e-001 4.665727e-001 0.000000e+000
 0.000000e+000 0.000000e+000 0.000000e+000 9.167193e-001 8.328065e-002
 0.000000e+000 0.000000e+000 0.000000e+000 0.000000e+000 0.000000e+000
<ENDHMM>
~h "jh"
<BEGINHMM>
<NUMSTATES> 5
<STATE> 2
<MEAN> 25
 1.070261e+000 4.672961e+000 2.214397e+000 3.450002e+000 2.373507e+000 1.909191e+000 9.802560e-001 -1.149827e+000 -1.865845e-001 -2.662710e-002 -8.498907e-001 -2.689104e-002 -9.571726e-001 1.315903e-002 1.693052e-002 -3.360206e-002 6.678479e-001 4.309203e-001 6.267397e-001 4.414577e-001 3.621044e-001 3.162963e-001 2.055656e-001 5.765176e-003 -2.798274e-001
<VARIANCE> 25
 4.942115e+001 3.636079e+001 6.568639e+001 3.555674e+001 4.494392e+001 3.252737e+001 3.398602e+001 2.576807e+001 3.508424e+001 3.312843e+001 3.100647e+001 2.322003e+001 4.608918e+000 1.929213e+000 2.701022e+000 3.402800e+000 3.256696e+000 3.352874e+000 2.663321e+000 1.945224e+000 2.811226e+000 2.085288e+000 1.644003e+000 1.556447e+000 4.360900e+000
<GCONST> 1.015163e+002
<STATE> 3
<MEAN> 25
 -4.337540e+000 4.156277e+000 3.528062e+000 9.076059e-001 2.298660e+000 1.183547e+000 2.262078e+000 -8.009113e-004 -2.704858e-001 1.050141e+000 4.273079e-001 -8.136964e-001 -4.540097e-001 -6.614286e-001 -3.881788e-001 -4.347061e-001 -1.784925e-001 -1.412490e-001 2.956095e-001 4.359150e-001 5.422059e-002 5.943116e-002 1.117938e-001 1.048508e-001 5.013448e-001
<VARIANCE> 25
 8.816119e+001 5.483630e+001 6.096891e+001 4.696584e+001 5.584742e+001 5.217525e+001 3.519394e+001 2.945864e+001 3.429309e+001 3.402047e+001 3.068383e+001 2.508090e+001 9.024964e+000 3.937266e+000 3.215808e+000 3.300775e+000 5.773754e+000 3.611726e+000 3.044675e+000 2.236887e+000 3.176590e+000 3.474396e+000 2.500480e+000 1.947347e+000 3.959172e+000
<GCONST> 1.072680e+002
<STATE> 4
<MEAN> 25
 -7.813616e+000 3.081300e+000 1.006690e+000 2.230993e+000 1.347437e+000 4.020216e+000 3.174765e+000 1.304230e+000 1.518259e+000 3.670344e+000 1.429195e+000 7.295781e-001 -9.032719e-002 -5.217042e-002 -2.213915e-002 -2.098980e-002 -2.114115e-002 1.753562e-002 3.816253e-002 2.926839e-002 2.518658e-002 5.989091e-002 3.575544e-002 3.519340e-003 -5.093383e-002
<VARIANCE> 25
 3.223912e+001 1.344240e+001 2.025880e+001 2.080557e+001 1.241310e+001 1.820338e+001 1.286113e+001 2.398112e+001 1.739611e+001 1.720916e+001 1.440872e+001 1.542776e+001 4.753432e-001 4.772978e-001 5.962389e-001 6.783757e-001 8.956862e-001 9.597008e-001 1.047802e+000 1.070984e+000 1.158427e+000 1.140526e+000 1.062456e+000 9.857296e-001 2.186004e-001
<GCONST> 7.669958e+001
<TRANSP> 5
 0.000000e+000 1.000000e+000 0.000000e+000 0.000000e+000 0.000000e+000
 0.000000e+000 4.935541e-001 5.064459e-001 0.000000e+000 0.000000e+000
 0.000000e+000 0.000000e+000 5.039877e-001 4.960123e-001 0.000000e+000
 0.000000e+000 0.000000e+000 0.000000e+000 9.591839e-001 4.081610e-002
 0.000000e+000 0.000000e+000 0.000000e+000 0.000000e+000 0.000000e+000
<ENDHMM>
~h "ng"
<BEGINHMM>
<NUMSTATES> 5
<STATE> 2
<MEAN> 25
 7.373668e+000 6.693564e+000 1.138794e+000 3.537766e+000 -6.915816e-001 -1.723540e+000 -2.947923e+000 -6.873112e+000 -4.746937e+000 -2.772972e+000 -5.171222e+000 -4.305987e+000 -6.521143e-001 3.184217e-001 1.654263e-001 4.548390e-001 3.256569e-001 2.129627e-001 3.508161e-001 2.829796e-002 2.237886e-001 2.497611e-001 -1.435029e-001 -1.977444e-002 -7.331287e-001
<VARIANCE> 25
 3.852381e+001 3.544556e+001 3.544733e+001 3.307995e+001 4.963365e+001 3.997430e+001 7.093711e+001 6.602588e+001 5.463273e+001 5.125294e+001 4.953106e+001 4.308166e+001 5.277007e-001 1.399117e+000 1.611571e+000 1.618155e+000 2.197694e+000 2.595076e+000 2.728952e+000 3.437353e+000 2.850466e+000 2.740630e+000 2.700271e+000 2.071776e+000 2.816571e-001
<GCONST> 9.902615e+001
<STATE> 3
<MEAN> 25
 -1.823880e-002 5.097781e+000 1.465250e+000 5.890571e+000 3.350615e+000 1.550488e+000 1.717040e+000 -2.229368e+000 -6.160722e-001 -2.855195e-001 -2.779657e+000 -1.892976e+000 -8.552237e-001 -4.054547e-001 -3.158362e-001 -1.595113e-001 4.532553e-002 3.847482e-001 6.341088e-001 5.682862e-001 6.185341e-001 6.056806e-001 4.856998e-001 4.346452e-001 -6.015365e-001
<VARIANCE> 25
 2.522721e+001 2.823474e+001 5.170023e+001 2.167329e+001 2.957886e+001 2.877199e+001 3.913150e+001 3.089179e+001 3.983052e+001 3.424909e+001 3.905315e+001 3.498565e+001 4.191540e-001 1.107908e+000 1.423007e+000 1.329299e+000 1.630531e+000 2.140368e+000 1.992819e+000 2.267164e+000 2.077591e+000 2.084651e+000 2.224533e+000 2.041042e+000 1.945313e-001
<GCONST> 9.178898e+001
<STATE> 4
<MEAN> 25
 -6.474093e+000 2.990036e+000 -1.358354e+000 4.414353e+000 1.574290e+000 1.569678e+000 3.544042e+000 1.708955e+000 2.459004e+000 2.697590e+000 4.863062e-001 1.655048e+000 -1.262226e-001 -6.082802e-002 -4.704113e-002 -4.191159e-002 -8.392680e-003 2.503211e-002 2.600786e-002 3.449444e-002 4.755443e-002 5.057744e-002 4.862469e-002 4.656861e-002 -7.629841e-002
<VARIANCE> 25
 1.985811e+001 8.973377e+000 2.232577e+001 1.678281e+001 1.107641e+001 2.149755e+001 1.354065e+001 1.905621e+001 1.864838e+001 1.967393e+001 1.674031e+001 1.547696e+001 2.627524e-001 3.508797e-001 4.915977e-001 6.265400e-001 7.853693e-001 9.201551e-001 1.066285e+000 1.156445e+000 1.179989e+000 1.227023e+000 1.175869e+000 1.022305e+000 1.251227e-001
<GCONST> 7.434290e+001
<TRANSP> 5
 0.000000e+000 1.000000e+000 0.000000e+000 0.000000e+000 0.000000e+000
 0.000000e+000 8.356805e-001 1.643195e-001 0.000000e+000 0.000000e+000
 0.000000e+000 0.000000e+000 7.286327e-001 2.713672e-001 0.000000e+000
 0.000000e+000 0.000000e+000 0.000000e+000 9.738856e-001 2.611445e-002
 0.000000e+000 0.000000e+000 0.000000e+000 0.000000e+000 0.000000e+000
<ENDHMM>
~h "ny"
<BEGINHMM>
<NUMSTATES> 5
<STATE> 2
<MEAN> 25
 -7.346805e-001 2.045878e+000 3.109731e+000 8.726014e-001 1.116500e+000 1.213889e+000 -5.812309e-001 -1.718501e+000 2.890001e-001 1.751728e+000 -5.064372e-002 -9.147873e-001 1.165541e+000 -7.471438e-002 1.287395e+000 -9.239410e-001 -4.429484e-001 -5.608745e-001 -9.350489e-001 -4.827390e-001 -5.970970e-001 -4.811716e-001 -8.795756e-002 -5.207504e-001 2.197176e+000
<VARIANCE> 25
 7.543046e+001 9.630152e+001 1.033075e+002 7.196578e+001 5.497368e+001 5.896130e+001 5.715115e+001 4.511670e+001 5.084403e+001 3.954712e+001 4.841923e+001 4.005780e+001 5.993854e+000 9.920892e+000 7.906641e+000 8.966418e+000 5.835086e+000 6.352930e+000 5.813841e+000 4.816412e+000 5.296345e+000 4.406149e+000 5.376258e+000 3.900149e+000 8.028615e+000
<GCONST> 1.184344e+002
<STATE> 3
<MEAN> 25
 5.247890e+000 -1.124231e+000 9.543674e+000 -3.035070e+000 -2.649989e+000 -4.136443e+000 -4.659096e+000 -3.019677e+000 -3.535216e+000 -2.777931e+000 -6.997432e-001 -3.469347e+000 4.158734e-001 -1.491879e+000 -6.283288e-001 -2.084525e-001 6.228262e-002 -6.400467e-001 -1.201221e-001 5.824138e-001 -1.905098e-001 -4.294519e-001 3.536923e-001 -3.505719e-002 1.186731e+000
<VARIANCE> 25
 3.873492e+001 9.409315e+001 9.054177e+001 1.213856e+002 7.434557e+001 8.242774e+001 1.004729e+002 5.933279e+001 4.775622e+001 5.557625e+001 7.633424e+001 3.919317e+001 2.085612e+000 7.151409e+000 6.382121e+000 7.333056e+000 4.998439e+000 6.889583e+000 8.069720e+000 5.365627e+000 4.383422e+000 4.802638e+000 4.991162e+000 3.429097e+000 3.391755e+000
<GCONST> 1.177178e+002
<STATE> 4
<MEAN> 25
 7.636204e+000 -3.354844e+000 4.632211e+000 -6.177845e+000 -2.874928e+000 -1.203604e+000 -3.509672e+000 -1.781790e+000 -6.378058e+000 -3.830118e+000 3.484406e+000 -2.955422e+000 -6.522264e-002 1.905285e-001 -1.983557e-001 1.503917e-001 1.087979e-001 1.309565e-001 1.927319e-001 -7.002319e-002 6.331334e-002 9.029404e-002 -4.063199e-002 9.198040e-002 -3.039671e-001
<VARIANCE> 25
 2.774016e+001 1.138231e+002 1.101261e+002 1.072218e+002 7.659076e+001 8.489820e+001 1.021477e+002 1.044307e+002 7.096051e+001 6.596281e+001 1.209240e+002 6.133104e+001 5.558936e-001 1.852984e+000 2.448002e+000 2.584560e+000 2.430776e+000 2.720475e+000 2.700642e+000 2.730308e+000 2.480159e+000 2.278034e+000 2.876877e+000 2.162085e+000 7.753634e-001
<GCONST> 1.078649e+002
<TRANSP> 5
 0.000000e+000 1.000000e+000 0.000000e+000 0.000000e+000 0.000000e+000
 0.000000e+000 8.258832e-001 1.741168e-001 0.000000e+000 0.000000e+000
 0.000000e+000 0.000000e+000 7.485543e-001 2.514457e-001 0.000000e+000
 0.000000e+000 0.000000e+000 0.000000e+000 9.410617e-001 5.893834e-002
 0.000000e+000 0.000000e+000 0.000000e+000 0.000000e+000 0.000000e+000
<ENDHMM>
~h "uw"
<BEGINHMM>
<NUMSTATES> 5
<STATE> 2
<MEAN> 25
 6.641024e+000 1.867137e+000 1.141997e+000 -1.965386e+000 -2.806061e+000 -1.877881e+000 -3.258572e+000 -1.719219e+000 -2.625874e+000 -2.779439e+000 -1.613117e+000 -1.335755e+000 5.195715e-001 4.757946e-001 9.437090e-002 7.624256e-002 -3.903271e-001 -4.223877e-001 -5.597479e-001 -2.883667e-001 -2.467743e-001 -2.503231e-001 -2.614291e-001 -1.162806e-001 2.028869e-001
<VARIANCE> 25
 5.526870e+001 7.183123e+001 7.749403e+001 7.568044e+001 8.420509e+001 8.799115e+001 9.429271e+001 8.223353e+001 7.053829e+001 7.771639e+001 6.416994e+001 4.546105e+001 2.656376e+000 4.811000e+000 4.160142e+000 5.006789e+000 5.060927e+000 6.371426e+000 6.238794e+000 5.617007e+000 5.669784e+000 5.241581e+000 4.390551e+000 3.347832e+000 3.084636e+000
<GCONST> 1.171844e+002
<STATE> 3
<MEAN> 25
 8.476333e+000 5.626971e+000 2.162892e+000 -2.047669e+000 -6.256389e+000 -4.641023e+000 -5.737592e+000 -2.980712e+000 -2.281663e+000 -2.493027e+000 -3.249749e+000 -2.789096e+000 -8.035297e-002 1.028942e-001 -2.290354e-001 7.512713e-003 2.101157e-001 2.528619e-001 2.116128e-001 -1.952592e-001 -2.986797e-003 4.691930e-002 -6.853129e-002 6.000432e-002 -2.651612e-001
<VARIANCE> 25
 3.726476e+001 5.487495e+001 7.129311e+001 6.495955e+001 8.679176e+001 9.092101e+001 8.986512e+001 9.965548e+001 6.336058e+001 7.690651e+001 6.129496e+001 5.187626e+001 7.147917e-001 1.924916e+000 2.839626e+000 2.882074e+000 3.916164e+000 4.457442e+000 4.096031e+000 4.203392e+000 3.758872e+000 3.570696e+000 3.285626e+000 3.069728e+000 8.512485e-001
<GCONST> 1.095140e+002
<STATE> 4
<MEAN> 25
 7.215405e+000 5.401923e+000 1.159732e+000 -1.908380e+000 -4.128818e+000 -2.327209e+000 -3.205921e+000 -4.573172e+000 -4.655962e+000 -2.909139e+000 -7.064885e-001 -1.624614e+000 -3.736298e-001 -3.284465e-002 4.667715e-002 2.068090e-001 2.171319e-001 1.632622e-001 2.504852e-001 2.218437e-002 1.679219e-001 1.736985e-001 5.524174e-002 3.614182e-002 -3.946897e-001
<VARIANCE> 25
 6.540403e+001 4.530293e+001 4.419434e+001 7.738241e+001 4.862101e+001 6.116174e+001 5.273880e+001 6.974260e+001 5.909259e+001 5.399251e+001 6.678117e+001 3.786006e+001 4.298194e-001 8.665762e-001 9.802271e-001 1.251406e+000 1.372645e+000 1.667640e+000 1.711780e+000 1.870244e+000 1.883157e+000 1.825414e+000 1.717043e+000 1.549248e+000 3.224841e-001
<GCONST> 9.647913e+001
<TRANSP> 5
 0.000000e+000 1.000000e+000 0.000000e+000 0.000000e+000 0.000000e+000
 0.000000e+000 7.522428e-001 2.477571e-001 0.000000e+000 0.000000e+000
 0.000000e+000 0.000000e+000 7.173653e-001 2.826347e-001 0.000000e+000
 0.000000e+000 0.000000e+000 0.000000e+000 8.926073e-001 1.073927e-001
 0.000000e+000 0.000000e+000 0.000000e+000 0.000000e+000 0.000000e+000
<ENDHMM>
~h "sil"
<BEGINHMM>
<NUMSTATES> 5
<STATE> 2
<MEAN> 25
 -9.441763e+000 1.653182e+000 -2.934919e+000 2.601301e+000 1.226621e+000 1.610280e+000 3.434289e+000 2.051438e+000 3.916602e+000 3.853376e+000 8.718152e-001 3.125469e+000 3.491673e-003 -5.671475e-003 3.748083e-003 -7.098938e-003 -6.875968e-003 -4.909420e-003 -8.543551e-003 -2.956950e-003 -1.957179e-003 4.905254e-003 -3.826602e-004 1.497934e-003 3.178377e-003
<VARIANCE> 25
 3.389106e+001 7.795362e+000 2.118639e+001 2.126886e+001 1.181636e+001 1.718390e+001 1.205473e+001 1.595503e+001 1.629799e+001 1.438442e+001 1.460764e+001 1.577862e+001 9.356356e-002 1.754827e-001 2.772398e-001 3.878488e-001 5.131953e-001 6.094111e-001 7.527099e-001 8.594379e-001 9.008899e-001 8.555385e-001 8.089145e-001 7.775713e-001 4.739287e-002
<GCONST> 6.739371e+001
<STATE> 3
<MEAN> 25
 -2.653421e+000 1.537403e+000 -5.988274e+000 2.184664e-001 -4.304597e+000 6.001774e+000 -9.947607e-001 5.815046e-001 1.471949e+000 3.724787e+000 7.120630e-001 1.121707e+000 1.449920e-001 2.723156e-002 -5.041488e-002 3.561322e-002 -6.906419e-002 6.040988e-002 -4.586304e-002 1.144586e-002 -3.939408e-002 -1.215021e-002 -3.005869e-003 -3.227681e-002 -3.356511e-001
<VARIANCE> 25
 7.292758e+001 9.584237e+000 2.219841e+001 1.282934e+001 2.318989e+001 2.079346e+001 1.392541e+001 7.407975e+000 1.048605e+001 5.377509e+000 5.765001e+000 9.400303e+000 9.301003e-001 2.072035e-001 3.705395e-001 3.692509e-001 4.364576e-001 4.779428e-001 4.457445e-001 4.585057e-001 5.432662e-001 4.334842e-001 4.276096e-001 4.206823e-001 5.448511e+000
<GCONST> 6.873087e+001
<STATE> 4
<MEAN> 25
 1.285069e+000 -1.973984e-001 1.493134e-001 -4.506308e-001 -4.398272e-001 -2.817135e-001 -4.707160e-001 -3.139157e-001 -4.272812e-001 -4.367888e-001 -8.883356e-002 -3.848698e-001 7.678376e-003 -1.233017e-003 4.320898e-003 1.518509e-004 2.697465e-003 -2.355549e-004 -1.494131e-003 -2.759914e-004 -5.407450e-004 -1.192007e-003 4.494759e-004 -2.660218e-003 1.079438e-002
<VARIANCE> 25
 1.042398e+002 8.419747e+001 7.590668e+001 8.907698e+001 4.886454e+001 5.866811e+001 6.049565e+001 5.674645e+001 5.319579e+001 5.477349e+001 4.734961e+001 3.702540e+001 1.204396e+000 1.965752e+000 1.692483e+000 2.310692e+000 1.776484e+000 2.150467e+000 2.327712e+000 2.354981e+000 2.244545e+000 2.200948e+000 2.035846e+000 1.678269e+000 1.796928e+000
<GCONST> 1.040737e+002
<TRANSP> 5
 0.000000e+000 1.000000e+000 0.000000e+000 0.000000e+000 0.000000e+000
 0.000000e+000 9.872613e-001 1.273867e-002 0.000000e+000 0.000000e+000
 0.000000e+000 0.000000e+000 9.315531e-001 6.844693e-002 0.000000e+000
 0.000000e+000 0.000000e+000 0.000000e+000 9.943694e-001 5.630573e-003
 0.000000e+000 0.000000e+000 0.000000e+000 0.000000e+000 0.000000e+000
<ENDHMM>
~h "sp"
<BEGINHMM>
<NUMSTATES> 3
<STATE> 2
<MEAN> 25
 -2.653421e+000 1.537403e+000 -5.988274e+000 2.184664e-001 -4.304597e+000 6.001774e+000 -9.947607e-001 5.815046e-001 1.471949e+000 3.724787e+000 7.120630e-001 1.121707e+000 1.449920e-001 2.723156e-002 -5.041488e-002 3.561322e-002 -6.906419e-002 6.040988e-002 -4.586304e-002 1.144586e-002 -3.939408e-002 -1.215021e-002 -3.005869e-003 -3.227681e-002 -3.356511e-001
<VARIANCE> 25
 7.292758e+001 9.584237e+000 2.219841e+001 1.282934e+001 2.318989e+001 2.079346e+001 1.392541e+001 7.407975e+000 1.048605e+001 5.377509e+000 5.765001e+000 9.400303e+000 9.301003e-001 2.072035e-001 3.705395e-001 3.692509e-001 4.364576e-001 4.779428e-001 4.457445e-001 4.585057e-001 5.432662e-001 4.334842e-001 4.276096e-001 4.206823e-001 5.448511e+000
<GCONST> 6.873087e+001
<TRANSP> 3
 0.0 1.0 0.0
 0.0 0.9 0.1
 0.0 0.0 0.0
<ENDHMM>
