~o
<STREAMINFO> 1 25
<VECSIZE> 25<NULLD><MFCC_D_N_Z_0><DIAGC>
~s "silst"
<MEAN> 25
 -6.990640e+000 3.688504e-001 -3.274859e+000 -6.243235e-001 -1.233516e-001 2.162241e+000 1.574162e+000 3.210643e-001 3.302232e+000 3.656201e+000 8.978926e-001 2.598269e+000 -2.668251e-002 -9.124144e-003 -1.386257e-002 -7.599101e-003 -1.034020e-002 -2.422684e-003 1.068795e-003 1.715883e-002 1.507184e-002 2.164441e-002 1.300550e-002 1.202738e-002 -2.595036e-002
<VARIANCE> 25
 3.447393e+001 5.102831e+000 1.834321e+001 1.548884e+001 1.372688e+001 1.387774e+001 1.074271e+001 1.061816e+001 1.341622e+001 7.632883e+000 9.321357e+000 1.155091e+001 6.133327e-002 1.217403e-001 2.082328e-001 2.954203e-001 3.681006e-001 4.497766e-001 5.408047e-001 5.698216e-001 6.064898e-001 5.740651e-001 5.526667e-001 5.181559e-001 3.608168e-002
<GCONST> 5.977193e+001
~h "b"
<BEGINHMM>
<NUMSTATES> 5
<STATE> 2
<MEAN> 25
 -6.962812e-001 4.882782e+000 5.654615e-001 2.341197e+000 1.410935e+000 -1.451228e+000 7.178739e-001 -2.636677e+000 -4.992597e-001 -5.758651e-001 -9.647857e-001 -3.393148e-001 -5.280606e-001 1.806962e-001 -1.942020e-001 5.464858e-001 4.514685e-001 5.925618e-001 9.001399e-001 4.627758e-001 5.788233e-001 6.092270e-001 1.383754e-001 1.369447e-001 -8.202697e-001
<VARIANCE> 25
 7.754958e+001 4.376086e+001 4.795961e+001 4.936362e+001 4.627329e+001 5.340211e+001 6.731059e+001 4.128811e+001 5.270229e+001 4.584399e+001 4.815562e+001 3.716672e+001 1.649717e+000 2.858039e+000 2.820209e+000 3.090110e+000 2.547443e+000 3.108002e+000 3.271903e+000 3.336231e+000 3.212013e+000 2.958957e+000 2.860535e+000 2.408835e+000 1.099794e+000
<GCONST> 1.053203e+002
<STATE> 3
<MEAN> 25
 -9.362671e-001 5.659584e+000 2.647263e+000 4.414841e+000 2.357233e+000 1.473832e+000 2.692980e+000 -1.764563e-002 1.039988e+000 7.619489e-001 -1.154029e+000 -9.743928e-001 1.995576e-001 4.541043e-001 4.977179e-001 4.900126e-001 2.726858e-001 3.330804e-001 3.578718e-001 2.384811e-001 3.577320e-002 -7.373114e-003 -2.634867e-001 -3.171984e-001 -1.588813e-001
<VARIANCE> 25
 5.548077e+001 3.544883e+001 4.134594e+001 2.322513e+001 3.390040e+001 3.753640e+001 3.280464e+001 2.418483e+001 2.705124e+001 2.901614e+001 2.831076e+001 2.275712e+001 2.310014e+000 2.278827e+000 2.176528e+000 1.724668e+000 2.064269e+000 1.926836e+000 1.891374e+000 1.665897e+000 1.961088e+000 1.894395e+000 1.938753e+000 1.653619e+000 1.203386e+000
<GCONST> 9.553156e+001
<STATE> 4
<MEAN> 25
 -6.085754e+000 2.498574e+000 -6.967326e-001 5.127950e+000 1.699383e+000 2.379462e+000 3.528082e+000 2.129094e+000 1.660853e+000 3.010159e+000 1.395449e+000 1.134390e+000 -3.209593e-002 -2.627320e-003 1.214861e-002 1.602299e-002 1.253857e-002 2.359973e-002 2.533464e-002 2.094391e-002 4.210958e-003 2.024598e-002 -5.933960e-004 -1.863029e-002 -2.503481e-002
<VARIANCE> 25
 2.253511e+001 1.496129e+001 2.456008e+001 1.324009e+001 1.364819e+001 2.192949e+001 1.481080e+001 2.075126e+001 1.830021e+001 2.197268e+001 1.999194e+001 1.537863e+001 1.916563e-001 3.223405e-001 4.971727e-001 6.392129e-001 8.304105e-001 1.010552e+000 1.208105e+000 1.268225e+000 1.369237e+000 1.278329e+000 1.240565e+000 1.126830e+000 8.382852e-002
<GCONST> 7.544286e+001
<TRANSP> 5
 0.000000e+000 1.000000e+000 0.000000e+000 0.000000e+000 0.000000e+000
 0.000000e+000 6.602018e-001 3.397982e-001 0.000000e+000 0.000000e+000
 0.000000e+000 0.000000e+000 5.501016e-001 4.498983e-001 0.000000e+000
 0.000000e+000 0.000000e+000 0.000000e+000 9.295877e-001 7.041229e-002
 0.000000e+000 0.000000e+000 0.000000e+000 0.000000e+000 0.000000e+000
<ENDHMM>
~h "d"
<BEGINHMM>
<NUMSTATES> 5
<STATE> 2
<MEAN> 25
 -5.269650e-001 5.972759e+000 4.137516e+000 5.458895e+000 3.005763e+000 1.377735e+000 2.060796e+000 -1.543837e+000 2.464634e-001 8.684262e-001 -1.004731e+000 -5.763406e-001 1.115075e+000 -3.609102e-001 7.986516e-001 -4.997800e-002 -9.877989e-003 -5.074908e-001 -6.836028e-001 -4.435340e-001 -6.136268e-001 -5.143771e-001 -5.024833e-002 -5.633307e-001 1.859142e+000
<VARIANCE> 25
 5.595219e+001 5.348569e+001 3.908916e+001 3.047606e+001 4.667917e+001 3.653920e+001 2.960682e+001 3.075896e+001 3.068448e+001 2.534986e+001 2.568086e+001 2.459394e+001 4.623604e+000 1.045951e+001 4.325646e+000 4.769617e+000 4.169750e+000 4.785668e+000 4.496763e+000 4.362016e+000 4.226607e+000 3.732662e+000 3.350203e+000 2.568426e+000 3.716546e+000
<GCONST> 1.074932e+002
<STATE> 3
<MEAN> 25
 6.055347e+000 -3.785013e+000 5.791169e+000 -1.688855e+000 -2.978478e+000 -4.426374e+000 -5.035742e+000 -8.730834e-001 -2.627828e+000 -2.074751e+000 8.890650e-001 -2.955580e+000 7.676171e-001 -2.104900e+000 -5.791101e-001 -1.872228e+000 -6.522114e-001 -1.067205e+000 -1.378504e+000 7.291695e-001 -1.780331e-001 -4.786057e-001 3.062992e-001 1.145002e-001 2.734938e+000
<VARIANCE> 25
 4.064236e+001 7.545258e+001 6.967207e+001 8.848816e+001 1.012904e+002 7.907639e+001 1.009854e+002 8.126604e+001 6.671277e+001 5.675893e+001 6.090765e+001 4.134960e+001 3.095716e+000 7.576471e+000 5.253501e+000 6.252185e+000 6.097735e+000 7.875035e+000 1.118914e+001 6.875926e+000 7.139872e+000 6.882833e+000 6.362108e+000 4.593659e+000 5.720957e+000
<GCONST> 1.206490e+002
<STATE> 4
<MEAN> 25
 9.127499e+000 -1.285764e+001 2.444162e+000 -9.574980e+000 -6.214755e-001 -2.162573e+000 -6.462922e+000 1.379752e+000 -2.267174e+000 -1.645995e+000 1.202971e+000 -2.934092e+000 2.989470e-002 -4.249584e-002 -2.642479e-001 -9.790216e-003 9.019987e-002 2.021842e-001 3.158909e-001 -6.551012e-002 -9.256808e-003 -4.404265e-002 -1.192640e-001 7.358455e-002 -1.572705e-001
<VARIANCE> 25
 2.231063e+001 6.940855e+001 5.199128e+001 8.480476e+001 5.437230e+001 6.840656e+001 1.120956e+002 7.565123e+001 6.095346e+001 8.467416e+001 9.181379e+001 5.932153e+001 2.776885e-001 9.623011e-001 8.662410e-001 1.437991e+000 1.745659e+000 1.484934e+000 1.857736e+000 1.740243e+000 1.525815e+000 1.639710e+000 1.715590e+000 1.563589e+000 4.115645e-001
<GCONST> 9.814375e+001
<TRANSP> 5
 0.000000e+000 1.000000e+000 0.000000e+000 0.000000e+000 0.000000e+000
 0.000000e+000 7.400936e-001 2.599064e-001 0.000000e+000 0.000000e+000
 0.000000e+000 0.000000e+000 7.491916e-001 2.508084e-001 0.000000e+000
 0.000000e+000 0.000000e+000 0.000000e+000 9.084010e-001 9.159900e-002
 0.000000e+000 0.000000e+000 0.000000e+000 0.000000e+000 0.000000e+000
<ENDHMM>
~h "g"
<BEGINHMM>
<NUMSTATES> 5
<STATE> 2
<MEAN> 25
 -2.110637e+000 4.879309e+000 5.109766e+000 6.334254e+000 4.064578e+000 2.589611e+000 2.744983e+000 -9.129004e-001 9.973451e-001 1.490944e+000 -9.860439e-002 -1.288179e-001 2.355691e-001 -9.404869e-002 1.807865e-001 2.800250e-001 3.392428e-001 1.339520e-001 1.950031e-001 -5.587553e-002 -1.975405e-001 -4.817234e-002 -7.190726e-002 -3.991315e-001 5.066108e-001
<VARIANCE> 25
 2.866710e+001 3.625417e+001 4.983887e+001 2.245626e+001 2.895167e+001 2.302366e+001 2.041049e+001 2.266621e+001 2.165203e+001 2.037101e+001 2.125233e+001 1.693684e+001 2.329078e+000 3.717101e+000 2.926575e+000 3.053633e+000 2.100679e+000 1.899009e+000 2.259902e+000 2.242858e+000 2.186876e+000 2.294456e+000 1.775037e+000 1.577449e+000 1.877046e+000
<GCONST> 9.515539e+001
<STATE> 3
<MEAN> 25
 -5.301848e-001 9.952344e-001 4.585930e+000 8.817486e-001 5.553268e-001 -7.668427e-001 -2.562867e-001 1.299047e-001 3.766000e-001 -1.971796e-001 -4.532439e-001 -7.391943e-001 7.126697e-001 -6.875281e-001 8.642247e-002 -1.646111e+000 -4.860386e-001 -6.371863e-001 -1.141285e+000 2.802651e-001 -2.383819e-001 -7.464650e-001 -7.575992e-002 -1.812719e-001 2.372031e+000
<VARIANCE> 25
 8.180412e+001 1.103250e+002 9.201056e+001 8.270170e+001 8.173875e+001 8.039426e+001 7.411369e+001 6.337936e+001 5.671191e+001 5.205835e+001 4.629121e+001 3.860866e+001 7.977176e+000 1.036238e+001 7.405693e+000 8.749998e+000 6.705024e+000 7.572077e+000 7.394655e+000 6.853064e+000 6.093426e+000 6.334240e+000 4.795141e+000 3.687936e+000 4.992361e+000
<GCONST> 1.212884e+002
<STATE> 4
<MEAN> 25
 4.735861e+000 -5.840428e+000 7.500410e+000 -7.047096e-001 4.837156e+000 -4.522674e-001 -8.778180e+000 1.150096e+000 4.094149e-001 -3.117889e+000 -1.076513e+000 -3.534375e+000 1.408229e-001 2.049816e-001 -1.981828e-001 -6.699440e-002 3.851806e-002 -1.069215e-001 8.656512e-003 -4.906664e-002 -1.722680e-001 2.735717e-002 -8.292289e-002 -9.593508e-003 -6.228122e-002
<VARIANCE> 25
 5.126044e+001 1.250535e+002 8.777265e+001 1.605923e+002 7.152901e+001 3.621259e+001 6.774760e+001 5.996051e+001 5.629703e+001 6.600672e+001 6.394357e+001 2.607603e+001 6.032864e-001 1.487856e+000 1.298336e+000 1.623779e+000 1.723914e+000 1.657792e+000 2.769461e+000 1.658084e+000 1.632117e+000 2.013291e+000 1.927245e+000 1.267062e+000 8.429486e-001
<GCONST> 1.011984e+002
<TRANSP> 5
 0.000000e+000 1.000000e+000 0.000000e+000 0.000000e+000 0.000000e+000
 0.000000e+000 7.582935e-001 2.417065e-001 0.000000e+000 0.000000e+000
 0.000000e+000 0.000000e+000 7.662243e-001 2.337757e-001 0.000000e+000
 0.000000e+000 0.000000e+000 0.000000e+000 8.033929e-001 1.966071e-001
 0.000000e+000 0.000000e+000 0.000000e+000 0.000000e+000 0.000000e+000
<ENDHMM>
~h "k"
<BEGINHMM>
<NUMSTATES> 5
<STATE> 2
<MEAN> 25
 -2.373290e+000 -9.579590e-001 -2.339945e+000 7.143652e-001 2.082229e+000 -5.776377e-001 1.080494e+000 1.364088e+000 1.956113e+000 1.791318e+000 7.942209e-001 8.784407e-002 1.657202e+000 -9.310030e-001 -8.080264e-001 -1.908961e+000 -6.567945e-001 -6.254945e-001 -4.835804e-001 1.214907e-001 -4.943514e-001 -2.619832e-001 1.537046e-001 -3.255410e-001 2.631011e+000
<VARIANCE> 25
 5.838804e+001 6.179868e+001 6.085977e+001 7.596286e+001 5.474940e+001 5.331012e+001 5.339189e+001 5.274228e+001 4.377190e+001 4.452844e+001 3.339312e+001 3.163282e+001 5.429356e+000 6.877639e+000 7.860831e+000 9.793353e+000 6.711798e+000 6.989552e+000 7.072104e+000 7.191869e+000 5.038889e+000 5.531958e+000 4.188704e+000 3.291301e+000 6.114050e+000
<GCONST> 1.165394e+002
<STATE> 3
<MEAN> 25
 8.031621e+000 -2.153116e+000 -3.722663e+000 -9.274356e+000 -4.187077e+000 -3.560026e-001 -2.201116e+000 -1.746923e-001 -3.439932e+000 -1.149548e+000 2.966250e+000 -1.302195e+000 1.102952e+000 -2.929498e-001 1.237701e-001 -2.704401e-001 -1.565302e-001 -4.286467e-001 -7.057351e-001 -1.697372e-001 -3.678215e-001 -5.598875e-001 -1.785493e-001 -2.472190e-001 1.132132e+000
<VARIANCE> 25
 6.342034e+001 1.097769e+002 1.043387e+002 1.050945e+002 6.946749e+001 7.827076e+001 8.420878e+001 7.479125e+001 6.057868e+001 8.094110e+001 6.285304e+001 3.917377e+001 3.371932e+000 4.839063e+000 4.577782e+000 7.163136e+000 5.152424e+000 4.610238e+000 5.792753e+000 6.350204e+000 4.184318e+000 4.941443e+000 4.041738e+000 3.321393e+000 2.151398e+000
<GCONST> 1.172006e+002
<STATE> 4
<MEAN> 25
 1.036022e+001 -1.105293e+001 -1.452202e+000 -1.048353e+001 -2.173075e-001 -2.096533e+000 -3.485718e+000 6.622528e-001 -1.977087e+000 -1.761912e+000 -5.890937e-001 -2.898899e+000 -3.625234e-002 6.532560e-002 3.110334e-002 4.659176e-002 2.949353e-002 1.252544e-001 5.960941e-002 -6.764744e-003 3.341477e-002 3.037948e-002 5.201106e-003 1.910969e-002 -1.026509e-001
<VARIANCE> 25
 4.708883e+001 1.506855e+002 8.315257e+001 1.298342e+002 8.325138e+001 8.649348e+001 6.098220e+001 7.452271e+001 5.754074e+001 8.375215e+001 5.722589e+001 3.848083e+001 2.387814e-001 7.387223e-001 8.578618e-001 1.089443e+000 1.216316e+000 1.175992e+000 1.345866e+000 1.367622e+000 1.385884e+000 1.266889e+000 1.256854e+000 1.088478e+000 2.747291e-001
<GCONST> 9.633192e+001
<TRANSP> 5
 0.000000e+000 1.000000e+000 0.000000e+000 0.000000e+000 0.000000e+000
 0.000000e+000 7.291147e-001 2.708853e-001 0.000000e+000 0.000000e+000
 0.000000e+000 0.000000e+000 6.996915e-001 3.003085e-001 0.000000e+000
 0.000000e+000 0.000000e+000 0.000000e+000 8.565669e-001 1.434331e-001
 0.000000e+000 0.000000e+000 0.000000e+000 0.000000e+000 0.000000e+000
<ENDHMM>
~h "l"
<BEGINHMM>
<NUMSTATES> 5
<STATE> 2
<MEAN> 25
 3.090725e+000 -5.553538e-001 3.530276e+000 -1.541409e+000 -2.072323e+000 -1.736122e+000 -3.681632e+000 -1.531568e+000 -5.284296e-001 -2.743739e-001 2.638295e-001 -1.462083e+000 6.395634e-001 -7.036860e-001 -3.509710e-001 -3.520496e-001 -4.332233e-002 -5.544008e-001 -3.961519e-001 3.517722e-002 1.240602e-001 -4.719348e-001 -1.708882e-001 1.991124e-001 1.221904e+000
<VARIANCE> 25
 1.083675e+002 8.906946e+001 1.033735e+002 9.406628e+001 8.305066e+001 9.028577e+001 8.841694e+001 9.081605e+001 6.885104e+001 6.383171e+001 6.472823e+001 4.569140e+001 4.119242e+000 5.888010e+000 5.610003e+000 7.754230e+000 5.915431e+000 7.741044e+000 7.446280e+000 7.730970e+000 6.529364e+000 5.239211e+000 4.966303e+000 4.574131e+000 4.659007e+000
<GCONST> 1.216307e+002
<STATE> 3
<MEAN> 25
 9.311044e+000 -3.734520e+000 -3.318710e+000 -7.000619e+000 -4.012331e-001 -7.588253e+000 -4.646469e+000 1.907783e+000 4.882177e+000 -5.337258e+000 -4.845432e+000 2.901312e+000 5.759367e-002 -7.265663e-001 -7.894115e-001 -1.387683e-001 4.988756e-001 5.215449e-001 7.078981e-001 -1.714968e-001 -1.956009e-001 -2.507295e-001 -2.053731e-001 2.201298e-001 2.364114e-001
<VARIANCE> 25
 2.474520e+001 4.384988e+001 4.924314e+001 5.513912e+001 5.934369e+001 9.633340e+001 7.461766e+001 7.676677e+001 1.141748e+002 6.097879e+001 5.666515e+001 5.211829e+001 5.560185e-001 2.331059e+000 1.752581e+000 2.766524e+000 2.823323e+000 4.817746e+000 3.207900e+000 3.087632e+000 4.276210e+000 3.578852e+000 2.895249e+000 2.530740e+000 7.479571e-001
<GCONST> 1.061568e+002
<STATE> 4
<MEAN> 25
 1.040446e+001 -9.759733e+000 -3.600050e+000 -7.122581e+000 -8.773862e-001 -3.042349e+000 -1.954984e+000 -6.941345e-001 -2.668544e+000 -6.507319e+000 -1.582039e-001 -6.036815e-002 -6.057527e-003 6.924959e-002 -2.629515e-002 1.005623e-002 -9.785321e-002 -6.159503e-003 7.420875e-002 -4.752643e-002 -4.533178e-002 8.569553e-003 9.352870e-002 -9.316238e-002 -1.342358e-001
<VARIANCE> 25
 4.117235e+001 6.704447e+001 7.862576e+001 7.470672e+001 8.836235e+001 9.329382e+001 5.406037e+001 7.692429e+001 5.346983e+001 6.018014e+001 8.686476e+001 4.467678e+001 2.102682e-001 8.988259e-001 8.276517e-001 1.157586e+000 1.299581e+000 1.338182e+000 1.430938e+000 1.360966e+000 1.514883e+000 1.527162e+000 1.375864e+000 1.274326e+000 2.842130e-001
<GCONST> 9.589194e+001
<TRANSP> 5
 0.000000e+000 1.000000e+000 0.000000e+000 0.000000e+000 0.000000e+000
 0.000000e+000 7.680146e-001 2.319854e-001 0.000000e+000 0.000000e+000
 0.000000e+000 0.000000e+000 7.846061e-001 2.153939e-001 0.000000e+000
 0.000000e+000 0.000000e+000 0.000000e+000 8.975289e-001 1.024712e-001
 0.000000e+000 0.000000e+000 0.000000e+000 0.000000e+000 0.000000e+000
<ENDHMM>
~h "m"
<BEGINHMM>
<NUMSTATES> 5
<STATE> 2
<MEAN> 25
 2.850150e+000 1.329067e+000 1.421990e+000 1.631332e+000 6.137015e-001 7.575252e-001 8.692709e-001 -1.698054e+000 -1.080234e+000 5.881464e-001 -2.336133e-001 -1.435717e+000 1.630723e+000 -4.793320e-001 -3.693831e-001 -7.923213e-001 -1.161680e-001 -4.032900e-001 -5.430027e-001 -2.751984e-001 -5.438730e-001 -6.618494e-001 -4.669201e-001 -6.215310e-001 1.857909e+000
<VARIANCE> 25
 8.609042e+001 6.811166e+001 5.912426e+001 5.947731e+001 5.164906e+001 5.726430e+001 7.739423e+001 6.855535e+001 6.196810e+001 4.358994e+001 5.595813e+001 3.842319e+001 4.660217e+000 7.190948e+000 5.785757e+000 7.025987e+000 5.061531e+000 5.839118e+000 6.102393e+000 6.321108e+000 5.757872e+000 4.512178e+000 4.341807e+000 3.514512e+000 6.544423e+000
<GCONST> 1.170490e+002
<STATE> 3
<MEAN> 25
 9.559285e+000 -5.727777e+000 -3.275941e+000 -5.805793e+000 1.952686e+000 -2.411787e+000 -3.402533e+000 1.442212e-001 -2.519848e+000 -5.870867e+000 -2.555641e+000 -4.076863e+000 1.045444e-001 -1.123810e+000 -1.707790e-001 -3.138599e-001 6.032257e-001 6.972325e-002 1.724869e-002 3.894279e-001 -6.201604e-002 -4.935229e-001 -9.004519e-002 -7.922866e-002 7.652164e-001
<VARIANCE> 25
 3.309474e+001 8.148434e+001 4.801383e+001 7.227190e+001 7.276515e+001 7.892409e+001 6.628947e+001 7.717812e+001 7.499545e+001 6.473209e+001 5.087582e+001 3.776782e+001 2.016986e+000 7.552923e+000 4.177226e+000 7.524205e+000 5.575057e+000 4.083473e+000 5.492177e+000 5.822156e+000 4.853936e+000 4.708000e+000 4.231573e+000 3.332373e+000 5.254956e+000
<GCONST> 1.154391e+002
<STATE> 4
<MEAN> 25
 9.852905e+000 -4.179924e+000 1.343618e-001 -2.443150e+000 2.083684e+000 3.730434e-001 -1.974995e+000 -2.768831e+000 -4.795642e+000 -2.713124e+000 -2.942874e+000 -5.409998e+000 -2.124973e-001 4.836525e-001 1.351309e-001 3.794677e-001 -2.495322e-002 3.179327e-002 1.374438e-001 -1.559584e-001 1.553084e-002 8.558744e-002 -6.946319e-002 4.173490e-002 -5.284469e-001
<VARIANCE> 25
 2.632083e+001 1.302272e+002 3.707750e+001 1.048590e+002 6.129568e+001 4.875994e+001 8.918286e+001 8.703085e+001 7.780198e+001 7.482848e+001 7.172650e+001 3.589465e+001 5.158504e-001 1.248562e+000 9.879611e-001 1.606912e+000 1.438784e+000 1.405662e+000 1.994769e+000 2.210924e+000 1.909175e+000 1.789226e+000 2.020836e+000 1.598165e+000 5.422845e-001
<GCONST> 9.983394e+001
<TRANSP> 5
 0.000000e+000 1.000000e+000 0.000000e+000 0.000000e+000 0.000000e+000
 0.000000e+000 6.923866e-001 3.076133e-001 0.000000e+000 0.000000e+000
 0.000000e+000 0.000000e+000 6.694795e-001 3.305206e-001 0.000000e+000
 0.000000e+000 0.000000e+000 0.000000e+000 9.184539e-001 8.154610e-002
 0.000000e+000 0.000000e+000 0.000000e+000 0.000000e+000 0.000000e+000
<ENDHMM>
~h "n"
<BEGINHMM>
<NUMSTATES> 5
<STATE> 2
<MEAN> 25
 2.450073e+000 8.580208e-001 2.358523e-001 8.700883e-001 3.029587e-001 -6.992102e-001 -3.105513e-002 -1.147096e+000 -1.241383e+000 -8.637984e-001 1.138561e-001 -8.096200e-001 7.703477e-001 -2.248001e-002 2.668369e-001 2.705675e-002 -1.457766e-001 -3.528793e-001 -3.879507e-001 -3.392921e-001 -4.955064e-001 -5.460213e-001 -2.225253e-001 -2.424107e-001 6.979871e-001
<VARIANCE> 25
 7.291571e+001 7.134748e+001 7.006567e+001 6.173790e+001 5.848603e+001 6.310330e+001 6.361775e+001 5.957712e+001 5.344221e+001 5.939566e+001 4.524505e+001 3.203085e+001 4.422090e+000 6.008045e+000 4.574506e+000 5.780312e+000 4.880412e+000 5.077117e+000 5.403326e+000 5.565548e+000 5.048635e+000 4.521111e+000 3.907522e+000 2.841059e+000 5.387360e+000
<GCONST> 1.150587e+002
<STATE> 3
<MEAN> 25
 7.488421e+000 -1.830374e+000 5.990842e+000 -1.218808e+000 -3.345901e+000 -4.102776e+000 -5.427142e+000 -1.097064e+000 -5.236341e+000 -5.869320e+000 1.365295e+000 -2.599680e+000 2.325663e-002 4.762931e-001 -3.242294e-002 6.595551e-001 1.050830e-001 6.775539e-002 1.838681e-001 -3.766421e-001 -1.413940e-001 1.155290e-001 -3.217298e-001 1.019833e-002 -5.772473e-001
<VARIANCE> 25
 4.103611e+001 8.266555e+001 1.269933e+002 1.073400e+002 7.778830e+001 8.880697e+001 7.614865e+001 9.841904e+001 6.977052e+001 8.347238e+001 7.703205e+001 3.954840e+001 1.131131e+000 3.190511e+000 3.252833e+000 4.014988e+000 3.220217e+000 4.103696e+000 4.289466e+000 5.248886e+000 3.925312e+000 3.930764e+000 3.361063e+000 2.553349e+000 1.873441e+000
<GCONST> 1.131124e+002
<STATE> 4
<MEAN> 25
 5.670787e+000 6.732947e+000 3.656786e+000 6.166972e+000 4.200271e-001 -1.552847e+000 -1.489402e+000 -6.814142e+000 -4.836662e+000 -1.929404e+000 -3.804561e+000 -2.953384e+000 -6.130956e-001 6.948921e-002 3.472958e-002 1.086664e-001 1.739969e-001 2.549587e-001 2.804136e-001 1.527762e-001 2.931345e-001 3.258807e-001 1.154458e-001 8.917797e-002 -5.515045e-001
<VARIANCE> 25
 4.148190e+001 3.052490e+001 2.833724e+001 3.245822e+001 4.871411e+001 3.827620e+001 5.034261e+001 8.696432e+001 6.401977e+001 5.996185e+001 3.739051e+001 3.267827e+001 4.625363e-001 1.144225e+000 1.151869e+000 1.272728e+000 1.602506e+000 1.712411e+000 1.937364e+000 2.465388e+000 2.191721e+000 2.314089e+000 2.143191e+000 1.717732e+000 2.588722e-001
<GCONST> 9.508601e+001
<TRANSP> 5
 0.000000e+000 1.000000e+000 0.000000e+000 0.000000e+000 0.000000e+000
 0.000000e+000 5.568478e-001 4.431523e-001 0.000000e+000 0.000000e+000
 0.000000e+000 0.000000e+000 7.728031e-001 2.271970e-001 0.000000e+000
 0.000000e+000 0.000000e+000 0.000000e+000 8.808981e-001 1.191019e-001
 0.000000e+000 0.000000e+000 0.000000e+000 0.000000e+000 0.000000e+000
<ENDHMM>
~h "p"
<BEGINHMM>
<NUMSTATES> 5
<STATE> 2
<MEAN> 25
 -4.491595e+000 1.056485e+000 -1.145460e+000 3.548061e+000 1.013345e+000 2.312643e+000 3.869832e+000 1.266770e+000 1.798041e+000 3.384415e+000 2.033923e+000 7.579474e-001 -1.732893e-001 -3.203945e-001 -7.673547e-002 -1.535486e-001 1.745483e-002 2.010517e-002 8.693641e-002 1.068483e-001 1.534152e-001 1.927208e-001 1.848606e-001 7.684556e-002 8.652762e-002
<VARIANCE> 25
 2.529240e+001 1.935939e+001 2.965869e+001 2.348009e+001 2.579453e+001 2.412570e+001 2.009770e+001 2.409916e+001 2.552839e+001 2.155481e+001 2.952584e+001 1.869021e+001 1.276152e+000 1.048161e+000 1.173397e+000 1.360609e+000 1.580497e+000 1.818662e+000 2.081679e+000 2.009640e+000 1.854489e+000 1.755555e+000 1.894666e+000 1.736965e+000 1.406186e+000
<GCONST> 8.988454e+001
<STATE> 3
<MEAN> 25
 1.534087e+000 -4.348516e+000 -2.237881e+000 -2.943887e+000 7.201160e-001 -4.976035e-001 3.866352e-001 1.204842e+000 1.735703e+000 5.084553e-001 3.940427e-001 -4.912879e-001 2.826867e+000 -2.386744e+000 -7.471306e-001 -2.292461e+000 -4.165478e-001 -9.991354e-001 -1.291688e+000 2.634849e-002 -5.679969e-001 -1.372894e+000 -4.134267e-001 -8.385901e-001 4.657088e+000
<VARIANCE> 25
 7.381478e+001 6.711467e+001 4.665350e+001 7.215271e+001 6.231821e+001 5.350059e+001 4.911864e+001 4.319005e+001 3.437228e+001 4.440519e+001 3.342865e+001 2.573705e+001 5.216685e+000 6.522987e+000 6.594807e+000 9.146967e+000 8.046555e+000 7.588339e+000 6.118084e+000 6.522666e+000 5.098533e+000 6.094824e+000 5.267445e+000 2.999665e+000 7.139039e+000
<GCONST> 1.160235e+002
<STATE> 4
<MEAN> 25
 8.983577e+000 -1.573150e+001 -2.635973e+000 -1.199749e+001 2.387338e+000 6.124321e-001 -2.023679e+000 1.453920e+000 -1.037934e+000 -2.267171e+000 -9.754891e-001 -3.194056e+000 5.612672e-002 1.014362e-001 8.352818e-002 2.312394e-001 -1.137471e-001 -2.380471e-001 -6.808429e-003 -1.624205e-001 -2.533727e-001 -1.742919e-001 -7.853639e-002 8.838996e-003 1.619726e-002
<VARIANCE> 25
 2.862594e+001 6.999654e+001 6.327490e+001 9.700653e+001 8.237875e+001 5.338003e+001 5.363555e+001 6.461179e+001 3.629949e+001 9.060680e+001 4.953362e+001 2.764230e+001 7.623138e-001 2.253057e+000 1.372261e+000 2.305863e+000 1.804895e+000 2.170333e+000 2.078341e+000 1.893882e+000 1.716490e+000 1.812960e+000 1.426706e+000 1.414966e+000 1.960085e+000
<GCONST> 1.010707e+002
<TRANSP> 5
 0.000000e+000 1.000000e+000 0.000000e+000 0.000000e+000 0.000000e+000
 0.000000e+000 8.314007e-001 1.685994e-001 0.000000e+000 0.000000e+000
 0.000000e+000 0.000000e+000 7.061046e-001 2.938954e-001 0.000000e+000
 0.000000e+000 0.000000e+000 0.000000e+000 8.457078e-001 1.542922e-001
 0.000000e+000 0.000000e+000 0.000000e+000 0.000000e+000 0.000000e+000
<ENDHMM>
~h "r"
<BEGINHMM>
<NUMSTATES> 5
<STATE> 2
<MEAN> 25
 1.339996e+001 -1.075085e+001 -7.847268e+000 -1.680481e+000 -2.759321e+000 -4.828395e+000 -3.089580e+000 5.583642e+000 -1.431998e+000 -5.419531e+000 -2.834189e-002 2.430247e+000 5.371771e-003 -2.443841e-001 -1.554685e-001 -1.828829e-002 6.939190e-002 5.695775e-002 8.935142e-002 -6.492317e-002 -7.301357e-002 1.860265e-004 3.302909e-002 -3.769937e-002 7.846826e-002
<VARIANCE> 25
 7.841121e+001 6.674633e+001 7.180991e+001 3.462823e+001 4.559440e+001 1.517208e+002 5.616476e+001 4.633759e+001 4.306931e+001 4.104641e+001 6.491221e+001 3.227131e+001 9.667318e-001 2.206672e+000 1.917870e+000 1.729032e+000 2.152643e+000 2.319226e+000 2.119862e+000 1.956177e+000 1.823251e+000 2.010604e+000 1.762677e+000 1.487418e+000 1.134793e+000
<GCONST> 1.015354e+002
<STATE> 3
<MEAN> 25
 6.351492e+000 -1.017133e+001 -5.360802e+000 -4.798347e+000 3.013350e+000 -2.742157e+000 1.677293e-001 -3.463104e+000 -2.839004e+000 -7.701341e+000 -1.152719e+000 -1.114836e+000 -8.723091e-002 1.055412e-001 3.055678e-002 1.665785e-001 8.040591e-002 8.153324e-002 1.928882e-001 -2.274719e-001 1.351638e-001 1.499150e-001 -4.238062e-002 -2.479444e-001 -2.290149e-001
<VARIANCE> 25
 2.625962e+001 5.579417e+001 2.483587e+001 3.475081e+001 4.700203e+001 4.254713e+001 5.644038e+001 5.545818e+001 3.328881e+001 5.664960e+001 3.448571e+001 2.886751e+001 4.394228e-001 9.007377e-001 6.544569e-001 8.418762e-001 2.166847e+000 1.665349e+000 1.640017e+000 2.004806e+000 1.530761e+000 1.869792e+000 1.320553e+000 1.413993e+000 5.923897e-001
<GCONST> 9.219523e+001
<STATE> 4
<MEAN> 25
 -3.119284e+000 3.231198e-001 -3.968997e-001 3.729364e-001 7.972188e-003 3.091559e+000 2.712493e+000 -3.515019e-001 -1.962999e-001 1.948944e+000 1.791931e+000 -8.112144e-001 -1.031908e-001 7.326293e-002 2.321461e-002 3.818986e-002 1.522410e-002 2.425317e-002 -1.158159e-002 1.445641e-002 4.039244e-002 4.541387e-002 6.185769e-003 -3.082523e-002 -1.530511e-001
<VARIANCE> 25
 7.895748e+001 4.145365e+001 2.975412e+001 2.427876e+001 2.091756e+001 2.186418e+001 1.922067e+001 2.452942e+001 1.817714e+001 2.775772e+001 2.046210e+001 1.703896e+001 2.129425e-001 4.085597e-001 4.819019e-001 6.516501e-001 8.926235e-001 9.656688e-001 1.107150e+000 1.224737e+000 1.213516e+000 1.230747e+000 1.142170e+000 9.971388e-001 1.313144e-001
<GCONST> 8.003896e+001
<TRANSP> 5
 0.000000e+000 1.000000e+000 0.000000e+000 0.000000e+000 0.000000e+000
 0.000000e+000 8.571344e-001 1.428656e-001 0.000000e+000 0.000000e+000
 0.000000e+000 0.000000e+000 7.846551e-001 2.153449e-001 0.000000e+000
 0.000000e+000 0.000000e+000 0.000000e+000 8.532859e-001 1.467141e-001
 0.000000e+000 0.000000e+000 0.000000e+000 0.000000e+000 0.000000e+000
<ENDHMM>
~h "s"
<BEGINHMM>
<NUMSTATES> 5
<STATE> 2
<MEAN> 25
 -9.232968e+000 2.537297e+000 -3.770305e+000 4.532943e+000 1.989207e+000 -1.485689e-001 6.941031e+000 1.135276e+000 7.266940e-001 2.168023e+000 1.724431e+000 -1.542952e-001 -1.418338e+000 3.777794e-001 -1.392692e-001 -2.219942e-001 1.998008e-001 -2.026918e-001 7.460278e-001 2.919875e-001 1.954009e-001 3.773243e-001 3.842140e-001 -4.479621e-002 5.594205e-001
<VARIANCE> 25
 8.600253e+001 4.066417e+001 4.838765e+001 2.388081e+001 3.018435e+001 4.067209e+001 4.234961e+001 3.722734e+001 3.370290e+001 3.007072e+001 2.936682e+001 2.168773e+001 2.976472e+000 3.487436e+000 3.646494e+000 2.159654e+000 2.645396e+000 3.628295e+000 3.327846e+000 2.747144e+000 2.541075e+000 2.376755e+000 2.307891e+000 1.995212e+000 1.600089e+000
<GCONST> 1.016861e+002
<STATE> 3
<MEAN> 25
 -1.237282e+001 -2.722816e+000 1.267826e+000 -2.333484e+000 4.013031e+000 -2.298461e-002 3.682004e+000 3.630296e+000 3.538314e+000 2.155954e+000 3.225396e+000 7.512612e-001 -2.748368e-001 -1.106637e+000 5.809067e-001 -1.047460e+000 8.734192e-002 -4.484421e-002 -4.569719e-001 2.638854e-002 1.336456e-001 -3.020980e-001 7.548399e-002 -1.974882e-002 1.540909e+000
<VARIANCE> 25
 9.017297e+001 9.417134e+001 1.329053e+002 6.087421e+001 5.709005e+001 1.140462e+002 1.107025e+002 6.607639e+001 4.861453e+001 4.770931e+001 4.451375e+001 2.991748e+001 9.143932e+000 5.554488e+000 7.782847e+000 4.551833e+000 4.718098e+000 5.581770e+000 6.571097e+000 5.262206e+000 4.359016e+000 4.962184e+000 5.006464e+000 2.889304e+000 3.311168e+000
<GCONST> 1.178668e+002
<STATE> 4
<MEAN> 25
 -1.641353e+001 -1.114549e+000 2.627341e+000 -2.282463e+000 1.689678e+000 8.386968e-001 6.209863e+000 7.238497e-001 2.230567e+000 4.238526e+000 2.701624e+000 3.614031e-001 3.698314e-001 -1.656193e-001 7.336324e-002 -1.745459e-002 -9.498239e-002 -4.366728e-002 -1.957301e-001 -3.771956e-002 2.650605e-002 -1.874154e-002 -9.663038e-003 3.402251e-002 -5.363712e-002
<VARIANCE> 25
 5.496435e+001 8.716396e+001 1.125459e+002 8.433601e+001 4.710875e+001 5.297744e+001 5.671532e+001 4.890977e+001 2.498777e+001 2.576701e+001 2.344563e+001 1.794246e+001 2.774348e+000 1.264358e+000 1.590269e+000 1.699738e+000 1.482680e+000 1.903163e+000 1.908886e+000 1.833434e+000 1.797838e+000 1.734106e+000 1.471228e+000 1.406413e+000 1.035094e+000
<GCONST> 9.827740e+001
<TRANSP> 5
 0.000000e+000 1.000000e+000 0.000000e+000 0.000000e+000 0.000000e+000
 0.000000e+000 7.349831e-001 2.650169e-001 0.000000e+000 0.000000e+000
 0.000000e+000 0.000000e+000 7.171788e-001 2.828212e-001 0.000000e+000
 0.000000e+000 0.000000e+000 0.000000e+000 8.581501e-001 1.418499e-001
 0.000000e+000 0.000000e+000 0.000000e+000 0.000000e+000 0.000000e+000
<ENDHMM>
~h "t"
<BEGINHMM>
<NUMSTATES> 5
<STATE> 2
<MEAN> 25
 -4.916650e+000 2.396188e+000 1.333926e+000 3.996104e+000 2.309372e+000 1.887289e+000 2.421988e+000 -2.058032e-001 1.484073e+000 2.615224e+000 7.165611e-001 6.280589e-001 -3.257616e-001 -6.530913e-001 -1.597608e-001 -3.224146e-001 -7.305591e-003 2.815836e-002 3.265558e-001 1.798203e-001 1.214449e-001 3.100593e-001 2.290616e-001 -9.813642e-003 4.359835e-001
<VARIANCE> 25
 3.581658e+001 2.475000e+001 3.363027e+001 3.236676e+001 2.773506e+001 2.542614e+001 2.810300e+001 3.130355e+001 2.765565e+001 2.367695e+001 2.605479e+001 2.003951e+001 1.904400e+000 2.118387e+000 2.183649e+000 3.403864e+000 2.712943e+000 3.165773e+000 3.104948e+000 2.924215e+000 2.726092e+000 2.399129e+000 2.506102e+000 1.967387e+000 3.520521e+000
<GCONST> 9.829625e+001
<STATE> 3
<MEAN> 25
 -3.446619e-001 -2.751179e+000 2.321893e+000 -9.670551e-001 2.218423e-001 -2.256413e+000 -1.393412e+000 -9.863841e-001 8.136963e-001 1.307190e+000 1.135694e+000 -3.919651e-001 2.086574e+000 -7.722134e-001 1.896678e-001 -1.361826e+000 -7.597845e-001 -1.327872e+000 -1.848468e+000 -4.255362e-001 -7.494609e-001 -9.895347e-001 4.832586e-002 -6.371639e-001 3.280068e+000
<VARIANCE> 25
 6.526413e+001 8.362873e+001 6.523472e+001 7.993275e+001 5.250793e+001 8.494928e+001 9.036549e+001 6.337516e+001 5.316312e+001 5.579880e+001 4.380523e+001 3.283070e+001 6.370195e+000 1.045920e+001 7.487653e+000 9.105941e+000 6.609682e+000 1.041840e+001 1.093632e+001 9.050729e+000 7.408289e+000 7.423174e+000 5.588078e+000 4.168867e+000 8.215498e+000
<GCONST> 1.219430e+002
<STATE> 4
<MEAN> 25
 8.112173e+000 -8.351659e+000 -7.103603e-001 -5.659811e+000 -6.646265e-001 -1.761295e+000 -3.419197e+000 1.303257e+000 -5.167650e-001 -4.062585e-001 1.150429e+000 -1.189550e+000 6.717659e-002 3.274685e-001 1.119721e-002 -4.802749e-002 -1.853552e-001 -1.139399e-002 6.023996e-002 -2.004327e-002 -1.047872e-001 -8.755618e-002 -7.620793e-002 -8.882973e-002 -5.808382e-002
<VARIANCE> 25
 9.523029e+001 1.163077e+002 1.204762e+002 1.437991e+002 8.267789e+001 9.559511e+001 1.166790e+002 6.715318e+001 6.898265e+001 8.343678e+001 6.440893e+001 4.922258e+001 1.079836e+000 2.297344e+000 2.626520e+000 3.000339e+000 3.022742e+000 2.975539e+000 2.832992e+000 3.164368e+000 2.622768e+000 2.596730e+000 2.160474e+000 2.036737e+000 2.302444e+000
<GCONST> 1.112773e+002
<TRANSP> 5
 0.000000e+000 1.000000e+000 0.000000e+000 0.000000e+000 0.000000e+000
 0.000000e+000 7.204955e-001 2.795045e-001 0.000000e+000 0.000000e+000
 0.000000e+000 0.000000e+000 6.695564e-001 3.304435e-001 0.000000e+000
 0.000000e+000 0.000000e+000 0.000000e+000 7.408133e-001 2.591868e-001
 0.000000e+000 0.000000e+000 0.000000e+000 0.000000e+000 0.000000e+000
<ENDHMM>
~h "y"
<BEGINHMM>
<NUMSTATES> 5
<STATE> 2
<MEAN> 25
 3.120245e+000 -2.462425e+000 4.949402e+000 5.705328e+000 3.941703e+000 -4.252400e+000 -5.792019e+000 -3.579118e+000 -5.157666e-001 -1.696703e+000 7.787249e-001 -2.393151e+000 -1.767486e-001 1.300364e-001 9.284297e-002 1.742497e-001 8.161885e-002 5.094617e-003 -1.426816e-001 -1.574748e-001 5.483067e-002 1.230797e-001 1.279074e-001 -5.820596e-002 -2.282369e-001
<VARIANCE> 25
 1.690953e+001 1.489713e+001 3.483733e+001 3.111665e+001 1.061419e+001 4.841059e+001 3.635073e+001 1.724556e+001 2.605163e+001 2.864556e+001 1.754521e+001 1.909743e+001 2.841845e-001 3.542742e-001 1.641937e+000 1.420967e+000 7.124215e-001 2.366460e+000 2.568707e+000 1.262322e+000 1.502614e+000 2.151312e+000 1.158501e+000 1.095669e+000 2.197412e-001
<GCONST> 8.372304e+001
<STATE> 3
<MEAN> 25
 -9.582028e+000 2.685047e+000 3.600231e+000 4.729155e+000 4.033309e+000 3.872232e+000 3.817918e+000 -4.599999e-001 -2.582382e-001 4.388580e+000 2.732462e+000 1.070873e-001 -1.574835e-001 -1.066354e-002 6.108067e-003 -1.740064e-003 -3.585766e-002 1.029255e-001 -3.392956e-002 -7.290097e-002 -3.824527e-002 6.408452e-002 9.155327e-003 -6.419329e-002 -1.496243e-001
<VARIANCE> 25
 9.082718e+000 1.036271e+001 5.974427e+000 1.838251e+001 1.021026e+001 1.311686e+001 9.076980e+000 1.129531e+001 1.480254e+001 1.293383e+001 1.342747e+001 1.151123e+001 1.635906e-001 2.169148e-001 4.596664e-001 5.899173e-001 6.691497e-001 6.503467e-001 9.614110e-001 1.272733e+000 1.653134e+000 1.677009e+000 1.301754e+000 1.009068e+000 5.620236e-002
<GCONST> 6.815287e+001
<STATE> 4
<MEAN> 25
 -1.289305e+001 5.149677e+000 4.843135e+000 -9.167793e-001 1.882752e+000 6.770710e+000 2.931192e+000 -3.792932e+000 -1.821588e+000 4.277741e+000 1.346674e+000 -1.388451e+000 -1.900426e-002 5.205419e-003 1.002729e-002 -2.147273e-003 -3.066700e-003 -2.694777e-003 6.909522e-004 -1.275206e-003 -7.058503e-003 1.150726e-002 -5.399277e-003 5.837851e-003 -1.529906e-002
<VARIANCE> 25
 9.299170e+000 6.726014e+000 4.395182e+000 5.451181e+000 6.079073e+000 6.633718e+000 6.946313e+000 7.832602e+000 7.303514e+000 7.871670e+000 6.715994e+000 6.575205e+000 3.025926e-001 3.869470e-001 4.269379e-001 5.334712e-001 5.747032e-001 6.775501e-001 6.989754e-001 7.519544e-001 7.022493e-001 8.199595e-001 7.480693e-001 6.810670e-001 8.985005e-002
<GCONST> 5.994549e+001
<TRANSP> 5
 0.000000e+000 1.000000e+000 0.000000e+000 0.000000e+000 0.000000e+000
 0.000000e+000 8.910144e-001 1.089856e-001 0.000000e+000 0.000000e+000
 0.000000e+000 0.000000e+000 8.826830e-001 1.173170e-001 0.000000e+000
 0.000000e+000 0.000000e+000 0.000000e+000 9.612987e-001 3.870130e-002
 0.000000e+000 0.000000e+000 0.000000e+000 0.000000e+000 0.000000e+000
<ENDHMM>
~h "aa"
<BEGINHMM>
<NUMSTATES> 5
<STATE> 2
<MEAN> 25
 7.232098e+000 -4.920971e+000 -3.950810e+000 -3.274536e+000 -2.214869e-001 -2.167489e+000 -5.856173e-001 -1.479805e+000 -3.340664e+000 -4.147056e+000 -2.016969e+000 -8.106416e-001 -6.501251e-002 3.816634e-001 -1.425928e-001 4.034940e-001 2.428767e-001 1.620089e-001 7.828288e-002 1.672159e-002 5.116883e-002 -3.522867e-002 -1.251347e-001 1.919736e-001 -4.538000e-001
<VARIANCE> 25
 4.988446e+001 8.560007e+001 5.412150e+001 7.534208e+001 6.685863e+001 7.081362e+001 7.286375e+001 8.001949e+001 6.389447e+001 6.723552e+001 6.948080e+001 4.887657e+001 2.094404e+000 4.639447e+000 2.987044e+000 4.008817e+000 3.690768e+000 3.849880e+000 4.150144e+000 3.962424e+000 3.966077e+000 3.855033e+000 3.805375e+000 2.790708e+000 3.781116e+000
<GCONST> 1.128793e+002
<STATE> 3
<MEAN> 25
 2.962889e+000 -1.512107e+000 -3.637834e+000 2.026922e+000 3.538952e+000 1.304392e+000 2.501054e+000 5.618606e-001 -4.050836e-001 -2.520542e+000 -2.586980e+000 3.198603e-001 -7.548066e-001 3.844341e-001 2.558431e-001 2.902753e-001 6.198677e-002 2.581179e-001 2.730650e-001 1.276610e-001 2.660511e-001 4.288679e-001 2.605202e-001 5.798935e-002 -9.687245e-001
<VARIANCE> 25
 4.517651e+001 6.320373e+001 3.821806e+001 3.388914e+001 4.686300e+001 3.740426e+001 3.951213e+001 3.591238e+001 3.363058e+001 4.122401e+001 4.004316e+001 2.994352e+001 7.209995e-001 1.230493e+000 1.439104e+000 1.470303e+000 1.847661e+000 1.857145e+000 1.944064e+000 2.005476e+000 1.990515e+000 1.950135e+000 1.892299e+000 1.769374e+000 4.819863e-001
<GCONST> 9.517898e+001
<STATE> 4
<MEAN> 25
 -6.051673e+000 2.347151e+000 -1.648764e+000 5.212254e+000 1.693628e+000 2.020987e+000 3.862449e+000 2.616484e+000 2.140608e+000 2.561452e+000 1.086152e+000 1.715667e+000 -8.802023e-002 3.449098e-003 2.471915e-002 8.314820e-003 -1.982797e-002 6.010346e-004 4.335516e-003 1.633707e-002 4.648854e-002 6.174107e-002 2.485559e-002 5.299879e-003 -7.605048e-002
<VARIANCE> 25
 2.203595e+001 1.114529e+001 2.008418e+001 1.350842e+001 1.326361e+001 2.248013e+001 1.488908e+001 1.894225e+001 1.868754e+001 2.267043e+001 1.850718e+001 1.564864e+001 1.858046e-001 3.140311e-001 4.860944e-001 6.520120e-001 8.348181e-001 1.015761e+000 1.148535e+000 1.277535e+000 1.303393e+000 1.301243e+000 1.236963e+000 1.132117e+000 8.398858e-002
<GCONST> 7.472712e+001
<TRANSP> 5
 0.000000e+000 1.000000e+000 0.000000e+000 0.000000e+000 0.000000e+000
 0.000000e+000 8.498167e-001 1.501833e-001 0.000000e+000 0.000000e+000
 0.000000e+000 0.000000e+000 8.515122e-001 1.484878e-001 0.000000e+000
 0.000000e+000 0.000000e+000 0.000000e+000 9.344386e-001 6.556133e-002
 0.000000e+000 0.000000e+000 0.000000e+000 0.000000e+000 0.000000e+000
<ENDHMM>
~h "eu"
<BEGINHMM>
<NUMSTATES> 5
<STATE> 2
<MEAN> 25
 -4.595357e+000 2.911547e+000 1.231337e+000 2.142884e+000 1.183623e+000 -2.107784e+000 3.341782e+000 1.111190e+000 1.159720e+000 1.061523e+000 7.466646e-001 4.387274e-001 2.548297e+000 1.261168e-001 2.137503e-001 -3.778898e-001 -5.602782e-001 -1.034939e+000 -1.125072e+000 -4.395930e-001 -5.998982e-001 -1.004817e+000 -4.324450e-001 -4.675809e-001 1.733736e+000
<VARIANCE> 25
 1.155303e+002 8.010100e+001 5.860966e+001 6.233233e+001 3.643090e+001 7.667227e+001 4.941090e+001 4.858805e+001 3.718129e+001 4.039660e+001 3.772795e+001 2.406836e+001 9.488461e+000 6.552370e+000 5.167707e+000 5.383438e+000 4.149833e+000 5.306444e+000 6.843700e+000 4.682594e+000 4.491000e+000 4.806315e+000 3.726840e+000 2.938102e+000 3.702342e+000
<GCONST> 1.139166e+002
<STATE> 3
<MEAN> 25
 7.321566e+000 -2.617960e+000 2.019833e+000 -5.116708e+000 -1.628401e+000 -3.893223e+000 -5.501701e+000 -1.103989e+000 -8.902187e-001 -3.172671e+000 1.370287e+000 -2.007196e+000 1.719343e+000 -1.121734e+000 -8.149765e-003 -1.311026e+000 -4.737340e-001 -1.957612e-001 -1.618701e+000 -5.100598e-002 -3.829468e-001 -7.979912e-001 8.878058e-002 -4.539033e-001 1.950623e+000
<VARIANCE> 25
 4.788093e+001 8.470440e+001 8.088715e+001 8.126530e+001 6.623852e+001 8.819009e+001 9.476624e+001 6.983453e+001 8.119083e+001 7.439035e+001 5.795430e+001 3.751554e+001 5.896132e+000 1.068983e+001 5.441441e+000 9.735126e+000 5.502128e+000 6.931625e+000 9.738540e+000 7.158165e+000 8.416327e+000 6.935123e+000 5.948895e+000 4.361601e+000 9.533478e+000
<GCONST> 1.224830e+002
<STATE> 4
<MEAN> 25
 1.008560e+001 -1.320407e+001 7.674681e+000 -1.395608e+001 -3.104020e-001 2.390494e+000 -1.034525e+001 1.508896e+000 -5.718573e-001 2.374614e+000 3.404751e+000 -5.270450e+000 2.094930e-002 1.120276e-001 -5.286785e-002 1.292693e-001 4.794178e-002 5.947912e-002 1.157891e-001 7.055251e-002 -6.325536e-002 1.495738e-002 -2.062767e-001 -3.217236e-002 -1.657205e-001
<VARIANCE> 25
 4.784060e+001 1.121925e+002 6.138115e+001 9.062728e+001 6.546132e+001 5.348420e+001 5.933207e+001 6.951881e+001 7.994746e+001 9.837775e+001 8.986852e+001 5.317834e+001 6.601129e-001 1.544504e+000 1.364572e+000 1.898806e+000 1.731420e+000 1.612878e+000 2.033546e+000 2.108181e+000 1.933378e+000 1.648923e+000 1.991260e+000 1.596658e+000 8.724306e-001
<GCONST> 1.027202e+002
<TRANSP> 5
 0.000000e+000 1.000000e+000 0.000000e+000 0.000000e+000 0.000000e+000
 0.000000e+000 6.102955e-001 3.897046e-001 0.000000e+000 0.000000e+000
 0.000000e+000 0.000000e+000 6.571977e-001 3.428023e-001 0.000000e+000
 0.000000e+000 0.000000e+000 0.000000e+000 8.746580e-001 1.253420e-001
 0.000000e+000 0.000000e+000 0.000000e+000 0.000000e+000 0.000000e+000
<ENDHMM>
~h "hh"
<BEGINHMM>
<NUMSTATES> 5
<STATE> 2
<MEAN> 25
 1.857965e+000 -2.639413e+000 -5.447991e+000 -2.127013e+000 1.645718e+000 4.142703e+000 4.024102e+000 -6.723771e-001 1.898106e-001 1.500916e+000 9.947211e-001 -3.338441e-002 -6.974418e-001 -2.338493e-001 -4.945233e-001 6.321550e-002 3.344319e-001 5.028179e-001 7.610933e-001 6.498547e-001 7.960160e-001 7.215871e-001 2.371210e-001 3.213128e-001 -8.283355e-001
<VARIANCE> 25
 2.531483e+001 3.939479e+001 4.163650e+001 5.369558e+001 8.923921e+001 5.233398e+001 7.230168e+001 4.563685e+001 3.634650e+001 3.895988e+001 3.879296e+001 2.697751e+001 5.594416e-001 1.562575e+000 1.595214e+000 1.924946e+000 2.658021e+000 2.658655e+000 2.225950e+000 2.378127e+000 2.338391e+000 1.963776e+000 2.487590e+000 2.247496e+000 4.693821e-001
<GCONST> 9.842211e+001
<STATE> 3
<MEAN> 25
 -3.533507e+000 -2.336631e+000 -6.487062e+000 3.025837e-001 2.192637e+000 3.493424e+000 5.839318e+000 2.311044e+000 4.111306e+000 5.350686e+000 2.545295e+000 2.435154e+000 -4.081859e-001 1.310897e-001 3.062683e-001 2.020600e-001 -1.221423e-001 -1.229429e-001 -1.556373e-001 1.839658e-003 -2.736762e-002 5.322234e-002 4.945549e-002 5.148764e-002 -4.711558e-001
<VARIANCE> 25
 1.648678e+001 3.434464e+001 3.819855e+001 3.884602e+001 3.616531e+001 3.123891e+001 3.774449e+001 4.598190e+001 4.106572e+001 3.468204e+001 4.009749e+001 2.587153e+001 6.885701e-001 1.364036e+000 2.182936e+000 2.265021e+000 2.280924e+000 2.303423e+000 2.558618e+000 2.735487e+000 2.574187e+000 2.305421e+000 2.287715e+000 1.834045e+000 5.950212e-001
<GCONST> 9.611907e+001
<STATE> 4
<MEAN> 25
 -5.097733e+000 1.120607e+000 -6.370860e-001 5.359438e+000 1.406813e+000 3.806616e+000 3.737664e+000 3.807051e+000 2.868722e+000 4.376787e+000 2.245488e+000 1.019885e+000 -3.346664e-002 1.430147e-002 2.481947e-002 1.553762e-002 -9.475200e-003 3.935198e-004 -6.987040e-003 5.332322e-003 -1.348641e-002 -5.425713e-003 -1.597526e-002 -8.287975e-003 -4.160564e-002
<VARIANCE> 25
 7.046801e+000 8.603801e+000 1.536992e+001 1.103785e+001 1.256169e+001 1.730270e+001 1.266949e+001 1.592733e+001 1.709501e+001 1.759758e+001 1.665114e+001 1.322609e+001 1.382154e-001 2.752739e-001 4.771960e-001 6.304562e-001 8.055949e-001 9.879004e-001 1.088761e+000 1.171446e+000 1.236079e+000 1.252036e+000 1.223542e+000 1.088449e+000 5.662203e-002
<GCONST> 7.037214e+001
<TRANSP> 5
 0.000000e+000 1.000000e+000 0.000000e+000 0.000000e+000 0.000000e+000
 0.000000e+000 7.510359e-001 2.489641e-001 0.000000e+000 0.000000e+000
 0.000000e+000 0.000000e+000 8.070033e-001 1.929967e-001 0.000000e+000
 0.000000e+000 0.000000e+000 0.000000e+000 9.431542e-001 5.684579e-002
 0.000000e+000 0.000000e+000 0.000000e+000 0.000000e+000 0.000000e+000
<ENDHMM>
~h "ih"
<BEGINHMM>
<NUMSTATES> 5
<STATE> 2
<MEAN> 25
 -6.155509e-001 1.581595e+000 6.636248e+000 1.127180e+000 -3.783184e-001 -2.049625e+000 -1.582440e+000 -1.822837e+000 2.054607e-001 -5.623562e-001 -5.335345e-002 -1.862352e+000 4.949424e-001 1.496113e-001 2.229041e+000 -8.841904e-001 -1.037590e+000 -1.030335e+000 -1.972987e+000 -6.234202e-001 -3.488730e-001 -9.334458e-001 -3.840597e-001 -2.451956e-001 1.978723e+000
<VARIANCE> 25
 8.295680e+001 9.116147e+001 8.777184e+001 7.344873e+001 8.650511e+001 6.047738e+001 8.813879e+001 5.998630e+001 5.598738e+001 5.675319e+001 4.574895e+001 3.210111e+001 6.161533e+000 9.448231e+000 7.472759e+000 9.694365e+000 8.243584e+000 7.159003e+000 8.299203e+000 7.306007e+000 6.007508e+000 6.437490e+000 5.067417e+000 3.753351e+000 5.539045e+000
<GCONST> 1.209827e+002
<STATE> 3
<MEAN> 25
 1.520045e+000 5.294093e+000 1.482378e+001 -5.155182e+000 -6.235084e+000 -5.060521e+000 -8.488920e+000 -4.365410e+000 -9.568931e-001 -3.710939e+000 -2.455537e+000 -7.132367e-001 4.827890e-002 8.045910e-001 1.335969e+000 -1.189160e+000 -7.567167e-001 -2.410076e-001 -1.381966e+000 -6.335628e-002 1.778112e-001 -6.481207e-001 -5.599551e-001 6.976469e-001 3.993022e-001
<VARIANCE> 25
 2.747937e+001 9.742010e+001 9.219660e+001 1.396436e+002 1.098202e+002 7.186965e+001 7.253352e+001 8.181426e+001 5.974533e+001 5.826528e+001 4.612404e+001 4.104955e+001 2.647868e+000 3.437531e+000 3.942879e+000 7.072893e+000 4.573334e+000 5.196451e+000 6.551072e+000 4.776888e+000 4.387040e+000 3.926453e+000 3.682348e+000 3.960403e+000 1.619867e+000
<GCONST> 1.148228e+002
<STATE> 4
<MEAN> 25
 1.913373e+000 5.210063e+000 1.674977e+001 -2.783812e+000 -5.863505e+000 -4.842778e+000 -9.837413e+000 -3.597508e+000 -1.766238e+000 -6.645033e+000 -2.040494e+000 -3.544221e-001 1.026386e-001 4.430573e-002 -5.253304e-001 4.447598e-001 2.332559e-001 1.740588e-001 3.592655e-001 -2.827588e-002 -2.561969e-002 1.809715e-001 8.165944e-002 -3.417052e-003 -6.037958e-001
<VARIANCE> 25
 1.808408e+001 7.477488e+001 9.104509e+001 1.603031e+002 9.553978e+001 6.779491e+001 5.078229e+001 7.753291e+001 6.714684e+001 5.734833e+001 6.735372e+001 5.155883e+001 6.307947e-001 1.199178e+000 1.621498e+000 2.804474e+000 2.019526e+000 2.241911e+000 2.482825e+000 2.313466e+000 2.256518e+000 2.153058e+000 2.112953e+000 1.915278e+000 7.018836e-001
<GCONST> 1.033263e+002
<TRANSP> 5
 0.000000e+000 1.000000e+000 0.000000e+000 0.000000e+000 0.000000e+000
 0.000000e+000 6.278496e-001 3.721504e-001 0.000000e+000 0.000000e+000
 0.000000e+000 0.000000e+000 5.372702e-001 4.627298e-001 0.000000e+000
 0.000000e+000 0.000000e+000 0.000000e+000 9.187875e-001 8.121248e-002
 0.000000e+000 0.000000e+000 0.000000e+000 0.000000e+000 0.000000e+000
<ENDHMM>
~h "jh"
<BEGINHMM>
<NUMSTATES> 5
<STATE> 2
<MEAN> 25
 1.922162e+000 7.271996e+000 7.602461e+000 6.902547e+000 4.164703e+000 6.994383e-001 -1.055767e+000 -2.085710e+000 -1.580725e+000 -1.680817e+000 -2.534690e+000 -1.937281e+000 -1.246212e+000 -5.879764e-001 2.590870e-001 1.325298e-001 4.334176e-001 3.922265e-001 9.047807e-001 1.235581e-001 4.481981e-001 6.227507e-001 4.042830e-001 1.175224e-001 -2.688567e-001
<VARIANCE> 25
 2.323490e+001 3.401202e+001 3.121859e+001 2.725427e+001 5.179942e+001 2.939728e+001 4.008381e+001 2.224356e+001 2.700381e+001 2.985029e+001 2.882586e+001 2.525901e+001 1.238521e+000 3.423556e+000 2.170835e+000 2.845706e+000 3.768627e+000 2.620618e+000 3.370797e+000 2.071996e+000 2.622765e+000 2.457175e+000 1.926183e+000 1.788214e+000 2.352138e+000
<GCONST> 9.822408e+001
<STATE> 3
<MEAN> 25
 -5.091767e+000 -1.304246e+000 8.987527e+000 8.391343e-001 -7.688846e-001 -3.516509e+000 -1.198943e+000 -6.553912e-001 -9.892099e-001 -8.005415e-001 1.578843e+000 -2.533379e+000 2.728744e-001 -6.054022e-001 -4.541731e-001 -4.731369e-001 -3.031073e-001 -4.887230e-001 -3.700499e-001 1.638725e-001 -1.161387e-001 -1.612472e-001 2.138001e-001 5.578350e-002 1.133145e+000
<VARIANCE> 25
 9.650609e+001 1.004225e+002 8.724063e+001 8.715488e+001 1.223648e+002 8.547386e+001 1.303441e+002 5.034139e+001 4.417533e+001 4.904362e+001 4.069407e+001 2.713240e+001 1.194036e+001 6.140616e+000 6.133985e+000 5.570802e+000 7.099105e+000 7.266919e+000 8.570587e+000 5.370401e+000 4.767402e+000 5.119260e+000 4.382864e+000 3.107100e+000 4.032137e+000
<GCONST> 1.195935e+002
<STATE> 4
<MEAN> 25
 -9.928479e+000 4.533501e+000 3.677261e+000 3.034314e-001 1.767022e+000 4.949812e+000 2.578097e+000 -1.613039e+000 -6.244900e-001 4.113047e+000 1.544537e+000 -6.456848e-001 -6.215154e-002 -7.154877e-002 -7.109989e-002 -2.452585e-002 4.178474e-002 8.337637e-002 4.181281e-002 1.405590e-002 -1.929002e-002 1.544899e-002 3.958743e-003 1.931113e-002 -6.164090e-002
<VARIANCE> 25
 3.142064e+001 1.654095e+001 1.151206e+001 1.596633e+001 1.369197e+001 1.868317e+001 2.038860e+001 2.207184e+001 1.599833e+001 1.476439e+001 1.292709e+001 1.223108e+001 2.956623e-001 4.630822e-001 5.946974e-001 6.082674e-001 8.248280e-001 8.641213e-001 9.585891e-001 1.029253e+000 9.984990e-001 1.093368e+000 9.685553e-001 9.249177e-001 1.144126e-001
<GCONST> 7.404833e+001
<TRANSP> 5
 0.000000e+000 1.000000e+000 0.000000e+000 0.000000e+000 0.000000e+000
 0.000000e+000 7.308007e-001 2.691993e-001 0.000000e+000 0.000000e+000
 0.000000e+000 0.000000e+000 8.494017e-001 1.505983e-001 0.000000e+000
 0.000000e+000 0.000000e+000 0.000000e+000 9.026322e-001 9.736776e-002
 0.000000e+000 0.000000e+000 0.000000e+000 0.000000e+000 0.000000e+000
<ENDHMM>
~h "ng"
<BEGINHMM>
<NUMSTATES> 5
<STATE> 2
<MEAN> 25
 8.391448e+000 8.023914e+000 2.173371e+000 1.806066e+000 -3.585064e+000 -4.666705e+000 -5.105732e+000 -8.559600e+000 -6.987917e+000 -3.192783e+000 -4.363358e+000 -4.406603e+000 -6.480008e-001 3.737261e-001 4.504565e-001 5.367153e-001 1.944548e-001 -4.161980e-002 7.606177e-002 -4.523927e-002 3.745876e-002 1.381841e-001 2.178291e-002 9.324263e-002 -6.758726e-001
<VARIANCE> 25
 2.144768e+001 2.052573e+001 2.698005e+001 2.612478e+001 4.661003e+001 3.313465e+001 6.630741e+001 4.692707e+001 5.921653e+001 5.024765e+001 4.416502e+001 6.215736e+001 4.160358e-001 6.674040e-001 1.119049e+000 1.226183e+000 1.664397e+000 1.635203e+000 1.987714e+000 2.077793e+000 2.571944e+000 2.263302e+000 2.113947e+000 2.282443e+000 1.719718e-001
<GCONST> 9.292269e+001
<STATE> 3
<MEAN> 25
 -1.108781e+000 6.156370e+000 4.308318e+000 6.390370e+000 2.682991e+000 4.285235e-001 7.230041e-001 -3.084164e+000 -1.727837e+000 -7.826110e-001 -2.976765e+000 -2.660867e+000 -1.023963e+000 -7.674339e-001 -4.975556e-001 -9.235313e-002 3.218557e-001 6.697491e-001 7.892251e-001 6.654171e-001 5.871328e-001 5.714297e-001 5.098158e-001 4.293192e-001 -5.785499e-001
<VARIANCE> 25
 1.540628e+001 1.602058e+001 2.282054e+001 1.762241e+001 2.303069e+001 2.357301e+001 3.334576e+001 2.559667e+001 2.974352e+001 2.683471e+001 3.409521e+001 2.768702e+001 2.874259e-001 7.135029e-001 1.078826e+000 1.353875e+000 1.871446e+000 1.966148e+000 2.104379e+000 2.011276e+000 1.845415e+000 1.993909e+000 1.939140e+000 1.826925e+000 1.173579e-001
<GCONST> 8.599638e+001
<STATE> 4
<MEAN> 25
 -5.719669e+000 1.978311e+000 -7.572083e-001 5.569292e+000 1.305081e+000 2.500837e+000 3.511858e+000 2.770035e+000 2.167307e+000 3.588797e+000 1.722775e+000 1.200436e+000 -6.015524e-002 -4.596477e-002 -5.097285e-002 -3.083965e-002 -1.947904e-002 1.624716e-002 3.293357e-002 6.077810e-002 6.168578e-002 5.373261e-002 3.485107e-002 2.919628e-002 -4.146060e-002
<VARIANCE> 25
 6.535574e+000 6.610840e+000 1.830048e+001 8.487283e+000 1.181439e+001 2.199014e+001 1.283436e+001 1.797896e+001 1.776892e+001 2.051442e+001 1.725407e+001 1.310302e+001 1.544525e-001 3.042569e-001 4.703969e-001 6.639108e-001 8.129245e-001 1.018532e+000 1.146607e+000 1.232072e+000 1.284243e+000 1.353195e+000 1.290544e+000 1.129986e+000 5.980709e-002
<GCONST> 7.112759e+001
<TRANSP> 5
 0.000000e+000 1.000000e+000 0.000000e+000 0.000000e+000 0.000000e+000
 0.000000e+000 8.727685e-001 1.272316e-001 0.000000e+000 0.000000e+000
 0.000000e+000 0.000000e+000 8.495771e-001 1.504230e-001 0.000000e+000
 0.000000e+000 0.000000e+000 0.000000e+000 9.572234e-001 4.277667e-002
 0.000000e+000 0.000000e+000 0.000000e+000 0.000000e+000 0.000000e+000
<ENDHMM>
~h "ny"
<BEGINHMM>
<NUMSTATES> 5
<STATE> 2
<MEAN> 25
 -1.135811e+000 4.591928e+000 2.890778e+000 2.714144e+000 2.159116e+000 -1.127611e+000 7.169654e-001 -1.860958e+000 5.248898e-001 2.204698e+000 -8.470879e-001 -1.649771e+000 1.441490e+000 5.605713e-001 1.332645e+000 -9.039459e-001 -5.328663e-001 -7.436871e-001 -1.074733e+000 -7.404096e-001 -5.948247e-001 -5.030203e-001 -3.518018e-001 -7.225266e-001 2.118211e+000
<VARIANCE> 25
 7.613985e+001 6.579459e+001 5.467428e+001 4.543947e+001 4.825813e+001 5.058810e+001 5.157392e+001 3.840917e+001 3.977203e+001 3.214020e+001 3.478017e+001 3.143340e+001 6.383902e+000 6.792144e+000 6.665829e+000 6.961002e+000 5.287391e+000 5.736919e+000 5.080751e+000 4.473050e+000 4.762880e+000 4.089918e+000 4.453972e+000 3.089991e+000 5.456100e+000
<GCONST> 1.132563e+002
<STATE> 3
<MEAN> 25
 5.065691e+000 -6.441558e-001 9.648376e+000 -5.705431e+000 -4.589662e+000 -2.896113e+000 -2.539993e+000 -2.075564e+000 -4.754546e+000 -2.059788e+000 -1.849529e+000 -5.737737e+000 1.557007e-001 -2.417819e+000 -5.130152e-001 -4.727536e-001 3.055573e-002 -6.433299e-003 2.275100e-001 8.982397e-001 -2.334044e-001 -3.023584e-001 4.446454e-001 -1.459754e-001 1.679822e+000
<VARIANCE> 25
 2.650856e+001 9.772669e+001 8.130666e+001 1.252022e+002 6.336207e+001 7.995655e+001 8.240747e+001 7.182288e+001 4.606661e+001 5.758056e+001 6.285094e+001 5.175449e+001 1.782759e+000 4.234933e+000 6.484410e+000 8.180097e+000 4.942952e+000 7.634681e+000 6.777600e+000 4.831299e+000 3.812509e+000 3.950670e+000 4.444895e+000 3.811655e+000 2.552030e+000
<GCONST> 1.158124e+002
<STATE> 4
<MEAN> 25
 9.437299e+000 -7.710701e+000 5.240345e+000 -8.440007e+000 -3.566988e+000 1.233966e+000 -2.675836e+000 4.780014e-001 -6.442959e+000 -1.879999e+000 3.644160e+000 -5.134067e+000 7.804332e-002 3.840546e-001 -1.239790e-001 1.516507e-001 -1.611054e-002 1.360676e-002 1.199539e-001 -1.842935e-001 -5.901488e-002 1.545840e-003 -8.885717e-002 8.078725e-002 -3.341752e-001
<VARIANCE> 25
 3.043834e+001 1.114557e+002 8.722939e+001 8.120705e+001 7.640372e+001 6.503098e+001 8.407989e+001 8.043520e+001 6.241640e+001 6.881026e+001 1.010564e+002 4.395577e+001 4.508918e-001 1.568813e+000 1.846130e+000 2.085080e+000 1.637392e+000 1.934590e+000 2.152878e+000 1.902377e+000 1.657879e+000 1.819013e+000 2.021480e+000 1.559463e+000 6.726632e-001
<GCONST> 1.024561e+002
<TRANSP> 5
 0.000000e+000 1.000000e+000 0.000000e+000 0.000000e+000 0.000000e+000
 0.000000e+000 7.923850e-001 2.076150e-001 0.000000e+000 0.000000e+000
 0.000000e+000 0.000000e+000 7.975299e-001 2.024700e-001 0.000000e+000
 0.000000e+000 0.000000e+000 0.000000e+000 9.360284e-001 6.397160e-002
 0.000000e+000 0.000000e+000 0.000000e+000 0.000000e+000 0.000000e+000
<ENDHMM>
~h "sp"
<BEGINHMM>
<NUMSTATES> 3
<STATE> 2
~s "silst"
<TRANSP> 3
 0.000000e+000 3.017103e-001 6.982897e-001
 0.000000e+000 9.563017e-001 4.369826e-002
 0.000000e+000 0.000000e+000 0.000000e+000
<ENDHMM>
~h "uw"
<BEGINHMM>
<NUMSTATES> 5
<STATE> 2
<MEAN> 25
 6.143225e+000 1.824678e-001 1.187632e+000 -2.541878e+000 -9.993635e-001 -1.004889e+000 -3.735218e+000 -1.641035e+000 -1.176722e+000 -1.750788e+000 -5.928921e-001 -1.702899e+000 1.016472e+000 7.801486e-001 3.111984e-001 -1.420927e-001 -5.848798e-001 -5.288804e-001 -7.614060e-001 -3.802829e-001 -5.406574e-001 -4.948298e-001 -1.116389e-001 -2.227236e-001 4.948697e-001
<VARIANCE> 25
 6.296205e+001 9.864732e+001 8.451003e+001 9.701915e+001 7.573966e+001 7.427084e+001 8.358143e+001 6.680996e+001 6.294550e+001 7.016113e+001 6.024539e+001 4.097854e+001 3.947436e+000 8.215271e+000 4.942685e+000 6.997591e+000 5.486164e+000 6.357777e+000 7.176644e+000 5.930807e+000 5.808290e+000 5.193828e+000 4.651590e+000 3.555351e+000 3.899154e+000
<GCONST> 1.190586e+002
<STATE> 3
<MEAN> 25
 9.535958e+000 5.918682e+000 4.219105e+000 -6.805776e+000 -7.970492e+000 -3.943372e+000 -7.224498e+000 -4.654557e+000 -3.100594e+000 -2.738594e+000 -1.604876e+000 -3.402743e+000 -1.853839e-002 1.555944e-001 -9.658024e-002 6.749399e-002 8.042111e-003 1.425903e-001 2.284127e-001 -1.096917e-001 -9.070475e-002 -6.867604e-003 -1.157541e-001 3.188685e-002 -2.260681e-001
<VARIANCE> 25
 1.839190e+001 5.651709e+001 1.054355e+002 7.896194e+001 9.164278e+001 8.559093e+001 8.473749e+001 1.007516e+002 7.615173e+001 7.076915e+001 9.472601e+001 5.537247e+001 4.978511e-001 1.905702e+000 2.915283e+000 3.207302e+000 3.778467e+000 3.855826e+000 4.246464e+000 4.269202e+000 3.981183e+000 3.591037e+000 3.486584e+000 3.107195e+000 6.782612e-001
<GCONST> 1.095110e+002
<STATE> 4
<MEAN> 25
 8.758348e+000 7.669275e+000 1.419954e+000 -3.639055e+000 -4.724617e+000 -3.507492e+000 -3.777521e+000 -4.481195e+000 -5.555591e+000 -3.730692e+000 -9.956763e-001 -1.707717e+000 -4.714825e-001 -1.426436e-001 4.140546e-002 3.020262e-001 2.169656e-001 1.837036e-001 3.487628e-001 8.460715e-002 2.015502e-001 1.948659e-001 5.367902e-002 1.045285e-001 -4.507496e-001
<VARIANCE> 25
 4.384863e+001 3.109030e+001 4.857326e+001 7.393707e+001 4.352974e+001 5.360473e+001 3.874992e+001 6.076517e+001 5.025269e+001 4.521404e+001 5.669898e+001 3.817722e+001 5.099143e-001 8.645077e-001 1.016132e+000 1.337385e+000 1.486281e+000 1.600967e+000 1.706604e+000 1.800671e+000 1.734680e+000 1.750375e+000 1.649820e+000 1.479921e+000 2.997946e-001
<GCONST> 9.455436e+001
<TRANSP> 5
 0.000000e+000 1.000000e+000 0.000000e+000 0.000000e+000 0.000000e+000
 0.000000e+000 7.673382e-001 2.326619e-001 0.000000e+000 0.000000e+000
 0.000000e+000 0.000000e+000 8.777222e-001 1.222778e-001 0.000000e+000
 0.000000e+000 0.000000e+000 0.000000e+000 8.785650e-001 1.214351e-001
 0.000000e+000 0.000000e+000 0.000000e+000 0.000000e+000 0.000000e+000
<ENDHMM>
~h "sil"
<BEGINHMM>
<NUMSTATES> 5
<STATE> 2
<MEAN> 25
 -9.633491e+000 2.851971e+000 -2.899250e+000 5.281197e+000 2.094375e+000 8.774824e-001 4.197004e+000 2.256634e+000 2.412029e+000 2.426891e+000 5.969352e-001 2.947442e+000 -1.084626e-002 -4.110318e-003 -1.945221e-003 -6.805132e-003 -2.869309e-003 -6.497979e-003 -6.869743e-003 -7.547808e-003 -5.342730e-003 5.172141e-003 3.999827e-003 3.490599e-003 -6.594201e-003
<VARIANCE> 25
 3.487745e+001 1.183442e+001 2.258690e+001 1.178639e+001 1.305785e+001 2.214257e+001 1.261753e+001 1.534768e+001 2.078301e+001 2.144393e+001 1.725436e+001 1.788149e+001 1.182354e-001 2.317873e-001 3.597566e-001 5.249031e-001 6.793504e-001 7.999978e-001 9.901866e-001 1.096877e+000 1.161113e+000 1.128141e+000 1.063437e+000 1.007843e+000 4.682055e-002
<GCONST> 7.180524e+001
<STATE> 3
~s "silst"
<STATE> 4
<MEAN> 25
 6.499106e+000 -3.254566e+000 1.645515e-001 -2.883126e+000 -1.811041e+000 4.246719e-001 -2.762170e+000 -4.295358e-001 3.170701e-001 3.429234e-003 6.813300e-002 -7.557523e-001 1.545942e-001 -2.408465e-003 3.014933e-004 -6.018590e-003 -2.549569e-002 1.212648e-002 -4.271112e-002 -4.338460e-003 -3.017171e-002 -3.473681e-002 -1.492946e-002 -4.028945e-002 -1.785084e-002
<VARIANCE> 25
 1.557722e+002 1.379609e+002 1.028109e+002 1.123316e+002 6.702106e+001 8.204224e+001 7.645882e+001 5.936808e+001 6.323293e+001 6.577689e+001 5.397860e+001 4.109455e+001 2.666462e+000 3.114909e+000 2.325753e+000 2.923746e+000 2.244101e+000 2.507926e+000 2.812230e+000 2.412270e+000 2.641925e+000 2.348861e+000 2.220766e+000 1.875198e+000 5.256115e+000
<GCONST> 1.109345e+002
<TRANSP> 5
 0.000000e+000 1.000000e+000 0.000000e+000 0.000000e+000 0.000000e+000
 0.000000e+000 9.601105e-001 8.582300e-003 3.130727e-002 0.000000e+000
 0.000000e+000 0.000000e+000 9.817082e-001 1.829180e-002 0.000000e+000
 0.000000e+000 5.312554e-002 0.000000e+000 9.131381e-001 3.373638e-002
 0.000000e+000 0.000000e+000 0.000000e+000 0.000000e+000 0.000000e+000
<ENDHMM>
