~o
<STREAMINFO> 1 25
<VECSIZE> 25<NULLD><MFCC_D_N_Z_0><DIAGC>
~s "silst"
<MEAN> 25
 -3.675666e+000 1.882477e+000 1.067405e+000 5.477998e+000 8.336927e-001 5.636528e+000 2.691929e+000 5.419637e+000 4.215999e+000 5.487566e+000 3.135160e+000 1.906626e+000 -1.081808e-002 -8.840169e-003 9.544295e-003 6.928196e-003 1.281001e-002 1.234361e-002 3.124875e-002 3.154826e-002 3.018674e-002 1.373395e-002 -9.979120e-003 -1.299036e-002 2.096376e-003
<VARIANCE> 25
 2.672668e+000 2.863607e+000 8.048256e+000 5.533341e+000 6.857525e+000 8.294781e+000 9.882899e+000 1.010688e+001 1.031453e+001 1.136605e+001 1.072447e+001 1.017036e+001 9.554632e-002 1.970833e-001 3.375046e-001 4.969551e-001 5.998726e-001 7.935888e-001 9.212074e-001 1.006816e+000 1.052597e+000 1.011964e+000 9.837804e-001 9.000905e-001 5.133863e-002
<GCONST> 6.027654e+001
~h "b"
<BEGINHMM>
<NUMSTATES> 5
<STATE> 2
<MEAN> 25
 -3.811568e-001 5.269000e+000 -3.139246e+000 4.100752e+000 2.950222e+000 2.103932e+000 5.372715e+000 -1.672580e+000 -5.338865e-001 2.997924e-001 -2.901761e+000 -3.044771e-001 -4.701999e-001 1.630534e-001 -1.142074e-001 2.266369e-001 2.939837e-001 9.390497e-002 1.678538e-001 2.685122e-001 5.232277e-001 2.428104e-001 1.270580e-002 2.755645e-001 -5.738506e-001
<VARIANCE> 25
 7.866656e+001 5.059741e+001 5.513062e+001 4.117254e+001 5.395725e+001 6.780908e+001 7.517585e+001 5.822759e+001 7.329807e+001 5.325595e+001 5.589423e+001 4.242847e+001 1.077506e+000 1.813900e+000 2.136150e+000 2.346721e+000 2.666096e+000 3.255105e+000 3.494656e+000 3.493122e+000 3.727629e+000 3.068234e+000 3.309702e+000 2.525163e+000 6.467146e-001
<GCONST> 1.056627e+002
<STATE> 3
<MEAN> 25
 3.142603e-001 7.333847e+000 -5.213460e-001 5.534572e+000 6.751928e-001 -9.992000e-001 1.652561e+000 -2.007018e+000 -1.999824e+000 -2.298068e+000 -3.470771e+000 -8.372132e-001 -4.693128e-001 -1.288138e-002 -1.138838e-003 1.277606e-001 7.099611e-002 -5.426455e-002 7.734419e-002 2.114180e-001 2.616332e-001 7.584661e-002 -8.361044e-003 9.074463e-002 -3.840119e-001
<VARIANCE> 25
 4.979259e+001 3.404992e+001 2.369064e+001 2.636964e+001 3.107431e+001 3.763124e+001 3.387854e+001 3.796275e+001 4.545534e+001 4.797630e+001 3.495547e+001 2.955208e+001 5.224605e-001 6.851361e-001 9.051519e-001 1.018915e+000 1.359182e+000 1.573576e+000 1.522458e+000 1.707546e+000 2.018926e+000 1.871190e+000 1.644521e+000 1.536455e+000 2.318406e-001
<GCONST> 9.007291e+001
<STATE> 4
<MEAN> 25
 -7.750618e+000 4.110661e+000 -4.896127e+000 6.251150e+000 2.293531e+000 -1.115110e+000 4.390193e+000 1.404303e+000 1.958190e+000 1.199756e-001 -1.255764e+000 2.446269e+000 -3.828286e-002 -1.334369e-002 -2.759846e-003 -1.076510e-002 -1.000626e-002 -1.692466e-002 -2.007094e-002 -3.508484e-003 -2.900662e-003 -1.762781e-002 -3.049150e-002 -4.795087e-004 -2.610431e-002
<VARIANCE> 25
 2.422712e+001 7.742095e+000 1.091368e+001 1.088067e+001 1.170821e+001 1.277547e+001 1.445238e+001 1.538751e+001 2.150715e+001 1.878330e+001 1.543419e+001 1.827948e+001 2.176291e-001 3.272868e-001 4.542849e-001 6.335222e-001 8.178280e-001 9.725921e-001 1.128967e+000 1.312159e+000 1.350794e+000 1.280608e+000 1.226524e+000 1.173125e+000 7.797337e-002
<GCONST> 7.265123e+001
<TRANSP> 5
 0.000000e+000 1.000000e+000 0.000000e+000 0.000000e+000 0.000000e+000
 0.000000e+000 7.163808e-001 2.836192e-001 0.000000e+000 0.000000e+000
 0.000000e+000 0.000000e+000 5.722068e-001 4.277932e-001 0.000000e+000
 0.000000e+000 0.000000e+000 0.000000e+000 9.450338e-001 5.496622e-002
 0.000000e+000 0.000000e+000 0.000000e+000 0.000000e+000 0.000000e+000
<ENDHMM>
~h "d"
<BEGINHMM>
<NUMSTATES> 5
<STATE> 2
<MEAN> 25
 2.423378e+000 2.059100e+000 3.075500e+000 4.254697e+000 1.507997e+000 -5.333849e-001 -1.976415e+000 -2.468328e+000 -9.489027e-001 -7.606948e-001 -2.341950e+000 -1.872760e+000 1.486111e+000 -1.485037e+000 1.030807e+000 -1.140885e+000 -5.079705e-001 -1.203278e+000 -1.773846e+000 -7.728019e-001 -1.121192e+000 -6.522918e-001 -9.481504e-002 -9.857063e-001 2.787793e+000
<VARIANCE> 25
 5.957257e+001 1.001060e+002 3.932320e+001 6.197597e+001 4.416346e+001 4.717614e+001 6.151410e+001 4.566293e+001 5.229835e+001 4.352480e+001 3.890842e+001 3.144417e+001 4.433840e+000 1.289633e+001 3.744380e+000 7.166605e+000 4.213945e+000 8.036014e+000 7.135963e+000 6.962128e+000 6.963245e+000 6.136666e+000 5.741591e+000 3.420687e+000 5.930523e+000
<GCONST> 1.161375e+002
<STATE> 3
<MEAN> 25
 7.514165e+000 -4.355591e+000 5.080304e+000 -5.759437e+000 -5.878994e+000 -6.357536e+000 -4.057966e+000 -4.892643e+000 -5.637890e+000 -4.699851e+000 -3.384433e+000 -7.958023e+000 4.269153e-002 -1.126191e+000 -3.196162e-001 -1.487565e+000 -5.836797e-002 -6.031473e-001 3.942679e-001 6.572489e-002 4.613940e-001 9.227154e-002 9.271462e-002 -5.235179e-002 1.319773e+000
<VARIANCE> 25
 1.922166e+001 8.256052e+001 4.029861e+001 1.152794e+002 6.203639e+001 8.217118e+001 1.257829e+002 5.747195e+001 6.190669e+001 7.517764e+001 5.677367e+001 2.703609e+001 1.015597e+000 5.984174e+000 2.300397e+000 1.028586e+001 5.543545e+000 5.650470e+000 8.663144e+000 4.375936e+000 5.907083e+000 5.651672e+000 3.840840e+000 2.614858e+000 6.957932e+000
<GCONST> 1.147672e+002
<STATE> 4
<MEAN> 25
 9.230042e+000 -1.608115e+001 3.382036e+000 -1.209475e+001 -3.047309e-001 -2.818125e+000 -6.860346e+000 -9.544775e-001 -2.166080e+000 -4.643035e-001 5.512338e-001 -6.114586e+000 -2.202183e-002 -4.393553e-002 -2.742389e-001 7.103231e-003 1.286556e-001 2.200399e-001 2.097168e-001 -7.944214e-002 -1.530429e-001 -1.939646e-002 -1.253733e-001 3.838830e-002 -5.958723e-002
<VARIANCE> 25
 1.707837e+001 5.834274e+001 4.365119e+001 8.209486e+001 3.091354e+001 8.290104e+001 1.318879e+002 9.414011e+001 6.227275e+001 1.021022e+002 6.674763e+001 2.913983e+001 1.992611e-001 6.027604e-001 6.218798e-001 1.189092e+000 1.118130e+000 1.230660e+000 1.480699e+000 1.215028e+000 1.167639e+000 1.158122e+000 1.339447e+000 1.132830e+000 2.214504e-001
<GCONST> 9.233778e+001
<TRANSP> 5
 0.000000e+000 1.000000e+000 0.000000e+000 0.000000e+000 0.000000e+000
 0.000000e+000 7.416529e-001 2.583471e-001 0.000000e+000 0.000000e+000
 0.000000e+000 0.000000e+000 7.643129e-001 2.356871e-001 0.000000e+000
 0.000000e+000 0.000000e+000 0.000000e+000 8.898638e-001 1.101362e-001
 0.000000e+000 0.000000e+000 0.000000e+000 0.000000e+000 0.000000e+000
<ENDHMM>
~h "g"
<BEGINHMM>
<NUMSTATES> 5
<STATE> 2
<MEAN> 25
 -1.712084e+000 5.457128e+000 8.174524e-001 6.462504e+000 2.972672e+000 1.688585e+000 2.033779e+000 2.264996e-001 1.943672e+000 1.468985e+000 -1.914168e+000 -2.916003e-002 1.823355e-001 1.328361e-001 1.094630e-001 -3.509749e-001 -1.011952e-001 -4.398822e-001 -4.083336e-001 -4.483396e-001 -3.340341e-001 -1.225323e-001 -8.489457e-002 -1.074450e-001 9.203604e-001
<VARIANCE> 25
 4.720093e+001 6.517458e+001 6.544543e+001 3.019449e+001 2.830261e+001 3.103746e+001 4.637691e+001 4.073172e+001 4.922498e+001 4.638519e+001 4.104286e+001 3.562867e+001 4.043233e+000 5.196644e+000 5.153985e+000 4.337683e+000 2.780465e+000 3.767053e+000 4.807920e+000 4.984177e+000 5.155655e+000 5.370563e+000 3.428894e+000 3.133742e+000 4.282239e+000
<GCONST> 1.097380e+002
<STATE> 3
<MEAN> 25
 9.328392e-001 -1.510677e+000 1.079593e+001 -2.744706e+000 -1.476951e+000 -1.552520e+000 -5.517631e+000 -2.375937e+000 -2.181642e+000 -3.043499e+000 -6.178105e-001 -1.779711e+000 7.046857e-001 -8.558195e-001 1.790980e+000 -1.544622e+000 -1.104415e+000 -9.669029e-001 -1.584787e+000 -6.527861e-001 -1.009688e+000 -1.057779e+000 -2.971728e-001 -6.197716e-001 2.073009e+000
<VARIANCE> 25
 6.667844e+001 1.584246e+002 1.335450e+002 7.113384e+001 6.184973e+001 8.681200e+001 6.522091e+001 7.029630e+001 7.174638e+001 5.056748e+001 6.184478e+001 2.853812e+001 4.121114e+000 1.190890e+001 6.870760e+000 8.562582e+000 5.187125e+000 7.934934e+000 5.743904e+000 7.452558e+000 6.490803e+000 6.562958e+000 6.831228e+000 2.821525e+000 4.554347e+000
<GCONST> 1.207313e+002
<STATE> 4
<MEAN> 25
 4.879256e+000 -3.817056e+000 2.063413e+001 -4.092604e+000 -8.070267e+000 -2.615575e+000 -1.117722e+001 -7.343621e-001 -3.359845e+000 -7.201076e+000 1.698491e+000 -3.734998e+000 1.751498e-001 2.052421e-002 -2.060990e-001 -6.239475e-002 -1.708322e-001 -1.060019e-002 1.075953e-001 1.873191e-002 -1.582048e-001 -8.460372e-002 -1.536139e-001 -1.056498e-001 1.674506e-002
<VARIANCE> 25
 2.179430e+001 8.811237e+001 1.748888e+002 8.009126e+001 9.540269e+001 6.840141e+001 4.170026e+001 8.422202e+001 6.048741e+001 7.329541e+001 7.856924e+001 2.662422e+001 3.282709e-001 6.830938e-001 1.112687e+000 1.003234e+000 1.373720e+000 1.559464e+000 1.788387e+000 1.488141e+000 1.502678e+000 2.000771e+000 2.095417e+000 1.160823e+000 2.671529e-001
<GCONST> 9.707011e+001
<TRANSP> 5
 0.000000e+000 1.000000e+000 0.000000e+000 0.000000e+000 0.000000e+000
 0.000000e+000 7.812367e-001 2.187633e-001 0.000000e+000 0.000000e+000
 0.000000e+000 0.000000e+000 7.721667e-001 2.278333e-001 0.000000e+000
 0.000000e+000 0.000000e+000 0.000000e+000 8.700811e-001 1.299189e-001
 0.000000e+000 0.000000e+000 0.000000e+000 0.000000e+000 0.000000e+000
<ENDHMM>
~h "k"
<BEGINHMM>
<NUMSTATES> 5
<STATE> 2
<MEAN> 25
 -1.373649e+000 -2.996640e-001 -3.271054e+000 2.521580e-001 4.059596e+000 -3.707705e-001 6.599839e-001 2.435940e+000 2.409985e+000 2.753475e+000 -6.170275e-001 -2.420200e-001 1.415225e+000 -1.011319e+000 -5.906286e-001 -2.355446e+000 -2.642451e-001 -1.023103e+000 -9.723111e-001 -7.776551e-001 -9.260110e-001 -1.015561e+000 -1.803927e-001 -5.807294e-001 3.010129e+000
<VARIANCE> 25
 5.398104e+001 5.874855e+001 6.312386e+001 9.202980e+001 6.808068e+001 6.330872e+001 5.903486e+001 4.944529e+001 4.216092e+001 4.603310e+001 4.030566e+001 2.969655e+001 4.290004e+000 6.904467e+000 7.709863e+000 9.689408e+000 7.671442e+000 8.142154e+000 7.789162e+000 7.412923e+000 4.511019e+000 5.630117e+000 5.017309e+000 2.885324e+000 6.505396e+000
<GCONST> 1.173544e+002
<STATE> 3
<MEAN> 25
 3.570755e+000 -2.822362e+000 4.017360e-001 -5.315923e+000 1.277997e+000 1.839273e+000 -1.617885e+000 -1.136010e+000 -1.148941e+000 -1.268543e-001 2.563590e+000 -7.490429e-003 5.224804e-001 -6.467463e-001 -5.661449e-001 -3.173710e-001 -2.000211e-002 1.641400e-001 3.562074e-001 1.015812e-001 3.359441e-001 1.772985e-001 -2.958119e-002 -1.631710e-001 2.768795e-001
<VARIANCE> 25
 6.223689e+001 1.364238e+002 1.188310e+002 1.400223e+002 8.189276e+001 7.848135e+001 1.178725e+002 6.308229e+001 8.990246e+001 7.238020e+001 7.667229e+001 6.197709e+001 2.289721e+000 5.729093e+000 3.692779e+000 7.264426e+000 4.616987e+000 5.198494e+000 6.099538e+000 5.935399e+000 4.477662e+000 4.047252e+000 5.738314e+000 3.689559e+000 4.738250e+000
<GCONST> 1.197785e+002
<STATE> 4
<MEAN> 25
 8.025742e+000 -1.419925e+001 -2.105701e+000 -1.172801e+001 3.480067e+000 -1.839732e-001 -4.461097e+000 -1.250826e+000 -1.641986e+000 -2.088939e+000 -9.613698e-001 -4.127185e+000 4.212580e-002 2.197301e-002 2.058748e-002 -5.190470e-004 -1.287982e-001 1.036092e-001 9.568921e-002 -4.427484e-003 1.935271e-002 -9.847281e-002 1.261489e-001 1.193066e-002 -1.508110e-001
<VARIANCE> 25
 3.513370e+001 1.088059e+002 9.062090e+001 9.383175e+001 7.445845e+001 4.659446e+001 6.077655e+001 8.114252e+001 3.919004e+001 8.623297e+001 5.005436e+001 1.735200e+001 2.711363e-001 9.165498e-001 8.856007e-001 1.168661e+000 1.234975e+000 1.107708e+000 1.515467e+000 1.400595e+000 1.090968e+000 1.135004e+000 1.265405e+000 9.242618e-001 3.868778e-001
<GCONST> 9.392001e+001
<TRANSP> 5
 0.000000e+000 1.000000e+000 0.000000e+000 0.000000e+000 0.000000e+000
 0.000000e+000 7.599058e-001 2.400942e-001 0.000000e+000 0.000000e+000
 0.000000e+000 0.000000e+000 6.650599e-001 3.349401e-001 0.000000e+000
 0.000000e+000 0.000000e+000 0.000000e+000 8.094259e-001 1.905741e-001
 0.000000e+000 0.000000e+000 0.000000e+000 0.000000e+000 0.000000e+000
<ENDHMM>
~h "l"
<BEGINHMM>
<NUMSTATES> 5
<STATE> 2
<MEAN> 25
 9.069190e+000 -2.575184e+000 2.195871e+000 -5.443113e+000 -3.980325e+000 -2.675759e+000 -5.219872e+000 -6.280914e+000 -2.797218e+000 -8.295283e-001 1.724351e+000 -1.339316e+000 3.681032e-001 -1.429975e+000 3.604873e-001 -6.254520e-001 -4.156330e-001 -2.532851e-001 -5.298015e-001 7.280838e-002 6.241926e-001 1.280373e-001 4.650250e-001 -2.152116e-001 1.467636e+000
<VARIANCE> 25
 6.764567e+001 9.694867e+001 7.792472e+001 1.398290e+002 6.405122e+001 9.665665e+001 9.126757e+001 8.714029e+001 6.857144e+001 6.406752e+001 8.446095e+001 4.821676e+001 2.523307e+000 6.343737e+000 3.560351e+000 1.125608e+001 4.446254e+000 7.918077e+000 7.543309e+000 5.263866e+000 6.265947e+000 4.575518e+000 4.788641e+000 4.694892e+000 6.069139e+000
<GCONST> 1.204219e+002
<STATE> 3
<MEAN> 25
 7.239118e+000 -8.330708e+000 -2.337409e+000 -1.253410e+001 -3.902291e+000 -1.253803e+001 -2.204609e+000 -4.685586e+000 -5.371785e-001 -1.110902e+001 -2.000559e+000 -1.838104e+000 -1.535024e-001 -4.301378e-001 -4.244538e-001 -1.373848e-001 4.927372e-001 4.076915e-001 1.685959e-002 6.556483e-002 -5.938559e-002 -3.272653e-001 2.921453e-002 -1.622234e-001 2.113834e-001
<VARIANCE> 25
 1.325338e+001 3.478085e+001 4.283238e+001 4.234714e+001 6.470039e+001 7.971065e+001 7.732119e+001 5.572656e+001 5.925687e+001 5.958056e+001 5.295208e+001 3.378129e+001 2.724997e-001 1.052082e+000 1.314649e+000 2.530987e+000 2.342170e+000 2.727721e+000 2.613978e+000 2.808783e+000 2.439725e+000 2.888872e+000 2.115376e+000 1.650567e+000 4.519697e-001
<GCONST> 9.836851e+001
<STATE> 4
<MEAN> 25
 1.120356e+001 -1.517398e+001 5.710106e+000 -1.608264e+001 -5.505609e-001 3.337965e+000 -9.050278e+000 2.304994e+000 -2.008711e+000 6.635000e-001 4.495127e+000 -4.874730e+000 2.830576e-002 9.923045e-002 -1.450345e-001 2.013212e-002 -5.579097e-002 -3.665337e-002 1.052335e-001 1.151706e-001 -8.534104e-002 6.431108e-002 -1.703238e-001 -1.101025e-001 -9.517633e-002
<VARIANCE> 25
 1.990791e+001 8.720430e+001 4.818891e+001 6.171745e+001 4.990960e+001 4.573394e+001 4.956985e+001 6.846871e+001 6.612447e+001 1.119751e+002 8.117736e+001 5.846099e+001 1.986687e-001 8.194246e-001 6.508713e-001 9.915396e-001 1.069648e+000 1.089954e+000 1.289155e+000 1.422869e+000 1.315468e+000 1.220603e+000 1.425444e+000 1.180599e+000 2.969375e-001
<GCONST> 9.292834e+001
<TRANSP> 5
 0.000000e+000 1.000000e+000 0.000000e+000 0.000000e+000 0.000000e+000
 0.000000e+000 7.808501e-001 2.191499e-001 0.000000e+000 0.000000e+000
 0.000000e+000 0.000000e+000 8.567523e-001 1.432476e-001 0.000000e+000
 0.000000e+000 0.000000e+000 0.000000e+000 9.041633e-001 9.583672e-002
 0.000000e+000 0.000000e+000 0.000000e+000 0.000000e+000 0.000000e+000
<ENDHMM>
~h "m"
<BEGINHMM>
<NUMSTATES> 5
<STATE> 2
<MEAN> 25
 1.548437e+000 -2.046257e+000 -1.212483e-002 -3.346577e-001 1.522571e+000 5.123025e-001 -6.014199e-001 -5.779070e-001 -1.498508e+000 -1.873520e+000 -1.792506e-001 3.001542e-001 1.644192e+000 5.441140e-001 2.200743e-001 1.300755e-001 -4.137847e-001 -3.298888e-001 -5.708023e-001 -1.200204e+000 -1.503735e+000 -8.679481e-001 -4.854690e-001 -7.607712e-001 7.597007e-001
<VARIANCE> 25
 6.411613e+001 8.565755e+001 1.169936e+002 1.031328e+002 5.389861e+001 6.093861e+001 9.312074e+001 5.999715e+001 6.156927e+001 8.500764e+001 5.436895e+001 3.996670e+001 4.872495e+000 7.128247e+000 4.658089e+000 6.091165e+000 5.109268e+000 4.403128e+000 7.659194e+000 5.841825e+000 6.979259e+000 5.011616e+000 4.812920e+000 3.419262e+000 6.040838e+000
<GCONST> 1.188894e+002
<STATE> 3
<MEAN> 25
 9.798778e+000 -3.202661e+000 -3.907187e+000 -3.575066e+000 -8.210121e-001 -6.583437e+000 -4.909479e+000 -6.404764e+000 -7.338912e+000 -8.778567e+000 -5.378794e+000 -6.357414e+000 4.136977e-001 -2.836025e-001 -6.948667e-002 5.136496e-001 1.303072e-001 -3.398175e-001 -4.747041e-001 -2.754857e-002 -4.607951e-001 -8.949441e-002 -1.131221e-001 -4.505430e-001 1.578990e-001
<VARIANCE> 25
 2.034954e+001 6.597839e+001 5.998039e+001 8.143279e+001 6.006122e+001 6.598972e+001 8.052644e+001 4.302140e+001 4.478448e+001 5.081979e+001 4.406410e+001 2.767454e+001 2.263361e+000 7.978226e+000 5.895243e+000 1.154248e+001 6.971517e+000 3.416694e+000 4.445435e+000 5.828208e+000 4.429710e+000 3.977052e+000 4.308786e+000 2.712213e+000 8.437252e+000
<GCONST> 1.139134e+002
<STATE> 4
<MEAN> 25
 9.486826e+000 -2.379344e+000 -1.582719e+000 4.115561e-001 -1.154703e+000 -2.183350e+000 -2.316441e+000 -7.208810e+000 -1.085752e+001 -5.416696e+000 -2.102552e+000 -5.306604e+000 -3.192149e-001 4.375847e-001 1.282810e-001 2.606748e-001 6.153049e-002 2.637926e-001 1.891111e-001 2.604906e-002 1.571313e-001 1.570199e-001 -1.408095e-004 1.284018e-001 -5.250217e-001
<VARIANCE> 25
 2.232094e+001 8.917932e+001 3.207426e+001 6.547278e+001 5.016110e+001 6.947031e+001 1.014395e+002 8.805483e+001 5.026023e+001 7.083975e+001 9.446832e+001 3.840135e+001 4.924885e-001 1.310290e+000 7.749642e-001 1.167571e+000 1.365543e+000 1.630841e+000 2.087420e+000 2.446547e+000 2.075903e+000 1.816136e+000 2.183885e+000 1.727855e+000 5.796817e-001
<GCONST> 9.882336e+001
<TRANSP> 5
 0.000000e+000 1.000000e+000 0.000000e+000 0.000000e+000 0.000000e+000
 0.000000e+000 6.437997e-001 3.562003e-001 0.000000e+000 0.000000e+000
 0.000000e+000 0.000000e+000 7.422643e-001 2.577357e-001 0.000000e+000
 0.000000e+000 0.000000e+000 0.000000e+000 9.057554e-001 9.424461e-002
 0.000000e+000 0.000000e+000 0.000000e+000 0.000000e+000 0.000000e+000
<ENDHMM>
~h "n"
<BEGINHMM>
<NUMSTATES> 5
<STATE> 2
<MEAN> 25
 1.014505e+001 -2.499216e+000 1.727920e-002 -1.259809e+000 -6.144948e+000 -4.592234e+000 -1.568205e+000 -8.055538e+000 -1.082353e+001 -5.518687e+000 9.193342e-001 -3.880703e+000 2.835976e-001 1.196408e+000 2.470400e-001 1.230544e+000 -1.784234e-001 -3.807267e-002 -1.079231e-001 -8.560711e-001 -7.857829e-001 3.195720e-001 -1.852335e-001 2.610604e-001 -1.159948e+000
<VARIANCE> 25
 3.243624e+001 6.297821e+001 4.308605e+001 7.031875e+001 5.155075e+001 6.232941e+001 6.445063e+001 9.040160e+001 7.047020e+001 1.099243e+002 6.909972e+001 3.281543e+001 1.101177e+000 3.083635e+000 2.132008e+000 3.557831e+000 2.610863e+000 2.696089e+000 3.664082e+000 5.301378e+000 3.497108e+000 3.454023e+000 3.173877e+000 2.537396e+000 2.275957e+000
<GCONST> 1.085785e+002
<STATE> 3
<MEAN> 25
 6.306051e+000 5.554377e+000 5.411925e-001 6.504230e+000 -7.924759e-001 -2.753489e-001 -5.390546e-002 -1.330818e+001 -9.671387e+000 1.695360e+000 -8.715895e-001 -7.942184e-001 -7.348942e-001 3.765037e-001 1.024359e-001 3.369911e-001 8.350519e-001 4.975674e-001 4.646342e-002 7.714937e-001 8.733734e-001 3.274811e-002 -2.221239e-001 5.852651e-002 -7.721507e-001
<VARIANCE> 25
 4.204697e+001 4.489843e+001 4.376961e+001 3.896840e+001 6.778949e+001 6.165643e+001 9.462965e+001 1.261299e+002 7.646609e+001 8.531460e+001 7.881933e+001 6.475329e+001 8.097939e-001 2.501420e+000 1.891952e+000 2.342187e+000 2.670910e+000 3.712054e+000 4.560569e+000 5.084300e+000 4.394099e+000 5.045886e+000 4.997898e+000 3.212902e+000 8.041795e-001
<GCONST> 1.092673e+002
<STATE> 4
<MEAN> 25
 3.216854e+000 7.499382e+000 2.283622e+000 7.195817e+000 1.192717e+000 -3.769245e-001 -2.165612e+000 -5.212228e+000 -4.848853e+000 -2.361966e+000 -2.868835e+000 -1.454343e+000 -7.053086e-001 -2.083370e-001 -1.354282e-001 6.663413e-002 3.137518e-001 4.944892e-001 5.354077e-001 7.705823e-001 8.526791e-001 4.121029e-001 1.097367e-001 1.470033e-001 -5.047726e-001
<VARIANCE> 25
 3.663093e+001 2.835399e+001 2.199879e+001 2.691056e+001 4.431501e+001 3.137863e+001 5.089965e+001 4.725596e+001 5.016730e+001 4.335441e+001 6.897811e+001 6.239208e+001 4.465525e-001 8.540465e-001 8.327845e-001 1.033438e+000 1.593637e+000 1.832587e+000 1.957149e+000 2.077263e+000 2.014920e+000 2.095782e+000 2.051425e+000 1.959498e+000 2.877921e-001
<GCONST> 9.329742e+001
<TRANSP> 5
 0.000000e+000 1.000000e+000 0.000000e+000 0.000000e+000 0.000000e+000
 0.000000e+000 8.355253e-001 1.644747e-001 0.000000e+000 0.000000e+000
 0.000000e+000 0.000000e+000 7.348351e-001 2.651649e-001 0.000000e+000
 0.000000e+000 0.000000e+000 0.000000e+000 8.443968e-001 1.556032e-001
 0.000000e+000 0.000000e+000 0.000000e+000 0.000000e+000 0.000000e+000
<ENDHMM>
~h "p"
<BEGINHMM>
<NUMSTATES> 5
<STATE> 2
<MEAN> 25
 -6.221344e+000 3.260416e+000 -3.124355e+000 5.313097e+000 2.880900e+000 2.161605e+000 4.654129e+000 2.655079e+000 3.720298e+000 2.895138e+000 -7.075141e-001 2.493372e+000 -1.860079e-001 -2.960180e-001 2.362174e-002 -2.832860e-002 1.697491e-002 1.085616e-002 8.612318e-002 1.372817e-001 2.643374e-001 2.765818e-001 2.545396e-001 2.012791e-001 1.526847e-001
<VARIANCE> 25
 3.985485e+001 1.267983e+001 2.415529e+001 1.730907e+001 1.871985e+001 2.443758e+001 2.290152e+001 2.277799e+001 2.677680e+001 2.533426e+001 2.353610e+001 2.075934e+001 1.326401e+000 8.674902e-001 1.199710e+000 1.377484e+000 1.452934e+000 1.632583e+000 2.077745e+000 2.011273e+000 1.825819e+000 1.897981e+000 1.997750e+000 1.677067e+000 1.678080e+000
<GCONST> 8.920784e+001
<STATE> 3
<MEAN> 25
 6.921928e-001 -1.463588e+000 -9.946651e-001 9.659089e-001 2.257368e+000 1.882707e+000 1.317791e+000 2.085392e+000 2.876934e+000 2.312390e+000 7.035754e-001 2.048710e+000 2.889400e+000 -2.610255e+000 -3.218819e-001 -3.429606e+000 -2.811627e-001 -1.279510e+000 -1.485389e+000 -1.104346e+000 -1.088030e+000 -1.897268e+000 -3.907782e-001 -4.711238e-001 5.486641e+000
<VARIANCE> 25
 5.163168e+001 4.545972e+001 3.334817e+001 4.620578e+001 2.776199e+001 3.434410e+001 2.869683e+001 3.277801e+001 2.579753e+001 3.114385e+001 2.173066e+001 1.654023e+001 4.386645e+000 8.028826e+000 7.660460e+000 7.419332e+000 5.338532e+000 6.434230e+000 5.097945e+000 6.611629e+000 4.078132e+000 7.139139e+000 4.811719e+000 2.914445e+000 7.640605e+000
<GCONST> 1.100295e+002
<STATE> 4
<MEAN> 25
 9.562790e+000 -1.563004e+001 -6.517796e-002 -1.486273e+001 2.804082e+000 1.503977e+000 -4.117758e+000 5.235162e-001 1.851188e-001 1.022252e+000 -1.256070e+000 -2.572331e+000 6.250182e-001 -6.904470e-001 -1.842550e-001 -1.080217e+000 -3.583654e-001 -7.549897e-001 -5.298495e-001 -6.216371e-001 -7.182862e-001 -1.066064e+000 -3.497678e-001 -6.494926e-001 1.181185e+000
<VARIANCE> 25
 4.091354e+001 1.327998e+002 8.211174e+001 1.089409e+002 7.062209e+001 6.137837e+001 5.405309e+001 6.038224e+001 2.844622e+001 1.059380e+002 3.400766e+001 2.743319e+001 3.147630e+000 7.761036e+000 4.645040e+000 8.789589e+000 3.489499e+000 5.465765e+000 4.009485e+000 4.805213e+000 2.929508e+000 4.596897e+000 2.941757e+000 1.820476e+000 6.466534e+000
<GCONST> 1.139171e+002
<TRANSP> 5
 0.000000e+000 1.000000e+000 0.000000e+000 0.000000e+000 0.000000e+000
 0.000000e+000 8.360881e-001 1.639119e-001 0.000000e+000 0.000000e+000
 0.000000e+000 0.000000e+000 6.222117e-001 3.777883e-001 0.000000e+000
 0.000000e+000 0.000000e+000 0.000000e+000 6.530982e-001 3.469018e-001
 0.000000e+000 0.000000e+000 0.000000e+000 0.000000e+000 0.000000e+000
<ENDHMM>
~h "r"
<BEGINHMM>
<NUMSTATES> 5
<STATE> 2
<MEAN> 25
 8.020704e+000 -7.533053e+000 -4.086935e+000 -8.716764e+000 1.624858e+000 -2.106903e+000 -5.197232e+000 3.399977e-001 -1.689046e+000 -5.750909e+000 3.289643e+000 -1.521489e+000 1.096627e-001 -1.447807e+000 -2.134493e-001 -6.615278e-001 4.138392e-001 -1.698918e-001 -3.437908e-001 1.206238e-001 -1.907550e-001 -3.592010e-001 -3.861155e-002 -5.609789e-001 1.321569e+000
<VARIANCE> 25
 4.409116e+001 7.589227e+001 6.011966e+001 8.550649e+001 5.121405e+001 6.318226e+001 6.185810e+001 9.541181e+001 5.593077e+001 8.190978e+001 6.064132e+001 3.832159e+001 2.016796e+000 3.264151e+000 3.011817e+000 5.118892e+000 3.886907e+000 3.595100e+000 3.610709e+000 6.678323e+000 4.356332e+000 5.389193e+000 4.093887e+000 3.046279e+000 2.204155e+000
<GCONST> 1.124630e+002
<STATE> 3
<MEAN> 25
 5.579815e+000 -1.454842e+001 -6.471378e+000 -1.059646e+001 1.977135e+000 -7.208704e+000 2.236751e+000 -9.372155e+000 -3.863322e+000 -1.093804e+001 -2.525607e+000 -3.175831e+000 -3.994385e-002 9.201480e-002 -6.569494e-002 2.196286e-001 -6.629203e-002 3.251869e-001 -7.609513e-002 -1.055642e-001 1.185574e-001 -2.592216e-002 -1.995317e-001 -2.272743e-001 -2.203183e-001
<VARIANCE> 25
 1.635350e+001 2.844563e+001 3.169067e+001 4.362552e+001 3.789749e+001 3.840392e+001 5.671580e+001 4.252792e+001 2.438326e+001 8.619440e+001 2.797165e+001 2.134949e+001 1.254313e-001 5.317062e-001 3.836178e-001 5.205029e-001 8.406954e-001 7.578878e-001 8.240191e-001 1.101961e+000 8.750725e-001 8.084466e-001 8.969661e-001 8.193998e-001 1.348617e-001
<GCONST> 8.091154e+001
<STATE> 4
<MEAN> 25
 1.078138e+001 -1.962189e+001 4.381302e+000 -1.500855e+001 3.526496e+000 2.464118e+000 -1.063194e+001 3.728819e+000 9.767394e-001 3.491231e+000 2.195411e+000 -6.581087e+000 5.299354e-002 1.660599e-001 -1.491855e-001 1.454616e-001 -7.638799e-002 -1.067885e-002 2.913133e-002 1.024149e-001 -1.222630e-001 -9.299365e-002 -1.076674e-001 4.368019e-002 -1.889676e-001
<VARIANCE> 25
 1.588698e+001 5.457500e+001 3.414853e+001 8.544151e+001 3.034235e+001 3.656045e+001 4.990539e+001 4.247381e+001 3.694171e+001 6.147347e+001 5.840915e+001 3.247161e+001 2.314325e-001 8.244622e-001 5.932108e-001 1.100003e+000 1.069497e+000 9.296240e-001 1.336126e+000 1.235652e+000 1.140355e+000 1.035377e+000 1.313076e+000 1.169757e+000 3.189530e-001
<GCONST> 8.850163e+001
<TRANSP> 5
 0.000000e+000 1.000000e+000 0.000000e+000 0.000000e+000 0.000000e+000
 0.000000e+000 8.293148e-001 1.706852e-001 0.000000e+000 0.000000e+000
 0.000000e+000 0.000000e+000 7.988728e-001 2.011271e-001 0.000000e+000
 0.000000e+000 0.000000e+000 0.000000e+000 8.784782e-001 1.215218e-001
 0.000000e+000 0.000000e+000 0.000000e+000 0.000000e+000 0.000000e+000
<ENDHMM>
~h "s"
<BEGINHMM>
<NUMSTATES> 5
<STATE> 2
<MEAN> 25
 -3.932503e+000 1.915574e+000 -1.709964e+000 4.291726e+000 9.834245e-001 2.800229e+000 4.431966e+000 1.392607e+000 1.702686e+000 2.130075e+000 2.467574e-001 -1.421618e-001 -9.567476e-001 -1.766607e-001 -3.126878e-002 1.169871e-001 1.798318e-001 4.709467e-001 2.361644e-001 4.856870e-001 5.658694e-001 5.748184e-001 4.914977e-001 3.326983e-001 1.340731e-001
<VARIANCE> 25
 3.850518e+001 3.556191e+001 3.576486e+001 4.380730e+001 2.696233e+001 4.868537e+001 3.975178e+001 4.532722e+001 4.084136e+001 4.821156e+001 3.622921e+001 3.018413e+001 3.104227e+000 2.636173e+000 3.647320e+000 2.906637e+000 2.915905e+000 3.527027e+000 3.176758e+000 3.262403e+000 3.578794e+000 3.566090e+000 3.248649e+000 2.508250e+000 2.380027e+000
<GCONST> 1.044281e+002
<STATE> 3
<MEAN> 25
 -1.036972e+001 -5.885582e+000 7.580780e+000 -6.547132e+000 6.673584e+000 5.966991e+000 -1.186671e+000 2.745142e+000 4.472088e+000 4.317154e+000 5.545283e+000 1.043133e+000 -2.444452e-001 1.038569e-001 -4.544858e-001 1.616680e-001 -1.142605e-001 -2.713203e-002 6.990873e-002 6.790726e-002 8.029819e-002 3.549998e-002 -7.203714e-002 2.098838e-001 -3.337579e-001
<VARIANCE> 25
 3.095952e+001 6.106569e+001 1.962859e+002 1.270770e+002 6.216615e+001 6.951811e+001 8.472076e+001 5.789971e+001 4.021143e+001 3.892287e+001 4.026783e+001 4.167094e+001 2.188907e+000 2.095527e+000 4.624458e+000 3.584358e+000 3.332285e+000 2.888461e+000 3.465427e+000 3.481239e+000 3.144779e+000 2.716889e+000 3.192783e+000 2.299850e+000 1.315315e+000
<GCONST> 1.087653e+002
<STATE> 4
<MEAN> 25
 -9.339304e+000 3.159054e+000 -5.186200e+000 6.073164e+000 9.048200e-001 5.323936e-001 4.291780e+000 2.519933e+000 2.412932e+000 1.361695e+000 -1.099738e-001 2.760986e+000 -1.854855e-002 -2.773585e-002 1.877327e-002 -2.830715e-002 -1.571480e-002 -2.048560e-002 -2.300189e-002 -7.765155e-004 1.257190e-003 -1.507664e-002 -5.644334e-003 1.752017e-002 -7.518242e-002
<VARIANCE> 25
 2.319544e+001 7.381732e+000 1.006813e+001 1.012295e+001 1.269180e+001 2.486111e+001 1.269442e+001 1.745764e+001 1.852316e+001 2.177048e+001 1.530078e+001 1.661869e+001 3.124071e-001 3.295632e-001 5.572004e-001 6.764659e-001 8.304214e-001 9.483985e-001 1.196894e+000 1.265751e+000 1.297720e+000 1.271118e+000 1.185561e+000 1.103128e+000 2.071454e-001
<GCONST> 7.452927e+001
<TRANSP> 5
 0.000000e+000 1.000000e+000 0.000000e+000 0.000000e+000 0.000000e+000
 0.000000e+000 7.474077e-001 2.525924e-001 0.000000e+000 0.000000e+000
 0.000000e+000 0.000000e+000 8.328515e-001 1.671486e-001 0.000000e+000
 0.000000e+000 0.000000e+000 0.000000e+000 9.509417e-001 4.905836e-002
 0.000000e+000 0.000000e+000 0.000000e+000 0.000000e+000 0.000000e+000
<ENDHMM>
~h "t"
<BEGINHMM>
<NUMSTATES> 5
<STATE> 2
<MEAN> 25
 -2.904689e+000 3.199972e+000 -7.794212e-001 4.249458e+000 2.221784e+000 3.321062e+000 3.203320e+000 1.419654e+000 3.472652e+000 3.760109e+000 4.808763e-001 1.581784e+000 -3.045210e-001 -5.300463e-001 -2.073216e-001 -1.248529e-001 2.074816e-001 2.007999e-001 1.431229e-001 4.088674e-001 3.256815e-001 4.272111e-001 3.181807e-001 2.416976e-001 2.020966e-001
<VARIANCE> 25
 3.550362e+001 3.175731e+001 7.174089e+001 3.110462e+001 3.417717e+001 3.373504e+001 4.740854e+001 4.569855e+001 3.380777e+001 3.321462e+001 3.503744e+001 2.475193e+001 1.477691e+000 2.726152e+000 3.111987e+000 4.579996e+000 3.002386e+000 3.981812e+000 3.739910e+000 3.872051e+000 2.990433e+000 3.090013e+000 2.919739e+000 2.081053e+000 4.104662e+000
<GCONST> 1.038495e+002
<STATE> 3
<MEAN> 25
 -6.919464e-001 -1.656293e+000 1.508227e+000 -1.294333e-001 1.108502e+000 7.973674e-001 5.817210e-001 1.291991e+000 2.845661e+000 3.460736e+000 1.141587e+000 1.179022e+000 1.738002e+000 -1.852774e+000 1.458300e+000 -3.124624e+000 -7.285280e-001 -2.109316e+000 -2.213450e+000 -1.267938e+000 -6.016682e-001 -1.323894e+000 -1.468770e-001 -3.743148e-001 4.873738e+000
<VARIANCE> 25
 4.390914e+001 6.454000e+001 4.400284e+001 6.454448e+001 2.680312e+001 4.623434e+001 4.290712e+001 5.297403e+001 3.484376e+001 2.916092e+001 3.584217e+001 2.310339e+001 4.873619e+000 8.764972e+000 7.364649e+000 8.156305e+000 3.415470e+000 9.734731e+000 6.658227e+000 7.167467e+000 5.398388e+000 5.984064e+000 4.663219e+000 3.771135e+000 6.348781e+000
<GCONST> 1.137519e+002
<STATE> 4
<MEAN> 25
 5.103860e+000 -7.808208e+000 6.901130e+000 -1.002463e+001 4.048871e-001 -1.483502e+000 -7.469096e+000 -9.709880e-001 1.906316e+000 2.300749e+000 -3.106337e-001 -1.439958e+000 7.063607e-001 2.060967e-001 8.229490e-001 -9.080631e-001 -3.937521e-001 -1.255083e+000 -9.766121e-001 -6.630591e-001 -8.767637e-001 -1.538785e+000 -4.830982e-001 -4.625457e-001 9.991646e-001
<VARIANCE> 25
 6.377737e+001 1.474564e+002 9.188107e+001 1.357568e+002 5.248837e+001 9.511674e+001 7.950169e+001 7.559303e+001 5.146108e+001 9.177433e+001 5.587213e+001 4.581189e+001 3.224229e+000 4.207608e+000 9.554138e+000 7.762536e+000 4.479828e+000 7.094484e+000 5.857148e+000 7.876500e+000 5.172843e+000 4.965375e+000 4.583587e+000 3.147407e+000 4.789563e+000
<GCONST> 1.197376e+002
<TRANSP> 5
 0.000000e+000 1.000000e+000 0.000000e+000 0.000000e+000 0.000000e+000
 0.000000e+000 7.352638e-001 2.647362e-001 0.000000e+000 0.000000e+000
 0.000000e+000 0.000000e+000 5.736676e-001 4.263323e-001 0.000000e+000
 0.000000e+000 0.000000e+000 0.000000e+000 5.181313e-001 4.818687e-001
 0.000000e+000 0.000000e+000 0.000000e+000 0.000000e+000 0.000000e+000
<ENDHMM>
~h "aa"
<BEGINHMM>
<NUMSTATES> 5
<STATE> 2
<MEAN> 25
 6.061337e+000 -6.328031e+000 -3.440344e+000 -4.628168e+000 5.912865e-001 -2.253974e+000 -1.321238e+000 -3.125602e+000 -3.606670e+000 -4.215074e+000 -1.425810e+000 -2.758986e+000 1.867354e-002 3.314134e-001 -9.802108e-002 4.526731e-001 2.668881e-001 2.053652e-001 1.480460e-001 7.599107e-002 8.202437e-003 7.537709e-002 -8.284371e-003 1.395415e-001 -3.972046e-001
<VARIANCE> 25
 4.816698e+001 9.953302e+001 5.603842e+001 8.690418e+001 6.816100e+001 7.217297e+001 7.861717e+001 7.176125e+001 5.585284e+001 7.865013e+001 7.064603e+001 4.501322e+001 2.709391e+000 6.442624e+000 3.196121e+000 6.000365e+000 3.690218e+000 4.956984e+000 4.868589e+000 5.117494e+000 4.599945e+000 5.217625e+000 4.282986e+000 3.181689e+000 6.684937e+000
<GCONST> 1.161295e+002
<STATE> 3
<MEAN> 25
 6.156810e+000 -7.463041e+000 -4.110313e+000 -4.732381e+000 2.378042e+000 -1.010516e+000 -8.685397e-001 -2.175433e+000 -3.775897e+000 -3.963358e+000 -1.742080e+000 -3.456976e+000 -3.726145e-001 4.889132e-001 -1.332118e-002 3.737031e-001 -3.803973e-002 1.485352e-001 3.020213e-001 9.923773e-002 2.642066e-001 2.184264e-001 4.045515e-002 1.424065e-001 -6.899215e-001
<VARIANCE> 25
 4.339739e+001 1.159859e+002 4.353101e+001 9.178309e+001 4.295568e+001 6.759508e+001 5.726874e+001 6.674950e+001 4.904373e+001 8.177996e+001 6.723909e+001 3.764762e+001 4.952668e-001 1.309283e+000 1.112021e+000 1.386889e+000 1.496049e+000 1.763965e+000 1.866512e+000 1.906559e+000 2.123253e+000 1.944986e+000 2.039043e+000 1.646187e+000 6.105924e-001
<GCONST> 9.949502e+001
<STATE> 4
<MEAN> 25
 -5.443483e+000 2.908406e+000 -4.079441e+000 5.350830e+000 2.929879e+000 8.765554e-001 4.137537e+000 1.816785e+000 2.685263e+000 1.382205e+000 -4.155793e-001 2.038666e+000 -1.699574e-001 6.803118e-002 8.917234e-002 1.991483e-002 -8.596079e-002 -3.239927e-002 1.308348e-002 2.939956e-002 7.833573e-002 9.435304e-002 3.990858e-002 3.547806e-002 -1.632311e-001
<VARIANCE> 25
 3.386702e+001 2.798602e+001 1.726616e+001 2.825420e+001 1.703159e+001 2.849326e+001 2.252108e+001 2.152796e+001 2.661812e+001 2.802663e+001 1.922595e+001 2.034305e+001 2.504662e-001 4.272907e-001 5.794659e-001 7.289839e-001 9.320627e-001 1.035656e+000 1.166749e+000 1.285353e+000 1.344528e+000 1.344582e+000 1.247831e+000 1.119458e+000 1.393552e-001
<GCONST> 8.017246e+001
<TRANSP> 5
 0.000000e+000 1.000000e+000 0.000000e+000 0.000000e+000 0.000000e+000
 0.000000e+000 8.401286e-001 1.598714e-001 0.000000e+000 0.000000e+000
 0.000000e+000 0.000000e+000 8.162150e-001 1.837850e-001 0.000000e+000
 0.000000e+000 0.000000e+000 0.000000e+000 8.828045e-001 1.171955e-001
 0.000000e+000 0.000000e+000 0.000000e+000 0.000000e+000 0.000000e+000
<ENDHMM>
~h "eu"
<BEGINHMM>
<NUMSTATES> 5
<STATE> 2
<MEAN> 25
 -8.208114e+000 2.646664e+000 -2.917551e+000 3.140661e+000 1.547110e+000 4.683030e-001 5.350423e+000 2.105328e+000 3.629652e+000 2.987729e+000 9.202227e-003 2.125597e+000 5.845240e-001 -1.870405e-001 5.482464e-001 -6.007140e-001 -1.518117e-001 -5.582564e-001 -2.817900e-001 -2.962451e-001 -3.005726e-001 -3.466440e-001 7.002974e-002 -2.157022e-001 1.379413e+000
<VARIANCE> 25
 8.160812e+001 3.707599e+001 3.513489e+001 4.765952e+001 4.039826e+001 6.727168e+001 3.142524e+001 3.902282e+001 3.458587e+001 3.795829e+001 2.980210e+001 2.204666e+001 4.725062e+000 3.541584e+000 3.705300e+000 3.422884e+000 2.903659e+000 3.799460e+000 3.322649e+000 3.049475e+000 3.592804e+000 3.518977e+000 2.743856e+000 2.200524e+000 2.540653e+000
<GCONST> 1.054139e+002
<STATE> 3
<MEAN> 25
 1.234737e+000 -2.330752e+000 2.137524e+000 -2.678319e+000 1.520019e-001 -2.651090e+000 -1.331702e+000 -9.678103e-001 -3.676648e-001 -1.963235e+000 1.036798e+000 8.638351e-002 2.045577e+000 -2.467555e+000 8.217151e-001 -2.808334e+000 -7.380955e-001 -1.234331e+000 -1.982686e+000 -1.070456e+000 -1.284325e+000 -1.958631e+000 2.349344e-001 -9.436688e-001 3.684816e+000
<VARIANCE> 25
 7.714891e+001 9.592474e+001 7.710201e+001 8.896590e+001 6.567052e+001 9.081187e+001 7.159411e+001 5.193967e+001 6.181229e+001 8.022375e+001 4.586911e+001 3.501484e+001 7.401222e+000 8.690567e+000 9.979362e+000 6.947361e+000 6.143862e+000 1.203676e+001 8.068271e+000 6.671150e+000 6.677221e+000 1.098115e+001 7.048360e+000 4.091378e+000 7.576393e+000
<GCONST> 1.228681e+002
<STATE> 4
<MEAN> 25
 8.015447e+000 -1.064471e+001 7.516319e+000 -1.238606e+001 -1.817677e+000 1.409698e+000 -8.185149e+000 9.989087e-001 -9.752870e-001 -4.859686e-002 3.273840e+000 -3.870324e+000 4.207358e-001 4.073472e-001 -3.230862e-001 2.725533e-001 -1.208467e-001 1.873253e-004 1.587327e-001 -1.931915e-001 -3.579208e-001 -1.867241e-001 -2.003392e-001 -1.126378e-001 -2.116224e-001
<VARIANCE> 25
 8.971411e+001 1.177223e+002 1.125574e+002 9.363931e+001 1.021769e+002 7.909784e+001 8.824088e+001 7.529735e+001 8.299772e+001 9.194131e+001 8.099048e+001 4.157343e+001 2.287297e+000 3.801686e+000 2.443943e+000 4.007684e+000 3.452009e+000 3.132232e+000 3.928204e+000 3.762059e+000 3.635739e+000 3.002642e+000 2.948387e+000 2.215347e+000 2.953098e+000
<GCONST> 1.142038e+002
<TRANSP> 5
 0.000000e+000 1.000000e+000 0.000000e+000 0.000000e+000 0.000000e+000
 0.000000e+000 6.698729e-001 3.301272e-001 0.000000e+000 0.000000e+000
 0.000000e+000 0.000000e+000 6.184302e-001 3.815699e-001 0.000000e+000
 0.000000e+000 0.000000e+000 0.000000e+000 8.625726e-001 1.374274e-001
 0.000000e+000 0.000000e+000 0.000000e+000 0.000000e+000 0.000000e+000
<ENDHMM>
~h "hh"
<BEGINHMM>
<NUMSTATES> 5
<STATE> 2
<MEAN> 25
 -2.292792e-001 -2.867940e+000 -5.860656e+000 -3.152549e+000 1.840408e-001 3.260786e+000 5.907006e+000 -4.960634e-001 1.261342e+000 -7.593147e-001 -2.062624e+000 1.403514e+000 -7.104852e-001 2.316721e-001 -7.810956e-002 9.202019e-001 9.397480e-001 5.847799e-001 4.789755e-001 7.712129e-001 7.518801e-001 9.049708e-001 8.117950e-002 3.363599e-001 -7.617327e-001
<VARIANCE> 25
 3.719617e+001 7.103185e+001 5.929110e+001 8.682793e+001 1.029408e+002 7.083788e+001 9.682838e+001 7.882094e+001 7.504178e+001 7.043130e+001 6.670480e+001 4.306693e+001 9.747379e-001 2.565892e+000 3.226589e+000 3.957735e+000 3.691590e+000 4.830523e+000 4.387337e+000 4.523657e+000 3.985872e+000 3.672878e+000 3.785116e+000 3.446513e+000 7.679209e-001
<GCONST> 1.110640e+002
<STATE> 3
<MEAN> 25
 -1.161351e+000 -2.187504e+000 -4.739634e+000 2.304519e+000 6.780161e+000 6.175230e+000 4.765484e+000 3.656646e+000 3.304770e+000 3.601296e+000 7.560720e-001 1.309608e+000 -6.349014e-002 2.363089e-001 6.462169e-002 1.311031e-001 -2.841775e-001 -5.196023e-002 -3.609333e-002 1.870198e-001 1.045327e-001 2.447080e-001 1.311353e-001 7.169636e-002 -7.482715e-001
<VARIANCE> 25
 2.111373e+001 4.061696e+001 2.648908e+001 3.028783e+001 4.814193e+001 2.931419e+001 3.331147e+001 2.889976e+001 3.000211e+001 2.648886e+001 2.306358e+001 1.879995e+001 8.643107e-001 1.255154e+000 1.590026e+000 1.573079e+000 1.883557e+000 1.756050e+000 1.796787e+000 2.058527e+000 1.833551e+000 1.690119e+000 1.524044e+000 1.368039e+000 1.337088e+000
<GCONST> 9.191931e+001
<STATE> 4
<MEAN> 25
 -7.430651e+000 3.503089e+000 -5.703565e+000 5.250599e+000 2.213800e+000 -1.388109e+000 4.223986e+000 1.495066e+000 2.128908e+000 6.431813e-001 -1.502626e+000 2.240478e+000 -4.696255e-002 -1.081089e-002 5.926528e-003 3.180631e-003 -5.978967e-003 -2.636792e-002 -1.607827e-002 -5.896984e-003 4.595223e-003 5.005289e-003 8.881045e-004 1.949040e-002 -3.675582e-002
<VARIANCE> 25
 1.109202e+001 5.958147e+000 8.752951e+000 1.084404e+001 1.013916e+001 1.125741e+001 1.199060e+001 1.248110e+001 2.015189e+001 1.768458e+001 1.298015e+001 1.352290e+001 1.898192e-001 3.145474e-001 4.702727e-001 6.535443e-001 8.738677e-001 9.511515e-001 1.163393e+000 1.259174e+000 1.308303e+000 1.232688e+000 1.191768e+000 1.033013e+000 6.595774e-002
<GCONST> 6.964639e+001
<TRANSP> 5
 0.000000e+000 1.000000e+000 0.000000e+000 0.000000e+000 0.000000e+000
 0.000000e+000 8.222682e-001 1.777319e-001 0.000000e+000 0.000000e+000
 0.000000e+000 0.000000e+000 8.733360e-001 1.266641e-001 0.000000e+000
 0.000000e+000 0.000000e+000 0.000000e+000 9.526046e-001 4.739543e-002
 0.000000e+000 0.000000e+000 0.000000e+000 0.000000e+000 0.000000e+000
<ENDHMM>
~h "ih"
<BEGINHMM>
<NUMSTATES> 5
<STATE> 2
<MEAN> 25
 3.592819e+000 1.973168e+000 1.010084e+001 -2.654451e+000 -3.450622e+000 -6.050735e+000 -6.397247e+000 -5.059888e+000 -4.093889e+000 -5.369942e+000 -3.704570e+000 -3.261299e+000 -3.407114e-001 -1.273034e-001 1.857570e+000 -1.332304e+000 -3.329897e-001 -1.480969e+000 -8.035238e-001 -4.198687e-001 -3.760251e-001 -8.305732e-001 -3.929790e-001 -3.236652e-001 1.447945e+000
<VARIANCE> 25
 4.645947e+001 8.400278e+001 9.223759e+001 1.266524e+002 6.377188e+001 8.049190e+001 6.147594e+001 8.526054e+001 7.650161e+001 6.088623e+001 7.973139e+001 3.667173e+001 3.905126e+000 5.947824e+000 6.779218e+000 1.241749e+001 4.813237e+000 8.307621e+000 5.605701e+000 7.936996e+000 7.439758e+000 5.777689e+000 4.956628e+000 3.484469e+000 4.944568e+000
<GCONST> 1.203873e+002
<STATE> 3
<MEAN> 25
 2.875054e+000 -1.265888e+000 1.857457e+001 4.779761e+000 -4.062405e+000 -1.186361e+001 -8.100394e+000 1.706542e+000 -7.598058e+000 -1.100665e+001 -3.061607e+000 -2.607074e+000 -1.099623e-002 5.908304e-001 -5.727222e-001 -1.493752e-002 1.914639e-001 3.742286e-001 2.124505e-001 -3.195196e-001 2.271011e-002 7.521730e-002 -8.438364e-002 1.825446e-001 -5.044353e-001
<VARIANCE> 25
 1.662729e+001 4.572946e+001 9.007845e+001 1.013117e+002 5.089007e+001 9.646064e+001 5.656183e+001 9.883048e+001 6.714959e+001 4.665254e+001 8.076218e+001 3.546083e+001 6.138551e-001 1.842108e+000 3.831661e+000 2.731876e+000 2.754594e+000 4.668521e+000 3.451780e+000 3.848937e+000 3.495268e+000 2.865741e+000 2.957701e+000 2.415080e+000 1.004486e+000
<GCONST> 1.067236e+002
<STATE> 4
<MEAN> 25
 3.518414e+000 6.295258e+000 1.267374e+001 -1.115066e+001 -7.122442e+000 -5.505819e+000 -8.152779e+000 -8.624293e+000 -5.384133e+000 -6.320638e+000 -2.297436e+000 -9.728826e-001 1.236360e-001 3.132148e-002 -3.837211e-001 6.570808e-001 2.213739e-002 3.907529e-001 2.653363e-001 2.409958e-001 7.321763e-002 3.390154e-001 2.798947e-001 1.294505e-001 -5.786330e-001
<VARIANCE> 25
 3.626008e+001 4.046004e+001 7.938483e+001 1.280477e+002 7.147691e+001 8.849683e+001 4.313170e+001 5.653977e+001 5.247150e+001 4.556715e+001 1.304943e+002 5.807634e+001 6.456814e-001 9.841630e-001 1.194895e+000 2.973083e+000 1.640036e+000 2.177146e+000 1.879396e+000 2.199130e+000 1.880100e+000 1.810783e+000 2.262920e+000 1.877204e+000 7.658889e-001
<GCONST> 1.016395e+002
<TRANSP> 5
 0.000000e+000 1.000000e+000 0.000000e+000 0.000000e+000 0.000000e+000
 0.000000e+000 6.618793e-001 3.381207e-001 0.000000e+000 0.000000e+000
 0.000000e+000 0.000000e+000 8.410281e-001 1.589719e-001 0.000000e+000
 0.000000e+000 0.000000e+000 0.000000e+000 9.049628e-001 9.503724e-002
 0.000000e+000 0.000000e+000 0.000000e+000 0.000000e+000 0.000000e+000
<ENDHMM>
~h "jh"
<BEGINHMM>
<NUMSTATES> 5
<STATE> 2
<MEAN> 25
 5.253130e+000 5.193623e+000 6.518246e+000 -4.244050e+000 -2.680098e+000 -8.174829e+000 -5.809487e+000 -1.022029e+001 -5.986079e+000 -5.452364e+000 -1.274550e+001 -6.309876e+000 -6.191385e-001 3.452142e-001 1.014032e+000 1.778705e+000 1.967655e-001 7.111018e-001 -1.356857e-001 1.109280e+000 -1.691336e-001 -4.631808e-001 2.418084e-001 -7.880421e-001 -8.047237e-001
<VARIANCE> 25
 2.208755e+001 4.032436e+001 5.080692e+001 9.762035e+001 3.741902e+001 9.139368e+001 3.182777e+001 6.389296e+001 5.257311e+001 4.341003e+001 5.839114e+001 5.185131e+001 1.600048e+000 3.766359e+000 5.692864e+000 4.889747e+000 3.930403e+000 9.120687e+000 3.678536e+000 4.584850e+000 5.444846e+000 3.166173e+000 3.485023e+000 2.969677e+000 2.585282e+000
<GCONST> 1.104124e+002
<STATE> 3
<MEAN> 25
 -4.364069e-001 3.669322e+000 8.960004e+000 4.683840e+000 3.365364e+000 -7.532554e-001 -4.575167e+000 3.682578e-001 -2.124012e+000 -5.244370e+000 -3.100423e+000 -4.277800e+000 -1.095995e+000 -1.690506e+000 8.047888e-001 -1.321385e+000 7.474891e-002 2.048190e-001 8.028847e-002 1.593924e-001 7.690232e-001 6.305309e-001 6.652495e-001 5.547450e-001 1.679325e+000
<VARIANCE> 25
 5.548817e+001 9.589648e+001 7.684057e+001 8.101443e+001 4.316856e+001 6.639458e+001 6.456839e+001 5.158646e+001 4.091706e+001 4.293001e+001 4.413669e+001 3.479746e+001 5.236129e+000 1.056629e+001 7.477955e+000 9.904243e+000 6.061797e+000 7.286273e+000 6.381670e+000 5.536522e+000 4.921734e+000 4.130797e+000 5.104023e+000 3.571532e+000 6.719011e+000
<GCONST> 1.176335e+002
<STATE> 4
<MEAN> 25
 4.190792e-001 -1.076688e+001 1.661955e+001 -3.500507e+000 -2.600365e-001 -4.264515e+000 -1.040778e+001 -7.650212e-001 1.495836e-001 -3.024632e+000 7.716925e-001 -3.157002e+000 1.069719e+000 -4.540237e-001 -5.903748e-001 -2.081978e-001 -4.488759e-001 -9.058901e-001 -3.661126e-001 -7.394753e-001 -1.294478e-001 1.329796e-001 -1.986107e-002 -3.706454e-001 5.519680e-001
<VARIANCE> 25
 8.335810e+001 9.526015e+001 8.893969e+001 1.142701e+002 1.054609e+002 1.089381e+002 1.538768e+002 9.025974e+001 5.311369e+001 4.545647e+001 5.278131e+001 3.219629e+001 4.055580e+000 5.091343e+000 5.464098e+000 5.863523e+000 3.740117e+000 6.159723e+000 7.589110e+000 5.533921e+000 4.368762e+000 4.121296e+000 3.614835e+000 2.904334e+000 9.596227e-001
<GCONST> 1.168384e+002
<TRANSP> 5
 0.000000e+000 1.000000e+000 0.000000e+000 0.000000e+000 0.000000e+000
 0.000000e+000 8.274516e-001 1.725484e-001 0.000000e+000 0.000000e+000
 0.000000e+000 0.000000e+000 8.377486e-001 1.622513e-001 0.000000e+000
 0.000000e+000 0.000000e+000 0.000000e+000 8.579220e-001 1.420780e-001
 0.000000e+000 0.000000e+000 0.000000e+000 0.000000e+000 0.000000e+000
<ENDHMM>
~h "ng"
<BEGINHMM>
<NUMSTATES> 5
<STATE> 2
<MEAN> 25
 8.756510e+000 6.512890e+000 -4.037698e-002 2.894557e+000 -4.906297e+000 -4.201161e+000 -3.858690e+000 -1.153220e+001 -1.223931e+001 -3.158141e+000 -2.881679e+000 -1.261380e+000 -7.655971e-001 4.453408e-001 3.182639e-001 5.391981e-001 4.712631e-001 2.417242e-001 9.000332e-002 2.965863e-001 7.550347e-001 3.346395e-001 -1.029355e-001 1.958911e-001 -8.425279e-001
<VARIANCE> 25
 2.513382e+001 2.512522e+001 2.271548e+001 2.707573e+001 4.611576e+001 4.093218e+001 1.105812e+002 4.399907e+001 5.103665e+001 6.794880e+001 7.695347e+001 9.639066e+001 4.520737e-001 8.744296e-001 1.067735e+000 1.251908e+000 1.917673e+000 2.177982e+000 2.920937e+000 3.041624e+000 2.868584e+000 2.846242e+000 2.515123e+000 2.602984e+000 1.858828e-001
<GCONST> 9.718468e+001
<STATE> 3
<MEAN> 25
 -2.638472e+000 4.659286e+000 -1.600421e+000 6.769261e+000 4.343875e+000 3.685871e+000 4.084767e+000 -5.170228e-001 1.027872e+000 1.069170e+000 -2.793666e+000 1.156631e+000 -7.609534e-001 -6.172202e-001 -5.017461e-001 -8.181769e-002 2.373164e-001 4.315468e-001 6.827188e-001 8.161155e-001 8.267833e-001 6.751410e-001 5.499599e-001 4.201882e-001 -4.156848e-001
<VARIANCE> 25
 1.691652e+001 3.699696e+001 4.786847e+001 3.055284e+001 2.995123e+001 3.643763e+001 5.642999e+001 5.341883e+001 4.147697e+001 5.045045e+001 6.352141e+001 4.694205e+001 6.129516e-001 1.977089e+000 2.221808e+000 2.402985e+000 2.706847e+000 3.956806e+000 4.023082e+000 4.054400e+000 3.044115e+000 3.503057e+000 3.565388e+000 3.409806e+000 5.808622e-001
<GCONST> 1.016785e+002
<STATE> 4
<MEAN> 25
 -7.920132e+000 3.595706e+000 -5.222844e+000 5.705793e+000 1.972884e+000 -1.559516e+000 4.157182e+000 1.254337e+000 2.291976e+000 6.414589e-001 -1.253194e+000 2.710097e+000 -7.112323e-002 -3.492697e-002 -2.465577e-002 -1.561414e-002 -5.865000e-003 -6.975411e-003 1.220777e-002 5.337832e-002 4.355031e-002 3.259831e-002 3.290549e-002 1.735715e-002 -4.427012e-002
<VARIANCE> 25
 1.472864e+001 5.192716e+000 9.643470e+000 9.683741e+000 9.890943e+000 1.084416e+001 1.256436e+001 1.308819e+001 1.965693e+001 1.786540e+001 1.397953e+001 1.544777e+001 2.058297e-001 3.089197e-001 5.026355e-001 6.122417e-001 7.873956e-001 9.404474e-001 1.085006e+000 1.224337e+000 1.253284e+000 1.339170e+000 1.306047e+000 1.122428e+000 8.344012e-002
<GCONST> 7.030124e+001
<TRANSP> 5
 0.000000e+000 1.000000e+000 0.000000e+000 0.000000e+000 0.000000e+000
 0.000000e+000 9.064776e-001 9.352241e-002 0.000000e+000 0.000000e+000
 0.000000e+000 0.000000e+000 8.502557e-001 1.497443e-001 0.000000e+000
 0.000000e+000 0.000000e+000 0.000000e+000 9.529287e-001 4.707128e-002
 0.000000e+000 0.000000e+000 0.000000e+000 0.000000e+000 0.000000e+000
<ENDHMM>
~h "ny"
<BEGINHMM>
<NUMSTATES> 5
<STATE> 2
<MEAN> 25
 -9.329770e-001 3.672278e+000 3.247428e+000 2.394379e+000 8.906153e-001 1.652131e+000 1.090593e-001 -2.783045e+000 -5.229880e-001 1.231684e+000 -3.326889e-001 3.586636e-001 1.173886e+000 1.465661e-002 1.855734e+000 -1.071933e+000 -1.091144e+000 -5.831636e-001 -1.441650e+000 -1.190786e+000 -1.491359e+000 -1.356373e+000 -5.982372e-001 -8.877984e-001 1.918335e+000
<VARIANCE> 25
 8.329758e+001 6.540784e+001 9.352065e+001 5.703490e+001 5.164739e+001 6.239779e+001 6.253178e+001 5.537658e+001 6.755016e+001 5.022632e+001 5.354064e+001 3.448004e+001 6.086955e+000 7.807423e+000 9.456756e+000 5.750029e+000 5.388065e+000 8.542114e+000 6.365275e+000 7.371445e+000 7.290078e+000 5.591178e+000 6.186849e+000 3.318545e+000 4.697920e+000
<GCONST> 1.188215e+002
<STATE> 3
<MEAN> 25
 4.792632e+000 -2.436474e+000 6.163920e+000 -5.713717e+000 -5.020061e+000 -6.643792e+000 -3.063278e+000 -7.065788e+000 -9.082349e+000 -8.130980e+000 -5.675894e+000 -8.604343e+000 2.775711e-001 -1.838005e+000 -7.629747e-001 -4.774979e-001 1.463457e-001 -6.734778e-001 1.429503e-001 6.020492e-001 -1.096090e-002 -2.491002e-002 3.961876e-001 -5.178737e-001 1.321083e+000
<VARIANCE> 25
 1.882775e+001 8.284528e+001 8.518211e+001 8.849786e+001 3.066416e+001 7.599879e+001 5.300890e+001 5.710465e+001 3.592697e+001 3.351823e+001 4.815412e+001 3.449004e+001 1.597259e+000 5.499124e+000 5.079050e+000 8.853166e+000 2.969324e+000 7.163810e+000 5.025594e+000 2.930668e+000 3.098277e+000 2.646671e+000 3.050122e+000 2.560969e+000 5.050208e+000
<GCONST> 1.100099e+002
<STATE> 4
<MEAN> 25
 7.656731e+000 -1.047178e+001 1.311625e+000 -7.106097e+000 -2.348696e+000 -3.174356e+000 -2.705703e+000 -7.799810e-001 -7.994164e+000 -6.823436e+000 2.327069e+000 -7.222498e+000 7.549196e-002 1.747884e-001 -1.336108e-001 -7.685857e-002 -6.841777e-002 9.745561e-002 1.119790e-001 3.581996e-002 3.523354e-003 -8.209374e-002 3.031766e-002 1.536489e-001 -1.494495e-001
<VARIANCE> 25
 1.776491e+001 7.674120e+001 1.250745e+002 5.940156e+001 1.110666e+002 5.215337e+001 6.523938e+001 6.386644e+001 5.244428e+001 6.887476e+001 6.712646e+001 3.366322e+001 1.907504e-001 9.121417e-001 8.385007e-001 1.164781e+000 1.342131e+000 1.602794e+000 1.582850e+000 1.157313e+000 1.268725e+000 1.194656e+000 1.263429e+000 1.073822e+000 2.638108e-001
<GCONST> 9.397940e+001
<TRANSP> 5
 0.000000e+000 1.000000e+000 0.000000e+000 0.000000e+000 0.000000e+000
 0.000000e+000 7.764744e-001 2.235256e-001 0.000000e+000 0.000000e+000
 0.000000e+000 0.000000e+000 8.161126e-001 1.838874e-001 0.000000e+000
 0.000000e+000 0.000000e+000 0.000000e+000 9.234261e-001 7.657392e-002
 0.000000e+000 0.000000e+000 0.000000e+000 0.000000e+000 0.000000e+000
<ENDHMM>
~h "sp"
<BEGINHMM>
<NUMSTATES> 3
<STATE> 2
~s "silst"
<TRANSP> 3
 0.000000e+000 5.153867e-001 4.846134e-001
 0.000000e+000 9.806807e-001 1.931933e-002
 0.000000e+000 0.000000e+000 0.000000e+000
<ENDHMM>
~h "uw"
<BEGINHMM>
<NUMSTATES> 5
<STATE> 2
<MEAN> 25
 8.548367e+000 7.089625e-001 1.757088e-001 -7.318527e+000 -2.200376e+000 -3.828762e+000 -6.080046e+000 -3.709152e+000 -1.864833e+000 -4.039890e+000 -2.429917e+000 -2.718028e+000 6.265408e-001 8.480955e-001 2.137782e-001 -4.142361e-001 -6.385805e-001 -6.811233e-001 -6.270540e-002 -4.631376e-001 -6.811125e-001 -4.249314e-001 -2.769346e-001 -1.751533e-001 6.986921e-002
<VARIANCE> 25
 4.010978e+001 7.772868e+001 9.826881e+001 1.015541e+002 6.377631e+001 9.562034e+001 8.886914e+001 8.620013e+001 7.139924e+001 7.177977e+001 8.041373e+001 4.657037e+001 2.179603e+000 6.125565e+000 6.548376e+000 8.921421e+000 6.209138e+000 6.793089e+000 7.131688e+000 6.946121e+000 6.076901e+000 5.724008e+000 6.206098e+000 4.431258e+000 3.576834e+000
<GCONST> 1.200715e+002
<STATE> 3
<MEAN> 25
 8.496470e+000 7.756617e+000 8.449239e+000 -8.455242e+000 -1.179920e+001 -7.534808e+000 -4.665587e+000 -4.077395e+000 -4.124799e+000 -3.669195e+000 -4.484498e+000 -6.510260e+000 -2.834178e-002 -1.197295e-002 -3.912390e-001 -1.561087e-002 1.215876e-001 2.962683e-001 2.625919e-001 -2.465730e-001 -1.272339e-001 -9.934581e-002 -5.773591e-002 1.950985e-001 -1.773013e-001
<VARIANCE> 25
 1.443162e+001 5.107547e+001 9.858232e+001 7.401334e+001 8.848425e+001 9.987106e+001 6.615092e+001 8.478065e+001 6.841577e+001 6.605632e+001 9.108259e+001 5.058490e+001 4.579915e-001 1.741253e+000 2.598253e+000 2.353984e+000 3.652314e+000 3.610726e+000 3.372494e+000 4.084188e+000 3.304243e+000 3.696558e+000 3.345671e+000 3.079174e+000 6.433006e-001
<GCONST> 1.071955e+002
<STATE> 4
<MEAN> 25
 1.184521e+001 4.745869e+000 -3.465193e+000 -1.227618e+001 -5.069162e+000 -3.744083e+000 -3.567795e+000 -1.080105e+001 -8.455417e+000 -6.181862e+000 -1.085217e-001 2.203226e+000 -2.887833e-001 5.918010e-002 5.805125e-002 5.429069e-001 9.416915e-002 2.958870e-001 8.806670e-002 2.143472e-001 1.251952e-001 3.610401e-001 2.322745e-001 1.741942e-001 -4.600661e-001
<VARIANCE> 25
 3.435882e+001 3.416701e+001 6.156165e+001 1.100649e+002 5.151618e+001 9.002809e+001 4.184630e+001 6.008910e+001 5.196984e+001 4.642191e+001 1.350126e+002 5.898811e+001 5.471343e-001 8.146495e-001 1.205642e+000 1.815813e+000 1.471182e+000 1.507479e+000 1.785195e+000 2.193149e+000 2.153752e+000 2.001670e+000 2.456221e+000 1.978443e+000 4.447437e-001
<GCONST> 9.924787e+001
<TRANSP> 5
 0.000000e+000 1.000000e+000 0.000000e+000 0.000000e+000 0.000000e+000
 0.000000e+000 8.098646e-001 1.901354e-001 0.000000e+000 0.000000e+000
 0.000000e+000 0.000000e+000 8.602940e-001 1.397060e-001 0.000000e+000
 0.000000e+000 0.000000e+000 0.000000e+000 8.862138e-001 1.137862e-001
 0.000000e+000 0.000000e+000 0.000000e+000 0.000000e+000 0.000000e+000
<ENDHMM>
~h "sil"
<BEGINHMM>
<NUMSTATES> 5
<STATE> 2
<MEAN> 25
 -1.062072e+001 3.171766e+000 -5.995324e+000 4.798072e+000 2.517481e+000 -1.297731e+000 4.428030e+000 2.163175e+000 4.003236e+000 1.533999e+000 -9.192535e-001 4.373373e+000 -1.394946e-002 -2.687202e-003 -1.553755e-003 -3.058682e-003 -4.651812e-003 -1.583466e-003 -1.601611e-003 2.196087e-003 3.223220e-003 4.452801e-003 1.734817e-003 -1.461992e-003 -1.004642e-002
<VARIANCE> 25
 3.563041e+001 8.059480e+000 1.021712e+001 1.095034e+001 1.069346e+001 1.071415e+001 1.138958e+001 1.158926e+001 1.999956e+001 1.939407e+001 1.289662e+001 1.531566e+001 9.886917e-002 1.960249e-001 3.033749e-001 4.544513e-001 5.664795e-001 6.416723e-001 8.224413e-001 9.663714e-001 1.025490e+000 9.649767e-001 9.038429e-001 8.626052e-001 3.309227e-002
<GCONST> 6.636047e+001
<STATE> 3
~s "silst"
<STATE> 4
<MEAN> 25
 6.801469e+000 -2.621455e+000 3.327186e+000 -3.772892e+000 -1.729624e+000 1.224280e+000 -3.298674e+000 -1.355276e+000 -8.734605e-001 2.226350e-001 3.511246e-001 -2.147482e+000 8.195761e-002 7.184343e-004 3.967332e-002 -1.048450e-002 -2.506012e-003 -8.621838e-004 -2.668088e-002 -2.188781e-002 -2.740185e-002 -2.669770e-002 -1.343229e-002 -3.446719e-002 8.189348e-002
<VARIANCE> 25
 1.232058e+002 1.434561e+002 1.033466e+002 1.223713e+002 7.201140e+001 5.764787e+001 8.284662e+001 7.591261e+001 7.822863e+001 6.562276e+001 7.328992e+001 4.587165e+001 2.112312e+000 3.289817e+000 2.662222e+000 3.103210e+000 2.401467e+000 2.527619e+000 3.299492e+000 2.941956e+000 2.944196e+000 2.545492e+000 2.745490e+000 2.164562e+000 2.888274e+000
<GCONST> 1.118969e+002
<TRANSP> 5
 0.000000e+000 1.000000e+000 0.000000e+000 0.000000e+000 0.000000e+000
 0.000000e+000 9.633730e-001 7.512366e-003 2.911471e-002 0.000000e+000
 0.000000e+000 0.000000e+000 9.736144e-001 2.638562e-002 0.000000e+000
 0.000000e+000 3.866933e-002 0.000000e+000 9.442182e-001 1.711249e-002
 0.000000e+000 0.000000e+000 0.000000e+000 0.000000e+000 0.000000e+000
<ENDHMM>
