~o
<STREAMINFO> 1 25
<VECSIZE> 25<NULLD><MFCC_D_N_Z_0><DIAGC>
~s "silst"
<MEAN> 25
 -2.610847e+000 1.865186e+000 -6.628237e+000 9.832024e-001 -3.081664e+000 5.280564e+000 -9.690374e-002 9.816989e-001 2.399869e+000 3.601529e+000 4.494103e-001 1.444135e+000 -2.550071e-002 -6.184154e-003 -1.098043e-002 -1.164276e-002 -1.276135e-002 -5.314728e-003 3.939907e-004 1.669336e-002 1.257208e-002 1.709883e-002 9.143002e-003 2.510727e-002 -2.449096e-002
<VARIANCE> 25
 7.491879e+001 8.023956e+000 2.148075e+001 1.155999e+001 2.978221e+001 2.416793e+001 1.767982e+001 7.090484e+000 1.367954e+001 5.045693e+000 5.749876e+000 1.186230e+001 1.273142e-001 9.386901e-002 1.488634e-001 1.979498e-001 2.327509e-001 2.678087e-001 3.124025e-001 3.090721e-001 3.557221e-001 3.204136e-001 3.143565e-001 3.036108e-001 1.566331e-001
<GCONST> 5.828840e+001
~h "b"
<BEGINHMM>
<NUMSTATES> 5
<STATE> 2
<MEAN> 25
 1.119307e+000 1.340520e-001 -1.817203e+000 1.523421e+000 -3.242996e-002 3.840839e-002 2.344747e+000 4.699347e-001 -7.969249e-001 -2.653081e-001 7.740945e-001 5.507452e-002 -5.222504e-002 2.388170e-001 8.113761e-002 2.349649e-001 2.398894e-001 2.496535e-001 3.073008e-001 1.756628e-001 3.368571e-001 1.914925e-001 -5.677634e-002 -3.961299e-002 -3.191921e-001
<VARIANCE> 25
 5.913361e+001 5.411041e+001 4.348596e+001 4.021707e+001 3.923325e+001 4.402120e+001 4.686749e+001 4.585355e+001 4.961841e+001 4.797001e+001 5.238111e+001 2.670959e+001 7.731459e-001 1.631246e+000 1.751238e+000 1.686775e+000 1.889266e+000 2.081323e+000 2.641334e+000 2.664663e+000 2.646135e+000 2.369386e+000 2.598564e+000 1.975840e+000 8.508937e-001
<GCONST> 9.957593e+001
<STATE> 3
<MEAN> 25
 5.343062e+000 3.656507e+000 2.372489e+000 1.820449e+000 1.893668e+000 -1.098221e+000 -3.898467e-001 -6.733318e-001 -4.085520e-001 -3.308427e+000 -3.144870e+000 -1.625793e+000 7.765075e-001 -1.876762e-001 -1.223596e-001 -3.045854e-001 -1.034391e-001 -6.710162e-001 -1.709490e-001 1.606106e-001 -2.551128e-001 -4.645290e-001 4.339555e-003 6.902363e-003 1.060039e+000
<VARIANCE> 25
 5.980033e+001 8.153958e+001 5.550734e+001 6.045201e+001 4.536500e+001 6.829782e+001 6.168989e+001 4.823522e+001 5.511581e+001 4.764894e+001 5.087192e+001 3.087596e+001 2.998251e+000 7.078103e+000 4.874091e+000 4.662786e+000 3.144504e+000 4.801504e+000 5.413940e+000 3.886453e+000 4.405304e+000 3.936954e+000 4.429260e+000 2.870388e+000 5.020904e+000
<GCONST> 1.127760e+002
<STATE> 4
<MEAN> 25
 9.255700e+000 -5.665211e+000 -1.185226e+000 -3.248977e+000 -1.158245e+000 -6.784776e+000 -2.506670e+000 -4.356446e-001 -2.450103e+000 -5.941428e+000 5.516482e-002 -2.303323e-001 -6.045664e-002 3.077960e-002 1.265387e-002 1.035697e-001 -1.630519e-002 1.419596e-001 1.137632e-001 -4.614370e-002 -1.981837e-003 8.712787e-002 2.990055e-002 -6.757557e-002 -1.431209e-001
<VARIANCE> 25
 5.664590e+001 1.234426e+002 7.857047e+001 8.172089e+001 4.662173e+001 8.485315e+001 7.200801e+001 6.987300e+001 4.625013e+001 6.159726e+001 5.814233e+001 3.501027e+001 2.109171e-001 4.906274e-001 6.592169e-001 7.098120e-001 7.544746e-001 8.187081e-001 9.741706e-001 9.336031e-001 1.030304e+000 9.136026e-001 9.364573e-001 8.017219e-001 1.850149e-001
<GCONST> 9.030757e+001
<TRANSP> 5
 0.000000e+000 1.000000e+000 0.000000e+000 0.000000e+000 0.000000e+000
 0.000000e+000 6.384880e-001 3.615120e-001 0.000000e+000 0.000000e+000
 0.000000e+000 0.000000e+000 7.016825e-001 2.983175e-001 0.000000e+000
 0.000000e+000 0.000000e+000 0.000000e+000 8.518134e-001 1.481866e-001
 0.000000e+000 0.000000e+000 0.000000e+000 0.000000e+000 0.000000e+000
<ENDHMM>
~h "d"
<BEGINHMM>
<NUMSTATES> 5
<STATE> 2
<MEAN> 25
 5.684395e-001 4.259614e+000 3.375066e+000 5.189262e+000 4.076475e+000 1.163262e+000 1.250803e+000 -2.188118e+000 5.499815e-001 5.334594e-001 -9.887776e-001 -1.938560e-002 1.370233e+000 -1.054353e+000 6.401578e-001 -4.313679e-001 -1.388870e-001 -7.582158e-001 -1.343197e+000 -3.808758e-001 -9.423590e-001 -7.745991e-001 1.703764e-001 -5.478148e-001 2.510579e+000
<VARIANCE> 25
 5.520351e+001 6.398524e+001 4.510378e+001 4.052576e+001 5.190731e+001 4.326147e+001 3.862890e+001 3.662746e+001 3.712462e+001 3.081406e+001 3.020001e+001 2.723278e+001 4.247083e+000 1.114881e+001 5.897539e+000 6.193975e+000 4.122476e+000 5.700072e+000 6.174044e+000 4.976637e+000 5.253264e+000 5.088306e+000 4.297150e+000 3.052744e+000 5.250947e+000
<GCONST> 1.119095e+002
<STATE> 3
<MEAN> 25
 6.970736e+000 -3.856060e+000 7.081220e+000 -3.235209e+000 -4.332278e+000 -3.683810e+000 -7.340789e+000 -1.442236e+000 -3.284390e+000 -2.640227e+000 9.585730e-001 -3.824129e+000 3.214855e-001 -1.603570e+000 -4.626610e-001 -1.541604e+000 -2.526913e-001 -7.105122e-001 -6.487499e-001 7.202905e-001 -3.774690e-002 -2.284371e-001 1.860232e-001 -3.561492e-002 1.828022e+000
<VARIANCE> 25
 3.105820e+001 9.411698e+001 9.747682e+001 1.000291e+002 1.035332e+002 7.370984e+001 8.410523e+001 8.464760e+001 7.804881e+001 6.969731e+001 7.944408e+001 4.511981e+001 1.727669e+000 5.972650e+000 3.404936e+000 5.901158e+000 5.745325e+000 5.750993e+000 9.441280e+000 5.671280e+000 5.388525e+000 5.877930e+000 5.663076e+000 4.512385e+000 4.977463e+000
<GCONST> 1.188227e+002
<STATE> 4
<MEAN> 25
 9.709803e+000 -1.361188e+001 3.672071e+000 -1.069741e+001 -4.202820e-001 -1.303138e+000 -7.813637e+000 6.927392e-001 -2.848253e+000 -6.726509e-001 2.779252e+000 -4.178754e+000 2.327795e-002 1.412988e-002 -2.436644e-001 -3.203634e-002 2.062357e-002 1.917903e-001 3.630320e-001 1.391222e-002 -4.683316e-002 -1.176486e-002 -9.933756e-002 7.175428e-002 -1.483852e-001
<VARIANCE> 25
 2.226098e+001 6.872569e+001 4.889402e+001 9.440029e+001 4.579386e+001 7.640791e+001 9.855811e+001 7.344414e+001 6.140330e+001 8.265261e+001 8.712332e+001 5.804671e+001 2.471960e-001 9.227255e-001 8.158066e-001 1.465750e+000 1.654588e+000 1.360776e+000 1.714439e+000 1.711370e+000 1.435404e+000 1.492479e+000 1.615953e+000 1.436964e+000 3.942729e-001
<GCONST> 9.708759e+001
<TRANSP> 5
 0.000000e+000 1.000000e+000 0.000000e+000 0.000000e+000 0.000000e+000
 0.000000e+000 7.407430e-001 2.592570e-001 0.000000e+000 0.000000e+000
 0.000000e+000 0.000000e+000 7.369197e-001 2.630802e-001 0.000000e+000
 0.000000e+000 0.000000e+000 0.000000e+000 9.086261e-001 9.137379e-002
 0.000000e+000 0.000000e+000 0.000000e+000 0.000000e+000 0.000000e+000
<ENDHMM>
~h "g"
<BEGINHMM>
<NUMSTATES> 5
<STATE> 2
<MEAN> 25
 -2.767089e+000 5.261319e+000 4.126892e+000 5.321725e+000 3.127400e+000 2.513860e+000 2.799622e+000 -5.255306e-001 1.258270e+000 1.326284e+000 -4.747587e-001 -2.079463e-001 2.251999e-001 2.746070e-002 2.635455e-001 3.389534e-001 2.319709e-001 1.880255e-001 1.458607e-001 -1.399938e-001 -1.633791e-001 -1.758334e-002 -3.949344e-002 -2.373457e-001 2.982777e-001
<VARIANCE> 25
 3.670803e+001 3.582555e+001 5.408479e+001 2.941867e+001 3.248225e+001 2.480020e+001 1.906444e+001 2.384791e+001 2.254379e+001 2.057364e+001 2.217833e+001 1.635456e+001 1.673086e+000 2.703416e+000 2.226158e+000 2.030933e+000 1.715637e+000 1.540630e+000 1.858004e+000 1.711731e+000 1.888771e+000 1.895087e+000 1.557524e+000 1.470092e+000 1.309371e+000
<GCONST> 9.286503e+001
<STATE> 3
<MEAN> 25
 4.227166e-001 1.242436e+000 8.681963e+000 1.891234e+000 7.496271e-001 3.688416e-001 -1.317871e+000 -1.156726e+000 1.265574e-001 -9.403051e-001 -3.653282e-001 -1.788955e+000 5.514776e-001 -8.003987e-001 9.349215e-001 -1.092003e+000 -3.343185e-001 -6.975052e-001 -1.263529e+000 -5.201894e-002 -5.295915e-001 -8.778624e-001 -5.672531e-002 -3.450449e-001 2.298837e+000
<VARIANCE> 25
 6.933548e+001 1.552684e+002 1.013276e+002 6.974068e+001 7.892583e+001 5.961807e+001 6.555871e+001 4.956989e+001 5.134264e+001 4.534627e+001 3.991779e+001 2.747425e+001 7.252182e+000 1.181769e+001 6.893117e+000 6.971202e+000 6.289284e+000 5.678915e+000 5.717957e+000 6.156158e+000 5.335816e+000 5.404278e+000 4.307181e+000 2.826012e+000 3.622702e+000
<GCONST> 1.179978e+002
<STATE> 4
<MEAN> 25
 4.376041e+000 -3.841366e+000 1.647694e+001 5.519542e-001 -1.183164e+000 -1.750571e+000 -1.034257e+001 -1.966824e-001 3.312700e-001 -7.043180e+000 1.764482e-001 -3.650728e+000 1.612865e-001 1.382715e-001 -1.413749e-001 -5.102756e-002 -1.583058e-001 -8.303069e-002 -1.230397e-001 -1.149535e-002 -5.541342e-002 -5.905600e-002 -5.464567e-002 1.266320e-002 -7.564643e-002
<VARIANCE> 25
 3.186900e+001 9.586993e+001 1.525390e+002 1.417106e+002 1.223100e+002 4.584251e+001 4.999149e+001 6.833672e+001 4.833582e+001 5.690211e+001 5.562016e+001 2.565557e+001 4.297697e-001 8.439751e-001 1.048680e+000 1.061892e+000 1.440112e+000 1.416920e+000 2.166167e+000 1.396931e+000 1.300280e+000 1.623480e+000 1.672284e+000 1.093187e+000 4.726995e-001
<GCONST> 9.741868e+001
<TRANSP> 5
 0.000000e+000 1.000000e+000 0.000000e+000 0.000000e+000 0.000000e+000
 0.000000e+000 7.864199e-001 2.135800e-001 0.000000e+000 0.000000e+000
 0.000000e+000 0.000000e+000 7.974554e-001 2.025446e-001 0.000000e+000
 0.000000e+000 0.000000e+000 0.000000e+000 8.655040e-001 1.344961e-001
 0.000000e+000 0.000000e+000 0.000000e+000 0.000000e+000 0.000000e+000
<ENDHMM>
~h "k"
<BEGINHMM>
<NUMSTATES> 5
<STATE> 2
<MEAN> 25
 2.536661e-001 7.188139e-001 -1.626905e+000 -4.460036e-001 5.987127e-001 -4.855148e-001 9.743408e-001 1.092418e-001 3.621130e-001 6.865898e-001 2.583448e-002 1.674760e-001 1.824823e+000 -6.340125e-001 -1.474452e-001 -1.142867e+000 -5.331697e-001 -6.930096e-001 -7.581469e-001 -3.066269e-002 -7.269135e-001 -5.894592e-001 1.507344e-001 -3.328923e-001 2.406820e+000
<VARIANCE> 25
 7.045113e+001 6.185026e+001 6.888739e+001 8.215748e+001 5.355294e+001 5.127491e+001 5.994094e+001 5.285719e+001 5.210586e+001 4.809949e+001 3.805340e+001 3.159652e+001 4.595927e+000 7.811609e+000 7.035643e+000 8.945029e+000 5.612807e+000 6.212730e+000 7.006717e+000 7.309026e+000 5.134318e+000 5.987364e+000 4.312112e+000 3.364425e+000 5.542831e+000
<GCONST> 1.168884e+002
<STATE> 3
<MEAN> 25
 9.451165e+000 -6.790455e+000 -2.856411e+000 -6.226151e+000 5.024574e-002 -2.841169e+000 -4.681913e+000 2.545096e-001 -2.431621e+000 -3.436982e+000 1.866023e+000 -1.661016e+000 1.894447e-001 -1.029439e+000 -3.916567e-001 -3.254950e-001 3.306849e-001 -1.226576e-001 3.385062e-002 2.435662e-001 1.360798e-002 5.926677e-002 8.202668e-002 -1.822260e-001 7.428526e-001
<VARIANCE> 25
 7.120938e+001 1.128522e+002 7.911823e+001 1.159704e+002 8.054477e+001 8.051950e+001 6.485170e+001 8.048314e+001 7.260510e+001 9.790870e+001 7.034332e+001 4.648167e+001 1.845531e+000 4.107349e+000 3.149824e+000 4.798092e+000 4.082664e+000 3.849585e+000 4.504293e+000 5.474287e+000 4.068070e+000 4.793400e+000 3.842555e+000 3.302253e+000 2.851515e+000
<GCONST> 1.156218e+002
<STATE> 4
<MEAN> 25
 1.153173e+001 -1.171342e+001 -1.515561e+000 -8.156813e+000 4.094866e-001 -2.874510e+000 -3.165641e+000 9.002873e-001 -2.756612e+000 -2.235294e+000 3.637389e-001 -2.276005e+000 -7.454371e-002 1.687669e-001 5.599376e-002 1.440578e-001 1.829147e-002 9.148366e-002 5.074859e-002 -8.972406e-002 1.976351e-002 3.752426e-002 -7.670704e-002 -3.993201e-002 -1.921473e-001
<VARIANCE> 25
 5.232547e+001 1.335529e+002 9.562048e+001 1.340159e+002 8.494937e+001 1.063034e+002 6.856964e+001 8.278761e+001 6.063738e+001 8.423949e+001 5.201809e+001 3.954943e+001 2.806943e-001 8.199430e-001 9.269020e-001 1.212824e+000 1.237232e+000 1.192842e+000 1.462049e+000 1.379258e+000 1.306959e+000 1.287116e+000 1.306139e+000 1.018970e+000 3.460409e-001
<GCONST> 9.766087e+001
<TRANSP> 5
 0.000000e+000 1.000000e+000 0.000000e+000 0.000000e+000 0.000000e+000
 0.000000e+000 7.666658e-001 2.333343e-001 0.000000e+000 0.000000e+000
 0.000000e+000 0.000000e+000 6.843049e-001 3.156951e-001 0.000000e+000
 0.000000e+000 0.000000e+000 0.000000e+000 8.801486e-001 1.198514e-001
 0.000000e+000 0.000000e+000 0.000000e+000 0.000000e+000 0.000000e+000
<ENDHMM>
~h "l"
<BEGINHMM>
<NUMSTATES> 5
<STATE> 2
<MEAN> 25
 3.717080e+000 -9.575990e-001 2.939461e+000 -1.375576e+000 -6.043673e-001 -6.541029e-001 -3.638440e+000 -2.726412e+000 -1.210468e+000 -4.627801e-001 -1.412811e-001 -1.506208e+000 7.214956e-001 -6.273109e-001 -2.132274e-001 -1.551339e-001 -6.599388e-002 -5.617063e-001 -4.010908e-001 -2.372012e-001 -1.326563e-001 -5.498955e-001 -1.164039e-001 -7.779437e-002 1.314570e+000
<VARIANCE> 25
 1.040470e+002 9.026011e+001 1.004265e+002 1.025412e+002 7.261002e+001 8.318755e+001 7.899850e+001 9.852550e+001 6.714649e+001 6.499409e+001 6.922309e+001 4.696255e+001 4.221045e+000 6.562508e+000 6.069541e+000 8.086671e+000 5.485775e+000 7.722872e+000 7.053936e+000 8.142235e+000 6.320547e+000 5.222489e+000 4.924364e+000 4.123453e+000 4.929048e+000
<GCONST> 1.215827e+002
<STATE> 3
<MEAN> 25
 8.637090e+000 -5.265536e+000 -1.198803e+000 -6.380129e+000 1.009633e+000 -8.242699e+000 -3.884432e+000 -1.976434e+000 5.598546e-001 -5.805570e+000 -4.067136e+000 8.300238e-001 -2.276054e-002 -5.936648e-001 -6.303506e-001 -2.465035e-001 3.678784e-001 -3.048843e-002 6.990069e-001 1.595158e-001 -1.901981e-001 -3.196773e-001 2.209931e-001 2.334257e-001 3.284600e-001
<VARIANCE> 25
 3.313862e+001 4.558300e+001 4.500736e+001 7.965275e+001 8.215705e+001 7.217549e+001 8.987970e+001 8.833993e+001 1.248611e+002 6.885879e+001 7.097232e+001 5.109735e+001 6.080974e-001 2.066644e+000 2.045415e+000 3.540483e+000 3.367669e+000 3.812656e+000 3.269364e+000 3.215864e+000 4.148948e+000 3.877794e+000 3.073274e+000 2.565492e+000 7.749128e-001
<GCONST> 1.080760e+002
<STATE> 4
<MEAN> 25
 1.142979e+001 -9.077027e+000 -2.674435e+000 -7.873831e+000 -1.937659e+000 -4.013493e+000 -3.313661e+000 -3.415597e-001 -4.360795e+000 -6.943760e+000 2.581090e+000 -1.142888e+000 -6.073643e-003 1.141122e-001 -5.559015e-002 1.676155e-002 -1.041607e-001 -3.558020e-003 9.282135e-002 1.620493e-002 -3.054249e-002 2.493840e-002 2.379120e-002 -1.078452e-001 -1.480578e-001
<VARIANCE> 25
 4.889565e+001 8.071580e+001 8.751856e+001 8.315363e+001 8.328443e+001 1.006473e+002 5.919984e+001 9.411939e+001 4.895851e+001 5.860369e+001 8.741900e+001 4.657101e+001 2.411571e-001 9.026446e-001 9.012670e-001 1.266788e+000 1.341789e+000 1.236232e+000 1.479779e+000 1.364166e+000 1.429407e+000 1.406510e+000 1.503286e+000 1.218926e+000 3.183952e-001
<GCONST> 9.702876e+001
<TRANSP> 5
 0.000000e+000 1.000000e+000 0.000000e+000 0.000000e+000 0.000000e+000
 0.000000e+000 7.677917e-001 2.322083e-001 0.000000e+000 0.000000e+000
 0.000000e+000 0.000000e+000 7.741689e-001 2.258311e-001 0.000000e+000
 0.000000e+000 0.000000e+000 0.000000e+000 8.995225e-001 1.004775e-001
 0.000000e+000 0.000000e+000 0.000000e+000 0.000000e+000 0.000000e+000
<ENDHMM>
~h "m"
<BEGINHMM>
<NUMSTATES> 5
<STATE> 2
<MEAN> 25
 1.249329e+000 3.312455e-001 6.034222e-001 8.602976e-001 1.818277e+000 1.005704e+000 1.852008e+000 -4.016214e-001 1.702572e-001 1.092873e+000 1.182901e-001 -3.713490e-001 1.538846e+000 -7.932720e-001 -1.369199e-001 -5.990635e-001 -3.703400e-002 -4.999188e-001 -5.212390e-001 -2.197548e-001 -6.436006e-001 -7.280587e-001 -2.390141e-001 -5.345194e-001 1.956119e+000
<VARIANCE> 25
 7.714409e+001 7.565490e+001 6.425480e+001 6.318538e+001 5.425019e+001 5.700089e+001 7.313086e+001 5.761595e+001 5.197835e+001 4.873353e+001 4.709635e+001 3.918602e+001 5.609406e+000 7.458766e+000 5.217832e+000 6.939624e+000 5.585282e+000 5.537354e+000 6.477776e+000 5.812856e+000 5.418430e+000 5.205119e+000 4.685037e+000 3.541316e+000 8.485954e+000
<GCONST> 1.173381e+002
<STATE> 3
<MEAN> 25
 9.665702e+000 -5.695745e+000 -1.902178e+000 -5.526901e+000 2.237608e-001 -2.811397e+000 -2.960464e+000 -2.142269e+000 -3.541599e+000 -5.789643e+000 -1.863503e+000 -3.665004e+000 2.768631e-001 -5.797772e-001 -1.104024e-001 -1.584516e-001 3.217768e-001 -9.947670e-002 4.154807e-002 1.241654e-001 -7.954521e-002 -2.487749e-001 -1.954789e-001 -1.170360e-001 4.413268e-001
<VARIANCE> 25
 3.796975e+001 9.013511e+001 6.274884e+001 9.551449e+001 7.671181e+001 8.034564e+001 6.992026e+001 7.756935e+001 8.434952e+001 7.548398e+001 6.525105e+001 3.818208e+001 1.861423e+000 7.423925e+000 4.220938e+000 8.812801e+000 5.019199e+000 4.213428e+000 5.509738e+000 5.633322e+000 5.301890e+000 4.826659e+000 4.378540e+000 3.644100e+000 6.010842e+000
<GCONST> 1.172225e+002
<STATE> 4
<MEAN> 25
 1.052871e+001 -5.433644e+000 9.488716e-001 -2.491869e+000 1.324522e+000 1.188589e+000 -1.601600e+000 -3.154869e+000 -5.800738e+000 -1.166012e+000 -2.975816e+000 -6.004909e+000 -1.463696e-001 4.936719e-001 5.500308e-003 3.866769e-001 5.233527e-002 1.964191e-002 1.212446e-001 -1.381648e-001 -3.562620e-002 1.127706e-002 -1.274956e-001 2.385595e-002 -5.015283e-001
<VARIANCE> 25
 2.038227e+001 1.371780e+002 3.536463e+001 1.371662e+002 5.385057e+001 4.619134e+001 9.845657e+001 1.125262e+002 8.334743e+001 8.930318e+001 8.383386e+001 3.773389e+001 4.510662e-001 1.268818e+000 9.535868e-001 1.643802e+000 1.392098e+000 1.314175e+000 2.030877e+000 2.404114e+000 1.925012e+000 1.818160e+000 2.061239e+000 1.490026e+000 5.945312e-001
<GCONST> 1.004120e+002
<TRANSP> 5
 0.000000e+000 1.000000e+000 0.000000e+000 0.000000e+000 0.000000e+000
 0.000000e+000 6.729597e-001 3.270402e-001 0.000000e+000 0.000000e+000
 0.000000e+000 0.000000e+000 7.071962e-001 2.928038e-001 0.000000e+000
 0.000000e+000 0.000000e+000 0.000000e+000 9.096032e-001 9.039676e-002
 0.000000e+000 0.000000e+000 0.000000e+000 0.000000e+000 0.000000e+000
<ENDHMM>
~h "n"
<BEGINHMM>
<NUMSTATES> 5
<STATE> 2
<MEAN> 25
 1.360170e+000 1.011171e+000 -1.482917e-002 -8.675593e-002 5.252236e-001 5.055879e-001 1.146003e-001 -8.413800e-001 -6.170424e-001 -1.503459e-001 -8.176339e-002 -2.184540e-001 1.203929e+000 -1.154307e-001 3.400091e-001 -4.396514e-001 -2.337770e-001 -5.140421e-001 -6.597750e-001 -5.146081e-001 -6.799316e-001 -7.325388e-001 -1.704268e-001 -3.074592e-001 1.536211e+000
<VARIANCE> 25
 7.161976e+001 6.727013e+001 8.126097e+001 7.541154e+001 5.083876e+001 5.926795e+001 6.370445e+001 5.960483e+001 5.464672e+001 5.019810e+001 4.335131e+001 2.876255e+001 5.040101e+000 6.855250e+000 6.450255e+000 7.717925e+000 5.129148e+000 6.024283e+000 6.450999e+000 6.331568e+000 5.294380e+000 5.661746e+000 4.481563e+000 3.228921e+000 8.133193e+000
<GCONST> 1.172047e+002
<STATE> 3
<MEAN> 25
 6.642926e+000 -5.033448e-001 7.196670e+000 -3.475428e+000 -3.897823e+000 -3.991574e+000 -6.345639e+000 -2.460982e+000 -4.331327e+000 -6.291073e+000 -2.025837e-001 -3.152263e+000 1.164857e-001 -5.419998e-003 -1.510442e-001 5.855709e-001 1.285298e-001 3.607170e-002 2.361375e-001 -1.644127e-001 -1.440905e-001 1.334893e-001 -1.075473e-001 5.245253e-003 -1.916658e-001
<VARIANCE> 25
 4.886163e+001 8.292757e+001 1.388443e+002 1.225807e+002 8.537469e+001 1.015483e+002 8.145722e+001 9.731441e+001 6.213120e+001 7.374654e+001 8.997962e+001 3.859629e+001 1.653298e+000 4.617907e+000 3.882383e+000 5.656400e+000 4.074172e+000 5.657367e+000 5.242202e+000 6.612193e+000 4.577948e+000 4.739656e+000 4.086891e+000 3.080452e+000 3.048498e+000
<GCONST> 1.171542e+002
<STATE> 4
<MEAN> 25
 7.498858e+000 2.620302e+000 2.506967e+000 4.155915e+000 -4.409837e-001 -1.170465e+000 -1.626606e+000 -7.500391e+000 -6.249498e+000 -1.569270e+000 -1.731887e+000 -2.607801e+000 -3.578752e-001 3.096487e-001 1.884345e-002 2.067744e-001 1.770988e-001 8.589266e-002 1.602733e-001 8.698119e-002 2.690421e-001 1.483545e-001 -7.689232e-002 7.107010e-002 -4.982851e-001
<VARIANCE> 25
 4.192436e+001 8.720387e+001 4.311757e+001 7.043192e+001 6.621754e+001 5.204711e+001 7.249976e+001 1.135778e+002 7.701847e+001 7.797067e+001 6.941313e+001 4.550320e+001 4.767388e-001 1.273694e+000 1.222095e+000 1.593548e+000 1.674344e+000 1.946648e+000 2.402043e+000 3.032343e+000 2.551783e+000 2.520421e+000 2.515397e+000 1.916664e+000 4.429257e-001
<GCONST> 1.020438e+002
<TRANSP> 5
 0.000000e+000 1.000000e+000 0.000000e+000 0.000000e+000 0.000000e+000
 0.000000e+000 6.298423e-001 3.701577e-001 0.000000e+000 0.000000e+000
 0.000000e+000 0.000000e+000 7.525755e-001 2.474245e-001 0.000000e+000
 0.000000e+000 0.000000e+000 0.000000e+000 8.737763e-001 1.262237e-001
 0.000000e+000 0.000000e+000 0.000000e+000 0.000000e+000 0.000000e+000
<ENDHMM>
~h "p"
<BEGINHMM>
<NUMSTATES> 5
<STATE> 2
<MEAN> 25
 -3.699151e+000 1.381904e+000 -2.451427e+000 2.381484e+000 3.531795e-001 1.753733e+000 4.027964e+000 1.290283e+000 2.181587e+000 3.070228e+000 1.421555e+000 8.517798e-001 -1.149064e-001 -2.297898e-001 -4.973703e-002 -1.395625e-001 4.129725e-002 2.473247e-003 2.521989e-002 3.547137e-002 1.078558e-001 1.575265e-001 1.430209e-001 1.046079e-001 7.395471e-002
<VARIANCE> 25
 3.228748e+001 2.063597e+001 3.251041e+001 2.914961e+001 2.917964e+001 2.842570e+001 2.215636e+001 2.374527e+001 2.776270e+001 2.396910e+001 3.340186e+001 2.103516e+001 1.502904e+000 1.066384e+000 1.334587e+000 1.431826e+000 1.627913e+000 1.941428e+000 2.268772e+000 2.072572e+000 1.970799e+000 1.780030e+000 1.800866e+000 1.774745e+000 1.772198e+000
<GCONST> 9.215139e+001
<STATE> 3
<MEAN> 25
 2.657660e+000 -2.780403e+000 -1.120247e+000 -2.380351e+000 8.732241e-001 -5.951678e-001 -7.566171e-001 9.277879e-001 1.082058e+000 -3.416499e-001 6.465162e-002 -3.750376e-001 2.794169e+000 -2.167982e+000 -2.983170e-001 -2.122655e+000 -3.250985e-001 -1.165154e+000 -1.363615e+000 1.540602e-001 -8.272535e-001 -1.530484e+000 -2.510906e-001 -8.036457e-001 4.630170e+000
<VARIANCE> 25
 6.585291e+001 6.871323e+001 5.219477e+001 6.751658e+001 6.694240e+001 5.536095e+001 4.981798e+001 4.977673e+001 3.983550e+001 4.548756e+001 3.164265e+001 2.497803e+001 5.157315e+000 8.138274e+000 6.665595e+000 1.025046e+001 8.657703e+000 6.319936e+000 6.728959e+000 7.324582e+000 5.676598e+000 6.559130e+000 4.798248e+000 3.186115e+000 8.104402e+000
<GCONST> 1.170377e+002
<STATE> 4
<MEAN> 25
 8.450817e+000 -1.530582e+001 -8.632479e-001 -1.310295e+001 3.779520e+000 9.334046e-002 -2.826962e+000 1.645911e+000 -1.370567e+000 -2.278224e+000 -3.503158e-001 -3.804600e+000 1.001342e-001 1.968172e-001 -2.670792e-002 1.779713e-001 -1.174046e-001 -2.004230e-001 -8.820808e-003 -1.804261e-001 -2.819417e-001 -1.428315e-001 -8.398805e-002 -6.951950e-002 -2.963807e-002
<VARIANCE> 25
 2.696818e+001 8.157234e+001 5.520656e+001 9.290873e+001 7.954112e+001 6.061757e+001 6.162921e+001 6.751659e+001 4.627858e+001 9.638751e+001 4.191052e+001 2.890609e+001 8.709897e-001 3.084090e+000 1.833604e+000 3.378405e+000 2.209562e+000 2.450442e+000 2.593796e+000 2.323692e+000 1.824526e+000 2.068725e+000 1.535800e+000 1.460808e+000 3.076458e+000
<GCONST> 1.040600e+002
<TRANSP> 5
 0.000000e+000 1.000000e+000 0.000000e+000 0.000000e+000 0.000000e+000
 0.000000e+000 8.543820e-001 1.456180e-001 0.000000e+000 0.000000e+000
 0.000000e+000 0.000000e+000 6.806988e-001 3.193012e-001 0.000000e+000
 0.000000e+000 0.000000e+000 0.000000e+000 8.528980e-001 1.471020e-001
 0.000000e+000 0.000000e+000 0.000000e+000 0.000000e+000 0.000000e+000
<ENDHMM>
~h "r"
<BEGINHMM>
<NUMSTATES> 5
<STATE> 2
<MEAN> 25
 5.614933e+000 -2.935223e+000 -3.559206e+000 -1.228955e+000 2.344090e+000 -5.315833e-001 -2.161774e+000 -5.115817e-001 -3.323926e+000 -2.231061e+000 1.835276e+000 -1.105502e+000 -9.884187e-002 -4.548740e-001 -2.960162e-001 -4.825581e-002 -1.338205e-001 1.829169e-001 5.372985e-001 2.247517e-001 1.351550e-001 3.025252e-001 9.661008e-002 -7.644016e-002 1.284610e-001
<VARIANCE> 25
 5.463228e+001 7.274277e+001 5.518748e+001 4.589571e+001 3.528250e+001 4.652449e+001 5.478577e+001 5.484592e+001 3.218854e+001 4.267193e+001 6.117021e+001 3.841431e+001 8.571577e-001 1.484558e+000 1.371514e+000 1.868868e+000 2.219988e+000 2.539196e+000 2.790336e+000 2.470134e+000 2.224199e+000 1.939284e+000 2.362795e+000 1.737719e+000 9.162523e-001
<GCONST> 1.000988e+002
<STATE> 3
<MEAN> 25
 1.246708e+000 -3.680590e-001 -1.812844e+000 7.873439e-001 4.516014e-002 2.137874e+000 2.969650e+000 3.991975e-001 -2.220052e-001 8.277698e-001 1.360593e+000 -1.183750e+000 -3.239171e-001 1.168668e-002 1.601182e-002 -2.577196e-002 3.603683e-002 6.282774e-002 6.203234e-002 7.554489e-002 1.448278e-001 1.155298e-001 5.524141e-002 1.076617e-001 -2.983947e-001
<VARIANCE> 25
 3.899654e+001 2.721187e+001 2.290073e+001 2.294919e+001 2.457566e+001 1.758838e+001 2.538933e+001 2.317411e+001 1.985176e+001 2.490081e+001 2.762081e+001 1.903592e+001 4.823425e-001 6.798906e-001 7.193751e-001 9.046520e-001 1.199901e+000 1.259883e+000 1.474817e+000 1.330189e+000 1.441380e+000 1.456641e+000 1.419431e+000 1.211855e+000 3.714042e-001
<GCONST> 8.392924e+001
<STATE> 4
<MEAN> 25
 -7.983809e+000 1.006690e+000 -1.922609e-001 -1.043955e+000 2.985754e-001 2.834538e+000 1.777115e+000 -3.032201e-001 1.944172e+000 3.706222e+000 1.457618e+000 1.425110e+000 -3.666793e-002 -1.539089e-002 -1.220622e-002 -7.869221e-003 -8.244277e-003 -4.854356e-003 -1.518021e-002 -6.383045e-003 5.015644e-004 6.799509e-003 3.074041e-003 2.077181e-003 -2.760961e-002
<VARIANCE> 25
 3.262689e+001 1.226651e+001 1.452977e+001 1.721309e+001 7.782167e+000 1.366838e+001 8.992048e+000 1.485521e+001 1.359444e+001 1.103225e+001 9.226611e+000 1.320247e+001 9.597391e-002 1.823981e-001 2.968637e-001 3.787721e-001 4.825515e-001 5.764859e-001 6.914588e-001 7.794545e-001 8.029066e-001 7.290577e-001 6.972910e-001 6.516873e-001 4.269281e-002
<GCONST> 6.422928e+001
<TRANSP> 5
 0.000000e+000 1.000000e+000 0.000000e+000 0.000000e+000 0.000000e+000
 0.000000e+000 6.931121e-001 3.068878e-001 0.000000e+000 0.000000e+000
 0.000000e+000 0.000000e+000 8.662635e-001 1.337365e-001 0.000000e+000
 0.000000e+000 0.000000e+000 0.000000e+000 9.460088e-001 5.399122e-002
 0.000000e+000 0.000000e+000 0.000000e+000 0.000000e+000 0.000000e+000
<ENDHMM>
~h "s"
<BEGINHMM>
<NUMSTATES> 5
<STATE> 2
<MEAN> 25
 -5.694922e+000 1.031910e+000 -3.229992e+000 4.024164e+000 -1.658038e-001 2.209294e+000 4.275767e+000 2.551449e+000 1.956506e+000 3.896032e+000 2.040692e+000 8.382848e-001 -2.232234e-001 -8.698901e-002 6.912276e-002 -3.332346e-002 -1.967721e-002 4.909744e-002 1.000885e-001 2.620716e-002 4.328701e-002 9.090109e-002 5.713183e-002 1.322082e-002 6.984275e-002
<VARIANCE> 25
 4.123489e+001 2.648170e+001 3.173256e+001 2.512962e+001 2.593103e+001 3.083279e+001 2.308841e+001 2.906259e+001 2.307240e+001 2.538105e+001 2.444433e+001 1.722320e+001 8.319233e-001 1.024711e+000 1.461819e+000 1.207517e+000 1.454298e+000 1.725821e+000 1.877813e+000 1.894171e+000 1.877333e+000 1.745572e+000 1.683648e+000 1.443880e+000 7.177020e-001
<GCONST> 8.957344e+001
<STATE> 3
<MEAN> 25
 -9.622426e+000 5.764216e-001 -9.829911e-001 4.599629e-001 2.609406e+000 -4.823298e-001 4.014881e+000 1.214418e+000 1.982350e+000 1.891266e+000 2.929809e+000 5.288082e-001 -7.420321e-001 -7.250729e-001 8.994744e-001 -1.121559e+000 2.592134e-001 -2.473300e-001 -2.778553e-001 -3.580114e-002 -1.067396e-001 -3.742017e-001 2.308401e-001 -1.562644e-001 1.624807e+000
<VARIANCE> 25
 1.044472e+002 1.007367e+002 1.028862e+002 5.806032e+001 4.368608e+001 8.277523e+001 9.096109e+001 5.320177e+001 4.231279e+001 4.217384e+001 4.214148e+001 2.938989e+001 8.513482e+000 7.712023e+000 8.198423e+000 4.112039e+000 4.067204e+000 6.121484e+000 6.692465e+000 4.622301e+000 4.277934e+000 4.339753e+000 4.263832e+000 2.964743e+000 4.310083e+000
<GCONST> 1.164576e+002
<STATE> 4
<MEAN> 25
 -1.498575e+001 -6.704883e+000 9.013028e+000 -7.336761e+000 8.511232e-001 3.418915e+000 2.425644e+000 -1.405367e+000 1.917058e+000 3.945035e+000 2.621917e+000 1.176931e-001 4.169405e-001 5.756630e-002 -2.043197e-001 -2.753560e-002 -1.752721e-002 -1.219921e-001 -7.116093e-002 2.695344e-002 -3.351285e-002 -8.310565e-002 -7.386996e-002 -3.152149e-003 1.723700e-001
<VARIANCE> 25
 7.396585e+001 7.923296e+001 8.952069e+001 6.020074e+001 5.010917e+001 5.017965e+001 6.512991e+001 4.634392e+001 2.554764e+001 2.745922e+001 2.416329e+001 1.781976e+001 4.620354e+000 1.635925e+000 2.333119e+000 2.023278e+000 1.710239e+000 1.844335e+000 1.848682e+000 1.781682e+000 1.894974e+000 1.673457e+000 1.427332e+000 1.500595e+000 1.310853e+000
<GCONST> 9.977758e+001
<TRANSP> 5
 0.000000e+000 1.000000e+000 0.000000e+000 0.000000e+000 0.000000e+000
 0.000000e+000 8.807114e-001 1.192886e-001 0.000000e+000 0.000000e+000
 0.000000e+000 0.000000e+000 7.601390e-001 2.398610e-001 0.000000e+000
 0.000000e+000 0.000000e+000 0.000000e+000 8.191189e-001 1.808811e-001
 0.000000e+000 0.000000e+000 0.000000e+000 0.000000e+000 0.000000e+000
<ENDHMM>
~h "t"
<BEGINHMM>
<NUMSTATES> 5
<STATE> 2
<MEAN> 25
 -4.136724e+000 2.582786e+000 9.275458e-001 4.002646e+000 2.480327e+000 1.849294e+000 2.327409e+000 -7.155469e-001 1.751736e+000 1.989619e+000 -4.033059e-001 6.106008e-001 -2.834310e-001 -4.958793e-001 -1.551059e-001 -3.041240e-001 6.740651e-002 1.014081e-001 3.597507e-001 7.233304e-002 1.109637e-001 2.959896e-001 2.346752e-001 -3.632809e-002 3.336599e-001
<VARIANCE> 25
 3.747508e+001 2.785027e+001 3.752560e+001 3.731042e+001 3.154548e+001 2.939377e+001 3.259500e+001 3.141613e+001 3.254807e+001 2.744668e+001 3.232902e+001 2.368212e+001 2.092752e+000 2.398225e+000 2.356728e+000 2.993771e+000 2.573261e+000 2.965222e+000 3.187301e+000 2.976085e+000 2.924822e+000 2.584272e+000 2.576170e+000 2.035664e+000 3.170692e+000
<GCONST> 1.000238e+002
<STATE> 3
<MEAN> 25
 8.692839e-001 -1.684284e+000 2.422086e+000 -5.592104e-001 6.121873e-001 -1.646345e+000 -1.336877e+000 -1.349758e+000 4.026466e-001 4.087662e-001 1.259777e-001 -4.980703e-001 1.836869e+000 -1.079175e+000 4.401116e-001 -1.439424e+000 -6.190850e-001 -1.141184e+000 -1.612399e+000 -3.310403e-001 -7.220944e-001 -8.966494e-001 -2.219909e-002 -5.189788e-001 3.182217e+000
<VARIANCE> 25
 7.150660e+001 9.430725e+001 7.973669e+001 8.188580e+001 5.136465e+001 8.562643e+001 8.591032e+001 5.648991e+001 5.727808e+001 5.828250e+001 4.703694e+001 3.112079e+001 6.781184e+000 1.057828e+001 8.309414e+000 9.048527e+000 6.052062e+000 1.050792e+001 1.079657e+001 7.863051e+000 7.107939e+000 7.387789e+000 5.765436e+000 4.310593e+000 8.354263e+000
<GCONST> 1.223093e+002
<STATE> 4
<MEAN> 25
 9.691288e+000 -9.485877e+000 -1.036753e+000 -8.103165e+000 -7.140896e-001 -1.764725e+000 -3.712096e+000 6.851634e-001 -1.589089e+000 4.302408e-002 7.258075e-001 -1.616373e+000 1.536938e-002 2.850756e-001 5.208154e-003 5.183280e-002 -7.873768e-002 4.009346e-003 5.821359e-002 1.812261e-003 -1.138496e-001 -1.339211e-001 -9.102805e-002 -9.515394e-002 -1.030230e-001
<VARIANCE> 25
 8.862617e+001 1.371110e+002 1.131063e+002 1.264007e+002 6.793247e+001 1.160052e+002 1.131322e+002 6.995488e+001 7.718539e+001 8.996880e+001 7.418754e+001 5.229486e+001 8.329758e-001 2.424419e+000 2.132466e+000 2.822119e+000 2.302337e+000 2.575857e+000 2.636214e+000 2.580798e+000 2.732091e+000 2.208437e+000 2.054457e+000 1.803949e+000 2.180349e+000
<GCONST> 1.100596e+002
<TRANSP> 5
 0.000000e+000 1.000000e+000 0.000000e+000 0.000000e+000 0.000000e+000
 0.000000e+000 7.210765e-001 2.789235e-001 0.000000e+000 0.000000e+000
 0.000000e+000 0.000000e+000 6.639001e-001 3.360999e-001 0.000000e+000
 0.000000e+000 0.000000e+000 0.000000e+000 7.932186e-001 2.067815e-001
 0.000000e+000 0.000000e+000 0.000000e+000 0.000000e+000 0.000000e+000
<ENDHMM>
~h "y"
<BEGINHMM>
<NUMSTATES> 5
<STATE> 2
<MEAN> 25
 4.721467e+000 3.018391e+000 5.579976e+000 2.695258e+000 1.569083e+000 -3.428428e+000 -4.089374e+000 -2.390202e+000 -3.226011e+000 -2.877933e+000 -3.494212e+000 -4.020884e+000 4.112515e-002 -1.260480e-001 -3.812064e-002 2.607143e-003 -4.438966e-002 3.552422e-002 -2.203110e-002 -6.250013e-002 2.651800e-002 3.506425e-002 1.050972e-001 3.270457e-002 8.200186e-002
<VARIANCE> 25
 9.080106e+000 5.679930e+001 2.730170e+001 3.099721e+001 1.874861e+001 3.136974e+001 2.629016e+001 1.809521e+001 2.265425e+001 2.163114e+001 2.956393e+001 1.972410e+001 1.933676e-001 8.441069e-001 9.673727e-001 1.042695e+000 6.955639e-001 1.514201e+000 1.509705e+000 1.048903e+000 1.027212e+000 1.519479e+000 1.146946e+000 9.237379e-001 2.417364e-001
<GCONST> 8.182867e+001
<STATE> 3
<MEAN> 25
 -4.322545e+000 8.486486e+000 4.799060e+000 -1.384831e+000 3.253328e-002 4.377032e+000 2.502346e+000 -4.381154e-001 2.436398e-001 4.108390e+000 1.387338e+000 -1.560885e+000 -6.122757e-001 -2.372549e-001 4.880344e-002 1.137314e-001 2.140193e-001 2.817024e-001 -2.481691e-002 -4.021867e-001 -1.951715e-001 8.892577e-002 9.272853e-003 5.147450e-003 -3.727451e-001
<VARIANCE> 25
 1.960530e+001 3.464688e+001 1.768192e+001 1.530521e+001 1.193524e+001 8.913646e+000 9.557097e+000 1.704155e+001 1.338493e+001 1.246392e+001 1.382193e+001 1.513096e+001 1.106927e-001 2.327835e-001 4.701117e-001 6.482517e-001 7.899495e-001 7.024319e-001 7.821236e-001 8.792037e-001 8.739017e-001 1.053212e+000 8.610777e-001 7.539509e-001 4.429301e-002
<GCONST> 6.884641e+001
<STATE> 4
<MEAN> 25
 -1.353743e+001 4.833319e+000 4.475454e+000 -1.179706e+000 1.983801e+000 6.744921e+000 3.165682e+000 -3.413355e+000 -1.758307e+000 4.506003e+000 1.584816e+000 -1.497134e+000 -4.612597e-002 -2.948334e-002 -2.090299e-002 -3.676780e-003 8.985955e-003 2.570792e-003 8.147736e-003 8.543105e-003 1.488593e-002 1.195724e-002 -1.320117e-002 -3.650173e-003 -2.768821e-002
<VARIANCE> 25
 2.334161e+001 1.270757e+001 8.232146e+000 7.855462e+000 7.228003e+000 8.444145e+000 7.654213e+000 6.798432e+000 7.048370e+000 7.700446e+000 6.942641e+000 6.891564e+000 3.869260e-001 4.083624e-001 4.263847e-001 5.037148e-001 5.321419e-001 7.608255e-001 7.372977e-001 6.464050e-001 7.566447e-001 7.488995e-001 6.664447e-001 5.947332e-001 1.279429e-001
<GCONST> 6.315586e+001
<TRANSP> 5
 0.000000e+000 1.000000e+000 0.000000e+000 0.000000e+000 0.000000e+000
 0.000000e+000 9.489761e-001 5.102392e-002 0.000000e+000 0.000000e+000
 0.000000e+000 0.000000e+000 7.140872e-001 2.859128e-001 0.000000e+000
 0.000000e+000 0.000000e+000 0.000000e+000 9.710841e-001 2.891597e-002
 0.000000e+000 0.000000e+000 0.000000e+000 0.000000e+000 0.000000e+000
<ENDHMM>
~h "aa"
<BEGINHMM>
<NUMSTATES> 5
<STATE> 2
<MEAN> 25
 7.113810e+000 -5.037243e+000 -4.866420e+000 -2.622218e+000 5.340757e-001 -3.116753e+000 3.052506e-001 -1.482815e+000 -3.852603e+000 -4.810370e+000 -1.698067e+000 -1.355132e-001 -2.684166e-001 5.641439e-001 3.312849e-002 5.440416e-001 1.262772e-001 3.671877e-001 1.262228e-001 3.844652e-002 1.850697e-001 1.845327e-001 -3.206561e-002 1.409970e-001 -8.633210e-001
<VARIANCE> 25
 5.088855e+001 8.293901e+001 5.158327e+001 6.561794e+001 7.616466e+001 6.399435e+001 6.864579e+001 7.712172e+001 5.535268e+001 6.263395e+001 6.182452e+001 4.676490e+001 1.217888e+000 2.509857e+000 2.168254e+000 2.889369e+000 2.965153e+000 2.894154e+000 3.085557e+000 3.234533e+000 3.001995e+000 3.074382e+000 2.948627e+000 2.416687e+000 1.871996e+000
<GCONST> 1.078239e+002
<STATE> 3
<MEAN> 25
 -3.713672e-001 2.782423e+000 -2.026109e+000 3.484540e+000 2.413957e+000 1.704468e+000 3.383635e+000 5.536698e-001 3.122376e-001 -4.602150e-002 -9.807460e-001 8.705768e-002 -7.423512e-001 9.677023e-002 1.168909e-001 4.385852e-002 4.138482e-003 1.620485e-001 1.687571e-001 1.471707e-001 3.736840e-001 4.280457e-001 2.089113e-001 1.420406e-001 -7.252775e-001
<VARIANCE> 25
 4.937453e+001 4.184610e+001 3.922152e+001 3.154906e+001 2.976956e+001 3.094628e+001 3.013844e+001 2.944875e+001 3.129841e+001 3.294413e+001 3.292418e+001 2.595243e+001 6.266022e-001 1.075801e+000 1.299032e+000 1.263611e+000 1.498411e+000 1.719768e+000 1.761288e+000 1.919044e+000 1.875129e+000 1.862976e+000 1.787265e+000 1.634364e+000 3.436784e-001
<GCONST> 9.152460e+001
<STATE> 4
<MEAN> 25
 -6.272992e+000 2.370033e+000 -1.877748e+000 4.472597e+000 1.305713e+000 2.146112e+000 3.514777e+000 2.681151e+000 2.802819e+000 2.996516e+000 1.224896e+000 2.062479e+000 -4.442238e-002 -2.023248e-003 1.044843e-002 5.820580e-004 -7.664238e-003 4.368093e-003 6.872217e-003 1.044393e-002 2.089750e-002 2.761814e-002 8.224447e-003 -3.659173e-004 -3.637070e-002
<VARIANCE> 25
 1.639217e+001 7.437567e+000 1.866898e+001 1.560580e+001 1.066311e+001 2.007142e+001 1.269141e+001 1.772581e+001 1.696520e+001 1.927225e+001 1.637513e+001 1.424406e+001 1.329955e-001 2.512769e-001 4.048218e-001 5.604976e-001 7.154799e-001 8.699175e-001 1.010111e+000 1.121067e+000 1.157285e+000 1.117722e+000 1.094476e+000 1.002930e+000 5.192607e-002
<GCONST> 7.060969e+001
<TRANSP> 5
 0.000000e+000 1.000000e+000 0.000000e+000 0.000000e+000 0.000000e+000
 0.000000e+000 8.867546e-001 1.132455e-001 0.000000e+000 0.000000e+000
 0.000000e+000 0.000000e+000 8.506746e-001 1.493254e-001 0.000000e+000
 0.000000e+000 0.000000e+000 0.000000e+000 9.575418e-001 4.245828e-002
 0.000000e+000 0.000000e+000 0.000000e+000 0.000000e+000 0.000000e+000
<ENDHMM>
~h "eu"
<BEGINHMM>
<NUMSTATES> 5
<STATE> 2
<MEAN> 25
 -1.658293e+000 2.703375e+000 1.115106e+000 4.506363e-001 1.223311e+000 -1.038430e+000 2.978026e+000 4.101432e-001 1.322351e+000 3.987591e-001 -2.039500e-002 2.686240e-002 2.179005e+000 -1.016716e-001 1.421507e-001 -7.891101e-002 -5.917535e-001 -8.534323e-001 -7.983912e-001 -4.144821e-001 -5.949892e-001 -8.453644e-001 -3.082784e-001 -2.439054e-001 1.337935e+000
<VARIANCE> 25
 1.193036e+002 8.801556e+001 6.840177e+001 6.954665e+001 4.145828e+001 7.128374e+001 5.570444e+001 4.777044e+001 4.464981e+001 4.515751e+001 4.444663e+001 2.844616e+001 9.539289e+000 6.593650e+000 4.934519e+000 5.777548e+000 4.199224e+000 5.452001e+000 6.278079e+000 5.041156e+000 4.984462e+000 5.589953e+000 4.028377e+000 2.925603e+000 4.920865e+000
<GCONST> 1.157676e+002
<STATE> 3
<MEAN> 25
 7.010429e+000 -3.308268e+000 3.086675e+000 -5.121803e+000 -2.197294e+000 -3.431168e+000 -4.756890e+000 -1.427771e+000 -1.466774e+000 -3.658496e+000 1.343992e+000 -1.308293e+000 1.522194e+000 -1.495319e+000 1.039277e-002 -1.446870e+000 -5.515519e-001 -3.158623e-001 -1.409773e+000 1.143494e-001 -4.424261e-001 -7.402045e-001 2.402704e-002 -4.969109e-001 2.076510e+000
<VARIANCE> 25
 4.718115e+001 7.934875e+001 9.327494e+001 8.437320e+001 7.174963e+001 7.830509e+001 8.168927e+001 6.671037e+001 8.070584e+001 7.980285e+001 5.692302e+001 3.538705e+001 5.802468e+000 1.166660e+001 5.446578e+000 1.035026e+001 6.373373e+000 7.089116e+000 9.077703e+000 7.419110e+000 8.657892e+000 7.859426e+000 5.944910e+000 4.462039e+000 9.981875e+000
<GCONST> 1.228278e+002
<STATE> 4
<MEAN> 25
 9.630090e+000 -1.491267e+001 8.356204e+000 -1.493473e+001 4.284147e-001 2.746959e+000 -1.030210e+001 2.353334e+000 -3.731048e-001 3.121723e+000 2.853535e+000 -5.592165e+000 2.866798e-002 1.123356e-001 -1.099765e-001 1.319897e-001 4.642753e-002 4.483443e-002 1.047665e-001 7.704796e-002 -4.821256e-002 2.856733e-002 -2.074345e-001 -7.141650e-002 -1.841448e-001
<VARIANCE> 25
 5.173426e+001 9.913604e+001 6.926760e+001 9.326225e+001 6.231492e+001 4.928806e+001 5.600324e+001 5.773454e+001 6.931099e+001 9.821245e+001 8.103647e+001 5.044432e+001 5.796219e-001 1.497627e+000 1.241505e+000 1.762414e+000 1.528659e+000 1.482529e+000 1.795076e+000 1.958381e+000 1.724825e+000 1.536581e+000 1.934392e+000 1.434746e+000 7.922183e-001
<GCONST> 1.009949e+002
<TRANSP> 5
 0.000000e+000 1.000000e+000 0.000000e+000 0.000000e+000 0.000000e+000
 0.000000e+000 5.673440e-001 4.326560e-001 0.000000e+000 0.000000e+000
 0.000000e+000 0.000000e+000 6.291080e-001 3.708921e-001 0.000000e+000
 0.000000e+000 0.000000e+000 0.000000e+000 8.731306e-001 1.268695e-001
 0.000000e+000 0.000000e+000 0.000000e+000 0.000000e+000 0.000000e+000
<ENDHMM>
~h "hh"
<BEGINHMM>
<NUMSTATES> 5
<STATE> 2
<MEAN> 25
 1.342136e+000 1.456159e+000 1.303078e+000 -8.987780e-001 -4.169143e-001 -4.494176e-001 -3.915412e-001 -1.619651e+000 1.422685e-001 -7.031069e-001 -2.662603e+000 -1.773602e+000 1.178622e-001 -5.472477e-001 -3.646582e-001 -2.172938e-001 5.219441e-001 5.558688e-002 1.300906e-001 2.271511e-001 3.967874e-001 1.919003e-001 -1.590167e-001 1.800559e-001 6.008789e-001
<VARIANCE> 25
 6.455417e+001 6.348652e+001 6.235896e+001 9.093098e+001 6.601192e+001 7.025005e+001 6.054481e+001 6.477760e+001 4.771030e+001 4.637262e+001 6.389633e+001 3.962830e+001 3.796758e+000 6.053770e+000 4.639864e+000 5.988963e+000 4.622713e+000 5.033989e+000 4.442989e+000 4.721549e+000 4.699800e+000 3.822139e+000 4.547148e+000 3.750345e+000 4.226518e+000
<GCONST> 1.149793e+002
<STATE> 3
<MEAN> 25
 -1.333013e+000 -4.162467e+000 -7.227456e+000 -1.457184e+000 5.214902e+000 4.758961e+000 6.318349e+000 1.200386e+000 3.573558e+000 1.646829e+000 -5.669007e-001 2.097590e+000 -3.755919e-001 9.695007e-002 -1.128047e-001 3.853382e-001 1.479018e-001 1.943007e-001 2.011245e-001 1.873018e-001 3.011997e-001 3.827506e-001 2.322947e-001 1.232672e-001 -6.466342e-001
<VARIANCE> 25
 2.983396e+001 5.687817e+001 4.674285e+001 6.234260e+001 9.135323e+001 5.821454e+001 7.323195e+001 7.112061e+001 5.870162e+001 6.183121e+001 6.575406e+001 3.871511e+001 6.413340e-001 1.620072e+000 2.343419e+000 2.393371e+000 2.908289e+000 3.087732e+000 3.572730e+000 3.777649e+000 3.229920e+000 2.586767e+000 2.995898e+000 2.428741e+000 6.502240e-001
<GCONST> 1.047738e+002
<STATE> 4
<MEAN> 25
 -4.497760e+000 1.359540e+000 -1.707826e+000 4.258766e+000 1.384835e+000 2.586698e+000 3.605030e+000 2.403852e+000 2.298937e+000 3.050084e+000 1.280737e+000 7.248509e-001 -8.783717e-002 1.261919e-002 3.183853e-002 8.166445e-003 -4.138973e-002 -6.369734e-003 -1.887477e-002 1.740069e-003 -1.542861e-002 1.043789e-002 6.674344e-003 1.508167e-002 -9.353722e-002
<VARIANCE> 25
 1.527515e+001 1.797696e+001 1.863713e+001 2.509229e+001 1.802383e+001 2.213451e+001 1.597663e+001 2.082738e+001 1.954813e+001 2.303759e+001 2.108037e+001 1.484013e+001 2.759187e-001 4.254093e-001 6.449042e-001 7.492437e-001 9.459356e-001 1.063079e+000 1.236338e+000 1.367008e+000 1.362438e+000 1.375540e+000 1.331402e+000 1.161375e+000 1.470798e-001
<GCONST> 7.816972e+001
<TRANSP> 5
 0.000000e+000 1.000000e+000 0.000000e+000 0.000000e+000 0.000000e+000
 0.000000e+000 6.717796e-001 3.282203e-001 0.000000e+000 0.000000e+000
 0.000000e+000 0.000000e+000 8.118279e-001 1.881722e-001 0.000000e+000
 0.000000e+000 0.000000e+000 0.000000e+000 9.327883e-001 6.721166e-002
 0.000000e+000 0.000000e+000 0.000000e+000 0.000000e+000 0.000000e+000
<ENDHMM>
~h "ih"
<BEGINHMM>
<NUMSTATES> 5
<STATE> 2
<MEAN> 25
 1.129377e+000 1.358427e+000 7.291527e+000 1.426824e+000 -2.138458e-001 -2.354447e+000 -3.895509e+000 -2.582492e+000 -1.219205e-001 -1.098472e+000 -1.330716e+000 -1.824978e+000 2.445240e-001 -1.900206e-001 2.157218e+000 -4.576141e-001 -6.316065e-001 -1.059852e+000 -1.934630e+000 -2.624004e-001 -4.484671e-001 -8.470621e-001 -3.482116e-001 -1.110715e-001 1.849321e+000
<VARIANCE> 25
 6.460388e+001 9.141943e+001 9.945952e+001 7.793124e+001 8.383478e+001 6.083873e+001 9.071867e+001 6.698883e+001 6.234376e+001 6.148404e+001 4.991311e+001 3.790200e+001 4.710790e+000 8.353244e+000 8.912229e+000 1.007042e+001 6.817257e+000 7.170484e+000 8.922865e+000 8.241148e+000 6.681010e+000 6.846073e+000 5.626091e+000 4.447565e+000 5.721547e+000
<GCONST> 1.217760e+002
<STATE> 3
<MEAN> 25
 1.277977e+000 2.516633e+000 1.388388e+001 -1.089378e+000 -3.166060e+000 -5.705002e+000 -8.610744e+000 -3.018893e+000 -2.334445e+000 -5.303776e+000 -2.541661e+000 -9.245275e-001 -1.103424e-001 5.208349e-001 3.241028e-001 -3.536197e-001 -2.798130e-001 -1.940173e-001 -2.936417e-001 4.614807e-002 1.217416e-002 -2.620926e-001 -3.288044e-001 3.697573e-001 -1.219118e-001
<VARIANCE> 25
 3.691976e+001 8.863531e+001 1.151694e+002 1.569863e+002 9.899422e+001 1.092166e+002 6.994910e+001 8.467228e+001 5.360262e+001 6.527074e+001 7.336169e+001 5.099515e+001 1.875017e+000 2.913705e+000 5.348932e+000 6.232522e+000 3.994244e+000 5.622519e+000 5.540449e+000 4.377984e+000 4.182677e+000 3.640139e+000 3.489434e+000 3.902632e+000 2.238051e+000
<GCONST> 1.158500e+002
<STATE> 4
<MEAN> 25
 1.903794e+000 3.822318e+000 1.686029e+001 -1.124769e+000 -4.932796e+000 -5.707087e+000 -9.904673e+000 -2.634256e+000 -2.888714e+000 -7.095127e+000 -2.344658e+000 -4.559158e-001 1.478651e-001 1.113135e-001 -4.944292e-001 2.640861e-001 1.691647e-001 2.300261e-001 3.501344e-001 -8.295427e-002 4.322905e-002 1.605802e-001 6.945184e-002 1.478789e-002 -5.356032e-001
<VARIANCE> 25
 1.976299e+001 8.092926e+001 9.651920e+001 1.628458e+002 1.105941e+002 6.630082e+001 5.614968e+001 8.302239e+001 7.367384e+001 6.243243e+001 7.292696e+001 5.668164e+001 5.286089e-001 1.193883e+000 1.680123e+000 2.220933e+000 1.912950e+000 1.976059e+000 2.319067e+000 2.217497e+000 2.102026e+000 2.050499e+000 2.136335e+000 1.913995e+000 6.687036e-001
<GCONST> 1.033854e+002
<TRANSP> 5
 0.000000e+000 1.000000e+000 0.000000e+000 0.000000e+000 0.000000e+000
 0.000000e+000 6.179940e-001 3.820060e-001 0.000000e+000 0.000000e+000
 0.000000e+000 0.000000e+000 5.692542e-001 4.307458e-001 0.000000e+000
 0.000000e+000 0.000000e+000 0.000000e+000 9.037960e-001 9.620408e-002
 0.000000e+000 0.000000e+000 0.000000e+000 0.000000e+000 0.000000e+000
<ENDHMM>
~h "jh"
<BEGINHMM>
<NUMSTATES> 5
<STATE> 2
<MEAN> 25
 1.202959e+000 5.509009e+000 4.817079e+000 6.237021e+000 4.949736e+000 2.386583e+000 -3.129010e-001 -1.201342e+000 -3.782311e-001 -1.750528e+000 -2.958054e+000 -1.564565e+000 -7.780172e-001 -1.100526e-001 -1.958548e-001 3.706399e-002 1.547106e-001 4.620065e-001 8.545605e-001 3.967087e-001 6.514931e-001 6.961216e-001 3.874079e-001 3.328150e-001 -7.450584e-001
<VARIANCE> 25
 2.566883e+001 3.208627e+001 3.873845e+001 3.295574e+001 4.556416e+001 2.079147e+001 3.323085e+001 2.327166e+001 3.009903e+001 3.249079e+001 2.694923e+001 2.351907e+001 6.305927e-001 1.457924e+000 1.611894e+000 1.896764e+000 1.849800e+000 1.861508e+000 2.379360e+000 2.158628e+000 2.099483e+000 1.935712e+000 1.803072e+000 1.608473e+000 7.642400e-001
<GCONST> 9.275854e+001
<STATE> 3
<MEAN> 25
 -2.862508e+000 1.222099e+000 3.393762e+000 9.905273e-001 3.227749e+000 -1.698080e-001 1.630702e+000 -6.298544e-001 -1.671353e+000 2.531905e-001 9.957560e-001 -1.110851e+000 -1.991069e-001 -6.648445e-001 -5.683699e-001 -5.337432e-001 -7.342693e-002 -5.387061e-001 1.554749e-001 2.018137e-001 -2.084860e-001 -1.313308e-003 1.606247e-001 1.997999e-001 9.567843e-001
<VARIANCE> 25
 9.248998e+001 7.445853e+001 8.088484e+001 5.689217e+001 6.719682e+001 6.649956e+001 6.478779e+001 3.399025e+001 4.458249e+001 4.572285e+001 3.247092e+001 3.318267e+001 1.013841e+001 4.472478e+000 4.636858e+000 4.014400e+000 7.176608e+000 5.102310e+000 5.326465e+000 2.724324e+000 3.846149e+000 4.392254e+000 2.892464e+000 2.496219e+000 4.716772e+000
<GCONST> 1.132913e+002
<STATE> 4
<MEAN> 25
 -7.603739e+000 3.194814e+000 2.107605e+000 1.270507e+000 1.173134e+000 4.767836e+000 2.756786e+000 9.746500e-001 1.526016e+000 4.617267e+000 1.920359e+000 6.522167e-001 -5.836774e-002 -5.879920e-002 -3.027744e-002 -1.247211e-002 -3.447706e-003 1.470715e-002 3.320720e-002 1.937515e-002 3.429106e-002 5.617172e-002 1.337976e-002 7.651018e-003 -3.316530e-002
<VARIANCE> 25
 2.302455e+001 1.180052e+001 1.451842e+001 1.562262e+001 8.240940e+000 1.444628e+001 1.044914e+001 2.514184e+001 1.813350e+001 1.270865e+001 1.140334e+001 1.266411e+001 1.522604e-001 2.623107e-001 3.642033e-001 4.976331e-001 6.975148e-001 7.042853e-001 8.217388e-001 9.371588e-001 9.710218e-001 9.635268e-001 8.837723e-001 8.390759e-001 5.142482e-002
<GCONST> 6.850553e+001
<TRANSP> 5
 0.000000e+000 1.000000e+000 0.000000e+000 0.000000e+000 0.000000e+000
 0.000000e+000 7.670168e-001 2.329833e-001 0.000000e+000 0.000000e+000
 0.000000e+000 0.000000e+000 7.621225e-001 2.378774e-001 0.000000e+000
 0.000000e+000 0.000000e+000 0.000000e+000 9.473826e-001 5.261737e-002
 0.000000e+000 0.000000e+000 0.000000e+000 0.000000e+000 0.000000e+000
<ENDHMM>
~h "ng"
<BEGINHMM>
<NUMSTATES> 5
<STATE> 2
<MEAN> 25
 8.106569e+000 7.174667e+000 1.461152e+000 3.097394e+000 -3.916295e+000 -3.312189e+000 -2.732899e+000 -1.032086e+001 -8.583359e+000 -1.573691e+000 -3.748063e+000 -4.280729e+000 -5.737432e-001 4.022768e-001 1.783270e-001 5.002788e-001 4.262875e-001 1.090123e-001 1.033999e-001 9.008273e-003 3.210462e-001 1.368128e-001 -2.484291e-001 4.024638e-002 -6.954700e-001
<VARIANCE> 25
 3.242111e+001 2.859252e+001 3.358990e+001 2.611285e+001 5.627692e+001 4.290372e+001 9.984534e+001 5.692707e+001 7.040646e+001 6.469109e+001 5.693607e+001 6.416259e+001 5.391036e-001 1.043179e+000 1.545455e+000 1.510897e+000 2.199425e+000 2.318701e+000 2.975197e+000 3.095287e+000 3.190248e+000 3.001438e+000 2.556727e+000 2.283374e+000 2.704707e-001
<GCONST> 9.945525e+001
<STATE> 3
<MEAN> 25
 -9.708284e-001 6.314216e+000 3.217074e+000 6.257548e+000 3.214483e+000 1.207490e+000 1.576640e+000 -2.037855e+000 1.616273e-002 -1.755174e-002 -3.031217e+000 -1.838446e+000 -8.833795e-001 -6.025666e-001 -4.821207e-001 -2.537912e-001 6.715650e-002 4.672708e-001 6.658323e-001 5.695349e-001 5.693500e-001 5.713906e-001 5.100508e-001 4.519764e-001 -5.236138e-001
<VARIANCE> 25
 1.873255e+001 1.610372e+001 2.776199e+001 2.037566e+001 2.584695e+001 2.337280e+001 3.439491e+001 2.615874e+001 3.101069e+001 2.830868e+001 3.569640e+001 2.967407e+001 3.244989e-001 7.923820e-001 1.172909e+000 1.234063e+000 1.764614e+000 2.118248e+000 2.208257e+000 2.169492e+000 1.743888e+000 1.770750e+000 1.919663e+000 1.834284e+000 1.347337e-001
<GCONST> 8.722163e+001
<STATE> 4
<MEAN> 25
 -5.640808e+000 2.299083e+000 -1.672261e+000 4.913831e+000 1.199877e+000 2.113328e+000 3.507012e+000 2.863605e+000 2.933070e+000 3.306918e+000 1.034027e+000 1.599424e+000 -4.187720e-002 -3.401950e-002 -4.302334e-002 -2.920786e-002 -1.056459e-002 4.742196e-003 1.711795e-002 4.209229e-002 3.476372e-002 2.185764e-002 1.808400e-002 1.799631e-002 -2.546793e-002
<VARIANCE> 25
 5.775486e+000 6.111572e+000 1.925786e+001 1.211998e+001 9.727332e+000 2.236104e+001 1.203416e+001 1.723718e+001 1.629077e+001 2.070704e+001 1.744183e+001 1.241698e+001 1.272801e-001 2.684837e-001 4.266840e-001 5.851424e-001 7.242106e-001 8.850475e-001 1.047387e+000 1.138312e+000 1.158695e+000 1.266154e+000 1.188311e+000 1.041244e+000 4.449406e-002
<GCONST> 6.933054e+001
<TRANSP> 5
 0.000000e+000 1.000000e+000 0.000000e+000 0.000000e+000 0.000000e+000
 0.000000e+000 8.658051e-001 1.341949e-001 0.000000e+000 0.000000e+000
 0.000000e+000 0.000000e+000 8.495694e-001 1.504306e-001 0.000000e+000
 0.000000e+000 0.000000e+000 0.000000e+000 9.630003e-001 3.699962e-002
 0.000000e+000 0.000000e+000 0.000000e+000 0.000000e+000 0.000000e+000
<ENDHMM>
~h "ny"
<BEGINHMM>
<NUMSTATES> 5
<STATE> 2
<MEAN> 25
 -2.249018e+000 3.357387e+000 3.209396e+000 2.698855e+000 3.578053e+000 7.030752e-001 5.035837e-001 -1.678656e+000 1.496599e+000 2.843200e+000 -2.026649e-001 -7.328144e-001 1.282441e+000 1.302391e-001 1.498219e+000 -6.596118e-001 -3.186577e-001 -5.243185e-001 -9.996811e-001 -6.721028e-001 -6.890818e-001 -4.516780e-001 -1.175673e-001 -6.062020e-001 2.229064e+000
<VARIANCE> 25
 7.730033e+001 6.907048e+001 7.545554e+001 5.105653e+001 4.373059e+001 5.847757e+001 5.283962e+001 4.422233e+001 4.768217e+001 3.113695e+001 4.068908e+001 3.537774e+001 6.502870e+000 7.927406e+000 7.873717e+000 7.323671e+000 5.142220e+000 6.513115e+000 5.591862e+000 4.869555e+000 5.126345e+000 4.347757e+000 4.886869e+000 3.294097e+000 6.356567e+000
<GCONST> 1.155095e+002
<STATE> 3
<MEAN> 25
 4.738424e+000 -2.306915e+000 1.027645e+001 -2.673455e+000 -2.243422e+000 -4.732059e+000 -4.645649e+000 -1.278361e+000 -4.607588e+000 -2.813607e+000 -1.985763e+000 -4.363244e+000 2.973186e-001 -1.985731e+000 -7.289292e-001 -6.473548e-001 8.110148e-002 -3.482511e-001 1.003519e-001 8.193046e-001 -3.658663e-002 -1.103213e-001 1.918213e-001 -2.590742e-001 1.541663e+000
<VARIANCE> 25
 3.138388e+001 9.807151e+001 9.543250e+001 1.307999e+002 6.044006e+001 8.503681e+001 8.170224e+001 7.730748e+001 5.347044e+001 6.371523e+001 8.268793e+001 3.739284e+001 2.099020e+000 5.889401e+000 6.078804e+000 7.478662e+000 5.401745e+000 7.539559e+000 6.695103e+000 4.846196e+000 4.281558e+000 4.409906e+000 4.499495e+000 3.129440e+000 3.305521e+000
<GCONST> 1.171732e+002
<STATE> 4
<MEAN> 25
 1.004190e+001 -7.438155e+000 4.949069e+000 -9.189770e+000 -2.811564e+000 1.600226e+000 -4.275327e+000 -7.214310e-001 -6.560826e+000 -1.221256e+000 4.582401e+000 -5.463274e+000 5.417198e-002 3.722744e-001 -1.076915e-001 8.723150e-002 -5.913706e-002 1.035281e-001 1.425679e-001 -1.963916e-001 -9.125992e-002 -4.755075e-002 -6.618940e-002 9.059949e-002 -3.271491e-001
<VARIANCE> 25
 3.475856e+001 1.103669e+002 7.922768e+001 8.658909e+001 7.070251e+001 7.104974e+001 7.994284e+001 8.926870e+001 7.232362e+001 6.460264e+001 1.180312e+002 5.012777e+001 5.028012e-001 1.578196e+000 1.888833e+000 2.227857e+000 1.602073e+000 1.995309e+000 2.055436e+000 1.994757e+000 1.780893e+000 1.705041e+000 2.288394e+000 1.630289e+000 8.277893e-001
<GCONST> 1.035796e+002
<TRANSP> 5
 0.000000e+000 1.000000e+000 0.000000e+000 0.000000e+000 0.000000e+000
 0.000000e+000 7.949015e-001 2.050985e-001 0.000000e+000 0.000000e+000
 0.000000e+000 0.000000e+000 7.944266e-001 2.055735e-001 0.000000e+000
 0.000000e+000 0.000000e+000 0.000000e+000 9.399616e-001 6.003834e-002
 0.000000e+000 0.000000e+000 0.000000e+000 0.000000e+000 0.000000e+000
<ENDHMM>
~h "sp"
<BEGINHMM>
<NUMSTATES> 3
<STATE> 2
~s "silst"
<TRANSP> 3
 0.000000e+000 9.971031e-002 9.002898e-001
 0.000000e+000 9.328332e-001 6.716679e-002
 0.000000e+000 0.000000e+000 0.000000e+000
<ENDHMM>
~h "uw"
<BEGINHMM>
<NUMSTATES> 5
<STATE> 2
<MEAN> 25
 5.739733e+000 1.376963e-001 2.653054e+000 -1.642283e+000 -2.831216e-001 -1.119095e+000 -4.337595e+000 -1.245049e+000 -1.649271e+000 -2.517182e+000 -1.685703e+000 -1.811581e+000 6.623375e-001 4.274876e-001 2.798412e-001 -5.990484e-002 -4.070397e-001 -4.436208e-001 -4.803968e-001 -1.659711e-001 -4.346866e-001 -4.617781e-001 -1.708618e-001 -1.766611e-001 4.423263e-001
<VARIANCE> 25
 5.989478e+001 1.066459e+002 8.638654e+001 1.012686e+002 8.642175e+001 8.267241e+001 8.693684e+001 7.078377e+001 6.558254e+001 7.559625e+001 6.217210e+001 4.524153e+001 3.494880e+000 8.068666e+000 5.161528e+000 6.698015e+000 5.903640e+000 6.668129e+000 7.115773e+000 6.208585e+000 5.926062e+000 5.542682e+000 5.139769e+000 3.898333e+000 4.611166e+000
<GCONST> 1.201966e+002
<STATE> 3
<MEAN> 25
 9.148711e+000 6.245034e+000 5.629281e+000 -5.738378e+000 -8.814993e+000 -5.263726e+000 -6.628493e+000 -2.943575e+000 -2.634614e+000 -3.307919e+000 -3.100945e+000 -4.392565e+000 -3.800507e-002 1.349625e-001 -1.878042e-001 1.519058e-002 7.474696e-002 2.121529e-001 2.579121e-001 -2.299325e-001 -1.209578e-001 4.260762e-002 -9.345881e-002 1.476466e-003 -2.392070e-001
<VARIANCE> 25
 1.738349e+001 6.248771e+001 9.205098e+001 7.571284e+001 9.199852e+001 8.510406e+001 7.855713e+001 1.053165e+002 7.025436e+001 7.667179e+001 7.954310e+001 5.121960e+001 4.595521e-001 1.830852e+000 2.750101e+000 2.570234e+000 3.686581e+000 3.797966e+000 3.735660e+000 4.141462e+000 3.630838e+000 3.502709e+000 3.299631e+000 3.020720e+000 6.719012e-001
<GCONST> 1.082829e+002
<STATE> 4
<MEAN> 25
 9.141421e+000 5.978207e+000 1.447225e+000 -3.292785e+000 -4.187390e+000 -2.647678e+000 -3.653550e+000 -5.121869e+000 -6.365173e+000 -4.496734e+000 -1.438044e+000 -2.286611e+000 -3.519471e-001 -2.139873e-002 7.685124e-003 2.427413e-001 2.005783e-001 1.823961e-001 2.536196e-001 -2.012672e-003 1.664016e-001 1.412524e-001 6.194467e-002 1.017345e-001 -4.028799e-001
<VARIANCE> 25
 4.685747e+001 5.185291e+001 4.919918e+001 8.920982e+001 4.966689e+001 6.172333e+001 4.575676e+001 6.045087e+001 5.384292e+001 4.762716e+001 7.271835e+001 4.040928e+001 4.017699e-001 8.021286e-001 8.420960e-001 1.125289e+000 1.321273e+000 1.455711e+000 1.500937e+000 1.628436e+000 1.709669e+000 1.634578e+000 1.554573e+000 1.421535e+000 2.949573e-001
<GCONST> 9.487893e+001
<TRANSP> 5
 0.000000e+000 1.000000e+000 0.000000e+000 0.000000e+000 0.000000e+000
 0.000000e+000 8.106856e-001 1.893144e-001 0.000000e+000 0.000000e+000
 0.000000e+000 0.000000e+000 8.724626e-001 1.275374e-001 0.000000e+000
 0.000000e+000 0.000000e+000 0.000000e+000 8.703001e-001 1.296999e-001
 0.000000e+000 0.000000e+000 0.000000e+000 0.000000e+000 0.000000e+000
<ENDHMM>
~h "sil"
<BEGINHMM>
<NUMSTATES> 5
<STATE> 2
<MEAN> 25
 -9.652512e+000 2.318096e+000 -3.637545e+000 2.806747e+000 1.589862e+000 5.626397e-001 3.495674e+000 1.490940e+000 3.268320e+000 2.524858e+000 1.938796e-001 3.280869e+000 -1.240068e-002 -2.984909e-003 -8.565593e-004 -4.008491e-003 -2.405743e-004 -1.773178e-003 -3.190852e-003 -2.676505e-004 3.269432e-004 6.902408e-003 3.757151e-003 2.690779e-004 -8.854049e-003
<VARIANCE> 25
 3.491747e+001 1.086487e+001 1.910025e+001 2.235102e+001 1.144971e+001 1.753412e+001 1.202849e+001 1.503018e+001 1.791181e+001 1.748258e+001 1.369368e+001 1.586036e+001 9.091163e-002 1.820739e-001 2.806790e-001 4.098515e-001 5.326336e-001 6.270094e-001 7.900748e-001 8.830201e-001 9.312062e-001 8.891228e-001 8.295315e-001 7.908294e-001 3.736860e-002
<GCONST> 6.795115e+001
<STATE> 3
~s "silst"
<STATE> 4
<MEAN> 25
 6.729136e+000 -3.002287e+000 1.061240e+000 -3.090565e+000 -2.056414e+000 1.343913e-001 -3.231467e+000 -9.608481e-001 -1.989205e-002 -5.060500e-001 -1.741554e-001 -9.281611e-001 1.396708e-001 -5.263342e-003 2.551376e-003 -6.139660e-004 -2.594273e-002 6.481264e-003 -2.950189e-002 -7.170517e-003 -2.900046e-002 -3.326563e-002 -1.099053e-002 -2.912107e-002 -2.841503e-003
<VARIANCE> 25
 1.475057e+002 1.360108e+002 1.077098e+002 1.111784e+002 6.909200e+001 8.034757e+001 7.639512e+001 6.191998e+001 6.960811e+001 6.672305e+001 5.886129e+001 4.184089e+001 2.649382e+000 3.080704e+000 2.455965e+000 3.012120e+000 2.297084e+000 2.556056e+000 2.855250e+000 2.573648e+000 2.709599e+000 2.400472e+000 2.298509e+000 1.860149e+000 5.011948e+000
<GCONST> 1.113826e+002
<TRANSP> 5
 0.000000e+000 1.000000e+000 0.000000e+000 0.000000e+000 0.000000e+000
 0.000000e+000 9.671404e-001 4.250698e-003 2.860894e-002 0.000000e+000
 0.000000e+000 0.000000e+000 9.486639e-001 5.133612e-002 0.000000e+000
 0.000000e+000 5.156768e-002 0.000000e+000 9.232587e-001 2.517361e-002
 0.000000e+000 0.000000e+000 0.000000e+000 0.000000e+000 0.000000e+000
<ENDHMM>
