~o
<STREAMINFO> 1 25
<VECSIZE> 25<NULLD><MFCC_D_N_Z_0><DIAGC>
~s "silst"
<MEAN> 25
 -6.655558e+000 1.604235e-001 -2.892353e+000 -1.232159e+000 -5.122513e-001 2.403030e+000 1.269842e+000 -4.694758e-003 2.803975e+000 3.611218e+000 1.063275e+000 2.199126e+000 -3.044092e-002 -9.818329e-003 -1.599151e-002 -8.837348e-003 -1.395761e-002 -3.532865e-003 -1.814129e-003 1.582017e-002 1.480993e-002 2.598940e-002 1.456788e-002 1.288206e-002 -3.104464e-002
<VARIANCE> 25
 3.578991e+001 5.216484e+000 1.736833e+001 1.406911e+001 1.387252e+001 1.404866e+001 1.045988e+001 1.016944e+001 1.212402e+001 7.365694e+000 8.146453e+000 1.065786e+001 7.313949e-002 1.316148e-001 2.223859e-001 3.054840e-001 3.858248e-001 4.713240e-001 5.592844e-001 5.781848e-001 6.167185e-001 5.835238e-001 5.569831e-001 5.256547e-001 4.923715e-002
<GCONST> 6.014287e+001
~h "b"
<BEGINHMM>
<NUMSTATES> 5
<STATE> 2
<MEAN> 25
 -7.957458e-001 4.412035e+000 2.430144e-001 2.541276e+000 1.476990e+000 -7.102300e-001 8.567730e-001 -2.324899e+000 -3.890457e-001 -1.353362e-001 -5.375143e-001 -2.280652e-001 -5.277780e-001 1.586468e-001 -1.227495e-001 5.573681e-001 4.860426e-001 5.904873e-001 8.804268e-001 5.076919e-001 6.224424e-001 6.095973e-001 1.338436e-001 1.112771e-001 -7.768986e-001
<VARIANCE> 25
 6.690395e+001 4.187259e+001 4.829549e+001 4.606555e+001 4.236522e+001 5.024204e+001 6.108683e+001 4.057870e+001 4.889723e+001 4.345270e+001 4.714509e+001 3.603708e+001 1.509615e+000 2.677758e+000 2.930168e+000 2.934236e+000 2.519843e+000 3.017655e+000 3.188501e+000 3.392877e+000 3.225395e+000 2.807795e+000 2.698558e+000 2.428572e+000 1.065953e+000
<GCONST> 1.042757e+002
<STATE> 3
<MEAN> 25
 -1.355199e+000 5.735951e+000 2.427823e+000 4.442744e+000 2.412776e+000 1.107552e+000 2.556134e+000 -3.874501e-001 7.353112e-001 6.196801e-001 -1.180549e+000 -1.043303e+000 2.849637e-001 5.293651e-001 5.041919e-001 4.640805e-001 1.986693e-001 2.357131e-001 3.005089e-001 1.987938e-001 -7.766379e-003 -7.842426e-002 -3.223594e-001 -3.507320e-001 -1.023458e-001
<VARIANCE> 25
 6.781947e+001 3.755105e+001 4.262476e+001 2.532354e+001 3.323136e+001 3.766461e+001 3.386526e+001 2.607453e+001 2.931684e+001 3.029815e+001 2.867027e+001 2.374454e+001 2.685392e+000 2.564656e+000 2.256866e+000 1.891059e+000 2.248313e+000 2.092698e+000 2.107669e+000 1.810253e+000 2.097142e+000 2.051320e+000 1.963535e+000 1.776988e+000 1.378694e+000
<GCONST> 9.729998e+001
<STATE> 4
<MEAN> 25
 -6.157630e+000 2.785759e+000 -6.731185e-001 5.208812e+000 1.716937e+000 2.220063e+000 3.513939e+000 2.100585e+000 1.748916e+000 2.802258e+000 1.133160e+000 1.264423e+000 -4.246429e-002 -2.377148e-003 1.374235e-002 1.647125e-002 1.329095e-002 2.902357e-002 3.054584e-002 2.720805e-002 1.311796e-002 2.689861e-002 2.001685e-003 -1.718552e-002 -3.213735e-002
<VARIANCE> 25
 2.585421e+001 1.507030e+001 2.501146e+001 1.323044e+001 1.335728e+001 2.177248e+001 1.482267e+001 2.087148e+001 1.877714e+001 2.270731e+001 1.966049e+001 1.655481e+001 2.027575e-001 3.144946e-001 4.865252e-001 6.304873e-001 8.158454e-001 9.784878e-001 1.154506e+000 1.253037e+000 1.352579e+000 1.256390e+000 1.194030e+000 1.109395e+000 9.041789e-002
<GCONST> 7.557964e+001
<TRANSP> 5
 0.000000e+000 1.000000e+000 0.000000e+000 0.000000e+000 0.000000e+000
 0.000000e+000 6.295288e-001 3.704712e-001 0.000000e+000 0.000000e+000
 0.000000e+000 0.000000e+000 5.350133e-001 4.649867e-001 0.000000e+000
 0.000000e+000 0.000000e+000 0.000000e+000 9.310092e-001 6.899083e-002
 0.000000e+000 0.000000e+000 0.000000e+000 0.000000e+000 0.000000e+000
<ENDHMM>
~h "d"
<BEGINHMM>
<NUMSTATES> 5
<STATE> 2
<MEAN> 25
 -3.184426e-001 5.698033e+000 4.243069e+000 5.206364e+000 2.903387e+000 1.150008e+000 2.027038e+000 -1.624523e+000 2.161100e-001 9.274761e-001 -9.968020e-001 -6.827229e-001 1.107419e+000 -5.460407e-001 7.654010e-001 -2.330274e-001 -6.181228e-002 -5.789803e-001 -7.635148e-001 -3.970956e-001 -5.943377e-001 -4.967798e-001 3.621973e-002 -5.359483e-001 2.033478e+000
<VARIANCE> 25
 5.559270e+001 5.731870e+001 4.251107e+001 3.408539e+001 4.911103e+001 4.004614e+001 3.176030e+001 3.200095e+001 3.229937e+001 2.599205e+001 2.608121e+001 2.491943e+001 4.770872e+000 1.076822e+001 4.708643e+000 5.143939e+000 4.283022e+000 5.029958e+000 4.805429e+000 4.571132e+000 4.560251e+000 3.776481e+000 3.463488e+000 2.660553e+000 4.177946e+000
<GCONST> 1.087928e+002
<STATE> 3
<MEAN> 25
 6.216976e+000 -4.128735e+000 5.157844e+000 -2.436555e+000 -2.595729e+000 -4.331943e+000 -5.235737e+000 -8.646441e-001 -3.008630e+000 -2.202523e+000 1.075549e+000 -2.910577e+000 7.917333e-001 -2.026044e+000 -6.179447e-001 -1.806140e+000 -6.223042e-001 -9.864999e-001 -1.421488e+000 7.704616e-001 -2.264698e-001 -5.403031e-001 2.446849e-001 1.367105e-001 2.649609e+000
<VARIANCE> 25
 3.894069e+001 7.640391e+001 6.958147e+001 8.886950e+001 1.000051e+002 8.165649e+001 1.010568e+002 8.081693e+001 6.878236e+001 5.677526e+001 6.148767e+001 4.016799e+001 2.847905e+000 7.102339e+000 4.861963e+000 6.247579e+000 5.981401e+000 7.632834e+000 1.089758e+001 6.698487e+000 7.149792e+000 6.782032e+000 6.664275e+000 4.622297e+000 5.522830e+000
<GCONST> 1.203223e+002
<STATE> 4
<MEAN> 25
 9.138215e+000 -1.187795e+001 2.516209e+000 -9.030383e+000 -7.921814e-001 -2.055311e+000 -6.509274e+000 1.060581e+000 -2.425479e+000 -2.024438e+000 1.320783e+000 -2.604109e+000 2.602947e-002 2.926431e-002 -2.375446e-001 3.813798e-002 5.682317e-002 1.700683e-001 3.178340e-001 -6.017647e-002 -5.153768e-003 -4.011185e-002 -9.827945e-002 6.693539e-002 -2.165798e-001
<VARIANCE> 25
 2.437990e+001 7.583807e+001 6.226118e+001 8.516347e+001 5.372886e+001 6.537070e+001 1.067869e+002 8.013065e+001 6.358017e+001 7.876846e+001 9.311073e+001 5.940038e+001 2.964389e-001 1.090867e+000 9.238035e-001 1.553416e+000 1.760453e+000 1.606919e+000 1.968928e+000 1.821950e+000 1.577268e+000 1.668982e+000 1.787171e+000 1.627729e+000 5.356975e-001
<GCONST> 9.936171e+001
<TRANSP> 5
 0.000000e+000 1.000000e+000 0.000000e+000 0.000000e+000 0.000000e+000
 0.000000e+000 7.435745e-001 2.564255e-001 0.000000e+000 0.000000e+000
 0.000000e+000 0.000000e+000 7.224485e-001 2.775515e-001 0.000000e+000
 0.000000e+000 0.000000e+000 0.000000e+000 9.125994e-001 8.740061e-002
 0.000000e+000 0.000000e+000 0.000000e+000 0.000000e+000 0.000000e+000
<ENDHMM>
~h "g"
<BEGINHMM>
<NUMSTATES> 5
<STATE> 2
<MEAN> 25
 -1.880936e+000 5.280902e+000 5.624721e+000 6.161593e+000 4.078198e+000 2.581914e+000 2.581622e+000 -1.172203e+000 8.521828e-001 1.562688e+000 -2.027605e-001 -2.449444e-001 2.313661e-001 -1.192243e-001 2.144905e-001 3.090472e-001 3.767521e-001 1.683827e-001 2.128421e-001 -4.365831e-002 -2.152497e-001 -5.569372e-002 -5.728093e-002 -4.027040e-001 5.447220e-001
<VARIANCE> 25
 2.995218e+001 3.885665e+001 4.829894e+001 2.358941e+001 3.059761e+001 2.466765e+001 2.168245e+001 2.293687e+001 2.231600e+001 2.079791e+001 2.165246e+001 1.681833e+001 2.488667e+000 3.957144e+000 3.017270e+000 3.273223e+000 2.225400e+000 2.024997e+000 2.360642e+000 2.337491e+000 2.263808e+000 2.366872e+000 1.820572e+000 1.611966e+000 1.931178e+000
<GCONST> 9.612229e+001
<STATE> 3
<MEAN> 25
 -7.660693e-001 3.993497e-001 4.653125e+000 9.514414e-001 6.551285e-001 -7.177330e-001 -4.510439e-001 2.437099e-001 2.490409e-001 -2.512775e-001 -5.476750e-001 -8.995531e-001 6.498013e-001 -7.710305e-001 5.859704e-002 -1.670035e+000 -4.331862e-001 -6.282345e-001 -1.130139e+000 3.008929e-001 -2.482531e-001 -7.110098e-001 -1.030102e-001 -1.897915e-001 2.368109e+000
<VARIANCE> 25
 8.155223e+001 1.136004e+002 9.360632e+001 8.308993e+001 8.056173e+001 8.243359e+001 7.536768e+001 6.372770e+001 5.832759e+001 5.322710e+001 4.939070e+001 3.956230e+001 7.907876e+000 1.060472e+001 7.664688e+000 8.791930e+000 6.853039e+000 7.400632e+000 7.336425e+000 6.654350e+000 6.122163e+000 6.277461e+000 4.844552e+000 3.792929e+000 5.219253e+000
<GCONST> 1.216024e+002
<STATE> 4
<MEAN> 25
 4.114478e+000 -5.312857e+000 8.004865e+000 -1.632703e-001 4.870682e+000 -5.575779e-001 -8.563290e+000 8.310061e-001 2.688271e-001 -3.440071e+000 -1.579271e+000 -3.427417e+000 1.438629e-001 2.481481e-001 -1.784197e-001 -7.541288e-002 3.323731e-002 -1.183054e-001 -6.361213e-002 -6.799265e-002 -1.414057e-001 1.461265e-002 -3.405794e-002 3.029010e-002 -5.879512e-002
<VARIANCE> 25
 5.097969e+001 1.168618e+002 9.943855e+001 1.607423e+002 6.895733e+001 3.757912e+001 6.809682e+001 5.663730e+001 5.468341e+001 6.471450e+001 5.519231e+001 2.552063e+001 6.460487e-001 1.527336e+000 1.350408e+000 1.605181e+000 1.662191e+000 1.633298e+000 2.837059e+000 1.642207e+000 1.624929e+000 1.886695e+000 1.908767e+000 1.269079e+000 8.931209e-001
<GCONST> 1.010479e+002
<TRANSP> 5
 0.000000e+000 1.000000e+000 0.000000e+000 0.000000e+000 0.000000e+000
 0.000000e+000 7.461762e-001 2.538238e-001 0.000000e+000 0.000000e+000
 0.000000e+000 0.000000e+000 7.542625e-001 2.457374e-001 0.000000e+000
 0.000000e+000 0.000000e+000 0.000000e+000 8.009328e-001 1.990672e-001
 0.000000e+000 0.000000e+000 0.000000e+000 0.000000e+000 0.000000e+000
<ENDHMM>
~h "k"
<BEGINHMM>
<NUMSTATES> 5
<STATE> 2
<MEAN> 25
 -2.079922e+000 -1.251029e+000 -2.383441e+000 4.623594e-001 1.856346e+000 -6.719029e-001 1.032444e+000 1.256914e+000 1.728036e+000 1.778253e+000 7.986559e-001 5.217342e-002 1.751752e+000 -9.859504e-001 -9.631097e-001 -1.876101e+000 -5.761580e-001 -6.835541e-001 -4.933996e-001 2.619401e-001 -5.556958e-001 -2.721625e-001 2.073214e-001 -3.213410e-001 2.746926e+000
<VARIANCE> 25
 6.485807e+001 6.770642e+001 6.781754e+001 8.388777e+001 5.944398e+001 5.655574e+001 5.357969e+001 5.210722e+001 4.267979e+001 4.469945e+001 3.445365e+001 3.141265e+001 5.753173e+000 6.920016e+000 7.756309e+000 1.013711e+001 6.574370e+000 7.263840e+000 6.740385e+000 7.286641e+000 5.044795e+000 5.556592e+000 4.141127e+000 3.476803e+000 5.988347e+000
<GCONST> 1.171752e+002
<STATE> 3
<MEAN> 25
 8.389742e+000 -2.910197e+000 -4.448488e+000 -8.309265e+000 -3.485789e+000 -8.554825e-001 -1.527181e+000 1.506878e-001 -3.653131e+000 -1.274545e+000 2.864227e+000 -7.653856e-001 1.022497e+000 -2.155266e-001 1.329347e-001 -2.405411e-001 -1.527652e-001 -4.077896e-001 -6.056847e-001 -2.463785e-001 -3.780136e-001 -5.842475e-001 -1.640250e-001 -2.022281e-001 9.971039e-001
<VARIANCE> 25
 6.655894e+001 1.139774e+002 1.023571e+002 1.052303e+002 6.897144e+001 8.106172e+001 7.783491e+001 8.097264e+001 5.960814e+001 7.933921e+001 6.195137e+001 3.860459e+001 3.401030e+000 4.887334e+000 4.565086e+000 6.593536e+000 4.724123e+000 4.379269e+000 5.526549e+000 6.537905e+000 4.033443e+000 4.900303e+000 3.736733e+000 3.177609e+000 2.355475e+000
<GCONST> 1.169315e+002
<STATE> 4
<MEAN> 25
 1.077129e+001 -1.047303e+001 -1.780321e+000 -8.764179e+000 -3.822588e-001 -3.006530e+000 -3.122859e+000 4.894852e-001 -2.868563e+000 -2.339046e+000 -6.801718e-002 -2.434212e+000 -7.378586e-002 9.808858e-002 5.822171e-002 7.315652e-002 2.770787e-002 1.348883e-001 4.732168e-002 -3.124486e-002 4.406985e-002 5.150075e-002 -3.164740e-002 6.159160e-003 -1.580667e-001
<VARIANCE> 25
 5.092733e+001 1.496847e+002 8.636532e+001 1.492041e+002 8.149931e+001 9.864413e+001 6.071812e+001 8.170956e+001 5.904235e+001 8.517548e+001 6.138609e+001 4.081193e+001 2.837854e-001 7.983450e-001 9.565120e-001 1.229731e+000 1.273735e+000 1.259947e+000 1.462150e+000 1.479735e+000 1.403455e+000 1.346495e+000 1.413920e+000 1.162776e+000 3.328355e-001
<GCONST> 9.815630e+001
<TRANSP> 5
 0.000000e+000 1.000000e+000 0.000000e+000 0.000000e+000 0.000000e+000
 0.000000e+000 7.319155e-001 2.680845e-001 0.000000e+000 0.000000e+000
 0.000000e+000 0.000000e+000 7.107637e-001 2.892362e-001 0.000000e+000
 0.000000e+000 0.000000e+000 0.000000e+000 8.739296e-001 1.260705e-001
 0.000000e+000 0.000000e+000 0.000000e+000 0.000000e+000 0.000000e+000
<ENDHMM>
~h "l"
<BEGINHMM>
<NUMSTATES> 5
<STATE> 2
<MEAN> 25
 3.133265e+000 -6.714419e-001 3.344491e+000 -1.450050e+000 -1.878582e+000 -2.088369e+000 -3.340486e+000 -1.590051e+000 -2.122153e-001 -9.560418e-002 1.081621e-001 -1.402293e+000 7.255502e-001 -7.483328e-001 -2.944734e-001 -4.142665e-001 -8.509681e-002 -6.309937e-001 -4.625292e-001 8.087050e-002 1.243142e-001 -5.258885e-001 -1.895304e-001 1.624350e-001 1.395459e+000
<VARIANCE> 25
 1.007187e+002 8.520971e+001 1.035760e+002 9.164452e+001 8.365009e+001 9.163632e+001 8.511409e+001 8.839456e+001 6.858927e+001 6.429604e+001 6.319112e+001 4.574952e+001 4.517796e+000 6.660373e+000 5.803530e+000 8.100253e+000 5.924725e+000 7.823899e+000 7.734020e+000 7.853639e+000 6.591687e+000 5.347438e+000 5.088035e+000 4.522883e+000 5.110898e+000
<GCONST> 1.219212e+002
<STATE> 3
<MEAN> 25
 9.457990e+000 -3.490527e+000 -2.870407e+000 -6.673759e+000 -8.927606e-001 -8.226186e+000 -5.409512e+000 1.861162e+000 4.890550e+000 -5.281969e+000 -4.302210e+000 2.930155e+000 6.684554e-002 -7.962109e-001 -8.529692e-001 -1.997911e-001 5.268604e-001 5.543127e-001 7.446614e-001 -1.646256e-001 -2.276357e-001 -2.772376e-001 -2.661503e-001 2.223539e-001 2.980214e-001
<VARIANCE> 25
 2.736410e+001 4.607945e+001 5.205336e+001 5.712532e+001 5.505762e+001 9.852966e+001 7.976778e+001 8.162261e+001 1.160533e+002 5.999408e+001 5.826798e+001 5.424529e+001 6.555488e-001 2.414056e+000 1.958487e+000 2.958581e+000 3.020569e+000 5.214617e+000 3.433363e+000 3.384981e+000 4.495603e+000 3.756445e+000 3.075713e+000 2.696567e+000 8.345209e-001
<GCONST> 1.075578e+002
<STATE> 4
<MEAN> 25
 1.063784e+001 -9.454669e+000 -3.128194e+000 -7.399072e+000 -1.099158e+000 -3.203428e+000 -2.104765e+000 -5.446525e-001 -2.688745e+000 -6.098867e+000 -4.149772e-001 -4.541376e-001 -1.349647e-002 1.005234e-001 -4.408399e-002 4.625011e-002 -6.970258e-002 1.483136e-002 9.929083e-002 -8.907792e-002 -3.811405e-002 1.118604e-002 8.352094e-002 -5.657456e-002 -1.579600e-001
<VARIANCE> 25
 3.897871e+001 7.741974e+001 7.704282e+001 8.527174e+001 8.959239e+001 9.842923e+001 5.934379e+001 7.897055e+001 5.936109e+001 6.703633e+001 8.543831e+001 4.586903e+001 2.288904e-001 1.003740e+000 9.122069e-001 1.268503e+000 1.374374e+000 1.446520e+000 1.545094e+000 1.520220e+000 1.609607e+000 1.599638e+000 1.463524e+000 1.356309e+000 3.309609e-001
<GCONST> 9.759077e+001
<TRANSP> 5
 0.000000e+000 1.000000e+000 0.000000e+000 0.000000e+000 0.000000e+000
 0.000000e+000 7.611913e-001 2.388087e-001 0.000000e+000 0.000000e+000
 0.000000e+000 0.000000e+000 7.620651e-001 2.379349e-001 0.000000e+000
 0.000000e+000 0.000000e+000 0.000000e+000 9.064350e-001 9.356502e-002
 0.000000e+000 0.000000e+000 0.000000e+000 0.000000e+000 0.000000e+000
<ENDHMM>
~h "m"
<BEGINHMM>
<NUMSTATES> 5
<STATE> 2
<MEAN> 25
 2.675660e+000 1.510490e+000 1.559569e+000 1.444247e+000 9.047866e-001 2.476160e-001 8.985036e-001 -1.838937e+000 -8.958392e-001 5.814262e-001 -2.949874e-001 -1.440310e+000 1.602743e+000 -5.400673e-001 -3.085415e-001 -8.384629e-001 -9.134667e-002 -4.148234e-001 -6.597252e-001 -2.499313e-001 -4.717696e-001 -6.955055e-001 -5.124121e-001 -6.357975e-001 1.916586e+000
<VARIANCE> 25
 8.702467e+001 6.685025e+001 5.919895e+001 5.984916e+001 4.973647e+001 5.990479e+001 7.774825e+001 6.592603e+001 6.110666e+001 4.185892e+001 5.340788e+001 3.883350e+001 5.065068e+000 7.268286e+000 5.717068e+000 7.403126e+000 5.299385e+000 5.873438e+000 5.983579e+000 6.573016e+000 6.286203e+000 4.428574e+000 4.435862e+000 3.467660e+000 6.305260e+000
<GCONST> 1.171763e+002
<STATE> 3
<MEAN> 25
 9.496602e+000 -5.050789e+000 -3.077731e+000 -5.750150e+000 1.807012e+000 -2.487616e+000 -3.455466e+000 1.907839e-001 -2.129841e+000 -5.974149e+000 -2.809285e+000 -3.794451e+000 9.962872e-002 -1.273677e+000 -2.631313e-001 -4.547101e-001 6.570033e-001 4.784378e-002 8.683218e-002 4.994915e-001 -1.516740e-002 -5.362037e-001 -8.776877e-002 -8.338446e-002 8.924254e-001
<VARIANCE> 25
 3.251130e+001 7.601959e+001 4.967086e+001 7.458327e+001 7.557686e+001 7.512425e+001 6.860090e+001 8.153772e+001 7.429427e+001 5.840987e+001 5.056116e+001 4.072153e+001 2.215741e+000 7.507213e+000 4.324059e+000 7.396383e+000 5.833388e+000 4.384996e+000 5.659221e+000 5.856378e+000 4.946651e+000 4.836146e+000 4.635616e+000 3.498492e+000 5.219937e+000
<GCONST> 1.158886e+002
<STATE> 4
<MEAN> 25
 9.730734e+000 -4.724550e+000 9.451944e-002 -2.963451e+000 2.384831e+000 2.626774e-001 -2.402781e+000 -2.343479e+000 -4.463983e+000 -2.591954e+000 -3.046141e+000 -5.502228e+000 -2.051136e-001 4.804457e-001 1.197429e-001 3.952560e-001 -3.454325e-002 4.224545e-002 1.463742e-001 -1.578123e-001 -2.479504e-004 9.130637e-002 -6.641055e-002 4.219832e-002 -5.356914e-001
<VARIANCE> 25
 2.586571e+001 1.329680e+002 3.904721e+001 1.132629e+002 5.940038e+001 4.839606e+001 8.666205e+001 8.767909e+001 7.934830e+001 7.582294e+001 7.228941e+001 3.784209e+001 5.280370e-001 1.302821e+000 1.004616e+000 1.630287e+000 1.483049e+000 1.403542e+000 1.985782e+000 2.228657e+000 1.920144e+000 1.815026e+000 2.080601e+000 1.596717e+000 5.754009e-001
<GCONST> 1.002364e+002
<TRANSP> 5
 0.000000e+000 1.000000e+000 0.000000e+000 0.000000e+000 0.000000e+000
 0.000000e+000 6.785639e-001 3.214362e-001 0.000000e+000 0.000000e+000
 0.000000e+000 0.000000e+000 6.479734e-001 3.520266e-001 0.000000e+000
 0.000000e+000 0.000000e+000 0.000000e+000 9.213018e-001 7.869827e-002
 0.000000e+000 0.000000e+000 0.000000e+000 0.000000e+000 0.000000e+000
<ENDHMM>
~h "n"
<BEGINHMM>
<NUMSTATES> 5
<STATE> 2
<MEAN> 25
 2.382214e+000 5.620189e-001 6.707077e-001 3.501393e-001 -6.876751e-002 -1.016099e+000 -3.116260e-001 -9.103019e-001 -1.232969e+000 -1.122123e+000 9.345105e-002 -1.063895e+000 9.095656e-001 3.084823e-001 4.051692e-001 8.688506e-002 -3.236419e-001 -4.355768e-001 -5.025667e-001 -5.652826e-001 -6.210601e-001 -5.476757e-001 -3.392492e-001 -3.408292e-001 6.296738e-001
<VARIANCE> 25
 7.301820e+001 7.169259e+001 6.741703e+001 6.694305e+001 5.821208e+001 5.857830e+001 6.046180e+001 5.529423e+001 5.183813e+001 5.697686e+001 4.260693e+001 2.947270e+001 4.479857e+000 5.944853e+000 4.858634e+000 6.547148e+000 5.004157e+000 5.147732e+000 5.783655e+000 5.300253e+000 4.988072e+000 4.662384e+000 3.573875e+000 2.739667e+000 5.880645e+000
<GCONST> 1.149134e+002
<STATE> 3
<MEAN> 25
 7.213037e+000 -6.394849e-001 6.312039e+000 -1.527243e+000 -3.406315e+000 -4.104702e+000 -5.768246e+000 -1.398153e+000 -4.614398e+000 -6.039268e+000 -2.313753e-002 -2.924440e+000 7.606209e-002 2.514865e-001 -9.624305e-002 5.989824e-001 1.102223e-001 1.089787e-001 2.129096e-001 -3.446315e-001 -2.289535e-001 5.721883e-002 -2.666179e-001 1.477772e-003 -4.076628e-001
<VARIANCE> 25
 4.186363e+001 8.417999e+001 1.283089e+002 1.146198e+002 8.101522e+001 8.733454e+001 8.196604e+001 9.379961e+001 6.783900e+001 8.522080e+001 7.240099e+001 3.963973e+001 1.399213e+000 4.267853e+000 3.603912e+000 4.864183e+000 3.912276e+000 4.669690e+000 4.778767e+000 6.002241e+000 4.258747e+000 4.506198e+000 3.669091e+000 2.853024e+000 2.503248e+000
<GCONST> 1.152795e+002
<STATE> 4
<MEAN> 25
 6.179309e+000 5.725755e+000 3.361577e+000 5.293676e+000 -5.485135e-002 -1.756753e+000 -1.648367e+000 -7.067253e+000 -5.467801e+000 -2.236479e+000 -3.301321e+000 -2.963658e+000 -5.592723e-001 1.218739e-001 4.711930e-002 1.450018e-001 1.801395e-001 2.125147e-001 2.415287e-001 1.129495e-001 2.747160e-001 3.013494e-001 7.875276e-002 9.799691e-002 -5.430131e-001
<VARIANCE> 25
 4.026322e+001 4.645501e+001 3.191719e+001 4.436480e+001 5.361939e+001 4.214105e+001 5.450493e+001 9.207716e+001 6.497665e+001 6.488200e+001 4.592976e+001 3.601211e+001 4.812034e-001 1.188134e+000 1.141714e+000 1.343167e+000 1.588698e+000 1.751827e+000 2.052924e+000 2.636140e+000 2.223334e+000 2.343497e+000 2.256107e+000 1.768644e+000 2.996691e-001
<GCONST> 9.714792e+001
<TRANSP> 5
 0.000000e+000 1.000000e+000 0.000000e+000 0.000000e+000 0.000000e+000
 0.000000e+000 5.073466e-001 4.926534e-001 0.000000e+000 0.000000e+000
 0.000000e+000 0.000000e+000 7.306098e-001 2.693902e-001 0.000000e+000
 0.000000e+000 0.000000e+000 0.000000e+000 8.893282e-001 1.106718e-001
 0.000000e+000 0.000000e+000 0.000000e+000 0.000000e+000 0.000000e+000
<ENDHMM>
~h "p"
<BEGINHMM>
<NUMSTATES> 5
<STATE> 2
<MEAN> 25
 -4.628531e+000 1.480772e+000 -1.081199e-001 4.074021e+000 1.973379e+000 2.352537e+000 3.779077e+000 1.093786e+000 2.085496e+000 3.240517e+000 1.308263e+000 6.910131e-001 -1.617858e-001 -4.461909e-001 -9.410911e-002 -2.167391e-001 -7.396022e-003 7.646205e-003 1.165294e-001 1.504910e-001 1.850799e-001 2.265562e-001 2.481747e-001 1.045274e-001 1.738842e-001
<VARIANCE> 25
 2.681885e+001 2.072320e+001 2.856630e+001 2.220179e+001 2.368603e+001 2.603249e+001 2.198363e+001 2.386404e+001 2.647185e+001 2.257370e+001 2.750723e+001 1.853159e+001 1.662928e+000 1.337139e+000 1.328251e+000 1.548676e+000 1.734005e+000 2.115144e+000 2.262278e+000 2.138073e+000 2.022129e+000 1.884591e+000 1.934172e+000 1.772779e+000 2.233013e+000
<GCONST> 9.180303e+001
<STATE> 3
<MEAN> 25
 1.955546e+000 -4.180936e+000 -1.767411e+000 -3.014522e+000 2.683304e-001 -1.383309e-001 1.085082e-001 9.748603e-001 1.592749e+000 4.388439e-001 6.896074e-001 -4.945906e-001 2.839881e+000 -2.252140e+000 -7.971209e-001 -2.290185e+000 -4.736810e-001 -9.437462e-001 -1.262272e+000 1.927978e-004 -5.570296e-001 -1.291871e+000 -4.396893e-001 -8.389874e-001 4.540096e+000
<VARIANCE> 25
 7.358814e+001 7.082961e+001 5.377351e+001 7.094711e+001 6.348414e+001 5.854870e+001 4.867110e+001 4.408468e+001 3.572026e+001 4.238309e+001 3.527313e+001 2.618059e+001 5.340840e+000 7.355673e+000 6.702018e+000 9.301485e+000 8.274085e+000 7.761859e+000 6.192871e+000 6.665634e+000 5.253883e+000 6.049701e+000 5.409921e+000 2.970230e+000 7.961863e+000
<GCONST> 1.167915e+002
<STATE> 4
<MEAN> 25
 8.727225e+000 -1.539080e+001 -2.004564e+000 -1.220529e+001 2.744596e+000 6.866693e-001 -2.378891e+000 1.186862e+000 -9.013120e-001 -2.175385e+000 -1.159513e+000 -3.232311e+000 8.106179e-002 1.039901e-001 6.320792e-002 2.312996e-001 -1.148774e-001 -2.425073e-001 -1.628265e-002 -1.400281e-001 -2.516154e-001 -2.027861e-001 -1.045580e-001 1.074719e-003 3.747689e-002
<VARIANCE> 25
 2.981287e+001 7.185758e+001 5.983574e+001 9.284373e+001 8.379070e+001 5.311918e+001 5.929066e+001 6.254691e+001 3.946059e+001 9.478153e+001 4.841525e+001 2.757759e+001 9.073149e-001 2.362274e+000 1.470452e+000 2.625113e+000 1.998851e+000 2.322780e+000 2.346081e+000 1.998626e+000 1.807935e+000 1.940502e+000 1.532667e+000 1.426496e+000 2.228679e+000
<GCONST> 1.023144e+002
<TRANSP> 5
 0.000000e+000 1.000000e+000 0.000000e+000 0.000000e+000 0.000000e+000
 0.000000e+000 7.849033e-001 2.150966e-001 0.000000e+000 0.000000e+000
 0.000000e+000 0.000000e+000 6.875085e-001 3.124914e-001 0.000000e+000
 0.000000e+000 0.000000e+000 0.000000e+000 8.432625e-001 1.567375e-001
 0.000000e+000 0.000000e+000 0.000000e+000 0.000000e+000 0.000000e+000
<ENDHMM>
~h "r"
<BEGINHMM>
<NUMSTATES> 5
<STATE> 2
<MEAN> 25
 1.230988e+001 -1.076427e+001 -7.001038e+000 -2.429555e+000 -2.446152e+000 -3.620985e+000 -3.161480e+000 5.475072e+000 -1.555679e+000 -5.281363e+000 -9.133176e-002 1.876526e+000 3.494366e-003 -2.987278e-001 -1.762924e-001 -3.317877e-002 4.031833e-002 6.174383e-002 1.260170e-001 -4.840871e-002 -5.617492e-002 -1.941716e-002 5.932188e-002 8.930421e-003 9.030572e-002
<VARIANCE> 25
 7.370177e+001 5.933321e+001 6.523283e+001 3.611924e+001 4.621886e+001 1.412978e+002 6.162723e+001 4.796503e+001 4.650354e+001 4.251881e+001 7.604196e+001 3.755091e+001 8.978993e-001 1.849557e+000 1.777519e+000 1.644200e+000 2.095725e+000 2.251823e+000 2.122957e+000 1.981067e+000 1.854813e+000 2.057699e+000 1.921920e+000 1.504698e+000 9.900072e-001
<GCONST> 1.013763e+002
<STATE> 3
<MEAN> 25
 6.214726e+000 -9.532503e+000 -5.618671e+000 -4.250271e+000 2.924268e+000 -2.587703e+000 1.119146e-001 -3.392545e+000 -2.610949e+000 -7.519221e+000 -1.294410e+000 -8.474887e-001 -1.347170e-001 1.190466e-001 3.628583e-002 1.602612e-001 8.688325e-002 4.139481e-002 1.807728e-001 -1.838329e-001 1.446011e-001 2.271565e-001 2.061754e-002 -2.738197e-001 -2.576827e-001
<VARIANCE> 25
 3.035556e+001 5.956300e+001 2.503489e+001 3.366727e+001 4.493336e+001 4.593211e+001 5.221991e+001 5.479395e+001 3.189007e+001 5.606432e+001 3.372190e+001 2.796171e+001 4.725295e-001 9.330726e-001 7.216630e-001 9.110751e-001 2.224025e+000 1.750902e+000 1.678680e+000 2.086849e+000 1.601654e+000 1.844665e+000 1.394770e+000 1.458955e+000 5.815750e-001
<GCONST> 9.273953e+001
<STATE> 4
<MEAN> 25
 -3.164617e+000 1.936625e-001 -1.272551e+000 1.349808e+000 2.226433e-001 2.246485e+000 2.787343e+000 3.829960e-001 2.807331e-001 1.733473e+000 1.738896e+000 -1.866600e-001 -8.495511e-002 5.257314e-002 3.076699e-002 4.162686e-002 2.624848e-003 4.645339e-002 1.502520e-002 1.626128e-002 2.610358e-002 3.232691e-002 1.472414e-002 -2.432751e-002 -1.267129e-001
<VARIANCE> 25
 7.464983e+001 3.915992e+001 2.884513e+001 2.743023e+001 2.002966e+001 2.324857e+001 1.810918e+001 2.325632e+001 1.860201e+001 2.674627e+001 2.114437e+001 1.859553e+001 1.905288e-001 3.758551e-001 4.674668e-001 6.421894e-001 8.478754e-001 9.507998e-001 1.088252e+000 1.224034e+000 1.194188e+000 1.169618e+000 1.173478e+000 9.997147e-001 1.174763e-001
<GCONST> 7.955515e+001
<TRANSP> 5
 0.000000e+000 1.000000e+000 0.000000e+000 0.000000e+000 0.000000e+000
 0.000000e+000 8.488696e-001 1.511305e-001 0.000000e+000 0.000000e+000
 0.000000e+000 0.000000e+000 7.848634e-001 2.151366e-001 0.000000e+000
 0.000000e+000 0.000000e+000 0.000000e+000 8.573171e-001 1.426829e-001
 0.000000e+000 0.000000e+000 0.000000e+000 0.000000e+000 0.000000e+000
<ENDHMM>
~h "s"
<BEGINHMM>
<NUMSTATES> 5
<STATE> 2
<MEAN> 25
 -8.432262e+000 2.253086e+000 -3.190342e+000 4.497048e+000 2.018805e+000 -2.124362e-001 6.476748e+000 6.328960e-001 2.251884e-001 1.492053e+000 1.025073e+000 -2.671884e-001 -1.613975e+000 4.911704e-001 -1.841394e-001 -1.636188e-001 2.433270e-001 -2.298064e-001 8.599527e-001 2.874320e-001 1.591894e-001 4.869445e-001 4.268257e-001 -6.783824e-002 5.018277e-001
<VARIANCE> 25
 7.954564e+001 3.886256e+001 4.863773e+001 2.451747e+001 2.961801e+001 3.775143e+001 4.030531e+001 3.651072e+001 3.657968e+001 3.648886e+001 3.351682e+001 2.174482e+001 3.278364e+000 3.724457e+000 3.702706e+000 2.265983e+000 2.774295e+000 3.748017e+000 3.390254e+000 2.719834e+000 2.783249e+000 2.529166e+000 2.329590e+000 2.141321e+000 1.618751e+000
<GCONST> 1.024012e+002
<STATE> 3
<MEAN> 25
 -1.280124e+001 -8.958851e-001 -7.085415e-001 -1.261695e+000 3.798466e+000 -1.360572e+000 5.294064e+000 3.616681e+000 2.815847e+000 2.111714e+000 3.104439e+000 3.848380e-001 -2.768158e-001 -1.046853e+000 4.397770e-001 -1.009428e+000 1.691308e-002 -3.403757e-002 -3.716549e-001 1.394726e-001 1.869902e-001 -3.141807e-001 1.112537e-001 -5.548286e-003 1.545803e+000
<VARIANCE> 25
 9.950741e+001 9.119912e+001 1.175910e+002 6.255539e+001 6.293324e+001 1.025349e+002 1.021960e+002 6.907684e+001 4.661125e+001 5.026741e+001 4.229566e+001 2.763161e+001 9.650993e+000 5.634715e+000 7.304008e+000 4.272635e+000 4.689300e+000 5.432600e+000 6.140133e+000 5.343467e+000 4.330686e+000 5.166595e+000 4.874215e+000 2.733872e+000 3.716651e+000
<GCONST> 1.175962e+002
<STATE> 4
<MEAN> 25
 -1.641561e+001 -1.045790e+000 2.246599e+000 -2.004247e+000 1.667860e+000 7.532514e-001 6.458826e+000 9.408798e-001 2.359458e+000 4.224000e+000 2.760064e+000 4.416680e-001 3.647507e-001 -1.818665e-001 8.864097e-002 -2.311668e-002 -8.963415e-002 -4.486184e-002 -1.975295e-001 -3.966965e-002 2.159319e-002 -2.649124e-002 -9.078176e-003 3.093519e-002 -5.154743e-002
<VARIANCE> 25
 5.479800e+001 8.982165e+001 1.156026e+002 8.404398e+001 4.743192e+001 5.365797e+001 5.650241e+001 4.840426e+001 2.470204e+001 2.623941e+001 2.404303e+001 1.846179e+001 2.726437e+000 1.251668e+000 1.598641e+000 1.635943e+000 1.486749e+000 1.925357e+000 1.946418e+000 1.857672e+000 1.795478e+000 1.764772e+000 1.530533e+000 1.451363e+000 1.009395e+000
<GCONST> 9.844202e+001
<TRANSP> 5
 0.000000e+000 1.000000e+000 0.000000e+000 0.000000e+000 0.000000e+000
 0.000000e+000 7.207202e-001 2.792798e-001 0.000000e+000 0.000000e+000
 0.000000e+000 0.000000e+000 7.112558e-001 2.887441e-001 0.000000e+000
 0.000000e+000 0.000000e+000 0.000000e+000 8.605953e-001 1.394047e-001
 0.000000e+000 0.000000e+000 0.000000e+000 0.000000e+000 0.000000e+000
<ENDHMM>
~h "t"
<BEGINHMM>
<NUMSTATES> 5
<STATE> 2
<MEAN> 25
 -4.634735e+000 2.473842e+000 1.631544e+000 4.039572e+000 2.519038e+000 1.922066e+000 2.318773e+000 -2.923196e-001 1.513252e+000 2.358799e+000 4.127133e-001 6.076385e-001 -3.450124e-001 -6.694528e-001 -1.601710e-001 -3.871284e-001 3.659356e-002 2.064562e-002 3.605608e-001 1.542418e-001 1.343722e-001 3.365970e-001 2.077902e-001 -3.080397e-002 4.993431e-001
<VARIANCE> 25
 3.744863e+001 2.469872e+001 3.578102e+001 3.508495e+001 2.937752e+001 2.665560e+001 2.967683e+001 3.100463e+001 2.977849e+001 2.492482e+001 2.647626e+001 2.068712e+001 2.098779e+000 2.317783e+000 2.356033e+000 3.827492e+000 2.861615e+000 3.567352e+000 3.286450e+000 3.081796e+000 2.953026e+000 2.485235e+000 2.608475e+000 2.011261e+000 4.182750e+000
<GCONST> 9.981636e+001
<STATE> 3
<MEAN> 25
 3.570836e-001 -2.726594e+000 2.226139e+000 -1.507701e+000 1.818157e-001 -2.334185e+000 -1.762387e+000 -1.113318e+000 6.632634e-001 1.158138e+000 8.814262e-001 -6.733300e-001 2.056003e+000 -5.946192e-001 1.161041e-001 -1.312424e+000 -7.742028e-001 -1.159868e+000 -1.714502e+000 -4.366514e-001 -8.201277e-001 -9.912686e-001 1.753819e-002 -6.190382e-001 2.988820e+000
<VARIANCE> 25
 7.154023e+001 8.362469e+001 6.855880e+001 8.629848e+001 5.488811e+001 8.794404e+001 9.325861e+001 6.641151e+001 5.641646e+001 5.890822e+001 4.526394e+001 3.272663e+001 6.291492e+000 1.030410e+001 7.358966e+000 8.901888e+000 6.220864e+000 1.071554e+001 1.093472e+001 8.534574e+000 7.189346e+000 7.239432e+000 5.622952e+000 4.178039e+000 8.511615e+000
<GCONST> 1.222916e+002
<STATE> 4
<MEAN> 25
 7.039811e+000 -6.238526e+000 -1.339148e+000 -5.022574e+000 -1.067484e+000 -1.174725e+000 -1.924196e+000 8.082408e-002 -1.214031e+000 -7.887214e-001 1.429505e+000 -1.493775e+000 -2.614776e-002 2.787322e-001 -2.400668e-002 -1.634287e-002 -1.236085e-001 -6.499726e-004 1.181917e-001 2.444785e-002 -4.662319e-002 -2.790751e-002 -2.202870e-002 -4.092916e-002 -1.541419e-001
<VARIANCE> 25
 9.125708e+001 1.195311e+002 1.103894e+002 1.186456e+002 8.102010e+001 9.543208e+001 1.067209e+002 7.286673e+001 6.718900e+001 7.465722e+001 6.379031e+001 4.893609e+001 1.074189e+000 2.280300e+000 2.416037e+000 2.679701e+000 2.888484e+000 2.733995e+000 2.810334e+000 2.931262e+000 2.672733e+000 2.664380e+000 2.241839e+000 2.004739e+000 2.151554e+000
<GCONST> 1.103738e+002
<TRANSP> 5
 0.000000e+000 1.000000e+000 0.000000e+000 0.000000e+000 0.000000e+000
 0.000000e+000 6.930051e-001 3.069949e-001 0.000000e+000 0.000000e+000
 0.000000e+000 0.000000e+000 6.661151e-001 3.338849e-001 0.000000e+000
 0.000000e+000 0.000000e+000 0.000000e+000 7.424761e-001 2.575238e-001
 0.000000e+000 0.000000e+000 0.000000e+000 0.000000e+000 0.000000e+000
<ENDHMM>
~h "y"
<BEGINHMM>
<NUMSTATES> 5
<STATE> 2
<MEAN> 25
 7.582865e-001 -1.260544e+000 3.531634e+000 4.551925e+000 4.052383e+000 -2.313207e+000 -4.325036e+000 -2.423198e+000 -1.038215e-001 -2.445540e+000 1.021910e+000 -1.849222e-001 -3.872506e-001 2.299595e-001 4.103231e-001 2.508039e-001 -8.254156e-003 1.228446e-001 5.621477e-002 -1.664295e-001 -1.688775e-001 6.020749e-002 1.224510e-001 -6.247361e-002 -3.773846e-001
<VARIANCE> 25
 2.832427e+001 1.764314e+001 3.642538e+001 2.454880e+001 1.272900e+001 4.465891e+001 5.147243e+001 1.983451e+001 1.962243e+001 2.782138e+001 1.684640e+001 1.619160e+001 3.815697e-001 2.745449e-001 1.473204e+000 1.062671e+000 7.577240e-001 2.155908e+000 2.268640e+000 1.409773e+000 1.537466e+000 2.128883e+000 9.943755e-001 1.205233e+000 2.201648e-001
<GCONST> 8.383833e+001
<STATE> 3
<MEAN> 25
 -9.883952e+000 4.049764e+000 4.292915e+000 2.212752e+000 3.145922e+000 5.240142e+000 3.432069e+000 -1.340713e+000 -6.070119e-001 4.129915e+000 2.119514e+000 -8.824278e-001 -2.480018e-001 -4.336983e-002 3.680879e-002 -3.883419e-002 -3.553149e-002 1.051589e-001 1.115452e-002 -1.551640e-001 -7.931934e-002 9.163090e-002 9.945061e-003 -7.084700e-002 -1.828609e-001
<VARIANCE> 25
 1.325613e+001 1.293824e+001 6.625631e+000 1.986904e+001 1.163882e+001 1.479538e+001 9.176472e+000 1.017965e+001 1.118163e+001 1.160402e+001 9.405540e+000 1.065664e+001 1.548644e-001 2.087000e-001 4.884909e-001 6.145325e-001 7.833489e-001 6.686180e-001 8.646519e-001 9.111043e-001 1.205136e+000 1.421363e+000 9.495831e-001 7.879376e-001 5.766758e-002
<GCONST> 6.700493e+001
<STATE> 4
<MEAN> 25
 -1.295118e+001 4.944341e+000 4.866585e+000 -8.735667e-001 1.871025e+000 6.662959e+000 2.822656e+000 -3.799545e+000 -1.858645e+000 4.165753e+000 1.339210e+000 -1.394320e+000 -9.497399e-004 1.083741e-002 2.267517e-002 9.807781e-003 6.627218e-004 -1.009069e-002 -1.257583e-002 -3.318451e-003 4.854690e-003 1.533326e-002 -5.320187e-003 -7.437024e-003 -4.201747e-003
<VARIANCE> 25
 1.111710e+001 7.045152e+000 5.021317e+000 6.196014e+000 6.038970e+000 7.304581e+000 7.188011e+000 8.343437e+000 7.605332e+000 7.597305e+000 6.708064e+000 6.754072e+000 3.188218e-001 3.880062e-001 4.316681e-001 5.454206e-001 5.331442e-001 6.404387e-001 6.605887e-001 7.372193e-001 7.147992e-001 7.926710e-001 6.869565e-001 6.742989e-001 9.611867e-002
<GCONST> 6.048602e+001
<TRANSP> 5
 0.000000e+000 1.000000e+000 0.000000e+000 0.000000e+000 0.000000e+000
 0.000000e+000 8.332750e-001 1.667250e-001 0.000000e+000 0.000000e+000
 0.000000e+000 0.000000e+000 8.368577e-001 1.631423e-001 0.000000e+000
 0.000000e+000 0.000000e+000 0.000000e+000 9.549387e-001 4.506134e-002
 0.000000e+000 0.000000e+000 0.000000e+000 0.000000e+000 0.000000e+000
<ENDHMM>
~h "aa"
<BEGINHMM>
<NUMSTATES> 5
<STATE> 2
<MEAN> 25
 7.274892e+000 -5.698624e+000 -4.469051e+000 -3.254238e+000 2.991426e-002 -2.417317e+000 -4.595134e-001 -5.522635e-001 -2.517405e+000 -4.293486e+000 -2.425593e+000 -5.203002e-001 -1.761245e-002 3.153313e-001 -1.428474e-001 3.581830e-001 2.469607e-001 1.709132e-001 4.715838e-002 2.776185e-002 6.636341e-002 -5.733917e-002 -1.138967e-001 1.785163e-001 -3.950862e-001
<VARIANCE> 25
 5.235983e+001 8.445580e+001 5.602330e+001 7.062903e+001 6.682465e+001 7.254910e+001 6.786222e+001 7.285030e+001 5.894286e+001 6.481152e+001 6.517212e+001 4.703119e+001 1.950150e+000 4.607401e+000 2.939810e+000 3.860183e+000 3.652821e+000 3.842885e+000 3.973467e+000 3.762436e+000 3.789560e+000 3.756359e+000 3.557202e+000 2.689847e+000 3.778748e+000
<GCONST> 1.121072e+002
<STATE> 3
<MEAN> 25
 3.063266e+000 -1.761562e+000 -3.814591e+000 2.009191e+000 3.837489e+000 1.378117e+000 2.439656e+000 5.802928e-001 -3.200491e-001 -2.613772e+000 -2.518036e+000 4.363465e-001 -7.725353e-001 4.360883e-001 2.637317e-001 3.177060e-001 5.749105e-002 2.844865e-001 2.914379e-001 1.280729e-001 2.492700e-001 4.651267e-001 2.781525e-001 5.939911e-002 -1.037124e+000
<VARIANCE> 25
 4.502031e+001 6.273603e+001 3.864417e+001 3.369809e+001 4.791069e+001 3.798262e+001 4.101626e+001 3.636377e+001 3.367598e+001 4.296136e+001 3.936721e+001 2.941878e+001 7.702604e-001 1.312905e+000 1.553972e+000 1.574827e+000 1.953980e+000 1.966342e+000 2.052145e+000 2.076501e+000 2.082817e+000 2.051529e+000 1.985546e+000 1.853848e+000 5.374781e-001
<GCONST> 9.604686e+001
<STATE> 4
<MEAN> 25
 -5.959191e+000 2.332159e+000 -1.689334e+000 5.045040e+000 1.747856e+000 2.053710e+000 3.805430e+000 2.500631e+000 2.171470e+000 2.447209e+000 1.097045e+000 1.789131e+000 -1.084445e-001 7.194174e-003 3.211283e-002 1.402159e-002 -1.539676e-002 2.962065e-003 8.395677e-003 1.583791e-002 5.184518e-002 6.608014e-002 2.482761e-002 7.386298e-003 -9.234399e-002
<VARIANCE> 25
 2.571507e+001 1.207720e+001 2.075181e+001 1.469040e+001 1.347814e+001 2.221537e+001 1.498642e+001 1.907820e+001 1.903375e+001 2.277285e+001 1.860230e+001 1.623443e+001 2.085607e-001 3.281829e-001 5.028127e-001 6.514407e-001 8.359132e-001 1.008192e+000 1.138177e+000 1.267653e+000 1.290494e+000 1.292394e+000 1.224491e+000 1.116120e+000 1.021069e-001
<GCONST> 7.548478e+001
<TRANSP> 5
 0.000000e+000 1.000000e+000 0.000000e+000 0.000000e+000 0.000000e+000
 0.000000e+000 8.407249e-001 1.592751e-001 0.000000e+000 0.000000e+000
 0.000000e+000 0.000000e+000 8.360341e-001 1.639659e-001 0.000000e+000
 0.000000e+000 0.000000e+000 0.000000e+000 9.347922e-001 6.520783e-002
 0.000000e+000 0.000000e+000 0.000000e+000 0.000000e+000 0.000000e+000
<ENDHMM>
~h "eu"
<BEGINHMM>
<NUMSTATES> 5
<STATE> 2
<MEAN> 25
 -4.737940e+000 3.153020e+000 1.190681e+000 2.186482e+000 1.288461e+000 -1.911761e+000 3.688662e+000 1.316047e+000 1.541566e+000 1.391219e+000 7.691988e-001 5.852206e-001 2.415217e+000 -2.640214e-002 2.375525e-001 -4.879875e-001 -4.937987e-001 -1.037965e+000 -1.163057e+000 -3.819696e-001 -5.242257e-001 -9.273095e-001 -3.928329e-001 -4.546940e-001 1.868632e+000
<VARIANCE> 25
 1.129879e+002 7.576696e+001 5.999578e+001 6.015799e+001 3.704901e+001 7.663694e+001 4.750865e+001 4.709922e+001 3.949659e+001 3.893121e+001 3.712496e+001 2.389244e+001 9.743628e+000 6.728529e+000 5.333855e+000 5.662049e+000 4.434170e+000 5.421613e+000 6.848463e+000 4.772284e+000 4.728607e+000 5.218895e+000 3.858741e+000 2.973564e+000 4.015120e+000
<GCONST> 1.142770e+002
<STATE> 3
<MEAN> 25
 6.656918e+000 -2.816656e+000 1.944976e+000 -5.211531e+000 -1.251560e+000 -3.994347e+000 -5.601469e+000 -6.332126e-001 -7.563281e-001 -3.245601e+000 1.376046e+000 -1.704121e+000 1.942633e+000 -1.423326e+000 -5.445725e-002 -1.594918e+000 -5.319921e-001 -2.760955e-001 -1.873374e+000 7.755622e-003 -4.423506e-001 -9.742634e-001 1.353040e-001 -5.133020e-001 2.313105e+000
<VARIANCE> 25
 5.241795e+001 8.653114e+001 8.195256e+001 8.103129e+001 6.822309e+001 8.821023e+001 9.030696e+001 7.236662e+001 8.291617e+001 7.452533e+001 5.634221e+001 3.950503e+001 5.968911e+000 1.054016e+001 5.910703e+000 9.424046e+000 5.762967e+000 7.107069e+000 9.662829e+000 7.648514e+000 8.591258e+000 7.258361e+000 6.012293e+000 4.569147e+000 8.644098e+000
<GCONST> 1.228720e+002
<STATE> 4
<MEAN> 25
 9.706569e+000 -1.296470e+001 7.887860e+000 -1.344315e+001 -3.376964e-001 2.342980e+000 -1.015202e+001 1.548625e+000 -6.331025e-001 1.936576e+000 3.504096e+000 -5.213882e+000 3.276809e-002 1.443611e-001 -5.444581e-002 1.585846e-001 4.857293e-002 6.818056e-002 1.273119e-001 3.515568e-002 -6.180209e-002 2.415208e-002 -2.078749e-001 -1.969719e-002 -2.014641e-001
<VARIANCE> 25
 5.395831e+001 1.123071e+002 7.471538e+001 9.266542e+001 6.680094e+001 5.651012e+001 5.661267e+001 6.658943e+001 7.771728e+001 9.780127e+001 8.542322e+001 5.185711e+001 7.059032e-001 1.715417e+000 1.428739e+000 2.066087e+000 1.750130e+000 1.679558e+000 2.120292e+000 2.137708e+000 1.994222e+000 1.711326e+000 2.075754e+000 1.661729e+000 1.008749e+000
<GCONST> 1.036399e+002
<TRANSP> 5
 0.000000e+000 1.000000e+000 0.000000e+000 0.000000e+000 0.000000e+000
 0.000000e+000 6.218789e-001 3.781211e-001 0.000000e+000 0.000000e+000
 0.000000e+000 0.000000e+000 6.276189e-001 3.723811e-001 0.000000e+000
 0.000000e+000 0.000000e+000 0.000000e+000 8.852751e-001 1.147249e-001
 0.000000e+000 0.000000e+000 0.000000e+000 0.000000e+000 0.000000e+000
<ENDHMM>
~h "hh"
<BEGINHMM>
<NUMSTATES> 5
<STATE> 2
<MEAN> 25
 1.776340e+000 -2.694743e+000 -5.724228e+000 -1.699045e+000 1.883242e+000 4.178218e+000 4.681551e+000 -5.291137e-001 2.114815e-001 1.636824e+000 9.774921e-001 1.021308e-002 -6.874124e-001 -1.517925e-001 -4.406845e-001 7.368065e-002 3.557577e-001 5.308875e-001 7.648906e-001 6.713631e-001 8.321172e-001 6.813348e-001 2.012954e-001 3.337163e-001 -8.836565e-001
<VARIANCE> 25
 2.606367e+001 4.150759e+001 4.381820e+001 5.093229e+001 8.902084e+001 5.308686e+001 7.538444e+001 4.669953e+001 3.721498e+001 3.789732e+001 4.019468e+001 2.845956e+001 6.204817e-001 1.689615e+000 1.725191e+000 1.991738e+000 2.762342e+000 2.768895e+000 2.362905e+000 2.494411e+000 2.435511e+000 2.042975e+000 2.565796e+000 2.319233e+000 5.136210e-001
<GCONST> 9.937669e+001
<STATE> 3
<MEAN> 25
 -3.394605e+000 -2.087472e+000 -6.444810e+000 3.517323e-001 2.977709e+000 3.744222e+000 5.853004e+000 2.263508e+000 4.510709e+000 5.497787e+000 2.463164e+000 2.700330e+000 -4.706571e-001 1.180534e-001 3.219579e-001 1.795845e-001 -1.804702e-001 -1.841142e-001 -1.841931e-001 3.402483e-002 7.609031e-003 6.478805e-002 5.898309e-002 7.187346e-002 -5.177206e-001
<VARIANCE> 25
 1.900286e+001 3.424035e+001 4.174737e+001 4.225819e+001 3.392619e+001 2.989992e+001 4.051154e+001 5.184919e+001 4.391849e+001 3.783510e+001 4.320784e+001 2.713553e+001 6.992435e-001 1.482554e+000 2.470662e+000 2.558375e+000 2.409070e+000 2.412318e+000 2.651270e+000 2.914776e+000 2.702657e+000 2.403376e+000 2.464216e+000 1.958487e+000 6.085331e-001
<GCONST> 9.758775e+001
<STATE> 4
<MEAN> 25
 -5.081640e+000 1.043379e+000 -1.117182e+000 5.039016e+000 1.313017e+000 3.512030e+000 3.837832e+000 3.581764e+000 2.812657e+000 4.211398e+000 2.220743e+000 1.112782e+000 -4.152294e-002 1.122765e-002 2.559377e-002 1.089714e-002 -9.061342e-003 -1.125898e-003 -1.289995e-002 -3.072708e-003 -1.590174e-002 -1.270577e-003 -1.116078e-002 -6.565244e-003 -4.483792e-002
<VARIANCE> 25
 7.644645e+000 9.842847e+000 1.733795e+001 1.377593e+001 1.378010e+001 1.823479e+001 1.302009e+001 1.661036e+001 1.812401e+001 1.863761e+001 1.787947e+001 1.338553e+001 1.562821e-001 3.028178e-001 5.145923e-001 6.666163e-001 8.251734e-001 9.977539e-001 1.131801e+000 1.218208e+000 1.276597e+000 1.307940e+000 1.270513e+000 1.105042e+000 6.636077e-002
<GCONST> 7.209227e+001
<TRANSP> 5
 0.000000e+000 1.000000e+000 0.000000e+000 0.000000e+000 0.000000e+000
 0.000000e+000 7.423528e-001 2.576472e-001 0.000000e+000 0.000000e+000
 0.000000e+000 0.000000e+000 7.592673e-001 2.407327e-001 0.000000e+000
 0.000000e+000 0.000000e+000 0.000000e+000 9.460828e-001 5.391718e-002
 0.000000e+000 0.000000e+000 0.000000e+000 0.000000e+000 0.000000e+000
<ENDHMM>
~h "ih"
<BEGINHMM>
<NUMSTATES> 5
<STATE> 2
<MEAN> 25
 -9.738469e-001 1.401869e+000 6.796671e+000 7.550743e-001 -6.344698e-001 -1.698591e+000 -1.263234e+000 -2.092588e+000 4.026931e-001 -1.356361e-001 -4.924038e-003 -1.765110e+000 5.419901e-001 4.670165e-002 2.227041e+000 -9.467149e-001 -1.115250e+000 -1.006643e+000 -1.970347e+000 -6.786619e-001 -3.628557e-001 -9.042267e-001 -3.089525e-001 -2.738361e-001 2.129472e+000
<VARIANCE> 25
 8.241756e+001 9.403877e+001 8.420604e+001 7.455308e+001 8.871876e+001 5.990761e+001 8.620921e+001 6.042136e+001 5.467850e+001 5.564227e+001 4.562612e+001 3.194637e+001 6.201305e+000 1.000017e+001 7.672474e+000 1.023009e+001 8.643427e+000 6.757702e+000 8.588887e+000 7.278389e+000 6.206137e+000 6.542656e+000 5.154157e+000 3.785065e+000 5.567904e+000
<GCONST> 1.211735e+002
<STATE> 3
<MEAN> 25
 1.793821e+000 4.625469e+000 1.470318e+001 -4.266042e+000 -6.028069e+000 -5.051719e+000 -8.708661e+000 -4.285027e+000 -1.077284e+000 -3.831782e+000 -2.066261e+000 -9.253271e-001 8.965851e-002 7.592276e-001 1.305714e+000 -1.015687e+000 -6.856647e-001 -2.713869e-001 -1.387114e+000 4.228675e-002 1.405403e-001 -6.875145e-001 -4.971549e-001 6.430466e-001 3.930068e-001
<VARIANCE> 25
 2.831269e+001 9.956733e+001 9.435353e+001 1.429945e+002 1.122461e+002 7.177412e+001 7.261407e+001 8.247253e+001 6.044076e+001 5.864068e+001 4.908308e+001 4.057508e+001 2.597003e+000 3.708357e+000 4.404619e+000 7.441597e+000 4.638167e+000 5.431914e+000 6.800822e+000 4.915970e+000 4.621230e+000 4.158741e+000 3.866922e+000 4.056978e+000 1.743456e+000
<GCONST> 1.156180e+002
<STATE> 4
<MEAN> 25
 2.080302e+000 5.207249e+000 1.663761e+001 -2.747566e+000 -5.932491e+000 -4.808465e+000 -9.734107e+000 -3.494429e+000 -1.820281e+000 -6.656446e+000 -1.884086e+000 -3.003615e-001 1.051229e-001 5.756572e-002 -5.166361e-001 4.148860e-001 2.276351e-001 1.774527e-001 3.457296e-001 -4.132689e-002 -2.486756e-002 1.866942e-001 7.309093e-002 6.950179e-004 -5.834457e-001
<VARIANCE> 25
 1.846719e+001 7.438136e+001 9.183310e+001 1.607164e+002 9.569288e+001 6.765350e+001 5.154610e+001 7.868726e+001 6.761018e+001 5.813444e+001 6.919697e+001 5.208018e+001 6.063974e-001 1.207704e+000 1.641615e+000 2.776578e+000 2.043528e+000 2.231203e+000 2.511633e+000 2.316423e+000 2.270862e+000 2.216687e+000 2.155873e+000 1.946320e+000 6.928697e-001
<GCONST> 1.034885e+002
<TRANSP> 5
 0.000000e+000 1.000000e+000 0.000000e+000 0.000000e+000 0.000000e+000
 0.000000e+000 6.349246e-001 3.650754e-001 0.000000e+000 0.000000e+000
 0.000000e+000 0.000000e+000 5.382433e-001 4.617567e-001 0.000000e+000
 0.000000e+000 0.000000e+000 0.000000e+000 9.201031e-001 7.989690e-002
 0.000000e+000 0.000000e+000 0.000000e+000 0.000000e+000 0.000000e+000
<ENDHMM>
~h "jh"
<BEGINHMM>
<NUMSTATES> 5
<STATE> 2
<MEAN> 25
 1.934860e+000 6.949684e+000 8.005590e+000 6.416190e+000 3.298729e+000 6.612129e-001 -1.046286e+000 -2.272839e+000 -1.436804e+000 -1.345231e+000 -1.933979e+000 -1.577892e+000 -1.366425e+000 -6.438733e-001 2.414622e-001 4.473628e-002 4.373143e-001 3.486044e-001 1.047667e+000 1.547773e-001 4.948319e-001 6.489531e-001 3.616706e-001 5.107541e-002 -1.509113e-001
<VARIANCE> 25
 2.411270e+001 3.599687e+001 3.501510e+001 2.791068e+001 5.586297e+001 3.106955e+001 4.278925e+001 2.407157e+001 2.824321e+001 2.947194e+001 3.063980e+001 2.635117e+001 1.626219e+000 3.560508e+000 2.542771e+000 3.170072e+000 4.002716e+000 2.996594e+000 3.587237e+000 2.212973e+000 2.836578e+000 2.506077e+000 2.028866e+000 1.864644e+000 2.823546e+000
<GCONST> 1.001416e+002
<STATE> 3
<MEAN> 25
 -5.483947e+000 1.556952e-001 7.876823e+000 -2.511138e-001 -1.461689e+000 -4.079025e+000 4.985697e-001 -1.144322e+000 -1.288028e+000 -3.016329e-001 1.660375e+000 -2.270780e+000 3.232139e-001 -5.844447e-001 -5.303610e-001 -4.371890e-001 -3.798235e-001 -5.509932e-001 -2.936011e-001 2.823712e-001 -1.196514e-001 -1.987535e-001 2.109953e-001 1.124168e-001 1.147439e+000
<VARIANCE> 25
 1.040948e+002 8.161454e+001 7.772619e+001 8.632639e+001 1.156471e+002 8.354782e+001 1.093303e+002 4.747628e+001 4.442773e+001 4.849221e+001 3.953210e+001 2.671312e+001 1.296756e+001 5.148559e+000 5.587762e+000 5.505218e+000 7.428362e+000 7.219073e+000 8.861254e+000 5.368568e+000 4.875060e+000 5.400792e+000 4.265954e+000 3.068511e+000 4.303307e+000
<GCONST> 1.189473e+002
<STATE> 4
<MEAN> 25
 -9.144997e+000 4.368577e+000 3.538679e+000 8.470629e-001 1.652780e+000 4.869389e+000 2.807349e+000 -7.317985e-001 -4.892203e-002 4.183155e+000 1.609882e+000 -3.734424e-001 -7.761219e-002 -8.385125e-002 -6.476299e-002 -1.516469e-002 4.012313e-002 7.391506e-002 3.192730e-002 2.067176e-002 1.908860e-004 3.230346e-002 9.419686e-003 1.857344e-002 -6.543434e-002
<VARIANCE> 25
 3.036300e+001 1.586949e+001 1.167367e+001 1.747785e+001 1.374966e+001 1.872359e+001 1.835720e+001 2.452873e+001 1.680917e+001 1.454456e+001 1.319214e+001 1.245225e+001 2.840521e-001 4.393492e-001 5.527017e-001 6.199191e-001 8.456913e-001 9.125618e-001 9.921994e-001 1.083290e+000 1.043072e+000 1.099265e+000 9.797999e-001 9.210991e-001 1.066863e-001
<GCONST> 7.416142e+001
<TRANSP> 5
 0.000000e+000 1.000000e+000 0.000000e+000 0.000000e+000 0.000000e+000
 0.000000e+000 7.165570e-001 2.834430e-001 0.000000e+000 0.000000e+000
 0.000000e+000 0.000000e+000 8.236579e-001 1.763421e-001 0.000000e+000
 0.000000e+000 0.000000e+000 0.000000e+000 9.163738e-001 8.362626e-002
 0.000000e+000 0.000000e+000 0.000000e+000 0.000000e+000 0.000000e+000
<ENDHMM>
~h "ng"
<BEGINHMM>
<NUMSTATES> 5
<STATE> 2
<MEAN> 25
 8.512372e+000 7.990591e+000 1.893221e+000 1.822024e+000 -3.253290e+000 -4.404907e+000 -4.794364e+000 -8.211857e+000 -6.793584e+000 -3.110183e+000 -4.532800e+000 -4.808660e+000 -6.537103e-001 4.107820e-001 4.881024e-001 5.404000e-001 1.870102e-001 -5.271189e-002 8.611268e-002 -5.302246e-002 1.802033e-002 1.129785e-001 1.062434e-003 7.045715e-002 -6.830162e-001
<VARIANCE> 25
 2.025495e+001 2.251685e+001 2.916171e+001 2.775918e+001 4.643440e+001 3.272293e+001 6.669244e+001 4.597494e+001 5.590182e+001 4.858852e+001 3.982205e+001 5.576878e+001 4.006141e-001 7.228569e-001 1.097415e+000 1.284619e+000 1.674083e+000 1.665620e+000 1.956582e+000 2.161032e+000 2.523478e+000 2.159552e+000 2.048198e+000 2.241074e+000 1.751935e-001
<GCONST> 9.278189e+001
<STATE> 3
<MEAN> 25
 -9.711637e-001 6.268671e+000 4.200620e+000 6.465967e+000 2.677250e+000 4.147870e-001 7.031836e-001 -3.248856e+000 -1.819562e+000 -7.480206e-001 -3.028230e+000 -2.757418e+000 -1.046263e+000 -7.768328e-001 -4.749959e-001 -6.813356e-002 3.551156e-001 7.028206e-001 8.056732e-001 6.842766e-001 6.063247e-001 5.788330e-001 5.220738e-001 4.583033e-001 -5.855893e-001
<VARIANCE> 25
 1.539618e+001 1.647982e+001 2.460279e+001 1.771270e+001 2.363513e+001 2.503900e+001 3.467854e+001 2.649133e+001 3.091850e+001 2.747723e+001 3.477837e+001 2.846557e+001 2.964854e-001 7.297891e-001 1.173572e+000 1.384128e+000 1.924290e+000 2.134528e+000 2.174480e+000 2.154022e+000 2.024087e+000 2.080066e+000 2.038562e+000 1.923703e+000 1.229312e-001
<GCONST> 8.702802e+001
<STATE> 4
<MEAN> 25
 -6.008975e+000 2.286381e+000 -9.681630e-001 5.405802e+000 1.365692e+000 2.315684e+000 3.666041e+000 2.557697e+000 2.168777e+000 3.421988e+000 1.431584e+000 1.338874e+000 -6.611333e-002 -5.124430e-002 -5.342650e-002 -3.403974e-002 -2.252349e-002 1.009075e-002 2.410404e-002 5.847958e-002 5.746793e-002 5.047628e-002 3.172823e-002 2.918246e-002 -4.220889e-002
<VARIANCE> 25
 8.576599e+000 7.347289e+000 1.974889e+001 9.850333e+000 1.150185e+001 2.225322e+001 1.310041e+001 1.845974e+001 1.819965e+001 2.036058e+001 1.711528e+001 1.390164e+001 1.661848e-001 3.104138e-001 4.748549e-001 6.586409e-001 7.985864e-001 1.022304e+000 1.127570e+000 1.240895e+000 1.281420e+000 1.309402e+000 1.266081e+000 1.109225e+000 6.624648e-002
<GCONST> 7.193008e+001
<TRANSP> 5
 0.000000e+000 1.000000e+000 0.000000e+000 0.000000e+000 0.000000e+000
 0.000000e+000 8.758571e-001 1.241429e-001 0.000000e+000 0.000000e+000
 0.000000e+000 0.000000e+000 8.475491e-001 1.524508e-001 0.000000e+000
 0.000000e+000 0.000000e+000 0.000000e+000 9.604478e-001 3.955225e-002
 0.000000e+000 0.000000e+000 0.000000e+000 0.000000e+000 0.000000e+000
<ENDHMM>
~h "ny"
<BEGINHMM>
<NUMSTATES> 5
<STATE> 2
<MEAN> 25
 -1.097157e+000 4.156148e+000 3.128662e+000 2.570734e+000 1.838104e+000 -9.413249e-001 7.174035e-001 -1.880346e+000 3.776925e-001 1.992810e+000 -5.650833e-001 -1.579512e+000 1.405561e+000 5.574511e-001 1.361602e+000 -9.198708e-001 -5.942616e-001 -6.826660e-001 -1.054017e+000 -7.044456e-001 -5.940847e-001 -5.750660e-001 -3.797784e-001 -7.292435e-001 2.071619e+000
<VARIANCE> 25
 7.909220e+001 6.895073e+001 5.700923e+001 4.814010e+001 4.862856e+001 5.109861e+001 5.244397e+001 3.649267e+001 4.108792e+001 3.357790e+001 3.689724e+001 3.172412e+001 6.507240e+000 6.964573e+000 6.611653e+000 7.084379e+000 5.109438e+000 6.153814e+000 5.305966e+000 4.310149e+000 4.838714e+000 4.254790e+000 4.442598e+000 3.221797e+000 5.332502e+000
<GCONST> 1.137360e+002
<STATE> 3
<MEAN> 25
 4.901154e+000 -3.653413e-001 9.865213e+000 -5.615991e+000 -5.049911e+000 -2.688700e+000 -2.168652e+000 -2.466210e+000 -5.204545e+000 -2.662323e+000 -1.585040e+000 -5.731110e+000 1.249372e-001 -2.408665e+000 -5.423619e-001 -3.791042e-001 3.963340e-002 -2.544519e-002 2.611814e-001 9.406469e-001 -2.095670e-001 -3.302616e-001 4.175333e-001 -1.348322e-001 1.643622e+000
<VARIANCE> 25
 2.783665e+001 9.276355e+001 8.268797e+001 1.297736e+002 6.212641e+001 8.687569e+001 8.404024e+001 6.233011e+001 4.464830e+001 5.198984e+001 6.412572e+001 5.545784e+001 1.714090e+000 4.211941e+000 6.346814e+000 8.140598e+000 4.835171e+000 7.604063e+000 6.816849e+000 4.657358e+000 3.873083e+000 3.975799e+000 4.373001e+000 3.867745e+000 2.367159e+000
<GCONST> 1.155761e+002
<STATE> 4
<MEAN> 25
 8.600067e+000 -7.136751e+000 5.333247e+000 -7.270268e+000 -3.612065e+000 4.584125e-001 -2.477450e+000 6.188561e-001 -6.678150e+000 -2.412114e+000 3.237412e+000 -5.137369e+000 6.453990e-002 3.921678e-001 -1.141932e-001 1.673115e-001 1.025791e-002 9.739039e-003 1.033498e-001 -1.857052e-001 -3.189017e-002 1.343498e-002 -1.037059e-001 8.981309e-002 -3.577359e-001
<VARIANCE> 25
 2.421760e+001 1.109377e+002 9.120642e+001 7.958680e+001 7.280152e+001 6.643616e+001 8.670950e+001 8.464053e+001 6.523453e+001 6.777603e+001 1.076622e+002 4.321992e+001 4.949446e-001 1.616807e+000 1.920122e+000 2.193436e+000 1.647515e+000 1.982462e+000 2.277175e+000 2.018881e+000 1.716468e+000 1.781235e+000 2.128259e+000 1.583575e+000 7.302054e-001
<GCONST> 1.028996e+002
<TRANSP> 5
 0.000000e+000 1.000000e+000 0.000000e+000 0.000000e+000 0.000000e+000
 0.000000e+000 7.924155e-001 2.075845e-001 0.000000e+000 0.000000e+000
 0.000000e+000 0.000000e+000 7.893266e-001 2.106734e-001 0.000000e+000
 0.000000e+000 0.000000e+000 0.000000e+000 9.334273e-001 6.657267e-002
 0.000000e+000 0.000000e+000 0.000000e+000 0.000000e+000 0.000000e+000
<ENDHMM>
~h "sp"
<BEGINHMM>
<NUMSTATES> 3
<STATE> 2
~s "silst"
<TRANSP> 3
 0.000000e+000 2.760789e-001 7.239211e-001
 0.000000e+000 9.557699e-001 4.423009e-002
 0.000000e+000 0.000000e+000 0.000000e+000
<ENDHMM>
~h "uw"
<BEGINHMM>
<NUMSTATES> 5
<STATE> 2
<MEAN> 25
 5.918215e+000 1.585072e-001 1.349134e+000 -2.659697e+000 -9.108086e-001 -1.216680e+000 -3.929558e+000 -1.764621e+000 -1.330729e+000 -1.768039e+000 -7.935844e-001 -1.937408e+000 9.604554e-001 7.104530e-001 2.911358e-001 -9.073298e-002 -5.320973e-001 -5.165052e-001 -7.429263e-001 -4.399966e-001 -4.881899e-001 -4.467395e-001 -1.184617e-001 -2.124821e-001 4.919073e-001
<VARIANCE> 25
 6.254160e+001 9.837767e+001 8.536553e+001 9.817014e+001 7.672263e+001 7.619292e+001 8.438822e+001 6.872355e+001 6.439809e+001 6.918084e+001 6.442323e+001 4.251705e+001 3.957396e+000 8.164233e+000 4.931820e+000 7.048004e+000 5.415703e+000 6.534140e+000 7.363142e+000 6.094279e+000 5.873695e+000 5.154844e+000 4.769186e+000 3.594399e+000 4.031706e+000
<GCONST> 1.194015e+002
<STATE> 3
<MEAN> 25
 9.544612e+000 6.026561e+000 3.636327e+000 -6.602319e+000 -7.723334e+000 -3.984291e+000 -7.102517e+000 -4.858278e+000 -2.885429e+000 -2.345821e+000 -1.900161e+000 -3.351852e+000 -2.453497e-002 1.517018e-001 -1.139848e-001 7.341368e-002 3.734886e-002 1.423481e-001 2.205487e-001 -1.106227e-001 -8.826154e-002 -5.405478e-003 -1.152173e-001 4.656745e-002 -2.301003e-001
<VARIANCE> 25
 1.961059e+001 5.704718e+001 9.816419e+001 8.140536e+001 9.245156e+001 8.421359e+001 8.856429e+001 9.947007e+001 7.412601e+001 6.953447e+001 8.988982e+001 5.466817e+001 5.267851e-001 1.991658e+000 2.986194e+000 3.339055e+000 3.926760e+000 3.984392e+000 4.332283e+000 4.374352e+000 4.089211e+000 3.617196e+000 3.598644e+000 3.184315e+000 6.974108e-001
<GCONST> 1.098562e+002
<STATE> 4
<MEAN> 25
 8.894221e+000 7.282711e+000 1.508202e+000 -3.658057e+000 -4.795429e+000 -3.206547e+000 -3.913937e+000 -4.825016e+000 -5.787961e+000 -3.704746e+000 -6.039872e-001 -1.724748e+000 -4.605545e-001 -1.231348e-001 3.934667e-002 2.837932e-001 2.017010e-001 1.668464e-001 3.539642e-001 9.311177e-002 1.851380e-001 1.770784e-001 3.513050e-002 8.846004e-002 -4.445353e-001
<VARIANCE> 25
 4.540664e+001 3.529741e+001 4.756456e+001 7.617625e+001 4.385762e+001 5.634948e+001 4.121984e+001 6.039035e+001 5.085287e+001 4.596188e+001 6.220950e+001 3.817176e+001 5.025719e-001 8.630939e-001 1.000005e+000 1.314628e+000 1.472864e+000 1.584966e+000 1.698030e+000 1.767315e+000 1.746605e+000 1.785340e+000 1.668811e+000 1.487651e+000 2.941644e-001
<GCONST> 9.489114e+001
<TRANSP> 5
 0.000000e+000 1.000000e+000 0.000000e+000 0.000000e+000 0.000000e+000
 0.000000e+000 7.764418e-001 2.235582e-001 0.000000e+000 0.000000e+000
 0.000000e+000 0.000000e+000 8.735017e-001 1.264983e-001 0.000000e+000
 0.000000e+000 0.000000e+000 0.000000e+000 8.852702e-001 1.147298e-001
 0.000000e+000 0.000000e+000 0.000000e+000 0.000000e+000 0.000000e+000
<ENDHMM>
~h "sil"
<BEGINHMM>
<NUMSTATES> 5
<STATE> 2
<MEAN> 25
 -9.337080e+000 2.551142e+000 -2.995203e+000 5.029310e+000 1.994752e+000 1.029833e+000 4.094213e+000 2.313396e+000 2.741318e+000 2.778971e+000 6.492742e-001 2.941752e+000 -1.011970e-002 -3.010846e-003 -1.012808e-003 -4.563353e-003 -2.877955e-003 -4.773939e-003 -5.438826e-003 -3.265541e-003 -2.656041e-003 5.605249e-003 2.635194e-003 2.665077e-003 -6.737690e-003
<VARIANCE> 25
 3.176383e+001 1.057287e+001 2.302145e+001 1.178601e+001 1.284419e+001 2.127986e+001 1.216504e+001 1.506638e+001 2.089460e+001 2.013275e+001 1.732136e+001 1.742925e+001 1.061523e-001 2.136701e-001 3.390599e-001 5.012058e-001 6.462433e-001 7.668480e-001 9.449724e-001 1.043360e+000 1.100299e+000 1.068168e+000 1.020975e+000 9.646065e-001 4.069693e-002
<GCONST> 7.061043e+001
<STATE> 3
~s "silst"
<STATE> 4
<MEAN> 25
 6.144209e+000 -3.025424e+000 3.691761e-001 -2.600842e+000 -1.859654e+000 5.439984e-001 -2.552799e+000 -3.282160e-001 8.070086e-002 -2.959295e-002 1.299510e-001 -7.373737e-001 1.370515e-001 -5.789395e-004 5.127429e-003 -2.763625e-004 -1.995086e-002 1.285368e-002 -3.277280e-002 -3.459717e-003 -2.529652e-002 -3.158525e-002 -1.038447e-002 -3.264135e-002 -2.382868e-002
<VARIANCE> 25
 1.505557e+002 1.353127e+002 1.016065e+002 1.084290e+002 6.682645e+001 7.572109e+001 7.852434e+001 5.857414e+001 6.511695e+001 6.564632e+001 5.418107e+001 4.068124e+001 2.541353e+000 3.054937e+000 2.320996e+000 2.850199e+000 2.255176e+000 2.474151e+000 2.850104e+000 2.427919e+000 2.649175e+000 2.373695e+000 2.241149e+000 1.868718e+000 4.929249e+000
<GCONST> 1.106560e+002
<TRANSP> 5
 0.000000e+000 1.000000e+000 0.000000e+000 0.000000e+000 0.000000e+000
 0.000000e+000 9.625952e-001 6.323145e-003 3.108167e-002 0.000000e+000
 0.000000e+000 0.000000e+000 9.810140e-001 1.898601e-002 0.000000e+000
 0.000000e+000 5.691820e-002 0.000000e+000 9.113931e-001 3.168868e-002
 0.000000e+000 0.000000e+000 0.000000e+000 0.000000e+000 0.000000e+000
<ENDHMM>
