~o
<STREAMINFO> 1 25
<VECSIZE> 25<NULLD><MFCC_D_N_Z_0><DIAGC>
~s "silst"
<MEAN> 25
 -2.534279e+000 1.883378e+000 -6.339180e+000 9.033674e-001 -3.296914e+000 5.463407e+000 -1.780116e-001 8.061023e-001 2.134141e+000 3.602690e+000 5.434211e-001 1.224424e+000 2.268139e-002 9.219718e-003 -4.656038e-002 -5.070946e-003 -4.657047e-002 1.640330e-002 -1.315586e-002 2.961647e-002 9.402981e-003 1.761259e-002 1.052049e-002 1.326401e-002 -2.098851e-001
<VARIANCE> 25
 7.418370e+001 8.389065e+000 2.333757e+001 1.272808e+001 2.890416e+001 2.343808e+001 1.772881e+001 7.542369e+000 1.287688e+001 5.210451e+000 5.835450e+000 1.120995e+001 5.051064e-001 1.383240e-001 2.341860e-001 2.543359e-001 3.191153e-001 3.373511e-001 3.560802e-001 3.383059e-001 3.909235e-001 3.446843e-001 3.414578e-001 3.513992e-001 2.651656e+000
<GCONST> 6.489854e+001
~h "b"
<BEGINHMM>
<NUMSTATES> 5
<STATE> 2
<MEAN> 25
 1.676466e+000 3.321043e-001 -1.923861e+000 1.473490e+000 -2.210447e-001 -3.095705e-001 2.285094e+000 -1.718581e-002 -1.156727e+000 -5.054473e-001 5.735436e-001 -1.509612e-001 -1.746118e-001 1.152353e-001 1.484979e-002 2.296038e-001 2.552742e-001 2.742616e-001 3.768131e-001 2.715096e-001 4.598066e-001 3.290258e-001 5.708941e-002 1.569238e-002 -3.413519e-001
<VARIANCE> 25
 5.465583e+001 6.200894e+001 4.373006e+001 4.609013e+001 3.781830e+001 4.403291e+001 4.736267e+001 4.777235e+001 4.680267e+001 4.920589e+001 5.627740e+001 2.600659e+001 7.790894e-001 1.600446e+000 1.732510e+000 1.758177e+000 1.960979e+000 2.219468e+000 2.710039e+000 2.655124e+000 2.726953e+000 2.342670e+000 2.771879e+000 2.032925e+000 7.746550e-001
<GCONST> 9.996331e+001
<STATE> 3
<MEAN> 25
 3.100563e+000 3.470511e+000 1.959057e+000 2.119436e+000 1.963173e+000 -7.212404e-001 1.337225e+000 -1.532125e-001 2.222619e-001 -2.411719e+000 -1.750952e+000 -1.201954e+000 4.662361e-001 2.181677e-001 2.188592e-001 1.326092e-001 -1.984742e-002 -2.413154e-001 -7.813773e-002 1.096288e-001 -1.098807e-001 -1.346655e-001 -3.030529e-002 -1.225738e-001 2.782597e-001
<VARIANCE> 25
 7.717242e+001 7.660472e+001 5.902880e+001 5.519747e+001 4.579915e+001 5.631033e+001 5.075903e+001 4.144019e+001 4.859115e+001 4.684894e+001 4.203497e+001 2.544959e+001 2.411955e+000 3.636669e+000 3.584518e+000 3.004691e+000 2.595192e+000 3.494543e+000 3.609617e+000 2.568770e+000 3.090615e+000 2.810572e+000 2.700010e+000 1.967376e+000 3.279624e+000
<GCONST> 1.069323e+002
<STATE> 4
<MEAN> 25
 8.301213e+000 -5.195903e+000 -1.101878e+000 -2.235563e+000 -5.635971e-001 -6.346944e+000 -2.241641e+000 1.920959e-001 -1.695093e+000 -4.712658e+000 -4.127529e-001 -3.410173e-001 -6.141534e-002 2.188488e-002 -7.845755e-003 9.310590e-002 -6.049532e-003 1.383843e-001 9.597927e-002 -2.062800e-002 -2.043209e-003 8.992696e-002 2.509896e-002 -6.345794e-002 -1.480312e-001
<VARIANCE> 25
 7.201131e+001 1.372921e+002 8.615748e+001 9.112360e+001 4.762131e+001 8.452108e+001 6.491360e+001 6.253967e+001 3.998652e+001 6.128022e+001 4.784354e+001 3.562532e+001 2.301113e-001 5.120289e-001 6.761943e-001 7.103038e-001 7.133695e-001 8.031496e-001 9.380986e-001 8.880106e-001 9.824210e-001 9.136098e-001 9.027500e-001 8.260897e-001 1.962944e-001
<GCONST> 9.032726e+001
<TRANSP> 5
 0.000000e+000 1.000000e+000 0.000000e+000 0.000000e+000 0.000000e+000
 0.000000e+000 6.005751e-001 3.994249e-001 0.000000e+000 0.000000e+000
 0.000000e+000 0.000000e+000 5.780888e-001 4.219112e-001 0.000000e+000
 0.000000e+000 0.000000e+000 0.000000e+000 8.229696e-001 1.770304e-001
 0.000000e+000 0.000000e+000 0.000000e+000 0.000000e+000 0.000000e+000
<ENDHMM>
~h "d"
<BEGINHMM>
<NUMSTATES> 5
<STATE> 2
<MEAN> 25
 9.148759e-001 3.998114e+000 3.366742e+000 5.023077e+000 3.754747e+000 1.107750e+000 9.606014e-001 -2.298998e+000 4.103497e-001 5.264712e-001 -8.941940e-001 -4.168753e-002 1.439405e+000 -1.156883e+000 5.892286e-001 -5.567638e-001 -1.727892e-001 -8.089368e-001 -1.411311e+000 -3.659329e-001 -9.591470e-001 -8.073024e-001 1.914029e-001 -5.427962e-001 2.689046e+000
<VARIANCE> 25
 5.167163e+001 7.037963e+001 4.931127e+001 4.319799e+001 5.466071e+001 4.186361e+001 3.856230e+001 3.678305e+001 3.775364e+001 3.044936e+001 3.160750e+001 2.743036e+001 4.303500e+000 1.116215e+001 6.198625e+000 6.461626e+000 4.210956e+000 5.811771e+000 6.109519e+000 5.055034e+000 5.178217e+000 5.071250e+000 4.505442e+000 3.053652e+000 5.738055e+000
<GCONST> 1.124415e+002
<STATE> 3
<MEAN> 25
 7.046073e+000 -3.693005e+000 5.457267e+000 -3.131633e+000 -3.306134e+000 -3.181579e+000 -7.078724e+000 -1.691109e+000 -3.867153e+000 -3.127778e+000 9.058908e-002 -3.390182e+000 3.062023e-001 -1.377199e+000 -4.457376e-001 -1.308131e+000 -1.185815e-001 -5.804462e-001 -6.236385e-001 6.877302e-001 -8.795507e-002 -2.385001e-001 1.485102e-001 -2.189047e-002 1.563932e+000
<VARIANCE> 25
 3.556781e+001 1.030576e+002 8.366951e+001 1.006666e+002 1.053284e+002 7.427193e+001 8.705090e+001 9.049934e+001 8.197920e+001 7.223979e+001 8.540537e+001 4.587919e+001 1.744077e+000 6.100951e+000 3.544236e+000 6.175070e+000 5.617537e+000 5.601559e+000 8.908170e+000 5.800070e+000 5.425271e+000 5.901157e+000 5.682238e+000 4.418103e+000 4.894903e+000
<GCONST> 1.192106e+002
<STATE> 4
<MEAN> 25
 9.626970e+000 -1.270511e+001 3.189603e+000 -1.015525e+001 -3.287857e-001 -1.241420e+000 -7.624042e+000 4.773878e-001 -3.056848e+000 -1.110436e+000 2.323115e+000 -4.046096e+000 1.316834e-003 9.300380e-002 -2.466675e-001 3.962044e-002 9.287043e-003 1.498107e-001 3.722209e-001 -1.548279e-002 -3.572496e-002 -1.718780e-002 -8.465445e-002 7.095470e-002 -2.304126e-001
<VARIANCE> 25
 2.275735e+001 7.771954e+001 5.022023e+001 9.173958e+001 4.626389e+001 7.251666e+001 9.695251e+001 8.036438e+001 6.210040e+001 7.881019e+001 9.631944e+001 5.801269e+001 2.897351e-001 1.147356e+000 9.021417e-001 1.671629e+000 1.645594e+000 1.473159e+000 1.845210e+000 1.809672e+000 1.561245e+000 1.578290e+000 1.729061e+000 1.555339e+000 5.828277e-001
<GCONST> 9.881536e+001
<TRANSP> 5
 0.000000e+000 1.000000e+000 0.000000e+000 0.000000e+000 0.000000e+000
 0.000000e+000 7.380444e-001 2.619556e-001 0.000000e+000 0.000000e+000
 0.000000e+000 0.000000e+000 7.413077e-001 2.586923e-001 0.000000e+000
 0.000000e+000 0.000000e+000 0.000000e+000 9.165705e-001 8.342943e-002
 0.000000e+000 0.000000e+000 0.000000e+000 0.000000e+000 0.000000e+000
<ENDHMM>
~h "g"
<BEGINHMM>
<NUMSTATES> 5
<STATE> 2
<MEAN> 25
 -2.087295e+000 5.235759e+000 4.215124e+000 5.470971e+000 3.421382e+000 2.496184e+000 2.961829e+000 -6.050008e-001 1.437231e+000 1.356668e+000 -6.621688e-001 -2.415155e-001 2.550372e-001 4.972498e-002 2.775230e-001 3.869402e-001 2.587235e-001 2.202056e-001 2.005738e-001 -1.365699e-001 -1.525023e-001 2.293907e-002 -3.649707e-002 -2.430816e-001 2.715153e-001
<VARIANCE> 25
 3.073695e+001 4.070832e+001 5.853870e+001 2.843114e+001 3.246372e+001 2.336996e+001 1.985064e+001 2.147362e+001 2.205880e+001 2.140739e+001 2.176693e+001 1.635962e+001 1.637671e+000 2.783956e+000 2.305597e+000 2.003751e+000 1.722385e+000 1.516169e+000 1.906275e+000 1.768153e+000 1.920392e+000 1.896633e+000 1.540764e+000 1.533448e+000 1.285898e+000
<GCONST> 9.284164e+001
<STATE> 3
<MEAN> 25
 4.729992e-001 1.597224e+000 8.473766e+000 2.082583e+000 1.203477e+000 3.430590e-001 -9.818304e-001 -1.229949e+000 3.567800e-001 -8.183170e-001 -7.420858e-001 -1.850494e+000 5.459135e-001 -8.815081e-001 9.145067e-001 -1.186131e+000 -3.689739e-001 -7.792363e-001 -1.256480e+000 -1.040635e-001 -5.235006e-001 -9.189842e-001 -5.154506e-002 -3.308027e-001 2.421141e+000
<VARIANCE> 25
 6.941740e+001 1.518168e+002 9.125318e+001 7.189344e+001 7.406980e+001 5.628493e+001 6.118597e+001 4.580582e+001 4.714556e+001 4.340293e+001 3.789695e+001 2.554758e+001 7.749741e+000 1.268153e+001 6.958235e+000 7.142518e+000 6.257518e+000 5.586359e+000 5.860792e+000 5.843073e+000 5.071033e+000 5.286057e+000 4.027940e+000 2.883889e+000 3.766249e+000
<GCONST> 1.174200e+002
<STATE> 4
<MEAN> 25
 3.872839e+000 -3.230145e+000 1.597721e+001 1.033078e+000 4.785571e-002 -1.801611e+000 -9.745790e+000 -3.963519e-001 5.966454e-001 -6.983930e+000 -7.022414e-001 -3.497845e+000 2.099734e-001 1.630469e-001 -1.386511e-001 -1.844649e-002 -1.619072e-001 -9.611301e-002 -1.631114e-001 -6.247301e-003 -7.849498e-002 -9.409383e-002 -5.610753e-002 4.721926e-002 -9.268726e-002
<VARIANCE> 25
 3.510121e+001 1.051259e+002 1.426482e+002 1.455562e+002 1.119886e+002 4.024184e+001 5.278529e+001 6.174976e+001 4.312883e+001 5.556860e+001 4.892381e+001 2.263345e+001 5.265542e-001 1.010242e+000 1.231568e+000 1.256513e+000 1.576146e+000 1.474056e+000 2.366077e+000 1.478327e+000 1.405917e+000 1.680092e+000 1.780070e+000 1.176826e+000 5.983827e-001
<GCONST> 9.838145e+001
<TRANSP> 5
 0.000000e+000 1.000000e+000 0.000000e+000 0.000000e+000 0.000000e+000
 0.000000e+000 7.725266e-001 2.274734e-001 0.000000e+000 0.000000e+000
 0.000000e+000 0.000000e+000 7.791941e-001 2.208059e-001 0.000000e+000
 0.000000e+000 0.000000e+000 0.000000e+000 8.570378e-001 1.429622e-001
 0.000000e+000 0.000000e+000 0.000000e+000 0.000000e+000 0.000000e+000
<ENDHMM>
~h "k"
<BEGINHMM>
<NUMSTATES> 5
<STATE> 2
<MEAN> 25
 2.467987e-001 1.764711e-001 -1.515596e+000 -6.886916e-001 7.939982e-001 -8.204953e-001 5.137152e-001 1.936232e-001 7.161139e-001 7.053605e-001 5.271518e-002 -1.832255e-001 1.851801e+000 -6.840714e-001 -1.894856e-001 -1.157942e+000 -4.850481e-001 -7.351153e-001 -6.984365e-001 -9.188146e-003 -8.072435e-001 -6.631558e-001 1.372481e-001 -4.240202e-001 2.500648e+000
<VARIANCE> 25
 7.047738e+001 6.584525e+001 6.786284e+001 8.558488e+001 5.894444e+001 5.567136e+001 6.080999e+001 5.085085e+001 5.100155e+001 5.040999e+001 3.968576e+001 3.137707e+001 4.710974e+000 7.956393e+000 7.190879e+000 9.095430e+000 5.849104e+000 6.624765e+000 7.160206e+000 7.218304e+000 4.959271e+000 5.729292e+000 4.429029e+000 3.290244e+000 5.212984e+000
<GCONST> 1.172522e+002
<STATE> 3
<MEAN> 25
 9.530276e+000 -6.333918e+000 -3.451196e+000 -5.519262e+000 -6.406707e-001 -3.047126e+000 -4.584202e+000 -6.322408e-001 -3.201269e+000 -3.323857e+000 2.042200e+000 -1.841640e+000 2.805837e-001 -6.978415e-001 -3.382705e-001 -2.604502e-001 1.541535e-001 -1.525528e-001 -5.013114e-003 6.283555e-002 -1.324181e-001 -6.724814e-002 5.998940e-002 -1.229872e-001 5.704862e-001
<VARIANCE> 25
 6.604156e+001 1.086078e+002 7.933134e+001 1.137843e+002 8.202683e+001 7.985048e+001 7.619185e+001 9.158599e+001 7.646082e+001 9.442986e+001 6.875475e+001 4.518560e+001 1.757963e+000 4.414240e+000 3.179879e+000 5.315700e+000 4.174694e+000 3.814129e+000 4.673067e+000 5.586143e+000 4.115691e+000 4.628497e+000 4.039836e+000 3.170894e+000 2.954296e+000
<GCONST> 1.159835e+002
<STATE> 4
<MEAN> 25
 1.125695e+001 -1.078618e+001 -1.313534e+000 -8.081951e+000 6.937768e-002 -3.033395e+000 -3.266346e+000 -5.696030e-001 -3.580305e+000 -2.597519e+000 -1.873139e-001 -2.618337e+000 -8.644375e-002 2.180503e-001 5.756661e-002 1.579113e-001 -4.849305e-003 1.201493e-001 7.299319e-002 -9.489417e-002 3.717409e-003 4.794819e-002 -7.465217e-002 -4.427342e-003 -2.439564e-001
<VARIANCE> 25
 5.149471e+001 1.413202e+002 8.310479e+001 1.405653e+002 8.138083e+001 1.042172e+002 6.675529e+001 9.130584e+001 6.575531e+001 8.616793e+001 6.063565e+001 4.085732e+001 3.170650e-001 9.749587e-001 9.232898e-001 1.312602e+000 1.334993e+000 1.242284e+000 1.559751e+000 1.516970e+000 1.494587e+000 1.409818e+000 1.505103e+000 1.191108e+000 4.364243e-001
<GCONST> 9.930851e+001
<TRANSP> 5
 0.000000e+000 1.000000e+000 0.000000e+000 0.000000e+000 0.000000e+000
 0.000000e+000 7.618920e-001 2.381080e-001 0.000000e+000 0.000000e+000
 0.000000e+000 0.000000e+000 7.012090e-001 2.987910e-001 0.000000e+000
 0.000000e+000 0.000000e+000 0.000000e+000 8.893282e-001 1.106718e-001
 0.000000e+000 0.000000e+000 0.000000e+000 0.000000e+000 0.000000e+000
<ENDHMM>
~h "l"
<BEGINHMM>
<NUMSTATES> 5
<STATE> 2
<MEAN> 25
 3.919479e+000 -3.329835e-001 3.099613e+000 -1.430974e+000 -1.031840e+000 -9.759219e-001 -3.667823e+000 -2.987786e+000 -1.097408e+000 -4.376617e-001 -3.885551e-001 -1.613509e+000 7.171730e-001 -7.004950e-001 -1.408109e-001 -2.089701e-001 -1.150562e-001 -6.073251e-001 -4.293045e-001 -1.159540e-001 -9.996005e-002 -5.877057e-001 -1.045011e-001 -8.199733e-002 1.387990e+000
<VARIANCE> 25
 9.538065e+001 9.039226e+001 9.988581e+001 1.026660e+002 7.394116e+001 8.245245e+001 8.298158e+001 9.201089e+001 7.094843e+001 6.721066e+001 6.864304e+001 4.592980e+001 4.462762e+000 7.308962e+000 6.387288e+000 8.029822e+000 5.661719e+000 7.816057e+000 7.460738e+000 8.617887e+000 6.753582e+000 5.289049e+000 5.126564e+000 4.260500e+000 5.306288e+000
<GCONST> 1.221305e+002
<STATE> 3
<MEAN> 25
 8.459048e+000 -4.644177e+000 -9.187253e-001 -5.912553e+000 3.166376e-001 -8.083095e+000 -4.034058e+000 -2.506845e+000 -3.787743e-001 -5.190268e+000 -3.601137e+000 4.843084e-001 -5.959092e-002 -5.544769e-001 -5.810267e-001 -2.386253e-001 3.280238e-001 -3.275912e-002 7.287819e-001 2.021614e-001 -2.655490e-001 -3.401992e-001 1.818629e-001 2.589323e-001 2.721327e-001
<VARIANCE> 25
 3.427626e+001 5.252888e+001 4.728897e+001 7.974682e+001 7.209573e+001 7.491615e+001 8.644506e+001 1.052424e+002 1.330291e+002 7.257073e+001 7.986823e+001 5.302820e+001 7.338585e-001 2.352566e+000 2.355002e+000 3.464483e+000 3.534739e+000 3.944577e+000 3.478427e+000 3.674758e+000 4.518485e+000 4.133667e+000 3.686707e+000 2.785158e+000 9.827091e-001
<GCONST> 1.099815e+002
<STATE> 4
<MEAN> 25
 1.165896e+001 -8.668103e+000 -2.225479e+000 -7.745695e+000 -2.305039e+000 -4.458255e+000 -3.837862e+000 -3.900583e-001 -4.646608e+000 -6.463892e+000 2.071098e+000 -1.447397e+000 -2.621685e-002 1.511202e-001 -8.152006e-002 5.452077e-002 -7.137227e-002 3.115134e-002 1.112782e-001 -2.647519e-002 -1.049345e-002 3.236175e-002 9.681031e-004 -5.251590e-002 -1.945488e-001
<VARIANCE> 25
 4.731047e+001 9.413774e+001 9.404501e+001 8.974386e+001 7.814929e+001 1.068399e+002 6.166500e+001 9.816634e+001 5.713173e+001 6.081563e+001 9.038219e+001 5.063900e+001 2.752890e-001 1.037499e+000 9.915106e-001 1.367527e+000 1.397458e+000 1.309170e+000 1.573929e+000 1.549150e+000 1.563751e+000 1.504902e+000 1.597019e+000 1.326206e+000 3.866258e-001
<GCONST> 9.891212e+001
<TRANSP> 5
 0.000000e+000 1.000000e+000 0.000000e+000 0.000000e+000 0.000000e+000
 0.000000e+000 7.747860e-001 2.252140e-001 0.000000e+000 0.000000e+000
 0.000000e+000 0.000000e+000 7.540501e-001 2.459498e-001 0.000000e+000
 0.000000e+000 0.000000e+000 0.000000e+000 9.056577e-001 9.434228e-002
 0.000000e+000 0.000000e+000 0.000000e+000 0.000000e+000 0.000000e+000
<ENDHMM>
~h "m"
<BEGINHMM>
<NUMSTATES> 5
<STATE> 2
<MEAN> 25
 1.634159e+000 1.856115e-001 6.544268e-001 1.097610e+000 1.507760e+000 1.150529e+000 1.865289e+000 -8.258076e-001 -3.887729e-001 1.113168e+000 3.208206e-001 -5.757504e-001 1.514569e+000 -6.656162e-001 -3.943415e-002 -5.082790e-001 -2.917959e-002 -4.613074e-001 -5.260671e-001 -2.119949e-001 -6.584091e-001 -6.790619e-001 -2.350954e-001 -5.145432e-001 1.798593e+000
<VARIANCE> 25
 8.441628e+001 7.492144e+001 5.874638e+001 6.314656e+001 5.240126e+001 5.660276e+001 7.613126e+001 6.237032e+001 5.765539e+001 4.690321e+001 5.191444e+001 3.930856e+001 5.725468e+000 7.219455e+000 4.859006e+000 7.281400e+000 5.453863e+000 5.242509e+000 6.613507e+000 6.244936e+000 5.936121e+000 4.869718e+000 4.568324e+000 3.542180e+000 8.249586e+000
<GCONST> 1.175220e+002
<STATE> 3
<MEAN> 25
 9.430490e+000 -5.301766e+000 -1.621343e+000 -4.749979e+000 9.943595e-001 -3.064117e+000 -3.355007e+000 -1.526881e+000 -2.526155e+000 -5.851095e+000 -2.925270e+000 -3.577084e+000 2.343932e-001 -7.924452e-001 -1.428396e-001 -3.680101e-001 2.813182e-001 -2.086812e-001 1.334822e-001 1.649994e-001 -7.643665e-002 -3.169456e-001 -1.153566e-001 -4.998469e-002 6.932585e-001
<VARIANCE> 25
 3.654185e+001 9.289223e+001 5.550173e+001 9.878360e+001 7.536440e+001 8.127258e+001 6.819355e+001 8.059711e+001 8.191925e+001 7.280911e+001 6.088137e+001 3.799969e+001 2.147707e+000 8.213823e+000 4.244864e+000 8.799962e+000 5.413886e+000 4.869510e+000 5.368937e+000 5.585546e+000 5.043653e+000 5.005516e+000 4.504648e+000 3.609753e+000 6.651011e+000
<GCONST> 1.175338e+002
<STATE> 4
<MEAN> 25
 1.016068e+001 -6.028231e+000 8.147859e-001 -3.143057e+000 1.571923e+000 6.037266e-001 -1.843726e+000 -2.914060e+000 -5.667756e+000 -1.626328e+000 -2.827443e+000 -5.852996e+000 -1.504254e-001 4.705414e-001 1.724592e-003 3.831383e-001 2.360922e-002 5.013322e-002 9.909511e-002 -1.236728e-001 -1.941913e-002 2.273688e-002 -1.024755e-001 1.535381e-002 -4.978303e-001
<VARIANCE> 25
 2.196723e+001 1.344351e+002 3.735537e+001 1.336299e+002 5.702017e+001 4.622842e+001 9.414994e+001 1.084102e+002 8.003892e+001 8.876776e+001 8.372675e+001 3.748532e+001 4.613520e-001 1.447487e+000 9.822612e-001 1.773480e+000 1.487190e+000 1.374979e+000 2.111619e+000 2.429325e+000 1.994386e+000 1.849155e+000 2.176261e+000 1.541550e+000 6.780501e-001
<GCONST> 1.011096e+002
<TRANSP> 5
 0.000000e+000 1.000000e+000 0.000000e+000 0.000000e+000 0.000000e+000
 0.000000e+000 6.712949e-001 3.287051e-001 0.000000e+000 0.000000e+000
 0.000000e+000 0.000000e+000 7.136009e-001 2.863991e-001 0.000000e+000
 0.000000e+000 0.000000e+000 0.000000e+000 9.205207e-001 7.947926e-002
 0.000000e+000 0.000000e+000 0.000000e+000 0.000000e+000 0.000000e+000
<ENDHMM>
~h "n"
<BEGINHMM>
<NUMSTATES> 5
<STATE> 2
<MEAN> 25
 1.306663e+000 1.002893e+000 2.647688e-001 -3.047940e-001 4.914806e-001 6.151294e-001 6.807845e-002 -1.148464e+000 -8.480686e-001 -2.505769e-001 -3.351481e-002 -2.722600e-001 1.225338e+000 -1.911004e-002 3.637421e-001 -3.634151e-001 -2.328684e-001 -5.235828e-001 -6.853242e-001 -6.314088e-001 -7.641395e-001 -6.778533e-001 -1.935826e-001 -3.317151e-001 1.486714e+000
<VARIANCE> 25
 7.241158e+001 6.800282e+001 8.428267e+001 7.926468e+001 5.424356e+001 6.230394e+001 6.542930e+001 5.791015e+001 5.372945e+001 5.087403e+001 4.353809e+001 3.053120e+001 5.270420e+000 6.883438e+000 6.235822e+000 8.098048e+000 5.137681e+000 6.000918e+000 6.321051e+000 6.171685e+000 5.277739e+000 5.678199e+000 4.432192e+000 3.280452e+000 8.687742e+000
<GCONST> 1.175713e+002
<STATE> 3
<MEAN> 25
 6.378412e+000 -4.072453e-002 6.705252e+000 -3.065452e+000 -3.319874e+000 -4.148608e+000 -5.452743e+000 -2.748466e+000 -4.492782e+000 -6.200953e+000 -1.440023e+000 -3.301244e+000 9.126745e-002 -1.328961e-001 -1.584184e-001 4.595715e-001 1.220823e-001 3.391473e-002 2.339408e-001 -1.304774e-001 -1.527786e-001 1.272770e-001 -8.072971e-002 2.079544e-002 -8.159905e-002
<VARIANCE> 25
 4.682605e+001 8.919692e+001 1.381399e+002 1.196580e+002 8.278823e+001 9.892056e+001 8.109920e+001 9.938364e+001 6.386633e+001 7.674715e+001 8.032313e+001 4.023692e+001 1.823695e+000 5.250993e+000 4.170994e+000 6.015666e+000 4.328843e+000 5.754060e+000 5.282311e+000 6.766728e+000 4.612773e+000 4.991512e+000 4.204481e+000 3.139396e+000 3.408767e+000
<GCONST> 1.177970e+002
<STATE> 4
<MEAN> 25
 7.385045e+000 1.838270e+000 2.555628e+000 3.296187e+000 -4.348553e-001 -1.383337e+000 -2.054121e+000 -7.116351e+000 -6.417715e+000 -1.895162e+000 -1.389979e+000 -2.705539e+000 -3.425031e-001 3.002179e-001 1.221925e-002 2.080357e-001 1.653471e-001 9.874762e-002 1.622208e-001 1.006146e-001 2.726277e-001 1.474323e-001 -7.883549e-002 8.309541e-002 -4.966871e-001
<VARIANCE> 25
 4.081561e+001 9.578954e+001 4.836371e+001 8.619119e+001 6.730074e+001 5.257527e+001 7.399621e+001 1.143984e+002 7.426692e+001 7.933928e+001 7.381375e+001 4.590720e+001 4.806512e-001 1.308571e+000 1.216290e+000 1.681009e+000 1.740809e+000 1.983292e+000 2.424666e+000 3.139883e+000 2.517557e+000 2.533363e+000 2.508153e+000 1.957513e+000 4.657326e-001
<GCONST> 1.027786e+002
<TRANSP> 5
 0.000000e+000 1.000000e+000 0.000000e+000 0.000000e+000 0.000000e+000
 0.000000e+000 6.265543e-001 3.734457e-001 0.000000e+000 0.000000e+000
 0.000000e+000 0.000000e+000 7.469645e-001 2.530355e-001 0.000000e+000
 0.000000e+000 0.000000e+000 0.000000e+000 8.837437e-001 1.162564e-001
 0.000000e+000 0.000000e+000 0.000000e+000 0.000000e+000 0.000000e+000
<ENDHMM>
~h "p"
<BEGINHMM>
<NUMSTATES> 5
<STATE> 2
<MEAN> 25
 -3.584008e+000 1.671300e+000 -2.115046e+000 2.416464e+000 9.151549e-001 1.843085e+000 4.223460e+000 1.277482e+000 2.694188e+000 2.763924e+000 6.719680e-001 7.645845e-001 -1.109088e-001 -2.980088e-001 -5.346162e-002 -1.511959e-001 5.178079e-002 -1.599026e-002 7.487080e-003 4.008419e-002 1.179782e-001 1.978109e-001 1.768170e-001 1.258876e-001 1.271249e-001
<VARIANCE> 25
 3.444635e+001 2.246254e+001 3.623037e+001 3.029202e+001 2.919519e+001 3.308612e+001 2.439090e+001 2.583433e+001 3.111518e+001 2.541657e+001 3.284551e+001 2.133162e+001 1.992948e+000 1.323339e+000 1.676699e+000 1.824205e+000 1.849885e+000 2.242534e+000 2.606743e+000 2.329694e+000 2.266078e+000 1.950803e+000 1.997458e+000 1.902758e+000 2.614244e+000
<GCONST> 9.523985e+001
<STATE> 3
<MEAN> 25
 2.409219e+000 -2.394683e+000 -8.882933e-001 -2.381847e+000 7.581700e-001 -5.710415e-001 -6.882772e-001 7.525510e-001 9.006458e-001 -2.199554e-001 8.682638e-002 -3.406479e-001 2.724786e+000 -2.002895e+000 -3.131268e-001 -2.037854e+000 -4.061171e-001 -1.235107e+000 -1.240058e+000 1.263294e-001 -8.045623e-001 -1.466133e+000 -2.247545e-001 -7.386061e-001 4.475826e+000
<VARIANCE> 25
 6.417192e+001 7.057430e+001 5.531681e+001 6.695060e+001 6.786642e+001 6.370187e+001 4.808184e+001 4.991349e+001 4.283554e+001 4.243448e+001 3.377927e+001 2.694832e+001 5.302033e+000 8.616460e+000 6.728447e+000 1.028951e+001 8.779787e+000 6.757586e+000 7.048286e+000 7.509443e+000 6.033011e+000 6.519681e+000 4.862920e+000 3.337408e+000 8.954315e+000
<GCONST> 1.178186e+002
<STATE> 4
<MEAN> 25
 7.835897e+000 -1.366193e+001 -1.771451e+000 -1.183642e+001 3.531776e+000 -2.480022e-001 -2.173047e+000 9.109256e-001 -1.458364e+000 -3.409572e+000 -3.135874e-001 -3.342602e+000 9.650945e-002 2.446246e-001 -3.896950e-002 2.209114e-001 -8.591571e-002 -1.401208e-001 -2.038516e-002 -1.290601e-001 -2.762382e-001 -1.439333e-001 -4.852133e-002 -2.748974e-002 -9.669516e-002
<VARIANCE> 25
 2.989510e+001 8.612275e+001 5.389957e+001 9.865713e+001 8.049509e+001 6.917294e+001 6.176403e+001 7.078470e+001 5.015537e+001 9.616451e+001 4.279157e+001 2.820676e+001 1.092870e+000 3.242771e+000 2.063102e+000 3.700483e+000 2.513207e+000 2.734202e+000 2.878311e+000 2.614394e+000 2.014067e+000 2.410959e+000 1.778244e+000 1.646714e+000 3.713818e+000
<GCONST> 1.061742e+002
<TRANSP> 5
 0.000000e+000 1.000000e+000 0.000000e+000 0.000000e+000 0.000000e+000
 0.000000e+000 8.132094e-001 1.867906e-001 0.000000e+000 0.000000e+000
 0.000000e+000 0.000000e+000 6.592130e-001 3.407870e-001 0.000000e+000
 0.000000e+000 0.000000e+000 0.000000e+000 8.606538e-001 1.393462e-001
 0.000000e+000 0.000000e+000 0.000000e+000 0.000000e+000 0.000000e+000
<ENDHMM>
~h "r"
<BEGINHMM>
<NUMSTATES> 5
<STATE> 2
<MEAN> 25
 5.449051e+000 -3.591737e+000 -4.157905e+000 -7.651351e-001 2.023803e+000 -8.191573e-001 -1.340041e+000 -1.125332e+000 -3.080083e+000 -2.554763e+000 1.558039e+000 -4.493380e-001 -1.836438e-001 -3.561970e-001 -2.593068e-001 6.022301e-002 -1.842495e-001 2.072704e-001 4.751595e-001 1.877430e-001 2.011690e-001 2.961696e-001 1.238204e-001 -1.559341e-002 -1.810757e-002
<VARIANCE> 25
 5.572605e+001 7.018944e+001 5.380807e+001 4.143911e+001 3.557216e+001 4.821067e+001 5.030128e+001 5.399780e+001 3.018182e+001 4.597224e+001 5.617162e+001 3.806882e+001 6.327973e-001 1.059737e+000 1.080185e+000 1.438257e+000 2.062807e+000 2.104033e+000 2.326615e+000 2.211925e+000 1.948001e+000 1.879262e+000 2.045831e+000 1.529423e+000 6.990412e-001
<GCONST> 9.741293e+001
<STATE> 3
<MEAN> 25
 1.295592e+000 -5.769370e-001 -2.370011e+000 7.664469e-001 -9.129786e-002 1.988061e+000 2.693320e+000 2.610967e-001 -4.265732e-001 4.379097e-001 1.637579e+000 -9.607992e-001 -3.081728e-001 2.113833e-002 -1.695638e-003 -2.384068e-002 1.510456e-002 5.490124e-002 9.276603e-002 9.703310e-002 1.728023e-001 1.251625e-001 4.214112e-002 1.208930e-001 -2.986529e-001
<VARIANCE> 25
 4.050794e+001 2.955814e+001 2.152290e+001 2.299377e+001 2.531120e+001 1.889240e+001 2.568487e+001 2.436836e+001 2.050768e+001 2.742687e+001 3.028991e+001 1.964337e+001 5.612935e-001 7.372900e-001 7.651644e-001 9.638757e-001 1.320469e+000 1.317810e+000 1.639513e+000 1.439605e+000 1.578476e+000 1.588298e+000 1.522626e+000 1.325847e+000 4.155898e-001
<GCONST> 8.553873e+001
<STATE> 4
<MEAN> 25
 -7.833588e+000 1.313328e+000 -4.549545e-001 -2.088366e-001 4.638104e-001 2.752052e+000 1.886358e+000 -2.733755e-002 1.812079e+000 3.486215e+000 1.427901e+000 1.371318e+000 -4.593341e-002 -1.638633e-002 -1.038023e-002 -1.094763e-002 -8.940992e-003 -1.578760e-003 -1.145059e-002 -4.725677e-004 5.827780e-003 1.748479e-002 1.430052e-002 3.386892e-003 -3.452432e-002
<VARIANCE> 25
 3.779694e+001 1.360392e+001 1.757724e+001 1.919154e+001 8.583777e+000 1.484691e+001 1.017325e+001 1.647859e+001 1.474808e+001 1.275799e+001 1.035815e+001 1.478249e+001 1.090448e-001 2.017255e-001 3.081645e-001 4.191373e-001 5.093930e-001 6.268333e-001 7.506558e-001 8.255660e-001 8.562254e-001 7.874655e-001 7.534376e-001 7.160698e-001 4.528233e-002
<GCONST> 6.665885e+001
<TRANSP> 5
 0.000000e+000 1.000000e+000 0.000000e+000 0.000000e+000 0.000000e+000
 0.000000e+000 6.482725e-001 3.517275e-001 0.000000e+000 0.000000e+000
 0.000000e+000 0.000000e+000 8.481371e-001 1.518629e-001 0.000000e+000
 0.000000e+000 0.000000e+000 0.000000e+000 9.436820e-001 5.631810e-002
 0.000000e+000 0.000000e+000 0.000000e+000 0.000000e+000 0.000000e+000
<ENDHMM>
~h "s"
<BEGINHMM>
<NUMSTATES> 5
<STATE> 2
<MEAN> 25
 -5.739281e+000 1.502549e+000 -2.863156e+000 4.054095e+000 4.725200e-001 2.138782e+000 4.193093e+000 2.008360e+000 1.857737e+000 3.240913e+000 1.448846e+000 9.301304e-001 -3.586906e-001 -9.535610e-002 9.789050e-002 -4.180657e-002 1.645354e-003 7.993047e-002 1.743216e-001 1.875908e-002 4.332218e-002 1.600008e-001 1.352671e-001 4.745647e-002 7.654511e-002
<VARIANCE> 25
 4.802494e+001 2.372087e+001 3.335564e+001 2.716831e+001 2.708763e+001 2.968448e+001 2.162269e+001 3.136133e+001 2.594638e+001 2.879350e+001 2.444686e+001 1.879388e+001 1.118874e+000 1.282376e+000 1.843840e+000 1.338104e+000 1.558202e+000 1.738965e+000 2.024100e+000 2.053230e+000 1.884869e+000 1.823045e+000 1.695096e+000 1.486970e+000 9.495856e-001
<GCONST> 9.154214e+001
<STATE> 3
<MEAN> 25
 -9.767618e+000 9.451677e-001 -1.354930e+000 9.398472e-001 2.439595e+000 -4.505429e-001 4.593303e+000 1.377866e+000 1.699408e+000 1.908381e+000 2.870507e+000 4.443787e-001 -9.549384e-001 -7.121499e-001 8.367932e-001 -1.130006e+000 2.851520e-001 -2.896727e-001 -1.800709e-001 3.834302e-003 -4.261393e-002 -2.523254e-001 2.916586e-001 -1.319401e-001 1.670166e+000
<VARIANCE> 25
 1.061394e+002 9.905681e+001 1.067921e+002 5.689886e+001 4.711659e+001 7.854359e+001 8.588535e+001 5.001960e+001 4.118465e+001 4.161004e+001 3.974303e+001 2.843482e+001 8.739975e+000 8.044335e+000 8.435287e+000 4.169469e+000 4.139525e+000 5.919631e+000 6.429989e+000 4.300939e+000 3.958053e+000 4.453056e+000 4.213963e+000 2.798228e+000 4.692342e+000
<GCONST> 1.161921e+002
<STATE> 4
<MEAN> 25
 -1.491894e+001 -5.415155e+000 7.172605e+000 -6.315663e+000 1.003917e+000 2.834614e+000 3.587819e+000 -8.125681e-001 1.773107e+000 4.253194e+000 2.854723e+000 -1.521588e-002 4.613062e-001 -6.480985e-003 -1.370915e-001 -3.096458e-002 -4.217339e-002 -9.835522e-002 -1.016684e-001 3.599547e-002 -2.867623e-002 -8.673839e-002 -7.064028e-002 -4.913664e-003 1.383233e-001
<VARIANCE> 25
 7.731389e+001 9.584933e+001 1.130946e+002 7.750506e+001 5.176561e+001 5.205658e+001 6.406561e+001 4.659694e+001 2.382412e+001 2.798505e+001 2.424979e+001 1.842087e+001 4.305745e+000 1.649966e+000 2.295676e+000 1.952004e+000 1.763288e+000 1.912768e+000 1.859172e+000 1.803824e+000 1.863044e+000 1.698435e+000 1.515728e+000 1.484532e+000 1.270991e+000
<GCONST> 1.005300e+002
<TRANSP> 5
 0.000000e+000 1.000000e+000 0.000000e+000 0.000000e+000 0.000000e+000
 0.000000e+000 8.399248e-001 1.600752e-001 0.000000e+000 0.000000e+000
 0.000000e+000 0.000000e+000 7.313019e-001 2.686981e-001 0.000000e+000
 0.000000e+000 0.000000e+000 0.000000e+000 8.324432e-001 1.675567e-001
 0.000000e+000 0.000000e+000 0.000000e+000 0.000000e+000 0.000000e+000
<ENDHMM>
~h "t"
<BEGINHMM>
<NUMSTATES> 5
<STATE> 2
<MEAN> 25
 -4.050851e+000 2.664868e+000 8.767717e-001 4.142489e+000 2.557917e+000 1.713377e+000 2.304755e+000 -6.389955e-001 1.634964e+000 1.669164e+000 -3.269833e-001 6.329494e-001 -3.085890e-001 -4.532132e-001 -1.065033e-001 -3.153762e-001 1.070516e-001 8.232243e-002 3.603759e-001 7.173450e-002 1.381200e-001 3.130494e-001 1.892141e-001 -4.987494e-002 3.700213e-001
<VARIANCE> 25
 3.932103e+001 2.981511e+001 3.910935e+001 3.909129e+001 3.350078e+001 3.182322e+001 3.387511e+001 3.160068e+001 3.283858e+001 2.781958e+001 3.277310e+001 2.294393e+001 2.227110e+000 2.617330e+000 2.583560e+000 3.126237e+000 2.663200e+000 3.288116e+000 3.368337e+000 3.012162e+000 3.064394e+000 2.745333e+000 2.669302e+000 2.088356e+000 3.563573e+000
<GCONST> 1.011911e+002
<STATE> 3
<MEAN> 25
 5.458080e-001 -1.513985e+000 2.422414e+000 -8.411259e-001 5.686734e-001 -1.427121e+000 -1.255417e+000 -1.073949e+000 4.735490e-001 3.968882e-001 3.182494e-001 -3.663612e-001 1.750892e+000 -9.159459e-001 3.178119e-001 -1.303476e+000 -6.515105e-001 -9.667773e-001 -1.446811e+000 -2.787828e-001 -7.447785e-001 -8.725197e-001 -3.529304e-002 -4.923839e-001 2.923742e+000
<VARIANCE> 25
 7.258222e+001 9.453802e+001 8.248357e+001 7.940572e+001 5.227199e+001 9.130480e+001 9.125085e+001 5.912555e+001 5.804383e+001 5.983495e+001 4.989584e+001 3.354617e+001 7.007800e+000 1.047747e+001 8.154522e+000 8.297217e+000 5.837127e+000 1.053881e+001 1.093581e+001 8.051613e+000 7.313177e+000 7.402258e+000 5.656410e+000 4.365620e+000 8.025800e+000
<GCONST> 1.225960e+002
<STATE> 4
<MEAN> 25
 7.709722e+000 -7.212511e+000 -7.364665e-001 -7.013763e+000 -4.958809e-001 -5.567746e-001 -2.134925e+000 3.247618e-001 -1.947940e+000 -1.617604e-001 6.647692e-001 -1.792947e+000 -1.966323e-002 2.522102e-001 -2.312708e-002 5.512195e-002 -2.202147e-002 -2.007930e-002 7.803538e-002 -1.390149e-002 -5.803763e-002 -7.862853e-002 -7.824783e-002 -4.671215e-002 -1.164179e-001
<VARIANCE> 25
 8.715002e+001 1.394865e+002 1.016435e+002 1.192737e+002 7.224879e+001 8.816648e+001 1.111025e+002 7.401115e+001 7.517477e+001 8.387999e+001 7.173911e+001 4.962675e+001 9.746981e-001 2.413085e+000 2.151623e+000 2.788643e+000 2.465091e+000 2.554066e+000 2.808324e+000 2.666637e+000 2.743539e+000 2.394582e+000 2.254543e+000 1.878225e+000 2.250846e+000
<GCONST> 1.100936e+002
<TRANSP> 5
 0.000000e+000 1.000000e+000 0.000000e+000 0.000000e+000 0.000000e+000
 0.000000e+000 7.071322e-001 2.928679e-001 0.000000e+000 0.000000e+000
 0.000000e+000 0.000000e+000 6.521997e-001 3.478003e-001 0.000000e+000
 0.000000e+000 0.000000e+000 0.000000e+000 7.834382e-001 2.165618e-001
 0.000000e+000 0.000000e+000 0.000000e+000 0.000000e+000 0.000000e+000
<ENDHMM>
~h "y"
<BEGINHMM>
<NUMSTATES> 5
<STATE> 2
<MEAN> 25
 4.816281e+000 4.191232e+000 4.448302e+000 1.767106e+000 7.105305e-001 -1.657178e+000 -2.854671e+000 -1.974574e+000 -3.036957e+000 -2.797874e+000 -3.213394e+000 -3.675028e+000 -1.646098e-002 -1.247952e-002 1.280293e-002 2.887815e-002 -2.647952e-002 -2.821847e-003 1.040769e-002 -5.443349e-002 -3.160553e-002 -9.597953e-003 1.090169e-001 4.735082e-002 -1.603940e-002
<VARIANCE> 25
 8.870534e+000 5.346381e+001 3.028027e+001 2.486197e+001 1.781578e+001 2.642433e+001 2.502063e+001 1.676768e+001 2.155180e+001 2.046118e+001 2.780401e+001 2.106101e+001 1.443329e-001 5.356181e-001 6.177797e-001 7.144037e-001 5.209030e-001 9.359429e-001 1.037400e+000 8.206721e-001 8.901811e-001 1.342448e+000 9.367966e-001 8.682535e-001 1.876862e-001
<GCONST> 7.742903e+001
<STATE> 3
<MEAN> 25
 -4.217945e+000 6.764401e+000 3.330850e+000 -9.443725e-001 7.739424e-001 4.973300e+000 2.903534e+000 7.371654e-002 3.363600e-001 3.416068e+000 5.943922e-001 -1.044423e+000 -5.630375e-001 -1.775958e-001 2.841607e-002 -9.368778e-003 6.154062e-002 1.677190e-001 1.237967e-001 -1.669096e-001 -1.074636e-001 1.664627e-001 1.172157e-001 8.148495e-002 -3.507852e-001
<VARIANCE> 25
 1.601455e+001 2.608498e+001 2.056736e+001 1.278037e+001 8.366663e+000 1.138815e+001 1.001196e+001 1.629207e+001 1.609981e+001 1.344473e+001 1.649602e+001 1.605106e+001 1.105323e-001 2.614969e-001 3.838247e-001 5.109937e-001 5.227048e-001 6.775926e-001 8.138790e-001 8.618134e-001 1.056059e+000 1.019469e+000 9.401358e-001 7.815168e-001 5.446099e-002
<GCONST> 6.845093e+001
<STATE> 4
<MEAN> 25
 -1.281499e+001 4.163297e+000 3.975546e+000 -1.234650e+000 1.622314e+000 6.288187e+000 2.942963e+000 -3.181616e+000 -1.524460e+000 4.158671e+000 1.265837e+000 -1.430897e+000 -4.604157e-002 -3.349205e-002 -2.166715e-002 -1.443408e-002 -3.298635e-003 -1.596701e-002 -1.232619e-002 4.016439e-003 2.264220e-003 3.415578e-003 -1.906054e-002 -6.566557e-003 -2.517345e-002
<VARIANCE> 25
 3.111700e+001 1.325533e+001 1.132317e+001 8.201014e+000 7.941634e+000 1.138819e+001 8.444010e+000 7.303678e+000 7.512813e+000 9.255195e+000 8.134316e+000 7.547424e+000 3.563173e-001 3.684141e-001 3.966931e-001 4.973264e-001 5.498362e-001 7.371944e-001 7.108972e-001 6.704795e-001 7.532240e-001 7.222979e-001 6.888317e-001 6.328503e-001 1.105007e-001
<GCONST> 6.454648e+001
<TRANSP> 5
 0.000000e+000 1.000000e+000 0.000000e+000 0.000000e+000 0.000000e+000
 0.000000e+000 9.250327e-001 7.496737e-002 0.000000e+000 0.000000e+000
 0.000000e+000 0.000000e+000 7.866265e-001 2.133735e-001 0.000000e+000
 0.000000e+000 0.000000e+000 0.000000e+000 9.717420e-001 2.825805e-002
 0.000000e+000 0.000000e+000 0.000000e+000 0.000000e+000 0.000000e+000
<ENDHMM>
~h "aa"
<BEGINHMM>
<NUMSTATES> 5
<STATE> 2
<MEAN> 25
 6.778100e+000 -5.564188e+000 -5.286090e+000 -2.440550e+000 1.018390e+000 -3.188682e+000 8.844453e-001 -7.290270e-001 -3.086374e+000 -4.642910e+000 -1.741224e+000 2.218033e-001 -2.687958e-001 4.663593e-001 2.493107e-002 4.965171e-001 1.563645e-001 4.038745e-001 1.416248e-001 7.590864e-002 2.158513e-001 1.978581e-001 -3.524720e-003 1.293624e-001 -8.062137e-001
<VARIANCE> 25
 5.177967e+001 7.957957e+001 5.240689e+001 5.958627e+001 7.656101e+001 6.298200e+001 6.464037e+001 6.547693e+001 4.967082e+001 6.004720e+001 5.687663e+001 4.337495e+001 1.193268e+000 2.487951e+000 2.176177e+000 2.748249e+000 2.908664e+000 2.799009e+000 2.940610e+000 3.017145e+000 2.892493e+000 3.012481e+000 2.727455e+000 2.344036e+000 1.900615e+000
<GCONST> 1.067788e+002
<STATE> 3
<MEAN> 25
 4.117653e-002 1.952327e+000 -2.445309e+000 3.140735e+000 2.568847e+000 1.808489e+000 3.563108e+000 7.588078e-001 5.829634e-001 -1.733692e-002 -8.033206e-001 3.122151e-001 -7.495717e-001 1.807678e-001 1.472524e-001 5.997318e-002 -1.148008e-002 1.637862e-001 1.613118e-001 1.351506e-001 3.908936e-001 4.444294e-001 1.961240e-001 1.375345e-001 -7.969505e-001
<VARIANCE> 25
 5.081150e+001 4.518706e+001 3.888069e+001 3.241761e+001 3.142848e+001 3.254854e+001 3.091038e+001 2.939287e+001 3.209521e+001 3.363917e+001 3.358662e+001 2.661729e+001 6.746613e-001 1.169046e+000 1.415426e+000 1.343128e+000 1.580340e+000 1.801652e+000 1.829899e+000 2.017596e+000 1.950850e+000 1.887314e+000 1.852548e+000 1.693865e+000 3.889902e-001
<GCONST> 9.260782e+001
<STATE> 4
<MEAN> 25
 -6.188149e+000 2.422701e+000 -1.992119e+000 4.481277e+000 1.377586e+000 2.018899e+000 3.518353e+000 2.567095e+000 2.701847e+000 2.839184e+000 1.120620e+000 2.015707e+000 -5.733380e-002 -3.880440e-003 1.224307e-002 1.776391e-003 -7.761857e-003 7.155324e-003 8.125784e-003 1.067303e-002 2.167974e-002 3.062330e-002 1.025254e-002 1.576819e-003 -4.612336e-002
<VARIANCE> 25
 1.704082e+001 8.294145e+000 1.886510e+001 1.659862e+001 1.124314e+001 2.023287e+001 1.295773e+001 1.786682e+001 1.738570e+001 1.979542e+001 1.668756e+001 1.443349e+001 1.532409e-001 2.676827e-001 4.226430e-001 5.808292e-001 7.352144e-001 8.884794e-001 1.022478e+000 1.132595e+000 1.172633e+000 1.139175e+000 1.108231e+000 1.016960e+000 6.500521e-002
<GCONST> 7.164027e+001
<TRANSP> 5
 0.000000e+000 1.000000e+000 0.000000e+000 0.000000e+000 0.000000e+000
 0.000000e+000 8.674315e-001 1.325684e-001 0.000000e+000 0.000000e+000
 0.000000e+000 0.000000e+000 8.243650e-001 1.756350e-001 0.000000e+000
 0.000000e+000 0.000000e+000 0.000000e+000 9.583044e-001 4.169559e-002
 0.000000e+000 0.000000e+000 0.000000e+000 0.000000e+000 0.000000e+000
<ENDHMM>
~h "eu"
<BEGINHMM>
<NUMSTATES> 5
<STATE> 2
<MEAN> 25
 -1.828351e+000 2.948187e+000 1.169768e+000 9.715797e-001 1.398511e+000 -7.451769e-001 3.059504e+000 4.465226e-001 1.499523e+000 8.524647e-001 1.622601e-001 5.457441e-001 2.275244e+000 -2.283619e-001 2.217237e-001 -2.397845e-001 -5.615837e-001 -8.451048e-001 -1.017210e+000 -4.060771e-001 -6.098402e-001 -8.609807e-001 -3.052847e-001 -2.447381e-001 1.538779e+000
<VARIANCE> 25
 1.053876e+002 8.028702e+001 6.781465e+001 6.327514e+001 4.268780e+001 6.661765e+001 4.898272e+001 4.861451e+001 4.594728e+001 4.373677e+001 4.261810e+001 2.555449e+001 9.439062e+000 6.508041e+000 5.035018e+000 5.911754e+000 4.285167e+000 5.453882e+000 6.039653e+000 5.157947e+000 5.108339e+000 6.028068e+000 4.187645e+000 3.000770e+000 4.849028e+000
<GCONST> 1.153202e+002
<STATE> 3
<MEAN> 25
 6.668117e+000 -3.467872e+000 3.030566e+000 -4.852412e+000 -1.949041e+000 -2.620143e+000 -4.711808e+000 -1.257484e+000 -1.608590e+000 -3.715075e+000 1.553862e+000 -8.694139e-001 1.744842e+000 -1.618034e+000 -4.095637e-002 -1.694247e+000 -6.682815e-001 -4.376896e-001 -1.638270e+000 3.803418e-002 -5.070206e-001 -9.058845e-001 5.370881e-002 -5.517008e-001 2.444640e+000
<VARIANCE> 25
 5.087743e+001 8.522042e+001 8.667294e+001 8.691376e+001 6.733704e+001 8.178036e+001 7.886132e+001 7.042447e+001 8.049697e+001 8.245461e+001 5.843909e+001 3.733704e+001 5.880511e+000 1.214415e+001 5.634072e+000 1.013459e+001 6.513885e+000 7.203178e+000 9.022804e+000 7.509257e+000 8.693511e+000 8.303876e+000 6.249316e+000 4.585440e+000 9.353511e+000
<GCONST> 1.232211e+002
<STATE> 4
<MEAN> 25
 9.686279e+000 -1.461085e+001 8.021937e+000 -1.440612e+001 2.196369e-001 2.745301e+000 -1.015773e+001 2.174638e+000 -4.275873e-001 2.674868e+000 2.879459e+000 -5.445230e+000 2.863663e-002 1.537234e-001 -1.087429e-001 1.619717e-001 6.300870e-002 2.761298e-002 1.089246e-001 4.363413e-002 -4.520789e-002 3.218581e-002 -2.051318e-001 -6.643990e-002 -2.072430e-001
<VARIANCE> 25
 5.412660e+001 1.001350e+002 7.332797e+001 9.408165e+001 6.321388e+001 5.031705e+001 5.473003e+001 5.903658e+001 7.044654e+001 1.008208e+002 7.980787e+001 4.985349e+001 6.355213e-001 1.744653e+000 1.372183e+000 1.970583e+000 1.626772e+000 1.572832e+000 2.009465e+000 2.085433e+000 1.832582e+000 1.650681e+000 1.999879e+000 1.496534e+000 9.512745e-001
<GCONST> 1.023097e+002
<TRANSP> 5
 0.000000e+000 1.000000e+000 0.000000e+000 0.000000e+000 0.000000e+000
 0.000000e+000 5.552263e-001 4.447737e-001 0.000000e+000 0.000000e+000
 0.000000e+000 0.000000e+000 6.171675e-001 3.828325e-001 0.000000e+000
 0.000000e+000 0.000000e+000 0.000000e+000 8.847601e-001 1.152399e-001
 0.000000e+000 0.000000e+000 0.000000e+000 0.000000e+000 0.000000e+000
<ENDHMM>
~h "hh"
<BEGINHMM>
<NUMSTATES> 5
<STATE> 2
<MEAN> 25
 1.925528e+000 1.386880e+000 9.840619e-001 -1.244560e+000 -1.231888e-001 1.491698e-001 4.346503e-001 -8.683953e-001 3.214040e-001 -8.739218e-001 -2.431350e+000 -1.321663e+000 2.954691e-001 -3.222024e-001 -2.758554e-001 -1.187009e-001 5.758614e-001 3.822353e-002 8.207978e-002 3.073218e-001 3.029949e-001 1.581944e-001 -2.645102e-001 9.987326e-002 6.341828e-001
<VARIANCE> 25
 6.499572e+001 6.793313e+001 6.120150e+001 9.604964e+001 7.015578e+001 6.248893e+001 6.352579e+001 5.741704e+001 4.468996e+001 4.945493e+001 5.750168e+001 3.635606e+001 4.017502e+000 6.330646e+000 4.772216e+000 6.419063e+000 4.294652e+000 4.979740e+000 4.282325e+000 4.774561e+000 4.429436e+000 4.047440e+000 4.913407e+000 3.661071e+000 4.832456e+000
<GCONST> 1.150424e+002
<STATE> 3
<MEAN> 25
 -1.320964e+000 -4.194618e+000 -6.889904e+000 -9.734686e-001 5.727142e+000 4.754982e+000 6.503438e+000 1.535839e+000 3.852709e+000 2.234690e+000 -9.522112e-001 2.569803e+000 -3.827387e-001 1.709441e-002 -1.756721e-001 3.619519e-001 1.869294e-001 1.830455e-001 1.912393e-001 1.261729e-001 3.142257e-001 3.757017e-001 2.921702e-001 1.248539e-001 -5.528812e-001
<VARIANCE> 25
 3.398673e+001 6.310794e+001 5.420535e+001 6.129000e+001 8.422992e+001 6.188581e+001 8.186977e+001 7.542693e+001 6.411264e+001 5.894277e+001 7.650430e+001 4.079123e+001 7.565929e-001 1.937672e+000 2.732200e+000 2.548378e+000 3.200217e+000 3.366485e+000 4.044568e+000 4.217425e+000 3.737567e+000 2.896115e+000 3.364537e+000 2.593822e+000 7.472354e-001
<GCONST> 1.070900e+002
<STATE> 4
<MEAN> 25
 -3.604773e+000 5.161381e-001 -2.301427e+000 3.161812e+000 1.418975e+000 2.745658e+000 3.450250e+000 2.028141e+000 2.207613e+000 3.231993e+000 1.414542e+000 7.138687e-001 -1.297211e-001 2.782885e-002 4.853828e-002 2.011833e-002 -7.158741e-002 -1.090262e-002 -9.880434e-003 1.374045e-002 -2.011543e-002 1.883035e-002 2.158827e-002 2.610508e-002 -1.610353e-001
<VARIANCE> 25
 2.140925e+001 2.282591e+001 2.417568e+001 2.880221e+001 2.515429e+001 2.524383e+001 1.916833e+001 2.462190e+001 2.299073e+001 2.631590e+001 2.488649e+001 1.611058e+001 3.119152e-001 5.154656e-001 7.714306e-001 8.277290e-001 1.081459e+000 1.150466e+000 1.374285e+000 1.530061e+000 1.383394e+000 1.410379e+000 1.394720e+000 1.191237e+000 2.206704e-001
<GCONST> 8.204445e+001
<TRANSP> 5
 0.000000e+000 1.000000e+000 0.000000e+000 0.000000e+000 0.000000e+000
 0.000000e+000 6.794635e-001 3.205364e-001 0.000000e+000 0.000000e+000
 0.000000e+000 0.000000e+000 7.707034e-001 2.292966e-001 0.000000e+000
 0.000000e+000 0.000000e+000 0.000000e+000 9.107077e-001 8.929231e-002
 0.000000e+000 0.000000e+000 0.000000e+000 0.000000e+000 0.000000e+000
<ENDHMM>
~h "ih"
<BEGINHMM>
<NUMSTATES> 5
<STATE> 2
<MEAN> 25
 9.985672e-001 8.727485e-001 6.976755e+000 1.212068e+000 5.730088e-002 -2.113456e+000 -3.590925e+000 -2.304848e+000 -1.082268e-001 -9.620633e-001 -1.086377e+000 -1.688707e+000 3.382948e-001 -3.346234e-001 2.115994e+000 -5.048320e-001 -5.779731e-001 -1.048882e+000 -2.001770e+000 -2.169409e-001 -4.555528e-001 -8.767093e-001 -2.485796e-001 -1.578667e-001 2.019378e+000
<VARIANCE> 25
 6.536653e+001 9.195036e+001 9.831123e+001 7.604048e+001 8.065739e+001 6.224292e+001 8.977714e+001 6.610716e+001 6.138667e+001 6.096249e+001 5.049897e+001 3.740714e+001 4.928653e+000 8.751190e+000 9.005636e+000 1.034824e+001 7.065229e+000 7.424819e+000 8.969976e+000 8.178443e+000 6.906744e+000 6.999788e+000 5.948653e+000 4.470757e+000 6.039694e+000
<GCONST> 1.220605e+002
<STATE> 3
<MEAN> 25
 1.401994e+000 2.133251e+000 1.357794e+001 -1.674421e+000 -2.998872e+000 -4.909169e+000 -8.512754e+000 -3.161603e+000 -2.224489e+000 -5.000080e+000 -2.215597e+000 -9.271353e-001 -1.095098e-001 4.379301e-001 4.523645e-001 -3.457982e-001 -3.452645e-001 -2.551029e-001 -3.510363e-001 1.040561e-001 -4.066499e-002 -3.393548e-001 -2.738569e-001 3.679546e-001 9.800944e-003
<VARIANCE> 25
 4.018263e+001 9.364792e+001 1.187863e+002 1.522417e+002 1.035382e+002 1.072892e+002 7.197685e+001 8.063815e+001 5.814260e+001 6.472342e+001 7.302379e+001 5.072235e+001 1.927621e+000 3.267955e+000 5.292070e+000 6.591524e+000 4.052260e+000 5.758559e+000 5.728736e+000 4.330840e+000 4.199988e+000 3.764468e+000 3.607279e+000 3.976430e+000 2.321522e+000
<GCONST> 1.164346e+002
<STATE> 4
<MEAN> 25
 2.211681e+000 3.298804e+000 1.695953e+001 -1.061908e+000 -5.133860e+000 -5.455288e+000 -9.964820e+000 -2.426811e+000 -3.053394e+000 -7.183535e+000 -1.852587e+000 -7.002567e-001 1.420818e-001 1.492464e-001 -4.882299e-001 2.529066e-001 1.548172e-001 2.197814e-001 3.458853e-001 -9.949982e-002 3.307246e-002 1.592845e-001 4.355032e-002 6.477044e-003 -5.276536e-001
<VARIANCE> 25
 2.065720e+001 8.149430e+001 1.022295e+002 1.588329e+002 1.139551e+002 6.812190e+001 5.548658e+001 8.521415e+001 7.134025e+001 6.244101e+001 7.690000e+001 5.676664e+001 5.214385e-001 1.184103e+000 1.699014e+000 2.163821e+000 1.952976e+000 2.017989e+000 2.314000e+000 2.245023e+000 2.131306e+000 2.078539e+000 2.142708e+000 1.894781e+000 6.792474e-001
<GCONST> 1.036138e+002
<TRANSP> 5
 0.000000e+000 1.000000e+000 0.000000e+000 0.000000e+000 0.000000e+000
 0.000000e+000 6.377047e-001 3.622954e-001 0.000000e+000 0.000000e+000
 0.000000e+000 0.000000e+000 5.380517e-001 4.619484e-001 0.000000e+000
 0.000000e+000 0.000000e+000 0.000000e+000 9.096844e-001 9.031560e-002
 0.000000e+000 0.000000e+000 0.000000e+000 0.000000e+000 0.000000e+000
<ENDHMM>
~h "jh"
<BEGINHMM>
<NUMSTATES> 5
<STATE> 2
<MEAN> 25
 1.773444e+000 4.950033e+000 3.370120e+000 5.220836e+000 4.616165e+000 2.648993e+000 -7.789432e-002 -1.307459e+000 -1.462319e-001 -7.005140e-001 -1.894399e+000 -6.527419e-001 -8.434555e-001 1.551280e-002 -3.173394e-002 1.163488e-001 3.137185e-001 5.782301e-001 9.489971e-001 5.131499e-001 6.580735e-001 7.006077e-001 3.755419e-001 2.686247e-001 -8.614658e-001
<VARIANCE> 25
 2.286920e+001 3.781035e+001 4.668048e+001 3.042178e+001 4.608033e+001 2.276782e+001 3.799580e+001 2.362059e+001 2.949734e+001 3.175233e+001 2.862320e+001 2.487972e+001 8.185304e-001 1.665351e+000 1.794764e+000 2.190408e+000 2.383638e+000 2.320671e+000 2.737194e+000 2.232626e+000 2.290941e+000 2.061815e+000 2.004041e+000 1.895475e+000 9.737088e-001
<GCONST> 9.519354e+001
<STATE> 3
<MEAN> 25
 -3.364655e+000 1.906335e+000 3.803163e+000 8.677391e-001 2.943670e+000 -1.015946e-001 1.828334e+000 -4.509242e-001 -1.775741e+000 1.066255e-001 1.165755e+000 -9.365554e-001 -3.525037e-001 -7.046403e-001 -5.550501e-001 -5.322908e-001 -9.614388e-002 -5.476137e-001 1.525295e-001 1.912770e-001 -1.890613e-001 3.979248e-002 2.184927e-001 2.081717e-001 9.929255e-001
<VARIANCE> 25
 9.615218e+001 7.260608e+001 7.607005e+001 5.775583e+001 6.400268e+001 6.565777e+001 5.438877e+001 3.474569e+001 4.180531e+001 4.025841e+001 3.112850e+001 3.045251e+001 1.095491e+001 4.421844e+000 4.847311e+000 4.146507e+000 7.245327e+000 4.995639e+000 4.938367e+000 2.643256e+000 3.760268e+000 4.160505e+000 2.800938e+000 2.540593e+000 4.855622e+000
<GCONST> 1.126876e+002
<STATE> 4
<MEAN> 25
 -7.521337e+000 3.215268e+000 1.911304e+000 1.576946e+000 1.306126e+000 4.748487e+000 2.857546e+000 1.201484e+000 1.627211e+000 4.528554e+000 1.940125e+000 7.967664e-001 -6.567855e-002 -5.715951e-002 -2.584311e-002 -3.925317e-003 5.824733e-003 2.923422e-002 4.317405e-002 2.794558e-002 3.994951e-002 5.031101e-002 9.819105e-003 3.825660e-003 -3.859119e-002
<VARIANCE> 25
 2.318581e+001 1.199974e+001 1.553242e+001 1.596463e+001 8.597327e+000 1.426426e+001 1.064918e+001 2.523712e+001 1.761123e+001 1.243763e+001 1.165197e+001 1.366990e+001 1.671407e-001 2.785784e-001 3.863566e-001 5.190555e-001 6.851415e-001 7.302179e-001 8.581583e-001 9.533394e-001 1.001279e+000 9.587869e-001 9.460903e-001 8.832384e-001 6.031564e-002
<GCONST> 6.935604e+001
<TRANSP> 5
 0.000000e+000 1.000000e+000 0.000000e+000 0.000000e+000 0.000000e+000
 0.000000e+000 7.052464e-001 2.947536e-001 0.000000e+000 0.000000e+000
 0.000000e+000 0.000000e+000 7.220267e-001 2.779733e-001 0.000000e+000
 0.000000e+000 0.000000e+000 0.000000e+000 9.538454e-001 4.615458e-002
 0.000000e+000 0.000000e+000 0.000000e+000 0.000000e+000 0.000000e+000
<ENDHMM>
~h "ng"
<BEGINHMM>
<NUMSTATES> 5
<STATE> 2
<MEAN> 25
 8.127590e+000 7.194877e+000 1.324126e+000 3.310468e+000 -3.081439e+000 -3.040600e+000 -2.760074e+000 -9.641067e+000 -7.846579e+000 -2.068634e+000 -4.533629e+000 -4.809315e+000 -6.109725e-001 4.118866e-001 2.261443e-001 5.462069e-001 4.178752e-001 1.148694e-001 1.430955e-001 3.880447e-002 3.018357e-001 1.281197e-001 -2.369764e-001 1.602888e-002 -7.133572e-001
<VARIANCE> 25
 3.016257e+001 2.817747e+001 3.526373e+001 2.581556e+001 5.303289e+001 3.903803e+001 9.303882e+001 5.985004e+001 6.550201e+001 6.212949e+001 5.309078e+001 5.394613e+001 5.180723e-001 1.036059e+000 1.551995e+000 1.553917e+000 2.175201e+000 2.378855e+000 2.924070e+000 3.106510e+000 3.118900e+000 2.903783e+000 2.518152e+000 2.163045e+000 2.629366e-001
<GCONST> 9.870850e+001
<STATE> 3
<MEAN> 25
 -7.220562e-001 6.249946e+000 3.059662e+000 6.216132e+000 3.352041e+000 1.329778e+000 1.659444e+000 -1.923131e+000 -1.313514e-002 -3.372732e-002 -2.785517e+000 -1.718370e+000 -9.044583e-001 -6.029055e-001 -4.762291e-001 -2.577885e-001 6.562841e-002 4.582284e-001 6.671733e-001 5.517122e-001 5.641963e-001 5.848698e-001 5.005956e-001 4.615299e-001 -5.360424e-001
<VARIANCE> 25
 1.807810e+001 1.605077e+001 2.911925e+001 2.003522e+001 2.521151e+001 2.398312e+001 3.268198e+001 2.557096e+001 3.096103e+001 2.817046e+001 3.393197e+001 2.939146e+001 3.291890e-001 8.224370e-001 1.188865e+000 1.252174e+000 1.689481e+000 2.151644e+000 2.161361e+000 2.068221e+000 1.759620e+000 1.753654e+000 1.957729e+000 1.802949e+000 1.379373e-001
<GCONST> 8.708168e+001
<STATE> 4
<MEAN> 25
 -5.886750e+000 2.354110e+000 -1.726374e+000 4.922878e+000 1.200254e+000 1.949882e+000 3.593150e+000 2.741599e+000 2.831905e+000 3.147848e+000 9.865636e-001 1.622381e+000 -5.033542e-002 -4.126722e-002 -4.757160e-002 -3.167344e-002 -1.572925e-002 -1.948008e-003 9.824322e-003 3.685959e-002 3.381755e-002 2.437741e-002 2.137942e-002 1.897916e-002 -2.990418e-002
<VARIANCE> 25
 7.766417e+000 6.500218e+000 1.906338e+001 1.256240e+001 1.000070e+001 2.176680e+001 1.220576e+001 1.725214e+001 1.639718e+001 2.069781e+001 1.708642e+001 1.289305e+001 1.473662e-001 2.788422e-001 4.312083e-001 5.887747e-001 7.316768e-001 9.062942e-001 1.045882e+000 1.148005e+000 1.179056e+000 1.248189e+000 1.193777e+000 1.038329e+000 5.273394e-002
<GCONST> 7.016995e+001
<TRANSP> 5
 0.000000e+000 1.000000e+000 0.000000e+000 0.000000e+000 0.000000e+000
 0.000000e+000 8.682232e-001 1.317768e-001 0.000000e+000 0.000000e+000
 0.000000e+000 0.000000e+000 8.471978e-001 1.528021e-001 0.000000e+000
 0.000000e+000 0.000000e+000 0.000000e+000 9.653351e-001 3.466484e-002
 0.000000e+000 0.000000e+000 0.000000e+000 0.000000e+000 0.000000e+000
<ENDHMM>
~h "ny"
<BEGINHMM>
<NUMSTATES> 5
<STATE> 2
<MEAN> 25
 -2.806970e+000 3.530035e+000 2.988103e+000 2.526553e+000 3.342281e+000 2.752597e-001 5.780861e-001 -1.230973e+000 1.212337e+000 2.759698e+000 -2.883102e-001 -7.985900e-001 1.283441e+000 1.362667e-001 1.456575e+000 -8.018481e-001 -3.683515e-001 -6.352224e-001 -1.056782e+000 -7.159405e-001 -7.385459e-001 -5.558112e-001 -1.081153e-001 -5.981980e-001 2.303920e+000
<VARIANCE> 25
 8.240811e+001 6.992304e+001 7.806433e+001 5.393765e+001 4.457300e+001 6.050010e+001 5.572205e+001 4.590116e+001 4.692795e+001 3.100097e+001 3.913992e+001 3.362466e+001 6.702568e+000 7.542055e+000 8.121140e+000 7.417058e+000 5.235109e+000 6.880397e+000 5.989131e+000 5.078230e+000 5.114077e+000 4.662838e+000 4.788516e+000 3.444215e+000 6.357371e+000
<GCONST> 1.160074e+002
<STATE> 3
<MEAN> 25
 4.941749e+000 -1.720983e+000 1.050423e+001 -2.756349e+000 -2.703987e+000 -4.743172e+000 -5.134558e+000 -1.394428e+000 -4.140541e+000 -3.139716e+000 -1.405275e+000 -4.259813e+000 3.228320e-001 -1.901459e+000 -7.213715e-001 -5.093731e-001 4.306422e-002 -3.582945e-001 3.631678e-002 8.302729e-001 -6.786227e-002 -1.092088e-001 2.709846e-001 -2.363378e-001 1.442980e+000
<VARIANCE> 25
 3.237500e+001 9.765175e+001 1.052514e+002 1.272976e+002 6.498064e+001 8.430476e+001 7.963726e+001 6.986852e+001 5.393940e+001 6.548518e+001 7.779122e+001 3.705076e+001 2.060541e+000 5.932340e+000 5.989416e+000 7.557847e+000 4.986602e+000 7.504531e+000 7.052088e+000 4.894481e+000 4.442509e+000 4.571516e+000 4.582912e+000 2.940539e+000 3.510864e+000
<GCONST> 1.172247e+002
<STATE> 4
<MEAN> 25
 9.559111e+000 -7.004168e+000 4.381355e+000 -8.735906e+000 -2.664468e+000 5.748863e-001 -4.335051e+000 -9.394977e-001 -6.720143e+000 -1.822840e+000 3.674050e+000 -4.908986e+000 2.457493e-002 3.627132e-001 -1.262121e-001 9.524120e-002 -1.938166e-002 1.056300e-001 1.502352e-001 -1.882412e-001 -5.872386e-002 -1.297749e-002 -7.020523e-002 9.570774e-002 -3.496720e-001
<VARIANCE> 25
 3.226423e+001 1.134532e+002 8.675155e+001 9.010296e+001 7.128010e+001 7.715675e+001 8.336875e+001 9.245144e+001 7.122292e+001 6.745383e+001 1.138878e+002 5.442503e+001 5.075172e-001 1.601151e+000 1.872091e+000 2.353364e+000 1.679191e+000 2.045048e+000 2.205689e+000 2.087604e+000 1.843500e+000 1.752705e+000 2.382348e+000 1.731751e+000 8.637666e-001
<GCONST> 1.043678e+002
<TRANSP> 5
 0.000000e+000 1.000000e+000 0.000000e+000 0.000000e+000 0.000000e+000
 0.000000e+000 8.003250e-001 1.996749e-001 0.000000e+000 0.000000e+000
 0.000000e+000 0.000000e+000 8.033223e-001 1.966777e-001 0.000000e+000
 0.000000e+000 0.000000e+000 0.000000e+000 9.446443e-001 5.535574e-002
 0.000000e+000 0.000000e+000 0.000000e+000 0.000000e+000 0.000000e+000
<ENDHMM>
~h "sp"
<BEGINHMM>
<NUMSTATES> 3
<STATE> 2
~s "silst"
<TRANSP> 3
 0.000000e+000 1.091574e-001 8.908426e-001
 0.000000e+000 9.261400e-001 7.386008e-002
 0.000000e+000 0.000000e+000 0.000000e+000
<ENDHMM>
~h "uw"
<BEGINHMM>
<NUMSTATES> 5
<STATE> 2
<MEAN> 25
 5.995087e+000 1.575963e-001 2.784949e+000 -1.833391e+000 -7.295810e-001 -1.319783e+000 -4.501315e+000 -1.478010e+000 -1.716090e+000 -2.605503e+000 -1.712406e+000 -2.084604e+000 6.668880e-001 3.917249e-001 2.583950e-001 -5.608591e-002 -4.366325e-001 -4.554870e-001 -5.416531e-001 -1.889217e-001 -4.072540e-001 -4.641267e-001 -2.092537e-001 -1.774906e-001 4.449967e-001
<VARIANCE> 25
 5.988278e+001 1.025655e+002 8.440834e+001 1.023922e+002 8.468068e+001 8.341862e+001 8.697691e+001 7.553096e+001 6.834608e+001 7.553773e+001 6.580584e+001 4.642534e+001 3.335288e+000 7.873793e+000 5.086602e+000 6.868407e+000 5.870440e+000 6.780748e+000 7.221943e+000 6.326765e+000 5.974340e+000 5.539428e+000 5.106005e+000 4.010621e+000 4.421793e+000
<GCONST> 1.202939e+002
<STATE> 3
<MEAN> 25
 9.191520e+000 6.089536e+000 5.093113e+000 -5.471502e+000 -8.480889e+000 -5.307085e+000 -6.509987e+000 -3.168534e+000 -2.456875e+000 -3.314325e+000 -3.332438e+000 -4.129932e+000 -4.248653e-002 1.129756e-001 -2.176867e-001 7.396392e-003 1.078062e-001 2.104623e-001 2.722802e-001 -2.089345e-001 -9.193799e-002 4.214825e-002 -9.682000e-002 2.116186e-002 -2.224759e-001
<VARIANCE> 25
 1.908642e+001 6.294480e+001 8.947776e+001 7.663006e+001 9.295300e+001 8.628234e+001 8.093748e+001 1.030849e+002 7.003931e+001 7.560401e+001 7.644843e+001 5.274945e+001 4.833589e-001 1.871068e+000 2.727269e+000 2.597996e+000 3.669561e+000 3.836523e+000 3.797565e+000 4.151637e+000 3.648271e+000 3.468563e+000 3.342074e+000 3.003729e+000 6.741416e-001
<GCONST> 1.084770e+002
<STATE> 4
<MEAN> 25
 9.151135e+000 5.758647e+000 1.626014e+000 -3.162708e+000 -4.229741e+000 -2.622990e+000 -3.554124e+000 -5.050134e+000 -6.266160e+000 -4.646232e+000 -1.320816e+000 -2.054790e+000 -3.592429e-001 -7.952265e-003 2.859061e-002 2.363931e-001 1.831927e-001 1.764477e-001 2.600284e-001 1.274851e-002 1.708474e-001 1.546620e-001 6.182920e-002 7.622568e-002 -4.089963e-001
<VARIANCE> 25
 4.774670e+001 5.306371e+001 4.724047e+001 8.874328e+001 5.135851e+001 6.392809e+001 4.751198e+001 6.151027e+001 5.440109e+001 4.989271e+001 7.206832e+001 4.025652e+001 4.045484e-001 8.018478e-001 8.581533e-001 1.151540e+000 1.315112e+000 1.478896e+000 1.509491e+000 1.639209e+000 1.727821e+000 1.644585e+000 1.601736e+000 1.420234e+000 2.919810e-001
<GCONST> 9.514996e+001
<TRANSP> 5
 0.000000e+000 1.000000e+000 0.000000e+000 0.000000e+000 0.000000e+000
 0.000000e+000 8.146951e-001 1.853050e-001 0.000000e+000 0.000000e+000
 0.000000e+000 0.000000e+000 8.754482e-001 1.245518e-001 0.000000e+000
 0.000000e+000 0.000000e+000 0.000000e+000 8.835761e-001 1.164239e-001
 0.000000e+000 0.000000e+000 0.000000e+000 0.000000e+000 0.000000e+000
<ENDHMM>
~h "sil"
<BEGINHMM>
<NUMSTATES> 5
<STATE> 2
<MEAN> 25
 -9.348226e+000 2.154761e+000 -3.306797e+000 2.737853e+000 1.466188e+000 8.936026e-001 3.435890e+000 1.622740e+000 3.327146e+000 2.786278e+000 4.155686e-001 3.143088e+000 -1.116477e-002 -2.483261e-003 2.737879e-004 -4.504666e-003 -1.750302e-003 -1.588272e-003 -3.519308e-003 -8.733588e-004 9.548118e-004 7.117920e-003 3.729736e-003 3.822283e-004 -7.905216e-003
<VARIANCE> 25
 3.379692e+001 1.046216e+001 1.945437e+001 2.222256e+001 1.133471e+001 1.791568e+001 1.184907e+001 1.546187e+001 1.711765e+001 1.695711e+001 1.386504e+001 1.569554e+001 8.697026e-002 1.761821e-001 2.784712e-001 4.043380e-001 5.303829e-001 6.265361e-001 7.872156e-001 8.824687e-001 9.327522e-001 8.899092e-001 8.293274e-001 7.882285e-001 3.613574e-002
<GCONST> 6.770177e+001
<STATE> 3
~s "silst"
<STATE> 4
<MEAN> 25
 6.562633e+000 -2.719239e+000 8.080895e-001 -2.700963e+000 -1.862386e+000 -1.435163e-001 -2.846460e+000 -9.309144e-001 -3.000477e-001 -6.721973e-001 -1.738015e-001 -9.507452e-001 1.207211e-001 -1.547981e-002 4.876760e-003 -1.004164e-002 -1.035864e-002 -1.265810e-002 -2.185001e-002 -8.728868e-003 -2.939218e-002 -3.835189e-002 -1.544898e-002 -2.116977e-002 7.005160e-002
<VARIANCE> 25
 1.427455e+002 1.334323e+002 1.038852e+002 1.098507e+002 6.654298e+001 7.977174e+001 7.717173e+001 6.219053e+001 6.852117e+001 6.618014e+001 5.908418e+001 4.149127e+001 2.409451e+000 3.077480e+000 2.397921e+000 2.968800e+000 2.249114e+000 2.578242e+000 2.836878e+000 2.551668e+000 2.706453e+000 2.444784e+000 2.316794e+000 1.869087e+000 3.894385e+000
<GCONST> 1.108393e+002
<TRANSP> 5
 0.000000e+000 1.000000e+000 0.000000e+000 0.000000e+000 0.000000e+000
 0.000000e+000 9.663037e-001 3.884986e-003 2.981130e-002 0.000000e+000
 0.000000e+000 0.000000e+000 9.516051e-001 4.839490e-002 0.000000e+000
 0.000000e+000 5.524829e-002 0.000000e+000 9.215246e-001 2.322705e-002
 0.000000e+000 0.000000e+000 0.000000e+000 0.000000e+000 0.000000e+000
<ENDHMM>
