~o
<STREAMINFO> 1 25
<VECSIZE> 25<NULLD><MFCC_D_N_Z_0><DIAGC>
~s "silst"
<MEAN> 25
 -3.738665e+000 1.883730e+000 9.752523e-001 5.465687e+000 8.528007e-001 5.594493e+000 2.703523e+000 5.384187e+000 4.229603e+000 5.472802e+000 3.094704e+000 1.928902e+000 -9.816450e-003 -6.919799e-003 1.185814e-002 8.070518e-003 1.335617e-002 1.094329e-002 3.023218e-002 3.176924e-002 3.052488e-002 1.437132e-002 -1.051703e-002 -1.361196e-002 2.462055e-003
<VARIANCE> 25
 3.085402e+000 2.938568e+000 8.709299e+000 5.646734e+000 7.042923e+000 8.649467e+000 1.000379e+001 1.023291e+001 1.035986e+001 1.140056e+001 1.087057e+001 1.022798e+001 9.870295e-002 2.024678e-001 3.420053e-001 4.982628e-001 6.035911e-001 7.981139e-001 9.240389e-001 1.009437e+000 1.050696e+000 1.012238e+000 9.850240e-001 8.964717e-001 5.441556e-002
<GCONST> 6.081167e+001
~h "b"
<BEGINHMM>
<NUMSTATES> 5
<STATE> 2
<MEAN> 25
 -5.989335e-002 4.927792e+000 -2.648711e+000 4.279461e+000 2.682527e+000 2.106687e+000 5.103077e+000 -1.806100e+000 -8.601404e-001 1.740809e-001 -2.615535e+000 -4.337409e-001 -5.271879e-001 1.901262e-001 -6.483852e-002 1.884697e-001 2.582294e-001 2.786000e-002 1.309168e-001 2.569138e-001 6.000262e-001 2.861073e-001 5.176757e-002 3.429839e-001 -5.668297e-001
<VARIANCE> 25
 7.463461e+001 5.683043e+001 5.053651e+001 4.046659e+001 4.931181e+001 6.597701e+001 6.967062e+001 5.354852e+001 6.828333e+001 5.168108e+001 4.986831e+001 4.216763e+001 8.485838e-001 1.596160e+000 1.852514e+000 2.084391e+000 2.348453e+000 3.025445e+000 3.085004e+000 3.210712e+000 3.271274e+000 2.597878e+000 2.771277e+000 2.235299e+000 5.341394e-001
<GCONST> 1.032992e+002
<STATE> 3
<MEAN> 25
 -5.079235e-002 6.405038e+000 -2.864022e-001 4.704349e+000 2.475150e-001 -9.118280e-001 1.883886e+000 -1.570461e+000 -1.051799e+000 -1.226821e+000 -2.408624e+000 -7.817531e-001 -3.710806e-001 4.661287e-002 4.226272e-002 1.135038e-001 4.699099e-002 -9.754682e-002 -6.380360e-003 1.092326e-001 2.759327e-001 3.786965e-002 -1.040832e-001 8.257777e-002 -3.454652e-001
<VARIANCE> 25
 5.929363e+001 5.009558e+001 2.642943e+001 4.039452e+001 3.550483e+001 4.945921e+001 3.976664e+001 4.384738e+001 4.831509e+001 5.524811e+001 3.450831e+001 3.122649e+001 5.080948e-001 6.207572e-001 8.734679e-001 9.547690e-001 1.281132e+000 1.457358e+000 1.590509e+000 1.602150e+000 2.078071e+000 1.920999e+000 1.756887e+000 1.521373e+000 2.444872e-001
<GCONST> 9.190629e+001
<STATE> 4
<MEAN> 25
 -8.016818e+000 4.091567e+000 -4.593914e+000 6.443799e+000 2.431326e+000 -9.594046e-001 4.489299e+000 1.485144e+000 2.098819e+000 2.149792e-001 -1.110224e+000 2.651156e+000 -3.667672e-002 -7.158196e-003 7.475344e-004 -6.541707e-004 -9.662638e-003 -1.950719e-002 -3.006612e-002 -9.068143e-003 -3.816884e-003 -2.697910e-002 -3.003027e-002 -1.514649e-003 -2.979605e-002
<VARIANCE> 25
 2.730211e+001 8.966689e+000 1.153540e+001 1.181352e+001 1.244830e+001 1.355871e+001 1.457863e+001 1.560978e+001 2.137597e+001 1.874845e+001 1.563278e+001 1.823612e+001 2.176512e-001 3.189846e-001 4.672927e-001 6.395636e-001 8.108693e-001 9.515067e-001 1.099032e+000 1.325790e+000 1.358676e+000 1.323413e+000 1.219474e+000 1.137339e+000 8.417773e-002
<GCONST> 7.324514e+001
<TRANSP> 5
 0.000000e+000 1.000000e+000 0.000000e+000 0.000000e+000 0.000000e+000
 0.000000e+000 6.766390e-001 3.233610e-001 0.000000e+000 0.000000e+000
 0.000000e+000 0.000000e+000 3.939540e-001 6.060460e-001 0.000000e+000
 0.000000e+000 0.000000e+000 0.000000e+000 9.407725e-001 5.922759e-002
 0.000000e+000 0.000000e+000 0.000000e+000 0.000000e+000 0.000000e+000
<ENDHMM>
~h "d"
<BEGINHMM>
<NUMSTATES> 5
<STATE> 2
<MEAN> 25
 2.736032e+000 2.118556e+000 3.306467e+000 3.448766e+000 1.384459e+000 -7.813833e-001 -2.126846e+000 -2.793045e+000 -1.299485e+000 -6.403545e-001 -2.254075e+000 -1.999074e+000 1.435710e+000 -1.500606e+000 1.009293e+000 -1.257909e+000 -5.426077e-001 -1.188019e+000 -1.733311e+000 -7.331806e-001 -1.060133e+000 -6.381655e-001 -4.013165e-002 -9.779543e-001 2.788569e+000
<VARIANCE> 25
 5.807340e+001 1.037908e+002 3.997026e+001 7.153091e+001 4.472734e+001 4.939472e+001 6.564114e+001 4.743337e+001 5.478341e+001 4.780913e+001 4.157890e+001 3.226086e+001 4.545373e+000 1.334242e+001 3.696566e+000 7.626386e+000 4.070718e+000 8.207127e+000 7.411159e+000 7.137677e+000 7.079489e+000 6.424616e+000 5.866697e+000 3.555099e+000 6.214957e+000
<GCONST> 1.170285e+002
<STATE> 3
<MEAN> 25
 7.716761e+000 -5.069312e+000 4.839170e+000 -6.383738e+000 -6.167946e+000 -6.166799e+000 -3.419735e+000 -4.604569e+000 -5.516488e+000 -4.724144e+000 -2.431304e+000 -7.724897e+000 2.142031e-002 -9.620091e-001 -2.035107e-001 -1.153000e+000 -6.770308e-002 -4.369832e-001 3.723761e-001 1.516197e-001 3.428186e-001 -8.846768e-002 1.172036e-001 -1.185141e-001 1.054408e+000
<VARIANCE> 25
 1.959174e+001 8.483886e+001 4.028251e+001 1.175183e+002 6.436167e+001 8.227391e+001 1.268160e+002 5.524506e+001 5.812793e+001 7.468405e+001 6.245135e+001 2.970029e+001 9.880970e-001 6.102313e+000 2.437444e+000 1.047978e+001 5.615049e+000 5.189421e+000 8.859602e+000 4.266702e+000 5.478347e+000 5.379516e+000 3.700393e+000 2.656247e+000 6.875860e+000
<GCONST> 1.147941e+002
<STATE> 4
<MEAN> 25
 9.403060e+000 -1.582176e+001 3.598733e+000 -1.247419e+001 -9.592515e-001 -1.731339e+000 -6.651575e+000 -8.606627e-001 -2.782992e+000 -5.100884e-001 1.301151e+000 -5.825212e+000 -2.276039e-002 6.431260e-003 -2.769097e-001 6.589703e-002 9.318835e-002 2.230020e-001 2.311427e-001 -3.211539e-002 -9.728973e-002 -2.696063e-002 -1.429106e-001 4.506853e-002 -1.024925e-001
<VARIANCE> 25
 1.663019e+001 6.154359e+001 4.027686e+001 7.928590e+001 3.224037e+001 8.192283e+001 1.205027e+002 8.370840e+001 6.066210e+001 1.042885e+002 7.963582e+001 3.755593e+001 2.158393e-001 7.103354e-001 6.150364e-001 1.174573e+000 1.117083e+000 1.206096e+000 1.455451e+000 1.191314e+000 1.214329e+000 1.165779e+000 1.390996e+000 1.228265e+000 2.824861e-001
<GCONST> 9.306767e+001
<TRANSP> 5
 0.000000e+000 1.000000e+000 0.000000e+000 0.000000e+000 0.000000e+000
 0.000000e+000 7.480047e-001 2.519953e-001 0.000000e+000 0.000000e+000
 0.000000e+000 0.000000e+000 7.644089e-001 2.355911e-001 0.000000e+000
 0.000000e+000 0.000000e+000 0.000000e+000 9.030306e-001 9.696946e-002
 0.000000e+000 0.000000e+000 0.000000e+000 0.000000e+000 0.000000e+000
<ENDHMM>
~h "g"
<BEGINHMM>
<NUMSTATES> 5
<STATE> 2
<MEAN> 25
 -1.366507e+000 6.081792e+000 1.165691e+000 6.198459e+000 2.540600e+000 1.416728e+000 1.555763e+000 -4.369130e-001 1.398677e+000 1.205080e+000 -2.075593e+000 5.294630e-002 3.584791e-001 2.734425e-001 1.604706e-001 -3.307112e-001 -1.744300e-001 -4.879066e-001 -5.377820e-001 -6.195180e-001 -4.983368e-001 -2.723314e-001 -2.290509e-001 -2.476881e-001 9.392121e-001
<VARIANCE> 25
 4.702918e+001 5.997200e+001 7.011757e+001 3.506688e+001 3.017904e+001 3.409826e+001 4.528460e+001 4.471638e+001 4.861755e+001 4.628469e+001 4.235015e+001 3.566550e+001 4.198436e+000 5.440616e+000 5.410232e+000 4.468173e+000 3.216509e+000 4.244797e+000 4.857484e+000 5.415278e+000 5.671488e+000 5.758716e+000 3.782459e+000 3.287034e+000 4.391604e+000
<GCONST> 1.109715e+002
<STATE> 3
<MEAN> 25
 1.122721e+000 -1.917953e+000 1.079045e+001 -2.563784e+000 -1.410326e+000 -1.637306e+000 -5.756974e+000 -2.394476e+000 -1.743937e+000 -2.902781e+000 -1.017096e+000 -2.033129e+000 5.529537e-001 -1.123945e+000 1.820772e+000 -1.588504e+000 -1.054947e+000 -9.167002e-001 -1.542498e+000 -4.930275e-001 -9.058403e-001 -1.008372e+000 -9.221608e-002 -6.273445e-001 2.169395e+000
<VARIANCE> 25
 6.416980e+001 1.575835e+002 1.199927e+002 7.310925e+001 6.509209e+001 8.830679e+001 6.615211e+001 7.015292e+001 7.408365e+001 5.560852e+001 6.104588e+001 3.150521e+001 3.831869e+000 1.243650e+001 6.558755e+000 9.455924e+000 5.455187e+000 8.117954e+000 5.641342e+000 7.563075e+000 6.649156e+000 6.666282e+000 7.061253e+000 2.921716e+000 4.939521e+000
<GCONST> 1.211835e+002
<STATE> 4
<MEAN> 25
 4.366541e+000 -3.181357e+000 2.067258e+001 -2.662429e+000 -7.108149e+000 -3.771901e+000 -1.119464e+001 -6.515638e-001 -3.486191e+000 -7.325869e+000 6.059005e-001 -3.906995e+000 2.030752e-001 7.116279e-002 -2.176920e-001 -1.536008e-002 -1.755879e-001 -6.326435e-002 1.364493e-001 1.582324e-002 -2.009428e-001 -1.239175e-001 -1.821831e-001 -9.548003e-002 -1.652581e-002
<VARIANCE> 25
 2.103052e+001 8.235070e+001 1.676084e+002 7.793992e+001 9.243885e+001 7.193726e+001 4.266540e+001 9.042833e+001 5.667485e+001 7.135857e+001 8.013126e+001 2.678392e+001 3.999267e-001 8.089551e-001 1.344752e+000 1.123443e+000 1.503034e+000 1.742231e+000 1.920082e+000 1.603892e+000 1.578993e+000 2.066362e+000 2.172786e+000 1.255694e+000 3.480422e-001
<GCONST> 9.842068e+001
<TRANSP> 5
 0.000000e+000 1.000000e+000 0.000000e+000 0.000000e+000 0.000000e+000
 0.000000e+000 7.809199e-001 2.190801e-001 0.000000e+000 0.000000e+000
 0.000000e+000 0.000000e+000 7.512529e-001 2.487470e-001 0.000000e+000
 0.000000e+000 0.000000e+000 0.000000e+000 8.654112e-001 1.345888e-001
 0.000000e+000 0.000000e+000 0.000000e+000 0.000000e+000 0.000000e+000
<ENDHMM>
~h "k"
<BEGINHMM>
<NUMSTATES> 5
<STATE> 2
<MEAN> 25
 -1.301063e+000 -7.663103e-001 -2.818482e+000 -8.656487e-001 3.134897e+000 -1.255802e+000 1.903175e-001 1.426059e+000 2.575498e+000 2.783321e+000 -4.246328e-001 -1.836400e-001 1.488063e+000 -1.058971e+000 -4.411463e-001 -2.315087e+000 -2.814324e-001 -9.444861e-001 -1.127562e+000 -7.124746e-001 -8.801162e-001 -1.018753e+000 -1.056606e-001 -6.574265e-001 3.014560e+000
<VARIANCE> 25
 7.107544e+001 6.447559e+001 7.729622e+001 9.630511e+001 7.102480e+001 6.530252e+001 7.379623e+001 5.170517e+001 4.408199e+001 4.586729e+001 4.311578e+001 3.086252e+001 4.796491e+000 7.542648e+000 7.674640e+000 1.053084e+001 7.791078e+000 8.388334e+000 8.141961e+000 8.180048e+000 4.957244e+000 5.583834e+000 5.081339e+000 2.921471e+000 6.420165e+000
<GCONST> 1.190234e+002
<STATE> 3
<MEAN> 25
 3.532187e+000 -4.167214e+000 6.335445e-002 -5.492236e+000 1.453005e+000 1.002522e+000 -2.876004e+000 -9.432925e-001 -3.476810e-001 5.999120e-003 2.665387e+000 -9.111720e-001 4.712536e-001 -5.114685e-001 -5.960413e-001 -2.503435e-001 5.912581e-002 1.402448e-001 3.851793e-001 1.391619e-001 2.987355e-001 1.514222e-001 -8.298168e-002 -1.758069e-001 1.517173e-001
<VARIANCE> 25
 6.399846e+001 1.368876e+002 1.284778e+002 1.534667e+002 7.586097e+001 8.501521e+001 1.275824e+002 6.688530e+001 8.189257e+001 6.943236e+001 8.401250e+001 6.626290e+001 2.179377e+000 5.239350e+000 3.448671e+000 7.040571e+000 4.552754e+000 5.547438e+000 5.934430e+000 5.322303e+000 4.224725e+000 3.733439e+000 5.795069e+000 4.039654e+000 4.262335e+000
<GCONST> 1.196759e+002
<STATE> 4
<MEAN> 25
 8.400125e+000 -1.210791e+001 -2.795594e+000 -1.200799e+001 3.157060e+000 -9.183530e-001 -4.249216e+000 -7.125953e-001 -1.360389e+000 -1.863698e+000 -2.234705e+000 -4.552402e+000 -2.787537e-002 1.206270e-001 -1.044090e-001 1.079743e-001 -3.120917e-002 8.153407e-002 1.633657e-001 -2.029883e-002 1.171960e-002 -4.309068e-002 9.074107e-002 3.098873e-002 -2.791304e-001
<VARIANCE> 25
 3.918903e+001 1.309333e+002 8.259171e+001 1.039515e+002 6.981646e+001 6.530199e+001 7.904000e+001 8.246609e+001 4.073640e+001 7.301862e+001 6.050584e+001 2.466229e+001 3.336251e-001 1.105285e+000 9.134873e-001 1.343516e+000 1.377090e+000 1.204758e+000 1.673613e+000 1.562302e+000 1.337564e+000 1.468889e+000 1.709526e+000 1.091186e+000 5.502978e-001
<GCONST> 9.743703e+001
<TRANSP> 5
 0.000000e+000 1.000000e+000 0.000000e+000 0.000000e+000 0.000000e+000
 0.000000e+000 7.748803e-001 2.251196e-001 0.000000e+000 0.000000e+000
 0.000000e+000 0.000000e+000 6.378220e-001 3.621780e-001 0.000000e+000
 0.000000e+000 0.000000e+000 0.000000e+000 8.338258e-001 1.661742e-001
 0.000000e+000 0.000000e+000 0.000000e+000 0.000000e+000 0.000000e+000
<ENDHMM>
~h "l"
<BEGINHMM>
<NUMSTATES> 5
<STATE> 2
<MEAN> 25
 9.089687e+000 -1.923131e+000 2.624971e+000 -5.878206e+000 -3.511324e+000 -2.909349e+000 -5.657474e+000 -6.195716e+000 -2.973603e+000 -1.377776e+000 8.741123e-001 -1.735377e+000 2.661570e-001 -1.357955e+000 3.588787e-001 -6.357880e-001 -4.026742e-001 -3.792866e-001 -4.254569e-001 1.077623e-001 6.150568e-001 6.805240e-002 4.202650e-001 -1.558704e-001 1.374102e+000
<VARIANCE> 25
 6.136206e+001 1.026047e+002 8.691917e+001 1.357426e+002 6.531724e+001 9.291712e+001 9.145032e+001 8.236034e+001 6.936550e+001 6.416618e+001 8.848989e+001 4.604274e+001 2.533422e+000 6.614412e+000 3.928630e+000 1.084058e+001 4.397262e+000 7.996889e+000 7.433334e+000 5.581522e+000 6.213925e+000 4.695349e+000 4.894664e+000 4.551307e+000 5.888505e+000
<GCONST> 1.205273e+002
<STATE> 3
<MEAN> 25
 7.352258e+000 -7.397032e+000 -1.146379e+000 -1.246987e+001 -4.452090e+000 -1.222895e+001 -2.187390e+000 -4.530176e+000 -9.630643e-001 -1.090012e+001 -1.791104e+000 -1.582281e+000 -1.384670e-001 -4.303783e-001 -4.192689e-001 -1.394143e-001 4.661407e-001 3.484655e-001 4.335333e-002 1.171730e-001 -3.020018e-002 -2.973767e-001 6.085420e-002 -1.569134e-001 2.127919e-001
<VARIANCE> 25
 1.292013e+001 3.881117e+001 5.018180e+001 4.433739e+001 5.922733e+001 8.872559e+001 7.822217e+001 5.829012e+001 6.817261e+001 6.314087e+001 5.636240e+001 3.571516e+001 3.092662e-001 1.233758e+000 1.437657e+000 2.563875e+000 2.451197e+000 2.938900e+000 2.799132e+000 3.016027e+000 2.606084e+000 3.035609e+000 2.222412e+000 1.778058e+000 5.094788e-001
<GCONST> 1.000555e+002
<STATE> 4
<MEAN> 25
 1.097425e+001 -1.461334e+001 4.956933e+000 -1.553264e+001 -3.575977e-001 2.475960e+000 -8.561925e+000 1.774880e+000 -2.014325e+000 -4.352692e-002 4.123790e+000 -5.028294e+000 2.723669e-002 1.310591e-001 -1.674430e-001 8.443002e-002 -7.111459e-002 -2.033284e-002 8.495746e-002 4.339062e-002 -8.466217e-002 5.501410e-002 -1.830778e-001 -1.187583e-001 -1.307118e-001
<VARIANCE> 25
 2.308733e+001 9.232922e+001 6.543813e+001 6.624256e+001 5.642549e+001 5.199309e+001 4.810297e+001 7.066900e+001 5.642273e+001 1.130961e+002 7.677266e+001 5.366536e+001 2.147277e-001 8.759754e-001 7.086716e-001 1.082416e+000 1.103299e+000 1.182255e+000 1.323690e+000 1.454399e+000 1.307659e+000 1.228215e+000 1.437700e+000 1.125287e+000 3.224988e-001
<GCONST> 9.399411e+001
<TRANSP> 5
 0.000000e+000 1.000000e+000 0.000000e+000 0.000000e+000 0.000000e+000
 0.000000e+000 7.776178e-001 2.223822e-001 0.000000e+000 0.000000e+000
 0.000000e+000 0.000000e+000 8.575033e-001 1.424967e-001 0.000000e+000
 0.000000e+000 0.000000e+000 0.000000e+000 9.080188e-001 9.198119e-002
 0.000000e+000 0.000000e+000 0.000000e+000 0.000000e+000 0.000000e+000
<ENDHMM>
~h "m"
<BEGINHMM>
<NUMSTATES> 5
<STATE> 2
<MEAN> 25
 1.901740e+000 -1.860371e+000 -1.728369e+000 -1.358433e+000 1.799007e+000 -5.358213e-001 -3.082550e-001 -2.853175e-001 -1.361088e+000 -2.682033e+000 -8.292254e-001 -3.670673e-001 1.657679e+000 5.322128e-001 3.878022e-001 2.077995e-001 -2.185602e-001 -2.931194e-001 -7.134246e-001 -1.273138e+000 -1.425437e+000 -6.986474e-001 -6.141534e-001 -7.418743e-001 6.589248e-001
<VARIANCE> 25
 6.483455e+001 8.635989e+001 9.610528e+001 9.759883e+001 5.011775e+001 6.395435e+001 8.337583e+001 5.476771e+001 5.534895e+001 8.521058e+001 4.403644e+001 3.911823e+001 4.854801e+000 6.133455e+000 4.334301e+000 6.009146e+000 5.047508e+000 4.064197e+000 7.343025e+000 5.648327e+000 6.147833e+000 4.173828e+000 4.331315e+000 3.222317e+000 6.136038e+000
<GCONST> 1.172279e+002
<STATE> 3
<MEAN> 25
 9.925643e+000 -2.870405e+000 -3.605041e+000 -3.242589e+000 -9.322960e-001 -6.376699e+000 -4.792993e+000 -6.823149e+000 -7.530285e+000 -8.607254e+000 -5.470363e+000 -5.986922e+000 4.147932e-001 -7.050880e-001 -2.905102e-001 -8.250538e-002 9.057419e-003 -4.589482e-001 -2.454183e-001 -6.250752e-002 -3.760026e-001 -1.301658e-001 3.340431e-002 -3.323517e-001 6.468655e-001
<VARIANCE> 25
 2.051094e+001 7.101148e+001 5.296341e+001 9.159015e+001 5.471104e+001 6.718545e+001 8.187090e+001 4.801492e+001 4.853503e+001 5.519336e+001 4.656305e+001 2.711864e+001 2.339212e+000 8.352219e+000 5.657312e+000 1.257209e+001 6.745390e+000 4.140936e+000 4.703934e+000 5.989539e+000 4.901184e+000 4.652122e+000 4.299531e+000 2.977683e+000 8.909008e+000
<GCONST> 1.150065e+002
<STATE> 4
<MEAN> 25
 9.605498e+000 -3.441182e+000 -1.384306e+000 -1.570674e+000 -1.017021e+000 -1.782214e+000 -1.987787e+000 -6.570627e+000 -1.043077e+001 -4.905671e+000 -1.245674e+000 -5.189394e+000 -2.905343e-001 4.042214e-001 1.210542e-001 2.946838e-001 8.488563e-002 2.721194e-001 1.502828e-001 7.265788e-002 1.568188e-001 1.542251e-001 1.573492e-002 1.186765e-001 -5.020901e-001
<VARIANCE> 25
 2.305917e+001 9.810915e+001 3.735374e+001 8.525597e+001 5.181330e+001 6.391319e+001 9.222712e+001 9.789382e+001 5.066514e+001 7.534112e+001 9.794094e+001 3.815558e+001 4.877733e-001 1.501002e+000 8.710150e-001 1.349086e+000 1.503922e+000 1.660296e+000 2.167023e+000 2.487146e+000 2.092491e+000 1.872625e+000 2.430007e+000 1.810686e+000 6.454370e-001
<GCONST> 1.002824e+002
<TRANSP> 5
 0.000000e+000 1.000000e+000 0.000000e+000 0.000000e+000 0.000000e+000
 0.000000e+000 6.095938e-001 3.904062e-001 0.000000e+000 0.000000e+000
 0.000000e+000 0.000000e+000 7.427670e-001 2.572330e-001 0.000000e+000
 0.000000e+000 0.000000e+000 0.000000e+000 9.193195e-001 8.068049e-002
 0.000000e+000 0.000000e+000 0.000000e+000 0.000000e+000 0.000000e+000
<ENDHMM>
~h "n"
<BEGINHMM>
<NUMSTATES> 5
<STATE> 2
<MEAN> 25
 9.922064e+000 -2.243373e+000 -2.167892e-001 -9.728269e-001 -5.706736e+000 -4.738518e+000 -1.504317e+000 -9.179605e+000 -1.097243e+001 -5.116910e+000 2.438919e-001 -3.972414e+000 2.679329e-001 1.129189e+000 2.137854e-001 1.091431e+000 -1.612114e-001 -8.918720e-002 -1.454580e-001 -8.702157e-001 -7.415281e-001 2.740603e-001 -2.004671e-001 2.736992e-001 -1.048483e+000
<VARIANCE> 25
 3.007692e+001 6.478602e+001 4.201682e+001 7.624635e+001 5.152683e+001 6.565572e+001 6.463864e+001 9.959357e+001 6.979959e+001 1.172618e+002 6.720994e+001 3.328520e+001 1.175804e+000 3.282822e+000 2.098939e+000 3.828113e+000 2.618038e+000 2.818851e+000 3.513909e+000 5.186143e+000 3.641519e+000 3.605397e+000 3.148700e+000 2.461252e+000 2.640157e+000
<GCONST> 1.091425e+002
<STATE> 3
<MEAN> 25
 5.497759e+000 5.501715e+000 4.040201e-001 6.097943e+000 2.562825e-002 -3.701403e-001 -4.947626e-001 -1.187299e+001 -9.267344e+000 4.630803e-001 -8.894489e-001 -6.835728e-001 -8.097442e-001 1.194532e-001 -8.981831e-003 2.463659e-001 8.989925e-001 5.211718e-001 1.715319e-001 1.101608e+000 1.040047e+000 3.070770e-002 -1.742375e-001 5.527327e-002 -6.871672e-001
<VARIANCE> 25
 4.191082e+001 5.300162e+001 4.901928e+001 4.431056e+001 6.882277e+001 6.576844e+001 8.892944e+001 1.257182e+002 7.706907e+001 8.277546e+001 7.674466e+001 6.387845e+001 9.186426e-001 3.290420e+000 2.314694e+000 2.791933e+000 3.104790e+000 4.282749e+000 5.063627e+000 5.022384e+000 4.598996e+000 5.377360e+000 5.496344e+000 3.403455e+000 1.390498e+000
<GCONST> 1.115964e+002
<STATE> 4
<MEAN> 25
 2.941411e+000 5.880272e+000 1.493424e+000 6.376258e+000 1.162979e+000 -2.947510e-002 -1.708319e+000 -4.939762e+000 -4.689705e+000 -1.453695e+000 -1.978626e+000 -1.195945e+000 -6.842620e-001 -2.125451e-001 -1.453212e-001 5.043768e-002 2.779610e-001 4.571868e-001 5.019881e-001 7.352931e-001 8.371379e-001 4.284483e-001 1.160094e-001 1.495821e-001 -4.766243e-001
<VARIANCE> 25
 3.963710e+001 4.521453e+001 2.648678e+001 2.987617e+001 4.411946e+001 3.575490e+001 5.348247e+001 4.777399e+001 5.411457e+001 4.512970e+001 7.768182e+001 6.449235e+001 4.151480e-001 8.897651e-001 8.655526e-001 1.025923e+000 1.597388e+000 1.993209e+000 1.968176e+000 2.078504e+000 2.060948e+000 2.087380e+000 2.111766e+000 2.000689e+000 3.165704e-001
<GCONST> 9.484309e+001
<TRANSP> 5
 0.000000e+000 1.000000e+000 0.000000e+000 0.000000e+000 0.000000e+000
 0.000000e+000 8.488847e-001 1.511153e-001 0.000000e+000 0.000000e+000
 0.000000e+000 0.000000e+000 7.157035e-001 2.842965e-001 0.000000e+000
 0.000000e+000 0.000000e+000 0.000000e+000 8.479025e-001 1.520975e-001
 0.000000e+000 0.000000e+000 0.000000e+000 0.000000e+000 0.000000e+000
<ENDHMM>
~h "p"
<BEGINHMM>
<NUMSTATES> 5
<STATE> 2
<MEAN> 25
 -5.249708e+000 3.370928e+000 -2.766387e+000 5.198534e+000 2.631405e+000 2.459647e+000 4.446877e+000 2.708896e+000 3.596983e+000 2.810807e+000 -8.333813e-001 1.991374e+000 -1.533518e-001 -3.490166e-001 3.861381e-002 -4.433700e-002 3.923777e-002 5.184100e-003 7.107638e-002 9.993006e-002 2.480586e-001 2.966959e-001 3.010931e-001 2.450315e-001 2.675965e-001
<VARIANCE> 25
 3.561187e+001 1.411627e+001 2.494861e+001 1.918681e+001 1.943026e+001 2.396407e+001 2.488389e+001 2.470396e+001 2.836665e+001 2.804531e+001 2.590722e+001 2.033010e+001 1.502109e+000 1.166249e+000 1.218038e+000 1.581549e+000 1.531922e+000 1.777604e+000 2.307669e+000 2.061997e+000 1.891242e+000 2.134636e+000 2.170036e+000 1.767771e+000 2.393289e+000
<GCONST> 9.123888e+001
<STATE> 3
<MEAN> 25
 1.152034e+000 -1.857099e+000 -1.103166e+000 4.351279e-001 2.265693e+000 1.624181e+000 1.030149e+000 1.637208e+000 2.498427e+000 1.873264e+000 7.573546e-001 2.034429e+000 2.879818e+000 -2.590199e+000 -4.138598e-001 -3.523848e+000 -2.109320e-001 -1.340142e+000 -1.430702e+000 -1.225242e+000 -1.140735e+000 -2.044584e+000 -4.478871e-001 -4.832098e-001 5.559328e+000
<VARIANCE> 25
 5.271090e+001 4.930002e+001 3.816470e+001 5.268899e+001 3.013483e+001 3.482079e+001 3.053416e+001 3.576897e+001 2.670333e+001 3.314869e+001 2.298948e+001 1.805479e+001 4.223186e+000 7.757457e+000 8.383966e+000 7.407582e+000 5.314514e+000 6.879956e+000 5.257973e+000 7.311294e+000 4.017345e+000 6.702490e+000 4.996520e+000 3.006087e+000 7.231356e+000
<GCONST> 1.110293e+002
<STATE> 4
<MEAN> 25
 8.298230e+000 -1.335634e+001 -2.582493e+000 -1.298206e+001 2.143452e+000 5.726240e-001 -2.663104e+000 -2.458335e-001 -1.360308e-001 -1.133665e+000 -1.440857e+000 -1.402834e+000 5.120336e-001 -6.544343e-001 -1.253840e-001 -1.062642e+000 -4.102188e-001 -8.146705e-001 -4.725454e-001 -7.955664e-001 -7.602219e-001 -1.195989e+000 -3.505482e-001 -5.932374e-001 1.143792e+000
<VARIANCE> 25
 4.780056e+001 1.240442e+002 8.943820e+001 1.024923e+002 7.210138e+001 6.649187e+001 6.469391e+001 6.536806e+001 2.907259e+001 1.100405e+002 3.798294e+001 2.543350e+001 3.478989e+000 7.672609e+000 5.267790e+000 8.715912e+000 3.587223e+000 5.922101e+000 4.336182e+000 4.767499e+000 2.951025e+000 4.614991e+000 3.078706e+000 1.961595e+000 6.177642e+000
<GCONST> 1.149534e+002
<TRANSP> 5
 0.000000e+000 1.000000e+000 0.000000e+000 0.000000e+000 0.000000e+000
 0.000000e+000 8.137794e-001 1.862206e-001 0.000000e+000 0.000000e+000
 0.000000e+000 0.000000e+000 5.889513e-001 4.110487e-001 0.000000e+000
 0.000000e+000 0.000000e+000 0.000000e+000 6.201280e-001 3.798720e-001
 0.000000e+000 0.000000e+000 0.000000e+000 0.000000e+000 0.000000e+000
<ENDHMM>
~h "r"
<BEGINHMM>
<NUMSTATES> 5
<STATE> 2
<MEAN> 25
 7.735898e+000 -8.510468e+000 -4.373938e+000 -8.913479e+000 2.300136e+000 -2.337180e+000 -4.700655e+000 2.206061e+000 -3.064022e+000 -6.630794e+000 3.960499e+000 -1.474022e+000 4.502353e-002 -1.241805e+000 -3.463414e-001 -5.064266e-001 4.403687e-001 -1.279918e-001 -1.206649e-001 -1.544613e-001 -1.749947e-001 -1.310918e-001 -9.906238e-002 -4.766087e-001 1.021935e+000
<VARIANCE> 25
 4.217941e+001 7.522731e+001 5.341541e+001 7.703029e+001 4.517259e+001 5.646310e+001 6.509032e+001 8.632647e+001 5.086541e+001 8.504539e+001 6.306382e+001 3.999866e+001 1.526554e+000 2.114686e+000 2.042511e+000 3.237731e+000 3.356677e+000 2.715442e+000 2.738480e+000 5.391603e+000 3.524796e+000 4.766131e+000 3.910208e+000 2.661432e+000 1.313741e+000
<GCONST> 1.084148e+002
<STATE> 3
<MEAN> 25
 5.408556e+000 -1.375987e+001 -6.399687e+000 -1.079672e+001 1.887119e+000 -7.370636e+000 2.661135e+000 -9.523545e+000 -3.784298e+000 -1.088792e+001 -2.671385e+000 -2.645733e+000 -4.109785e-002 8.785075e-002 -6.385093e-002 2.233302e-001 -1.743787e-002 2.958872e-001 -9.810753e-002 -7.499444e-002 1.207747e-001 4.571031e-003 -1.348357e-001 -2.183160e-001 -2.033002e-001
<VARIANCE> 25
 1.885930e+001 4.302179e+001 3.129796e+001 5.413083e+001 3.377186e+001 4.023468e+001 5.291068e+001 4.129329e+001 2.337493e+001 8.950456e+001 3.041703e+001 2.119637e+001 1.215207e-001 5.022299e-001 3.781931e-001 5.194831e-001 7.607610e-001 7.731829e-001 8.422151e-001 1.028240e+000 8.746404e-001 7.513846e-001 8.689764e-001 8.028988e-001 1.391695e-001
<GCONST> 8.124905e+001
<STATE> 4
<MEAN> 25
 1.048775e+001 -1.915257e+001 4.013453e+000 -1.465871e+001 3.892381e+000 1.756981e+000 -9.834501e+000 3.883047e+000 2.170264e-001 3.443422e+000 1.998540e+000 -6.159127e+000 4.266115e-002 1.741517e-001 -1.401876e-001 1.550400e-001 -9.336419e-002 -3.374303e-003 1.673195e-002 7.906910e-002 -1.067801e-001 -9.009336e-002 -1.152636e-001 1.540864e-002 -1.799342e-001
<VARIANCE> 25
 1.760393e+001 6.104081e+001 3.569574e+001 9.146661e+001 3.115133e+001 3.234933e+001 5.878282e+001 4.368921e+001 3.609397e+001 6.390858e+001 6.172310e+001 3.131809e+001 2.456584e-001 8.192550e-001 5.791931e-001 1.188465e+000 1.108216e+000 9.439729e-001 1.370197e+000 1.248180e+000 1.249972e+000 1.075945e+000 1.321555e+000 1.187505e+000 3.424245e-001
<GCONST> 8.937482e+001
<TRANSP> 5
 0.000000e+000 1.000000e+000 0.000000e+000 0.000000e+000 0.000000e+000
 0.000000e+000 7.467672e-001 2.532328e-001 0.000000e+000 0.000000e+000
 0.000000e+000 0.000000e+000 7.896445e-001 2.103554e-001 0.000000e+000
 0.000000e+000 0.000000e+000 0.000000e+000 8.725655e-001 1.274344e-001
 0.000000e+000 0.000000e+000 0.000000e+000 0.000000e+000 0.000000e+000
<ENDHMM>
~h "s"
<BEGINHMM>
<NUMSTATES> 5
<STATE> 2
<MEAN> 25
 -3.161909e+000 2.322183e+000 -1.688295e+000 3.910645e+000 1.733439e+000 2.616464e+000 4.156131e+000 5.847451e-001 1.206981e+000 1.731262e+000 -4.974714e-001 -5.778140e-001 -1.238195e+000 -1.905111e-001 1.088993e-001 2.356913e-001 3.912304e-001 6.153935e-001 4.280037e-001 6.226966e-001 8.226009e-001 7.331153e-001 5.080260e-001 3.534602e-001 -2.175160e-002
<VARIANCE> 25
 3.730429e+001 3.689137e+001 4.621430e+001 5.023145e+001 3.085495e+001 4.367421e+001 4.101167e+001 4.963771e+001 4.497711e+001 5.440911e+001 3.834813e+001 3.151555e+001 3.219952e+000 2.529505e+000 3.739599e+000 3.054249e+000 3.306699e+000 3.425112e+000 3.174634e+000 3.680566e+000 3.914664e+000 3.724512e+000 3.212361e+000 2.581908e+000 2.141508e+000
<GCONST> 1.056234e+002
<STATE> 3
<MEAN> 25
 -1.050991e+001 -5.080780e+000 7.227766e+000 -5.334652e+000 6.195549e+000 6.255366e+000 -8.618924e-001 3.389385e+000 4.918591e+000 4.436276e+000 5.235615e+000 9.631423e-001 -3.238734e-001 7.967147e-002 -5.150574e-001 1.434283e-001 -1.592617e-001 -3.416698e-003 5.066281e-002 9.257136e-002 6.852536e-002 5.780351e-003 -4.597408e-002 1.968788e-001 -2.452606e-001
<VARIANCE> 25
 2.861910e+001 6.255720e+001 1.800639e+002 1.334904e+002 6.066595e+001 6.761250e+001 8.162033e+001 5.304663e+001 3.554650e+001 3.587411e+001 3.603552e+001 3.640332e+001 1.845382e+000 2.099226e+000 4.546401e+000 3.478284e+000 2.986270e+000 2.782396e+000 3.301213e+000 3.302184e+000 2.975774e+000 2.572360e+000 2.904568e+000 2.184214e+000 1.538524e+000
<GCONST> 1.074819e+002
<STATE> 4
<MEAN> 25
 -9.376806e+000 3.219082e+000 -5.209476e+000 6.255590e+000 9.595799e-001 6.739702e-001 4.367564e+000 2.493213e+000 2.482236e+000 1.426361e+000 -1.609133e-001 2.686342e+000 -1.871748e-002 -3.849043e-002 1.599311e-002 -3.716967e-002 -1.951012e-002 -2.599944e-002 -1.455494e-002 -4.705152e-003 4.144786e-003 5.092367e-003 5.807144e-003 1.839122e-002 -6.914040e-002
<VARIANCE> 25
 2.447445e+001 8.665578e+000 1.035830e+001 1.150847e+001 1.387944e+001 2.580293e+001 1.308467e+001 1.792046e+001 1.858920e+001 2.147314e+001 1.509354e+001 1.709045e+001 3.857797e-001 3.318949e-001 5.520592e-001 6.796342e-001 8.603675e-001 9.767109e-001 1.231867e+000 1.267998e+000 1.283761e+000 1.254049e+000 1.184433e+000 1.128636e+000 2.537328e-001
<GCONST> 7.559650e+001
<TRANSP> 5
 0.000000e+000 1.000000e+000 0.000000e+000 0.000000e+000 0.000000e+000
 0.000000e+000 6.846418e-001 3.153582e-001 0.000000e+000 0.000000e+000
 0.000000e+000 0.000000e+000 8.395981e-001 1.604019e-001 0.000000e+000
 0.000000e+000 0.000000e+000 0.000000e+000 9.532068e-001 4.679311e-002
 0.000000e+000 0.000000e+000 0.000000e+000 0.000000e+000 0.000000e+000
<ENDHMM>
~h "t"
<BEGINHMM>
<NUMSTATES> 5
<STATE> 2
<MEAN> 25
 -2.035178e+000 3.154949e+000 -9.314796e-001 3.513282e+000 1.430578e+000 3.339261e+000 3.823441e+000 1.362555e+000 2.832235e+000 3.360789e+000 5.277129e-001 1.274681e+000 -3.124935e-001 -4.283000e-001 -1.879448e-001 -2.015162e-002 3.161918e-001 2.539469e-001 2.412278e-001 4.308686e-001 3.222303e-001 5.003543e-001 3.040128e-001 2.621143e-001 1.339465e-001
<VARIANCE> 25
 4.291610e+001 3.690211e+001 7.017766e+001 4.285894e+001 3.980479e+001 3.998489e+001 5.142358e+001 4.617779e+001 4.100013e+001 3.603569e+001 3.893044e+001 2.489652e+001 1.450427e+000 3.137624e+000 3.079009e+000 5.115611e+000 2.956779e+000 4.408421e+000 3.742927e+000 3.876945e+000 3.036191e+000 3.257986e+000 3.161737e+000 2.174440e+000 4.462897e+000
<GCONST> 1.058732e+002
<STATE> 3
<MEAN> 25
 -2.720698e-001 -1.751536e+000 1.942589e+000 -8.100480e-001 9.971780e-001 7.235286e-001 5.590705e-001 7.972687e-001 2.269331e+000 3.107592e+000 1.056864e+000 1.070519e+000 1.532927e+000 -1.718729e+000 1.383270e+000 -3.225050e+000 -6.097744e-001 -2.078254e+000 -1.978529e+000 -1.245604e+000 -5.471278e-001 -1.258148e+000 -2.122348e-001 -3.168975e-001 4.633779e+000
<VARIANCE> 25
 4.600489e+001 6.746706e+001 5.503925e+001 7.292467e+001 2.982063e+001 4.928714e+001 4.710557e+001 5.241137e+001 3.636158e+001 3.192467e+001 3.795505e+001 2.348683e+001 5.196836e+000 8.684982e+000 6.797475e+000 8.439239e+000 3.664956e+000 9.248576e+000 6.634497e+000 6.478292e+000 5.694277e+000 5.731439e+000 4.607449e+000 3.756338e+000 7.555938e+000
<GCONST> 1.147409e+002
<STATE> 4
<MEAN> 25
 3.405198e+000 -5.404204e+000 4.604550e+000 -7.552714e+000 7.616087e-001 -1.035688e+000 -4.177596e+000 -7.221362e-001 1.979280e+000 1.680671e+000 -6.692506e-001 -1.328724e-001 5.001197e-001 8.106088e-002 4.159446e-001 -9.257261e-001 -3.437515e-001 -1.233244e+000 -8.909051e-001 -6.279008e-001 -5.508308e-001 -1.255385e+000 -5.837836e-001 -4.315700e-001 8.921995e-001
<VARIANCE> 25
 6.688262e+001 1.399933e+002 1.069661e+002 1.314093e+002 4.931659e+001 9.528608e+001 8.747173e+001 7.023016e+001 5.311594e+001 6.750842e+001 4.716921e+001 3.962987e+001 2.929927e+000 4.189224e+000 7.895296e+000 6.795364e+000 3.737715e+000 6.521122e+000 5.008137e+000 6.573094e+000 4.491037e+000 4.554018e+000 3.986836e+000 2.854053e+000 5.098305e+000
<GCONST> 1.177949e+002
<TRANSP> 5
 0.000000e+000 1.000000e+000 0.000000e+000 0.000000e+000 0.000000e+000
 0.000000e+000 6.980100e-001 3.019900e-001 0.000000e+000 0.000000e+000
 0.000000e+000 0.000000e+000 5.711969e-001 4.288031e-001 0.000000e+000
 0.000000e+000 0.000000e+000 0.000000e+000 4.547862e-001 5.452138e-001
 0.000000e+000 0.000000e+000 0.000000e+000 0.000000e+000 0.000000e+000
<ENDHMM>
~h "aa"
<BEGINHMM>
<NUMSTATES> 5
<STATE> 2
<MEAN> 25
 5.727540e+000 -7.415360e+000 -4.171474e+000 -5.038765e+000 1.274477e+000 -2.266084e+000 -1.190024e+000 -2.952256e+000 -3.673976e+000 -4.870678e+000 -1.413196e+000 -2.762594e+000 -5.695083e-002 3.814216e-001 -4.479948e-002 5.255635e-001 2.699551e-001 2.880046e-001 1.398435e-001 1.318127e-001 5.503321e-002 1.177110e-001 2.553886e-002 1.525475e-001 -5.057850e-001
<VARIANCE> 25
 4.611507e+001 9.745439e+001 5.521022e+001 8.594881e+001 6.509206e+001 6.922240e+001 7.439322e+001 7.024918e+001 4.994410e+001 7.751355e+001 6.870013e+001 4.286590e+001 2.481774e+000 5.474847e+000 3.004213e+000 5.118640e+000 3.385041e+000 4.382914e+000 4.437165e+000 4.587973e+000 4.236437e+000 4.805726e+000 3.875528e+000 2.938003e+000 5.788720e+000
<GCONST> 1.143005e+002
<STATE> 3
<MEAN> 25
 4.403099e+000 -6.655265e+000 -4.317870e+000 -3.101799e+000 3.174761e+000 -3.312659e-001 2.241313e-002 -1.949535e+000 -2.459372e+000 -3.368701e+000 -1.451015e+000 -2.759735e+000 -3.955279e-001 4.448402e-001 1.067618e-002 2.717795e-001 -1.028147e-001 1.419770e-001 3.213465e-001 1.653363e-001 3.409323e-001 2.924895e-001 5.749149e-002 1.280258e-001 -6.610299e-001
<VARIANCE> 25
 4.817931e+001 1.176373e+002 4.256613e+001 9.015452e+001 3.581043e+001 6.925599e+001 5.840636e+001 6.257103e+001 4.716351e+001 8.286385e+001 5.415341e+001 3.831170e+001 5.369195e-001 1.353523e+000 1.119371e+000 1.329155e+000 1.493890e+000 1.753080e+000 1.854964e+000 1.983750e+000 2.004029e+000 1.864899e+000 2.069711e+000 1.689947e+000 5.465191e-001
<GCONST> 9.908023e+001
<STATE> 4
<MEAN> 25
 -4.670006e+000 2.441643e+000 -3.949386e+000 4.879383e+000 2.964175e+000 1.151634e+000 3.858038e+000 1.740656e+000 2.580828e+000 1.311997e+000 -3.085624e-001 1.757808e+000 -1.751193e-001 1.005998e-001 1.085973e-001 2.398746e-002 -1.062450e-001 -3.638273e-002 1.087110e-002 2.645632e-002 7.648404e-002 1.070909e-001 3.921224e-002 3.361194e-002 -1.879514e-001
<VARIANCE> 25
 3.792694e+001 3.705987e+001 2.073529e+001 3.653255e+001 1.871485e+001 3.161749e+001 2.587181e+001 2.381372e+001 2.924114e+001 3.105207e+001 2.110124e+001 2.119266e+001 2.500864e-001 4.570100e-001 5.947864e-001 7.491575e-001 9.502774e-001 1.051827e+000 1.148667e+000 1.296473e+000 1.357751e+000 1.326868e+000 1.254459e+000 1.102980e+000 1.612784e-001
<GCONST> 8.205500e+001
<TRANSP> 5
 0.000000e+000 1.000000e+000 0.000000e+000 0.000000e+000 0.000000e+000
 0.000000e+000 8.503206e-001 1.496793e-001 0.000000e+000 0.000000e+000
 0.000000e+000 0.000000e+000 6.980249e-001 3.019750e-001 0.000000e+000
 0.000000e+000 0.000000e+000 0.000000e+000 8.518861e-001 1.481139e-001
 0.000000e+000 0.000000e+000 0.000000e+000 0.000000e+000 0.000000e+000
<ENDHMM>
~h "eu"
<BEGINHMM>
<NUMSTATES> 5
<STATE> 2
<MEAN> 25
 -6.853729e+000 2.458228e+000 -3.205096e+000 2.921766e+000 1.449155e+000 9.912788e-001 5.398263e+000 2.385552e+000 3.490424e+000 2.833400e+000 2.421539e-001 2.351043e+000 6.426282e-001 -1.856671e-001 4.895993e-001 -6.367505e-001 -1.500900e-001 -5.534880e-001 -3.087913e-001 -2.779744e-001 -3.672504e-001 -4.117601e-001 7.793309e-002 -2.212229e-001 1.267903e+000
<VARIANCE> 25
 8.080974e+001 3.894286e+001 3.533044e+001 4.878564e+001 4.129956e+001 6.416669e+001 3.373071e+001 4.228581e+001 3.665016e+001 4.224408e+001 3.269248e+001 2.565515e+001 4.555400e+000 3.770267e+000 4.093469e+000 3.763507e+000 3.294376e+000 4.057062e+000 3.958993e+000 3.241872e+000 3.765472e+000 4.146387e+000 2.956530e+000 2.383500e+000 2.987200e+000
<GCONST> 1.071933e+002
<STATE> 3
<MEAN> 25
 1.287436e+000 -1.975232e+000 1.420906e+000 -2.553551e+000 2.016408e-001 -2.809997e+000 -1.036828e+000 -7.934768e-001 -2.592510e-001 -1.889795e+000 1.229832e+000 1.320316e-001 2.158579e+000 -2.484852e+000 8.517271e-001 -2.864749e+000 -8.060805e-001 -1.302851e+000 -2.029480e+000 -1.089056e+000 -1.324840e+000 -2.048518e+000 2.932025e-001 -1.052933e+000 3.829093e+000
<VARIANCE> 25
 7.751527e+001 9.703324e+001 7.334973e+001 8.985298e+001 6.704462e+001 9.015045e+001 6.439883e+001 4.987921e+001 5.819345e+001 7.585712e+001 4.158942e+001 3.182185e+001 7.191009e+000 8.881540e+000 1.031464e+001 7.358629e+000 5.981015e+000 1.196907e+001 7.369578e+000 6.543169e+000 6.890960e+000 1.129920e+001 6.947305e+000 3.840210e+000 8.001126e+000
<GCONST> 1.223794e+002
<STATE> 4
<MEAN> 25
 6.570549e+000 -1.053049e+001 8.340903e+000 -1.202637e+001 -1.918876e+000 1.147602e+000 -7.652886e+000 8.744972e-001 -8.695596e-001 -7.044222e-001 3.054465e+000 -3.873755e+000 5.555657e-001 4.477691e-001 -3.030782e-001 2.692088e-001 -1.672360e-001 -1.389092e-002 1.305574e-001 -2.302715e-001 -4.658922e-001 -2.655873e-001 -2.535695e-001 -1.853952e-001 -1.404562e-001
<VARIANCE> 25
 9.595318e+001 1.211556e+002 1.285054e+002 1.021556e+002 1.125149e+002 8.169469e+001 8.301257e+001 7.071243e+001 8.372549e+001 9.376280e+001 6.949575e+001 4.226115e+001 2.631850e+000 4.488804e+000 2.764437e+000 4.407019e+000 3.818413e+000 3.320065e+000 4.232533e+000 4.065489e+000 4.316109e+000 3.452656e+000 3.050970e+000 2.278436e+000 3.370540e+000
<GCONST> 1.157574e+002
<TRANSP> 5
 0.000000e+000 1.000000e+000 0.000000e+000 0.000000e+000 0.000000e+000
 0.000000e+000 6.584563e-001 3.415437e-001 0.000000e+000 0.000000e+000
 0.000000e+000 0.000000e+000 5.874647e-001 4.125353e-001 0.000000e+000
 0.000000e+000 0.000000e+000 0.000000e+000 8.429614e-001 1.570386e-001
 0.000000e+000 0.000000e+000 0.000000e+000 0.000000e+000 0.000000e+000
<ENDHMM>
~h "hh"
<BEGINHMM>
<NUMSTATES> 5
<STATE> 2
<MEAN> 25
 5.229521e-001 -2.602387e+000 -5.732053e+000 -2.825752e+000 5.637286e-001 3.634440e+000 5.545532e+000 -2.630610e-001 9.561584e-001 -1.045324e+000 -2.077717e+000 1.159312e+000 -6.215587e-001 3.109882e-001 -2.000642e-001 8.850491e-001 8.518129e-001 5.572071e-001 4.551517e-001 7.181257e-001 7.375566e-001 8.800851e-001 -1.240367e-004 2.873707e-001 -8.015990e-001
<VARIANCE> 25
 3.446733e+001 6.634497e+001 5.899922e+001 8.420236e+001 9.867312e+001 6.949611e+001 9.605046e+001 7.257431e+001 6.623875e+001 7.621553e+001 6.646945e+001 4.560923e+001 1.111879e+000 2.703361e+000 3.043276e+000 4.123767e+000 3.503920e+000 4.917149e+000 4.010020e+000 4.454633e+000 4.050148e+000 3.758865e+000 3.882897e+000 3.587455e+000 1.093406e+000
<GCONST> 1.112246e+002
<STATE> 3
<MEAN> 25
 -1.263383e+000 -2.167845e+000 -5.545539e+000 2.107919e+000 7.208761e+000 6.135613e+000 4.849326e+000 3.617177e+000 3.582779e+000 3.800973e+000 3.038161e-001 1.354731e+000 -1.093082e-001 2.543324e-001 9.644677e-002 1.635097e-001 -2.943374e-001 -8.208388e-002 -4.424522e-002 1.834244e-001 1.127224e-001 2.775810e-001 1.866323e-001 1.154204e-001 -7.797135e-001
<VARIANCE> 25
 2.010433e+001 3.749733e+001 2.602217e+001 3.065617e+001 4.935106e+001 2.992428e+001 3.631442e+001 3.272693e+001 3.557733e+001 2.734212e+001 2.782439e+001 2.067831e+001 7.891362e-001 1.228604e+000 1.638416e+000 1.622782e+000 1.976480e+000 1.892101e+000 1.999612e+000 2.189010e+000 2.003468e+000 1.760146e+000 1.615653e+000 1.398849e+000 1.148096e+000
<GCONST> 9.282320e+001
<STATE> 4
<MEAN> 25
 -7.374838e+000 3.605481e+000 -5.636362e+000 5.358196e+000 2.337050e+000 -1.222348e+000 4.376270e+000 1.577167e+000 2.329781e+000 9.161744e-001 -1.420222e+000 2.241071e+000 -5.870541e-002 -1.329107e-002 5.643756e-003 6.128322e-003 -5.550576e-003 -2.603280e-002 -9.999398e-003 -5.884942e-003 6.784349e-003 1.157974e-002 4.220495e-003 2.100946e-002 -4.443628e-002
<VARIANCE> 25
 1.256804e+001 6.514594e+000 9.503938e+000 1.146564e+001 9.985296e+000 1.148055e+001 1.201037e+001 1.267020e+001 2.022042e+001 1.717621e+001 1.318335e+001 1.412720e+001 2.091727e-001 3.221694e-001 4.790147e-001 6.638302e-001 8.724545e-001 9.171040e-001 1.130708e+000 1.252621e+000 1.327371e+000 1.222918e+000 1.176023e+000 1.045677e+000 7.832780e-002
<GCONST> 7.031372e+001
<TRANSP> 5
 0.000000e+000 1.000000e+000 0.000000e+000 0.000000e+000 0.000000e+000
 0.000000e+000 8.044240e-001 1.955761e-001 0.000000e+000 0.000000e+000
 0.000000e+000 0.000000e+000 8.620097e-001 1.379903e-001 0.000000e+000
 0.000000e+000 0.000000e+000 0.000000e+000 9.516745e-001 4.832553e-002
 0.000000e+000 0.000000e+000 0.000000e+000 0.000000e+000 0.000000e+000
<ENDHMM>
~h "ih"
<BEGINHMM>
<NUMSTATES> 5
<STATE> 2
<MEAN> 25
 3.394963e+000 1.195629e+000 9.450231e+000 -2.454447e+000 -3.131352e+000 -5.750414e+000 -6.496914e+000 -4.159151e+000 -3.637825e+000 -5.139386e+000 -3.335311e+000 -2.812891e+000 -1.403247e-001 -1.798706e-001 1.935354e+000 -1.171221e+000 -3.880281e-001 -1.635941e+000 -9.864719e-001 -3.071395e-001 -5.443376e-001 -1.060969e+000 -3.638622e-001 -3.859988e-001 1.572364e+000
<VARIANCE> 25
 4.904686e+001 8.419695e+001 9.447137e+001 1.199593e+002 5.739384e+001 8.340189e+001 6.673003e+001 8.488683e+001 7.788795e+001 6.416057e+001 7.754101e+001 3.752960e+001 4.192443e+000 6.407280e+000 7.724263e+000 1.214818e+001 5.275389e+000 8.525878e+000 6.502792e+000 8.120574e+000 7.668115e+000 6.132822e+000 5.592260e+000 3.597297e+000 5.219742e+000
<GCONST> 1.213263e+002
<STATE> 3
<MEAN> 25
 2.813049e+000 -6.361483e-001 1.781199e+001 3.953008e+000 -3.547012e+000 -1.187041e+001 -8.378906e+000 1.178618e+000 -6.895455e+000 -1.126657e+001 -3.753954e+000 -2.337408e+000 4.325685e-002 5.722381e-001 -6.174949e-001 -8.954367e-003 1.348506e-001 4.131868e-001 2.393382e-001 -3.632191e-001 -4.526645e-002 1.236544e-001 -7.787446e-002 1.516378e-001 -5.168866e-001
<VARIANCE> 25
 1.757607e+001 5.108937e+001 9.755392e+001 1.261801e+002 4.877860e+001 9.246146e+001 5.651801e+001 1.063458e+002 6.509407e+001 4.585094e+001 7.396487e+001 3.619507e+001 7.436867e-001 1.938596e+000 4.068601e+000 3.264836e+000 2.872212e+000 4.750324e+000 3.615965e+000 3.944030e+000 3.603034e+000 2.979978e+000 3.026043e+000 2.551569e+000 1.094769e+000
<GCONST> 1.079056e+002
<STATE> 4
<MEAN> 25
 3.983048e+000 5.215189e+000 1.207242e+001 -1.040114e+001 -7.070757e+000 -5.389052e+000 -7.563716e+000 -8.044512e+000 -6.420925e+000 -6.446426e+000 -1.612896e+000 -1.148318e+000 6.744269e-002 5.171178e-002 -3.396685e-001 5.300334e-001 3.718505e-002 3.477701e-001 2.424967e-001 1.987471e-001 9.953135e-002 3.063953e-001 2.722599e-001 1.467793e-001 -5.276377e-001
<VARIANCE> 25
 3.895052e+001 5.408296e+001 8.346769e+001 1.298563e+002 6.941161e+001 9.842651e+001 4.590927e+001 6.270270e+001 5.674823e+001 4.593904e+001 1.422108e+002 6.079398e+001 5.468139e-001 9.525449e-001 1.210238e+000 2.755965e+000 1.568866e+000 2.087411e+000 1.807807e+000 2.098312e+000 1.852839e+000 1.773133e+000 2.236408e+000 1.886756e+000 6.638449e-001
<GCONST> 1.019071e+002
<TRANSP> 5
 0.000000e+000 1.000000e+000 0.000000e+000 0.000000e+000 0.000000e+000
 0.000000e+000 6.693457e-001 3.306543e-001 0.000000e+000 0.000000e+000
 0.000000e+000 0.000000e+000 8.333426e-001 1.666574e-001 0.000000e+000
 0.000000e+000 0.000000e+000 0.000000e+000 9.088522e-001 9.114775e-002
 0.000000e+000 0.000000e+000 0.000000e+000 0.000000e+000 0.000000e+000
<ENDHMM>
~h "jh"
<BEGINHMM>
<NUMSTATES> 5
<STATE> 2
<MEAN> 25
 5.102899e+000 5.613243e+000 6.448063e+000 -3.985987e+000 -2.540905e+000 -7.593911e+000 -5.680756e+000 -1.005993e+001 -5.952595e+000 -5.429948e+000 -1.277608e+001 -6.428462e+000 -6.737955e-001 2.313066e-001 1.045139e+000 1.676153e+000 1.991753e-001 7.282334e-001 -1.914877e-001 1.079653e+000 -1.167065e-001 -4.536227e-001 2.467588e-001 -8.351798e-001 -7.184439e-001
<VARIANCE> 25
 2.150057e+001 4.026519e+001 5.112256e+001 1.025669e+002 3.628126e+001 9.356644e+001 3.232349e+001 6.305095e+001 5.018946e+001 4.307787e+001 5.763546e+001 5.189308e+001 1.626029e+000 3.785287e+000 5.663332e+000 5.119064e+000 3.881974e+000 9.035115e+000 3.638339e+000 4.295547e+000 5.160540e+000 3.160772e+000 3.469661e+000 2.889137e+000 2.673755e+000
<GCONST> 1.102783e+002
<STATE> 3
<MEAN> 25
 -3.943062e-001 2.193800e+000 9.614718e+000 4.083938e+000 3.350159e+000 -2.149568e+000 -4.989464e+000 -4.534222e-001 -3.121465e+000 -5.133769e+000 -3.461154e+000 -4.541715e+000 -9.816989e-001 -1.825873e+000 5.419421e-001 -1.170360e+000 2.723635e-002 -1.679375e-001 -7.036646e-002 -1.991121e-003 6.945526e-001 7.665696e-001 7.052196e-001 6.020702e-001 1.750127e+000
<VARIANCE> 25
 5.098287e+001 9.908793e+001 7.433479e+001 8.855476e+001 3.741405e+001 9.268091e+001 6.699553e+001 5.841875e+001 4.179073e+001 4.483242e+001 4.541672e+001 3.370903e+001 5.363598e+000 1.040132e+001 8.201596e+000 1.105490e+001 5.750099e+000 9.703346e+000 7.114613e+000 6.118940e+000 5.205690e+000 4.469114e+000 5.567386e+000 3.635152e+000 6.707425e+000
<GCONST> 1.189411e+002
<STATE> 4
<MEAN> 25
 -3.061883e-001 -1.033183e+001 1.592390e+001 -2.819652e+000 -3.982945e-001 -3.733222e+000 -9.750397e+000 -8.593202e-001 3.971123e-001 -2.738519e+000 1.676446e+000 -3.401163e+000 8.972366e-001 -5.621785e-001 -3.636447e-001 -4.199485e-001 -4.534448e-001 -6.607947e-001 -2.616596e-001 -5.849271e-001 -5.516922e-002 3.910288e-002 1.447013e-002 -3.342508e-001 6.358879e-001
<VARIANCE> 25
 8.954280e+001 1.006511e+002 9.591701e+001 1.064248e+002 1.119722e+002 1.000807e+002 1.652413e+002 8.268864e+001 4.197356e+001 4.667614e+001 5.019041e+001 3.277824e+001 4.499252e+000 5.614267e+000 5.602498e+000 5.916081e+000 4.175159e+000 4.929442e+000 7.593021e+000 5.666350e+000 4.572884e+000 4.126368e+000 3.425335e+000 3.036971e+000 1.247922e+000
<GCONST> 1.171341e+002
<TRANSP> 5
 0.000000e+000 1.000000e+000 0.000000e+000 0.000000e+000 0.000000e+000
 0.000000e+000 8.266966e-001 1.733035e-001 0.000000e+000 0.000000e+000
 0.000000e+000 0.000000e+000 8.234091e-001 1.765909e-001 0.000000e+000
 0.000000e+000 0.000000e+000 0.000000e+000 8.526018e-001 1.473982e-001
 0.000000e+000 0.000000e+000 0.000000e+000 0.000000e+000 0.000000e+000
<ENDHMM>
~h "ng"
<BEGINHMM>
<NUMSTATES> 5
<STATE> 2
<MEAN> 25
 8.723589e+000 6.194453e+000 -3.324619e-001 2.971718e+000 -4.183070e+000 -3.769243e+000 -3.721540e+000 -1.108408e+001 -1.170909e+001 -2.734100e+000 -2.827632e+000 -1.636572e+000 -7.650973e-001 4.529026e-001 3.136449e-001 5.693579e-001 4.587573e-001 2.712216e-001 1.884764e-001 2.773250e-001 7.777689e-001 3.795012e-001 -1.252611e-001 1.593781e-001 -8.490798e-001
<VARIANCE> 25
 2.482658e+001 2.785211e+001 2.447418e+001 2.628738e+001 4.617699e+001 3.972679e+001 1.134485e+002 4.642768e+001 5.278440e+001 6.367463e+001 7.930096e+001 9.753207e+001 4.656945e-001 9.642591e-001 1.119630e+000 1.308164e+000 2.090437e+000 2.346285e+000 3.052401e+000 3.235225e+000 2.950299e+000 2.909694e+000 2.545564e+000 2.546078e+000 1.924936e-001
<GCONST> 9.794205e+001
<STATE> 3
<MEAN> 25
 -2.518852e+000 4.660654e+000 -1.978917e+000 6.742740e+000 4.633363e+000 3.622728e+000 4.380886e+000 -9.011484e-002 1.410854e+000 1.419369e+000 -2.740037e+000 9.873044e-001 -7.403023e-001 -5.469967e-001 -4.427023e-001 -9.673121e-002 1.484428e-001 3.866831e-001 6.319552e-001 7.496137e-001 8.090898e-001 6.362472e-001 5.399647e-001 4.220093e-001 -4.285766e-001
<VARIANCE> 25
 1.862061e+001 3.560488e+001 4.676618e+001 3.048298e+001 3.141594e+001 3.864906e+001 5.529470e+001 5.010283e+001 3.928337e+001 4.844341e+001 6.232993e+001 4.719958e+001 5.849766e-001 1.926080e+000 2.199841e+000 2.286295e+000 2.766345e+000 3.786980e+000 3.938436e+000 3.907951e+000 3.087500e+000 3.360507e+000 3.405274e+000 3.382162e+000 5.307910e-001
<GCONST> 1.012400e+002
<STATE> 4
<MEAN> 25
 -7.764531e+000 3.639844e+000 -5.261142e+000 5.709509e+000 2.015931e+000 -1.511259e+000 4.198925e+000 1.159224e+000 2.259041e+000 6.868724e-001 -1.377720e+000 2.604350e+000 -7.340213e-002 -4.197069e-002 -2.262410e-002 -1.639793e-002 -7.315185e-003 -3.562882e-003 1.779030e-002 5.477640e-002 4.085620e-002 2.493414e-002 2.860277e-002 1.899386e-002 -4.228506e-002
<VARIANCE> 25
 1.274230e+001 5.501117e+000 1.012407e+001 1.018760e+001 1.016966e+001 1.106211e+001 1.319481e+001 1.290853e+001 1.995496e+001 1.799675e+001 1.401295e+001 1.520056e+001 2.029336e-001 3.099794e-001 5.085392e-001 6.186628e-001 7.895529e-001 9.592599e-001 1.107489e+000 1.241279e+000 1.266523e+000 1.347706e+000 1.328916e+000 1.119664e+000 8.098689e-002
<GCONST> 7.047495e+001
<TRANSP> 5
 0.000000e+000 1.000000e+000 0.000000e+000 0.000000e+000 0.000000e+000
 0.000000e+000 9.085318e-001 9.146810e-002 0.000000e+000 0.000000e+000
 0.000000e+000 0.000000e+000 8.542038e-001 1.457961e-001 0.000000e+000
 0.000000e+000 0.000000e+000 0.000000e+000 9.528968e-001 4.710317e-002
 0.000000e+000 0.000000e+000 0.000000e+000 0.000000e+000 0.000000e+000
<ENDHMM>
~h "ny"
<BEGINHMM>
<NUMSTATES> 5
<STATE> 2
<MEAN> 25
 -4.330457e-001 3.632365e+000 2.905010e+000 2.189804e+000 9.906472e-001 2.006420e+000 -2.077736e-001 -2.306511e+000 9.236476e-002 1.359713e+000 -1.777230e-001 4.034723e-001 1.257007e+000 1.123912e-001 1.787258e+000 -9.702405e-001 -1.063950e+000 -5.916277e-001 -1.425505e+000 -1.255642e+000 -1.512191e+000 -1.332505e+000 -5.411937e-001 -7.822567e-001 1.877762e+000
<VARIANCE> 25
 8.285092e+001 6.979160e+001 8.243472e+001 5.727938e+001 4.511924e+001 5.306487e+001 5.557315e+001 5.833332e+001 6.748750e+001 5.087562e+001 5.289771e+001 3.939490e+001 5.791569e+000 8.315567e+000 9.052732e+000 6.131004e+000 5.093439e+000 8.136230e+000 5.862098e+000 7.226493e+000 6.655269e+000 5.618617e+000 6.025467e+000 3.721895e+000 5.256281e+000
<GCONST> 1.184701e+002
<STATE> 3
<MEAN> 25
 4.847875e+000 -2.390066e+000 6.599463e+000 -5.405500e+000 -4.890439e+000 -6.766492e+000 -3.671516e+000 -6.836316e+000 -8.720395e+000 -7.916790e+000 -5.241874e+000 -8.153793e+000 2.677042e-001 -2.015021e+000 -7.938245e-001 -5.836241e-001 1.614799e-001 -6.326684e-001 2.362689e-001 6.287166e-001 -5.814188e-002 -5.645344e-002 5.185379e-001 -5.329790e-001 1.475230e+000
<VARIANCE> 25
 1.995659e+001 8.544788e+001 9.129339e+001 8.991764e+001 3.029416e+001 8.009856e+001 4.956510e+001 6.159065e+001 4.067513e+001 3.529659e+001 5.175146e+001 3.681378e+001 1.684399e+000 4.809006e+000 5.456099e+000 9.021834e+000 3.035378e+000 7.472528e+000 5.124426e+000 3.017620e+000 3.141097e+000 2.794015e+000 2.975598e+000 2.676566e+000 4.831985e+000
<GCONST> 1.107117e+002
<STATE> 4
<MEAN> 25
 7.327205e+000 -9.752081e+000 9.939892e-001 -7.153877e+000 -2.480834e+000 -3.132423e+000 -1.598355e+000 -9.616129e-001 -8.062182e+000 -7.728502e+000 1.994468e+000 -6.944663e+000 7.558069e-002 2.366021e-001 -1.248983e-001 -4.455129e-002 -5.298854e-002 1.142778e-001 1.346282e-001 3.627572e-004 -1.598717e-002 -8.272840e-002 -3.214155e-002 1.525466e-001 -1.783456e-001
<VARIANCE> 25
 2.002348e+001 8.287418e+001 1.236992e+002 5.898800e+001 1.026422e+002 5.288287e+001 5.969462e+001 7.106194e+001 5.149554e+001 6.472723e+001 6.429461e+001 3.313479e+001 2.077371e-001 1.078508e+000 8.517997e-001 1.268000e+000 1.467591e+000 1.624952e+000 1.624793e+000 1.232402e+000 1.324701e+000 1.209935e+000 1.289733e+000 1.132945e+000 3.037790e-001
<GCONST> 9.478834e+001
<TRANSP> 5
 0.000000e+000 1.000000e+000 0.000000e+000 0.000000e+000 0.000000e+000
 0.000000e+000 7.765875e-001 2.234125e-001 0.000000e+000 0.000000e+000
 0.000000e+000 0.000000e+000 8.046280e-001 1.953720e-001 0.000000e+000
 0.000000e+000 0.000000e+000 0.000000e+000 9.247991e-001 7.520087e-002
 0.000000e+000 0.000000e+000 0.000000e+000 0.000000e+000 0.000000e+000
<ENDHMM>
~h "sp"
<BEGINHMM>
<NUMSTATES> 3
<STATE> 2
~s "silst"
<TRANSP> 3
 0.000000e+000 5.339839e-001 4.660161e-001
 0.000000e+000 9.803425e-001 1.965750e-002
 0.000000e+000 0.000000e+000 0.000000e+000
<ENDHMM>
~h "uw"
<BEGINHMM>
<NUMSTATES> 5
<STATE> 2
<MEAN> 25
 8.329186e+000 9.774483e-001 4.850325e-001 -7.590214e+000 -2.593645e+000 -4.046628e+000 -6.512075e+000 -3.657977e+000 -1.517669e+000 -4.145734e+000 -2.521159e+000 -3.108800e+000 6.129616e-001 6.945450e-001 1.664287e-001 -3.697021e-001 -5.825492e-001 -6.837722e-001 -1.267605e-001 -4.787256e-001 -6.270985e-001 -3.466972e-001 -3.361482e-001 -1.900319e-001 1.301679e-001
<VARIANCE> 25
 3.650937e+001 7.860117e+001 1.015332e+002 1.026891e+002 6.507979e+001 9.499698e+001 8.605354e+001 8.935509e+001 7.280923e+001 7.244918e+001 7.906741e+001 4.649619e+001 2.098489e+000 6.110221e+000 6.237804e+000 9.045439e+000 6.206995e+000 7.023982e+000 6.898302e+000 7.365116e+000 6.090058e+000 5.907824e+000 6.136518e+000 4.418229e+000 3.575045e+000
<GCONST> 1.200624e+002
<STATE> 3
<MEAN> 25
 8.402209e+000 7.730583e+000 7.622553e+000 -8.232192e+000 -1.119480e+001 -7.941515e+000 -4.461579e+000 -5.007305e+000 -3.919246e+000 -3.250829e+000 -5.175388e+000 -6.300087e+000 -4.254492e-002 -4.056653e-002 -4.020172e-001 6.567565e-003 1.696536e-001 3.321771e-001 2.857902e-001 -2.072553e-001 -1.560655e-001 -1.346188e-001 -5.462869e-002 2.115348e-001 -1.853605e-001
<VARIANCE> 25
 1.524453e+001 5.213164e+001 9.934594e+001 7.545721e+001 9.192390e+001 9.579293e+001 6.774783e+001 8.354687e+001 6.737849e+001 6.402153e+001 8.721591e+001 5.102145e+001 4.861183e-001 1.775597e+000 2.583104e+000 2.482254e+000 3.704524e+000 3.590301e+000 3.401290e+000 4.194291e+000 3.323764e+000 3.672507e+000 3.445927e+000 3.168818e+000 6.559479e-001
<GCONST> 1.074691e+002
<STATE> 4
<MEAN> 25
 1.151209e+001 4.537069e+000 -3.321182e+000 -1.131833e+001 -5.040074e+000 -4.092487e+000 -3.609850e+000 -1.068677e+001 -8.650416e+000 -6.104775e+000 -6.484268e-001 1.986887e+000 -2.900139e-001 8.904936e-002 7.799075e-002 5.388541e-001 1.013723e-001 3.128883e-001 9.055208e-002 2.142577e-001 1.312137e-001 3.562071e-001 2.513027e-001 1.930496e-001 -4.819376e-001
<VARIANCE> 25
 3.283025e+001 3.944090e+001 5.781503e+001 1.173027e+002 5.058738e+001 8.335042e+001 4.443598e+001 6.091240e+001 5.113622e+001 4.832784e+001 1.313842e+002 6.386679e+001 5.445707e-001 8.150084e-001 1.139505e+000 1.811574e+000 1.452859e+000 1.476346e+000 1.825890e+000 2.195003e+000 2.122003e+000 2.015558e+000 2.388041e+000 1.942633e+000 4.256807e-001
<GCONST> 9.923029e+001
<TRANSP> 5
 0.000000e+000 1.000000e+000 0.000000e+000 0.000000e+000 0.000000e+000
 0.000000e+000 8.163334e-001 1.836666e-001 0.000000e+000 0.000000e+000
 0.000000e+000 0.000000e+000 8.579468e-001 1.420532e-001 0.000000e+000
 0.000000e+000 0.000000e+000 0.000000e+000 8.830807e-001 1.169193e-001
 0.000000e+000 0.000000e+000 0.000000e+000 0.000000e+000 0.000000e+000
<ENDHMM>
~h "sil"
<BEGINHMM>
<NUMSTATES> 5
<STATE> 2
<MEAN> 25
 -1.058874e+001 3.211153e+000 -5.995509e+000 4.872861e+000 2.520992e+000 -1.351949e+000 4.469426e+000 2.132298e+000 3.886227e+000 1.425730e+000 -9.365075e-001 4.326021e+000 -1.595993e-002 -4.700027e-003 -5.207399e-003 -5.940303e-003 -5.466364e-003 -2.797894e-003 -3.769140e-003 1.687810e-003 2.321172e-003 3.686702e-003 3.175155e-003 1.872927e-003 -1.099209e-002
<VARIANCE> 25
 3.411933e+001 7.523625e+000 9.750055e+000 1.077483e+001 1.037052e+001 9.844069e+000 1.118005e+001 1.144903e+001 1.978894e+001 1.916467e+001 1.263265e+001 1.535737e+001 9.088893e-002 1.880876e-001 2.962827e-001 4.446778e-001 5.608239e-001 6.332870e-001 8.260315e-001 9.632357e-001 1.020394e+000 9.591130e-001 9.018351e-001 8.600228e-001 2.850294e-002
<GCONST> 6.564027e+001
<STATE> 3
~s "silst"
<STATE> 4
<MEAN> 25
 6.674084e+000 -2.416236e+000 3.260115e+000 -3.699808e+000 -1.664841e+000 1.073290e+000 -3.431644e+000 -1.276678e+000 -9.241427e-001 4.105450e-002 2.418075e-001 -2.056674e+000 6.552819e-002 -3.511564e-004 3.223859e-002 -8.751709e-003 -5.012066e-003 -3.115629e-004 -1.916744e-002 -1.690242e-002 -2.284983e-002 -2.367691e-002 -1.281317e-002 -3.341629e-002 6.669460e-002
<VARIANCE> 25
 1.184090e+002 1.420461e+002 1.010869e+002 1.232928e+002 7.445840e+001 5.574715e+001 8.229847e+001 7.229354e+001 7.602003e+001 6.441023e+001 7.121906e+001 4.382542e+001 2.046876e+000 3.186993e+000 2.553920e+000 3.112236e+000 2.370231e+000 2.493701e+000 3.269960e+000 2.908186e+000 2.921451e+000 2.557770e+000 2.692713e+000 2.130399e+000 2.835508e+000
<GCONST> 1.114499e+002
<TRANSP> 5
 0.000000e+000 1.000000e+000 0.000000e+000 0.000000e+000 0.000000e+000
 0.000000e+000 9.567091e-001 7.678448e-003 3.561252e-002 0.000000e+000
 0.000000e+000 0.000000e+000 9.730206e-001 2.697935e-002 0.000000e+000
 0.000000e+000 4.236506e-002 0.000000e+000 9.438069e-001 1.382804e-002
 0.000000e+000 0.000000e+000 0.000000e+000 0.000000e+000 0.000000e+000
<ENDHMM>
