~o
<STREAMINFO> 1 25
<VECSIZE> 25<NULLD><MFCC_D_N_Z_0><DIAGC>
~s "silst"
<MEAN> 25
 -3.634039e+000 1.881619e+000 1.133820e+000 5.496418e+000 8.227471e-001 5.665943e+000 2.689000e+000 5.440063e+000 4.206388e+000 5.504355e+000 3.162654e+000 1.885073e+000 -1.175495e-002 -8.876358e-003 9.497383e-003 7.176324e-003 1.320601e-002 1.338465e-002 3.240585e-002 3.274852e-002 3.070243e-002 1.371821e-002 -9.536061e-003 -1.341332e-002 1.305943e-003
<VARIANCE> 25
 2.435384e+000 2.853501e+000 7.570748e+000 5.444063e+000 6.767050e+000 8.106287e+000 9.856658e+000 1.006988e+001 1.029137e+001 1.137519e+001 1.064825e+001 1.013182e+001 9.355740e-002 1.957887e-001 3.357400e-001 4.966880e-001 5.992026e-001 7.937508e-001 9.237829e-001 1.008962e+000 1.055079e+000 1.016102e+000 9.888411e-001 9.059431e-001 5.043455e-002
<GCONST> 6.001852e+001
~h "b"
<BEGINHMM>
<NUMSTATES> 5
<STATE> 2
<MEAN> 25
 -5.847453e-001 5.733871e+000 -2.854772e+000 3.433624e+000 2.747400e+000 2.098742e+000 5.538621e+000 -2.151217e+000 -3.182110e-001 3.161834e-001 -2.868388e+000 -5.690567e-002 -4.331954e-001 1.645945e-001 -1.314612e-001 2.020177e-001 3.207082e-001 1.470362e-001 1.663959e-001 2.533824e-001 5.172511e-001 2.427294e-001 -3.952182e-002 2.541544e-001 -5.666112e-001
<VARIANCE> 25
 8.563364e+001 5.076574e+001 5.428241e+001 4.550953e+001 6.535660e+001 7.884790e+001 7.821366e+001 6.695921e+001 7.667677e+001 5.505319e+001 6.203481e+001 4.511668e+001 1.183235e+000 2.121185e+000 2.318203e+000 2.632583e+000 3.164632e+000 3.710039e+000 3.858932e+000 3.803856e+000 4.134275e+000 3.275215e+000 3.599717e+000 2.825801e+000 7.344696e-001
<GCONST> 1.080273e+002
<STATE> 3
<MEAN> 25
 8.490046e-001 7.799830e+000 -8.885275e-001 5.484767e+000 6.883023e-001 -1.149863e+000 1.568138e+000 -2.418870e+000 -2.661584e+000 -2.478976e+000 -3.742609e+000 -6.355417e-001 -5.566790e-001 -7.803052e-002 -4.738722e-002 1.522759e-001 7.075757e-002 -5.769118e-002 8.265935e-002 2.994349e-001 3.413575e-001 1.058188e-001 3.256976e-002 9.253576e-002 -4.415331e-001
<VARIANCE> 25
 4.525318e+001 3.029428e+001 2.494312e+001 2.301260e+001 2.771045e+001 3.346186e+001 3.127191e+001 3.789848e+001 4.649265e+001 4.293481e+001 3.135521e+001 2.999315e+001 5.593749e-001 7.309939e-001 9.400117e-001 1.020128e+000 1.355086e+000 1.583933e+000 1.458359e+000 1.704683e+000 2.079625e+000 1.790888e+000 1.553408e+000 1.522009e+000 2.759858e-001
<GCONST> 8.950420e+001
<STATE> 4
<MEAN> 25
 -7.827007e+000 4.019846e+000 -5.048935e+000 6.137113e+000 2.215215e+000 -1.187028e+000 4.234594e+000 1.323783e+000 2.032481e+000 1.197700e-001 -1.290209e+000 2.473015e+000 -2.979036e-002 -7.006682e-003 5.465162e-003 -7.900255e-003 -3.490370e-003 -1.357392e-002 -1.795148e-002 4.392255e-003 -1.981344e-004 -1.916354e-002 -2.570201e-002 -7.678154e-003 -1.971807e-002
<VARIANCE> 25
 2.388720e+001 6.883146e+000 1.061761e+001 9.935416e+000 1.122183e+001 1.233003e+001 1.416574e+001 1.572531e+001 2.225050e+001 1.877637e+001 1.516866e+001 1.840644e+001 1.869466e-001 3.225850e-001 4.601562e-001 6.275188e-001 8.158115e-001 9.912548e-001 1.163422e+000 1.331448e+000 1.358423e+000 1.290455e+000 1.207402e+000 1.161582e+000 6.456950e-002
<GCONST> 7.204520e+001
<TRANSP> 5
 0.000000e+000 1.000000e+000 0.000000e+000 0.000000e+000 0.000000e+000
 0.000000e+000 7.132075e-001 2.867925e-001 0.000000e+000 0.000000e+000
 0.000000e+000 0.000000e+000 6.538319e-001 3.461681e-001 0.000000e+000
 0.000000e+000 0.000000e+000 0.000000e+000 9.431840e-001 5.681602e-002
 0.000000e+000 0.000000e+000 0.000000e+000 0.000000e+000 0.000000e+000
<ENDHMM>
~h "d"
<BEGINHMM>
<NUMSTATES> 5
<STATE> 2
<MEAN> 25
 2.362401e+000 2.488086e+000 3.077617e+000 4.640087e+000 1.871984e+000 -6.017377e-001 -1.702289e+000 -2.485271e+000 -6.776285e-001 -5.610771e-001 -2.471793e+000 -1.785342e+000 1.522771e+000 -1.419921e+000 1.054179e+000 -1.062496e+000 -4.478943e-001 -1.116125e+000 -1.821553e+000 -7.877565e-001 -1.121298e+000 -6.652719e-001 -9.887579e-002 -9.669389e-001 2.776554e+000
<VARIANCE> 25
 6.229158e+001 9.777115e+001 3.826357e+001 6.014170e+001 4.247990e+001 4.512837e+001 5.895562e+001 4.385008e+001 5.265203e+001 4.309218e+001 3.885185e+001 3.106337e+001 4.793062e+000 1.301662e+001 3.775199e+000 7.053351e+000 4.227786e+000 7.563468e+000 6.990662e+000 6.918072e+000 6.983737e+000 5.798850e+000 5.743793e+000 3.440976e+000 5.740478e+000
<GCONST> 1.158333e+002
<STATE> 3
<MEAN> 25
 7.576928e+000 -4.460332e+000 4.826119e+000 -5.501486e+000 -5.359374e+000 -6.529176e+000 -4.539167e+000 -5.547092e+000 -5.616030e+000 -4.248429e+000 -3.745440e+000 -8.044115e+000 2.491504e-002 -1.324634e+000 -3.697965e-001 -1.757523e+000 -7.829333e-002 -7.978753e-001 3.623753e-001 2.850076e-002 5.954165e-001 2.302143e-001 7.703584e-002 -4.799144e-002 1.568140e+000
<VARIANCE> 25
 1.992372e+001 8.222059e+001 3.604121e+001 1.153510e+002 6.159962e+001 8.228284e+001 1.264023e+002 4.590918e+001 6.425868e+001 6.249149e+001 5.729877e+001 2.797541e+001 1.054178e+000 6.196340e+000 2.259014e+000 1.031169e+001 5.525184e+000 6.325692e+000 9.209691e+000 4.445871e+000 6.175776e+000 5.960903e+000 4.032482e+000 2.761405e+000 7.090849e+000
<GCONST> 1.148213e+002
<STATE> 4
<MEAN> 25
 9.320543e+000 -1.633513e+001 3.645912e+000 -1.249859e+001 -3.426607e-001 -3.076725e+000 -7.313892e+000 -1.142686e+000 -1.703678e+000 3.873657e-001 2.053217e-001 -6.305359e+000 -2.023363e-002 -4.711545e-002 -2.691448e-001 -3.644823e-002 1.249171e-001 2.289306e-001 2.394435e-001 -7.110569e-002 -1.750065e-001 -2.113748e-002 -1.114857e-001 6.103529e-002 -5.560195e-002
<VARIANCE> 25
 1.825090e+001 5.680420e+001 4.691635e+001 8.479971e+001 3.158734e+001 8.309801e+001 1.323983e+002 8.900539e+001 5.966629e+001 1.033180e+002 6.762227e+001 2.903141e+001 1.945575e-001 6.005992e-001 6.706401e-001 1.245093e+000 1.164773e+000 1.240092e+000 1.452523e+000 1.288485e+000 1.177201e+000 1.124824e+000 1.393178e+000 1.129506e+000 2.094741e-001
<GCONST> 9.257388e+001
<TRANSP> 5
 0.000000e+000 1.000000e+000 0.000000e+000 0.000000e+000 0.000000e+000
 0.000000e+000 7.462307e-001 2.537694e-001 0.000000e+000 0.000000e+000
 0.000000e+000 0.000000e+000 7.639154e-001 2.360846e-001 0.000000e+000
 0.000000e+000 0.000000e+000 0.000000e+000 8.910827e-001 1.089173e-001
 0.000000e+000 0.000000e+000 0.000000e+000 0.000000e+000 0.000000e+000
<ENDHMM>
~h "g"
<BEGINHMM>
<NUMSTATES> 5
<STATE> 2
<MEAN> 25
 -1.960646e+000 5.010561e+000 5.428012e-001 6.523384e+000 3.259732e+000 2.072987e+000 2.533880e+000 9.999861e-001 2.549982e+000 1.804696e+000 -1.556362e+000 2.813024e-001 1.852633e-001 -2.640129e-003 -2.194282e-002 -3.596478e-001 -5.081833e-002 -3.203307e-001 -2.921795e-001 -3.432405e-001 -1.787651e-001 8.465191e-002 3.818099e-003 -4.769810e-002 9.372996e-001
<VARIANCE> 25
 4.868961e+001 6.650604e+001 6.376501e+001 2.790668e+001 2.813910e+001 3.293295e+001 4.574395e+001 3.560854e+001 4.660414e+001 4.668983e+001 3.791517e+001 3.370155e+001 4.002302e+000 5.210686e+000 5.539299e+000 4.149727e+000 2.656711e+000 3.765818e+000 4.573861e+000 4.472471e+000 4.819577e+000 5.154073e+000 3.166301e+000 2.980765e+000 4.298470e+000
<GCONST> 1.089885e+002
<STATE> 3
<MEAN> 25
 1.036423e+000 -1.151567e+000 1.039217e+001 -2.465029e+000 -1.515403e+000 -1.805024e+000 -5.353114e+000 -2.341368e+000 -2.151521e+000 -2.796367e+000 -6.479129e-001 -1.795016e+000 7.780578e-001 -6.860729e-001 1.790981e+000 -1.563941e+000 -1.118565e+000 -9.489183e-001 -1.642666e+000 -7.956289e-001 -1.082111e+000 -1.078606e+000 -3.516331e-001 -7.078764e-001 2.096360e+000
<VARIANCE> 25
 6.397665e+001 1.564299e+002 1.432472e+002 7.025520e+001 5.913475e+001 7.850486e+001 6.576081e+001 6.989163e+001 6.915218e+001 5.366349e+001 6.191293e+001 2.927508e+001 4.418772e+000 1.160415e+001 6.801010e+000 7.829183e+000 5.081398e+000 7.235828e+000 5.601900e+000 7.597071e+000 6.407234e+000 6.566326e+000 6.895241e+000 2.719119e+000 4.508812e+000
<GCONST> 1.204164e+002
<STATE> 4
<MEAN> 25
 4.875428e+000 -3.818598e+000 2.112491e+001 -4.654776e+000 -8.490592e+000 -1.503850e+000 -1.137105e+001 -7.465609e-001 -2.841784e+000 -6.871835e+000 2.375001e+000 -3.536822e+000 1.503385e-001 5.600427e-003 -1.509953e-001 -5.755430e-002 -2.011387e-001 2.022799e-002 5.274885e-002 -3.824711e-003 -1.530781e-001 -9.101220e-002 -1.128665e-001 -1.352593e-001 3.211048e-002
<VARIANCE> 25
 2.130092e+001 9.563970e+001 1.807812e+002 7.823377e+001 9.669341e+001 5.826172e+001 4.190665e+001 8.564306e+001 6.255577e+001 7.180296e+001 7.829371e+001 2.553043e+001 3.158651e-001 6.236858e-001 1.026172e+000 9.206671e-001 1.291148e+000 1.489170e+000 1.763056e+000 1.479397e+000 1.381980e+000 1.947443e+000 2.091832e+000 1.130162e+000 2.183086e-001
<GCONST> 9.621535e+001
<TRANSP> 5
 0.000000e+000 1.000000e+000 0.000000e+000 0.000000e+000 0.000000e+000
 0.000000e+000 7.732522e-001 2.267478e-001 0.000000e+000 0.000000e+000
 0.000000e+000 0.000000e+000 7.867295e-001 2.132705e-001 0.000000e+000
 0.000000e+000 0.000000e+000 0.000000e+000 8.656557e-001 1.343443e-001
 0.000000e+000 0.000000e+000 0.000000e+000 0.000000e+000 0.000000e+000
<ENDHMM>
~h "k"
<BEGINHMM>
<NUMSTATES> 5
<STATE> 2
<MEAN> 25
 -1.702016e+000 -2.911985e-002 -3.321704e+000 6.250712e-001 4.278961e+000 -9.323239e-002 1.088866e+000 2.838979e+000 2.683871e+000 2.957010e+000 -7.157004e-001 -2.645996e-001 1.325263e+000 -1.000995e+000 -6.800849e-001 -2.271741e+000 -2.437991e-001 -1.103288e+000 -8.942662e-001 -8.163800e-001 -9.124244e-001 -9.924597e-001 -2.165685e-001 -5.099886e-001 2.912829e+000
<VARIANCE> 25
 4.942499e+001 5.594993e+001 5.875171e+001 8.270409e+001 6.923132e+001 6.141865e+001 5.570624e+001 4.780393e+001 4.058547e+001 4.481279e+001 3.863782e+001 2.894700e+001 4.468166e+000 6.955131e+000 7.438700e+000 9.466438e+000 7.781518e+000 7.678940e+000 7.583790e+000 7.115831e+000 4.308499e+000 5.490635e+000 4.916546e+000 2.895916e+000 6.861383e+000
<GCONST> 1.166433e+002
<STATE> 3
<MEAN> 25
 3.557773e+000 -2.737405e+000 -1.713531e-001 -5.367053e+000 7.261034e-001 1.520423e+000 -1.278708e+000 -1.591170e+000 -1.130000e+000 2.324624e-002 2.244828e+000 -2.948831e-002 5.830544e-001 -7.690324e-001 -4.690303e-001 -4.738128e-001 -1.058915e-002 1.027810e-001 2.689849e-001 2.449618e-002 2.741287e-001 1.585065e-001 -6.116316e-002 -2.249558e-001 4.691388e-001
<VARIANCE> 25
 6.284469e+001 1.332248e+002 1.243323e+002 1.372337e+002 8.834382e+001 7.519379e+001 1.164035e+002 6.358591e+001 8.976228e+001 7.456889e+001 7.536302e+001 5.970013e+001 2.517022e+000 5.922390e+000 3.752005e+000 7.023903e+000 5.162517e+000 5.003219e+000 6.302280e+000 6.239250e+000 4.327291e+000 4.271207e+000 5.313836e+000 3.437903e+000 4.426854e+000
<GCONST> 1.198620e+002
<STATE> 4
<MEAN> 25
 7.423036e+000 -1.492800e+001 -2.609122e+000 -1.140116e+001 4.151533e+000 -4.746217e-001 -4.426465e+000 -1.632483e+000 -1.545590e+000 -2.234514e+000 -1.141848e+000 -4.166207e+000 5.434409e-002 3.990004e-003 9.208270e-002 -4.821837e-002 -1.293114e-001 1.202717e-001 5.238584e-002 3.963218e-002 3.786566e-003 -1.325103e-001 1.259660e-001 -3.758502e-002 -1.235434e-001
<VARIANCE> 25
 3.182685e+001 1.041028e+002 9.395175e+001 9.242684e+001 6.491833e+001 4.774405e+001 5.518155e+001 8.148772e+001 3.843468e+001 8.744128e+001 4.458303e+001 1.643547e+001 2.787510e-001 8.746861e-001 8.202879e-001 1.070712e+000 1.218100e+000 1.001616e+000 1.413049e+000 1.351334e+000 1.064098e+000 1.106088e+000 1.096548e+000 8.497491e-001 3.445344e-001
<GCONST> 9.262000e+001
<TRANSP> 5
 0.000000e+000 1.000000e+000 0.000000e+000 0.000000e+000 0.000000e+000
 0.000000e+000 7.562551e-001 2.437448e-001 0.000000e+000 0.000000e+000
 0.000000e+000 0.000000e+000 6.872025e-001 3.127975e-001 0.000000e+000
 0.000000e+000 0.000000e+000 0.000000e+000 7.990687e-001 2.009313e-001
 0.000000e+000 0.000000e+000 0.000000e+000 0.000000e+000 0.000000e+000
<ENDHMM>
~h "l"
<BEGINHMM>
<NUMSTATES> 5
<STATE> 2
<MEAN> 25
 9.504732e+000 -2.670222e+000 2.612546e+000 -5.279239e+000 -4.409344e+000 -2.602057e+000 -5.101177e+000 -6.198306e+000 -2.717251e+000 -7.735713e-001 2.145502e+000 -1.225786e+000 3.465845e-001 -1.422302e+000 3.794352e-001 -6.316145e-001 -3.554403e-001 -2.403957e-001 -6.303463e-001 1.087227e-001 6.103325e-001 9.805480e-002 4.483751e-001 -2.134727e-001 1.423819e+000
<VARIANCE> 25
 6.560363e+001 9.511863e+001 8.118908e+001 1.407406e+002 6.528582e+001 9.822382e+001 9.297087e+001 8.553267e+001 6.574034e+001 6.293758e+001 8.075167e+001 4.608706e+001 2.419742e+000 6.348577e+000 3.706126e+000 1.108511e+001 4.512415e+000 7.633048e+000 7.762580e+000 5.210930e+000 6.119312e+000 4.600566e+000 4.746876e+000 4.506495e+000 6.061242e+000
<GCONST> 1.202158e+002
<STATE> 3
<MEAN> 25
 7.075501e+000 -8.996524e+000 -3.126351e+000 -1.254175e+001 -3.095251e+000 -1.238783e+001 -2.252445e+000 -4.953506e+000 -3.506297e-001 -1.139950e+001 -2.129833e+000 -2.104532e+000 -1.730440e-001 -4.093508e-001 -4.049149e-001 -1.218477e-001 4.764456e-001 4.147258e-001 1.928180e-002 3.055639e-003 -1.106433e-001 -3.189093e-001 -6.259653e-003 -1.503625e-001 2.222960e-001
<VARIANCE> 25
 1.377300e+001 3.475076e+001 4.327128e+001 4.328599e+001 6.701097e+001 7.577972e+001 7.432401e+001 5.350868e+001 5.350626e+001 5.668036e+001 4.711545e+001 3.028061e+001 2.636943e-001 9.836565e-001 1.286013e+000 2.461647e+000 2.224546e+000 2.548295e+000 2.447587e+000 2.662263e+000 2.283577e+000 2.676740e+000 2.010504e+000 1.569420e+000 4.284865e-001
<GCONST> 9.727859e+001
<STATE> 4
<MEAN> 25
 1.130865e+001 -1.510272e+001 6.270747e+000 -1.617405e+001 -8.163897e-001 3.535899e+000 -9.455463e+000 2.342850e+000 -2.118425e+000 9.336126e-001 4.733371e+000 -4.732098e+000 2.867067e-002 7.311612e-002 -1.314804e-001 -1.515025e-002 -6.021745e-002 -2.578960e-002 1.156974e-001 1.396367e-001 -6.523909e-002 6.678540e-002 -1.537412e-001 -1.009852e-001 -7.484760e-002
<VARIANCE> 25
 1.955527e+001 8.808475e+001 4.458147e+001 6.026256e+001 5.148901e+001 4.537263e+001 5.269347e+001 6.699918e+001 6.870452e+001 1.113547e+002 8.152483e+001 6.032793e+001 1.951364e-001 8.135503e-001 6.274182e-001 9.745896e-001 1.092898e+000 1.083019e+000 1.286461e+000 1.415253e+000 1.367518e+000 1.255730e+000 1.436194e+000 1.209231e+000 2.912982e-001
<GCONST> 9.295798e+001
<TRANSP> 5
 0.000000e+000 1.000000e+000 0.000000e+000 0.000000e+000 0.000000e+000
 0.000000e+000 7.869318e-001 2.130681e-001 0.000000e+000 0.000000e+000
 0.000000e+000 0.000000e+000 8.568923e-001 1.431077e-001 0.000000e+000
 0.000000e+000 0.000000e+000 0.000000e+000 9.020630e-001 9.793707e-002
 0.000000e+000 0.000000e+000 0.000000e+000 0.000000e+000 0.000000e+000
<ENDHMM>
~h "m"
<BEGINHMM>
<NUMSTATES> 5
<STATE> 2
<MEAN> 25
 1.441374e+000 -1.305637e+000 -3.118240e-001 -6.043589e-001 1.519270e+000 7.970333e-001 -3.659114e-001 -8.082530e-001 -1.469669e+000 -1.623207e+000 -4.179143e-001 2.756829e-001 1.655873e+000 5.766170e-001 8.840094e-002 6.487512e-002 -5.027708e-001 -3.847727e-001 -5.461279e-001 -1.163242e+000 -1.521401e+000 -9.552176e-001 -5.076456e-001 -7.341476e-001 7.682529e-001
<VARIANCE> 25
 6.758031e+001 8.630433e+001 1.049424e+002 9.665472e+001 5.148919e+001 6.044694e+001 8.980129e+001 5.441691e+001 7.038909e+001 8.057829e+001 5.640514e+001 3.694556e+001 5.056381e+000 7.257976e+000 4.470222e+000 5.941874e+000 4.713120e+000 4.510955e+000 7.406467e+000 5.918894e+000 7.650200e+000 4.884571e+000 5.015767e+000 3.380858e+000 6.036304e+000
<GCONST> 1.186343e+002
<STATE> 3
<MEAN> 25
 9.512499e+000 -3.487755e+000 -4.905801e+000 -4.081443e+000 -3.754795e-001 -6.580369e+000 -4.481226e+000 -5.903715e+000 -7.216945e+000 -9.553535e+000 -5.249103e+000 -6.129580e+000 4.436182e-001 6.573271e-002 1.724656e-002 9.634948e-001 2.214929e-001 -2.523384e-001 -5.438515e-001 -1.567903e-001 -5.709571e-001 -3.831907e-002 -2.377298e-001 -4.986446e-001 -2.310294e-001
<VARIANCE> 25
 2.164842e+001 6.441381e+001 5.564650e+001 7.504551e+001 6.095597e+001 6.319967e+001 8.084751e+001 4.078343e+001 4.462285e+001 4.697787e+001 3.666241e+001 2.467507e+001 2.092790e+000 7.834469e+000 5.990191e+000 1.045035e+001 6.975907e+000 3.372843e+000 4.163876e+000 5.577112e+000 3.905934e+000 3.996616e+000 3.938281e+000 2.588306e+000 8.100581e+000
<GCONST> 1.127358e+002
<STATE> 4
<MEAN> 25
 9.683142e+000 -9.451202e-001 -1.450052e+000 1.727153e+000 -1.279030e+000 -2.168363e+000 -2.084858e+000 -7.983722e+000 -1.140713e+001 -5.440717e+000 -2.595877e+000 -5.497184e+000 -3.370351e-001 4.322225e-001 1.398085e-001 2.419577e-001 6.427643e-002 2.524875e-001 1.778117e-001 2.538051e-002 1.509863e-001 1.520110e-001 1.444348e-002 1.513031e-001 -5.377395e-001
<VARIANCE> 25
 2.257620e+001 7.887482e+001 3.076697e+001 5.448844e+001 4.720113e+001 6.729589e+001 1.081027e+002 8.942795e+001 5.042234e+001 7.119450e+001 9.416924e+001 3.946779e+001 4.950107e-001 1.166354e+000 7.401812e-001 1.098557e+000 1.377794e+000 1.587472e+000 2.136064e+000 2.553814e+000 2.072149e+000 1.877819e+000 2.143814e+000 1.752978e+000 5.212868e-001
<GCONST> 9.825674e+001
<TRANSP> 5
 0.000000e+000 1.000000e+000 0.000000e+000 0.000000e+000 0.000000e+000
 0.000000e+000 6.307399e-001 3.692601e-001 0.000000e+000 0.000000e+000
 0.000000e+000 0.000000e+000 7.182156e-001 2.817845e-001 0.000000e+000
 0.000000e+000 0.000000e+000 0.000000e+000 9.016337e-001 9.836635e-002
 0.000000e+000 0.000000e+000 0.000000e+000 0.000000e+000 0.000000e+000
<ENDHMM>
~h "n"
<BEGINHMM>
<NUMSTATES> 5
<STATE> 2
<MEAN> 25
 1.010670e+001 -2.914786e+000 3.829175e-004 -2.083487e+000 -6.679948e+000 -5.205936e+000 -1.944474e+000 -6.889615e+000 -1.041817e+001 -6.849810e+000 1.008820e+000 -3.762901e+000 3.217429e-001 1.296814e+000 2.457522e-001 1.392836e+000 -1.844911e-001 -2.828336e-002 -1.171190e-001 -7.972215e-001 -7.944281e-001 3.212916e-001 -2.433014e-001 2.745113e-001 -1.290798e+000
<VARIANCE> 25
 3.597646e+001 6.239947e+001 4.622791e+001 6.508916e+001 5.336355e+001 6.393042e+001 6.255825e+001 6.874214e+001 6.853353e+001 9.544438e+001 6.867920e+001 3.148476e+001 1.051136e+000 3.143574e+000 2.422018e+000 3.581611e+000 2.770408e+000 2.917974e+000 3.918582e+000 5.124089e+000 3.521136e+000 3.518961e+000 3.106232e+000 2.627808e+000 2.291886e+000
<GCONST> 1.085300e+002
<STATE> 3
<MEAN> 25
 7.718852e+000 5.350823e+000 4.849050e-001 6.476971e+000 -2.027745e+000 -1.276578e+000 -6.948868e-001 -1.485073e+001 -1.069535e+001 2.295582e+000 -6.862199e-001 -5.928141e-001 -7.135055e-001 5.550740e-001 2.272124e-001 4.434991e-001 7.710716e-001 4.475693e-001 -1.211613e-002 3.781762e-001 7.151088e-001 1.380128e-001 -3.141861e-001 3.720992e-002 -8.297297e-001
<VARIANCE> 25
 3.904808e+001 3.559369e+001 3.652564e+001 3.673466e+001 6.508060e+001 5.497877e+001 9.090350e+001 1.125399e+002 7.247208e+001 8.573533e+001 8.338310e+001 6.959933e+001 6.785936e-001 1.778565e+000 1.542045e+000 1.944895e+000 2.465213e+000 3.131830e+000 3.939974e+000 4.834881e+000 4.039078e+000 4.573048e+000 4.117572e+000 2.877505e+000 5.281976e-001
<GCONST> 1.062294e+002
<STATE> 4
<MEAN> 25
 3.401930e+000 8.389713e+000 2.650973e+000 7.803011e+000 1.285455e+000 -5.668892e-001 -2.082533e+000 -5.545286e+000 -5.033308e+000 -2.986134e+000 -3.705016e+000 -1.910122e+000 -6.863228e-001 -1.985631e-001 -1.333166e-001 6.756818e-002 3.144519e-001 4.778713e-001 5.473905e-001 7.491747e-001 7.849178e-001 3.664309e-001 1.272980e-001 1.363176e-001 -4.893621e-001
<VARIANCE> 25
 3.441284e+001 2.303623e+001 1.975133e+001 2.364262e+001 4.010434e+001 2.881619e+001 4.671293e+001 4.568741e+001 4.466780e+001 4.078967e+001 5.669165e+001 5.529485e+001 4.739377e-001 8.218981e-001 8.011327e-001 1.012516e+000 1.520706e+000 1.754719e+000 1.940219e+000 2.147698e+000 2.022317e+000 1.982855e+000 1.994297e+000 1.865554e+000 2.607982e-001
<GCONST> 9.166015e+001
<TRANSP> 5
 0.000000e+000 1.000000e+000 0.000000e+000 0.000000e+000 0.000000e+000
 0.000000e+000 8.188834e-001 1.811166e-001 0.000000e+000 0.000000e+000
 0.000000e+000 0.000000e+000 7.601244e-001 2.398756e-001 0.000000e+000
 0.000000e+000 0.000000e+000 0.000000e+000 8.510270e-001 1.489730e-001
 0.000000e+000 0.000000e+000 0.000000e+000 0.000000e+000 0.000000e+000
<ENDHMM>
~h "p"
<BEGINHMM>
<NUMSTATES> 5
<STATE> 2
<MEAN> 25
 -6.946479e+000 3.160852e+000 -3.333405e+000 5.205635e+000 2.517185e+000 1.623600e+000 4.524122e+000 2.532622e+000 3.534772e+000 2.312223e+000 -4.388147e-001 2.892300e+000 -1.731027e-001 -2.263360e-001 1.664735e-002 -2.338649e-002 -4.128557e-003 3.914050e-003 7.445240e-002 1.189860e-001 2.360711e-001 2.541698e-001 2.267647e-001 1.781136e-001 7.728916e-002
<VARIANCE> 25
 4.247840e+001 1.165036e+001 2.219805e+001 1.617319e+001 1.852356e+001 2.376682e+001 2.092765e+001 2.076961e+001 2.546492e+001 2.524483e+001 2.187731e+001 1.992973e+001 1.169196e+000 7.294860e-001 1.077542e+000 1.243737e+000 1.338646e+000 1.461459e+000 1.884020e+000 1.836368e+000 1.710382e+000 1.718325e+000 1.825855e+000 1.568223e+000 1.196720e+000
<GCONST> 8.709574e+001
<STATE> 3
<MEAN> 25
 2.239059e-001 -1.046982e+000 -9.422733e-001 1.423453e+000 2.339978e+000 1.949261e+000 1.476415e+000 2.238680e+000 2.948217e+000 2.403371e+000 7.927411e-001 2.204480e+000 2.874839e+000 -2.544012e+000 -2.469509e-001 -3.301325e+000 -2.921659e-001 -1.230361e+000 -1.466427e+000 -1.101834e+000 -1.077648e+000 -1.827663e+000 -3.119365e-001 -4.585449e-001 5.447746e+000
<VARIANCE> 25
 4.959320e+001 4.318324e+001 3.407792e+001 4.289207e+001 2.695448e+001 3.483651e+001 2.893975e+001 3.185236e+001 2.652492e+001 3.050854e+001 2.174854e+001 1.593787e+001 4.331666e+000 7.833221e+000 7.419559e+000 7.313348e+000 5.150062e+000 6.240088e+000 5.045010e+000 6.257017e+000 3.991281e+000 7.011251e+000 4.827572e+000 2.833052e+000 7.364497e+000
<GCONST> 1.095033e+002
<STATE> 4
<MEAN> 25
 1.029554e+001 -1.721782e+001 1.337494e+000 -1.635517e+001 3.019691e+000 2.288604e+000 -4.612917e+000 6.021842e-001 3.152948e-001 2.469451e+000 -1.647373e+000 -3.036773e+000 6.268241e-001 -6.318436e-001 -1.868520e-001 -9.555661e-001 -3.038562e-001 -7.147803e-001 -4.862566e-001 -5.223698e-001 -6.386683e-001 -9.460149e-001 -3.275797e-001 -6.079095e-001 1.112687e+000
<VARIANCE> 25
 3.406968e+001 1.215640e+002 7.516131e+001 1.091896e+002 6.526873e+001 5.934798e+001 5.309420e+001 5.614108e+001 2.583451e+001 9.486502e+001 3.552422e+001 2.814654e+001 2.729209e+000 7.391356e+000 4.083753e+000 8.697639e+000 3.194788e+000 5.145352e+000 3.570653e+000 4.507043e+000 2.710133e+000 4.455738e+000 2.847904e+000 1.780486e+000 6.847790e+000
<GCONST> 1.124531e+002
<TRANSP> 5
 0.000000e+000 1.000000e+000 0.000000e+000 0.000000e+000 0.000000e+000
 0.000000e+000 8.597059e-001 1.402941e-001 0.000000e+000 0.000000e+000
 0.000000e+000 0.000000e+000 6.374534e-001 3.625466e-001 0.000000e+000
 0.000000e+000 0.000000e+000 0.000000e+000 6.932125e-001 3.067875e-001
 0.000000e+000 0.000000e+000 0.000000e+000 0.000000e+000 0.000000e+000
<ENDHMM>
~h "r"
<BEGINHMM>
<NUMSTATES> 5
<STATE> 2
<MEAN> 25
 7.448158e+000 -6.176936e+000 -2.803302e+000 -7.259679e+000 1.524452e+000 -1.852731e+000 -4.854017e+000 -3.317438e-001 -1.105226e+000 -3.796083e+000 2.559385e+000 -1.670208e+000 3.672390e-001 -1.652509e+000 -4.726146e-002 -9.469330e-001 2.931467e-001 -1.893716e-001 -5.136096e-001 1.113564e-001 -1.407402e-001 -2.634037e-001 9.263698e-002 -5.881280e-001 1.725505e+000
<VARIANCE> 25
 5.341608e+001 9.509000e+001 7.068719e+001 1.051621e+002 4.909700e+001 6.608898e+001 6.603067e+001 8.603833e+001 6.036188e+001 9.247165e+001 6.088605e+001 3.779008e+001 2.925902e+000 5.450012e+000 3.403286e+000 6.992383e+000 4.158259e+000 4.405358e+000 4.524337e+000 6.660502e+000 5.008115e+000 5.758779e+000 4.319058e+000 3.442782e+000 3.868794e+000
<GCONST> 1.161581e+002
<STATE> 3
<MEAN> 25
 5.733681e+000 -1.463977e+001 -6.284413e+000 -1.069959e+001 1.814111e+000 -7.169190e+000 2.265880e+000 -9.240783e+000 -3.806717e+000 -1.067947e+001 -2.458483e+000 -3.215046e+000 -5.115291e-002 6.895889e-002 -7.117829e-002 2.024485e-001 -2.864003e-002 3.303279e-001 -8.307426e-002 -7.524757e-002 1.353828e-001 -1.175592e-002 -2.032414e-001 -2.350744e-001 -2.020941e-001
<VARIANCE> 25
 1.599569e+001 2.468500e+001 3.639752e+001 4.293189e+001 4.149334e+001 4.011662e+001 5.706817e+001 4.363400e+001 2.425666e+001 8.674711e+001 2.798097e+001 2.173944e+001 1.375630e-001 5.680434e-001 4.014007e-001 5.308220e-001 8.834007e-001 7.746381e-001 8.465037e-001 1.130062e+000 8.712716e-001 8.407323e-001 9.571226e-001 8.515533e-001 1.511220e-001
<GCONST> 8.165478e+001
<STATE> 4
<MEAN> 25
 1.108228e+001 -2.002167e+001 4.519647e+000 -1.576072e+001 3.309156e+000 2.952612e+000 -1.039907e+001 3.926201e+000 1.175086e+000 3.461512e+000 2.283767e+000 -6.786335e+000 4.682333e-002 1.541128e-001 -1.442744e-001 1.433334e-001 -5.527009e-002 2.419371e-003 -3.556813e-003 9.541857e-002 -1.337752e-001 -8.703777e-002 -1.293386e-001 3.672655e-002 -1.938545e-001
<VARIANCE> 25
 1.506211e+001 4.829232e+001 3.424035e+001 7.741241e+001 3.053982e+001 3.780573e+001 4.753635e+001 4.226067e+001 3.944374e+001 6.333003e+001 5.472964e+001 3.102957e+001 2.386726e-001 7.969393e-001 5.769376e-001 9.890649e-001 1.041026e+000 8.900606e-001 1.225300e+000 1.180892e+000 1.122124e+000 1.006719e+000 1.213141e+000 1.162120e+000 3.115483e-001
<GCONST> 8.770808e+001
<TRANSP> 5
 0.000000e+000 1.000000e+000 0.000000e+000 0.000000e+000 0.000000e+000
 0.000000e+000 8.612834e-001 1.387166e-001 0.000000e+000 0.000000e+000
 0.000000e+000 0.000000e+000 8.076287e-001 1.923713e-001 0.000000e+000
 0.000000e+000 0.000000e+000 0.000000e+000 8.837925e-001 1.162075e-001
 0.000000e+000 0.000000e+000 0.000000e+000 0.000000e+000 0.000000e+000
<ENDHMM>
~h "s"
<BEGINHMM>
<NUMSTATES> 5
<STATE> 2
<MEAN> 25
 -4.981031e+000 2.181345e+000 -1.811054e+000 4.740967e+000 5.344384e-001 3.403042e+000 4.829017e+000 2.519385e+000 2.655132e+000 2.995041e+000 7.592227e-001 3.149694e-001 -7.496591e-001 -2.353560e-001 -2.250358e-001 3.650493e-002 7.673948e-002 3.396099e-001 1.504808e-001 2.625740e-001 3.611465e-001 4.035039e-001 3.590732e-001 2.614817e-001 1.899618e-001
<VARIANCE> 25
 3.943390e+001 2.946651e+001 3.098696e+001 3.495393e+001 2.668025e+001 4.976745e+001 3.660228e+001 4.147271e+001 3.200791e+001 4.110322e+001 3.384680e+001 2.510014e+001 2.895417e+000 2.342926e+000 3.413947e+000 2.604482e+000 2.650976e+000 3.435540e+000 2.986531e+000 2.958131e+000 3.090262e+000 3.136420e+000 3.015467e+000 2.236216e+000 2.597491e+000
<GCONST> 1.020574e+002
<STATE> 3
<MEAN> 25
 -1.026852e+001 -6.367640e+000 8.293069e+000 -7.444003e+000 7.217271e+000 5.900300e+000 -1.891037e+000 2.413510e+000 4.369940e+000 4.174994e+000 5.486106e+000 9.635257e-001 -2.373102e-001 9.077148e-002 -3.335330e-001 1.254926e-001 -8.448067e-002 -3.321187e-002 1.244902e-001 8.315382e-002 1.005192e-001 3.652837e-002 -5.327731e-002 1.940201e-001 -3.400605e-001
<VARIANCE> 25
 3.413470e+001 5.928048e+001 1.995775e+002 1.242100e+002 6.162623e+001 7.047009e+001 8.302914e+001 5.886536e+001 4.109424e+001 4.039367e+001 4.019547e+001 4.133997e+001 2.441835e+000 2.107352e+000 5.015771e+000 3.758479e+000 3.599771e+000 2.976360e+000 3.545084e+000 3.688944e+000 3.274200e+000 2.792632e+000 3.322913e+000 2.311126e+000 1.182481e+000
<GCONST> 1.093150e+002
<STATE> 4
<MEAN> 25
 -9.351336e+000 3.174097e+000 -5.073353e+000 6.031429e+000 1.032578e+000 4.407775e-001 4.389255e+000 2.532063e+000 2.533138e+000 1.341688e+000 1.592185e-003 2.972628e+000 -1.777764e-002 -2.699056e-002 1.680777e-002 -2.409671e-002 -1.372159e-002 -1.857147e-002 -1.858460e-002 5.232763e-003 8.441605e-003 -1.500315e-002 -2.811886e-003 2.046834e-002 -6.660336e-002
<VARIANCE> 25
 2.305033e+001 7.550376e+000 1.029211e+001 1.025568e+001 1.199118e+001 2.281354e+001 1.250998e+001 1.710462e+001 1.858257e+001 2.106637e+001 1.521649e+001 1.639986e+001 2.718793e-001 3.194186e-001 5.376646e-001 6.631938e-001 8.098040e-001 9.255198e-001 1.163239e+000 1.260014e+000 1.279500e+000 1.223113e+000 1.161355e+000 1.074783e+000 1.798932e-001
<GCONST> 7.380566e+001
<TRANSP> 5
 0.000000e+000 1.000000e+000 0.000000e+000 0.000000e+000 0.000000e+000
 0.000000e+000 7.746944e-001 2.253056e-001 0.000000e+000 0.000000e+000
 0.000000e+000 0.000000e+000 8.284899e-001 1.715101e-001 0.000000e+000
 0.000000e+000 0.000000e+000 0.000000e+000 9.484976e-001 5.150241e-002
 0.000000e+000 0.000000e+000 0.000000e+000 0.000000e+000 0.000000e+000
<ENDHMM>
~h "t"
<BEGINHMM>
<NUMSTATES> 5
<STATE> 2
<MEAN> 25
 -3.607705e+000 3.369549e+000 -1.116219e+000 4.480427e+000 2.719139e+000 3.445346e+000 3.395841e+000 1.668913e+000 3.620208e+000 3.732260e+000 4.279111e-001 1.715135e+000 -3.091729e-001 -6.233398e-001 -2.052576e-001 -1.920722e-001 1.570176e-001 1.250970e-001 1.310094e-001 4.021838e-001 3.113478e-001 4.219066e-001 3.334529e-001 2.219068e-001 2.908336e-001
<VARIANCE> 25
 2.861950e+001 2.557163e+001 5.714682e+001 2.562151e+001 3.067849e+001 3.203339e+001 3.789604e+001 4.096349e+001 3.045679e+001 2.901662e+001 3.449799e+001 2.274363e+001 1.407734e+000 2.546284e+000 2.927165e+000 4.218497e+000 2.850641e+000 3.590944e+000 3.497291e+000 3.587331e+000 2.783060e+000 3.072570e+000 2.631706e+000 1.950412e+000 3.903692e+000
<GCONST> 1.013079e+002
<STATE> 3
<MEAN> 25
 -1.386464e+000 -1.776260e+000 1.404066e+000 2.196180e-001 1.148618e+000 6.049904e-001 8.907002e-001 1.426595e+000 2.830311e+000 3.332805e+000 1.050941e+000 1.338706e+000 1.820192e+000 -1.909061e+000 1.510565e+000 -3.056011e+000 -8.108361e-001 -2.130683e+000 -2.312373e+000 -1.276241e+000 -6.731672e-001 -1.335193e+000 -1.262040e-001 -4.168414e-001 4.931363e+000
<VARIANCE> 25
 3.779458e+001 6.012551e+001 4.269738e+001 5.995386e+001 2.726964e+001 4.842123e+001 4.240219e+001 4.982788e+001 3.421524e+001 2.945729e+001 3.626442e+001 2.208030e+001 4.665648e+000 8.403967e+000 7.501900e+000 7.973289e+000 3.612445e+000 9.759957e+000 6.985268e+000 7.170274e+000 5.302066e+000 6.049631e+000 4.966947e+000 3.722748e+000 6.217435e+000
<GCONST> 1.134152e+002
<STATE> 4
<MEAN> 25
 5.890317e+000 -8.325706e+000 6.632990e+000 -9.135904e+000 1.029458e+000 -2.007363e+000 -8.264854e+000 -2.000858e-001 2.192820e+000 1.723764e+000 -6.355293e-001 -1.573856e+000 9.288942e-001 2.149764e-001 1.012830e+000 -1.034657e+000 -3.481401e-001 -1.295234e+000 -1.130882e+000 -7.378016e-001 -9.965466e-001 -1.689518e+000 -4.182760e-001 -6.367638e-001 1.226445e+000
<VARIANCE> 25
 5.737981e+001 1.401137e+002 8.680193e+001 1.361272e+002 5.923891e+001 8.903395e+001 8.284420e+001 7.040147e+001 4.918422e+001 8.829739e+001 5.060054e+001 3.927144e+001 3.165652e+000 4.663643e+000 1.064817e+001 8.937642e+000 5.148224e+000 7.776267e+000 6.226609e+000 8.827641e+000 5.517908e+000 5.387462e+000 5.306872e+000 3.282002e+000 4.972723e+000
<GCONST> 1.203266e+002
<TRANSP> 5
 0.000000e+000 1.000000e+000 0.000000e+000 0.000000e+000 0.000000e+000
 0.000000e+000 7.303271e-001 2.696728e-001 0.000000e+000 0.000000e+000
 0.000000e+000 0.000000e+000 5.691284e-001 4.308716e-001 0.000000e+000
 0.000000e+000 0.000000e+000 0.000000e+000 4.873835e-001 5.126165e-001
 0.000000e+000 0.000000e+000 0.000000e+000 0.000000e+000 0.000000e+000
<ENDHMM>
~h "aa"
<BEGINHMM>
<NUMSTATES> 5
<STATE> 2
<MEAN> 25
 5.834904e+000 -5.993496e+000 -3.295767e+000 -4.285623e+000 7.706120e-001 -1.937077e+000 -1.288732e+000 -2.746080e+000 -3.523177e+000 -3.997511e+000 -1.135708e+000 -2.681784e+000 3.107034e-002 2.949928e-001 -1.311983e-001 3.807429e-001 2.209657e-001 1.499224e-001 1.837026e-001 8.623512e-002 -9.571977e-003 6.229953e-002 7.092041e-005 1.314083e-001 -3.368125e-001
<VARIANCE> 25
 5.130610e+001 9.853464e+001 5.796363e+001 8.753285e+001 6.817035e+001 7.523881e+001 8.094590e+001 7.204486e+001 5.798124e+001 7.566938e+001 7.020284e+001 4.561254e+001 2.969958e+000 6.741242e+000 3.378448e+000 6.333159e+000 3.862416e+000 5.201063e+000 5.160674e+000 5.650168e+000 4.999321e+000 5.419559e+000 4.626096e+000 3.347952e+000 6.830739e+000
<GCONST> 1.170725e+002
<STATE> 3
<MEAN> 25
 6.894833e+000 -7.695427e+000 -3.657967e+000 -5.270243e+000 1.625157e+000 -1.086071e+000 -1.201245e+000 -2.335930e+000 -4.289684e+000 -4.075124e+000 -1.815234e+000 -3.763445e+000 -3.537766e-001 5.311168e-001 -2.960760e-002 4.592081e-001 1.696653e-002 1.782726e-001 2.834066e-001 7.297911e-002 2.370267e-001 1.801254e-001 -1.294714e-003 1.451050e-001 -7.360399e-001
<VARIANCE> 25
 4.064138e+001 1.111967e+002 4.280482e+001 9.092236e+001 4.998401e+001 6.420636e+001 6.101506e+001 7.655729e+001 5.001920e+001 8.152884e+001 7.736922e+001 3.892228e+001 5.051396e-001 1.367950e+000 1.121340e+000 1.457053e+000 1.526928e+000 1.899480e+000 1.965736e+000 2.019521e+000 2.171469e+000 2.144451e+000 2.134389e+000 1.659587e+000 7.181991e-001
<GCONST> 1.005131e+002
<STATE> 4
<MEAN> 25
 -5.762199e+000 3.051640e+000 -4.376033e+000 5.458373e+000 2.868235e+000 7.163677e-001 4.258940e+000 1.867905e+000 2.564709e+000 1.270556e+000 -5.226719e-001 2.050616e+000 -1.637379e-001 4.868638e-002 6.905661e-002 1.690502e-002 -7.533550e-002 -3.377127e-002 9.752090e-003 2.950288e-002 8.280611e-002 9.714513e-002 4.550750e-002 4.568373e-002 -1.516510e-001
<VARIANCE> 25
 2.998171e+001 2.306604e+001 1.515179e+001 2.466046e+001 1.674083e+001 2.688367e+001 2.034272e+001 1.998674e+001 2.562497e+001 2.670880e+001 1.872965e+001 1.951437e+001 2.534969e-001 4.094648e-001 5.800520e-001 7.371494e-001 9.450768e-001 1.042557e+000 1.163354e+000 1.281463e+000 1.349267e+000 1.365781e+000 1.273664e+000 1.160463e+000 1.320928e-001
<GCONST> 7.920351e+001
<TRANSP> 5
 0.000000e+000 1.000000e+000 0.000000e+000 0.000000e+000 0.000000e+000
 0.000000e+000 8.253348e-001 1.746652e-001 0.000000e+000 0.000000e+000
 0.000000e+000 0.000000e+000 8.550161e-001 1.449839e-001 0.000000e+000
 0.000000e+000 0.000000e+000 0.000000e+000 8.991853e-001 1.008147e-001
 0.000000e+000 0.000000e+000 0.000000e+000 0.000000e+000 0.000000e+000
<ENDHMM>
~h "eu"
<BEGINHMM>
<NUMSTATES> 5
<STATE> 2
<MEAN> 25
 -8.186751e+000 2.822225e+000 -3.005297e+000 3.382334e+000 1.396182e+000 5.147532e-001 5.328712e+000 2.218448e+000 3.634837e+000 3.007244e+000 -1.863825e-003 2.020255e+000 5.941697e-001 -1.378172e-001 4.927668e-001 -5.156539e-001 -1.373813e-001 -5.180994e-001 -2.752023e-001 -2.626100e-001 -2.960186e-001 -3.398921e-001 7.903948e-002 -2.124947e-001 1.309129e+000
<VARIANCE> 25
 7.906136e+001 3.654175e+001 3.380170e+001 4.709021e+001 3.743929e+001 6.506429e+001 3.039361e+001 3.726095e+001 3.462492e+001 3.719020e+001 2.878529e+001 2.165335e+001 4.606206e+000 3.328537e+000 3.467594e+000 3.383188e+000 2.772324e+000 3.628454e+000 3.283916e+000 2.984856e+000 3.581172e+000 3.527073e+000 2.673539e+000 2.216773e+000 2.442714e+000
<GCONST> 1.047061e+002
<STATE> 3
<MEAN> 25
 1.228299e+000 -2.342927e+000 2.283952e+000 -2.682634e+000 2.985499e-001 -2.745445e+000 -1.667157e+000 -6.583242e-001 -2.449847e-001 -1.835683e+000 9.086984e-001 -1.124291e-001 1.988199e+000 -2.436781e+000 8.454761e-001 -2.744081e+000 -7.216567e-001 -1.219923e+000 -1.979550e+000 -1.014603e+000 -1.279075e+000 -1.926414e+000 2.190729e-001 -9.830002e-001 3.657109e+000
<VARIANCE> 25
 7.706901e+001 9.835149e+001 8.005634e+001 9.189569e+001 6.768871e+001 9.103555e+001 7.769017e+001 5.289654e+001 6.302070e+001 8.402580e+001 4.662419e+001 3.547779e+001 6.898071e+000 8.639009e+000 1.005536e+001 7.169168e+000 6.292602e+000 1.167701e+001 8.128242e+000 6.738683e+000 6.449168e+000 1.090394e+001 6.943579e+000 4.053038e+000 7.498192e+000
<GCONST> 1.230871e+002
<STATE> 4
<MEAN> 25
 8.614013e+000 -1.006593e+001 7.208945e+000 -1.194697e+001 -2.383401e+000 1.563434e+000 -8.219460e+000 8.252407e-001 -1.197940e+000 -3.126211e-001 3.461706e+000 -3.890344e+000 3.641989e-001 3.879522e-001 -3.231293e-001 2.764430e-001 -1.056635e-001 3.455617e-002 1.954430e-001 -1.962174e-001 -3.063382e-001 -1.856137e-001 -1.661711e-001 -5.439518e-002 -2.465340e-001
<VARIANCE> 25
 8.204782e+001 1.165242e+002 1.134921e+002 9.375428e+001 9.758678e+001 7.803448e+001 8.904956e+001 8.497066e+001 8.572806e+001 9.770262e+001 8.469045e+001 4.016045e+001 1.980977e+000 3.447891e+000 2.350572e+000 3.709434e+000 3.277324e+000 2.891330e+000 3.728895e+000 3.550904e+000 3.433139e+000 2.822318e+000 2.814271e+000 2.135097e+000 2.653481e+000
<GCONST> 1.133782e+002
<TRANSP> 5
 0.000000e+000 1.000000e+000 0.000000e+000 0.000000e+000 0.000000e+000
 0.000000e+000 6.878288e-001 3.121713e-001 0.000000e+000 0.000000e+000
 0.000000e+000 0.000000e+000 6.389940e-001 3.610060e-001 0.000000e+000
 0.000000e+000 0.000000e+000 0.000000e+000 8.735854e-001 1.264145e-001
 0.000000e+000 0.000000e+000 0.000000e+000 0.000000e+000 0.000000e+000
<ENDHMM>
~h "hh"
<BEGINHMM>
<NUMSTATES> 5
<STATE> 2
<MEAN> 25
 -3.202359e-001 -2.440489e+000 -5.599579e+000 -3.231959e+000 -5.351610e-001 2.818820e+000 5.535617e+000 -1.125882e+000 1.567727e+000 -4.898380e-001 -2.133529e+000 1.185108e+000 -6.953772e-001 1.753342e-001 -4.331652e-002 9.365642e-001 9.708390e-001 6.069751e-001 5.115709e-001 8.062361e-001 7.066210e-001 8.734983e-001 1.140656e-001 3.472074e-001 -7.043411e-001
<VARIANCE> 25
 3.809160e+001 7.431066e+001 6.224947e+001 8.583372e+001 1.025179e+002 7.594941e+001 9.366318e+001 8.050056e+001 7.491263e+001 6.481026e+001 6.576669e+001 4.302529e+001 8.974699e-001 2.441159e+000 3.256345e+000 3.990866e+000 3.738274e+000 4.889509e+000 4.123517e+000 4.503718e+000 3.959455e+000 3.498368e+000 3.785992e+000 3.345970e+000 7.015597e-001
<GCONST> 1.107918e+002
<STATE> 3
<MEAN> 25
 -1.231958e+000 -2.100964e+000 -4.627522e+000 2.442771e+000 6.570106e+000 6.251968e+000 4.817062e+000 3.403129e+000 3.097291e+000 3.560919e+000 1.003816e+000 1.430440e+000 -6.496592e-002 2.043431e-001 4.834174e-002 1.036093e-001 -2.614439e-001 -4.657098e-002 -4.568393e-002 1.842296e-001 9.396723e-002 2.395536e-001 1.134874e-001 5.474991e-002 -7.259799e-001
<VARIANCE> 25
 2.116535e+001 4.272921e+001 2.706807e+001 2.969753e+001 4.790131e+001 2.874303e+001 3.240041e+001 2.716322e+001 2.789486e+001 2.682793e+001 2.121568e+001 1.839951e+001 9.043564e-001 1.257065e+000 1.581532e+000 1.558624e+000 1.868817e+000 1.734642e+000 1.741640e+000 2.021273e+000 1.792974e+000 1.666227e+000 1.515996e+000 1.363360e+000 1.355728e+000
<GCONST> 9.162602e+001
<STATE> 4
<MEAN> 25
 -7.305652e+000 3.495742e+000 -5.691015e+000 5.245883e+000 2.183693e+000 -1.429758e+000 4.173876e+000 1.460751e+000 2.036343e+000 6.110216e-001 -1.536270e+000 2.142192e+000 -4.158412e-002 -8.306751e-003 3.312396e-003 -1.064963e-003 -9.246676e-003 -2.990080e-002 -1.443926e-002 -3.972863e-003 3.378673e-003 1.261041e-003 -1.997161e-003 1.715900e-002 -3.428955e-002
<VARIANCE> 25
 9.442742e+000 5.808702e+000 8.695354e+000 1.078496e+001 9.789543e+000 1.129455e+001 1.197320e+001 1.241059e+001 2.013431e+001 1.726783e+001 1.301767e+001 1.298426e+001 1.770885e-001 3.136779e-001 4.665520e-001 6.493108e-001 8.646558e-001 9.663603e-001 1.165101e+000 1.251317e+000 1.285735e+000 1.223168e+000 1.207597e+000 1.036912e+000 5.607272e-002
<GCONST> 6.908983e+001
<TRANSP> 5
 0.000000e+000 1.000000e+000 0.000000e+000 0.000000e+000 0.000000e+000
 0.000000e+000 8.236607e-001 1.763392e-001 0.000000e+000 0.000000e+000
 0.000000e+000 0.000000e+000 8.757250e-001 1.242751e-001 0.000000e+000
 0.000000e+000 0.000000e+000 0.000000e+000 9.514647e-001 4.853532e-002
 0.000000e+000 0.000000e+000 0.000000e+000 0.000000e+000 0.000000e+000
<ENDHMM>
~h "ih"
<BEGINHMM>
<NUMSTATES> 5
<STATE> 2
<MEAN> 25
 3.540313e+000 2.196495e+000 1.091721e+001 -3.156171e+000 -3.781469e+000 -6.016647e+000 -6.090620e+000 -5.171638e+000 -3.959592e+000 -5.480084e+000 -3.712686e+000 -3.250540e+000 -4.560893e-001 -4.326810e-002 1.676809e+000 -1.376330e+000 -2.851411e-001 -1.365904e+000 -7.111197e-001 -4.018673e-001 -3.001117e-001 -7.546220e-001 -4.667782e-001 -2.360953e-001 1.260589e+000
<VARIANCE> 25
 4.329331e+001 8.107957e+001 9.537852e+001 1.316974e+002 6.580856e+001 7.934937e+001 5.814746e+001 8.208509e+001 7.223660e+001 5.867178e+001 7.719139e+001 3.569650e+001 3.557015e+000 5.501802e+000 6.257756e+000 1.189286e+001 4.480950e+000 7.769401e+000 5.163070e+000 7.483119e+000 6.739019e+000 5.313569e+000 4.590705e+000 3.211027e+000 4.893724e+000
<GCONST> 1.191980e+002
<STATE> 3
<MEAN> 25
 2.927119e+000 -1.597247e+000 1.913374e+001 4.872413e+000 -4.668833e+000 -1.184569e+001 -8.187766e+000 1.898260e+000 -7.901611e+000 -1.106559e+001 -2.666337e+000 -2.528047e+000 -1.456244e-002 5.791146e-001 -5.848624e-001 1.988142e-002 2.104332e-001 3.622730e-001 2.272486e-001 -2.964614e-001 2.595770e-002 7.636870e-002 -6.880479e-002 1.748616e-001 -5.019087e-001
<VARIANCE> 25
 1.527408e+001 4.157122e+001 8.800941e+001 9.291010e+001 5.679730e+001 9.817850e+001 5.715434e+001 9.250082e+001 6.759332e+001 4.897883e+001 8.404698e+001 3.521851e+001 5.446578e-001 1.692666e+000 3.555099e+000 2.401770e+000 2.693128e+000 4.565505e+000 3.291082e+000 3.720378e+000 3.411455e+000 2.779546e+000 2.908870e+000 2.340237e+000 9.531873e-001
<GCONST> 1.059037e+002
<STATE> 4
<MEAN> 25
 3.019423e+000 6.844786e+000 1.285357e+001 -1.121899e+001 -6.803187e+000 -6.004086e+000 -8.362101e+000 -8.647129e+000 -5.085530e+000 -6.324954e+000 -2.795500e+000 -7.918084e-001 1.496778e-001 2.017349e-002 -4.286378e-001 7.342290e-001 3.634015e-002 4.419533e-001 2.876484e-001 2.936722e-001 7.872780e-002 3.619741e-001 3.099630e-001 1.262927e-001 -6.348775e-001
<VARIANCE> 25
 3.234129e+001 3.248453e+001 7.437540e+001 1.315449e+002 6.996404e+001 8.053218e+001 4.036444e+001 5.706365e+001 5.160295e+001 4.562294e+001 1.212929e+002 5.990739e+001 7.111076e-001 1.047819e+000 1.231247e+000 3.163946e+000 1.700294e+000 2.245717e+000 1.918678e+000 2.269894e+000 1.902341e+000 1.866531e+000 2.285345e+000 1.932814e+000 8.274933e-001
<GCONST> 1.015664e+002
<TRANSP> 5
 0.000000e+000 1.000000e+000 0.000000e+000 0.000000e+000 0.000000e+000
 0.000000e+000 6.807199e-001 3.192801e-001 0.000000e+000 0.000000e+000
 0.000000e+000 0.000000e+000 8.474857e-001 1.525143e-001 0.000000e+000
 0.000000e+000 0.000000e+000 0.000000e+000 8.997573e-001 1.002427e-001
 0.000000e+000 0.000000e+000 0.000000e+000 0.000000e+000 0.000000e+000
<ENDHMM>
~h "jh"
<BEGINHMM>
<NUMSTATES> 5
<STATE> 2
<MEAN> 25
 5.472618e+000 4.905356e+000 6.726549e+000 -4.236209e+000 -2.946656e+000 -8.226077e+000 -6.010319e+000 -1.032784e+001 -6.046256e+000 -5.617829e+000 -1.244568e+001 -6.349277e+000 -5.865825e-001 3.654685e-001 1.013974e+000 1.851924e+000 1.903349e-001 6.029458e-001 -9.740818e-002 1.175341e+000 -2.324002e-001 -4.696746e-001 2.096164e-001 -7.555485e-001 -8.409365e-001
<VARIANCE> 25
 2.285233e+001 3.971721e+001 5.065209e+001 9.460400e+001 3.925697e+001 9.257648e+001 3.308103e+001 6.525814e+001 5.434874e+001 4.262514e+001 6.548077e+001 5.212211e+001 1.564859e+000 3.782656e+000 5.776978e+000 4.754955e+000 4.062300e+000 9.391491e+000 3.773789e+000 4.787354e+000 5.470729e+000 3.155960e+000 3.476256e+000 3.050288e+000 2.580786e+000
<GCONST> 1.107760e+002
<STATE> 3
<MEAN> 25
 -3.798077e-001 4.124805e+000 8.698894e+000 4.717408e+000 3.180614e+000 -6.855363e-001 -4.308434e+000 1.445064e-001 -2.089507e+000 -5.183844e+000 -3.158660e+000 -3.945686e+000 -1.066815e+000 -1.551631e+000 8.408950e-001 -1.316297e+000 6.894197e-002 3.326547e-001 1.799133e-001 1.144769e-001 6.999316e-001 6.152517e-001 6.200941e-001 4.871881e-001 1.570068e+000
<VARIANCE> 25
 5.859263e+001 9.477210e+001 7.798229e+001 7.969884e+001 4.574705e+001 6.365063e+001 6.559078e+001 5.101243e+001 4.003303e+001 4.332063e+001 4.340250e+001 3.563866e+001 5.598854e+000 1.048260e+001 7.480331e+000 9.495994e+000 6.216732e+000 6.726819e+000 6.364424e+000 5.338977e+000 5.078856e+000 4.139443e+000 5.096629e+000 3.578388e+000 6.428599e+000
<GCONST> 1.176025e+002
<STATE> 4
<MEAN> 25
 -5.937218e-001 -1.053531e+001 1.624094e+001 -2.972302e+000 8.809937e-002 -4.799990e+000 -1.025378e+001 -1.679895e+000 -3.537431e-001 -2.925775e+000 6.893275e-001 -3.579920e+000 1.260467e+000 -4.996755e-001 -6.541011e-001 -1.682296e-001 -4.703487e-001 -1.123251e+000 -4.909734e-001 -7.712497e-001 -1.781756e-001 1.626483e-001 -7.633094e-002 -3.554451e-001 6.079465e-001
<VARIANCE> 25
 8.502535e+001 9.384759e+001 9.316678e+001 9.409671e+001 9.471228e+001 1.127665e+002 1.520229e+002 8.787847e+001 5.694267e+001 4.155819e+001 5.347472e+001 3.215402e+001 4.345269e+000 5.537785e+000 5.359841e+000 5.650871e+000 3.623332e+000 7.464314e+000 7.747015e+000 5.834902e+000 4.850079e+000 4.374662e+000 3.866778e+000 2.910804e+000 8.325973e-001
<GCONST> 1.169979e+002
<TRANSP> 5
 0.000000e+000 1.000000e+000 0.000000e+000 0.000000e+000 0.000000e+000
 0.000000e+000 8.281931e-001 1.718069e-001 0.000000e+000 0.000000e+000
 0.000000e+000 0.000000e+000 8.502735e-001 1.497265e-001 0.000000e+000
 0.000000e+000 0.000000e+000 0.000000e+000 8.549632e-001 1.450368e-001
 0.000000e+000 0.000000e+000 0.000000e+000 0.000000e+000 0.000000e+000
<ENDHMM>
~h "ng"
<BEGINHMM>
<NUMSTATES> 5
<STATE> 2
<MEAN> 25
 8.581925e+000 6.510648e+000 1.592847e-001 2.509195e+000 -5.821345e+000 -4.799565e+000 -3.943623e+000 -1.178825e+001 -1.251447e+001 -2.902744e+000 -2.555343e+000 -1.186121e+000 -7.361634e-001 4.446052e-001 3.095493e-001 5.255942e-001 4.552006e-001 2.328713e-001 1.965951e-002 2.763899e-001 7.209870e-001 3.526817e-001 -5.979642e-002 2.343404e-001 -8.162787e-001
<VARIANCE> 25
 2.311753e+001 2.403647e+001 2.289032e+001 2.498798e+001 4.686494e+001 4.194358e+001 1.167664e+002 4.476104e+001 5.253314e+001 7.563712e+001 7.143021e+001 9.999237e+001 4.467977e-001 8.208103e-001 1.064255e+000 1.199982e+000 1.904472e+000 2.148201e+000 2.884250e+000 2.977462e+000 2.885419e+000 2.865062e+000 2.461181e+000 2.717971e+000 1.711417e-001
<GCONST> 9.697068e+001
<STATE> 3
<MEAN> 25
 -2.602463e+000 4.675224e+000 -1.468360e+000 6.640847e+000 4.350846e+000 3.766977e+000 3.900710e+000 -7.072760e-001 8.755158e-001 1.135132e+000 -2.854671e+000 9.683258e-001 -7.819999e-001 -6.445162e-001 -5.165395e-001 -6.221619e-002 2.877922e-001 5.035109e-001 7.227915e-001 8.560454e-001 8.651229e-001 6.553709e-001 5.345532e-001 4.316805e-001 -4.260293e-001
<VARIANCE> 25
 1.641586e+001 3.767610e+001 5.242850e+001 3.191039e+001 2.989927e+001 3.940423e+001 6.057620e+001 5.331203e+001 4.070810e+001 5.149561e+001 6.361702e+001 4.937686e+001 6.423965e-001 1.993806e+000 2.498625e+000 2.604074e+000 2.718283e+000 4.272310e+000 4.263022e+000 4.093507e+000 3.065276e+000 3.621261e+000 3.624051e+000 3.474437e+000 6.122739e-001
<GCONST> 1.025299e+002
<STATE> 4
<MEAN> 25
 -7.939149e+000 3.577615e+000 -5.240555e+000 5.718027e+000 1.955806e+000 -1.600029e+000 4.138435e+000 1.283296e+000 2.253523e+000 5.875632e-001 -1.212471e+000 2.739282e+000 -6.687239e-002 -3.418880e-002 -2.177615e-002 -1.690766e-002 -6.962130e-003 -5.066922e-003 1.257596e-002 5.627929e-002 4.571735e-002 3.370491e-002 3.416261e-002 2.167806e-002 -4.097626e-002
<VARIANCE> 25
 1.478059e+001 5.194337e+000 9.489082e+000 9.566061e+000 9.987804e+000 1.083079e+001 1.249853e+001 1.313637e+001 1.929231e+001 1.737284e+001 1.400408e+001 1.538732e+001 2.018594e-001 3.150730e-001 4.959778e-001 6.089479e-001 7.910988e-001 9.405202e-001 1.081210e+000 1.238629e+000 1.270932e+000 1.348020e+000 1.314348e+000 1.127761e+000 8.078525e-002
<GCONST> 7.022849e+001
<TRANSP> 5
 0.000000e+000 1.000000e+000 0.000000e+000 0.000000e+000 0.000000e+000
 0.000000e+000 9.035818e-001 9.641821e-002 0.000000e+000 0.000000e+000
 0.000000e+000 0.000000e+000 8.457481e-001 1.542519e-001 0.000000e+000
 0.000000e+000 0.000000e+000 0.000000e+000 9.514048e-001 4.859521e-002
 0.000000e+000 0.000000e+000 0.000000e+000 0.000000e+000 0.000000e+000
<ENDHMM>
~h "ny"
<BEGINHMM>
<NUMSTATES> 5
<STATE> 2
<MEAN> 25
 3.370832e-001 2.981680e+000 3.228977e+000 2.157126e+000 5.284065e-001 1.593786e+000 -5.392354e-002 -2.960546e+000 -6.500040e-001 1.251833e+000 2.364139e-001 2.237274e-001 1.145583e+000 1.944889e-002 1.781329e+000 -1.028457e+000 -1.137408e+000 -4.995722e-001 -1.240935e+000 -1.068551e+000 -1.388477e+000 -1.301485e+000 -5.105132e-001 -8.341384e-001 1.840353e+000
<VARIANCE> 25
 9.647223e+001 7.480806e+001 9.648508e+001 6.047795e+001 5.647992e+001 6.187379e+001 6.505560e+001 6.301219e+001 6.694418e+001 5.159678e+001 5.873046e+001 3.363214e+001 5.262522e+000 7.471848e+000 8.939605e+000 5.725405e+000 5.301834e+000 8.401346e+000 6.248866e+000 7.447322e+000 6.908094e+000 5.488171e+000 6.053151e+000 3.272144e+000 4.768650e+000
<GCONST> 1.191433e+002
<STATE> 3
<MEAN> 25
 4.764647e+000 -2.769275e+000 5.854761e+000 -5.890049e+000 -5.063518e+000 -6.746475e+000 -2.643532e+000 -7.078410e+000 -9.146737e+000 -8.227110e+000 -5.825337e+000 -8.877691e+000 2.711828e-001 -1.734814e+000 -7.459459e-001 -4.227163e-001 1.680109e-001 -6.818026e-001 1.151920e-001 5.872676e-001 2.052350e-002 1.675258e-002 3.389471e-001 -5.082040e-001 1.236998e+000
<VARIANCE> 25
 1.876921e+001 8.302070e+001 8.317814e+001 8.809676e+001 2.999701e+001 7.261716e+001 5.317968e+001 5.792625e+001 3.367319e+001 3.390585e+001 4.592616e+001 3.217767e+001 1.505583e+000 5.660486e+000 4.930541e+000 8.695972e+000 2.870392e+000 6.957018e+000 4.895912e+000 2.828094e+000 2.956739e+000 2.531345e+000 3.121854e+000 2.508169e+000 5.042353e+000
<GCONST> 1.094673e+002
<STATE> 4
<MEAN> 25
 8.083908e+000 -1.065536e+001 2.163139e+000 -7.803074e+000 -2.738306e+000 -2.245370e+000 -2.803344e+000 -7.433012e-001 -7.602510e+000 -6.348841e+000 2.905064e+000 -7.360944e+000 6.020202e-002 1.406070e-001 -1.328098e-001 -8.439775e-002 -7.102069e-002 1.255568e-001 7.706507e-002 2.799523e-002 -1.239977e-002 -8.553574e-002 6.193453e-002 1.629815e-001 -1.256442e-001
<VARIANCE> 25
 1.909677e+001 8.084988e+001 1.255793e+002 6.104857e+001 1.183655e+002 6.394396e+001 6.191281e+001 6.954990e+001 5.107243e+001 7.276276e+001 7.798390e+001 3.336742e+001 1.954381e-001 7.868797e-001 8.830289e-001 1.116992e+000 1.294598e+000 1.551517e+000 1.487037e+000 1.125693e+000 1.245665e+000 1.138072e+000 1.202171e+000 1.051016e+000 2.254075e-001
<GCONST> 9.403745e+001
<TRANSP> 5
 0.000000e+000 1.000000e+000 0.000000e+000 0.000000e+000 0.000000e+000
 0.000000e+000 7.962734e-001 2.037266e-001 0.000000e+000 0.000000e+000
 0.000000e+000 0.000000e+000 8.202086e-001 1.797914e-001 0.000000e+000
 0.000000e+000 0.000000e+000 0.000000e+000 9.210987e-001 7.890130e-002
 0.000000e+000 0.000000e+000 0.000000e+000 0.000000e+000 0.000000e+000
<ENDHMM>
~h "sp"
<BEGINHMM>
<NUMSTATES> 3
<STATE> 2
~s "silst"
<TRANSP> 3
 0.000000e+000 5.040865e-001 4.959135e-001
 0.000000e+000 9.807485e-001 1.925143e-002
 0.000000e+000 0.000000e+000 0.000000e+000
<ENDHMM>
~h "uw"
<BEGINHMM>
<NUMSTATES> 5
<STATE> 2
<MEAN> 25
 8.805915e+000 4.365759e-001 -3.112288e-001 -7.394543e+000 -1.976293e+000 -3.825899e+000 -5.923878e+000 -3.873152e+000 -1.914923e+000 -3.846781e+000 -2.584571e+000 -2.666458e+000 6.171195e-001 9.035133e-001 2.232292e-001 -4.301444e-001 -6.496981e-001 -6.726887e-001 -3.395196e-002 -4.631370e-001 -7.076463e-001 -4.632183e-001 -2.604305e-001 -1.691674e-001 3.029932e-002
<VARIANCE> 25
 3.949340e+001 7.867651e+001 9.071819e+001 1.029441e+002 6.197102e+001 9.731001e+001 8.905113e+001 8.539211e+001 7.146259e+001 7.298717e+001 8.072978e+001 4.602102e+001 2.080447e+000 6.045620e+000 6.584697e+000 9.046081e+000 6.044431e+000 6.729495e+000 7.019350e+000 6.826489e+000 6.072555e+000 5.694366e+000 6.201949e+000 4.417351e+000 3.487732e+000
<GCONST> 1.198481e+002
<STATE> 3
<MEAN> 25
 8.536168e+000 7.637330e+000 8.856912e+000 -8.543353e+000 -1.200008e+001 -7.177697e+000 -4.620492e+000 -3.898022e+000 -4.254879e+000 -3.860950e+000 -4.079490e+000 -6.543264e+000 -2.454569e-002 -6.173448e-003 -3.595031e-001 -3.182942e-002 9.145068e-002 2.761053e-001 2.467760e-001 -2.345430e-001 -1.251634e-001 -9.473933e-002 -5.755327e-002 1.906189e-001 -1.585734e-001
<VARIANCE> 25
 1.373717e+001 5.125570e+001 9.717811e+001 7.358429e+001 8.670131e+001 1.048678e+002 6.470753e+001 8.573611e+001 6.864165e+001 6.836155e+001 9.684859e+001 5.094170e+001 4.261876e-001 1.742502e+000 2.566556e+000 2.284818e+000 3.634426e+000 3.548962e+000 3.298835e+000 4.072361e+000 3.230265e+000 3.621652e+000 3.348086e+000 3.035295e+000 6.393890e-001
<GCONST> 1.070298e+002
<STATE> 4
<MEAN> 25
 1.200671e+001 4.814469e+000 -3.636926e+000 -1.276083e+001 -4.976224e+000 -3.680689e+000 -3.611025e+000 -1.086258e+001 -8.287364e+000 -6.056194e+000 -4.273396e-003 2.373371e+000 -2.909319e-001 5.626849e-002 4.915871e-002 5.524915e-001 1.015312e-001 2.772722e-001 9.022383e-002 2.205208e-001 1.292624e-001 3.516176e-001 2.257825e-001 1.671288e-001 -4.597923e-001
<VARIANCE> 25
 3.532439e+001 3.238887e+001 6.015174e+001 1.071969e+002 5.082747e+001 9.030603e+001 4.145112e+001 5.977929e+001 5.248969e+001 4.540735e+001 1.332691e+002 5.692548e+001 5.467754e-001 8.238875e-001 1.231495e+000 1.823263e+000 1.493332e+000 1.562163e+000 1.802800e+000 2.195366e+000 2.193918e+000 2.035459e+000 2.510369e+000 1.981315e+000 4.514932e-001
<GCONST> 9.925767e+001
<TRANSP> 5
 0.000000e+000 1.000000e+000 0.000000e+000 0.000000e+000 0.000000e+000
 0.000000e+000 8.050002e-001 1.949998e-001 0.000000e+000 0.000000e+000
 0.000000e+000 0.000000e+000 8.618525e-001 1.381475e-001 0.000000e+000
 0.000000e+000 0.000000e+000 0.000000e+000 8.846911e-001 1.153090e-001
 0.000000e+000 0.000000e+000 0.000000e+000 0.000000e+000 0.000000e+000
<ENDHMM>
~h "sil"
<BEGINHMM>
<NUMSTATES> 5
<STATE> 2
<MEAN> 25
 -1.075345e+001 3.110022e+000 -5.994051e+000 4.729646e+000 2.536185e+000 -1.256975e+000 4.426417e+000 2.215072e+000 4.158780e+000 1.648682e+000 -9.257254e-001 4.458400e+000 -9.885828e-003 -3.110488e-004 8.866655e-004 -2.401558e-003 -4.906043e-003 -2.694899e-003 -1.909147e-003 -4.242382e-004 1.304209e-003 5.284629e-003 1.439174e-003 -1.686175e-003 -7.049624e-003
<VARIANCE> 25
 3.647520e+001 8.358084e+000 1.049994e+001 1.116800e+001 1.081236e+001 1.127364e+001 1.152725e+001 1.157930e+001 1.969537e+001 1.941188e+001 1.291661e+001 1.519539e+001 1.023893e-001 1.958034e-001 2.977021e-001 4.413739e-001 5.495026e-001 6.229373e-001 8.097774e-001 9.549916e-001 1.009884e+000 9.538364e-001 8.828507e-001 8.444192e-001 3.510457e-002
<GCONST> 6.640527e+001
<STATE> 3
~s "silst"
<STATE> 4
<MEAN> 25
 6.566346e+000 -2.398494e+000 3.149428e+000 -3.523924e+000 -1.637948e+000 1.303675e+000 -3.224612e+000 -1.295966e+000 -7.251017e-001 1.941844e-001 4.942888e-001 -1.926111e+000 8.331133e-002 -1.175834e-003 3.891430e-002 -9.427110e-003 -5.667102e-003 1.523908e-003 -2.288335e-002 -1.794157e-002 -2.445369e-002 -2.982030e-002 -1.131453e-002 -3.243759e-002 8.307473e-002
<VARIANCE> 25
 1.269536e+002 1.408940e+002 1.034758e+002 1.182062e+002 7.052414e+001 5.749854e+001 8.278252e+001 7.364406e+001 7.879196e+001 6.506689e+001 7.256486e+001 4.701557e+001 2.140655e+000 3.284490e+000 2.737540e+000 3.068379e+000 2.437411e+000 2.540771e+000 3.335710e+000 2.982201e+000 3.013090e+000 2.539555e+000 2.766829e+000 2.219726e+000 2.846110e+000
<GCONST> 1.119462e+002
<TRANSP> 5
 0.000000e+000 1.000000e+000 0.000000e+000 0.000000e+000 0.000000e+000
 0.000000e+000 9.637189e-001 8.014229e-003 2.826687e-002 0.000000e+000
 0.000000e+000 0.000000e+000 9.734275e-001 2.657245e-002 0.000000e+000
 0.000000e+000 4.045144e-002 0.000000e+000 9.402151e-001 1.933345e-002
 0.000000e+000 0.000000e+000 0.000000e+000 0.000000e+000 0.000000e+000
<ENDHMM>
