~o
<STREAMINFO> 1 25
<VECSIZE> 25<NULLD><MFCC_D_N_Z_0><DIAGC>
~s "silst"
<MEAN> 25
 -6.538230e+000 4.410872e-002 -2.664384e+000 -1.673372e+000 -9.589257e-001 2.552833e+000 9.399616e-001 -2.792499e-001 2.413671e+000 3.543486e+000 1.097779e+000 1.917846e+000 -2.734576e-002 -8.495863e-003 -1.660927e-002 -7.902681e-003 -2.011198e-002 -2.445293e-003 -6.138728e-003 1.150374e-002 9.739717e-003 2.254335e-002 1.199420e-002 1.125234e-002 -4.358001e-002
<VARIANCE> 25
 4.041035e+001 5.199777e+000 1.647146e+001 1.310230e+001 1.410945e+001 1.458171e+001 1.018595e+001 9.325432e+000 1.056463e+001 7.006471e+000 7.021930e+000 9.786935e+000 1.015808e-001 1.395822e-001 2.334127e-001 3.110598e-001 3.933744e-001 4.747416e-001 5.577661e-001 5.711467e-001 6.168652e-001 5.761538e-001 5.430648e-001 5.143708e-001 2.097945e-001
<GCONST> 6.151177e+001
~h "b"
<BEGINHMM>
<NUMSTATES> 5
<STATE> 2
<MEAN> 25
 -6.465396e-001 3.613524e+000 -2.702140e-001 2.336821e+000 1.431637e+000 9.974185e-002 1.549948e+000 -1.024957e+000 1.602629e-001 2.827796e-001 -5.288219e-001 -2.290533e-001 -4.698552e-001 9.913366e-002 -2.548445e-002 4.725044e-001 4.604728e-001 5.775461e-001 8.318350e-001 5.494891e-001 6.151767e-001 5.938827e-001 1.655849e-001 1.013161e-001 -6.563877e-001
<VARIANCE> 25
 5.683527e+001 4.534620e+001 5.048973e+001 4.022618e+001 4.224148e+001 5.405058e+001 5.334197e+001 4.255914e+001 4.565187e+001 4.358820e+001 4.742175e+001 3.423395e+001 1.463662e+000 2.337247e+000 3.119669e+000 2.573156e+000 2.543725e+000 3.183809e+000 3.210658e+000 3.259613e+000 3.163422e+000 2.642455e+000 2.698520e+000 2.416677e+000 1.005737e+000
<GCONST> 1.036235e+002
<STATE> 3
<MEAN> 25
 -6.111893e-001 5.240561e+000 2.075918e+000 4.182283e+000 1.944130e+000 8.579223e-001 2.360271e+000 -2.377018e-001 7.097524e-001 5.491242e-001 -9.797148e-001 -9.179526e-001 2.608169e-001 5.668787e-001 4.739275e-001 3.720907e-001 1.466108e-001 1.249810e-001 2.154272e-001 1.537719e-001 1.728068e-002 -8.441012e-002 -3.447228e-001 -3.698483e-001 -7.838108e-002
<VARIANCE> 25
 6.658186e+001 4.602533e+001 4.824981e+001 2.887876e+001 3.472472e+001 3.947316e+001 3.811568e+001 2.858231e+001 3.092610e+001 3.256431e+001 2.959859e+001 2.630451e+001 2.811667e+000 2.624723e+000 2.301096e+000 1.900620e+000 2.346342e+000 2.327554e+000 2.420667e+000 2.010547e+000 2.195814e+000 2.101091e+000 2.014570e+000 1.919162e+000 1.361698e+000
<GCONST> 9.894730e+001
<STATE> 4
<MEAN> 25
 -6.189184e+000 3.235793e+000 -3.803604e-001 4.694685e+000 1.819100e+000 2.258873e+000 3.446770e+000 1.702102e+000 1.699290e+000 2.742972e+000 8.566866e-001 1.037628e+000 -5.072586e-002 2.943928e-003 1.302289e-002 2.277601e-002 2.034562e-002 3.669629e-002 3.690418e-002 2.054116e-002 9.810374e-003 3.177186e-002 1.535663e-003 -2.330113e-002 -4.002029e-002
<VARIANCE> 25
 3.394583e+001 1.762049e+001 2.860844e+001 1.623907e+001 1.440921e+001 2.438363e+001 1.584573e+001 2.131379e+001 1.930189e+001 2.260285e+001 1.942359e+001 1.793922e+001 2.086818e-001 3.244122e-001 4.980715e-001 6.299822e-001 7.912171e-001 9.344953e-001 1.107585e+000 1.198617e+000 1.249717e+000 1.212191e+000 1.155988e+000 1.065394e+000 9.925938e-002
<GCONST> 7.654095e+001
<TRANSP> 5
 0.000000e+000 1.000000e+000 0.000000e+000 0.000000e+000 0.000000e+000
 0.000000e+000 5.827279e-001 4.172721e-001 0.000000e+000 0.000000e+000
 0.000000e+000 0.000000e+000 4.633196e-001 5.366805e-001 0.000000e+000
 0.000000e+000 0.000000e+000 0.000000e+000 9.297171e-001 7.028291e-002
 0.000000e+000 0.000000e+000 0.000000e+000 0.000000e+000 0.000000e+000
<ENDHMM>
~h "d"
<BEGINHMM>
<NUMSTATES> 5
<STATE> 2
<MEAN> 25
 1.126356e-001 5.441278e+000 4.216081e+000 4.697832e+000 2.334098e+000 1.070020e+000 1.773266e+000 -1.711499e+000 2.137590e-001 8.717791e-001 -8.354590e-001 -7.424112e-001 1.150021e+000 -5.566065e-001 7.623995e-001 -3.355696e-001 -1.484416e-001 -6.559451e-001 -7.961215e-001 -3.827412e-001 -6.113167e-001 -4.909060e-001 3.433350e-002 -5.563803e-001 2.148360e+000
<VARIANCE> 25
 5.912586e+001 6.673099e+001 4.866700e+001 3.865292e+001 5.248833e+001 4.478237e+001 3.585817e+001 3.547324e+001 3.787821e+001 2.801036e+001 3.085765e+001 2.753243e+001 5.173214e+000 1.092248e+001 5.008066e+000 5.407121e+000 4.383023e+000 5.479269e+000 5.286781e+000 4.798802e+000 4.881438e+000 4.072766e+000 3.655176e+000 2.919354e+000 4.805635e+000
<GCONST> 1.110618e+002
<STATE> 3
<MEAN> 25
 6.467385e+000 -4.004853e+000 4.280682e+000 -3.125259e+000 -1.968203e+000 -4.216063e+000 -5.115420e+000 -6.387420e-001 -3.000287e+000 -2.641437e+000 3.459752e-001 -2.911004e+000 7.247736e-001 -1.837163e+000 -6.114343e-001 -1.624258e+000 -5.886118e-001 -8.112709e-001 -1.182479e+000 8.654646e-001 -2.428480e-001 -6.732466e-001 1.160375e-001 1.580235e-001 2.358540e+000
<VARIANCE> 25
 3.514091e+001 8.135013e+001 6.169954e+001 8.629237e+001 1.028269e+002 7.952995e+001 1.023887e+002 8.385706e+001 7.056441e+001 6.111540e+001 6.378147e+001 4.350792e+001 2.544287e+000 7.481118e+000 4.488422e+000 6.648195e+000 6.064670e+000 7.210948e+000 1.108517e+001 6.418753e+000 7.339518e+000 6.895840e+000 6.550392e+000 4.825316e+000 5.859378e+000
<GCONST> 1.203805e+002
<STATE> 4
<MEAN> 25
 9.155807e+000 -1.102465e+001 2.108259e+000 -8.689907e+000 -8.438808e-001 -2.181848e+000 -5.816442e+000 1.441400e+000 -2.845471e+000 -3.061771e+000 6.519095e-001 -2.195892e+000 -3.159549e-003 1.012036e-001 -2.308058e-001 1.390961e-001 8.216087e-002 1.329518e-001 2.532988e-001 -7.007268e-002 1.269709e-002 -3.307974e-002 -7.473839e-002 6.159159e-002 -2.938502e-001
<VARIANCE> 25
 2.481981e+001 8.890390e+001 6.413885e+001 8.378638e+001 5.533763e+001 6.329805e+001 1.025280e+002 8.972050e+001 6.635429e+001 8.417312e+001 9.918393e+001 6.051855e+001 3.193809e-001 1.282892e+000 1.002517e+000 1.696418e+000 1.839087e+000 1.694837e+000 2.079453e+000 1.996447e+000 1.714388e+000 1.836511e+000 1.964740e+000 1.841394e+000 6.655309e-001
<GCONST> 1.010761e+002
<TRANSP> 5
 0.000000e+000 1.000000e+000 0.000000e+000 0.000000e+000 0.000000e+000
 0.000000e+000 7.309271e-001 2.690729e-001 0.000000e+000 0.000000e+000
 0.000000e+000 0.000000e+000 7.204721e-001 2.795279e-001 0.000000e+000
 0.000000e+000 0.000000e+000 0.000000e+000 9.194217e-001 8.057828e-002
 0.000000e+000 0.000000e+000 0.000000e+000 0.000000e+000 0.000000e+000
<ENDHMM>
~h "g"
<BEGINHMM>
<NUMSTATES> 5
<STATE> 2
<MEAN> 25
 -1.769746e+000 5.651271e+000 5.248853e+000 5.856903e+000 3.667059e+000 2.321603e+000 2.316175e+000 -1.495905e+000 6.160207e-001 1.655414e+000 -3.035556e-001 -3.930945e-001 3.097836e-001 -4.954217e-002 2.328757e-001 3.202625e-001 3.792274e-001 1.860284e-001 2.342994e-001 -8.324989e-002 -2.440676e-001 -7.323891e-003 -5.800218e-002 -3.822623e-001 5.619409e-001
<VARIANCE> 25
 3.672012e+001 4.076692e+001 5.118304e+001 2.640266e+001 3.351606e+001 2.689546e+001 2.361592e+001 2.353446e+001 2.358905e+001 2.235802e+001 2.325214e+001 1.739389e+001 2.980759e+000 4.233151e+000 3.302654e+000 3.499722e+000 2.324815e+000 2.252961e+000 2.552240e+000 2.529869e+000 2.461337e+000 2.416711e+000 1.923209e+000 1.627728e+000 2.234945e+000
<GCONST> 9.809392e+001
<STATE> 3
<MEAN> 25
 -2.009267e-001 -8.247792e-002 4.292315e+000 1.096444e+000 2.754872e-001 -4.703619e-001 -2.759905e-001 -2.844074e-001 3.493434e-001 -2.198619e-001 -8.342885e-001 -1.168295e+000 6.014292e-001 -8.917636e-001 -4.191845e-002 -1.715447e+000 -4.482522e-001 -5.800997e-001 -9.636543e-001 3.619936e-001 -2.252522e-001 -6.139094e-001 1.900475e-002 -1.327316e-001 2.372400e+000
<VARIANCE> 25
 8.116247e+001 1.253791e+002 9.601134e+001 8.144293e+001 8.672988e+001 8.178092e+001 7.449577e+001 6.266566e+001 6.085635e+001 4.996528e+001 4.788128e+001 3.857192e+001 7.568298e+000 1.084864e+001 7.694643e+000 8.505520e+000 6.794514e+000 7.352585e+000 7.195857e+000 6.602925e+000 6.279252e+000 5.976702e+000 4.387778e+000 3.711679e+000 5.336244e+000
<GCONST> 1.214470e+002
<STATE> 4
<MEAN> 25
 2.839719e+000 -3.707079e+000 8.039992e+000 1.714966e+000 4.857271e+000 -4.356739e-001 -7.094812e+000 6.426867e-001 1.762691e-001 -3.786359e+000 -1.186519e+000 -2.781604e+000 1.329895e-001 2.201487e-001 -1.128058e-001 -1.778010e-002 1.844509e-002 -5.971863e-002 -9.317063e-002 -5.070152e-002 -1.381557e-001 -3.500219e-002 -1.621894e-002 5.005486e-002 -8.060540e-002
<VARIANCE> 25
 6.099380e+001 1.122726e+002 1.126173e+002 1.476445e+002 7.167688e+001 3.661316e+001 7.638318e+001 4.900365e+001 4.811644e+001 5.963480e+001 4.301220e+001 2.622319e+001 7.648242e-001 1.637800e+000 1.465659e+000 1.707756e+000 1.690549e+000 1.601803e+000 2.848816e+000 1.622655e+000 1.693971e+000 1.957579e+000 1.768923e+000 1.383659e+000 1.000574e+000
<GCONST> 1.013520e+002
<TRANSP> 5
 0.000000e+000 1.000000e+000 0.000000e+000 0.000000e+000 0.000000e+000
 0.000000e+000 7.340768e-001 2.659232e-001 0.000000e+000 0.000000e+000
 0.000000e+000 0.000000e+000 7.477345e-001 2.522654e-001 0.000000e+000
 0.000000e+000 0.000000e+000 0.000000e+000 8.029481e-001 1.970519e-001
 0.000000e+000 0.000000e+000 0.000000e+000 0.000000e+000 0.000000e+000
<ENDHMM>
~h "k"
<BEGINHMM>
<NUMSTATES> 5
<STATE> 2
<MEAN> 25
 -1.109566e+000 -1.348464e+000 -2.068744e+000 -2.722723e-002 1.560451e+000 -4.045154e-001 8.181294e-001 7.706248e-001 1.119285e+000 1.774339e+000 1.043058e+000 -2.192347e-001 1.742842e+000 -9.437839e-001 -1.016678e+000 -1.806682e+000 -5.644714e-001 -7.220040e-001 -4.308511e-001 3.623712e-001 -6.352972e-001 -2.934873e-001 2.839849e-001 -3.294636e-001 2.665941e+000
<VARIANCE> 25
 6.639783e+001 6.944501e+001 7.390910e+001 9.324699e+001 5.813264e+001 5.720921e+001 5.358062e+001 5.202309e+001 4.433282e+001 4.325631e+001 3.715273e+001 3.067994e+001 5.542187e+000 7.276243e+000 7.795023e+000 1.047885e+001 6.396358e+000 6.772496e+000 6.230338e+000 6.900849e+000 5.080361e+000 5.418144e+000 4.249341e+000 3.438807e+000 6.766502e+000
<GCONST> 1.173996e+002
<STATE> 3
<MEAN> 25
 8.700515e+000 -2.486041e+000 -4.791259e+000 -7.732701e+000 -3.100241e+000 -1.672146e+000 -1.557942e+000 -2.575815e-001 -4.043907e+000 -1.649521e+000 2.453559e+000 -8.634882e-001 1.077653e+000 -9.302819e-002 1.315916e-001 -1.714170e-001 -2.438810e-001 -4.008867e-001 -5.950726e-001 -3.455819e-001 -5.028145e-001 -6.056845e-001 -2.399474e-001 -1.588247e-001 8.517703e-001
<VARIANCE> 25
 6.971634e+001 1.138072e+002 1.019632e+002 1.085416e+002 6.617513e+001 8.513672e+001 7.193770e+001 7.875871e+001 6.338703e+001 7.474472e+001 6.139432e+001 3.940296e+001 3.399310e+000 5.162330e+000 4.478057e+000 6.610529e+000 4.385509e+000 3.887449e+000 5.478138e+000 6.340026e+000 4.099345e+000 4.843278e+000 3.643389e+000 3.197409e+000 2.659661e+000
<GCONST> 1.168293e+002
<STATE> 4
<MEAN> 25
 1.128921e+001 -9.319386e+000 -2.058918e+000 -7.729077e+000 -6.409325e-001 -2.833467e+000 -2.843692e+000 -2.223605e-001 -3.603224e+000 -2.113465e+000 -1.138747e-001 -2.322881e+000 -1.072910e-001 1.474393e-001 2.390726e-002 1.196481e-001 2.834114e-002 1.517790e-001 7.778816e-002 -1.279859e-002 4.684031e-002 6.817046e-002 -6.935378e-003 1.186946e-002 -2.200036e-001
<VARIANCE> 25
 5.850135e+001 1.550411e+002 8.461378e+001 1.499708e+002 7.345760e+001 1.000481e+002 5.954550e+001 8.904247e+001 5.788178e+001 7.777343e+001 6.607426e+001 4.425699e+001 3.425139e-001 9.654334e-001 9.864879e-001 1.386677e+000 1.378277e+000 1.296558e+000 1.602021e+000 1.615128e+000 1.534212e+000 1.504621e+000 1.575544e+000 1.286708e+000 4.040841e-001
<GCONST> 9.975444e+001
<TRANSP> 5
 0.000000e+000 1.000000e+000 0.000000e+000 0.000000e+000 0.000000e+000
 0.000000e+000 7.276164e-001 2.723837e-001 0.000000e+000 0.000000e+000
 0.000000e+000 0.000000e+000 7.108828e-001 2.891172e-001 0.000000e+000
 0.000000e+000 0.000000e+000 0.000000e+000 8.992908e-001 1.007092e-001
 0.000000e+000 0.000000e+000 0.000000e+000 0.000000e+000 0.000000e+000
<ENDHMM>
~h "l"
<BEGINHMM>
<NUMSTATES> 5
<STATE> 2
<MEAN> 25
 3.552553e+000 -3.653972e-001 2.994728e+000 -1.268986e+000 -1.986267e+000 -2.623499e+000 -3.316519e+000 -1.493025e+000 -5.711511e-002 -3.996125e-001 -1.586306e-001 -1.304973e+000 7.533234e-001 -7.460204e-001 -2.932971e-001 -4.386742e-001 -8.716268e-002 -7.183396e-001 -5.027021e-001 8.874101e-002 1.882122e-001 -5.911541e-001 -1.752827e-001 1.540945e-001 1.433205e+000
<VARIANCE> 25
 9.480268e+001 8.230252e+001 8.739127e+001 9.037938e+001 8.240941e+001 9.647483e+001 8.364694e+001 9.050887e+001 7.260051e+001 6.548156e+001 6.267335e+001 4.552380e+001 4.495570e+000 7.106187e+000 6.073583e+000 8.281091e+000 5.965212e+000 8.138281e+000 8.006550e+000 8.174142e+000 7.088257e+000 5.601835e+000 5.278280e+000 4.531717e+000 5.383675e+000
<GCONST> 1.222048e+002
<STATE> 3
<MEAN> 25
 9.348571e+000 -3.480932e+000 -2.769901e+000 -6.376951e+000 -1.378579e+000 -7.984824e+000 -5.169799e+000 1.148893e+000 3.711420e+000 -5.405567e+000 -3.411983e+000 2.441035e+000 6.914049e-002 -7.736764e-001 -8.344792e-001 -1.887504e-001 4.820715e-001 6.028005e-001 7.486047e-001 -1.563815e-001 -3.556776e-001 -2.620907e-001 -2.970826e-001 2.047187e-001 3.003185e-001
<VARIANCE> 25
 3.264409e+001 5.345076e+001 5.552563e+001 6.335922e+001 5.337051e+001 1.029202e+002 8.503912e+001 8.997657e+001 1.281500e+002 6.282639e+001 6.366661e+001 5.611180e+001 8.783498e-001 2.766520e+000 2.383142e+000 3.307936e+000 3.364875e+000 5.481635e+000 3.946840e+000 3.821408e+000 4.805947e+000 4.029551e+000 3.637200e+000 2.831043e+000 1.028948e+000
<GCONST> 1.102103e+002
<STATE> 4
<MEAN> 25
 1.091094e+001 -8.705183e+000 -2.975436e+000 -7.190951e+000 -1.455116e+000 -4.083780e+000 -2.783896e+000 -4.870511e-002 -2.456525e+000 -5.857868e+000 -1.179707e+000 -6.072169e-001 -3.268431e-002 1.276104e-001 -6.706443e-002 8.783541e-002 -2.761045e-002 3.387774e-002 1.172863e-001 -1.139145e-001 -1.494599e-002 1.395534e-002 3.964437e-002 -3.560750e-002 -2.011784e-001
<VARIANCE> 25
 3.994003e+001 8.723296e+001 8.420064e+001 8.533374e+001 8.785629e+001 1.042732e+002 6.398553e+001 8.211313e+001 7.207030e+001 6.811666e+001 8.438859e+001 4.886637e+001 2.767634e-001 1.191128e+000 1.032757e+000 1.423177e+000 1.477070e+000 1.620728e+000 1.673262e+000 1.690349e+000 1.750151e+000 1.717383e+000 1.649571e+000 1.469655e+000 4.167551e-001
<GCONST> 9.979439e+001
<TRANSP> 5
 0.000000e+000 1.000000e+000 0.000000e+000 0.000000e+000 0.000000e+000
 0.000000e+000 7.543679e-001 2.456321e-001 0.000000e+000 0.000000e+000
 0.000000e+000 0.000000e+000 7.247232e-001 2.752767e-001 0.000000e+000
 0.000000e+000 0.000000e+000 0.000000e+000 9.139511e-001 8.604889e-002
 0.000000e+000 0.000000e+000 0.000000e+000 0.000000e+000 0.000000e+000
<ENDHMM>
~h "m"
<BEGINHMM>
<NUMSTATES> 5
<STATE> 2
<MEAN> 25
 3.281332e+000 1.545646e+000 1.282523e+000 1.696984e+000 1.189245e+000 -3.266160e-001 2.942005e-001 -1.783057e+000 -7.917308e-001 4.808919e-001 -7.602132e-001 -1.978430e+000 1.582377e+000 -7.270681e-001 -3.122879e-001 -8.844951e-001 6.557995e-003 -4.783194e-001 -6.571286e-001 -1.603893e-001 -4.048736e-001 -6.688585e-001 -5.533608e-001 -6.423723e-001 2.039399e+000
<VARIANCE> 25
 7.860995e+001 6.858880e+001 5.221928e+001 5.675769e+001 4.875186e+001 5.996080e+001 7.276129e+001 5.982683e+001 5.336145e+001 4.157130e+001 4.706154e+001 3.749091e+001 5.006700e+000 7.850592e+000 5.544168e+000 8.187509e+000 5.289178e+000 5.852976e+000 5.654812e+000 6.633404e+000 5.677819e+000 4.474490e+000 4.339033e+000 3.384742e+000 7.148574e+000
<GCONST> 1.165057e+002
<STATE> 3
<MEAN> 25
 9.043418e+000 -4.886099e+000 -2.942207e+000 -5.194949e+000 2.211320e+000 -3.135185e+000 -3.227298e+000 4.304933e-001 -1.631771e+000 -5.658667e+000 -3.161024e+000 -3.842961e+000 1.425339e-001 -1.314651e+000 -2.549486e-001 -5.732743e-001 5.687090e-001 3.000643e-002 1.560357e-001 5.729572e-001 -4.475176e-002 -5.074180e-001 -4.794629e-002 1.355056e-002 9.974209e-001
<VARIANCE> 25
 3.074973e+001 7.666271e+001 4.754385e+001 8.074243e+001 7.587602e+001 7.545923e+001 6.568546e+001 8.135251e+001 6.668317e+001 6.016396e+001 4.663322e+001 3.908396e+001 2.376764e+000 7.585408e+000 4.385430e+000 7.404879e+000 5.933101e+000 4.975112e+000 5.550288e+000 5.495507e+000 4.693916e+000 4.775020e+000 4.722971e+000 3.453264e+000 5.802208e+000
<GCONST> 1.158414e+002
<STATE> 4
<MEAN> 25
 9.480355e+000 -5.825110e+000 3.138998e-001 -3.597491e+000 2.845254e+000 -1.833346e-001 -2.760725e+000 -1.971378e+000 -4.067176e+000 -2.718246e+000 -3.364856e+000 -5.489256e+000 -2.056587e-001 4.757486e-001 1.143040e-001 4.148172e-001 -5.411202e-002 8.383600e-002 1.457617e-001 -1.453551e-001 2.972293e-004 7.420214e-002 -4.321649e-002 6.288318e-002 -5.544450e-001
<VARIANCE> 25
 2.532947e+001 1.373383e+002 4.328304e+001 1.331584e+002 6.000778e+001 4.878901e+001 7.919775e+001 8.756125e+001 7.356277e+001 8.041448e+001 6.912989e+001 3.821436e+001 5.315006e-001 1.420955e+000 1.066777e+000 1.762842e+000 1.514080e+000 1.460867e+000 2.014632e+000 2.205448e+000 1.966878e+000 1.790605e+000 2.021302e+000 1.575773e+000 6.908786e-001
<GCONST> 1.008352e+002
<TRANSP> 5
 0.000000e+000 1.000000e+000 0.000000e+000 0.000000e+000 0.000000e+000
 0.000000e+000 6.583184e-001 3.416816e-001 0.000000e+000 0.000000e+000
 0.000000e+000 0.000000e+000 6.484632e-001 3.515368e-001 0.000000e+000
 0.000000e+000 0.000000e+000 0.000000e+000 9.265990e-001 7.340100e-002
 0.000000e+000 0.000000e+000 0.000000e+000 0.000000e+000 0.000000e+000
<ENDHMM>
~h "n"
<BEGINHMM>
<NUMSTATES> 5
<STATE> 2
<MEAN> 25
 2.390772e+000 7.382373e-001 7.294961e-001 -5.126919e-001 -2.392992e-001 -9.955543e-001 -8.044878e-001 -6.756888e-001 -1.292055e+000 -1.285780e+000 -1.798392e-001 -1.069773e+000 1.138004e+000 4.897741e-001 4.998019e-001 5.902928e-002 -3.680043e-001 -4.676799e-001 -6.447035e-001 -6.595244e-001 -6.575853e-001 -5.462770e-001 -4.429052e-001 -4.213789e-001 7.233428e-001
<VARIANCE> 25
 7.661523e+001 7.320474e+001 6.720648e+001 7.616204e+001 5.991717e+001 6.087786e+001 5.879823e+001 5.398207e+001 5.151859e+001 5.736760e+001 4.136792e+001 3.107154e+001 5.058196e+000 6.446492e+000 5.075741e+000 7.881091e+000 5.199118e+000 5.316658e+000 6.275758e+000 5.425294e+000 5.005336e+000 4.861410e+000 3.519499e+000 2.851164e+000 7.831302e+000
<GCONST> 1.161110e+002
<STATE> 3
<MEAN> 25
 6.560178e+000 5.293869e-001 6.825675e+000 -1.801899e+000 -3.416238e+000 -4.041180e+000 -5.802279e+000 -9.858119e-001 -4.334536e+000 -6.035233e+000 -1.022336e+000 -3.005914e+000 1.131647e-001 -1.347108e-002 -1.397849e-001 5.131140e-001 1.433702e-001 6.588482e-002 2.302059e-001 -2.651194e-001 -2.906536e-001 -2.856614e-002 -2.229846e-001 -1.884028e-002 -1.719304e-001
<VARIANCE> 25
 4.606999e+001 9.283062e+001 1.259314e+002 1.023088e+002 8.283978e+001 9.406925e+001 8.364483e+001 9.699097e+001 6.926170e+001 8.062704e+001 6.883815e+001 4.157128e+001 1.788446e+000 5.485880e+000 4.083330e+000 5.488606e+000 4.601899e+000 5.463811e+000 5.457555e+000 6.773674e+000 4.732071e+000 4.987980e+000 4.307189e+000 3.153974e+000 3.079572e+000
<GCONST> 1.174435e+002
<STATE> 4
<MEAN> 25
 6.534005e+000 4.365807e+000 3.234317e+000 4.112191e+000 -5.065235e-001 -1.958361e+000 -1.917613e+000 -6.517957e+000 -5.783227e+000 -2.607277e+000 -2.767505e+000 -3.013449e+000 -4.966051e-001 1.672734e-001 3.683794e-002 1.663095e-001 1.489699e-001 1.941751e-001 2.317730e-001 6.665549e-002 2.577477e-001 2.780492e-001 7.040237e-002 1.025996e-001 -5.331835e-001
<VARIANCE> 25
 3.844677e+001 6.594457e+001 3.746879e+001 5.648498e+001 5.761508e+001 4.407677e+001 6.051530e+001 9.846462e+001 6.571987e+001 6.940811e+001 5.530299e+001 3.783587e+001 4.968393e-001 1.300542e+000 1.188763e+000 1.493616e+000 1.704650e+000 1.810592e+000 2.209865e+000 2.845877e+000 2.311684e+000 2.390410e+000 2.386182e+000 1.815862e+000 3.681394e-001
<GCONST> 9.932592e+001
<TRANSP> 5
 0.000000e+000 1.000000e+000 0.000000e+000 0.000000e+000 0.000000e+000
 0.000000e+000 5.118550e-001 4.881451e-001 0.000000e+000 0.000000e+000
 0.000000e+000 0.000000e+000 7.159669e-001 2.840331e-001 0.000000e+000
 0.000000e+000 0.000000e+000 0.000000e+000 8.986018e-001 1.013983e-001
 0.000000e+000 0.000000e+000 0.000000e+000 0.000000e+000 0.000000e+000
<ENDHMM>
~h "p"
<BEGINHMM>
<NUMSTATES> 5
<STATE> 2
<MEAN> 25
 -5.101883e+000 1.655203e+000 1.148453e-001 4.105428e+000 2.658311e+000 2.095733e+000 3.912896e+000 6.540496e-001 2.204018e+000 2.827963e+000 7.354096e-001 9.007301e-001 -1.387501e-001 -5.452206e-001 -1.435367e-001 -2.832334e-001 -5.183518e-002 -4.336509e-002 1.619889e-001 1.642972e-001 1.658395e-001 2.349360e-001 2.715768e-001 9.012277e-002 3.101227e-001
<VARIANCE> 25
 3.238062e+001 2.307164e+001 2.999357e+001 2.500974e+001 2.145504e+001 3.029654e+001 2.515533e+001 2.370000e+001 2.798059e+001 2.297276e+001 2.682780e+001 1.900813e+001 2.131659e+000 1.849035e+000 1.718891e+000 1.953791e+000 2.006390e+000 2.500366e+000 2.559805e+000 2.296439e+000 2.229609e+000 2.023377e+000 2.069456e+000 1.892935e+000 3.191326e+000
<GCONST> 9.475053e+001
<STATE> 3
<MEAN> 25
 1.715785e+000 -4.384369e+000 -1.904681e+000 -2.987563e+000 1.174572e-001 -9.231944e-002 2.346736e-001 8.012841e-001 1.302270e+000 6.805550e-001 6.555780e-001 -6.964834e-001 2.834381e+000 -1.962310e+000 -8.452346e-001 -2.120322e+000 -5.049872e-001 -7.576312e-001 -1.130356e+000 -6.415483e-002 -6.090814e-001 -1.197296e+000 -5.277630e-001 -7.922060e-001 4.214535e+000
<VARIANCE> 25
 7.474300e+001 7.694678e+001 5.632033e+001 6.735088e+001 6.479824e+001 6.123598e+001 4.816132e+001 4.363615e+001 3.590955e+001 3.916097e+001 3.715353e+001 2.692610e+001 5.702610e+000 8.960855e+000 6.700616e+000 9.182796e+000 8.266347e+000 7.831996e+000 5.811822e+000 6.751828e+000 5.072602e+000 5.562805e+000 5.269424e+000 2.998904e+000 8.781623e+000
<GCONST> 1.171046e+002
<STATE> 4
<MEAN> 25
 8.000750e+000 -1.392083e+001 -2.554568e+000 -1.119405e+001 3.400147e+000 4.843917e-001 -1.540276e+000 2.008457e-001 -8.670391e-001 -2.008688e+000 -1.366858e+000 -2.856829e+000 1.274501e-001 1.492247e-001 7.971855e-002 2.151140e-001 -1.443573e-001 -2.461276e-001 -1.896804e-002 -1.172302e-001 -2.272626e-001 -2.112279e-001 -8.507240e-002 1.372861e-002 3.155810e-002
<VARIANCE> 25
 3.811973e+001 8.585197e+001 5.693855e+001 9.771970e+001 8.612954e+001 5.847184e+001 5.859476e+001 5.758800e+001 3.940141e+001 8.807674e+001 4.413655e+001 2.759801e+001 1.288918e+000 2.758215e+000 1.643765e+000 3.201968e+000 2.386377e+000 2.694204e+000 2.729815e+000 2.220977e+000 1.912064e+000 2.176817e+000 1.740918e+000 1.508681e+000 3.045472e+000
<GCONST> 1.046673e+002
<TRANSP> 5
 0.000000e+000 1.000000e+000 0.000000e+000 0.000000e+000 0.000000e+000
 0.000000e+000 7.341001e-001 2.658999e-001 0.000000e+000 0.000000e+000
 0.000000e+000 0.000000e+000 6.691628e-001 3.308372e-001 0.000000e+000
 0.000000e+000 0.000000e+000 0.000000e+000 8.387492e-001 1.612508e-001
 0.000000e+000 0.000000e+000 0.000000e+000 0.000000e+000 0.000000e+000
<ENDHMM>
~h "r"
<BEGINHMM>
<NUMSTATES> 5
<STATE> 2
<MEAN> 25
 1.077992e+001 -1.039398e+001 -5.423856e+000 -3.252369e+000 -2.128278e+000 -1.109832e+000 -2.801990e+000 4.099958e+000 -1.463303e+000 -4.964298e+000 -8.355044e-001 1.596899e+000 -3.771148e-002 -2.909919e-001 -1.792533e-001 2.196319e-002 8.222768e-002 9.882155e-002 1.516296e-001 -6.214823e-002 -1.228098e-002 -3.808725e-002 6.514788e-002 1.097474e-001 2.728641e-002
<VARIANCE> 25
 6.718526e+001 6.007587e+001 5.838647e+001 3.914015e+001 5.294201e+001 1.234056e+002 7.324989e+001 6.023566e+001 4.524666e+001 4.605044e+001 8.796190e+001 3.695197e+001 8.046377e-001 1.574077e+000 1.679283e+000 1.632707e+000 2.265160e+000 2.212205e+000 2.247736e+000 2.081789e+000 1.991861e+000 2.173877e+000 2.255904e+000 1.622576e+000 8.215686e-001
<GCONST> 1.018557e+002
<STATE> 3
<MEAN> 25
 5.978878e+000 -8.689022e+000 -5.595913e+000 -3.209479e+000 2.638007e+000 -1.592566e+000 -1.703954e-001 -2.027876e+000 -1.934876e+000 -7.036304e+000 -1.177080e+000 -4.228779e-002 -2.003849e-001 1.326205e-001 3.552673e-002 1.916594e-001 1.157438e-001 -1.276112e-001 1.924049e-001 -1.803664e-001 1.902263e-001 3.055514e-001 8.801530e-002 -3.525543e-001 -2.934797e-001
<VARIANCE> 25
 4.456560e+001 7.574415e+001 2.928639e+001 3.145603e+001 4.377227e+001 5.449310e+001 5.049750e+001 5.537622e+001 3.079284e+001 5.440832e+001 3.639155e+001 2.997276e+001 5.299690e-001 9.965995e-001 8.996869e-001 1.068812e+000 2.422080e+000 1.897211e+000 1.792149e+000 2.078985e+000 1.797931e+000 1.837512e+000 1.552537e+000 1.684073e+000 5.727887e-001
<GCONST> 9.479026e+001
<STATE> 4
<MEAN> 25
 -4.383737e+000 4.162686e-001 -2.091382e+000 2.266461e+000 5.649382e-001 1.643638e+000 2.858587e+000 1.062779e+000 1.189743e+000 1.768641e+000 1.430601e+000 1.039474e+000 -7.599000e-002 3.163202e-002 3.431881e-002 3.630191e-002 3.263188e-003 3.277055e-002 2.955241e-002 3.844207e-003 2.196088e-002 2.999558e-002 -6.971449e-003 -2.213285e-002 -1.048128e-001
<VARIANCE> 25
 8.403710e+001 3.341257e+001 2.867512e+001 2.657313e+001 1.747834e+001 2.595714e+001 1.659727e+001 2.320740e+001 2.041420e+001 2.462941e+001 1.935231e+001 2.034641e+001 1.750218e-001 3.261664e-001 4.186440e-001 5.485541e-001 7.279996e-001 8.214266e-001 9.748946e-001 1.093138e+000 1.078428e+000 1.020525e+000 9.785568e-001 9.166218e-001 1.057306e-001
<GCONST> 7.774534e+001
<TRANSP> 5
 0.000000e+000 1.000000e+000 0.000000e+000 0.000000e+000 0.000000e+000
 0.000000e+000 8.379135e-001 1.620865e-001 0.000000e+000 0.000000e+000
 0.000000e+000 0.000000e+000 7.303568e-001 2.696432e-001 0.000000e+000
 0.000000e+000 0.000000e+000 0.000000e+000 8.867754e-001 1.132246e-001
 0.000000e+000 0.000000e+000 0.000000e+000 0.000000e+000 0.000000e+000
<ENDHMM>
~h "s"
<BEGINHMM>
<NUMSTATES> 5
<STATE> 2
<MEAN> 25
 -8.037524e+000 1.956709e+000 -2.847863e+000 4.246426e+000 2.293708e+000 -2.595878e-001 6.220885e+000 8.621331e-002 -3.144106e-001 8.558427e-001 6.554461e-001 -2.447450e-001 -1.736499e+000 5.712649e-001 -2.478608e-001 -4.201266e-002 2.831491e-001 -2.449565e-001 9.406306e-001 3.102380e-001 1.359849e-001 5.073897e-001 4.475657e-001 -8.839744e-002 4.559401e-001
<VARIANCE> 25
 7.492178e+001 3.939672e+001 4.828699e+001 2.622322e+001 3.103411e+001 3.696649e+001 3.816331e+001 3.523280e+001 3.746898e+001 4.139965e+001 3.510141e+001 2.206155e+001 3.396894e+000 3.818051e+000 3.715037e+000 2.405630e+000 2.871736e+000 3.932432e+000 3.387364e+000 2.743139e+000 2.951584e+000 2.646264e+000 2.335155e+000 2.198865e+000 1.751232e+000
<GCONST> 1.029866e+002
<STATE> 3
<MEAN> 25
 -1.333400e+001 4.992923e-001 -2.302854e+000 -4.099258e-001 3.579352e+000 -2.686685e+000 6.521005e+000 3.463889e+000 2.304793e+000 1.928445e+000 3.166718e+000 1.200823e-001 -9.712894e-002 -9.226257e-001 1.608611e-001 -8.301580e-001 -5.568734e-002 -1.080034e-001 -3.786124e-001 1.516204e-001 1.729850e-001 -3.433478e-001 5.521859e-002 1.698064e-002 1.485669e+000
<VARIANCE> 25
 1.131413e+002 8.611387e+001 9.798083e+001 5.795893e+001 6.143669e+001 8.492556e+001 8.949891e+001 6.691426e+001 4.451065e+001 4.825191e+001 3.909544e+001 2.629131e+001 1.061518e+001 5.617435e+000 5.985943e+000 3.842170e+000 4.330269e+000 4.850815e+000 5.591149e+000 5.188360e+000 4.285758e+000 5.005496e+000 4.608508e+000 2.482898e+000 3.993517e+000
<GCONST> 1.161644e+002
<STATE> 4
<MEAN> 25
 -1.585179e+001 -8.128476e-001 2.035063e+000 -1.322371e+000 1.452209e+000 8.701316e-001 6.646491e+000 7.157162e-001 2.167172e+000 4.143193e+000 2.714668e+000 4.315384e-001 3.779545e-001 -1.904508e-001 1.170485e-001 -1.880821e-002 -8.772765e-002 -1.462593e-002 -2.021322e-001 -1.879011e-002 8.148208e-003 -3.487414e-002 -2.584010e-002 1.648413e-002 -5.515577e-002
<VARIANCE> 25
 6.289663e+001 8.856404e+001 1.104661e+002 7.389441e+001 4.214139e+001 5.451498e+001 5.372718e+001 4.710100e+001 2.449901e+001 2.669445e+001 2.362549e+001 1.794245e+001 2.709344e+000 1.282444e+000 1.584939e+000 1.537743e+000 1.511922e+000 1.965558e+000 1.926636e+000 1.896973e+000 1.831919e+000 1.818699e+000 1.592892e+000 1.504391e+000 1.009370e+000
<GCONST> 9.829607e+001
<TRANSP> 5
 0.000000e+000 1.000000e+000 0.000000e+000 0.000000e+000 0.000000e+000
 0.000000e+000 7.243453e-001 2.756547e-001 0.000000e+000 0.000000e+000
 0.000000e+000 0.000000e+000 7.111980e-001 2.888020e-001 0.000000e+000
 0.000000e+000 0.000000e+000 0.000000e+000 8.605983e-001 1.394017e-001
 0.000000e+000 0.000000e+000 0.000000e+000 0.000000e+000 0.000000e+000
<ENDHMM>
~h "t"
<BEGINHMM>
<NUMSTATES> 5
<STATE> 2
<MEAN> 25
 -4.107803e+000 2.345119e+000 1.638127e+000 3.691649e+000 2.430874e+000 1.877621e+000 2.346261e+000 -5.398081e-001 1.490238e+000 2.035189e+000 1.523479e-001 5.809534e-001 -3.265937e-001 -7.055844e-001 -9.333269e-002 -4.646450e-001 5.711050e-002 -4.232478e-002 3.490651e-001 1.056807e-001 1.501493e-001 3.843776e-001 1.894331e-001 -5.447213e-002 5.985525e-001
<VARIANCE> 25
 4.322244e+001 2.957796e+001 3.928131e+001 3.858106e+001 3.068110e+001 2.692279e+001 3.297341e+001 3.122515e+001 3.219279e+001 2.782549e+001 2.921548e+001 2.119919e+001 2.318836e+000 2.656496e+000 2.787580e+000 4.461776e+000 3.026096e+000 4.264485e+000 3.815033e+000 3.451026e+000 3.311692e+000 2.806600e+000 2.836490e+000 2.216467e+000 4.912205e+000
<GCONST> 1.024374e+002
<STATE> 3
<MEAN> 25
 5.043823e-001 -2.754492e+000 2.159294e+000 -1.504851e+000 -1.110913e-001 -2.223013e+000 -1.891831e+000 -1.102801e+000 5.097702e-001 9.421073e-001 9.470614e-001 -7.524174e-001 1.913966e+000 -3.947246e-001 -3.804683e-002 -1.104067e+000 -7.172397e-001 -9.421878e-001 -1.468046e+000 -3.366572e-001 -8.654423e-001 -9.028340e-001 3.085127e-002 -5.323623e-001 2.525166e+000
<VARIANCE> 25
 7.599024e+001 8.550835e+001 7.319026e+001 8.561288e+001 5.528972e+001 9.104711e+001 9.740807e+001 6.723144e+001 5.817382e+001 6.005062e+001 5.060309e+001 3.510438e+001 6.657650e+000 9.661725e+000 6.730184e+000 8.303136e+000 5.877796e+000 1.046483e+001 1.115353e+001 8.201680e+000 7.228070e+000 6.939755e+000 5.849615e+000 4.234782e+000 8.656962e+000
<GCONST> 1.225268e+002
<STATE> 4
<MEAN> 25
 4.862833e+000 -3.415776e+000 -7.635564e-001 -2.902416e+000 -8.328575e-001 2.272225e-001 -5.271882e-002 -7.048305e-001 -1.689313e+000 -5.613290e-001 8.046622e-001 -1.227361e+000 -1.158984e-001 2.053938e-001 -1.604692e-001 -4.409589e-002 -9.845064e-002 3.377023e-003 1.475974e-001 4.955723e-002 2.895272e-003 6.555764e-002 -8.484189e-003 2.715153e-002 -2.126461e-001
<VARIANCE> 25
 8.534071e+001 1.081596e+002 1.032087e+002 1.019657e+002 7.504234e+001 7.786699e+001 1.031887e+002 7.034721e+001 6.845135e+001 6.499911e+001 6.174943e+001 4.607350e+001 1.178061e+000 2.348194e+000 2.183899e+000 2.423172e+000 2.640790e+000 2.606652e+000 2.809432e+000 2.815185e+000 2.757344e+000 2.767174e+000 2.304235e+000 2.001048e+000 1.939157e+000
<GCONST> 1.091591e+002
<TRANSP> 5
 0.000000e+000 1.000000e+000 0.000000e+000 0.000000e+000 0.000000e+000
 0.000000e+000 6.002440e-001 3.997560e-001 0.000000e+000 0.000000e+000
 0.000000e+000 0.000000e+000 6.620971e-001 3.379029e-001 0.000000e+000
 0.000000e+000 0.000000e+000 0.000000e+000 7.144102e-001 2.855898e-001
 0.000000e+000 0.000000e+000 0.000000e+000 0.000000e+000 0.000000e+000
<ENDHMM>
~h "y"
<BEGINHMM>
<NUMSTATES> 5
<STATE> 2
<MEAN> 25
 -1.125644e+000 -7.084846e-001 -2.282831e-001 2.976759e+000 4.036770e+000 3.341390e-001 4.095227e-001 -3.603290e-001 -1.507682e+000 -3.458652e+000 -3.302273e-001 1.300828e+000 -8.099051e-001 4.142970e-001 5.869254e-001 1.676944e-001 2.641179e-002 6.448591e-001 5.001955e-001 -8.521447e-002 -6.439344e-002 4.447792e-001 2.700551e-001 -9.100285e-002 -7.392095e-001
<VARIANCE> 25
 2.964120e+001 2.269962e+001 3.236899e+001 2.080245e+001 1.781482e+001 3.117015e+001 5.024912e+001 2.120808e+001 1.580351e+001 2.350938e+001 1.732265e+001 2.402666e+001 3.836556e-001 2.871183e-001 1.091730e+000 8.602824e-001 9.661729e-001 1.691949e+000 1.854601e+000 1.397279e+000 1.082821e+000 1.695912e+000 1.219360e+000 1.857020e+000 2.708513e-001
<GCONST> 8.350436e+001
<STATE> 3
<MEAN> 25
 -8.842559e+000 6.095033e+000 4.465217e+000 1.006635e-001 2.615330e+000 6.084615e+000 3.588686e+000 -1.734436e+000 -8.982590e-001 4.467143e+000 2.322340e+000 -1.732243e-001 -3.002020e-001 -8.101188e-002 1.018007e-001 6.788308e-002 1.079825e-001 1.329890e-001 1.072555e-002 -6.366209e-002 3.517031e-002 2.198454e-001 1.388396e-001 -3.764438e-003 -1.829135e-001
<VARIANCE> 25
 1.603944e+001 1.621668e+001 7.074942e+000 1.365246e+001 9.918503e+000 1.462389e+001 1.331261e+001 8.962664e+000 8.562797e+000 1.077729e+001 9.429511e+000 1.216943e+001 2.326575e-001 2.249024e-001 4.740028e-001 5.621585e-001 7.495514e-001 1.020898e+000 7.897218e-001 7.358424e-001 8.465185e-001 1.130668e+000 8.961796e-001 7.412838e-001 8.041186e-002
<GCONST> 6.704838e+001
<STATE> 4
<MEAN> 25
 -1.078700e+001 3.664566e+000 3.545617e+000 -8.788255e-001 1.359504e+000 5.249088e+000 2.206162e+000 -2.981794e+000 -1.328730e+000 3.661451e+000 1.329487e+000 -1.050993e+000 -7.716749e-003 1.581202e-002 1.246897e-002 -1.275561e-002 -1.704207e-002 -1.849843e-002 1.191177e-002 3.047267e-002 1.821147e-002 -9.043436e-003 -4.021823e-002 -2.667767e-002 -1.566679e-002
<VARIANCE> 25
 3.256059e+001 1.162786e+001 1.176003e+001 6.878297e+000 6.963500e+000 1.227700e+001 1.106608e+001 9.793900e+000 9.916733e+000 9.844484e+000 9.208808e+000 9.191854e+000 2.923904e-001 3.616994e-001 3.894163e-001 4.779654e-001 5.157677e-001 6.362170e-001 6.963112e-001 7.880718e-001 8.105417e-001 7.505406e-001 7.358245e-001 7.025330e-001 1.000196e-001
<GCONST> 6.532858e+001
<TRANSP> 5
 0.000000e+000 1.000000e+000 0.000000e+000 0.000000e+000 0.000000e+000
 0.000000e+000 6.452573e-001 3.547427e-001 0.000000e+000 0.000000e+000
 0.000000e+000 0.000000e+000 8.905761e-001 1.094240e-001 0.000000e+000
 0.000000e+000 0.000000e+000 0.000000e+000 9.565759e-001 4.342416e-002
 0.000000e+000 0.000000e+000 0.000000e+000 0.000000e+000 0.000000e+000
<ENDHMM>
~h "aa"
<BEGINHMM>
<NUMSTATES> 5
<STATE> 2
<MEAN> 25
 7.287192e+000 -6.745667e+000 -5.046537e+000 -2.888885e+000 7.643822e-001 -1.874757e+000 -1.621751e-001 3.728412e-001 -1.376417e+000 -4.174176e+000 -2.888469e+000 -2.277739e-001 -2.092071e-002 2.438063e-001 -1.422971e-001 2.873384e-001 3.230254e-001 2.108172e-001 4.185435e-002 6.675266e-002 1.049365e-001 -5.469221e-002 -9.464528e-002 1.388756e-001 -3.618571e-001
<VARIANCE> 25
 5.460446e+001 8.460859e+001 5.646249e+001 6.297670e+001 6.879910e+001 6.857751e+001 6.269211e+001 6.108622e+001 5.173914e+001 6.038004e+001 6.053030e+001 4.261638e+001 1.783377e+000 4.175326e+000 2.735426e+000 3.445596e+000 3.515071e+000 3.714874e+000 3.670499e+000 3.419214e+000 3.518616e+000 3.434281e+000 3.156930e+000 2.507226e+000 3.511525e+000
<GCONST> 1.103403e+002
<STATE> 3
<MEAN> 25
 3.072750e+000 -2.601331e+000 -4.258867e+000 1.756371e+000 4.380441e+000 1.409066e+000 2.320943e+000 6.878094e-001 -1.691510e-001 -2.834825e+000 -2.422241e+000 7.143502e-001 -7.960721e-001 4.853686e-001 2.691978e-001 3.473111e-001 7.979990e-003 3.140111e-001 3.190109e-001 1.315197e-001 1.993501e-001 5.120031e-001 3.419796e-001 6.599039e-002 -1.138523e+000
<VARIANCE> 25
 4.667040e+001 6.073868e+001 3.823325e+001 3.405211e+001 4.914601e+001 4.072014e+001 4.262198e+001 3.713707e+001 3.411839e+001 4.634731e+001 3.829324e+001 2.895631e+001 8.915589e-001 1.466795e+000 1.745679e+000 1.747805e+000 2.118918e+000 2.148078e+000 2.240310e+000 2.201960e+000 2.243983e+000 2.234929e+000 2.116796e+000 1.957352e+000 6.760235e-001
<GCONST> 9.755145e+001
<STATE> 4
<MEAN> 25
 -5.363925e+000 2.188406e+000 -1.864595e+000 4.761955e+000 1.797636e+000 1.900966e+000 3.775256e+000 2.326387e+000 2.085208e+000 2.144987e+000 9.042493e-001 1.745581e+000 -1.430000e-001 2.419366e-002 5.306116e-002 1.734023e-002 -1.833233e-002 1.010288e-002 1.864083e-002 1.533252e-002 6.001717e-002 7.834479e-002 2.665046e-002 1.265958e-002 -1.293150e-001
<VARIANCE> 25
 3.074129e+001 1.463348e+001 2.204924e+001 1.759573e+001 1.495293e+001 2.256970e+001 1.556232e+001 1.948443e+001 1.986473e+001 2.340410e+001 1.905086e+001 1.677645e+001 2.531680e-001 3.685905e-001 5.319082e-001 6.665797e-001 8.488923e-001 1.002549e+000 1.130934e+000 1.246322e+000 1.266200e+000 1.265871e+000 1.198091e+000 1.093734e+000 1.389513e-001
<GCONST> 7.700349e+001
<TRANSP> 5
 0.000000e+000 1.000000e+000 0.000000e+000 0.000000e+000 0.000000e+000
 0.000000e+000 8.174044e-001 1.825955e-001 0.000000e+000 0.000000e+000
 0.000000e+000 0.000000e+000 7.768452e-001 2.231548e-001 0.000000e+000
 0.000000e+000 0.000000e+000 0.000000e+000 9.377133e-001 6.228679e-002
 0.000000e+000 0.000000e+000 0.000000e+000 0.000000e+000 0.000000e+000
<ENDHMM>
~h "eu"
<BEGINHMM>
<NUMSTATES> 5
<STATE> 2
<MEAN> 25
 -4.961250e+000 2.771568e+000 1.252992e+000 2.277510e+000 1.478858e+000 -1.579458e+000 3.805346e+000 1.517084e+000 1.717129e+000 1.529878e+000 8.749629e-001 5.666659e-001 2.338070e+000 -3.114893e-001 3.379761e-001 -7.429358e-001 -4.415313e-001 -1.102998e+000 -1.294373e+000 -3.055206e-001 -4.918811e-001 -9.673302e-001 -3.776235e-001 -4.591326e-001 2.099341e+000
<VARIANCE> 25
 1.014111e+002 7.410966e+001 6.079958e+001 5.707712e+001 3.960993e+001 7.559923e+001 4.769120e+001 4.596310e+001 3.956570e+001 3.744314e+001 3.748921e+001 2.365618e+001 9.909975e+000 7.147158e+000 5.997688e+000 6.117749e+000 4.749821e+000 5.740652e+000 6.959234e+000 5.114512e+000 4.914592e+000 5.564329e+000 4.229340e+000 3.096545e+000 4.902186e+000
<GCONST> 1.150205e+002
<STATE> 3
<MEAN> 25
 5.517752e+000 -3.029602e+000 2.359153e+000 -4.881008e+000 -1.080509e+000 -4.371248e+000 -5.327098e+000 3.958429e-001 -2.925509e-001 -3.455780e+000 1.258654e+000 -1.492651e+000 2.182110e+000 -1.518963e+000 -9.796672e-002 -1.869647e+000 -5.551962e-001 -4.881889e-001 -2.085337e+000 1.910969e-001 -3.379494e-001 -1.176100e+000 8.025939e-002 -5.085109e-001 2.709100e+000
<VARIANCE> 25
 5.339640e+001 8.856023e+001 8.915766e+001 8.456880e+001 7.188641e+001 9.111406e+001 8.089875e+001 7.403537e+001 7.800514e+001 7.397136e+001 5.418939e+001 4.072066e+001 6.108376e+000 1.070488e+001 6.402176e+000 9.032860e+000 5.743359e+000 7.137970e+000 9.091200e+000 7.951320e+000 8.750467e+000 7.562074e+000 6.208020e+000 4.998465e+000 7.679468e+000
<GCONST> 1.230787e+002
<STATE> 4
<MEAN> 25
 9.535982e+000 -1.277283e+001 7.339464e+000 -1.307893e+001 -1.915219e-001 1.992825e+000 -9.949878e+000 1.940515e+000 -5.400429e-001 1.577597e+000 3.192745e+000 -5.237373e+000 4.599711e-002 1.768722e-001 -6.253332e-002 2.068500e-001 6.179398e-002 8.956565e-002 1.340225e-001 -2.149375e-002 -6.874693e-002 1.863775e-002 -2.012352e-001 -6.832042e-003 -2.327977e-001
<VARIANCE> 25
 5.377132e+001 1.108203e+002 7.813700e+001 9.551365e+001 6.304610e+001 6.366582e+001 6.390385e+001 6.290596e+001 7.406499e+001 1.027304e+002 7.990936e+001 5.167785e+001 7.352104e-001 2.063097e+000 1.517283e+000 2.417492e+000 1.810943e+000 1.759730e+000 2.388959e+000 2.264556e+000 2.204958e+000 1.837927e+000 2.155883e+000 1.703588e+000 1.245682e+000
<GCONST> 1.049003e+002
<TRANSP> 5
 0.000000e+000 1.000000e+000 0.000000e+000 0.000000e+000 0.000000e+000
 0.000000e+000 6.085551e-001 3.914448e-001 0.000000e+000 0.000000e+000
 0.000000e+000 0.000000e+000 6.034108e-001 3.965893e-001 0.000000e+000
 0.000000e+000 0.000000e+000 0.000000e+000 8.917229e-001 1.082772e-001
 0.000000e+000 0.000000e+000 0.000000e+000 0.000000e+000 0.000000e+000
<ENDHMM>
~h "hh"
<BEGINHMM>
<NUMSTATES> 5
<STATE> 2
<MEAN> 25
 1.536346e+000 -2.271403e+000 -6.049194e+000 -1.203383e+000 2.761530e+000 4.099899e+000 5.012422e+000 -2.229922e-001 5.714202e-001 1.840818e+000 8.945326e-001 1.312902e-001 -7.047047e-001 -5.574910e-002 -3.114068e-001 1.041500e-001 3.686048e-001 5.498373e-001 7.689099e-001 6.662930e-001 8.123897e-001 6.547542e-001 2.029234e-001 3.054958e-001 -9.299282e-001
<VARIANCE> 25
 2.820182e+001 4.433572e+001 5.095255e+001 4.907438e+001 8.158623e+001 5.312636e+001 7.499860e+001 4.909159e+001 3.981866e+001 3.916605e+001 4.322185e+001 2.953503e+001 7.353092e-001 1.890787e+000 1.985321e+000 2.108152e+000 2.926497e+000 2.905972e+000 2.494357e+000 2.572331e+000 2.657318e+000 2.227078e+000 2.673214e+000 2.325327e+000 5.933353e-001
<GCONST> 1.008356e+002
<STATE> 3
<MEAN> 25
 -2.973073e+000 -1.616652e+000 -6.376043e+000 3.125755e-001 3.122046e+000 3.823864e+000 5.915500e+000 2.090227e+000 4.349550e+000 5.423947e+000 2.396616e+000 2.539015e+000 -5.469000e-001 -1.375310e-002 2.173996e-001 1.082365e-001 -2.669429e-001 -2.150553e-001 -7.242195e-002 9.458345e-002 7.926472e-002 1.386303e-001 1.101415e-001 1.989355e-001 -5.242893e-001
<VARIANCE> 25
 2.228949e+001 3.473289e+001 4.378217e+001 4.365360e+001 3.362794e+001 3.113155e+001 4.200628e+001 5.085798e+001 4.471532e+001 4.044850e+001 4.663639e+001 2.806334e+001 8.398065e-001 1.569487e+000 2.764916e+000 2.802611e+000 2.484846e+000 2.623957e+000 2.860210e+000 3.065371e+000 2.776593e+000 2.651216e+000 2.545081e+000 2.133720e+000 6.514705e-001
<GCONST> 9.908130e+001
<STATE> 4
<MEAN> 25
 -5.018734e+000 9.893284e-001 -1.652334e+000 4.272257e+000 1.382517e+000 2.981984e+000 3.877822e+000 3.105419e+000 2.880309e+000 3.916001e+000 1.858221e+000 1.325500e+000 -7.178329e-002 1.302233e-002 3.886086e-002 1.285164e-002 -1.051880e-002 -3.985020e-003 -2.731140e-002 -1.442594e-002 -1.420748e-002 1.402047e-002 3.203671e-003 -1.827240e-003 -6.994747e-002
<VARIANCE> 25
 1.037197e+001 1.191396e+001 2.008549e+001 1.817793e+001 1.504277e+001 1.915713e+001 1.402000e+001 1.819965e+001 1.880511e+001 2.028831e+001 1.929704e+001 1.383904e+001 2.026786e-001 3.567318e-001 5.867146e-001 7.127982e-001 8.679876e-001 1.016618e+000 1.185973e+000 1.287393e+000 1.299653e+000 1.331625e+000 1.304554e+000 1.118747e+000 1.004106e-001
<GCONST> 7.482851e+001
<TRANSP> 5
 0.000000e+000 1.000000e+000 0.000000e+000 0.000000e+000 0.000000e+000
 0.000000e+000 6.994460e-001 3.005539e-001 0.000000e+000 0.000000e+000
 0.000000e+000 0.000000e+000 6.791483e-001 3.208517e-001 0.000000e+000
 0.000000e+000 0.000000e+000 0.000000e+000 9.427495e-001 5.725050e-002
 0.000000e+000 0.000000e+000 0.000000e+000 0.000000e+000 0.000000e+000
<ENDHMM>
~h "ih"
<BEGINHMM>
<NUMSTATES> 5
<STATE> 2
<MEAN> 25
 -1.054045e+000 1.239488e+000 6.756986e+000 1.689436e-001 -8.311262e-001 -1.387528e+000 -9.163306e-001 -2.062166e+000 3.184760e-001 1.241616e-002 2.701164e-001 -1.580572e+000 5.972161e-001 -4.374250e-002 2.111892e+000 -1.175089e+000 -1.092581e+000 -9.257900e-001 -1.898065e+000 -7.013080e-001 -3.193069e-001 -8.376030e-001 -2.439237e-001 -3.060675e-001 2.327849e+000
<VARIANCE> 25
 8.601407e+001 9.530763e+001 8.353431e+001 7.962898e+001 8.849297e+001 6.292569e+001 8.514519e+001 6.064472e+001 5.302090e+001 5.505826e+001 4.638131e+001 3.202579e+001 6.462365e+000 9.956020e+000 8.462453e+000 1.073908e+001 8.916607e+000 6.803708e+000 9.124293e+000 7.062551e+000 6.180760e+000 6.691030e+000 5.324011e+000 3.960569e+000 5.679088e+000
<GCONST> 1.216704e+002
<STATE> 3
<MEAN> 25
 2.435816e+000 3.966594e+000 1.402351e+001 -4.029389e+000 -5.676086e+000 -4.413977e+000 -8.491714e+000 -4.071832e+000 -1.165372e+000 -3.847885e+000 -1.591399e+000 -1.143619e+000 1.517641e-001 6.431468e-001 1.146155e+000 -7.909085e-001 -5.706393e-001 -2.046832e-001 -1.318328e+000 1.635633e-001 7.248729e-002 -7.019900e-001 -4.130750e-001 5.612827e-001 3.966412e-001
<VARIANCE> 25
 3.422749e+001 1.035821e+002 1.068186e+002 1.457624e+002 1.174120e+002 7.039770e+001 7.865638e+001 7.983164e+001 6.190719e+001 5.750835e+001 5.480980e+001 4.149971e+001 2.478922e+000 4.214139e+000 4.808990e+000 7.571246e+000 4.833588e+000 5.715855e+000 7.582739e+000 5.050324e+000 4.569651e+000 4.359572e+000 4.056762e+000 4.140371e+000 2.088439e+000
<GCONST> 1.169001e+002
<STATE> 4
<MEAN> 25
 2.629284e+000 4.868008e+000 1.627006e+001 -2.957164e+000 -6.012569e+000 -4.506033e+000 -9.782548e+000 -3.381627e+000 -2.069102e+000 -6.510782e+000 -1.751712e+000 -3.486320e-001 1.004470e-001 6.999095e-002 -4.757222e-001 4.096124e-001 2.065499e-001 1.415690e-001 3.374624e-001 -5.083212e-002 -3.840994e-002 1.705000e-001 6.310942e-002 -4.396309e-003 -5.618032e-001
<VARIANCE> 25
 2.143336e+001 7.943377e+001 9.563781e+001 1.630227e+002 1.008725e+002 6.667279e+001 5.257780e+001 7.935381e+001 6.936920e+001 5.898302e+001 6.829357e+001 5.300789e+001 6.006211e-001 1.237534e+000 1.673132e+000 2.742667e+000 2.107094e+000 2.211160e+000 2.531816e+000 2.363806e+000 2.311363e+000 2.263081e+000 2.141915e+000 1.958936e+000 6.956919e-001
<GCONST> 1.039829e+002
<TRANSP> 5
 0.000000e+000 1.000000e+000 0.000000e+000 0.000000e+000 0.000000e+000
 0.000000e+000 6.708400e-001 3.291600e-001 0.000000e+000 0.000000e+000
 0.000000e+000 0.000000e+000 5.397310e-001 4.602690e-001 0.000000e+000
 0.000000e+000 0.000000e+000 0.000000e+000 9.232136e-001 7.678641e-002
 0.000000e+000 0.000000e+000 0.000000e+000 0.000000e+000 0.000000e+000
<ENDHMM>
~h "jh"
<BEGINHMM>
<NUMSTATES> 5
<STATE> 2
<MEAN> 25
 1.690980e+000 6.382497e+000 8.309847e+000 5.949891e+000 2.964270e+000 9.402812e-001 -8.956437e-001 -2.224301e+000 -1.055380e+000 -1.065194e+000 -1.100917e+000 -8.323792e-001 -1.479395e+000 -5.161096e-001 3.365938e-001 -7.756442e-002 5.246462e-001 2.511262e-001 1.119812e+000 1.562571e-001 5.068948e-001 6.578278e-001 2.857977e-001 1.407485e-002 3.633942e-003
<VARIANCE> 25
 3.054169e+001 3.681617e+001 4.037919e+001 3.318364e+001 6.563173e+001 3.364913e+001 4.593921e+001 2.678374e+001 2.827299e+001 2.947183e+001 2.818621e+001 2.771217e+001 2.502254e+000 3.886418e+000 2.998373e+000 4.001645e+000 4.460464e+000 3.609465e+000 3.853403e+000 2.400050e+000 3.067796e+000 2.557827e+000 1.824588e+000 1.900402e+000 3.534664e+000
<GCONST> 1.027024e+002
<STATE> 3
<MEAN> 25
 -5.967468e+000 1.434232e+000 7.111795e+000 -1.127882e+000 -1.708900e+000 -4.058937e+000 1.669669e+000 -1.227983e+000 -1.532117e+000 9.644836e-002 2.089510e+000 -2.157131e+000 4.503137e-001 -6.574560e-001 -5.416625e-001 -4.475082e-001 -5.315547e-001 -6.367673e-001 -2.270622e-001 3.685894e-001 -1.763923e-001 -2.833571e-001 1.493733e-001 7.740590e-002 1.272305e+000
<VARIANCE> 25
 1.130554e+002 6.850035e+001 7.017302e+001 8.870117e+001 1.183271e+002 8.208537e+001 8.991827e+001 4.391071e+001 4.625731e+001 4.843560e+001 3.706513e+001 2.750146e+001 1.347134e+001 5.194358e+000 5.468713e+000 5.465631e+000 7.971975e+000 7.268133e+000 8.951261e+000 5.286216e+000 5.117084e+000 5.613957e+000 4.301458e+000 3.176625e+000 4.302545e+000
<GCONST> 1.187353e+002
<STATE> 4
<MEAN> 25
 -8.254220e+000 4.369139e+000 2.906214e+000 1.839910e+000 1.787250e+000 4.290984e+000 2.880983e+000 2.769389e-002 2.883022e-001 3.839839e+000 1.399356e+000 -2.941732e-002 -8.648822e-002 -9.875718e-002 -6.995814e-002 -1.313370e-002 4.025831e-002 6.643455e-002 3.358252e-002 3.357978e-002 2.878494e-002 3.971118e-002 1.184329e-002 2.207455e-002 -6.265912e-002
<VARIANCE> 25
 2.799397e+001 1.580050e+001 1.707329e+001 1.944649e+001 1.430575e+001 2.137403e+001 1.623617e+001 2.546109e+001 1.827117e+001 1.767545e+001 1.416410e+001 1.326543e+001 3.074572e-001 4.682202e-001 5.610717e-001 6.510459e-001 8.835535e-001 1.010630e+000 1.079044e+000 1.160663e+000 1.123319e+000 1.187327e+000 1.093940e+000 9.538866e-001 1.238535e-001
<GCONST> 7.601318e+001
<TRANSP> 5
 0.000000e+000 1.000000e+000 0.000000e+000 0.000000e+000 0.000000e+000
 0.000000e+000 6.808705e-001 3.191295e-001 0.000000e+000 0.000000e+000
 0.000000e+000 0.000000e+000 7.921185e-001 2.078815e-001 0.000000e+000
 0.000000e+000 0.000000e+000 0.000000e+000 9.307316e-001 6.926834e-002
 0.000000e+000 0.000000e+000 0.000000e+000 0.000000e+000 0.000000e+000
<ENDHMM>
~h "ng"
<BEGINHMM>
<NUMSTATES> 5
<STATE> 2
<MEAN> 25
 8.436420e+000 7.698685e+000 1.716563e+000 1.859076e+000 -2.452311e+000 -4.025544e+000 -4.807264e+000 -7.416319e+000 -6.135616e+000 -3.378513e+000 -4.770791e+000 -5.197184e+000 -6.492594e-001 4.317873e-001 5.006482e-001 5.529003e-001 1.699939e-001 -5.777294e-002 1.564060e-001 -6.894837e-002 -1.625446e-002 1.228878e-001 -4.968340e-002 8.240423e-003 -6.940777e-001
<VARIANCE> 25
 2.073880e+001 2.456330e+001 3.168322e+001 2.930153e+001 4.715702e+001 3.355483e+001 6.475398e+001 4.505429e+001 5.199451e+001 4.495919e+001 3.652329e+001 5.081007e+001 4.122134e-001 7.822952e-001 1.128929e+000 1.340088e+000 1.808885e+000 1.765054e+000 1.956395e+000 2.218393e+000 2.467144e+000 2.235645e+000 2.129133e+000 2.254678e+000 1.855561e-001
<GCONST> 9.314464e+001
<STATE> 3
<MEAN> 25
 -7.687969e-001 6.281426e+000 4.166826e+000 6.524467e+000 2.716681e+000 2.188710e-001 5.549874e-001 -3.308512e+000 -1.979863e+000 -9.360042e-001 -3.168557e+000 -2.914692e+000 -1.060700e+000 -7.552145e-001 -4.541353e-001 -2.060920e-002 3.476489e-001 6.924573e-001 8.186132e-001 6.959651e-001 6.560622e-001 6.045707e-001 5.375189e-001 4.732690e-001 -6.148115e-001
<VARIANCE> 25
 1.599378e+001 1.682156e+001 2.669617e+001 1.750534e+001 2.520056e+001 2.450893e+001 3.403241e+001 2.623258e+001 3.190911e+001 2.683996e+001 3.315941e+001 2.854941e+001 3.241815e-001 8.102888e-001 1.333099e+000 1.450567e+000 1.959674e+000 2.114070e+000 2.125598e+000 2.257686e+000 2.041695e+000 2.098238e+000 1.978585e+000 2.007524e+000 1.594507e-001
<GCONST> 8.782536e+001
<STATE> 4
<MEAN> 25
 -6.431958e+000 2.724514e+000 -1.155780e+000 4.957438e+000 1.604222e+000 1.906165e+000 3.720537e+000 2.076257e+000 2.168139e+000 2.991795e+000 9.033467e-001 1.460096e+000 -9.057842e-002 -6.331030e-002 -6.229182e-002 -4.725808e-002 -2.542772e-002 1.143525e-002 2.654257e-002 5.470768e-002 5.284610e-002 5.311750e-002 4.525094e-002 3.946999e-002 -5.335200e-002
<VARIANCE> 25
 1.158661e+001 7.980631e+000 2.163342e+001 1.294629e+001 1.059451e+001 2.159371e+001 1.303446e+001 1.848697e+001 1.839800e+001 1.942243e+001 1.641528e+001 1.464221e+001 1.967221e-001 3.220260e-001 4.810036e-001 6.377775e-001 7.745702e-001 9.819244e-001 1.086560e+000 1.175585e+000 1.242496e+000 1.276730e+000 1.204168e+000 1.062425e+000 8.384716e-002
<GCONST> 7.264641e+001
<TRANSP> 5
 0.000000e+000 1.000000e+000 0.000000e+000 0.000000e+000 0.000000e+000
 0.000000e+000 8.689517e-001 1.310483e-001 0.000000e+000 0.000000e+000
 0.000000e+000 0.000000e+000 8.375379e-001 1.624622e-001 0.000000e+000
 0.000000e+000 0.000000e+000 0.000000e+000 9.618983e-001 3.810173e-002
 0.000000e+000 0.000000e+000 0.000000e+000 0.000000e+000 0.000000e+000
<ENDHMM>
~h "ny"
<BEGINHMM>
<NUMSTATES> 5
<STATE> 2
<MEAN> 25
 -6.701617e-001 3.670207e+000 2.819765e+000 1.934887e+000 1.381899e+000 -5.191213e-001 4.744655e-001 -1.533024e+000 3.719683e-001 1.971589e+000 -6.910762e-001 -1.500596e+000 1.399887e+000 3.871621e-001 1.365990e+000 -1.030440e+000 -6.451134e-001 -6.404313e-001 -1.052549e+000 -6.081667e-001 -6.205965e-001 -6.033991e-001 -3.349330e-001 -6.998245e-001 2.213833e+000
<VARIANCE> 25
 7.751389e+001 7.945515e+001 6.830745e+001 5.747704e+001 5.188591e+001 5.411929e+001 5.249105e+001 3.748664e+001 4.252461e+001 3.648455e+001 3.869105e+001 3.237694e+001 6.514565e+000 7.643396e+000 7.197029e+000 7.455124e+000 5.647226e+000 6.560133e+000 5.534984e+000 4.419287e+000 4.760324e+000 4.607606e+000 4.749365e+000 3.329119e+000 5.993468e+000
<GCONST> 1.152920e+002
<STATE> 3
<MEAN> 25
 5.044045e+000 -4.967170e-001 1.046719e+001 -5.061126e+000 -4.911307e+000 -2.497075e+000 -2.009566e+000 -2.175995e+000 -4.745521e+000 -2.636800e+000 -1.088541e+000 -5.528050e+000 1.370997e-001 -2.237645e+000 -4.954515e-001 -2.062774e-001 6.489362e-002 -1.255303e-001 2.034709e-001 8.982882e-001 -1.567665e-001 -3.536825e-001 4.109625e-001 -1.389024e-001 1.494411e+000
<VARIANCE> 25
 2.987803e+001 9.370185e+001 9.284768e+001 1.254332e+002 6.999171e+001 8.485828e+001 9.118775e+001 6.338654e+001 4.631208e+001 5.287288e+001 6.426528e+001 5.468573e+001 1.757307e+000 4.969041e+000 6.024971e+000 7.355747e+000 4.777945e+000 7.020886e+000 7.118834e+000 5.208555e+000 3.897800e+000 4.152246e+000 4.483685e+000 3.692388e+000 2.407014e+000
<GCONST> 1.161199e+002
<STATE> 4
<MEAN> 25
 7.938092e+000 -4.930279e+000 6.045936e+000 -7.232500e+000 -3.922412e+000 -2.650291e-001 -3.085274e+000 -5.037068e-001 -6.380671e+000 -3.501832e+000 3.437286e+000 -4.356197e+000 1.762613e-002 3.662102e-001 -1.496378e-001 1.664299e-001 5.997075e-002 6.537271e-002 1.288610e-001 -1.688751e-001 2.091941e-002 5.054669e-002 -9.684927e-002 1.046073e-001 -3.850261e-001
<VARIANCE> 25
 2.238222e+001 1.160637e+002 1.150316e+002 8.806266e+001 8.248396e+001 7.287751e+001 8.869852e+001 8.671188e+001 6.904963e+001 6.678728e+001 1.056600e+002 4.768487e+001 5.323101e-001 1.652652e+000 2.101403e+000 2.413764e+000 1.938701e+000 2.053698e+000 2.373717e+000 2.292006e+000 1.968428e+000 1.992955e+000 2.333615e+000 1.789285e+000 7.502012e-001
<GCONST> 1.047228e+002
<TRANSP> 5
 0.000000e+000 1.000000e+000 0.000000e+000 0.000000e+000 0.000000e+000
 0.000000e+000 8.097236e-001 1.902764e-001 0.000000e+000 0.000000e+000
 0.000000e+000 0.000000e+000 7.821679e-001 2.178321e-001 0.000000e+000
 0.000000e+000 0.000000e+000 0.000000e+000 9.416900e-001 5.831002e-002
 0.000000e+000 0.000000e+000 0.000000e+000 0.000000e+000 0.000000e+000
<ENDHMM>
~h "sp"
<BEGINHMM>
<NUMSTATES> 3
<STATE> 2
~s "silst"
<TRANSP> 3
 0.000000e+000 2.578643e-001 7.421357e-001
 0.000000e+000 9.493026e-001 5.069735e-002
 0.000000e+000 0.000000e+000 0.000000e+000
<ENDHMM>
~h "uw"
<BEGINHMM>
<NUMSTATES> 5
<STATE> 2
<MEAN> 25
 6.242418e+000 4.010284e-001 1.235983e+000 -2.778302e+000 -1.414603e+000 -1.631524e+000 -3.588509e+000 -1.726085e+000 -1.586762e+000 -2.100261e+000 -8.881006e-001 -1.926445e+000 8.091340e-001 6.066070e-001 2.472037e-001 -1.526115e-002 -4.313568e-001 -4.607151e-001 -7.677727e-001 -4.594929e-001 -3.796219e-001 -3.454248e-001 -9.910125e-002 -1.637928e-001 4.209608e-001
<VARIANCE> 25
 6.492162e+001 9.727100e+001 8.541888e+001 1.001269e+002 7.635983e+001 8.192374e+001 8.958517e+001 7.183640e+001 6.855562e+001 7.098213e+001 6.404140e+001 4.311069e+001 3.951472e+000 7.706459e+000 4.803091e+000 6.505705e+000 5.319628e+000 6.552058e+000 7.213563e+000 6.107662e+000 5.750384e+000 5.218242e+000 4.695884e+000 3.485067e+000 3.922696e+000
<GCONST> 1.194340e+002
<STATE> 3
<MEAN> 25
 9.698203e+000 5.916891e+000 3.043994e+000 -5.941289e+000 -7.473919e+000 -3.936598e+000 -7.397696e+000 -5.156991e+000 -2.513181e+000 -1.993968e+000 -1.964991e+000 -3.069039e+000 -3.250762e-002 1.160967e-001 -1.221156e-001 5.649939e-002 6.981570e-002 1.858660e-001 2.226691e-001 -1.054140e-001 -6.445320e-002 -5.423230e-003 -1.197604e-001 6.170626e-002 -2.161477e-001
<VARIANCE> 25
 2.323387e+001 5.697526e+001 9.860867e+001 8.345210e+001 9.127849e+001 8.433952e+001 8.790060e+001 9.527132e+001 7.118817e+001 6.870883e+001 8.649032e+001 5.470494e+001 5.988105e-001 2.059868e+000 3.098429e+000 3.532359e+000 4.042393e+000 4.193181e+000 4.477792e+000 4.348826e+000 4.189543e+000 3.678838e+000 3.663484e+000 3.237902e+000 7.290740e-001
<GCONST> 1.103841e+002
<STATE> 4
<MEAN> 25
 8.672043e+000 6.543664e+000 1.458352e+000 -3.554837e+000 -4.720143e+000 -2.792126e+000 -3.916736e+000 -5.112349e+000 -5.765866e+000 -3.238725e+000 1.221995e-001 -1.645185e+000 -4.497253e-001 -1.005754e-001 4.789572e-002 2.678372e-001 1.863835e-001 1.528160e-001 3.467323e-001 1.062989e-001 1.842482e-001 1.805111e-001 2.427633e-002 6.326361e-002 -4.380388e-001
<VARIANCE> 25
 5.013602e+001 4.161096e+001 4.677323e+001 7.710295e+001 4.571529e+001 5.910915e+001 4.608139e+001 6.215730e+001 5.304596e+001 4.805184e+001 6.722554e+001 3.833195e+001 4.917872e-001 8.653902e-001 1.017135e+000 1.338785e+000 1.460904e+000 1.610413e+000 1.737833e+000 1.801795e+000 1.828217e+000 1.827122e+000 1.747607e+000 1.559587e+000 2.903250e-001
<GCONST> 9.576359e+001
<TRANSP> 5
 0.000000e+000 1.000000e+000 0.000000e+000 0.000000e+000 0.000000e+000
 0.000000e+000 7.921296e-001 2.078704e-001 0.000000e+000 0.000000e+000
 0.000000e+000 0.000000e+000 8.572083e-001 1.427918e-001 0.000000e+000
 0.000000e+000 0.000000e+000 0.000000e+000 8.967885e-001 1.032115e-001
 0.000000e+000 0.000000e+000 0.000000e+000 0.000000e+000 0.000000e+000
<ENDHMM>
~h "sil"
<BEGINHMM>
<NUMSTATES> 5
<STATE> 2
<MEAN> 25
 -8.885106e+000 2.161890e+000 -2.787257e+000 4.842795e+000 1.798290e+000 1.499770e+000 3.969098e+000 2.521946e+000 2.933963e+000 3.249227e+000 1.047959e+000 2.832424e+000 -7.015452e-003 -5.565790e-004 3.777086e-004 -3.454951e-003 -2.988944e-003 -4.297434e-003 -5.671651e-003 -1.301230e-003 -2.263625e-003 7.271745e-003 1.404059e-003 1.168489e-003 -6.970436e-003
<VARIANCE> 25
 2.921463e+001 9.409319e+000 2.233676e+001 1.210730e+001 1.257189e+001 2.026053e+001 1.189275e+001 1.495671e+001 2.003989e+001 1.857612e+001 1.696249e+001 1.699464e+001 9.727013e-002 1.991250e-001 3.225203e-001 4.778874e-001 6.241835e-001 7.504010e-001 9.164437e-001 1.014383e+000 1.079992e+000 1.038153e+000 1.000138e+000 9.487560e-001 3.853805e-002
<GCONST> 6.962840e+001
<STATE> 3
~s "silst"
<STATE> 4
<MEAN> 25
 4.748381e+000 -2.399532e+000 7.924938e-002 -2.133246e+000 -1.412830e+000 -1.201624e-001 -1.962290e+000 -7.384872e-001 -1.331102e-001 -2.439176e-001 -2.093796e-001 -8.886655e-001 9.726394e-002 -6.814148e-004 6.928551e-003 7.337490e-003 -8.368694e-003 1.410199e-002 -1.821199e-002 1.872443e-004 -1.596631e-002 -2.369284e-002 -8.308935e-003 -1.990761e-002 -2.144145e-002
<VARIANCE> 25
 1.364623e+002 1.215575e+002 8.809982e+001 1.041464e+002 6.048341e+001 7.305408e+001 7.567358e+001 5.956672e+001 6.296986e+001 6.543998e+001 5.433692e+001 4.090007e+001 2.167250e+000 2.829327e+000 2.200417e+000 2.774831e+000 2.236341e+000 2.537993e+000 2.785181e+000 2.541771e+000 2.656871e+000 2.443429e+000 2.282482e+000 1.912776e+000 3.973228e+000
<GCONST> 1.096649e+002
<TRANSP> 5
 0.000000e+000 1.000000e+000 0.000000e+000 0.000000e+000 0.000000e+000
 0.000000e+000 9.546989e-001 4.832698e-003 4.046842e-002 0.000000e+000
 0.000000e+000 0.000000e+000 9.805204e-001 1.947959e-002 0.000000e+000
 0.000000e+000 7.778080e-002 0.000000e+000 8.949513e-001 2.726788e-002
 0.000000e+000 0.000000e+000 0.000000e+000 0.000000e+000 0.000000e+000
<ENDHMM>
