~o
<STREAMINFO> 1 25
<VECSIZE> 25<NULLD><MFCC_D_N_Z_0><DIAGC>
~s "silst"
<MEAN> 25
 -3.872009e+000 1.929744e+000 7.702605e-001 5.477544e+000 9.009425e-001 5.468224e+000 2.757952e+000 5.308397e+000 4.226650e+000 5.370103e+000 3.011781e+000 1.934491e+000 -8.000251e-003 -2.783552e-003 1.561966e-002 9.044751e-003 1.205605e-002 7.831865e-003 2.698908e-002 2.893470e-002 2.901749e-002 1.465930e-002 -9.491109e-003 -1.450085e-002 3.578602e-003
<VARIANCE> 25
 3.870401e+000 3.171740e+000 9.745225e+000 5.867768e+000 7.385633e+000 9.322735e+000 1.028273e+001 1.039221e+001 1.057663e+001 1.180522e+001 1.121325e+001 1.036013e+001 1.079777e-001 2.094768e-001 3.531879e-001 5.064585e-001 6.111330e-001 8.013325e-001 9.250687e-001 1.012657e+000 1.053844e+000 1.020888e+000 9.928932e-001 9.035910e-001 5.905515e-002
<GCONST> 6.183263e+001
~h "b"
<BEGINHMM>
<NUMSTATES> 5
<STATE> 2
<MEAN> 25
 5.530262e-003 2.785004e+000 -2.777830e+000 3.116629e+000 2.538038e+000 1.259544e+000 4.057379e+000 -2.279432e+000 -1.654327e+000 -3.976912e-002 -1.692310e+000 -3.040996e-001 -4.577651e-001 1.141631e-001 -6.788010e-003 1.426500e-001 8.397403e-002 -3.081264e-002 1.420902e-001 3.063996e-001 5.868275e-001 2.763051e-001 9.010858e-002 2.855773e-001 -4.670921e-001
<VARIANCE> 25
 7.397723e+001 6.756297e+001 5.191658e+001 6.248491e+001 4.587381e+001 7.375019e+001 7.156366e+001 5.020868e+001 6.046921e+001 6.165367e+001 4.906285e+001 4.209782e+001 6.808837e-001 1.210445e+000 1.450531e+000 1.625113e+000 1.902043e+000 2.316588e+000 2.441153e+000 2.414526e+000 2.386569e+000 2.326763e+000 2.383787e+000 1.956678e+000 4.302883e-001
<GCONST> 1.010505e+002
<STATE> 3
<MEAN> 25
 -5.300775e-001 2.899373e+000 -1.550115e+000 2.452368e+000 1.293902e+000 -1.558699e+000 2.098438e+000 -1.754752e+000 -5.359606e-001 -1.541470e+000 -1.887917e+000 -3.250690e-001 -2.708358e-001 4.723164e-002 6.122765e-002 1.669982e-001 2.952626e-002 -5.441645e-002 1.146251e-002 1.730600e-001 2.804256e-001 -1.198598e-002 -4.483948e-002 6.351750e-002 -2.811336e-001
<VARIANCE> 25
 6.352159e+001 8.514282e+001 3.426714e+001 6.984195e+001 3.197303e+001 5.373012e+001 4.033094e+001 4.649193e+001 4.521484e+001 7.228598e+001 3.189409e+001 2.923792e+001 4.298394e-001 6.144314e-001 9.241365e-001 9.380141e-001 1.468661e+000 1.503101e+000 1.461495e+000 1.557892e+000 1.864050e+000 1.645711e+000 1.694183e+000 1.370926e+000 2.545858e-001
<GCONST> 9.297414e+001
<STATE> 4
<MEAN> 25
 -7.471563e+000 3.918021e+000 -4.509874e+000 6.211950e+000 2.432292e+000 -8.558456e-001 4.470530e+000 1.546284e+000 2.079549e+000 3.557209e-001 -1.218335e+000 2.395659e+000 -3.785615e-002 -4.963406e-003 5.568594e-003 7.144806e-003 -2.439212e-003 -1.420446e-002 -2.505417e-002 -1.222942e-002 -1.691221e-003 -1.719232e-002 -2.457467e-002 6.576899e-003 -3.682701e-002
<VARIANCE> 25
 2.615674e+001 1.338709e+001 1.246594e+001 1.640344e+001 1.346627e+001 1.622433e+001 1.536268e+001 1.660474e+001 2.154573e+001 1.987988e+001 1.528892e+001 1.708180e+001 2.189288e-001 3.183525e-001 4.638957e-001 6.220084e-001 8.160701e-001 9.469729e-001 1.076904e+000 1.267147e+000 1.368991e+000 1.250378e+000 1.156661e+000 1.090557e+000 8.849370e-002
<GCONST> 7.417072e+001
<TRANSP> 5
 0.000000e+000 1.000000e+000 0.000000e+000 0.000000e+000 0.000000e+000
 0.000000e+000 5.639336e-001 4.360664e-001 0.000000e+000 0.000000e+000
 0.000000e+000 0.000000e+000 3.822456e-001 6.177545e-001 0.000000e+000
 0.000000e+000 0.000000e+000 0.000000e+000 9.204845e-001 7.951551e-002
 0.000000e+000 0.000000e+000 0.000000e+000 0.000000e+000 0.000000e+000
<ENDHMM>
~h "d"
<BEGINHMM>
<NUMSTATES> 5
<STATE> 2
<MEAN> 25
 3.428468e+000 1.065476e+000 2.395808e+000 1.692624e+000 6.107923e-001 -1.156889e+000 -1.540074e+000 -3.479638e+000 -1.536581e+000 -8.840871e-001 -2.147420e+000 -2.009249e+000 1.234452e+000 -1.199658e+000 8.462452e-001 -9.827548e-001 -4.218841e-001 -7.849911e-001 -1.251293e+000 -4.743025e-001 -7.933303e-001 -4.726794e-001 6.913591e-002 -7.766641e-001 2.217399e+000
<VARIANCE> 25
 6.169378e+001 1.089165e+002 4.204944e+001 8.820834e+001 4.728050e+001 5.813206e+001 6.742622e+001 5.269878e+001 5.541680e+001 5.354710e+001 4.618709e+001 3.535432e+001 4.580260e+000 1.308103e+001 3.752351e+000 9.087100e+000 4.120506e+000 7.923387e+000 7.903233e+000 6.485980e+000 6.812047e+000 6.308719e+000 5.321694e+000 3.696799e+000 8.617522e+000
<GCONST> 1.184048e+002
<STATE> 3
<MEAN> 25
 7.474372e+000 -5.666848e+000 3.882320e+000 -5.839174e+000 -5.126033e+000 -5.460174e+000 -2.885471e+000 -4.780581e+000 -4.548266e+000 -3.830613e+000 -1.626930e+000 -6.883941e+000 -8.764730e-003 -9.740533e-001 -2.171288e-001 -1.059831e+000 5.226040e-002 -3.763012e-001 2.596313e-001 2.033661e-001 1.464879e-001 -2.519039e-001 2.414388e-001 -2.024758e-001 1.020730e+000
<VARIANCE> 25
 2.478818e+001 9.428092e+001 4.086567e+001 1.237398e+002 6.917963e+001 8.192846e+001 1.331649e+002 4.898338e+001 5.664122e+001 7.221014e+001 6.546502e+001 3.645047e+001 9.116333e-001 5.696628e+000 2.357014e+000 8.699633e+000 5.308683e+000 4.783297e+000 9.010286e+000 3.881971e+000 4.732592e+000 4.769830e+000 3.497191e+000 2.942906e+000 5.299667e+000
<GCONST> 1.143245e+002
<STATE> 4
<MEAN> 25
 9.296580e+000 -1.486618e+001 3.146266e+000 -1.191539e+001 -9.249662e-001 -1.084336e+000 -6.209420e+000 -1.000364e+000 -3.562412e+000 -1.329379e+000 2.475877e+000 -5.354342e+000 -2.067226e-002 8.789841e-002 -2.498454e-001 8.161273e-002 1.914435e-002 2.022949e-001 2.495863e-001 2.069512e-002 -9.775636e-002 -2.227401e-002 -9.663865e-002 3.272860e-002 -1.681688e-001
<VARIANCE> 25
 1.942261e+001 6.422598e+001 4.267554e+001 8.023283e+001 3.313887e+001 7.321503e+001 1.036709e+002 7.478465e+001 5.633463e+001 9.927600e+001 8.093559e+001 4.049441e+001 2.351522e-001 9.138302e-001 6.899701e-001 1.299335e+000 1.193753e+000 1.272913e+000 1.558487e+000 1.359415e+000 1.386124e+000 1.360845e+000 1.438570e+000 1.319352e+000 3.972830e-001
<GCONST> 9.456290e+001
<TRANSP> 5
 0.000000e+000 1.000000e+000 0.000000e+000 0.000000e+000 0.000000e+000
 0.000000e+000 7.674730e-001 2.325270e-001 0.000000e+000 0.000000e+000
 0.000000e+000 0.000000e+000 7.170019e-001 2.829981e-001 0.000000e+000
 0.000000e+000 0.000000e+000 0.000000e+000 9.116825e-001 8.831750e-002
 0.000000e+000 0.000000e+000 0.000000e+000 0.000000e+000 0.000000e+000
<ENDHMM>
~h "g"
<BEGINHMM>
<NUMSTATES> 5
<STATE> 2
<MEAN> 25
 -3.887973e-001 6.296342e+000 1.823470e+000 5.554781e+000 2.407220e+000 9.819420e-001 7.371133e-001 -1.028061e+000 8.473973e-001 1.056156e+000 -2.527904e+000 -2.701019e-001 5.205989e-001 5.417484e-001 3.860558e-001 -4.184113e-001 -2.316284e-001 -5.196764e-001 -6.855629e-001 -7.315206e-001 -5.781900e-001 -4.251433e-001 -3.586886e-001 -3.117012e-001 1.062217e+000
<VARIANCE> 25
 5.013604e+001 7.108715e+001 7.199662e+001 5.386213e+001 3.326089e+001 4.053173e+001 4.825836e+001 5.108425e+001 5.986296e+001 4.996924e+001 4.507651e+001 3.785939e+001 4.604185e+000 5.769071e+000 6.111431e+000 5.295672e+000 3.495989e+000 4.409994e+000 4.852444e+000 5.528808e+000 6.145646e+000 5.958341e+000 3.996043e+000 3.235404e+000 4.435190e+000
<GCONST> 1.132819e+002
<STATE> 3
<MEAN> 25
 1.636580e+000 -1.395994e+000 9.701536e+000 -3.057475e+000 -9.716337e-001 -1.372353e+000 -5.439386e+000 -2.288608e+000 -1.389991e+000 -2.657632e+000 -2.137232e+000 -2.510336e+000 5.277503e-001 -1.264913e+000 1.395854e+000 -1.851944e+000 -9.315832e-001 -8.115278e-001 -1.177417e+000 -4.814063e-001 -6.976492e-001 -9.834060e-001 1.417419e-003 -5.567520e-001 2.261398e+000
<VARIANCE> 25
 6.510579e+001 1.575536e+002 1.065266e+002 8.457999e+001 5.835823e+001 9.496120e+001 6.908130e+001 7.284161e+001 7.189131e+001 6.303683e+001 6.015224e+001 3.494431e+001 3.768730e+000 1.170894e+001 7.135320e+000 9.225444e+000 5.289549e+000 8.399158e+000 6.276816e+000 7.613912e+000 6.686200e+000 7.517409e+000 6.375686e+000 3.239195e+000 5.295543e+000
<GCONST> 1.217487e+002
<STATE> 4
<MEAN> 25
 4.172312e+000 -1.890420e+000 1.938417e+001 -1.374720e+000 -6.610058e+000 -4.555528e+000 -9.591572e+000 -1.097587e+000 -3.324234e+000 -8.266406e+000 -7.379387e-001 -3.578351e+000 2.103571e-001 1.229085e-001 -2.636039e-001 6.547851e-002 -1.645993e-001 -7.520389e-002 1.270397e-001 -1.097723e-002 -1.747012e-001 -1.862117e-001 -1.539313e-001 -4.536852e-002 -7.485024e-002
<VARIANCE> 25
 2.411132e+001 6.778058e+001 1.617236e+002 7.216785e+001 7.325344e+001 6.984779e+001 5.373550e+001 1.039170e+002 5.683300e+001 6.384874e+001 7.309444e+001 2.599973e+001 5.321391e-001 1.104849e+000 1.716002e+000 1.422904e+000 1.699168e+000 2.046781e+000 2.269122e+000 1.822773e+000 1.921950e+000 2.146190e+000 2.279732e+000 1.359784e+000 5.376807e-001
<GCONST> 1.005808e+002
<TRANSP> 5
 0.000000e+000 1.000000e+000 0.000000e+000 0.000000e+000 0.000000e+000
 0.000000e+000 7.547781e-001 2.452219e-001 0.000000e+000 0.000000e+000
 0.000000e+000 0.000000e+000 7.382714e-001 2.617286e-001 0.000000e+000
 0.000000e+000 0.000000e+000 0.000000e+000 8.521540e-001 1.478461e-001
 0.000000e+000 0.000000e+000 0.000000e+000 0.000000e+000 0.000000e+000
<ENDHMM>
~h "k"
<BEGINHMM>
<NUMSTATES> 5
<STATE> 2
<MEAN> 25
 -2.666422e-001 -9.411182e-001 -2.223105e+000 -2.255043e+000 2.229812e+000 -9.631791e-001 -4.925043e-001 5.595186e-001 1.711617e+000 1.778796e+000 -2.543126e-002 -8.390957e-002 1.557952e+000 -8.414066e-001 -4.622537e-001 -1.977770e+000 -3.419788e-001 -9.118332e-001 -9.662372e-001 -6.177403e-001 -8.518689e-001 -9.732891e-001 -1.995104e-001 -6.383383e-001 2.640625e+000
<VARIANCE> 25
 6.454640e+001 7.779731e+001 8.446828e+001 1.059124e+002 7.057368e+001 7.141599e+001 7.678300e+001 5.332297e+001 4.796206e+001 4.819929e+001 4.303877e+001 3.049661e+001 4.028189e+000 7.852492e+000 7.821176e+000 1.137997e+001 7.501908e+000 8.949330e+000 8.151335e+000 8.365461e+000 5.434078e+000 5.249791e+000 5.255294e+000 2.955703e+000 7.811753e+000
<GCONST> 1.198568e+002
<STATE> 3
<MEAN> 25
 3.365211e+000 -3.683477e+000 -2.942795e+000 -5.691741e+000 1.137195e+000 -4.936485e-001 -4.978232e-001 -1.330130e+000 -1.268085e+000 -7.907774e-001 1.480287e+000 -5.533631e-001 2.143559e-001 -5.682481e-001 -6.137377e-001 -3.617415e-001 2.794024e-001 2.349119e-001 4.331176e-001 5.349536e-002 3.544288e-001 1.271236e-001 -1.453662e-001 -1.740829e-001 1.645947e-001
<VARIANCE> 25
 6.489883e+001 1.153812e+002 1.092579e+002 1.646814e+002 7.132190e+001 9.842146e+001 1.022174e+002 7.110997e+001 8.147241e+001 8.731019e+001 9.041628e+001 6.004271e+001 2.058698e+000 4.007948e+000 4.519496e+000 5.673592e+000 4.427897e+000 5.519698e+000 6.010143e+000 4.958729e+000 4.210598e+000 4.088634e+000 6.222504e+000 3.644180e+000 3.475179e+000
<GCONST> 1.190409e+002
<STATE> 4
<MEAN> 25
 8.165917e+000 -8.596828e+000 -4.088849e+000 -1.082088e+001 2.040087e+000 -1.864121e+000 -2.843915e+000 -1.497548e+000 -1.742856e+000 -2.843270e+000 -2.895544e+000 -3.609353e+000 -1.091014e-001 1.942675e-001 -6.190502e-002 1.801718e-001 -2.645853e-003 8.153398e-002 1.516166e-001 2.591254e-002 1.334617e-001 2.935438e-002 3.192613e-002 1.118657e-001 -3.685417e-001
<VARIANCE> 25
 4.430086e+001 1.432607e+002 7.145748e+001 1.144645e+002 6.875169e+001 7.919054e+001 9.208295e+001 9.457584e+001 4.578739e+001 6.446098e+001 6.187601e+001 2.914587e+001 3.845543e-001 1.219083e+000 1.075559e+000 1.397970e+000 1.544018e+000 1.366612e+000 1.741914e+000 1.672037e+000 1.557156e+000 1.629889e+000 1.952773e+000 1.273544e+000 6.525738e-001
<GCONST> 9.975556e+001
<TRANSP> 5
 0.000000e+000 1.000000e+000 0.000000e+000 0.000000e+000 0.000000e+000
 0.000000e+000 7.925040e-001 2.074960e-001 0.000000e+000 0.000000e+000
 0.000000e+000 0.000000e+000 5.723983e-001 4.276018e-001 0.000000e+000
 0.000000e+000 0.000000e+000 0.000000e+000 8.324972e-001 1.675027e-001
 0.000000e+000 0.000000e+000 0.000000e+000 0.000000e+000 0.000000e+000
<ENDHMM>
~h "l"
<BEGINHMM>
<NUMSTATES> 5
<STATE> 2
<MEAN> 25
 8.191475e+000 -1.307459e+000 2.218047e+000 -6.885200e+000 -3.472075e+000 -4.568702e+000 -5.422880e+000 -6.673043e+000 -3.033545e+000 -3.431159e+000 -5.720986e-001 -2.297894e+000 1.519450e-001 -1.338660e+000 2.628770e-001 -7.242484e-001 -2.632422e-001 -4.922229e-001 -3.572834e-001 3.337418e-002 6.518033e-001 -1.022088e-001 4.944128e-001 -6.738346e-002 1.391150e+000
<VARIANCE> 25
 5.331235e+001 8.845618e+001 8.811256e+001 1.268666e+002 6.716059e+001 1.005409e+002 8.358772e+001 8.078094e+001 6.867501e+001 6.875380e+001 9.033889e+001 4.469070e+001 2.542085e+000 6.039474e+000 4.657086e+000 1.120878e+001 4.566202e+000 8.051642e+000 7.263842e+000 6.052008e+000 6.605949e+000 5.420306e+000 5.008512e+000 4.472315e+000 6.041112e+000
<GCONST> 1.206859e+002
<STATE> 3
<MEAN> 25
 7.145167e+000 -5.526363e+000 8.502415e-002 -1.185067e+001 -4.663930e+000 -1.155472e+001 -2.405280e+000 -5.480539e+000 -1.795380e+000 -9.547977e+000 -2.150784e+000 -1.621959e+000 -1.013542e-001 -3.580742e-001 -2.898494e-001 -6.149673e-002 3.629841e-001 2.637450e-001 5.635272e-002 1.590834e-001 -2.482909e-002 -1.824578e-001 1.270387e-001 -8.307972e-002 1.747039e-001
<VARIANCE> 25
 1.923357e+001 6.220073e+001 6.287975e+001 5.558045e+001 6.291300e+001 9.147373e+001 7.937337e+001 6.553643e+001 6.957122e+001 7.403603e+001 6.835254e+001 3.956439e+001 5.149981e-001 1.599753e+000 1.632601e+000 2.719964e+000 2.628117e+000 2.839024e+000 2.894581e+000 3.139450e+000 2.787031e+000 3.278684e+000 2.459460e+000 2.043070e+000 7.843563e-001
<GCONST> 1.039547e+002
<STATE> 4
<MEAN> 25
 1.034883e+001 -1.411880e+001 2.863165e+000 -1.426599e+001 8.590399e-001 6.748327e-001 -8.013032e+000 2.367636e-001 -1.922293e+000 -1.272247e+000 1.939921e+000 -5.510213e+000 -8.582760e-003 2.127463e-001 -1.685389e-001 2.240144e-001 -5.151752e-002 2.119053e-002 9.576786e-002 -4.505765e-002 -9.899959e-002 -1.607713e-003 -1.917427e-001 -6.494132e-002 -2.283199e-001
<VARIANCE> 25
 2.501288e+001 9.674014e+001 7.607661e+001 7.823551e+001 5.778637e+001 6.654826e+001 5.056264e+001 7.132450e+001 5.289244e+001 1.192323e+002 8.247207e+001 4.774800e+001 2.817174e-001 1.047437e+000 8.260183e-001 1.317620e+000 1.294224e+000 1.338986e+000 1.406862e+000 1.558767e+000 1.465775e+000 1.340434e+000 1.613318e+000 1.220800e+000 4.546311e-001
<GCONST> 9.666685e+001
<TRANSP> 5
 0.000000e+000 1.000000e+000 0.000000e+000 0.000000e+000 0.000000e+000
 0.000000e+000 7.771490e-001 2.228510e-001 0.000000e+000 0.000000e+000
 0.000000e+000 0.000000e+000 8.610411e-001 1.389589e-001 0.000000e+000
 0.000000e+000 0.000000e+000 0.000000e+000 9.158486e-001 8.415140e-002
 0.000000e+000 0.000000e+000 0.000000e+000 0.000000e+000 0.000000e+000
<ENDHMM>
~h "m"
<BEGINHMM>
<NUMSTATES> 5
<STATE> 2
<MEAN> 25
 2.422756e+000 -1.687858e+000 -2.441925e+000 -2.492213e+000 1.774645e+000 -1.370838e+000 -2.571921e-001 -7.724826e-001 -1.584951e+000 -3.196237e+000 -1.511187e+000 -9.208037e-001 1.203058e+000 5.121366e-001 3.034562e-001 2.713483e-001 -1.345171e-001 -1.693412e-001 -5.164406e-001 -1.049862e+000 -1.203566e+000 -4.882825e-001 -6.121469e-001 -6.853214e-001 4.128790e-001
<VARIANCE> 25
 7.603352e+001 7.788818e+001 6.937936e+001 1.059118e+002 5.175155e+001 6.638062e+001 6.770789e+001 5.128801e+001 5.931295e+001 8.159922e+001 5.020319e+001 4.028258e+001 4.962394e+000 4.913594e+000 3.970669e+000 6.188532e+000 4.928090e+000 4.366141e+000 6.780922e+000 5.432577e+000 5.126906e+000 4.214600e+000 3.777695e+000 2.792146e+000 5.514969e+000
<GCONST> 1.161341e+002
<STATE> 3
<MEAN> 25
 9.157959e+000 -2.503309e+000 -3.046024e+000 -3.340245e+000 -9.728529e-001 -4.973381e+000 -3.760850e+000 -6.387496e+000 -7.725565e+000 -7.146703e+000 -4.971653e+000 -4.935770e+000 3.505981e-001 -9.056040e-001 -3.799602e-001 -4.812120e-001 2.946006e-002 -3.906214e-001 -7.730176e-002 -1.007077e-001 -3.477696e-001 -3.106085e-001 9.661680e-002 -2.637708e-001 1.027306e+000
<VARIANCE> 25
 3.073109e+001 8.574260e+001 4.724849e+001 9.624152e+001 5.468518e+001 7.082338e+001 8.050861e+001 5.555614e+001 6.112206e+001 6.621033e+001 6.353197e+001 3.481889e+001 2.781950e+000 8.300039e+000 4.949454e+000 1.129585e+001 5.906601e+000 4.975627e+000 5.182512e+000 6.485169e+000 5.237595e+000 5.010091e+000 4.345126e+000 3.332940e+000 8.958085e+000
<GCONST> 1.171121e+002
<STATE> 4
<MEAN> 25
 9.103957e+000 -4.400968e+000 -1.563960e+000 -2.701041e+000 -3.511968e-001 -2.642956e-001 -9.601421e-001 -5.413002e+000 -9.505017e+000 -4.854642e+000 -1.035412e+000 -4.754642e+000 -3.437741e-001 4.075903e-001 1.205930e-001 3.966656e-001 1.667388e-001 2.718087e-001 1.610898e-001 1.016260e-001 2.340860e-001 2.087075e-001 -2.498464e-002 1.636116e-001 -5.423244e-001
<VARIANCE> 25
 2.771573e+001 1.152918e+002 3.876285e+001 9.585700e+001 4.687616e+001 5.989351e+001 8.794642e+001 9.439085e+001 5.680517e+001 7.141581e+001 1.006646e+002 4.054174e+001 5.614206e-001 1.812284e+000 9.926011e-001 1.708344e+000 1.711449e+000 1.776904e+000 2.193743e+000 2.616522e+000 2.299053e+000 2.015869e+000 2.704903e+000 1.868945e+000 8.060519e-001
<GCONST> 1.021667e+002
<TRANSP> 5
 0.000000e+000 1.000000e+000 0.000000e+000 0.000000e+000 0.000000e+000
 0.000000e+000 5.605178e-001 4.394822e-001 0.000000e+000 0.000000e+000
 0.000000e+000 0.000000e+000 7.490153e-001 2.509847e-001 0.000000e+000
 0.000000e+000 0.000000e+000 0.000000e+000 9.121959e-001 8.780412e-002
 0.000000e+000 0.000000e+000 0.000000e+000 0.000000e+000 0.000000e+000
<ENDHMM>
~h "n"
<BEGINHMM>
<NUMSTATES> 5
<STATE> 2
<MEAN> 25
 9.302960e+000 -1.969666e+000 -3.084764e-001 -9.312905e-001 -4.956488e+000 -5.036774e+000 -2.066297e+000 -9.515404e+000 -1.031976e+001 -4.131546e+000 -2.516639e-001 -3.970580e+000 2.000698e-001 1.133921e+000 2.515509e-001 1.005246e+000 -1.142628e-001 -3.395865e-002 -9.766170e-002 -9.031640e-001 -5.910677e-001 3.522333e-001 -1.378976e-001 3.017905e-001 -1.007912e+000
<VARIANCE> 25
 3.119462e+001 7.109925e+001 4.366021e+001 7.994205e+001 5.346456e+001 6.696130e+001 6.804272e+001 1.072268e+002 7.443076e+001 1.190022e+002 6.469463e+001 3.607661e+001 1.221944e+000 3.228455e+000 2.080938e+000 3.941320e+000 2.702062e+000 2.945336e+000 3.650860e+000 5.353208e+000 3.784833e+000 3.598077e+000 3.237729e+000 2.398943e+000 2.785921e+000
<GCONST> 1.099411e+002
<STATE> 3
<MEAN> 25
 4.774721e+000 5.111238e+000 5.686723e-001 5.484087e+000 3.774171e-001 -9.468572e-001 -1.126597e+000 -1.105150e+001 -8.554927e+000 -1.057393e-001 -1.286764e+000 -7.592646e-001 -8.039885e-001 -1.025572e-001 -1.068795e-001 1.694167e-001 9.185490e-001 5.589938e-001 2.702128e-001 1.254854e+000 1.049876e+000 5.541871e-002 -1.009608e-001 1.187306e-001 -5.573214e-001
<VARIANCE> 25
 4.124816e+001 6.138942e+001 5.135169e+001 4.956169e+001 6.608880e+001 7.242287e+001 8.119630e+001 1.218483e+002 7.831172e+001 8.088811e+001 7.368090e+001 5.871548e+001 9.942105e-001 3.574507e+000 2.569423e+000 3.019666e+000 3.281410e+000 4.778622e+000 5.416125e+000 5.054924e+000 4.664815e+000 5.226110e+000 5.727599e+000 3.266445e+000 1.802796e+000
<GCONST> 1.125161e+002
<STATE> 4
<MEAN> 25
 2.951793e+000 4.134673e+000 7.418399e-001 5.581899e+000 1.325657e+000 1.715705e-001 -1.198333e+000 -4.484253e+000 -4.441078e+000 -8.184301e-001 -1.163291e+000 -9.234582e-001 -6.564738e-001 -1.929837e-001 -1.562997e-001 3.296826e-002 2.388697e-001 3.928248e-001 4.300231e-001 6.718190e-001 8.133282e-001 4.096547e-001 1.050111e-001 1.477820e-001 -4.614184e-001
<VARIANCE> 25
 4.171984e+001 6.821266e+001 3.252583e+001 4.237693e+001 4.789034e+001 4.227065e+001 6.056306e+001 5.396137e+001 5.737626e+001 4.852041e+001 8.123565e+001 6.713511e+001 4.407963e-001 9.681670e-001 9.389801e-001 1.089919e+000 1.703404e+000 2.066174e+000 2.037175e+000 2.143571e+000 2.205491e+000 2.146401e+000 2.160713e+000 2.018498e+000 3.695693e-001
<GCONST> 9.730591e+001
<TRANSP> 5
 0.000000e+000 1.000000e+000 0.000000e+000 0.000000e+000 0.000000e+000
 0.000000e+000 8.404720e-001 1.595280e-001 0.000000e+000 0.000000e+000
 0.000000e+000 0.000000e+000 6.910259e-001 3.089741e-001 0.000000e+000
 0.000000e+000 0.000000e+000 0.000000e+000 8.299279e-001 1.700721e-001
 0.000000e+000 0.000000e+000 0.000000e+000 0.000000e+000 0.000000e+000
<ENDHMM>
~h "p"
<BEGINHMM>
<NUMSTATES> 5
<STATE> 2
<MEAN> 25
 -4.470632e+000 3.156561e+000 -2.743496e+000 4.600811e+000 2.338612e+000 2.700366e+000 4.224475e+000 2.567064e+000 3.834759e+000 3.192638e+000 -6.832694e-001 1.875298e+000 -1.170719e-001 -3.823631e-001 7.597388e-002 -6.115506e-002 1.260699e-001 -2.115024e-003 4.537172e-002 6.051103e-002 2.724181e-001 2.737871e-001 3.112701e-001 2.394470e-001 4.321274e-001
<VARIANCE> 25
 3.972960e+001 1.880233e+001 2.873788e+001 2.423607e+001 2.090318e+001 2.999027e+001 2.931937e+001 2.904689e+001 2.978019e+001 2.912412e+001 2.988782e+001 2.007913e+001 2.014948e+000 1.691003e+000 1.515846e+000 2.124093e+000 1.881629e+000 2.223941e+000 2.757142e+000 2.504462e+000 2.294617e+000 2.461543e+000 2.518105e+000 1.859927e+000 3.231914e+000
<GCONST> 9.566693e+001
<STATE> 3
<MEAN> 25
 1.055883e+000 -2.156554e+000 -8.623494e-001 8.095792e-002 2.479411e+000 1.618465e+000 8.877996e-001 1.238418e+000 2.517586e+000 1.602642e+000 8.343654e-001 1.855260e+000 2.711802e+000 -2.508463e+000 -1.864120e-001 -3.324735e+000 -2.381270e-001 -1.335155e+000 -1.402347e+000 -1.179918e+000 -1.027594e+000 -1.846532e+000 -3.886536e-001 -5.932720e-001 5.210789e+000
<VARIANCE> 25
 5.722823e+001 5.905054e+001 4.115962e+001 5.673551e+001 3.638583e+001 5.053684e+001 3.516047e+001 4.137753e+001 3.274984e+001 3.824398e+001 2.971746e+001 2.297448e+001 4.868034e+000 9.003527e+000 8.297038e+000 8.291615e+000 5.624504e+000 7.292007e+000 5.881262e+000 7.690374e+000 4.231407e+000 7.105975e+000 4.996840e+000 3.280245e+000 8.467681e+000
<GCONST> 1.141603e+002
<STATE> 4
<MEAN> 25
 7.217500e+000 -1.162952e+001 -4.253219e+000 -9.553109e+000 2.652234e+000 5.276576e-001 -2.048449e+000 -1.612148e+000 -2.480880e-001 -2.999687e+000 -9.879814e-001 -1.323396e+000 4.137537e-001 -4.004608e-001 -3.097450e-002 -9.443186e-001 -3.266027e-001 -5.356070e-001 -2.843261e-001 -5.464078e-001 -6.650009e-001 -8.421503e-001 -2.662656e-001 -4.836093e-001 8.105436e-001
<VARIANCE> 25
 5.152480e+001 9.979346e+001 7.670798e+001 1.052952e+002 7.440725e+001 7.516517e+001 5.924931e+001 6.054644e+001 2.812233e+001 8.967608e+001 3.456620e+001 2.279098e+001 3.704623e+000 7.890944e+000 4.980137e+000 8.597662e+000 3.327286e+000 5.552061e+000 3.965328e+000 4.866617e+000 2.919001e+000 4.931642e+000 3.071000e+000 2.299072e+000 7.729640e+000
<GCONST> 1.144803e+002
<TRANSP> 5
 0.000000e+000 1.000000e+000 0.000000e+000 0.000000e+000 0.000000e+000
 0.000000e+000 7.446174e-001 2.553826e-001 0.000000e+000 0.000000e+000
 0.000000e+000 0.000000e+000 6.181372e-001 3.818629e-001 0.000000e+000
 0.000000e+000 0.000000e+000 0.000000e+000 6.669657e-001 3.330342e-001
 0.000000e+000 0.000000e+000 0.000000e+000 0.000000e+000 0.000000e+000
<ENDHMM>
~h "r"
<BEGINHMM>
<NUMSTATES> 5
<STATE> 2
<MEAN> 25
 6.875803e+000 -8.635388e+000 -3.465128e+000 -8.139775e+000 3.012042e+000 -1.650946e+000 -4.007985e+000 2.291118e+000 -3.987142e+000 -5.630846e+000 4.939046e+000 -9.980256e-001 -1.586649e-001 -9.615752e-001 -1.951119e-001 -3.014451e-001 3.140883e-001 8.393028e-002 5.597386e-002 -1.004932e-001 -2.636731e-002 3.056186e-001 -1.079666e-002 -4.464098e-001 5.352023e-001
<VARIANCE> 25
 4.416931e+001 8.120155e+001 5.773233e+001 8.057758e+001 3.921323e+001 6.636877e+001 7.755592e+001 9.628870e+001 5.270729e+001 9.957898e+001 7.435816e+001 4.505029e+001 5.793487e-001 1.689731e+000 1.208938e+000 2.314336e+000 2.321727e+000 2.261823e+000 1.998879e+000 3.667144e+000 2.949625e+000 2.928585e+000 3.703232e+000 2.267954e+000 7.719006e-001
<GCONST> 1.047253e+002
<STATE> 3
<MEAN> 25
 4.442113e+000 -1.227033e+001 -5.046824e+000 -8.596387e+000 1.904392e+000 -5.936622e+000 2.660099e+000 -7.695795e+000 -2.564221e+000 -8.765880e+000 -1.097297e+000 -1.607541e+000 -8.623995e-002 -5.337252e-002 -7.551165e-002 1.465993e-001 2.734612e-002 3.412727e-001 -7.785999e-002 4.048605e-003 1.629067e-001 -1.473282e-002 -1.276616e-001 -1.837638e-001 -1.297789e-001
<VARIANCE> 25
 2.862932e+001 7.109902e+001 4.401860e+001 6.923533e+001 2.489673e+001 6.092622e+001 6.433011e+001 7.020592e+001 3.053050e+001 1.105735e+002 3.784067e+001 2.852015e+001 1.565848e-001 5.490599e-001 4.499102e-001 6.638839e-001 8.008493e-001 9.007146e-001 8.666947e-001 1.094369e+000 1.175504e+000 9.784833e-001 1.028007e+000 8.794842e-001 2.041806e-001
<GCONST> 8.684461e+001
<STATE> 4
<MEAN> 25
 9.895802e+000 -1.778450e+001 2.899243e+000 -1.328137e+001 2.990921e+000 1.422626e+000 -7.942148e+000 2.957117e+000 -8.754005e-001 2.424331e+000 2.226667e+000 -5.443140e+000 4.081203e-002 1.729850e-001 -1.440485e-001 1.844089e-001 -1.263262e-001 1.740319e-002 9.550864e-002 3.917358e-002 -1.345426e-001 -9.769914e-002 -1.214937e-001 2.742229e-002 -1.778033e-001
<VARIANCE> 25
 2.184553e+001 6.607776e+001 4.005626e+001 9.843476e+001 3.088384e+001 3.845983e+001 7.714476e+001 5.875789e+001 4.074251e+001 8.298227e+001 6.267493e+001 3.561230e+001 2.297588e-001 8.404590e-001 5.954183e-001 1.207349e+000 1.084470e+000 9.958984e-001 1.444488e+000 1.297076e+000 1.240109e+000 1.177853e+000 1.310443e+000 1.072669e+000 3.460820e-001
<GCONST> 9.122552e+001
<TRANSP> 5
 0.000000e+000 1.000000e+000 0.000000e+000 0.000000e+000 0.000000e+000
 0.000000e+000 5.356874e-001 4.643126e-001 0.000000e+000 0.000000e+000
 0.000000e+000 0.000000e+000 5.865192e-001 4.134807e-001 0.000000e+000
 0.000000e+000 0.000000e+000 0.000000e+000 8.748741e-001 1.251258e-001
 0.000000e+000 0.000000e+000 0.000000e+000 0.000000e+000 0.000000e+000
<ENDHMM>
~h "s"
<BEGINHMM>
<NUMSTATES> 5
<STATE> 2
<MEAN> 25
 -3.159416e+000 2.572752e+000 -2.168347e+000 3.385907e+000 2.601512e+000 2.857266e+000 4.121347e+000 7.686624e-001 1.209110e+000 1.713752e+000 -8.341632e-001 -6.519975e-001 -1.069644e+000 -1.175475e-001 3.275961e-002 3.385668e-001 3.769773e-001 6.349646e-001 4.525915e-001 6.053684e-001 8.540840e-001 8.565007e-001 5.022983e-001 4.399815e-001 -3.231451e-001
<VARIANCE> 25
 3.899205e+001 4.362367e+001 6.485651e+001 5.450157e+001 3.591322e+001 4.560986e+001 3.840221e+001 4.616033e+001 4.635463e+001 5.519515e+001 4.409395e+001 3.551920e+001 2.910945e+000 1.899792e+000 2.627821e+000 2.519666e+000 2.872145e+000 3.316752e+000 2.806715e+000 3.704493e+000 4.043971e+000 3.596724e+000 2.957589e+000 2.564204e+000 1.559406e+000
<GCONST> 1.049850e+002
<STATE> 3
<MEAN> 25
 -9.608571e+000 -3.526095e+000 3.941303e+000 -1.795119e+000 4.694697e+000 6.943466e+000 1.495266e+000 4.101227e+000 5.219202e+000 4.811075e+000 4.674109e+000 1.335874e+000 -3.687104e-001 1.691250e-001 -6.933258e-001 3.102668e-001 -3.181595e-001 -6.085986e-002 7.225583e-002 1.391825e-001 1.414555e-001 4.505425e-002 -6.869197e-002 1.916138e-001 -2.651674e-001
<VARIANCE> 25
 3.297656e+001 6.975290e+001 1.546190e+002 1.035333e+002 4.698499e+001 6.368843e+001 7.390921e+001 4.239334e+001 3.468728e+001 3.222343e+001 3.774245e+001 3.060166e+001 1.365736e+000 2.026997e+000 3.740123e+000 2.940174e+000 2.568853e+000 2.722293e+000 3.157849e+000 3.380861e+000 2.947090e+000 2.430210e+000 2.700520e+000 2.244241e+000 1.533142e+000
<GCONST> 1.054198e+002
<STATE> 4
<MEAN> 25
 -9.252567e+000 3.186907e+000 -5.149877e+000 6.445854e+000 1.078251e+000 7.564560e-001 4.437274e+000 2.732385e+000 2.626804e+000 1.703696e+000 -1.976886e-001 2.667013e+000 -2.602300e-002 -4.037442e-002 7.142923e-003 -3.288128e-002 -1.954201e-002 -2.342433e-002 -1.184951e-002 -5.006619e-003 -3.822310e-004 -4.729560e-004 1.179499e-002 1.291791e-002 -5.197908e-002
<VARIANCE> 25
 2.482586e+001 8.957998e+000 1.132931e+001 1.247024e+001 1.460854e+001 2.670736e+001 1.321189e+001 1.826680e+001 1.939744e+001 2.136168e+001 1.521928e+001 1.683887e+001 4.325513e-001 3.588730e-001 6.107607e-001 7.341769e-001 8.785732e-001 9.830726e-001 1.194677e+000 1.247917e+000 1.290173e+000 1.277880e+000 1.207078e+000 1.150686e+000 3.165507e-001
<GCONST> 7.659403e+001
<TRANSP> 5
 0.000000e+000 1.000000e+000 0.000000e+000 0.000000e+000 0.000000e+000
 0.000000e+000 6.300686e-001 3.699314e-001 0.000000e+000 0.000000e+000
 0.000000e+000 0.000000e+000 7.744966e-001 2.255034e-001 0.000000e+000
 0.000000e+000 0.000000e+000 0.000000e+000 9.532105e-001 4.678950e-002
 0.000000e+000 0.000000e+000 0.000000e+000 0.000000e+000 0.000000e+000
<ENDHMM>
~h "t"
<BEGINHMM>
<NUMSTATES> 5
<STATE> 2
<MEAN> 25
 -2.054340e-001 1.601524e+000 -1.156090e+000 9.897425e-001 3.035600e-001 2.231234e+000 3.651437e+000 -5.716602e-002 8.077455e-001 1.235225e+000 4.184680e-001 6.815675e-001 -1.580489e-001 -2.712475e-001 -9.225439e-002 9.788723e-002 4.108507e-001 2.828230e-001 2.307454e-001 4.970186e-001 2.765197e-001 5.362068e-001 1.949001e-001 3.301408e-001 6.678681e-002
<VARIANCE> 25
 5.060442e+001 7.048207e+001 7.401232e+001 8.239519e+001 4.384892e+001 5.102467e+001 6.422767e+001 5.534828e+001 4.970860e+001 5.143893e+001 4.592053e+001 2.919658e+001 2.233677e+000 4.495336e+000 3.967502e+000 6.986706e+000 4.136087e+000 4.796391e+000 5.044778e+000 4.929570e+000 4.058095e+000 4.003471e+000 3.983315e+000 2.699330e+000 6.600553e+000
<GCONST> 1.126590e+002
<STATE> 3
<MEAN> 25
 3.331819e-001 -1.816124e+000 2.051614e+000 -1.688023e+000 1.105779e+000 1.942571e-001 1.354224e-001 -4.110560e-002 1.610960e+000 2.248291e+000 8.423985e-001 1.045321e+000 1.126340e+000 -1.450122e+000 1.005473e+000 -2.720154e+000 -3.739258e-001 -1.723304e+000 -1.396278e+000 -8.949457e-001 -3.574468e-001 -8.851609e-001 -1.076356e-001 -1.317130e-001 3.764965e+000
<VARIANCE> 25
 4.835740e+001 8.298143e+001 6.421567e+001 8.993114e+001 3.542739e+001 5.308210e+001 6.053407e+001 5.196102e+001 3.989725e+001 4.004113e+001 4.379985e+001 2.776781e+001 5.780765e+000 7.936579e+000 6.305312e+000 1.058262e+001 4.012906e+000 8.981956e+000 7.258215e+000 6.421267e+000 5.688730e+000 6.232510e+000 4.976202e+000 3.760073e+000 1.120511e+001
<GCONST> 1.173450e+002
<STATE> 4
<MEAN> 25
 4.066911e-001 -1.577632e+000 1.336791e+000 -3.695262e+000 1.072237e+000 2.859187e-001 1.624435e-001 -6.184276e-001 1.732905e+000 1.852968e+000 2.397424e-001 1.430473e+000 2.067958e-001 -5.250145e-002 2.124039e-001 -5.197421e-001 -2.002704e-001 -7.615456e-001 -6.164318e-001 -2.615576e-001 -2.210565e-001 -5.849850e-001 -2.988706e-001 -2.557795e-001 5.465767e-001
<VARIANCE> 25
 6.410674e+001 9.696262e+001 9.389526e+001 1.258849e+002 5.551426e+001 7.537174e+001 6.761823e+001 5.552215e+001 5.566997e+001 5.770324e+001 4.073679e+001 3.415337e+001 2.402276e+000 3.600573e+000 4.254359e+000 5.051626e+000 2.713503e+000 5.070716e+000 4.027755e+000 4.560741e+000 3.941788e+000 3.854636e+000 3.312176e+000 2.439238e+000 4.610534e+000
<GCONST> 1.130380e+002
<TRANSP> 5
 0.000000e+000 1.000000e+000 0.000000e+000 0.000000e+000 0.000000e+000
 0.000000e+000 5.330997e-001 4.669004e-001 0.000000e+000 0.000000e+000
 0.000000e+000 0.000000e+000 5.513949e-001 4.486051e-001 0.000000e+000
 0.000000e+000 0.000000e+000 0.000000e+000 5.487506e-001 4.512493e-001
 0.000000e+000 0.000000e+000 0.000000e+000 0.000000e+000 0.000000e+000
<ENDHMM>
~h "aa"
<BEGINHMM>
<NUMSTATES> 5
<STATE> 2
<MEAN> 25
 4.291534e+000 -7.496789e+000 -4.372222e+000 -4.539727e+000 2.547719e+000 -1.846575e+000 -8.256214e-001 -2.376707e+000 -2.799289e+000 -4.925453e+000 -9.873860e-001 -2.195202e+000 -1.737701e-001 3.779941e-001 1.635164e-002 4.943951e-001 2.574995e-001 3.741156e-001 1.662657e-001 2.618876e-001 1.794933e-001 2.245039e-001 7.216253e-002 1.488522e-001 -6.365960e-001
<VARIANCE> 25
 4.872360e+001 9.723428e+001 5.712437e+001 8.774455e+001 6.085469e+001 6.726500e+001 7.147381e+001 7.121123e+001 4.842961e+001 8.020534e+001 5.763667e+001 4.063805e+001 2.272369e+000 4.224521e+000 2.662526e+000 4.098547e+000 2.922034e+000 3.687269e+000 3.756054e+000 3.858598e+000 3.670519e+000 4.227014e+000 3.372903e+000 2.529294e+000 4.305655e+000
<GCONST> 1.118535e+002
<STATE> 3
<MEAN> 25
 2.150293e+000 -4.751429e+000 -3.990028e+000 -1.142034e+000 3.073853e+000 5.125797e-001 1.349631e+000 -1.065692e+000 -8.257299e-001 -2.015760e+000 -6.474481e-001 -1.238164e+000 -3.554002e-001 4.160357e-001 -1.107931e-003 2.093157e-001 -1.809206e-001 1.235969e-001 3.068655e-001 1.697430e-001 3.453878e-001 3.628130e-001 5.231373e-002 7.102182e-002 -6.687173e-001
<VARIANCE> 25
 5.598796e+001 1.026000e+002 4.494714e+001 8.306845e+001 3.782879e+001 6.954315e+001 6.180738e+001 5.862171e+001 4.512546e+001 7.147652e+001 4.254662e+001 3.766486e+001 6.537766e-001 1.626785e+000 1.208429e+000 1.605700e+000 1.641746e+000 1.993894e+000 2.013897e+000 2.161016e+000 2.109300e+000 2.016649e+000 2.143502e+000 1.751667e+000 7.798566e-001
<GCONST> 1.002595e+002
<STATE> 4
<MEAN> 25
 -3.364572e+000 3.946133e-001 -3.152088e+000 3.039150e+000 3.116534e+000 1.481740e+000 3.008859e+000 1.890086e+000 2.090729e+000 1.443838e+000 -2.219970e-001 9.977407e-001 -1.604792e-001 1.263430e-001 8.966149e-002 3.523409e-002 -1.142611e-001 -4.306105e-002 2.390837e-003 2.704480e-002 6.803485e-002 1.110241e-001 2.576683e-002 2.067346e-002 -2.044508e-001
<VARIANCE> 25
 5.039459e+001 7.525326e+001 2.964231e+001 7.686777e+001 2.153175e+001 3.328663e+001 3.580008e+001 2.704095e+001 3.000405e+001 3.577076e+001 2.438344e+001 2.679739e+001 2.458706e-001 5.080330e-001 5.715780e-001 7.507102e-001 9.303591e-001 1.033375e+000 1.131737e+000 1.244801e+000 1.299035e+000 1.255506e+000 1.218878e+000 1.085561e+000 2.030361e-001
<GCONST> 8.538156e+001
<TRANSP> 5
 0.000000e+000 1.000000e+000 0.000000e+000 0.000000e+000 0.000000e+000
 0.000000e+000 8.207619e-001 1.792381e-001 0.000000e+000 0.000000e+000
 0.000000e+000 0.000000e+000 4.128088e-001 5.871912e-001 0.000000e+000
 0.000000e+000 0.000000e+000 0.000000e+000 8.132772e-001 1.867228e-001
 0.000000e+000 0.000000e+000 0.000000e+000 0.000000e+000 0.000000e+000
<ENDHMM>
~h "eu"
<BEGINHMM>
<NUMSTATES> 5
<STATE> 2
<MEAN> 25
 -5.778260e+000 2.199085e+000 -3.320123e+000 2.676843e+000 1.258494e+000 1.801319e+000 5.322179e+000 2.862636e+000 3.277358e+000 3.234699e+000 5.158713e-001 2.237197e+000 7.023568e-001 -1.205734e-001 6.248366e-001 -6.256806e-001 -1.594856e-001 -6.693528e-001 -3.908266e-001 -3.517111e-001 -4.625458e-001 -4.499586e-001 -1.403263e-002 -2.082478e-001 1.349068e+000
<VARIANCE> 25
 7.651958e+001 4.305828e+001 4.123398e+001 4.757870e+001 3.777492e+001 5.818805e+001 3.667642e+001 3.833304e+001 3.692442e+001 4.563524e+001 3.271635e+001 2.847134e+001 4.601028e+000 4.458105e+000 4.648638e+000 4.434723e+000 3.574085e+000 4.588425e+000 4.584496e+000 3.430680e+000 3.907607e+000 4.771448e+000 3.294351e+000 2.644583e+000 3.666197e+000
<GCONST> 1.088280e+002
<STATE> 3
<MEAN> 25
 1.290448e+000 -7.154121e-001 2.111488e+000 -1.193039e+000 5.755472e-001 -2.323427e+000 -8.328893e-001 -6.226330e-001 -3.064183e-001 -9.425692e-001 8.163812e-001 1.470553e-001 2.103363e+000 -2.434429e+000 8.529882e-001 -2.880904e+000 -8.904741e-001 -1.385224e+000 -1.967976e+000 -1.094417e+000 -1.283859e+000 -1.761296e+000 3.064084e-001 -9.934916e-001 3.866592e+000
<VARIANCE> 25
 7.726810e+001 1.033213e+002 6.849332e+001 8.646388e+001 6.076683e+001 8.133796e+001 5.797433e+001 5.288478e+001 5.456161e+001 6.896139e+001 4.223089e+001 2.951709e+001 7.245413e+000 1.031357e+001 9.361581e+000 7.672487e+000 5.908823e+000 1.211262e+001 7.541156e+000 7.202832e+000 7.314760e+000 1.148144e+001 6.763266e+000 3.842791e+000 7.980836e+000
<GCONST> 1.221323e+002
<STATE> 4
<MEAN> 25
 5.516642e+000 -9.985264e+000 7.403197e+000 -1.156609e+001 -9.177802e-001 7.033258e-001 -7.134045e+000 8.473571e-001 -1.764252e+000 -8.416131e-001 3.152936e+000 -3.096670e+000 6.690711e-001 4.170877e-001 -2.888820e-001 1.232769e-001 -2.368142e-001 -8.425402e-002 1.475292e-002 -2.904777e-001 -5.288821e-001 -3.431411e-001 -2.279463e-001 -2.611071e-001 -3.989774e-002
<VARIANCE> 25
 1.045398e+002 1.191755e+002 1.271627e+002 9.959496e+001 9.852461e+001 8.706673e+001 8.145618e+001 6.796578e+001 7.477726e+001 9.641237e+001 6.726277e+001 3.738869e+001 3.013302e+000 5.092366e+000 2.928445e+000 5.253561e+000 3.868874e+000 3.729077e+000 4.744316e+000 4.392924e+000 4.687438e+000 3.908237e+000 3.387915e+000 2.415280e+000 3.845603e+000
<GCONST> 1.167400e+002
<TRANSP> 5
 0.000000e+000 1.000000e+000 0.000000e+000 0.000000e+000 0.000000e+000
 0.000000e+000 5.879158e-001 4.120842e-001 0.000000e+000 0.000000e+000
 0.000000e+000 0.000000e+000 5.819491e-001 4.180510e-001 0.000000e+000
 0.000000e+000 0.000000e+000 0.000000e+000 8.295976e-001 1.704025e-001
 0.000000e+000 0.000000e+000 0.000000e+000 0.000000e+000 0.000000e+000
<ENDHMM>
~h "hh"
<BEGINHMM>
<NUMSTATES> 5
<STATE> 2
<MEAN> 25
 1.108638e+000 -2.646164e+000 -5.883565e+000 -2.557756e+000 8.851078e-001 3.356753e+000 5.108841e+000 1.485494e-001 8.833643e-001 -6.798592e-001 -1.584313e+000 8.846368e-001 -5.917240e-001 3.754017e-001 -1.826275e-001 9.011886e-001 7.610864e-001 5.485319e-001 4.595134e-001 7.045022e-001 7.167957e-001 7.451524e-001 -1.567417e-002 3.272466e-001 -8.331065e-001
<VARIANCE> 25
 3.573378e+001 6.799545e+001 5.881950e+001 7.728326e+001 8.900149e+001 6.726321e+001 1.012367e+002 7.626144e+001 6.080977e+001 6.660989e+001 6.918615e+001 4.531616e+001 1.202940e+000 2.795024e+000 2.923749e+000 4.126490e+000 3.494297e+000 4.582377e+000 3.828589e+000 3.953894e+000 3.863363e+000 3.399833e+000 3.687696e+000 3.387723e+000 1.264158e+000
<GCONST> 1.106987e+002
<STATE> 3
<MEAN> 25
 -1.386607e+000 -1.340851e+000 -6.603734e+000 1.561464e+000 7.940532e+000 5.706365e+000 5.026382e+000 2.823879e+000 4.046156e+000 3.629393e+000 -1.764833e-001 1.388502e+000 -2.504602e-001 2.416117e-001 1.936232e-001 2.464628e-001 -3.025871e-001 -9.045293e-002 -6.633542e-002 2.244549e-001 1.174969e-001 3.056982e-001 1.998173e-001 1.108344e-001 -8.658370e-001
<VARIANCE> 25
 2.256138e+001 3.430718e+001 2.857731e+001 3.531868e+001 5.571467e+001 3.742066e+001 4.235371e+001 4.741678e+001 4.678094e+001 3.388454e+001 3.708834e+001 2.488157e+001 7.636428e-001 1.174695e+000 1.891532e+000 1.740640e+000 2.321758e+000 2.216512e+000 2.392300e+000 2.607391e+000 2.442508e+000 1.933688e+000 1.855941e+000 1.595556e+000 8.463986e-001
<GCONST> 9.598207e+001
<STATE> 4
<MEAN> 25
 -7.217490e+000 3.663103e+000 -5.401380e+000 5.537236e+000 2.363527e+000 -9.832584e-001 4.412238e+000 1.566045e+000 2.147117e+000 8.113304e-001 -1.309768e+000 2.187530e+000 -8.265143e-002 -1.908762e-002 3.900029e-003 4.556498e-003 -1.045878e-002 -2.496339e-002 -1.129002e-002 -5.953343e-003 9.222822e-003 2.062667e-002 1.877996e-002 2.681468e-002 -6.698973e-002
<VARIANCE> 25
 1.669315e+001 7.758698e+000 1.094325e+001 1.235399e+001 1.081300e+001 1.363274e+001 1.295189e+001 1.375831e+001 2.082742e+001 1.907988e+001 1.422936e+001 1.563443e+001 2.374364e-001 3.471277e-001 5.178732e-001 6.810079e-001 8.660405e-001 9.529670e-001 1.205485e+000 1.315018e+000 1.346488e+000 1.265969e+000 1.237434e+000 1.099954e+000 1.058418e-001
<GCONST> 7.260968e+001
<TRANSP> 5
 0.000000e+000 1.000000e+000 0.000000e+000 0.000000e+000 0.000000e+000
 0.000000e+000 7.839006e-001 2.160994e-001 0.000000e+000 0.000000e+000
 0.000000e+000 0.000000e+000 7.963475e-001 2.036525e-001 0.000000e+000
 0.000000e+000 0.000000e+000 0.000000e+000 9.567106e-001 4.328939e-002
 0.000000e+000 0.000000e+000 0.000000e+000 0.000000e+000 0.000000e+000
<ENDHMM>
~h "ih"
<BEGINHMM>
<NUMSTATES> 5
<STATE> 2
<MEAN> 25
 3.660426e+000 8.890191e-002 8.641085e+000 -1.292517e+000 -2.227982e+000 -5.393141e+000 -6.367550e+000 -2.538619e+000 -2.898767e+000 -4.612576e+000 -2.562825e+000 -2.419524e+000 1.296145e-001 -2.323342e-001 1.730459e+000 -6.292607e-001 -5.205629e-001 -1.548851e+000 -1.052196e+000 -2.220206e-001 -7.541839e-001 -1.123164e+000 -3.379272e-001 -3.776360e-001 1.335537e+000
<VARIANCE> 25
 5.069986e+001 8.967188e+001 1.087214e+002 1.138322e+002 5.321931e+001 8.886485e+001 7.491854e+001 8.670585e+001 7.424580e+001 7.003493e+001 6.536780e+001 3.591423e+001 3.748596e+000 6.783891e+000 7.799628e+000 1.104512e+001 5.255646e+000 8.183281e+000 6.802192e+000 7.997396e+000 6.899435e+000 6.217646e+000 5.217741e+000 3.544201e+000 6.350171e+000
<GCONST> 1.213250e+002
<STATE> 3
<MEAN> 25
 3.114474e+000 -2.236363e-001 1.558893e+001 3.143800e+000 -2.569080e+000 -1.145641e+001 -8.701178e+000 4.601689e-001 -5.764519e+000 -1.112194e+001 -4.015717e+000 -2.114054e+000 3.496353e-002 4.876294e-001 -6.569855e-001 -1.533910e-002 1.683985e-001 5.592358e-001 2.850147e-001 -3.714328e-001 -8.070166e-002 2.304450e-001 -5.387084e-002 1.504119e-001 -5.285027e-001
<VARIANCE> 25
 2.050603e+001 6.000716e+001 1.204463e+002 1.406740e+002 4.578636e+001 9.963528e+001 6.336219e+001 1.105290e+002 6.082810e+001 5.289336e+001 6.728755e+001 3.673168e+001 8.103083e-001 2.174966e+000 3.884021e+000 3.788302e+000 2.980308e+000 5.006473e+000 3.913380e+000 4.202859e+000 3.513480e+000 3.136316e+000 3.129603e+000 2.798858e+000 1.245995e+000
<GCONST> 1.095164e+002
<STATE> 4
<MEAN> 25
 4.630918e+000 2.794064e+000 1.132649e+001 -8.446635e+000 -7.286129e+000 -5.371732e+000 -7.373624e+000 -6.429032e+000 -7.241102e+000 -6.390903e+000 -1.104442e+000 -1.767569e+000 2.053307e-002 1.350904e-001 -3.178515e-001 4.452441e-001 6.536625e-002 2.820822e-001 2.164519e-001 1.198839e-001 1.163951e-001 2.609653e-001 2.048198e-001 1.260723e-001 -5.188956e-001
<VARIANCE> 25
 3.941554e+001 7.795505e+001 1.048186e+002 1.331106e+002 7.501209e+001 9.740875e+001 5.563639e+001 7.392667e+001 6.290574e+001 4.932000e+001 1.368878e+002 6.200655e+001 5.196698e-001 9.825650e-001 1.319910e+000 2.420352e+000 1.623327e+000 2.125750e+000 1.846381e+000 2.086397e+000 1.879645e+000 1.788205e+000 2.179920e+000 1.848496e+000 6.511515e-001
<GCONST> 1.030790e+002
<TRANSP> 5
 0.000000e+000 1.000000e+000 0.000000e+000 0.000000e+000 0.000000e+000
 0.000000e+000 7.200106e-001 2.799894e-001 0.000000e+000 0.000000e+000
 0.000000e+000 0.000000e+000 8.082801e-001 1.917199e-001 0.000000e+000
 0.000000e+000 0.000000e+000 0.000000e+000 9.142877e-001 8.571227e-002
 0.000000e+000 0.000000e+000 0.000000e+000 0.000000e+000 0.000000e+000
<ENDHMM>
~h "jh"
<BEGINHMM>
<NUMSTATES> 5
<STATE> 2
<MEAN> 25
 4.682240e+000 5.257152e+000 6.090637e+000 -3.281401e+000 -1.890180e+000 -7.056170e+000 -5.306142e+000 -9.248373e+000 -5.331501e+000 -5.620054e+000 -1.193845e+001 -6.015794e+000 -5.980452e-001 2.204343e-001 1.085964e+000 1.564221e+000 2.814513e-001 6.932446e-001 -2.303314e-001 1.019567e+000 -9.473047e-002 -3.674903e-001 1.752754e-001 -8.028835e-001 -5.785933e-001
<VARIANCE> 25
 2.555898e+001 4.257991e+001 5.627773e+001 1.032276e+002 3.398717e+001 9.286566e+001 3.286835e+001 6.927863e+001 5.306178e+001 4.193301e+001 6.492117e+001 5.308971e+001 2.012273e+000 4.350074e+000 5.990288e+000 5.879422e+000 4.112026e+000 9.083616e+000 3.750283e+000 4.429948e+000 5.238702e+000 2.847456e+000 3.802864e+000 2.747580e+000 3.319060e+000
<GCONST> 1.116573e+002
<STATE> 3
<MEAN> 25
 3.055003e-001 1.082599e+000 1.005364e+001 2.798848e+000 2.973770e+000 -5.166481e+000 -5.559267e+000 -1.209813e+000 -3.822262e+000 -4.657827e+000 -4.296229e+000 -5.071814e+000 -6.613466e-001 -1.708173e+000 4.881621e-001 -1.014802e+000 9.185307e-002 -2.887655e-001 -2.259172e-001 -1.156864e-001 5.807932e-001 7.350941e-001 7.012447e-001 4.942842e-001 1.820815e+000
<VARIANCE> 25
 4.806469e+001 9.381573e+001 8.471378e+001 8.995085e+001 3.958893e+001 1.154369e+002 6.686046e+001 6.293893e+001 5.283822e+001 4.936925e+001 5.340511e+001 3.693110e+001 5.957703e+000 1.002860e+001 8.329728e+000 1.166965e+001 4.932621e+000 1.100000e+001 7.608075e+000 6.429551e+000 5.834485e+000 4.685665e+000 6.403493e+000 3.707509e+000 7.271512e+000
<GCONST> 1.205352e+002
<STATE> 4
<MEAN> 25
 -6.440078e-001 -9.320084e+000 1.484017e+001 -2.426304e+000 2.750376e-001 -3.058029e+000 -8.808735e+000 -8.857859e-001 9.122644e-001 -2.679461e+000 8.662394e-001 -3.500922e+000 6.259684e-001 -6.235348e-001 -1.958221e-001 -4.605127e-001 -5.084978e-001 -3.134846e-001 -2.015111e-001 -3.559301e-001 8.143307e-002 1.074882e-002 9.874248e-002 -2.140591e-001 6.579565e-001
<VARIANCE> 25
 9.170585e+001 1.097529e+002 1.025585e+002 1.195723e+002 1.206868e+002 9.823046e+001 1.600464e+002 8.057915e+001 4.526710e+001 5.011641e+001 4.752627e+001 3.411407e+001 4.720078e+000 6.501828e+000 6.159267e+000 6.170821e+000 4.771768e+000 5.287945e+000 6.988086e+000 5.976100e+000 5.163368e+000 4.248436e+000 3.587451e+000 3.271510e+000 1.933798e+000
<GCONST> 1.187734e+002
<TRANSP> 5
 0.000000e+000 1.000000e+000 0.000000e+000 0.000000e+000 0.000000e+000
 0.000000e+000 8.015167e-001 1.984833e-001 0.000000e+000 0.000000e+000
 0.000000e+000 0.000000e+000 7.908069e-001 2.091931e-001 0.000000e+000
 0.000000e+000 0.000000e+000 0.000000e+000 8.546618e-001 1.453382e-001
 0.000000e+000 0.000000e+000 0.000000e+000 0.000000e+000 0.000000e+000
<ENDHMM>
~h "ng"
<BEGINHMM>
<NUMSTATES> 5
<STATE> 2
<MEAN> 25
 8.678576e+000 6.075022e+000 -3.706825e-001 3.128267e+000 -3.466030e+000 -2.727833e+000 -3.031277e+000 -1.077709e+001 -1.076099e+001 -2.578157e+000 -2.893824e+000 -2.107887e+000 -7.674813e-001 4.746034e-001 2.808505e-001 5.768824e-001 4.524153e-001 2.874941e-001 2.366006e-001 2.322798e-001 7.195397e-001 3.625354e-001 -2.113791e-001 1.199237e-001 -8.638118e-001
<VARIANCE> 25
 2.939574e+001 3.391516e+001 2.658318e+001 3.135085e+001 4.691510e+001 4.356196e+001 1.151566e+002 5.349006e+001 5.264727e+001 6.099385e+001 8.794676e+001 9.051390e+001 5.126076e-001 1.213287e+000 1.239407e+000 1.379531e+000 2.346678e+000 2.638315e+000 3.138820e+000 3.812464e+000 3.113379e+000 2.979534e+000 2.807136e+000 2.651628e+000 2.602516e-001
<GCONST> 1.002375e+002
<STATE> 3
<MEAN> 25
 -2.333451e+000 4.287412e+000 -2.615111e+000 6.507630e+000 5.038073e+000 3.424322e+000 4.397481e+000 1.838081e-001 1.574579e+000 1.788703e+000 -2.639531e+000 9.720526e-001 -7.531720e-001 -5.015742e-001 -4.267958e-001 -1.498405e-001 7.327843e-002 3.199844e-001 6.110334e-001 7.868546e-001 8.337065e-001 6.557745e-001 5.749763e-001 4.449234e-001 -4.559089e-001
<VARIANCE> 25
 2.172223e+001 3.440515e+001 4.935648e+001 3.138150e+001 3.272073e+001 3.892725e+001 5.685265e+001 4.252216e+001 3.847233e+001 4.780018e+001 5.870646e+001 4.861612e+001 5.376137e-001 1.916768e+000 2.206777e+000 2.102213e+000 2.727026e+000 3.649331e+000 3.952832e+000 3.569761e+000 3.125053e+000 3.299556e+000 3.380582e+000 3.523055e+000 5.339642e-001
<GCONST> 1.010148e+002
<STATE> 4
<MEAN> 25
 -7.548071e+000 3.736934e+000 -4.815626e+000 5.901455e+000 2.174210e+000 -1.125539e+000 4.262860e+000 1.362415e+000 2.437688e+000 8.534495e-001 -1.092051e+000 2.533032e+000 -8.235873e-002 -4.728437e-002 -2.731735e-002 -1.637669e-002 -5.281490e-003 3.707529e-003 3.140758e-002 6.395487e-002 4.748223e-002 2.928504e-002 1.368541e-002 2.278933e-003 -4.809190e-002
<VARIANCE> 25
 1.340582e+001 5.657757e+000 1.149347e+001 1.024787e+001 1.001244e+001 1.211893e+001 1.422522e+001 1.304350e+001 1.969612e+001 1.792496e+001 1.399128e+001 1.525501e+001 1.944956e-001 3.112942e-001 4.799100e-001 6.143806e-001 7.939634e-001 9.594613e-001 1.152606e+000 1.277424e+000 1.259905e+000 1.304841e+000 1.251967e+000 1.098772e+000 7.973564e-002
<GCONST> 7.067245e+001
<TRANSP> 5
 0.000000e+000 1.000000e+000 0.000000e+000 0.000000e+000 0.000000e+000
 0.000000e+000 9.080716e-001 9.192842e-002 0.000000e+000 0.000000e+000
 0.000000e+000 0.000000e+000 8.396806e-001 1.603195e-001 0.000000e+000
 0.000000e+000 0.000000e+000 0.000000e+000 9.571001e-001 4.289993e-002
 0.000000e+000 0.000000e+000 0.000000e+000 0.000000e+000 0.000000e+000
<ENDHMM>
~h "ny"
<BEGINHMM>
<NUMSTATES> 5
<STATE> 2
<MEAN> 25
 -6.970716e-001 1.646280e+000 1.500182e+000 1.663239e+000 1.254583e+000 2.057899e+000 1.728742e-001 -2.108997e+000 1.185446e-001 1.417253e+000 -5.024025e-001 3.624537e-001 1.167817e+000 9.835710e-002 1.478454e+000 -9.446536e-001 -8.195851e-001 -6.792099e-001 -1.296264e+000 -1.162905e+000 -1.272082e+000 -1.105730e+000 -5.770915e-001 -6.093457e-001 1.695446e+000
<VARIANCE> 25
 8.281064e+001 9.950813e+001 7.395100e+001 6.962551e+001 4.253504e+001 6.040583e+001 5.064802e+001 5.674343e+001 6.838073e+001 5.155317e+001 5.720378e+001 4.907973e+001 4.873857e+000 8.873423e+000 9.042168e+000 7.591450e+000 4.577629e+000 7.811332e+000 5.819766e+000 6.010413e+000 6.763577e+000 5.598825e+000 6.268050e+000 3.966900e+000 6.471608e+000
<GCONST> 1.192752e+002
<STATE> 3
<MEAN> 25
 5.356813e+000 -3.415391e+000 7.128811e+000 -5.481207e+000 -4.771724e+000 -6.561927e+000 -4.615287e+000 -5.446779e+000 -7.516431e+000 -7.187117e+000 -4.642034e+000 -7.624442e+000 2.231273e-001 -2.000496e+000 -7.857512e-001 -6.613674e-001 2.173961e-001 -4.197773e-001 1.799728e-001 5.910687e-001 -9.281323e-003 -1.506473e-001 6.226072e-001 -4.829540e-001 1.507749e+000
<VARIANCE> 25
 2.306103e+001 9.420483e+001 1.183572e+002 1.014999e+002 3.128449e+001 7.691175e+001 4.900520e+001 7.010379e+001 4.948514e+001 4.966286e+001 4.973654e+001 3.789195e+001 1.690290e+000 5.210084e+000 5.659118e+000 8.313334e+000 3.355074e+000 7.611605e+000 5.202911e+000 3.295470e+000 3.411067e+000 3.295353e+000 3.021338e+000 2.575574e+000 4.497072e+000
<GCONST> 1.123837e+002
<STATE> 4
<MEAN> 25
 8.071964e+000 -9.023475e+000 8.153405e-002 -8.122641e+000 -3.066833e+000 -1.906238e+000 -1.116274e+000 -1.799578e+000 -8.227470e+000 -7.750901e+000 2.806587e+000 -5.990683e+000 4.715511e-002 2.867701e-001 -1.686992e-001 3.963357e-002 6.343285e-003 1.330471e-001 1.772188e-001 -1.122976e-002 -1.732969e-002 -6.347998e-002 -6.386153e-002 1.543951e-001 -2.525037e-001
<VARIANCE> 25
 2.611655e+001 9.258147e+001 1.024709e+002 6.019362e+001 8.847326e+001 5.877402e+001 6.144529e+001 8.743623e+001 4.720240e+001 5.474656e+001 6.664672e+001 3.546086e+001 2.293840e-001 1.337202e+000 9.248411e-001 1.487085e+000 1.673606e+000 1.728633e+000 1.693952e+000 1.501471e+000 1.412950e+000 1.297338e+000 1.465245e+000 1.186364e+000 4.426403e-001
<GCONST> 9.671182e+001
<TRANSP> 5
 0.000000e+000 1.000000e+000 0.000000e+000 0.000000e+000 0.000000e+000
 0.000000e+000 7.996877e-001 2.003123e-001 0.000000e+000 0.000000e+000
 0.000000e+000 0.000000e+000 7.964227e-001 2.035773e-001 0.000000e+000
 0.000000e+000 0.000000e+000 0.000000e+000 9.311057e-001 6.889424e-002
 0.000000e+000 0.000000e+000 0.000000e+000 0.000000e+000 0.000000e+000
<ENDHMM>
~h "sp"
<BEGINHMM>
<NUMSTATES> 3
<STATE> 2
~s "silst"
<TRANSP> 3
 0.000000e+000 5.519465e-001 4.480536e-001
 0.000000e+000 9.778073e-001 2.219270e-002
 0.000000e+000 0.000000e+000 0.000000e+000
<ENDHMM>
~h "uw"
<BEGINHMM>
<NUMSTATES> 5
<STATE> 2
<MEAN> 25
 7.768246e+000 1.246755e+000 1.531849e+000 -7.030556e+000 -2.976821e+000 -4.805323e+000 -6.435645e+000 -3.580173e+000 -1.707508e+000 -5.068635e+000 -2.925043e+000 -3.683424e+000 5.421884e-001 5.500062e-001 1.603916e-001 -3.323579e-001 -5.434144e-001 -6.941882e-001 -1.472680e-001 -4.630434e-001 -5.585370e-001 -3.071632e-001 -4.078303e-001 -2.431592e-001 1.863989e-001
<VARIANCE> 25
 3.588737e+001 7.965086e+001 1.129792e+002 1.095886e+002 6.728720e+001 9.347301e+001 8.270937e+001 8.712220e+001 7.335088e+001 7.072331e+001 7.868851e+001 4.583963e+001 2.144274e+000 5.726254e+000 5.962302e+000 8.657220e+000 5.773916e+000 6.923373e+000 6.676715e+000 7.508450e+000 6.001366e+000 6.084983e+000 5.868236e+000 4.390459e+000 3.531705e+000
<GCONST> 1.198661e+002
<STATE> 3
<MEAN> 25
 7.971660e+000 6.910676e+000 6.468319e+000 -8.108637e+000 -1.013530e+001 -8.166513e+000 -3.923261e+000 -5.999784e+000 -4.064049e+000 -3.410220e+000 -5.837131e+000 -5.710353e+000 -8.018570e-002 -7.845221e-002 -4.323196e-001 8.284741e-002 2.572086e-001 4.138767e-001 2.868892e-001 -1.442511e-001 -1.428953e-001 -1.385132e-001 1.164080e-002 2.387622e-001 -2.072442e-001
<VARIANCE> 25
 1.997205e+001 5.754586e+001 1.093214e+002 8.222202e+001 1.030793e+002 9.557152e+001 6.602824e+001 8.237308e+001 6.711264e+001 6.316279e+001 8.251056e+001 5.494423e+001 5.412632e-001 1.829672e+000 2.487350e+000 2.825814e+000 3.694146e+000 3.650636e+000 3.420841e+000 4.282290e+000 3.418179e+000 3.620961e+000 3.504875e+000 3.301947e+000 7.403001e-001
<GCONST> 1.085557e+002
<STATE> 4
<MEAN> 25
 1.072769e+001 3.863831e+000 -2.736741e+000 -1.023760e+001 -4.671176e+000 -4.220941e+000 -3.453125e+000 -1.024369e+001 -8.693960e+000 -6.472282e+000 -9.162418e-001 1.235105e+000 -2.825322e-001 1.057998e-001 6.469619e-002 5.058762e-001 1.106324e-001 3.048975e-001 5.513101e-002 1.992174e-001 1.358892e-001 3.514428e-001 2.403018e-001 1.895025e-001 -4.860062e-001
<VARIANCE> 25
 3.555309e+001 5.004744e+001 5.966827e+001 1.189249e+002 5.358563e+001 7.924739e+001 4.863493e+001 6.125693e+001 5.266794e+001 5.442321e+001 1.276016e+002 6.770817e+001 5.478038e-001 8.717285e-001 1.132387e+000 1.826528e+000 1.475905e+000 1.568621e+000 1.813146e+000 2.184528e+000 2.135325e+000 2.050009e+000 2.346025e+000 1.890046e+000 4.328220e-001
<GCONST> 1.000083e+002
<TRANSP> 5
 0.000000e+000 1.000000e+000 0.000000e+000 0.000000e+000 0.000000e+000
 0.000000e+000 8.386760e-001 1.613240e-001 0.000000e+000 0.000000e+000
 0.000000e+000 0.000000e+000 8.586004e-001 1.413996e-001 0.000000e+000
 0.000000e+000 0.000000e+000 0.000000e+000 8.889544e-001 1.110456e-001
 0.000000e+000 0.000000e+000 0.000000e+000 0.000000e+000 0.000000e+000
<ENDHMM>
~h "sil"
<BEGINHMM>
<NUMSTATES> 5
<STATE> 2
<MEAN> 25
 -1.110600e+001 3.044034e+000 -6.229904e+000 4.720449e+000 2.531429e+000 -1.290964e+000 4.600726e+000 2.209387e+000 4.278517e+000 1.714379e+000 -8.332644e-001 4.694830e+000 -1.083559e-002 -1.870695e-003 -2.744260e-003 -6.708926e-003 -6.203994e-003 -5.874323e-004 -3.289067e-003 2.607030e-004 -2.009897e-003 -9.556076e-005 4.453170e-003 3.289213e-003 -8.484879e-003
<VARIANCE> 25
 3.335174e+001 6.862429e+000 9.289833e+000 1.029871e+001 9.739810e+000 8.739222e+000 1.038971e+001 1.087769e+001 1.836884e+001 1.802693e+001 1.211300e+001 1.426830e+001 7.084921e-002 1.557551e-001 2.485254e-001 3.822561e-001 4.896302e-001 5.403886e-001 7.363633e-001 8.971665e-001 9.469848e-001 8.714278e-001 8.031808e-001 7.886216e-001 2.390052e-002
<GCONST> 6.308020e+001
<STATE> 3
~s "silst"
<STATE> 4
<MEAN> 25
 5.490817e+000 -1.683044e+000 2.741761e+000 -2.915816e+000 -1.292853e+000 4.739052e-001 -2.818198e+000 -1.381239e+000 -1.345724e+000 -5.693924e-001 -1.102250e-001 -1.968520e+000 3.839717e-002 -1.621113e-002 1.062884e-002 -1.594733e-002 -1.184369e-003 -7.235545e-003 -1.186640e-002 -1.592267e-002 -1.371205e-002 -1.890867e-002 -9.839805e-003 -2.036277e-002 5.495672e-002
<VARIANCE> 25
 1.110768e+002 1.328675e+002 1.028917e+002 1.227343e+002 7.274030e+001 5.434579e+001 8.069953e+001 6.891998e+001 7.075500e+001 6.337843e+001 6.703425e+001 4.187318e+001 1.868722e+000 3.018234e+000 2.479831e+000 3.057456e+000 2.382189e+000 2.492117e+000 3.204349e+000 2.900109e+000 2.897528e+000 2.631088e+000 2.677061e+000 2.116554e+000 2.705881e+000
<GCONST> 1.107716e+002
<TRANSP> 5
 0.000000e+000 1.000000e+000 0.000000e+000 0.000000e+000 0.000000e+000
 0.000000e+000 9.240714e-001 1.323334e-002 6.269527e-002 0.000000e+000
 0.000000e+000 0.000000e+000 9.734632e-001 2.653690e-002 0.000000e+000
 0.000000e+000 5.754890e-002 0.000000e+000 9.325690e-001 9.882134e-003
 0.000000e+000 0.000000e+000 0.000000e+000 0.000000e+000 0.000000e+000
<ENDHMM>
