~o
<STREAMINFO> 1 25
<VECSIZE> 25<NULLD><MFCC_D_N_Z_0><DIAGC>
~s "silst"
<MEAN> 25
 -2.477487e+000 1.725880e+000 -6.000905e+000 6.661568e-001 -3.326238e+000 5.360789e+000 -2.277562e-001 6.788174e-001 1.991078e+000 3.598197e+000 6.123663e-001 1.115929e+000 6.453437e-002 1.713869e-002 -7.694907e-002 6.743646e-003 -6.882838e-002 4.049753e-002 -2.564469e-002 3.378067e-002 -8.600486e-003 2.326371e-002 2.170088e-002 -1.718424e-003 -3.316273e-001
<VARIANCE> 25
 6.906641e+001 8.216414e+000 2.481484e+001 1.276911e+001 2.801174e+001 2.299698e+001 1.696200e+001 7.493818e+000 1.201608e+001 5.069822e+000 5.694976e+000 1.049561e+001 7.959436e-001 1.757509e-001 3.099522e-001 2.997111e-001 3.806640e-001 4.112036e-001 3.951843e-001 3.704250e-001 4.281122e-001 3.708122e-001 3.709856e-001 3.758572e-001 4.696355e+000
<GCONST> 6.717675e+001
~h "b"
<BEGINHMM>
<NUMSTATES> 5
<STATE> 2
<MEAN> 25
 1.237402e+000 1.037098e+000 -1.884162e+000 1.867903e+000 5.911979e-001 9.049228e-002 2.207497e+000 2.598669e-001 -5.073816e-001 -3.406586e-002 4.406011e-001 -1.610517e-001 -2.390594e-001 9.542660e-002 1.155542e-002 2.133251e-001 2.637753e-001 2.787223e-001 4.168598e-001 3.087242e-001 4.488541e-001 4.338366e-001 9.741356e-002 5.250066e-002 -3.640456e-001
<VARIANCE> 25
 5.408412e+001 6.242591e+001 4.857042e+001 4.743336e+001 3.762603e+001 4.469298e+001 4.453814e+001 4.528766e+001 4.484107e+001 4.636652e+001 5.328410e+001 2.606232e+001 8.368489e-001 1.440146e+000 1.849564e+000 1.705859e+000 1.888814e+000 2.306715e+000 2.588340e+000 2.416826e+000 2.728210e+000 2.093531e+000 2.488978e+000 1.973335e+000 6.939795e-001
<GCONST> 9.933619e+001
<STATE> 3
<MEAN> 25
 1.807548e+000 3.153011e+000 1.234468e+000 2.340494e+000 2.152351e+000 7.035108e-002 1.814441e+000 1.797934e-002 5.534453e-001 -9.768592e-001 -1.254245e+000 -9.090992e-001 2.155275e-001 2.733248e-001 3.217553e-001 2.466336e-001 6.870186e-002 4.277761e-002 1.657913e-001 1.059159e-001 4.989084e-002 4.901293e-002 -1.421660e-001 -2.257258e-001 -2.287551e-002
<VARIANCE> 25
 7.698476e+001 7.232121e+001 6.013759e+001 5.446893e+001 4.258117e+001 5.310915e+001 4.508011e+001 3.833179e+001 4.003844e+001 4.344442e+001 3.941589e+001 2.447000e+001 1.895498e+000 2.160316e+000 2.307580e+000 1.812871e+000 2.002602e+000 2.373766e+000 2.417210e+000 2.063039e+000 2.218340e+000 1.988044e+000 2.091285e+000 1.561381e+000 1.692824e+000
<GCONST> 1.013776e+002
<STATE> 4
<MEAN> 25
 7.010694e+000 -4.065624e+000 -1.235755e+000 -1.572582e+000 1.294203e-001 -5.178136e+000 -1.289900e+000 9.559870e-001 -2.211028e-001 -3.021191e+000 -7.170594e-001 -2.407897e-001 -5.570200e-002 2.656454e-002 -2.825148e-004 8.320224e-002 6.106902e-003 1.039855e-001 8.371004e-002 8.982933e-003 -2.509776e-002 4.914913e-002 1.485390e-002 -2.474281e-002 -1.486593e-001
<VARIANCE> 25
 9.272614e+001 1.487860e+002 9.020134e+001 1.020421e+002 4.968126e+001 9.643048e+001 6.302419e+001 5.745606e+001 3.413522e+001 6.028374e+001 3.604430e+001 3.574393e+001 2.609722e-001 5.555888e-001 6.540546e-001 7.341819e-001 7.446813e-001 8.424672e-001 9.762762e-001 9.399253e-001 9.887704e-001 9.562786e-001 9.161876e-001 8.447844e-001 2.190734e-001
<GCONST> 9.101865e+001
<TRANSP> 5
 0.000000e+000 1.000000e+000 0.000000e+000 0.000000e+000 0.000000e+000
 0.000000e+000 5.676378e-001 4.323622e-001 0.000000e+000 0.000000e+000
 0.000000e+000 0.000000e+000 4.263974e-001 5.736026e-001 0.000000e+000
 0.000000e+000 0.000000e+000 0.000000e+000 7.892166e-001 2.107834e-001
 0.000000e+000 0.000000e+000 0.000000e+000 0.000000e+000 0.000000e+000
<ENDHMM>
~h "d"
<BEGINHMM>
<NUMSTATES> 5
<STATE> 2
<MEAN> 25
 1.215703e+000 3.910216e+000 3.668224e+000 4.464303e+000 3.112406e+000 1.098318e+000 5.825293e-001 -2.373611e+000 2.589715e-001 5.591552e-001 -8.140007e-001 -1.844371e-001 1.503503e+000 -1.063658e+000 6.534808e-001 -6.915308e-001 -2.042833e-001 -7.429575e-001 -1.438328e+000 -3.031626e-001 -9.065775e-001 -6.872638e-001 1.886687e-001 -5.324831e-001 2.719258e+000
<VARIANCE> 25
 5.399492e+001 7.735071e+001 5.276880e+001 4.854553e+001 5.902524e+001 4.636993e+001 4.033491e+001 3.873232e+001 4.062793e+001 3.297462e+001 3.245969e+001 2.870360e+001 4.531012e+000 1.148197e+001 6.402774e+000 6.792294e+000 4.215387e+000 6.163640e+000 6.173244e+000 5.284653e+000 5.550826e+000 5.020387e+000 4.464492e+000 3.088898e+000 5.901561e+000
<GCONST> 1.136316e+002
<STATE> 3
<MEAN> 25
 7.339221e+000 -3.733943e+000 4.348319e+000 -2.749836e+000 -1.898034e+000 -2.062853e+000 -6.366215e+000 -7.634626e-001 -2.897133e+000 -2.828096e+000 -8.298382e-002 -2.484112e+000 2.587892e-001 -1.162461e+000 -4.443410e-001 -1.092790e+000 -6.834628e-002 -4.830666e-001 -4.353923e-001 6.275868e-001 -1.037927e-001 -2.399551e-001 1.130014e-001 6.290282e-002 1.313371e+000
<VARIANCE> 25
 3.676803e+001 9.376778e+001 8.148602e+001 9.517032e+001 1.227402e+002 8.194365e+001 1.046895e+002 8.456223e+001 8.064657e+001 7.095382e+001 8.361428e+001 4.666272e+001 1.762055e+000 6.621896e+000 3.446224e+000 5.922297e+000 6.101007e+000 5.214312e+000 8.660419e+000 5.722485e+000 5.815877e+000 6.144629e+000 5.589311e+000 4.285285e+000 5.037917e+000
<GCONST> 1.194794e+002
<STATE> 4
<MEAN> 25
 9.648314e+000 -1.225201e+001 2.481275e+000 -9.931999e+000 1.497349e-001 -1.180360e+000 -6.687967e+000 4.972451e-001 -2.963480e+000 -1.316388e+000 1.550822e+000 -3.371095e+000 -2.865842e-002 1.860530e-001 -2.280951e-001 1.699352e-001 4.833444e-002 1.230421e-001 3.196844e-001 -5.816777e-002 -1.908421e-002 -5.008704e-002 -7.634895e-002 3.512843e-002 -3.178473e-001
<VARIANCE> 25
 2.525093e+001 8.827182e+001 5.162585e+001 9.710424e+001 4.794682e+001 7.200501e+001 9.722842e+001 8.244514e+001 6.440780e+001 8.404682e+001 9.497613e+001 6.095242e+001 3.449751e-001 1.499003e+000 9.926783e-001 1.986571e+000 1.732059e+000 1.578882e+000 2.154196e+000 2.012291e+000 1.748341e+000 1.763492e+000 1.857616e+000 1.666614e+000 8.085840e-001
<GCONST> 1.011082e+002
<TRANSP> 5
 0.000000e+000 1.000000e+000 0.000000e+000 0.000000e+000 0.000000e+000
 0.000000e+000 7.325655e-001 2.674345e-001 0.000000e+000 0.000000e+000
 0.000000e+000 0.000000e+000 7.665222e-001 2.334778e-001 0.000000e+000
 0.000000e+000 0.000000e+000 0.000000e+000 9.274647e-001 7.253525e-002
 0.000000e+000 0.000000e+000 0.000000e+000 0.000000e+000 0.000000e+000
<ENDHMM>
~h "g"
<BEGINHMM>
<NUMSTATES> 5
<STATE> 2
<MEAN> 25
 -1.621520e+000 5.338961e+000 4.710902e+000 5.497695e+000 3.462097e+000 2.689306e+000 2.632288e+000 -7.669472e-001 1.767122e+000 1.578234e+000 -5.923447e-001 -2.361941e-001 3.269895e-001 1.513310e-001 2.679775e-001 4.673524e-001 3.385101e-001 2.631790e-001 2.613406e-001 -1.763418e-001 -1.902014e-001 5.869706e-002 -1.394967e-002 -2.731391e-001 2.452438e-001
<VARIANCE> 25
 3.466700e+001 4.496388e+001 5.716720e+001 3.013145e+001 3.390641e+001 2.448951e+001 2.210383e+001 2.289245e+001 2.392967e+001 2.161866e+001 2.301411e+001 1.751521e+001 1.772265e+000 2.724834e+000 2.679239e+000 2.107482e+000 1.728141e+000 1.568238e+000 2.028214e+000 1.835080e+000 1.978591e+000 1.841864e+000 1.632839e+000 1.517522e+000 1.453805e+000
<GCONST> 9.413806e+001
<STATE> 3
<MEAN> 25
 4.915648e-001 2.745069e+000 7.603152e+000 2.755941e+000 1.908046e+000 3.983242e-001 -3.474811e-001 -1.321537e+000 4.348952e-001 -6.225861e-001 -4.643483e-001 -1.650332e+000 4.849943e-001 -9.586328e-001 8.918567e-001 -1.195979e+000 -2.555645e-001 -7.730938e-001 -1.089411e+000 -3.382963e-002 -5.627049e-001 -9.563434e-001 1.397094e-001 -3.685696e-001 2.538253e+000
<VARIANCE> 25
 6.596306e+001 1.351414e+002 9.019017e+001 7.004709e+001 7.815818e+001 4.595318e+001 5.287920e+001 4.174961e+001 4.077755e+001 3.920172e+001 3.661109e+001 2.352270e+001 8.335239e+000 1.278206e+001 6.747567e+000 7.250339e+000 5.874146e+000 4.900196e+000 5.489963e+000 5.681273e+000 4.810503e+000 4.881067e+000 3.530513e+000 2.831396e+000 5.004794e+000
<GCONST> 1.162421e+002
<STATE> 4
<MEAN> 25
 2.724633e+000 -1.471493e+000 1.609285e+001 2.677382e+000 1.245926e+000 -1.846145e+000 -8.788700e+000 -4.292203e-001 5.742869e-001 -6.890359e+000 -6.270638e-001 -2.960721e+000 2.709657e-001 1.417405e-001 -1.100330e-001 4.748573e-002 -1.887291e-001 -1.199258e-001 -2.421925e-001 5.475705e-003 -8.367446e-002 -1.171621e-001 -7.576827e-002 3.988905e-002 -8.765500e-002
<VARIANCE> 25
 3.564291e+001 1.118145e+002 1.455172e+002 1.283520e+002 1.073817e+002 3.744381e+001 5.348441e+001 5.674657e+001 3.516587e+001 4.927091e+001 4.317698e+001 2.245785e+001 7.088724e-001 1.279411e+000 1.485434e+000 1.458750e+000 1.886148e+000 1.609284e+000 2.591013e+000 1.691023e+000 1.530710e+000 1.860851e+000 1.847841e+000 1.300652e+000 8.093748e-001
<GCONST> 9.969943e+001
<TRANSP> 5
 0.000000e+000 1.000000e+000 0.000000e+000 0.000000e+000 0.000000e+000
 0.000000e+000 7.199003e-001 2.800998e-001 0.000000e+000 0.000000e+000
 0.000000e+000 0.000000e+000 7.539288e-001 2.460712e-001 0.000000e+000
 0.000000e+000 0.000000e+000 0.000000e+000 8.328686e-001 1.671315e-001
 0.000000e+000 0.000000e+000 0.000000e+000 0.000000e+000 0.000000e+000
<ENDHMM>
~h "k"
<BEGINHMM>
<NUMSTATES> 5
<STATE> 2
<MEAN> 25
 4.364319e-001 -7.877236e-001 -1.278292e+000 -5.606960e-001 7.792361e-001 -6.183472e-001 1.415980e-001 1.712540e-001 6.153408e-001 4.281197e-001 1.001494e-001 -3.985128e-001 1.665306e+000 -7.247931e-001 -3.083452e-001 -1.055497e+000 -4.353324e-001 -7.296936e-001 -5.577496e-001 6.818080e-002 -7.602980e-001 -6.723356e-001 1.057319e-001 -3.603947e-001 2.290656e+000
<VARIANCE> 25
 7.226637e+001 7.572239e+001 6.632614e+001 8.437625e+001 5.996214e+001 5.515984e+001 5.965181e+001 4.832822e+001 4.917654e+001 5.136078e+001 3.896442e+001 3.017939e+001 5.194796e+000 8.205827e+000 7.022469e+000 8.662641e+000 5.731318e+000 6.427231e+000 6.768994e+000 6.988084e+000 4.824995e+000 5.565170e+000 4.515510e+000 3.275288e+000 6.601215e+000
<GCONST> 1.173540e+002
<STATE> 3
<MEAN> 25
 8.901456e+000 -5.792919e+000 -3.872782e+000 -4.593355e+000 -7.114801e-001 -3.309721e+000 -3.284523e+000 -3.640048e-001 -3.796443e+000 -3.396678e+000 1.458125e+000 -1.285225e+000 3.688024e-001 -4.910673e-001 -2.576782e-001 -2.043784e-001 4.376220e-002 -1.563640e-001 -3.078151e-002 -1.205471e-001 -1.871793e-001 -9.939597e-002 -7.261531e-003 -5.650301e-002 5.579621e-001
<VARIANCE> 25
 7.740969e+001 1.110763e+002 9.068490e+001 1.109353e+002 7.388412e+001 7.905791e+001 7.542757e+001 9.732658e+001 7.427396e+001 8.836089e+001 5.651140e+001 4.647383e+001 1.970208e+000 4.312587e+000 3.302308e+000 5.619857e+000 4.283982e+000 3.858685e+000 4.846863e+000 6.225438e+000 3.963891e+000 4.850904e+000 3.666314e+000 2.948692e+000 2.897653e+000
<GCONST> 1.161327e+002
<STATE> 4
<MEAN> 25
 1.047613e+001 -1.004974e+001 -1.542245e+000 -7.197801e+000 3.400919e-001 -3.287714e+000 -3.392450e+000 -1.296457e+000 -3.820248e+000 -3.106941e+000 -7.636921e-001 -2.844079e+000 -1.203927e-001 2.737496e-001 4.158751e-002 1.853532e-001 -1.296377e-002 1.122833e-001 5.691515e-002 -6.151378e-002 3.888842e-002 7.328093e-002 -5.426695e-002 1.955952e-004 -3.167653e-001
<VARIANCE> 25
 5.319650e+001 1.360764e+002 8.187370e+001 1.465431e+002 7.479861e+001 9.592341e+001 6.523402e+001 8.168909e+001 5.813410e+001 8.166232e+001 5.843688e+001 4.408559e+001 3.994878e-001 1.188064e+000 1.020824e+000 1.542861e+000 1.547287e+000 1.410243e+000 1.771724e+000 1.852574e+000 1.691324e+000 1.703476e+000 1.695245e+000 1.409380e+000 5.868068e-001
<GCONST> 1.010792e+002
<TRANSP> 5
 0.000000e+000 1.000000e+000 0.000000e+000 0.000000e+000 0.000000e+000
 0.000000e+000 7.611985e-001 2.388015e-001 0.000000e+000 0.000000e+000
 0.000000e+000 0.000000e+000 6.547781e-001 3.452220e-001 0.000000e+000
 0.000000e+000 0.000000e+000 0.000000e+000 9.089792e-001 9.102076e-002
 0.000000e+000 0.000000e+000 0.000000e+000 0.000000e+000 0.000000e+000
<ENDHMM>
~h "l"
<BEGINHMM>
<NUMSTATES> 5
<STATE> 2
<MEAN> 25
 4.557282e+000 -1.629303e-001 2.681597e+000 -1.574802e+000 -1.196731e+000 -1.507463e+000 -3.816793e+000 -2.880521e+000 -1.124832e+000 -8.737240e-001 -9.319332e-001 -1.799715e+000 6.946147e-001 -8.231260e-001 -1.221600e-001 -2.164601e-001 -1.538827e-001 -7.597218e-001 -4.628884e-001 4.647993e-002 -1.146892e-001 -5.454739e-001 -5.141307e-002 -6.085470e-002 1.410198e+000
<VARIANCE> 25
 8.469973e+001 8.689456e+001 9.088319e+001 1.058179e+002 7.432838e+001 8.243283e+001 8.286704e+001 9.279485e+001 7.240970e+001 7.018081e+001 6.693571e+001 4.428158e+001 4.127308e+000 7.156814e+000 6.363687e+000 8.035351e+000 5.870291e+000 7.841068e+000 7.495854e+000 8.659708e+000 6.614330e+000 5.522894e+000 5.223496e+000 4.256984e+000 5.248738e+000
<GCONST> 1.218982e+002
<STATE> 3
<MEAN> 25
 8.469405e+000 -4.112735e+000 -1.432155e+000 -5.183507e+000 -4.484244e-001 -7.704317e+000 -3.221386e+000 -2.438655e+000 -1.511585e+000 -5.321842e+000 -2.841946e+000 -1.286912e-002 -8.526201e-002 -4.621034e-001 -5.545422e-001 -1.570276e-001 3.298559e-001 4.813002e-003 6.455190e-001 1.706006e-001 -3.309020e-001 -2.655280e-001 1.462860e-001 2.491513e-001 1.967920e-001
<VARIANCE> 25
 4.075710e+001 6.615452e+001 5.380960e+001 8.143244e+001 7.225051e+001 7.852519e+001 8.636284e+001 1.123337e+002 1.357788e+002 7.271621e+001 8.313695e+001 5.268088e+001 9.922022e-001 2.742874e+000 2.799567e+000 3.505613e+000 3.699161e+000 3.990947e+000 3.869503e+000 4.148736e+000 4.733311e+000 4.248793e+000 4.106855e+000 3.079647e+000 1.250004e+000
<GCONST> 1.121526e+002
<STATE> 4
<MEAN> 25
 1.171449e+001 -7.791190e+000 -2.029286e+000 -7.575996e+000 -2.631559e+000 -4.871419e+000 -3.933550e+000 -4.529549e-001 -4.966706e+000 -6.429980e+000 1.471007e+000 -1.327886e+000 -5.345327e-002 1.727428e-001 -8.311511e-002 9.326968e-002 -6.772833e-002 6.930986e-002 1.414868e-001 -3.954691e-002 2.472448e-002 5.482949e-002 1.595096e-002 -1.642354e-003 -2.321765e-001
<VARIANCE> 25
 4.635147e+001 9.938058e+001 9.720083e+001 8.910260e+001 8.391039e+001 1.053967e+002 6.691724e+001 9.901198e+001 6.364244e+001 6.450683e+001 8.946413e+001 5.598405e+001 3.205402e-001 1.170897e+000 1.092556e+000 1.513674e+000 1.475296e+000 1.475087e+000 1.777829e+000 1.708062e+000 1.768224e+000 1.679536e+000 1.784424e+000 1.502016e+000 4.609193e-001
<GCONST> 1.008851e+002
<TRANSP> 5
 0.000000e+000 1.000000e+000 0.000000e+000 0.000000e+000 0.000000e+000
 0.000000e+000 7.721910e-001 2.278089e-001 0.000000e+000 0.000000e+000
 0.000000e+000 0.000000e+000 7.344355e-001 2.655645e-001 0.000000e+000
 0.000000e+000 0.000000e+000 0.000000e+000 9.145802e-001 8.541981e-002
 0.000000e+000 0.000000e+000 0.000000e+000 0.000000e+000 0.000000e+000
<ENDHMM>
~h "m"
<BEGINHMM>
<NUMSTATES> 5
<STATE> 2
<MEAN> 25
 2.211006e+000 5.179734e-001 6.576774e-001 1.431716e+000 1.619813e+000 7.959108e-001 9.450641e-001 -9.971457e-001 -5.421404e-001 9.858890e-001 -2.207673e-001 -9.284922e-001 1.445415e+000 -4.342916e-001 -2.062142e-002 -3.366094e-001 9.705491e-002 -4.929207e-001 -5.264092e-001 -1.639338e-001 -5.641872e-001 -7.270960e-001 -3.767619e-001 -5.937666e-001 1.682023e+000
<VARIANCE> 25
 8.699109e+001 7.413808e+001 5.630670e+001 6.111957e+001 4.910003e+001 5.735921e+001 7.462699e+001 6.158625e+001 5.770004e+001 4.935340e+001 4.969631e+001 3.944791e+001 5.255726e+000 7.292461e+000 4.909461e+000 7.585942e+000 5.162300e+000 5.040197e+000 6.507550e+000 6.403158e+000 6.062861e+000 5.053472e+000 4.283617e+000 3.517000e+000 7.408315e+000
<GCONST> 1.171631e+002
<STATE> 3
<MEAN> 25
 8.438745e+000 -4.791052e+000 -1.428857e+000 -3.762651e+000 2.442900e+000 -3.091199e+000 -3.498165e+000 -6.408156e-001 -1.068263e+000 -5.919556e+000 -3.361753e+000 -3.009570e+000 2.442854e-001 -1.027741e+000 -1.829596e-001 -6.109471e-001 2.650165e-001 -3.246048e-001 1.656246e-001 2.243306e-001 -5.662857e-002 -3.951397e-001 -8.114795e-002 -3.237880e-002 9.861333e-001
<VARIANCE> 25
 3.892029e+001 8.385715e+001 5.345210e+001 9.587278e+001 7.757083e+001 7.318132e+001 6.421877e+001 8.185904e+001 7.623080e+001 6.267137e+001 5.269975e+001 3.750765e+001 2.521176e+000 8.399231e+000 4.531447e+000 8.826368e+000 5.678463e+000 5.490822e+000 5.248762e+000 6.231409e+000 4.691474e+000 5.218410e+000 4.210660e+000 3.645622e+000 6.872588e+000
<GCONST> 1.173773e+002
<STATE> 4
<MEAN> 25
 9.579161e+000 -6.531722e+000 3.105522e-001 -4.242447e+000 1.846948e+000 -1.534037e-001 -2.054472e+000 -2.355624e+000 -5.266764e+000 -2.434438e+000 -2.701406e+000 -5.473883e+000 -1.667330e-001 4.437505e-001 -1.792917e-003 3.727924e-001 -2.430656e-002 8.662074e-002 1.197531e-001 -1.023688e-001 -1.015546e-002 8.021190e-002 -3.554347e-002 5.888618e-002 -5.188585e-001
<VARIANCE> 25
 2.517506e+001 1.270678e+002 3.974565e+001 1.279574e+002 6.178399e+001 5.184062e+001 8.553316e+001 9.754354e+001 7.665974e+001 9.241171e+001 8.314378e+001 3.885374e+001 4.954238e-001 1.611118e+000 1.055633e+000 1.895673e+000 1.557230e+000 1.529184e+000 2.127064e+000 2.418475e+000 2.180415e+000 1.911712e+000 2.221998e+000 1.645117e+000 8.120682e-001
<GCONST> 1.020881e+002
<TRANSP> 5
 0.000000e+000 1.000000e+000 0.000000e+000 0.000000e+000 0.000000e+000
 0.000000e+000 6.616297e-001 3.383703e-001 0.000000e+000 0.000000e+000
 0.000000e+000 0.000000e+000 7.032889e-001 2.967111e-001 0.000000e+000
 0.000000e+000 0.000000e+000 0.000000e+000 9.255963e-001 7.440373e-002
 0.000000e+000 0.000000e+000 0.000000e+000 0.000000e+000 0.000000e+000
<ENDHMM>
~h "n"
<BEGINHMM>
<NUMSTATES> 5
<STATE> 2
<MEAN> 25
 1.698186e+000 9.942337e-001 9.320797e-001 -4.416112e-001 4.994524e-001 1.939704e-001 -5.132732e-001 -1.202840e+000 -8.021955e-001 -6.015382e-001 -1.579825e-001 -5.984530e-001 1.184333e+000 1.948500e-001 5.874625e-001 -2.560863e-001 -1.999640e-001 -4.789201e-001 -7.348346e-001 -6.984312e-001 -7.284635e-001 -6.108845e-001 -2.291040e-001 -3.814024e-001 1.321950e+000
<VARIANCE> 25
 7.434167e+001 7.142213e+001 8.221101e+001 8.288310e+001 6.066354e+001 5.988274e+001 6.441638e+001 5.631822e+001 5.450831e+001 5.539318e+001 4.564279e+001 3.141374e+001 5.641206e+000 7.129780e+000 6.107084e+000 8.381721e+000 5.251984e+000 5.970727e+000 6.430483e+000 6.175189e+000 5.179482e+000 5.735545e+000 4.288318e+000 3.231493e+000 8.862646e+000
<GCONST> 1.179850e+002
<STATE> 3
<MEAN> 25
 6.351746e+000 6.461209e-002 5.979331e+000 -1.992076e+000 -2.192888e+000 -4.095151e+000 -5.048818e+000 -2.491451e+000 -4.440474e+000 -5.965548e+000 -1.935920e+000 -2.897894e+000 7.822832e-002 -2.779371e-001 -1.660643e-001 2.431230e-001 1.098217e-001 3.228934e-002 2.050313e-001 -7.450839e-002 -1.049049e-001 2.894298e-002 -8.871901e-002 1.492938e-002 7.269739e-002
<VARIANCE> 25
 4.902029e+001 1.012568e+002 1.148493e+002 1.155374e+002 7.064765e+001 9.514596e+001 8.046409e+001 1.045785e+002 6.989983e+001 7.968902e+001 7.849232e+001 4.417789e+001 1.959529e+000 5.896307e+000 4.198746e+000 6.348006e+000 4.463758e+000 5.507708e+000 5.491804e+000 6.823511e+000 4.796215e+000 5.168552e+000 4.565763e+000 3.431216e+000 3.599975e+000
<GCONST> 1.183759e+002
<STATE> 4
<MEAN> 25
 7.348749e+000 9.648567e-001 2.963772e+000 1.615988e+000 -8.169002e-001 -1.383591e+000 -2.561878e+000 -6.143170e+000 -6.296338e+000 -2.218162e+000 -1.342981e+000 -2.854193e+000 -3.371666e-001 2.594413e-001 -1.198489e-002 2.162184e-001 1.346080e-001 1.180178e-001 1.840629e-001 8.177144e-002 2.364898e-001 1.830449e-001 -3.724007e-002 8.790703e-002 -4.954575e-001
<VARIANCE> 25
 3.740133e+001 1.058654e+002 6.546273e+001 9.635629e+001 7.081903e+001 5.404890e+001 7.558018e+001 1.172261e+002 7.445737e+001 8.053399e+001 8.146296e+001 4.764825e+001 5.074640e-001 1.424051e+000 1.304184e+000 1.737150e+000 1.818863e+000 2.043917e+000 2.453514e+000 3.133249e+000 2.539279e+000 2.531219e+000 2.659431e+000 1.957756e+000 5.433021e-001
<GCONST> 1.040286e+002
<TRANSP> 5
 0.000000e+000 1.000000e+000 0.000000e+000 0.000000e+000 0.000000e+000
 0.000000e+000 6.329929e-001 3.670070e-001 0.000000e+000 0.000000e+000
 0.000000e+000 0.000000e+000 7.439191e-001 2.560810e-001 0.000000e+000
 0.000000e+000 0.000000e+000 0.000000e+000 9.010873e-001 9.891272e-002
 0.000000e+000 0.000000e+000 0.000000e+000 0.000000e+000 0.000000e+000
<ENDHMM>
~h "p"
<BEGINHMM>
<NUMSTATES> 5
<STATE> 2
<MEAN> 25
 -3.835759e+000 1.899932e+000 -1.769061e+000 2.311577e+000 1.710392e+000 2.068218e+000 4.578905e+000 9.353434e-001 3.187227e+000 2.486299e+000 -3.084634e-001 9.865298e-001 -5.279152e-002 -3.422166e-001 -4.721515e-002 -1.786986e-001 3.466895e-002 -3.822538e-002 6.780984e-002 6.433520e-002 1.079233e-001 2.022594e-001 1.921764e-001 1.207832e-001 2.147226e-001
<VARIANCE> 25
 4.048922e+001 2.536332e+001 3.922284e+001 3.299247e+001 2.941582e+001 3.773813e+001 2.953471e+001 2.704690e+001 3.308268e+001 2.739668e+001 2.760794e+001 2.111148e+001 2.721338e+000 1.769186e+000 2.142658e+000 2.194422e+000 2.119561e+000 2.705684e+000 2.908052e+000 2.661342e+000 2.593059e+000 2.112566e+000 2.217790e+000 2.024758e+000 3.875953e+000
<GCONST> 9.838948e+001
<STATE> 3
<MEAN> 25
 2.218007e+000 -2.296285e+000 -1.044629e+000 -1.989923e+000 4.935348e-001 -4.280719e-001 -4.933596e-001 5.290605e-001 7.836861e-001 -1.318986e-001 -1.740204e-002 -4.681255e-001 2.699392e+000 -1.827126e+000 -4.421630e-001 -1.920198e+000 -5.478707e-001 -1.256482e+000 -1.089421e+000 1.207598e-001 -7.629513e-001 -1.293791e+000 -2.624927e-001 -6.396158e-001 4.329261e+000
<VARIANCE> 25
 6.566197e+001 6.787032e+001 5.461037e+001 6.088270e+001 6.669225e+001 6.379008e+001 4.798922e+001 4.797758e+001 4.255826e+001 3.943373e+001 3.712969e+001 2.774794e+001 5.580094e+000 9.415791e+000 6.757307e+000 1.054078e+001 8.905977e+000 6.463339e+000 6.977044e+000 7.319000e+000 6.052258e+000 6.382732e+000 5.251305e+000 3.288837e+000 9.653679e+000
<GCONST> 1.179025e+002
<STATE> 4
<MEAN> 25
 7.327123e+000 -1.220511e+001 -2.847970e+000 -1.020753e+001 3.406734e+000 -8.130727e-001 -1.405723e+000 -7.705743e-001 -1.708427e+000 -3.507362e+000 -8.434029e-001 -2.889657e+000 1.117467e-001 2.871349e-001 1.755339e-002 2.245319e-001 -5.221979e-002 -1.034112e-001 8.449754e-003 -6.950954e-002 -2.536195e-001 -1.616782e-001 -4.610144e-002 4.487637e-002 -1.289191e-001
<VARIANCE> 25
 3.599210e+001 9.140919e+001 5.479173e+001 1.023481e+002 8.863346e+001 6.667120e+001 6.050743e+001 7.125428e+001 4.766749e+001 9.688218e+001 4.428732e+001 2.915239e+001 1.327797e+000 3.420579e+000 2.272169e+000 3.975286e+000 2.871112e+000 2.990083e+000 3.180032e+000 2.818684e+000 2.173714e+000 2.707242e+000 2.127190e+000 1.805283e+000 4.227533e+000
<GCONST> 1.079486e+002
<TRANSP> 5
 0.000000e+000 1.000000e+000 0.000000e+000 0.000000e+000 0.000000e+000
 0.000000e+000 7.380201e-001 2.619800e-001 0.000000e+000 0.000000e+000
 0.000000e+000 0.000000e+000 6.330434e-001 3.669566e-001 0.000000e+000
 0.000000e+000 0.000000e+000 0.000000e+000 8.545711e-001 1.454289e-001
 0.000000e+000 0.000000e+000 0.000000e+000 0.000000e+000 0.000000e+000
<ENDHMM>
~h "r"
<BEGINHMM>
<NUMSTATES> 5
<STATE> 2
<MEAN> 25
 4.786801e+000 -3.790040e+000 -4.604359e+000 -5.520089e-001 1.770323e+000 -1.422053e+000 -7.606111e-002 -1.188048e+000 -2.974497e+000 -2.492459e+000 1.486408e+000 1.560898e-001 -2.406297e-001 -2.305406e-001 -2.119901e-001 6.425244e-002 -1.846050e-001 2.359912e-001 4.538576e-001 1.659776e-001 1.920411e-001 2.381604e-001 1.877395e-001 7.406028e-002 -1.717687e-001
<VARIANCE> 25
 5.876033e+001 7.127966e+001 4.702888e+001 3.466088e+001 3.795485e+001 5.724232e+001 4.640427e+001 4.527703e+001 3.041149e+001 4.442003e+001 5.120151e+001 3.908590e+001 4.896650e-001 9.136907e-001 9.035445e-001 1.268244e+000 1.855270e+000 1.912513e+000 1.917602e+000 1.799828e+000 1.761152e+000 1.677316e+000 1.800473e+000 1.367726e+000 5.160072e-001
<GCONST> 9.498715e+001
<STATE> 3
<MEAN> 25
 1.715700e+000 -1.365593e+000 -3.342141e+000 4.139923e-001 1.660043e-001 1.799443e+000 2.760490e+000 4.178555e-001 -4.591021e-001 1.753573e-001 2.015317e+000 -3.247409e-001 -3.025828e-001 2.896220e-002 3.562448e-003 -2.929786e-002 -5.566420e-002 6.318593e-002 1.347960e-001 1.984354e-001 2.587038e-001 1.977993e-001 1.805930e-002 1.005727e-001 -3.155432e-001
<VARIANCE> 25
 4.437983e+001 3.626282e+001 2.379838e+001 2.493845e+001 2.903393e+001 2.439199e+001 2.905231e+001 2.470322e+001 2.282348e+001 3.260732e+001 3.324795e+001 2.288226e+001 5.832059e-001 7.915622e-001 7.860807e-001 1.035325e+000 1.529222e+000 1.587595e+000 1.800034e+000 1.510544e+000 1.667866e+000 1.791178e+000 1.615665e+000 1.404197e+000 4.395811e-001
<GCONST> 8.810197e+001
<STATE> 4
<MEAN> 25
 -7.040481e+000 1.529922e+000 -8.526933e-001 7.151519e-001 6.403458e-001 2.561831e+000 2.361407e+000 4.375796e-001 1.688136e+000 3.019465e+000 1.356975e+000 1.211011e+000 -6.598086e-002 -1.003268e-002 -2.631959e-005 -3.500206e-003 -6.110956e-003 -1.495263e-003 -1.995953e-002 -4.334976e-003 1.464139e-002 2.711547e-002 8.931926e-003 5.940370e-003 -5.514752e-002
<VARIANCE> 25
 5.362248e+001 1.801817e+001 2.287493e+001 2.234158e+001 1.071207e+001 1.761193e+001 1.154885e+001 1.846162e+001 1.707948e+001 1.638708e+001 1.234019e+001 1.639228e+001 1.380769e-001 2.392337e-001 3.413958e-001 4.670776e-001 5.671623e-001 6.963749e-001 8.572780e-001 8.888190e-001 9.170240e-001 8.221466e-001 7.962457e-001 7.506455e-001 6.081051e-002
<GCONST> 7.055885e+001
<TRANSP> 5
 0.000000e+000 1.000000e+000 0.000000e+000 0.000000e+000 0.000000e+000
 0.000000e+000 6.071275e-001 3.928725e-001 0.000000e+000 0.000000e+000
 0.000000e+000 0.000000e+000 7.290410e-001 2.709590e-001 0.000000e+000
 0.000000e+000 0.000000e+000 0.000000e+000 9.338671e-001 6.613288e-002
 0.000000e+000 0.000000e+000 0.000000e+000 0.000000e+000 0.000000e+000
<ENDHMM>
~h "s"
<BEGINHMM>
<NUMSTATES> 5
<STATE> 2
<MEAN> 25
 -5.061495e+000 1.675943e+000 -2.611322e+000 3.911760e+000 1.281545e+000 1.838888e+000 4.330060e+000 7.728155e-001 1.013492e+000 2.128711e+000 8.599833e-001 9.784035e-001 -5.974585e-001 7.685624e-003 1.065966e-001 -2.938621e-002 6.231157e-002 1.369377e-001 3.396316e-001 1.507618e-002 7.410213e-002 2.473808e-001 1.958631e-001 5.481306e-002 4.582634e-002
<VARIANCE> 25
 5.308666e+001 2.805285e+001 4.203098e+001 3.002565e+001 2.859994e+001 2.873190e+001 2.267442e+001 3.301782e+001 3.100936e+001 3.081700e+001 2.464907e+001 2.006414e+001 1.635072e+000 1.995165e+000 2.690460e+000 1.655015e+000 1.894342e+000 1.949267e+000 2.211917e+000 2.193581e+000 2.161597e+000 1.993488e+000 1.844966e+000 1.567476e+000 1.247135e+000
<GCONST> 9.509429e+001
<STATE> 3
<MEAN> 25
 -9.754441e+000 1.436526e+000 -1.990097e+000 1.517134e+000 2.188539e+000 -3.264192e-001 5.483615e+000 1.333504e+000 1.264114e+000 1.794068e+000 2.766761e+000 3.990365e-001 -1.041024e+000 -5.486121e-001 5.877458e-001 -8.597094e-001 1.453123e-001 -2.481919e-001 -5.740645e-002 1.316990e-001 6.598023e-002 -9.941544e-002 2.738303e-001 -9.240100e-002 1.581189e+000
<VARIANCE> 25
 1.171221e+002 1.025550e+002 1.066942e+002 5.636034e+001 4.885804e+001 7.142398e+001 7.406394e+001 4.741239e+001 3.928839e+001 3.978692e+001 3.329353e+001 2.615904e+001 9.369437e+000 8.138049e+000 7.657516e+000 3.969407e+000 3.962816e+000 5.431677e+000 5.587027e+000 3.740660e+000 3.874996e+000 4.255275e+000 3.887047e+000 2.394232e+000 5.133276e+000
<GCONST> 1.150140e+002
<STATE> 4
<MEAN> 25
 -1.414859e+001 -4.020590e+000 4.986998e+000 -4.687853e+000 6.255466e-001 2.625625e+000 4.334209e+000 5.130284e-003 1.552608e+000 4.314822e+000 2.835945e+000 -1.268706e-001 4.876410e-001 -2.892435e-002 -6.877148e-002 -3.093405e-002 -4.956217e-002 -7.334393e-002 -1.703128e-001 3.612037e-002 -2.208401e-002 -1.059748e-001 -7.983167e-002 -1.992126e-002 7.874375e-002
<VARIANCE> 25
 1.074706e+002 1.133482e+002 1.342357e+002 9.103253e+001 4.438269e+001 5.518568e+001 5.817491e+001 4.883298e+001 2.418838e+001 2.918296e+001 2.417543e+001 1.902755e+001 3.939755e+000 1.736560e+000 2.307209e+000 1.845145e+000 1.751749e+000 2.015035e+000 1.988486e+000 1.879186e+000 1.939467e+000 1.804964e+000 1.635970e+000 1.542207e+000 1.254821e+000
<GCONST> 1.015680e+002
<TRANSP> 5
 0.000000e+000 1.000000e+000 0.000000e+000 0.000000e+000 0.000000e+000
 0.000000e+000 7.528468e-001 2.471532e-001 0.000000e+000 0.000000e+000
 0.000000e+000 0.000000e+000 7.174391e-001 2.825609e-001 0.000000e+000
 0.000000e+000 0.000000e+000 0.000000e+000 8.466202e-001 1.533798e-001
 0.000000e+000 0.000000e+000 0.000000e+000 0.000000e+000 0.000000e+000
<ENDHMM>
~h "t"
<BEGINHMM>
<NUMSTATES> 5
<STATE> 2
<MEAN> 25
 -3.303678e+000 2.315277e+000 6.274649e-001 3.349467e+000 2.399423e+000 1.972120e+000 2.380228e+000 -4.333527e-001 1.635904e+000 1.367372e+000 -6.238642e-002 6.291314e-001 -2.639521e-001 -3.617444e-001 -4.662610e-002 -2.480797e-001 1.692044e-001 -4.736007e-002 3.598065e-001 2.099644e-002 1.695314e-001 3.209794e-001 1.126314e-001 -5.205122e-002 3.997198e-001
<VARIANCE> 25
 4.487794e+001 3.418573e+001 4.838214e+001 4.456231e+001 3.589730e+001 3.508582e+001 3.748149e+001 3.214331e+001 3.593988e+001 3.256454e+001 3.455941e+001 2.423711e+001 2.516773e+000 2.875166e+000 2.951994e+000 3.717173e+000 2.744092e+000 4.203629e+000 3.680976e+000 3.081375e+000 3.299925e+000 3.239958e+000 2.934044e+000 2.238273e+000 4.926884e+000
<GCONST> 1.040816e+002
<STATE> 3
<MEAN> 25
 3.973711e-001 -1.711829e+000 2.195899e+000 -4.652930e-001 3.724112e-001 -1.173609e+000 -1.000351e+000 -1.250067e+000 3.484014e-001 5.431684e-001 3.195975e-001 -2.639210e-001 1.525926e+000 -5.382540e-001 1.387931e-001 -9.271175e-001 -7.120358e-001 -8.192297e-001 -1.066336e+000 -2.938709e-001 -7.601756e-001 -7.381267e-001 -3.053416e-002 -3.757797e-001 2.291576e+000
<VARIANCE> 25
 7.875162e+001 1.003078e+002 9.336848e+001 7.801157e+001 5.489905e+001 9.819741e+001 9.874627e+001 6.011074e+001 5.981408e+001 6.161560e+001 4.895029e+001 3.726179e+001 7.322243e+000 9.439693e+000 7.535218e+000 7.036990e+000 6.204819e+000 1.056645e+001 1.131186e+001 7.809341e+000 7.112849e+000 7.329885e+000 5.535301e+000 4.390144e+000 8.514770e+000
<GCONST> 1.229740e+002
<STATE> 4
<MEAN> 25
 5.640439e+000 -3.842078e+000 3.184224e-001 -3.784818e+000 -3.388275e-001 1.169524e-001 -9.341753e-001 -8.361529e-001 -1.828392e+000 -2.052590e-001 4.695893e-001 -1.616524e+000 -1.269079e-001 1.785844e-001 -4.685906e-002 -1.962432e-002 -5.724823e-002 5.308497e-002 9.642148e-002 1.290512e-002 4.593957e-005 -2.285194e-003 -1.186816e-002 -2.517706e-003 -1.353909e-001
<VARIANCE> 25
 8.726634e+001 1.340233e+002 9.417377e+001 1.136616e+002 8.420429e+001 7.362601e+001 9.235625e+001 7.014549e+001 7.035476e+001 7.229558e+001 6.380111e+001 4.576223e+001 1.204846e+000 2.459399e+000 2.168299e+000 2.658134e+000 2.617564e+000 2.569032e+000 2.847743e+000 2.795084e+000 2.814675e+000 2.683692e+000 2.248945e+000 1.889713e+000 2.383919e+000
<GCONST> 1.097700e+002
<TRANSP> 5
 0.000000e+000 1.000000e+000 0.000000e+000 0.000000e+000 0.000000e+000
 0.000000e+000 6.176305e-001 3.823695e-001 0.000000e+000 0.000000e+000
 0.000000e+000 0.000000e+000 6.496415e-001 3.503584e-001 0.000000e+000
 0.000000e+000 0.000000e+000 0.000000e+000 7.524863e-001 2.475137e-001
 0.000000e+000 0.000000e+000 0.000000e+000 0.000000e+000 0.000000e+000
<ENDHMM>
~h "y"
<BEGINHMM>
<NUMSTATES> 5
<STATE> 2
<MEAN> 25
 4.773389e+000 3.004338e+000 3.898120e+000 1.338731e+000 -1.100984e-001 -7.674463e-002 -1.201447e+000 -1.863850e+000 -3.957772e+000 -4.899250e+000 -1.898502e+000 -1.063666e+000 -5.886287e-002 3.578117e-002 5.392408e-002 6.468260e-002 -2.599921e-002 2.237459e-002 8.256956e-002 -3.327432e-003 6.187562e-003 4.262336e-002 -5.064941e-003 -9.552891e-003 -8.688703e-002
<VARIANCE> 25
 8.642191e+000 4.814989e+001 2.084536e+001 1.233620e+001 2.259007e+001 2.398021e+001 3.295154e+001 1.496531e+001 1.867998e+001 2.756216e+001 3.240847e+001 3.291561e+001 1.541939e-001 5.413738e-001 3.986975e-001 5.327434e-001 6.036828e-001 7.852870e-001 1.175567e+000 8.115584e-001 9.383050e-001 1.653693e+000 1.010444e+000 8.948717e-001 2.574449e-001
<GCONST> 7.739513e+001
<STATE> 3
<MEAN> 25
 -4.667535e+000 4.246381e+000 2.536146e+000 1.478231e+000 1.216880e+000 4.779442e+000 1.522862e+000 7.153615e-002 -4.023397e-001 3.233499e+000 1.792500e+000 6.917660e-001 -4.593341e-001 -1.438974e-001 -7.803627e-003 -3.117026e-002 1.163659e-001 2.062872e-001 2.310932e-001 9.467834e-002 1.306998e-001 3.067530e-001 1.590524e-001 7.411858e-002 -2.850405e-001
<VARIANCE> 25
 1.442241e+001 1.681636e+001 1.331771e+001 1.302530e+001 6.874868e+000 1.411769e+001 1.588485e+001 1.320135e+001 1.261298e+001 1.553986e+001 1.744491e+001 1.724253e+001 1.700576e-001 2.536583e-001 3.362483e-001 4.464383e-001 7.473014e-001 9.994559e-001 8.472221e-001 9.356027e-001 9.890344e-001 1.021888e+000 1.059662e+000 9.332315e-001 7.019433e-002
<GCONST> 6.927865e+001
<STATE> 4
<MEAN> 25
 -9.507923e+000 2.916879e+000 2.774580e+000 -1.041524e+000 1.042315e+000 4.348020e+000 1.647972e+000 -2.314536e+000 -5.355268e-001 3.373394e+000 1.004492e+000 -5.909796e-001 -3.004178e-002 -1.508568e-002 -5.021533e-003 -4.433273e-003 3.040489e-003 -9.507197e-003 -1.322306e-002 -1.530043e-003 -3.387888e-003 -7.913914e-003 -1.247630e-002 -1.504676e-002 -1.803582e-002
<VARIANCE> 25
 5.785943e+001 1.802509e+001 1.994201e+001 1.268709e+001 8.580151e+000 1.969455e+001 1.311605e+001 1.097418e+001 1.283909e+001 1.483056e+001 1.053844e+001 1.172785e+001 3.682266e-001 3.313712e-001 4.686063e-001 5.346951e-001 5.340040e-001 7.291623e-001 6.723434e-001 7.012206e-001 8.503307e-001 8.874094e-001 7.992935e-001 7.299019e-001 1.025084e-001
<GCONST> 7.031446e+001
<TRANSP> 5
 0.000000e+000 1.000000e+000 0.000000e+000 0.000000e+000 0.000000e+000
 0.000000e+000 9.262326e-001 7.376742e-002 0.000000e+000 0.000000e+000
 0.000000e+000 0.000000e+000 8.714327e-001 1.285673e-001 0.000000e+000
 0.000000e+000 0.000000e+000 0.000000e+000 9.799432e-001 2.005686e-002
 0.000000e+000 0.000000e+000 0.000000e+000 0.000000e+000 0.000000e+000
<ENDHMM>
~h "aa"
<BEGINHMM>
<NUMSTATES> 5
<STATE> 2
<MEAN> 25
 6.445578e+000 -5.710717e+000 -5.458936e+000 -1.588197e+000 1.557891e+000 -2.892294e+000 1.757926e+000 2.015823e-001 -1.958836e+000 -3.978801e+000 -1.979169e+000 3.584293e-001 -3.070378e-001 3.331065e-001 5.260338e-003 4.200521e-001 1.878088e-001 4.341006e-001 1.838456e-001 1.238241e-001 2.656171e-001 2.108411e-001 4.626067e-002 1.386337e-001 -7.550216e-001
<VARIANCE> 25
 5.869827e+001 7.864150e+001 5.423052e+001 5.283014e+001 7.740954e+001 6.081998e+001 5.589423e+001 5.323951e+001 4.301508e+001 5.643548e+001 5.024621e+001 3.721586e+001 1.167138e+000 2.376093e+000 2.133203e+000 2.457487e+000 2.750232e+000 2.650879e+000 2.726579e+000 2.598510e+000 2.618063e+000 2.743989e+000 2.390859e+000 2.130679e+000 1.853430e+000
<GCONST> 1.049665e+002
<STATE> 3
<MEAN> 25
 7.863324e-001 3.603087e-001 -3.272989e+000 2.529835e+000 2.731758e+000 1.679547e+000 3.789348e+000 1.083542e+000 7.539178e-001 -1.648480e-001 -5.186700e-001 8.036034e-001 -7.230682e-001 2.951221e-001 1.608155e-001 6.726499e-002 -8.145592e-002 1.698537e-001 1.408036e-001 8.875276e-002 3.432038e-001 4.309022e-001 1.846413e-001 1.057148e-001 -8.980615e-001
<VARIANCE> 25
 5.228895e+001 5.157351e+001 3.729990e+001 3.420445e+001 3.436533e+001 3.612370e+001 3.268948e+001 3.084146e+001 3.374221e+001 3.644828e+001 3.341491e+001 2.691792e+001 7.653104e-001 1.292862e+000 1.585731e+000 1.514034e+000 1.734953e+000 1.882587e+000 1.895837e+000 2.008574e+000 1.992015e+000 1.956993e+000 1.877339e+000 1.751954e+000 5.142243e-001
<GCONST> 9.422638e+001
<STATE> 4
<MEAN> 25
 -5.923522e+000 2.390157e+000 -2.064158e+000 4.339365e+000 1.429530e+000 1.953789e+000 3.549627e+000 2.363562e+000 2.536345e+000 2.619445e+000 1.015568e+000 1.925157e+000 -8.477283e-002 4.060064e-003 2.488916e-002 6.495571e-003 -6.490199e-003 1.165930e-002 8.214002e-003 6.861882e-003 3.037756e-002 4.080959e-002 1.331571e-002 3.631295e-003 -7.219379e-002
<VARIANCE> 25
 2.176022e+001 1.090518e+001 1.983402e+001 1.872955e+001 1.236777e+001 2.070263e+001 1.354053e+001 1.848425e+001 1.812899e+001 2.060775e+001 1.735411e+001 1.519097e+001 1.991264e-001 3.018212e-001 4.564423e-001 6.060655e-001 7.600023e-001 9.197595e-001 1.045480e+000 1.162229e+000 1.195128e+000 1.160276e+000 1.124994e+000 1.026271e+000 9.750528e-002
<GCONST> 7.378214e+001
<TRANSP> 5
 0.000000e+000 1.000000e+000 0.000000e+000 0.000000e+000 0.000000e+000
 0.000000e+000 8.284129e-001 1.715871e-001 0.000000e+000 0.000000e+000
 0.000000e+000 0.000000e+000 7.289627e-001 2.710373e-001 0.000000e+000
 0.000000e+000 0.000000e+000 0.000000e+000 9.564182e-001 4.358190e-002
 0.000000e+000 0.000000e+000 0.000000e+000 0.000000e+000 0.000000e+000
<ENDHMM>
~h "eu"
<BEGINHMM>
<NUMSTATES> 5
<STATE> 2
<MEAN> 25
 -2.841533e+000 2.975925e+000 1.056448e+000 1.356305e+000 1.564244e+000 -1.487261e-001 3.545769e+000 6.426288e-001 1.929769e+000 1.233173e+000 1.544650e-001 7.015482e-001 2.072182e+000 -4.662264e-001 3.409170e-001 -4.404630e-001 -4.696062e-001 -8.760733e-001 -1.119491e+000 -3.362483e-001 -5.931677e-001 -8.435373e-001 -2.769114e-001 -3.030369e-001 1.803170e+000
<VARIANCE> 25
 9.525350e+001 7.056088e+001 7.138919e+001 5.896598e+001 4.330676e+001 6.516950e+001 4.718500e+001 4.788432e+001 4.508078e+001 4.079870e+001 4.069529e+001 2.507754e+001 9.774919e+000 6.262689e+000 5.416885e+000 6.203159e+000 4.629738e+000 5.522865e+000 6.323986e+000 5.250067e+000 5.286157e+000 6.236616e+000 4.638771e+000 3.009830e+000 4.861623e+000
<GCONST> 1.153046e+002
<STATE> 3
<MEAN> 25
 5.713734e+000 -3.513353e+000 3.222046e+000 -4.581413e+000 -1.232344e+000 -2.390563e+000 -4.852923e+000 -7.222891e-001 -1.169293e+000 -3.421883e+000 1.477289e+000 -5.968361e-001 1.959584e+000 -1.845199e+000 3.431469e-002 -1.918249e+000 -7.090284e-001 -5.366505e-001 -1.793275e+000 1.470229e-001 -5.484314e-001 -1.094292e+000 1.021300e-001 -5.367807e-001 2.855613e+000
<VARIANCE> 25
 6.173846e+001 9.143466e+001 8.719637e+001 9.517601e+001 6.900612e+001 8.462908e+001 8.069585e+001 7.012632e+001 7.484195e+001 7.624059e+001 5.832746e+001 4.032195e+001 6.228696e+000 1.147399e+001 6.549003e+000 1.011373e+001 6.377838e+000 7.232623e+000 9.025100e+000 7.684431e+000 9.050257e+000 8.085182e+000 6.148290e+000 4.787468e+000 8.060652e+000
<GCONST> 1.236301e+002
<STATE> 4
<MEAN> 25
 9.463760e+000 -1.419255e+001 7.512972e+000 -1.394947e+001 2.303876e-001 2.255371e+000 -9.713778e+000 2.545709e+000 -2.293845e-001 1.998160e+000 2.638911e+000 -5.298069e+000 5.625545e-002 1.993079e-001 -1.435731e-001 2.124503e-001 9.264240e-002 4.817205e-002 1.137142e-001 1.421777e-002 -5.157652e-002 1.840079e-002 -2.049226e-001 -4.711948e-002 -2.346397e-001
<VARIANCE> 25
 5.723069e+001 1.049504e+002 8.260330e+001 9.308548e+001 6.478922e+001 5.569125e+001 6.240920e+001 6.478677e+001 7.002592e+001 1.016414e+002 8.064038e+001 5.016795e+001 7.007436e-001 2.011096e+000 1.501683e+000 2.305653e+000 1.778751e+000 1.693955e+000 2.194775e+000 2.316237e+000 2.044826e+000 1.810531e+000 2.102813e+000 1.622947e+000 1.197118e+000
<GCONST> 1.042969e+002
<TRANSP> 5
 0.000000e+000 1.000000e+000 0.000000e+000 0.000000e+000 0.000000e+000
 0.000000e+000 5.683420e-001 4.316579e-001 0.000000e+000 0.000000e+000
 0.000000e+000 0.000000e+000 6.172211e-001 3.827788e-001 0.000000e+000
 0.000000e+000 0.000000e+000 0.000000e+000 8.952466e-001 1.047534e-001
 0.000000e+000 0.000000e+000 0.000000e+000 0.000000e+000 0.000000e+000
<ENDHMM>
~h "hh"
<BEGINHMM>
<NUMSTATES> 5
<STATE> 2
<MEAN> 25
 2.007438e+000 1.177167e+000 2.336243e-001 -1.263635e+000 6.009407e-002 9.207832e-001 7.323728e-001 -5.569988e-001 4.160953e-001 -9.050200e-001 -1.705624e+000 -1.484962e+000 2.893135e-001 -1.321908e-001 -1.333171e-001 5.610029e-002 5.682954e-001 3.446708e-002 4.158071e-002 3.585918e-001 2.304482e-001 1.680684e-001 -3.086243e-001 3.035146e-002 4.814561e-001
<VARIANCE> 25
 6.009167e+001 7.294152e+001 6.630403e+001 9.846301e+001 7.330550e+001 6.300489e+001 7.066679e+001 6.035553e+001 5.081967e+001 5.170665e+001 5.581629e+001 3.950382e+001 3.666920e+000 6.464092e+000 4.928262e+000 6.438353e+000 4.222173e+000 4.900492e+000 4.750127e+000 4.980399e+000 4.801057e+000 4.151398e+000 4.709716e+000 3.691485e+000 4.768014e+000
<GCONST> 1.157109e+002
<STATE> 3
<MEAN> 25
 -1.471720e+000 -2.526082e+000 -6.089587e+000 1.809043e-001 5.063056e+000 4.674926e+000 6.672462e+000 1.608109e+000 3.636782e+000 2.990851e+000 -7.945673e-001 2.725398e+000 -3.960128e-001 -1.058811e-001 -2.002551e-001 2.733324e-001 2.828478e-001 1.530499e-001 1.257342e-001 7.003873e-002 3.118895e-001 4.073646e-001 3.225364e-001 2.339465e-001 -4.232658e-001
<VARIANCE> 25
 4.087384e+001 6.790659e+001 6.585741e+001 6.081323e+001 6.984323e+001 6.224096e+001 9.460480e+001 7.836018e+001 7.243359e+001 5.663172e+001 7.934114e+001 4.368869e+001 9.843607e-001 2.217695e+000 2.977513e+000 2.718920e+000 3.250179e+000 3.498032e+000 4.328286e+000 4.383847e+000 4.269787e+000 3.100374e+000 3.690888e+000 2.962469e+000 9.303789e-001
<GCONST> 1.090781e+002
<STATE> 4
<MEAN> 25
 -2.660883e+000 -7.200593e-001 -2.681047e+000 2.147760e+000 2.347167e+000 2.912687e+000 3.122456e+000 2.002775e+000 2.529263e+000 3.189596e+000 8.987017e-001 7.540005e-001 -1.912843e-001 4.602418e-002 6.055575e-002 2.660767e-002 -9.970088e-002 4.773805e-003 9.220016e-004 8.993890e-003 -4.839287e-003 4.236694e-002 6.724270e-002 4.112900e-002 -2.560915e-001
<VARIANCE> 25
 3.191788e+001 3.188710e+001 3.068633e+001 3.642539e+001 3.401427e+001 3.016015e+001 2.678001e+001 3.149013e+001 3.180059e+001 3.054852e+001 3.318917e+001 1.922433e+001 3.614275e-001 5.873888e-001 8.993374e-001 9.043093e-001 1.210938e+000 1.250133e+000 1.473263e+000 1.670220e+000 1.473620e+000 1.437197e+000 1.428287e+000 1.214958e+000 3.031991e-001
<GCONST> 8.656609e+001
<TRANSP> 5
 0.000000e+000 1.000000e+000 0.000000e+000 0.000000e+000 0.000000e+000
 0.000000e+000 7.001433e-001 2.998568e-001 0.000000e+000 0.000000e+000
 0.000000e+000 0.000000e+000 6.537682e-001 3.462318e-001 0.000000e+000
 0.000000e+000 0.000000e+000 0.000000e+000 8.874243e-001 1.125757e-001
 0.000000e+000 0.000000e+000 0.000000e+000 0.000000e+000 0.000000e+000
<ENDHMM>
~h "ih"
<BEGINHMM>
<NUMSTATES> 5
<STATE> 2
<MEAN> 25
 8.477008e-001 -8.464243e-002 7.156057e+000 1.023388e+000 6.186179e-002 -2.047760e+000 -3.494775e+000 -1.882721e+000 -3.130780e-001 -1.281999e+000 -8.907970e-001 -1.826272e+000 4.458296e-001 -4.574014e-001 2.003304e+000 -6.175038e-001 -5.550768e-001 -1.042522e+000 -2.001771e+000 -1.794376e-001 -4.428869e-001 -9.088259e-001 -2.607839e-001 -2.016149e-001 2.092297e+000
<VARIANCE> 25
 6.927120e+001 9.900823e+001 1.008291e+002 7.834776e+001 7.915490e+001 7.354854e+001 8.984554e+001 6.476010e+001 6.204553e+001 6.386772e+001 5.178128e+001 3.653027e+001 4.904627e+000 9.094913e+000 9.357919e+000 1.033498e+001 7.387467e+000 7.720053e+000 9.070893e+000 7.695009e+000 6.844866e+000 7.024652e+000 5.800687e+000 4.614246e+000 6.177357e+000
<GCONST> 1.225626e+002
<STATE> 3
<MEAN> 25
 1.847896e+000 1.036549e+000 1.250151e+001 -1.947643e+000 -2.372687e+000 -4.828751e+000 -8.656577e+000 -2.877945e+000 -1.728087e+000 -4.613685e+000 -2.383613e+000 -1.287743e+000 -5.870137e-002 3.158992e-001 4.684313e-001 -3.956144e-001 -2.843013e-001 -2.381060e-001 -4.875256e-001 7.490537e-002 -1.729401e-002 -3.541059e-001 -2.078565e-001 3.647546e-001 1.593231e-001
<VARIANCE> 25
 4.204734e+001 1.047677e+002 1.438236e+002 1.541963e+002 1.100236e+002 9.384605e+001 8.101134e+001 7.812638e+001 6.633797e+001 6.411287e+001 6.696748e+001 5.131871e+001 1.904156e+000 3.751964e+000 5.077748e+000 6.799706e+000 4.216807e+000 5.645683e+000 6.335389e+000 4.423801e+000 4.456121e+000 3.907931e+000 3.856664e+000 4.099020e+000 2.382000e+000
<GCONST> 1.173342e+002
<STATE> 4
<MEAN> 25
 2.653581e+000 2.720987e+000 1.646468e+001 -1.263507e+000 -4.916005e+000 -5.247417e+000 -1.008164e+001 -2.536094e+000 -3.100222e+000 -7.132250e+000 -1.582216e+000 -8.927281e-001 1.313806e-001 1.586164e-001 -4.902171e-001 2.382195e-001 1.423951e-001 2.226451e-001 3.657799e-001 -1.050741e-001 1.809891e-002 1.626726e-001 3.422999e-002 4.508498e-003 -5.219330e-001
<VARIANCE> 25
 2.423185e+001 8.577628e+001 1.057034e+002 1.653042e+002 1.151750e+002 7.093082e+001 5.690257e+001 8.349744e+001 7.211984e+001 6.238837e+001 7.950735e+001 5.655096e+001 5.382112e-001 1.229254e+000 1.710706e+000 2.222297e+000 1.948710e+000 2.100595e+000 2.361374e+000 2.276624e+000 2.178018e+000 2.108319e+000 2.142223e+000 1.908283e+000 6.939580e-001
<GCONST> 1.042325e+002
<TRANSP> 5
 0.000000e+000 1.000000e+000 0.000000e+000 0.000000e+000 0.000000e+000
 0.000000e+000 6.759079e-001 3.240921e-001 0.000000e+000 0.000000e+000
 0.000000e+000 0.000000e+000 5.145939e-001 4.854061e-001 0.000000e+000
 0.000000e+000 0.000000e+000 0.000000e+000 9.141371e-001 8.586290e-002
 0.000000e+000 0.000000e+000 0.000000e+000 0.000000e+000 0.000000e+000
<ENDHMM>
~h "jh"
<BEGINHMM>
<NUMSTATES> 5
<STATE> 2
<MEAN> 25
 1.645651e+000 4.820202e+000 2.664363e+000 4.548966e+000 4.401397e+000 2.751018e+000 5.866796e-001 -1.423034e+000 -3.548355e-001 -3.732334e-001 -1.528688e+000 -8.902455e-002 -8.968980e-001 4.053053e-002 7.213309e-002 1.920620e-001 5.374680e-001 6.346409e-001 9.104323e-001 5.805390e-001 5.855664e-001 5.119718e-001 2.419715e-001 1.431328e-001 -7.831778e-001
<VARIANCE> 25
 2.697998e+001 4.154002e+001 6.015496e+001 2.985950e+001 4.807100e+001 2.541405e+001 4.032534e+001 2.421037e+001 2.838272e+001 2.995536e+001 2.991319e+001 2.401651e+001 1.644327e+000 1.709920e+000 2.361178e+000 2.509153e+000 2.636533e+000 2.911413e+000 3.023376e+000 2.475318e+000 2.897272e+000 2.054148e+000 2.167998e+000 2.041203e+000 1.616431e+000
<GCONST> 9.839130e+001
<STATE> 3
<MEAN> 25
 -4.768227e+000 3.700283e+000 3.763601e+000 4.199477e-001 2.574664e+000 5.271186e-001 2.320805e+000 1.462748e-001 -9.913694e-001 6.738933e-001 8.652319e-001 -9.253240e-001 -4.872582e-001 -8.138906e-001 -5.525715e-001 -5.289574e-001 -1.983086e-001 -4.164680e-001 3.361543e-001 4.165910e-001 1.706870e-002 9.078372e-002 2.400882e-001 1.897765e-001 8.634335e-001
<VARIANCE> 25
 9.279532e+001 7.114613e+001 6.443254e+001 5.677359e+001 6.213042e+001 6.628106e+001 4.183427e+001 3.231908e+001 3.367886e+001 3.457924e+001 3.304165e+001 3.005953e+001 1.190885e+001 4.491053e+000 4.206119e+000 4.119378e+000 7.518059e+000 5.317888e+000 4.098863e+000 2.930631e+000 3.558108e+000 4.031909e+000 3.076888e+000 2.671397e+000 4.947203e+000
<GCONST> 1.118151e+002
<STATE> 4
<MEAN> 25
 -7.595924e+000 3.203548e+000 1.546958e+000 1.939400e+000 1.326844e+000 4.531024e+000 2.903034e+000 1.280784e+000 1.540414e+000 4.199057e+000 1.867922e+000 8.624165e-001 -8.072688e-002 -6.007163e-002 -3.031054e-002 -1.748099e-002 -5.293048e-003 1.958272e-002 3.850808e-002 3.323913e-002 3.988204e-002 4.995117e-002 2.759455e-002 9.684418e-003 -4.650580e-002
<VARIANCE> 25
 2.412215e+001 1.195777e+001 1.634364e+001 1.832148e+001 9.748487e+000 1.496694e+001 1.085702e+001 2.496005e+001 1.741488e+001 1.331040e+001 1.244308e+001 1.383990e+001 2.321937e-001 3.356518e-001 4.544947e-001 5.940874e-001 7.458951e-001 7.779886e-001 8.887397e-001 9.770979e-001 1.024776e+000 1.007650e+000 9.563964e-001 8.900493e-001 1.006890e-001
<GCONST> 7.152180e+001
<TRANSP> 5
 0.000000e+000 1.000000e+000 0.000000e+000 0.000000e+000 0.000000e+000
 0.000000e+000 6.024228e-001 3.975772e-001 0.000000e+000 0.000000e+000
 0.000000e+000 0.000000e+000 6.302744e-001 3.697257e-001 0.000000e+000
 0.000000e+000 0.000000e+000 0.000000e+000 9.620430e-001 3.795692e-002
 0.000000e+000 0.000000e+000 0.000000e+000 0.000000e+000 0.000000e+000
<ENDHMM>
~h "ng"
<BEGINHMM>
<NUMSTATES> 5
<STATE> 2
<MEAN> 25
 8.067575e+000 6.949143e+000 1.261479e+000 3.448926e+000 -1.975397e+000 -2.536335e+000 -3.238041e+000 -8.582101e+000 -6.740169e+000 -2.747443e+000 -5.051938e+000 -4.921014e+000 -6.496648e-001 3.903156e-001 2.247388e-001 5.564354e-001 4.406284e-001 1.454981e-001 2.523454e-001 5.323941e-002 2.225472e-001 1.288837e-001 -2.143362e-001 -2.309452e-002 -7.365573e-001
<VARIANCE> 25
 3.181272e+001 3.279190e+001 3.562206e+001 2.893132e+001 5.234145e+001 3.896783e+001 8.083602e+001 6.203043e+001 5.692060e+001 5.917955e+001 4.936552e+001 4.944096e+001 4.846180e-001 1.210006e+000 1.529988e+000 1.541631e+000 2.242255e+000 2.616799e+000 2.919878e+000 3.441135e+000 3.117869e+000 2.868682e+000 2.722305e+000 2.159743e+000 2.626686e-001
<GCONST> 9.892442e+001
<STATE> 3
<MEAN> 25
 -4.499818e-001 6.007700e+000 2.539814e+000 6.345074e+000 3.606661e+000 1.567673e+000 1.930720e+000 -1.940987e+000 6.299073e-002 6.357852e-002 -2.707018e+000 -1.613929e+000 -9.301044e-001 -5.711536e-001 -4.455403e-001 -2.485074e-001 4.168687e-002 4.091235e-001 6.449280e-001 5.837249e-001 6.238517e-001 5.981081e-001 5.284416e-001 4.839518e-001 -5.665253e-001
<VARIANCE> 25
 1.952636e+001 1.933320e+001 3.768884e+001 2.010470e+001 2.664780e+001 2.654635e+001 3.402867e+001 2.538672e+001 3.473418e+001 3.193342e+001 3.341481e+001 3.113625e+001 3.465045e-001 9.100904e-001 1.277306e+000 1.256562e+000 1.700232e+000 2.300155e+000 2.088360e+000 2.153372e+000 1.985599e+000 1.889175e+000 1.999071e+000 2.042393e+000 1.443296e-001
<GCONST> 8.877204e+001
<STATE> 4
<MEAN> 25
 -6.119657e+000 2.624575e+000 -1.651175e+000 4.774934e+000 1.359858e+000 1.794904e+000 3.622879e+000 2.341558e+000 2.679870e+000 3.010015e+000 8.337888e-001 1.642701e+000 -6.607088e-002 -4.659699e-002 -4.791125e-002 -3.653404e-002 -1.577935e-002 8.371145e-003 1.338435e-002 4.171451e-002 3.988033e-002 2.958091e-002 2.128411e-002 2.086406e-002 -3.812993e-002
<VARIANCE> 25
 1.001917e+001 7.382422e+000 2.010122e+001 1.425596e+001 1.030806e+001 2.186279e+001 1.265047e+001 1.818786e+001 1.697525e+001 2.016507e+001 1.666124e+001 1.340903e+001 1.715838e-001 3.013517e-001 4.477540e-001 5.929809e-001 7.561924e-001 9.242284e-001 1.065803e+000 1.151332e+000 1.191569e+000 1.233629e+000 1.187751e+000 1.043652e+000 8.049697e-002
<GCONST> 7.164798e+001
<TRANSP> 5
 0.000000e+000 1.000000e+000 0.000000e+000 0.000000e+000 0.000000e+000
 0.000000e+000 8.656545e-001 1.343454e-001 0.000000e+000 0.000000e+000
 0.000000e+000 0.000000e+000 8.367495e-001 1.632504e-001 0.000000e+000
 0.000000e+000 0.000000e+000 0.000000e+000 9.699308e-001 3.006922e-002
 0.000000e+000 0.000000e+000 0.000000e+000 0.000000e+000 0.000000e+000
<ENDHMM>
~h "ny"
<BEGINHMM>
<NUMSTATES> 5
<STATE> 2
<MEAN> 25
 -1.464977e+000 3.412587e+000 2.465713e+000 2.124360e+000 2.406193e+000 4.930590e-001 4.540236e-001 -1.370886e+000 6.347712e-001 2.446270e+000 7.470298e-002 -6.581470e-001 1.330802e+000 8.618156e-002 1.495157e+000 -9.867059e-001 -4.573956e-001 -6.049038e-001 -1.070773e+000 -7.329050e-001 -8.032367e-001 -6.457874e-001 -1.655325e-001 -6.625740e-001 2.434875e+000
<VARIANCE> 25
 7.628869e+001 7.202483e+001 8.304198e+001 5.976308e+001 5.099816e+001 5.764281e+001 5.624849e+001 4.660124e+001 4.917265e+001 3.428234e+001 4.281419e+001 3.616348e+001 6.350500e+000 8.284203e+000 8.363951e+000 8.280407e+000 5.812963e+000 6.689573e+000 5.846965e+000 4.965673e+000 5.102903e+000 4.684180e+000 5.025474e+000 3.632050e+000 7.199251e+000
<GCONST> 1.169827e+002
<STATE> 3
<MEAN> 25
 5.419649e+000 -1.623189e+000 1.007727e+001 -3.292662e+000 -3.291044e+000 -4.021684e+000 -5.029014e+000 -1.839445e+000 -4.424609e+000 -2.970738e+000 -7.615972e-001 -4.131121e+000 2.978246e-001 -1.794071e+000 -6.215321e-001 -3.825833e-001 8.218323e-002 -4.458889e-001 -1.148540e-002 7.813984e-001 -9.530774e-002 -2.729513e-001 3.056000e-001 -2.554445e-001 1.398684e+000
<VARIANCE> 25
 3.305162e+001 9.302554e+001 1.002275e+002 1.117455e+002 7.898724e+001 8.289945e+001 8.434157e+001 6.781528e+001 5.212366e+001 6.696142e+001 7.732981e+001 3.644894e+001 2.113979e+000 6.298514e+000 6.112528e+000 7.664076e+000 5.131977e+000 7.413030e+000 7.779111e+000 5.131564e+000 4.403590e+000 4.671550e+000 4.781971e+000 2.846472e+000 3.651829e+000
<GCONST> 1.175333e+002
<STATE> 4
<MEAN> 25
 8.149845e+000 -5.131207e+000 4.821533e+000 -7.919490e+000 -2.741952e+000 -4.446742e-001 -3.991980e+000 -1.430601e+000 -6.929067e+000 -3.492591e+000 3.401188e+000 -4.083107e+000 -2.869831e-002 3.140176e-001 -1.232594e-001 1.517404e-001 3.954709e-002 9.982833e-002 1.395801e-001 -1.458137e-001 2.692933e-002 7.015050e-002 -6.849860e-002 8.996674e-002 -3.605325e-001
<VARIANCE> 25
 2.741215e+001 1.150876e+002 1.096955e+002 9.485580e+001 7.630836e+001 8.260446e+001 9.211265e+001 9.317289e+001 7.083165e+001 6.689240e+001 1.196233e+002 5.356100e+001 5.757030e-001 1.721642e+000 2.187028e+000 2.531176e+000 1.968511e+000 2.380392e+000 2.387745e+000 2.334672e+000 2.145749e+000 1.913989e+000 2.624401e+000 1.910468e+000 8.668472e-001
<GCONST> 1.061356e+002
<TRANSP> 5
 0.000000e+000 1.000000e+000 0.000000e+000 0.000000e+000 0.000000e+000
 0.000000e+000 7.938363e-001 2.061637e-001 0.000000e+000 0.000000e+000
 0.000000e+000 0.000000e+000 7.915382e-001 2.084618e-001 0.000000e+000
 0.000000e+000 0.000000e+000 0.000000e+000 9.487527e-001 5.124737e-002
 0.000000e+000 0.000000e+000 0.000000e+000 0.000000e+000 0.000000e+000
<ENDHMM>
~h "sp"
<BEGINHMM>
<NUMSTATES> 3
<STATE> 2
~s "silst"
<TRANSP> 3
 0.000000e+000 1.415077e-001 8.584923e-001
 0.000000e+000 9.116895e-001 8.831061e-002
 0.000000e+000 0.000000e+000 0.000000e+000
<ENDHMM>
~h "uw"
<BEGINHMM>
<NUMSTATES> 5
<STATE> 2
<MEAN> 25
 6.257934e+000 1.135990e-001 2.266855e+000 -2.348564e+000 -1.241705e+000 -1.617729e+000 -4.269804e+000 -1.607904e+000 -2.126595e+000 -3.005702e+000 -1.705642e+000 -2.048620e+000 6.156190e-001 4.182009e-001 2.177427e-001 -2.605198e-002 -4.035884e-001 -4.394928e-001 -5.432786e-001 -2.346898e-001 -3.825957e-001 -4.189068e-001 -2.462386e-001 -1.610555e-001 3.701985e-001
<VARIANCE> 25
 5.727557e+001 9.695702e+001 8.718942e+001 9.940105e+001 8.458313e+001 8.619545e+001 8.853082e+001 7.954190e+001 6.972421e+001 7.656725e+001 6.821912e+001 4.598562e+001 3.113510e+000 7.165473e+000 4.868961e+000 6.617671e+000 5.551641e+000 6.664556e+000 6.873264e+000 6.274898e+000 5.941496e+000 5.490334e+000 5.008049e+000 3.779348e+000 4.117369e+000
<GCONST> 1.198176e+002
<STATE> 3
<MEAN> 25
 9.242724e+000 6.195833e+000 4.270402e+000 -4.393260e+000 -8.025900e+000 -5.335864e+000 -6.247449e+000 -3.442480e+000 -2.397642e+000 -3.304043e+000 -3.570367e+000 -3.837678e+000 -6.069062e-002 9.640329e-002 -2.434262e-001 2.677019e-003 1.483768e-001 2.320322e-001 2.566242e-001 -1.982630e-001 -4.184090e-002 8.100524e-002 -9.470855e-002 3.435336e-002 -2.315486e-001
<VARIANCE> 25
 2.388790e+001 6.115560e+001 8.627378e+001 7.559115e+001 9.313708e+001 8.857945e+001 8.400358e+001 1.015376e+002 6.714568e+001 7.509820e+001 7.115139e+001 5.319641e+001 5.370104e-001 1.882804e+000 2.727390e+000 2.656394e+000 3.763798e+000 3.947575e+000 3.870060e+000 4.218325e+000 3.654689e+000 3.502640e+000 3.400811e+000 3.106356e+000 7.048879e-001
<GCONST> 1.088902e+002
<STATE> 4
<MEAN> 25
 8.622544e+000 5.525952e+000 1.506240e+000 -2.835231e+000 -4.197885e+000 -2.592053e+000 -3.464238e+000 -4.904039e+000 -5.861570e+000 -4.165387e+000 -1.218310e+000 -2.075140e+000 -3.804567e-001 -1.243886e-002 4.433938e-002 2.195555e-001 1.792102e-001 1.880865e-001 2.622740e-001 2.231223e-002 1.813454e-001 1.748331e-001 7.839531e-002 7.630727e-002 -4.204070e-001
<VARIANCE> 25
 4.768856e+001 5.205751e+001 4.739854e+001 8.702296e+001 5.191482e+001 6.515105e+001 5.019175e+001 6.492552e+001 5.705412e+001 5.088002e+001 7.059779e+001 4.091417e+001 4.174399e-001 8.105882e-001 8.936232e-001 1.177300e+000 1.317882e+000 1.526457e+000 1.572579e+000 1.721589e+000 1.742369e+000 1.704851e+000 1.617782e+000 1.461994e+000 2.932690e-001
<GCONST> 9.563108e+001
<TRANSP> 5
 0.000000e+000 1.000000e+000 0.000000e+000 0.000000e+000 0.000000e+000
 0.000000e+000 8.187855e-001 1.812145e-001 0.000000e+000 0.000000e+000
 0.000000e+000 0.000000e+000 8.646741e-001 1.353259e-001 0.000000e+000
 0.000000e+000 0.000000e+000 0.000000e+000 8.918948e-001 1.081052e-001
 0.000000e+000 0.000000e+000 0.000000e+000 0.000000e+000 0.000000e+000
<ENDHMM>
~h "sil"
<BEGINHMM>
<NUMSTATES> 5
<STATE> 2
<MEAN> 25
 -8.898544e+000 1.988492e+000 -3.024874e+000 2.769442e+000 1.291665e+000 1.205136e+000 3.360044e+000 1.869931e+000 3.397712e+000 3.043644e+000 6.937371e-001 3.020481e+000 -8.946071e-003 -2.536033e-003 6.461032e-004 -4.925205e-003 -1.807959e-003 -4.080068e-003 -3.455769e-003 1.968948e-003 3.752223e-003 8.919974e-003 4.556681e-003 1.320658e-003 -6.341218e-003
<VARIANCE> 25
 3.221019e+001 9.218619e+000 1.907786e+001 2.153525e+001 1.125691e+001 1.768096e+001 1.183028e+001 1.563210e+001 1.609346e+001 1.635376e+001 1.392661e+001 1.531284e+001 8.234121e-002 1.692667e-001 2.727410e-001 3.983666e-001 5.212072e-001 6.190277e-001 7.761298e-001 8.790725e-001 9.262598e-001 8.759089e-001 8.307929e-001 7.915232e-001 3.539759e-002
<GCONST> 6.713179e+001
<STATE> 3
~s "silst"
<STATE> 4
<MEAN> 25
 5.270299e+000 -1.933578e+000 7.428792e-001 -2.354796e+000 -1.494843e+000 -2.952505e-001 -2.133715e+000 -1.204623e+000 -7.847553e-001 -8.080741e-001 -2.003117e-001 -1.097451e+000 7.140276e-002 -1.554875e-002 1.149588e-002 -7.046958e-003 2.080592e-003 -6.274875e-003 -1.252591e-002 -1.352671e-002 -2.348408e-002 -2.967586e-002 -1.260639e-002 -1.496483e-002 7.855622e-002
<VARIANCE> 25
 1.274840e+002 1.208039e+002 9.101276e+001 1.050718e+002 6.041712e+001 7.120647e+001 7.432575e+001 6.133840e+001 6.515810e+001 6.363918e+001 5.920937e+001 3.950694e+001 1.983584e+000 2.772705e+000 2.214156e+000 2.862384e+000 2.192915e+000 2.546384e+000 2.832530e+000 2.608006e+000 2.669148e+000 2.516536e+000 2.359829e+000 1.919433e+000 2.643223e+000
<GCONST> 1.092922e+002
<TRANSP> 5
 0.000000e+000 1.000000e+000 0.000000e+000 0.000000e+000 0.000000e+000
 0.000000e+000 9.543499e-001 3.180668e-003 4.246935e-002 0.000000e+000
 0.000000e+000 0.000000e+000 9.569740e-001 4.302602e-002 0.000000e+000
 0.000000e+000 7.276464e-002 0.000000e+000 9.096645e-001 1.757082e-002
 0.000000e+000 0.000000e+000 0.000000e+000 0.000000e+000 0.000000e+000
<ENDHMM>
