~o
<STREAMINFO> 1 25
<VECSIZE> 25<NULLD><MFCC_D_N_Z_0><DIAGC>
~h "b"
<BEGINHMM>
<NUMSTATES> 5
<STATE> 2
<MEAN> 25
 -4.395267e-001 -2.496990e-001 1.484467e-001 -2.091978e-001 1.463116e-001 -1.730612e-001 5.577959e-002 5.177035e-002 2.157655e-001 3.973882e-002 7.548800e-002 1.633463e-001 8.189849e-003 -2.382848e-003 7.464571e-003 -3.171251e-004 3.604613e-003 -1.727424e-003 1.439570e-003 -2.736164e-003 -3.670236e-004 -2.846681e-003 -4.923591e-003 -3.042634e-003 1.145468e-002
<VARIANCE> 25
 9.662463e+001 7.467617e+001 7.047001e+001 7.258260e+001 4.712383e+001 5.700607e+001 5.987430e+001 4.924174e+001 4.863756e+001 5.728030e+001 4.468128e+001 3.576590e+001 1.337707e+000 1.998132e+000 1.790581e+000 2.080082e+000 1.827042e+000 2.171278e+000 2.433287e+000 2.297463e+000 2.226655e+000 2.181355e+000 2.021993e+000 1.726029e+000 1.623876e+000
<GCONST> 1.032770e+002
<STATE> 3
<MEAN> 25
 -3.886481e-001 -2.561638e-001 1.768156e-001 -2.128215e-001 1.608600e-001 -1.832539e-001 6.124422e-002 3.270539e-002 2.094358e-001 2.432320e-002 5.163276e-002 1.467411e-001 8.918346e-003 -5.916349e-004 5.484301e-003 -6.344554e-004 2.588020e-003 -1.668073e-003 1.529364e-003 -3.821518e-003 -1.367990e-003 -2.891886e-003 -4.528744e-003 -3.011586e-003 9.991233e-003
<VARIANCE> 25
 9.563335e+001 7.476466e+001 7.024677e+001 7.264111e+001 4.721664e+001 5.721511e+001 5.984850e+001 4.924948e+001 4.872268e+001 5.738300e+001 4.473847e+001 3.574823e+001 1.340875e+000 2.004515e+000 1.793751e+000 2.082587e+000 1.830716e+000 2.173300e+000 2.435137e+000 2.301736e+000 2.230931e+000 2.184488e+000 2.027647e+000 1.728579e+000 1.625391e+000
<GCONST> 1.032978e+002
<STATE> 4
<MEAN> 25
 -2.505199e-002 -2.255537e-001 2.011140e-001 -2.995816e-001 1.525533e-001 -2.983930e-001 -5.680098e-002 -1.168820e-001 1.581848e-001 -2.855955e-002 -2.666415e-002 5.436849e-003 7.922680e-003 1.212051e-003 3.716439e-004 -1.129885e-003 1.039384e-003 -1.655914e-003 -1.233555e-004 -3.767559e-003 -1.602138e-003 -2.945727e-003 -2.244232e-003 -1.451564e-003 5.744254e-003
<VARIANCE> 25
 1.057404e+002 8.338573e+001 7.101350e+001 8.101890e+001 4.633475e+001 5.761472e+001 6.108361e+001 4.866953e+001 4.832725e+001 5.835906e+001 4.485703e+001 3.787448e+001 1.285069e+000 2.022991e+000 1.708163e+000 2.045725e+000 1.743269e+000 2.056011e+000 2.346068e+000 2.219230e+000 2.191707e+000 2.143351e+000 2.002131e+000 1.696260e+000 1.584820e+000
<GCONST> 1.033214e+002
<TRANSP> 5
 0.000000e+000 1.000000e+000 0.000000e+000 0.000000e+000 0.000000e+000
 0.000000e+000 8.016741e-001 1.983259e-001 0.000000e+000 0.000000e+000
 0.000000e+000 0.000000e+000 8.016743e-001 1.983256e-001 0.000000e+000
 0.000000e+000 0.000000e+000 0.000000e+000 9.430364e-001 5.696358e-002
 0.000000e+000 0.000000e+000 0.000000e+000 0.000000e+000 0.000000e+000
<ENDHMM>
~h "d"
<BEGINHMM>
<NUMSTATES> 5
<STATE> 2
<MEAN> 25
 6.284389e-001 -3.664322e-001 -8.612096e-002 -1.425401e-001 8.365484e-002 -2.974595e-001 -2.467924e-001 -1.453572e-001 -2.122456e-001 -1.443630e-001 -5.741538e-002 -1.262240e-001 7.711506e-003 -1.874866e-003 3.859729e-003 -7.815159e-004 4.474599e-003 -2.388105e-003 9.807305e-005 1.760956e-003 5.908702e-004 -2.807651e-003 -4.392288e-003 -3.219702e-003 1.066208e-002
<VARIANCE> 25
 8.448757e+001 7.738287e+001 6.410009e+001 6.959241e+001 5.115849e+001 5.212610e+001 6.623869e+001 5.593766e+001 5.105246e+001 5.321878e+001 4.886850e+001 3.721053e+001 1.189139e+000 2.148001e+000 1.717039e+000 2.215859e+000 2.038075e+000 2.230335e+000 2.701539e+000 2.365446e+000 2.277453e+000 2.256282e+000 2.149145e+000 1.760133e+000 2.236416e+000
<GCONST> 1.040695e+002
<STATE> 3
<MEAN> 25
 6.665270e-001 -3.766327e-001 -6.947906e-002 -1.516257e-001 1.050825e-001 -3.049509e-001 -2.461654e-001 -1.354814e-001 -2.068294e-001 -1.565577e-001 -8.065093e-002 -1.423171e-001 7.642145e-003 -2.169912e-003 3.216862e-003 -2.124122e-003 4.320497e-003 -2.050860e-003 5.280271e-004 2.269469e-003 1.234504e-003 -3.144575e-003 -4.874553e-003 -2.871951e-003 1.033624e-002
<VARIANCE> 25
 8.439532e+001 7.765070e+001 6.406815e+001 6.965105e+001 5.123487e+001 5.222143e+001 6.616524e+001 5.606339e+001 5.108333e+001 5.343141e+001 4.896568e+001 3.715004e+001 1.188688e+000 2.156479e+000 1.716568e+000 2.213178e+000 2.041595e+000 2.233940e+000 2.701339e+000 2.369927e+000 2.280827e+000 2.262639e+000 2.155011e+000 1.759381e+000 2.250270e+000
<GCONST> 1.041017e+002
<STATE> 4
<MEAN> 25
 8.100498e-001 -4.461819e-001 -9.222017e-002 -2.787596e-001 1.159878e-001 -3.029003e-001 -3.566318e-001 -5.994157e-002 -1.724274e-002 -1.662654e-001 -2.196688e-001 -2.145659e-001 3.752611e-003 -1.044327e-003 2.063622e-004 -1.952718e-003 3.705955e-003 7.683489e-004 1.163344e-003 2.718404e-003 1.869593e-003 -1.760823e-003 -3.813981e-003 -1.240012e-003 3.196998e-003
<VARIANCE> 25
 9.683394e+001 8.582159e+001 6.542397e+001 7.677361e+001 4.789143e+001 5.109137e+001 6.709031e+001 5.729203e+001 5.229295e+001 5.315104e+001 5.012426e+001 3.814046e+001 1.118950e+000 2.172552e+000 1.644438e+000 2.179697e+000 1.903936e+000 2.112015e+000 2.594103e+000 2.323682e+000 2.235126e+000 2.202556e+000 2.128150e+000 1.710547e+000 2.129641e+000
<GCONST> 1.040313e+002
<TRANSP> 5
 0.000000e+000 1.000000e+000 0.000000e+000 0.000000e+000 0.000000e+000
 0.000000e+000 8.030738e-001 1.969263e-001 0.000000e+000 0.000000e+000
 0.000000e+000 0.000000e+000 8.030733e-001 1.969267e-001 0.000000e+000
 0.000000e+000 0.000000e+000 0.000000e+000 9.443693e-001 5.563065e-002
 0.000000e+000 0.000000e+000 0.000000e+000 0.000000e+000 0.000000e+000
<ENDHMM>
~h "g"
<BEGINHMM>
<NUMSTATES> 5
<STATE> 2
<MEAN> 25
 -3.224069e-001 8.061653e-001 1.598173e+000 4.940102e-001 -8.834951e-002 -2.390971e-001 -5.614916e-001 -3.697256e-001 -1.134623e-001 -4.580261e-001 -2.659347e-001 -9.596382e-002 5.650305e-003 1.072992e-003 8.738753e-003 2.448756e-003 3.024297e-003 -1.658956e-003 -3.025035e-003 -2.970643e-003 -1.871069e-003 -1.219358e-003 -2.449590e-003 -2.779876e-003 9.257288e-003
<VARIANCE> 25
 7.577298e+001 7.174463e+001 1.052276e+002 6.886600e+001 5.375425e+001 5.264459e+001 6.069017e+001 5.069023e+001 4.772563e+001 5.278143e+001 4.502902e+001 3.328662e+001 1.331314e+000 2.013880e+000 1.950993e+000 2.276927e+000 2.026883e+000 2.221544e+000 2.483643e+000 2.251225e+000 2.248657e+000 2.265391e+000 2.030998e+000 1.677237e+000 1.855200e+000
<GCONST> 1.037347e+002
<STATE> 3
<MEAN> 25
 -2.926883e-001 8.070107e-001 1.627364e+000 5.011715e-001 -7.759515e-002 -2.475408e-001 -5.736965e-001 -3.848485e-001 -1.269907e-001 -4.580684e-001 -2.726674e-001 -1.096718e-001 4.795050e-003 7.795013e-004 5.891357e-003 1.443456e-003 1.870751e-003 -1.602982e-003 -2.478180e-003 -3.090531e-003 -2.504607e-003 3.341858e-004 -1.177641e-003 -2.675641e-003 1.078569e-002
<VARIANCE> 25
 7.514748e+001 7.202975e+001 1.050174e+002 6.877181e+001 5.358938e+001 5.257557e+001 6.062471e+001 5.068802e+001 4.776732e+001 5.289787e+001 4.510969e+001 3.324621e+001 1.347582e+000 2.013384e+000 1.958912e+000 2.289153e+000 2.032740e+000 2.227048e+000 2.483078e+000 2.254574e+000 2.251094e+000 2.276807e+000 2.037915e+000 1.680461e+000 1.847798e+000
<GCONST> 1.037605e+002
<STATE> 4
<MEAN> 25
 -1.103854e-001 7.773560e-001 1.691018e+000 4.929905e-001 -2.377078e-001 -3.459947e-001 -4.788093e-001 -4.647475e-001 -2.407494e-001 -5.805930e-001 -1.938168e-001 -1.662686e-001 5.549029e-003 1.130870e-003 1.462578e-004 -2.393123e-004 -1.441390e-003 -1.029863e-003 -2.235280e-003 -3.460895e-003 -3.585939e-003 4.376893e-005 -1.492170e-004 -1.260576e-003 9.157184e-003
<VARIANCE> 25
 8.407730e+001 7.491669e+001 1.157785e+002 7.134362e+001 5.537578e+001 5.264710e+001 5.921015e+001 5.193514e+001 4.758607e+001 5.249499e+001 4.503985e+001 3.336882e+001 1.305408e+000 2.016868e+000 1.943267e+000 2.247054e+000 1.949047e+000 2.170800e+000 2.371448e+000 2.226126e+000 2.236113e+000 2.233467e+000 2.008510e+000 1.650309e+000 1.818446e+000
<GCONST> 1.038144e+002
<TRANSP> 5
 0.000000e+000 1.000000e+000 0.000000e+000 0.000000e+000 0.000000e+000
 0.000000e+000 8.041239e-001 1.958761e-001 0.000000e+000 0.000000e+000
 0.000000e+000 0.000000e+000 8.041235e-001 1.958765e-001 0.000000e+000
 0.000000e+000 0.000000e+000 0.000000e+000 9.450446e-001 5.495540e-002
 0.000000e+000 0.000000e+000 0.000000e+000 0.000000e+000 0.000000e+000
<ENDHMM>
~h "k"
<BEGINHMM>
<NUMSTATES> 5
<STATE> 2
<MEAN> 25
 8.465266e-001 -3.183633e-001 -9.656330e-002 -2.157578e-001 1.008067e-001 -2.000066e-001 -6.353383e-002 -2.109335e-001 -3.854235e-001 -2.767747e-001 -2.316544e-001 -2.969684e-001 3.412315e-003 7.890724e-003 3.652449e-003 -1.605305e-003 -3.307421e-003 1.947797e-003 -6.708255e-004 -1.837157e-003 6.922099e-005 1.203632e-003 -7.338737e-004 -1.758536e-003 -4.062111e-003
<VARIANCE> 25
 8.402919e+001 7.409579e+001 6.331220e+001 7.882798e+001 5.232614e+001 5.440762e+001 5.941531e+001 5.523244e+001 5.250884e+001 5.579519e+001 4.253114e+001 3.274669e+001 1.221196e+000 1.933397e+000 1.753173e+000 2.333687e+000 2.070982e+000 2.242711e+000 2.538286e+000 2.561790e+000 2.346474e+000 2.292612e+000 2.101648e+000 1.774062e+000 1.825346e+000
<GCONST> 1.037469e+002
<STATE> 3
<MEAN> 25
 8.673155e-001 -2.827223e-001 -8.208076e-002 -2.217303e-001 8.396539e-002 -1.926030e-001 -7.021840e-002 -2.186168e-001 -3.853699e-001 -2.748660e-001 -2.376303e-001 -3.078205e-001 3.166424e-003 7.842264e-003 2.783930e-003 -9.912448e-004 -3.653648e-003 1.983675e-003 -1.429626e-003 -1.264594e-003 1.195291e-004 8.383607e-004 -6.245180e-004 -1.801084e-003 -4.622535e-003
<VARIANCE> 25
 8.388917e+001 7.395747e+001 6.327594e+001 7.879095e+001 5.222911e+001 5.442859e+001 5.948018e+001 5.542728e+001 5.263124e+001 5.581772e+001 4.260851e+001 3.274207e+001 1.227783e+000 1.932721e+000 1.755239e+000 2.332269e+000 2.072715e+000 2.242491e+000 2.542684e+000 2.565677e+000 2.351991e+000 2.300287e+000 2.100168e+000 1.777441e+000 1.829181e+000
<GCONST> 1.037684e+002
<STATE> 4
<MEAN> 25
 1.082017e+000 -2.345512e-001 -1.087879e-002 -2.156598e-001 5.437322e-002 -8.583869e-002 -2.010254e-001 -2.372580e-001 -4.276830e-001 -2.504341e-001 -2.506441e-001 -3.581376e-001 2.974794e-003 5.997157e-003 4.548353e-004 3.798360e-004 -2.459610e-003 4.186493e-004 -2.164321e-003 -2.780211e-004 3.554564e-004 -3.611459e-004 -1.103276e-003 -2.110602e-003 -2.470462e-003
<VARIANCE> 25
 9.693095e+001 8.059085e+001 6.466119e+001 8.679939e+001 5.190390e+001 5.489931e+001 5.941465e+001 5.591500e+001 5.192613e+001 5.502365e+001 4.371391e+001 3.253305e+001 1.222106e+000 1.922857e+000 1.691358e+000 2.310526e+000 1.994402e+000 2.151834e+000 2.453567e+000 2.487576e+000 2.291356e+000 2.241503e+000 2.045864e+000 1.716454e+000 1.797176e+000
<GCONST> 1.037853e+002
<TRANSP> 5
 0.000000e+000 1.000000e+000 0.000000e+000 0.000000e+000 0.000000e+000
 0.000000e+000 8.025235e-001 1.974764e-001 0.000000e+000 0.000000e+000
 0.000000e+000 0.000000e+000 8.025236e-001 1.974765e-001 0.000000e+000
 0.000000e+000 0.000000e+000 0.000000e+000 9.438713e-001 5.612868e-002
 0.000000e+000 0.000000e+000 0.000000e+000 0.000000e+000 0.000000e+000
<ENDHMM>
~h "l"
<BEGINHMM>
<NUMSTATES> 5
<STATE> 2
<MEAN> 25
 3.223945e-001 -2.789669e-001 1.724097e-001 -6.191109e-001 4.850313e-002 -3.000873e-001 -7.270006e-002 -1.148663e-001 -1.390936e-001 -3.682417e-001 3.794286e-002 -1.569604e-001 -1.309890e-003 5.202009e-003 -4.640526e-003 6.371420e-003 9.442243e-004 3.695669e-003 3.355989e-003 4.581032e-003 3.389855e-003 2.870151e-003 2.348332e-005 2.088903e-003 -2.021922e-002
<VARIANCE> 25
 9.403567e+001 7.522533e+001 7.024303e+001 8.015706e+001 5.364899e+001 5.927206e+001 6.418124e+001 5.496962e+001 5.456174e+001 5.900259e+001 4.606248e+001 3.541957e+001 1.472212e+000 2.121162e+000 1.929134e+000 2.333669e+000 2.094058e+000 2.387538e+000 2.698816e+000 2.538757e+000 2.444253e+000 2.356582e+000 2.145523e+000 1.784232e+000 1.839082e+000
<GCONST> 1.050340e+002
<STATE> 3
<MEAN> 25
 3.118582e-001 -2.520614e-001 1.518339e-001 -5.857216e-001 5.339511e-002 -2.789753e-001 -5.493225e-002 -9.223051e-002 -1.223707e-001 -3.516461e-001 3.777691e-002 -1.454859e-001 -1.631628e-003 5.842591e-003 -4.608843e-003 7.704203e-003 4.324434e-004 4.945236e-003 3.023147e-003 5.167459e-003 3.357414e-003 3.875594e-003 5.451029e-004 1.982453e-003 -2.388571e-002
<VARIANCE> 25
 9.394246e+001 7.508215e+001 7.010670e+001 8.003483e+001 5.363720e+001 5.904196e+001 6.391496e+001 5.481552e+001 5.431442e+001 5.890393e+001 4.595432e+001 3.530166e+001 1.463379e+000 2.112082e+000 1.918029e+000 2.325595e+000 2.086768e+000 2.378201e+000 2.689532e+000 2.527189e+000 2.434525e+000 2.349808e+000 2.138412e+000 1.778519e+000 1.856786e+000
<GCONST> 1.049659e+002
<STATE> 4
<MEAN> 25
 3.956482e-001 -2.620125e-001 1.208957e-001 -5.666924e-001 4.398320e-002 -1.545375e-001 -9.356698e-002 -8.521941e-002 -1.113563e-001 -2.329068e-001 2.723210e-002 -2.303107e-001 -4.497689e-003 6.228122e-003 -2.842508e-003 7.906040e-003 4.432245e-004 5.829329e-003 3.112840e-003 4.395626e-003 2.904018e-003 4.561619e-003 5.551754e-004 2.477116e-003 -2.451085e-002
<VARIANCE> 25
 1.057344e+002 8.153384e+001 7.146281e+001 8.705692e+001 5.202872e+001 5.845091e+001 6.475140e+001 5.443656e+001 5.273875e+001 5.785885e+001 4.618875e+001 3.635730e+001 1.370712e+000 2.059587e+000 1.804091e+000 2.276498e+000 1.961610e+000 2.231738e+000 2.560141e+000 2.421782e+000 2.338997e+000 2.264584e+000 2.088176e+000 1.725599e+000 1.783576e+000
<GCONST> 1.046609e+002
<TRANSP> 5
 0.000000e+000 1.000000e+000 0.000000e+000 0.000000e+000 0.000000e+000
 0.000000e+000 7.991868e-001 2.008131e-001 0.000000e+000 0.000000e+000
 0.000000e+000 0.000000e+000 7.991849e-001 2.008152e-001 0.000000e+000
 0.000000e+000 0.000000e+000 0.000000e+000 9.405132e-001 5.948677e-002
 0.000000e+000 0.000000e+000 0.000000e+000 0.000000e+000 0.000000e+000
<ENDHMM>
~h "m"
<BEGINHMM>
<NUMSTATES> 5
<STATE> 2
<MEAN> 25
 6.910099e-001 -7.133134e-001 -2.417713e-001 1.381081e-001 5.205276e-001 -1.242504e-001 1.988692e-001 2.999764e-002 -3.346768e-001 -4.640549e-001 -3.201574e-001 -2.745201e-001 -4.474881e-003 -2.253201e-003 4.507505e-004 -1.012861e-003 3.800655e-004 -5.801276e-004 1.051153e-003 1.579523e-005 2.504688e-003 -2.736641e-004 -6.635459e-004 1.582107e-003 -5.308694e-003
<VARIANCE> 25
 8.542287e+001 7.612492e+001 6.819786e+001 7.410511e+001 5.095838e+001 5.245329e+001 6.119326e+001 5.468086e+001 5.471184e+001 5.786619e+001 4.413906e+001 3.611364e+001 1.425689e+000 2.113567e+000 1.862560e+000 2.429440e+000 2.153856e+000 2.279332e+000 2.596836e+000 2.549378e+000 2.380722e+000 2.340384e+000 2.118581e+000 1.765998e+000 2.210343e+000
<GCONST> 1.046198e+002
<STATE> 3
<MEAN> 25
 6.703453e-001 -7.232000e-001 -2.408931e-001 1.328621e-001 5.213286e-001 -1.270068e-001 2.015708e-001 2.853022e-002 -3.229133e-001 -4.642434e-001 -3.228440e-001 -2.664955e-001 -4.131225e-003 -1.521069e-003 4.353441e-004 -1.106504e-003 -5.435471e-004 -4.639878e-004 7.797931e-004 -3.418802e-004 2.034134e-003 2.254835e-004 -1.559291e-004 1.678920e-003 -6.032909e-003
<VARIANCE> 25
 8.540667e+001 7.608129e+001 6.819914e+001 7.429308e+001 5.087403e+001 5.243696e+001 6.112715e+001 5.452089e+001 5.476269e+001 5.789364e+001 4.403208e+001 3.610528e+001 1.429102e+000 2.114295e+000 1.868760e+000 2.432898e+000 2.153720e+000 2.284790e+000 2.598281e+000 2.551666e+000 2.385255e+000 2.340137e+000 2.118682e+000 1.766350e+000 2.221494e+000
<GCONST> 1.046327e+002
<STATE> 4
<MEAN> 25
 6.899478e-001 -8.281747e-001 -2.314851e-001 7.188571e-002 5.269480e-001 -6.856391e-003 8.098644e-002 3.395731e-002 -3.199742e-001 -2.545738e-001 -3.039955e-001 -2.778662e-001 -2.521062e-003 -5.848994e-004 8.908015e-004 -1.295984e-003 -7.321432e-004 8.993190e-004 -3.147898e-004 -6.350640e-004 1.850414e-003 1.071188e-003 5.433310e-004 1.274367e-003 -4.967657e-003
<VARIANCE> 25
 9.709264e+001 8.509908e+001 7.031226e+001 8.381691e+001 4.853298e+001 5.172345e+001 6.219368e+001 5.446120e+001 5.496073e+001 5.660949e+001 4.451426e+001 3.683802e+001 1.358938e+000 2.086068e+000 1.774178e+000 2.409995e+000 2.007473e+000 2.172799e+000 2.483484e+000 2.477204e+000 2.359715e+000 2.250432e+000 2.078549e+000 1.703705e+000 2.149223e+000
<GCONST> 1.045329e+002
<TRANSP> 5
 0.000000e+000 1.000000e+000 0.000000e+000 0.000000e+000 0.000000e+000
 0.000000e+000 8.014879e-001 1.985121e-001 0.000000e+000 0.000000e+000
 0.000000e+000 0.000000e+000 8.014901e-001 1.985100e-001 0.000000e+000
 0.000000e+000 0.000000e+000 0.000000e+000 9.430222e-001 5.697788e-002
 0.000000e+000 0.000000e+000 0.000000e+000 0.000000e+000 0.000000e+000
<ENDHMM>
~h "n"
<BEGINHMM>
<NUMSTATES> 5
<STATE> 2
<MEAN> 25
 6.043251e-001 1.395262e-001 3.820066e-001 4.336951e-001 -2.830217e-002 -1.372810e-001 -2.874328e-001 -2.051626e-001 -3.881734e-001 -3.040599e-001 -1.448762e-001 -1.406316e-001 3.762217e-003 3.849365e-003 5.410850e-003 5.243141e-003 -3.412414e-004 1.106273e-003 -4.487670e-003 1.830388e-004 -1.183315e-003 -2.444215e-003 -1.296623e-003 -2.086539e-003 -5.111075e-003
<VARIANCE> 25
 8.126781e+001 7.120333e+001 7.075328e+001 7.498584e+001 5.344436e+001 5.380362e+001 6.405829e+001 5.847823e+001 5.273853e+001 5.683858e+001 4.439238e+001 3.511691e+001 1.328497e+000 2.009753e+000 1.876816e+000 2.385358e+000 2.135345e+000 2.348120e+000 2.714610e+000 2.586516e+000 2.406080e+000 2.387282e+000 2.120126e+000 1.809636e+000 2.142786e+000
<GCONST> 1.046335e+002
<STATE> 3
<MEAN> 25
 6.187137e-001 1.538621e-001 4.054841e-001 4.568665e-001 -2.976230e-002 -1.320051e-001 -3.073414e-001 -2.031459e-001 -3.918991e-001 -3.152840e-001 -1.510682e-001 -1.520831e-001 3.155380e-003 3.193476e-003 5.077608e-003 4.673986e-003 -1.264430e-004 8.598875e-004 -4.195551e-003 1.790360e-004 -7.483684e-004 -2.686806e-003 -1.608255e-003 -2.415970e-003 -4.118406e-003
<VARIANCE> 25
 8.117532e+001 7.131477e+001 7.101116e+001 7.503806e+001 5.351181e+001 5.387409e+001 6.424719e+001 5.856710e+001 5.275273e+001 5.676748e+001 4.440782e+001 3.521314e+001 1.312992e+000 2.007420e+000 1.876913e+000 2.382363e+000 2.133000e+000 2.347315e+000 2.712499e+000 2.583823e+000 2.401714e+000 2.383433e+000 2.118579e+000 1.808549e+000 2.131466e+000
<GCONST> 1.046200e+002
<STATE> 4
<MEAN> 25
 6.453596e-001 1.410635e-001 5.390067e-001 4.846235e-001 -7.505158e-002 -8.940901e-002 -3.435291e-001 -1.947267e-001 -4.185194e-001 -3.217760e-001 -1.653755e-001 -1.738559e-001 -1.509486e-004 8.655975e-005 2.490986e-003 1.601650e-003 5.449662e-005 5.057058e-004 -2.181686e-003 9.601470e-004 1.127079e-003 -9.780067e-004 -1.247613e-003 -1.834787e-003 -3.349061e-003
<VARIANCE> 25
 9.266248e+001 7.808135e+001 7.522497e+001 8.287633e+001 5.395102e+001 5.232770e+001 6.521307e+001 5.870524e+001 5.323004e+001 5.548497e+001 4.551324e+001 3.598577e+001 1.234118e+000 1.974010e+000 1.809166e+000 2.339993e+000 2.026821e+000 2.228484e+000 2.592131e+000 2.508761e+000 2.336839e+000 2.295826e+000 2.076983e+000 1.748398e+000 2.017685e+000
<GCONST> 1.045441e+002
<TRANSP> 5
 0.000000e+000 1.000000e+000 0.000000e+000 0.000000e+000 0.000000e+000
 0.000000e+000 8.013718e-001 1.986283e-001 0.000000e+000 0.000000e+000
 0.000000e+000 0.000000e+000 8.013725e-001 1.986275e-001 0.000000e+000
 0.000000e+000 0.000000e+000 0.000000e+000 9.427629e-001 5.723708e-002
 0.000000e+000 0.000000e+000 0.000000e+000 0.000000e+000 0.000000e+000
<ENDHMM>
~h "p"
<BEGINHMM>
<NUMSTATES> 5
<STATE> 2
<MEAN> 25
 -1.825186e-002 -4.609609e-001 -4.157802e-001 -2.466174e-001 1.116842e-001 1.216987e-001 1.006884e-001 1.402654e-001 1.788270e-001 4.264194e-002 1.258008e-001 9.251576e-002 4.517275e-003 1.367627e-003 6.174962e-003 -6.268725e-004 -2.388410e-004 -2.499165e-004 -1.295620e-003 -3.601915e-003 2.841022e-003 4.662419e-003 -7.699641e-004 -4.767726e-003 -1.354387e-003
<VARIANCE> 25
 8.332944e+001 7.113628e+001 6.836955e+001 7.989890e+001 5.561644e+001 5.044172e+001 6.140724e+001 5.398569e+001 4.896090e+001 5.340923e+001 4.284571e+001 3.469186e+001 1.367284e+000 2.040420e+000 1.888339e+000 2.495874e+000 2.144562e+000 2.401619e+000 2.713893e+000 2.458130e+000 2.318110e+000 2.364328e+000 2.086605e+000 1.780383e+000 2.258785e+000
<GCONST> 1.044003e+002
<STATE> 3
<MEAN> 25
 1.128908e-002 -4.541232e-001 -3.938989e-001 -2.501791e-001 1.072588e-001 1.157409e-001 9.436321e-002 1.236786e-001 1.841660e-001 6.191772e-002 1.229061e-001 6.826513e-002 4.955842e-003 1.892529e-003 4.198490e-003 -5.622670e-004 -5.034650e-004 -7.596417e-004 -1.038435e-003 -3.709996e-003 1.285172e-003 4.647989e-003 -5.276448e-004 -4.771244e-003 -1.615163e-003
<VARIANCE> 25
 8.273485e+001 7.100957e+001 6.852915e+001 7.995195e+001 5.565505e+001 5.060709e+001 6.146645e+001 5.395312e+001 4.886950e+001 5.341859e+001 4.280358e+001 3.454148e+001 1.368756e+000 2.034978e+000 1.886415e+000 2.500191e+000 2.145884e+000 2.402803e+000 2.713466e+000 2.458459e+000 2.314040e+000 2.360903e+000 2.089918e+000 1.782781e+000 2.256684e+000
<GCONST> 1.043906e+002
<STATE> 4
<MEAN> 25
 1.993502e-001 -5.379186e-001 -3.519067e-001 -2.978586e-001 6.663860e-002 1.169262e-001 5.785788e-002 1.582479e-001 1.292080e-001 8.194724e-002 6.367017e-002 -1.711524e-002 5.474696e-003 3.086596e-003 3.456551e-003 5.153244e-004 -3.188211e-003 -1.449581e-003 -7.730298e-004 -1.568139e-003 -4.878120e-004 1.591300e-003 -6.767716e-005 -2.846866e-003 -1.023528e-003
<VARIANCE> 25
 9.196320e+001 7.871365e+001 7.238765e+001 8.938573e+001 5.520750e+001 4.945994e+001 6.293838e+001 5.482374e+001 4.982774e+001 5.270753e+001 4.372046e+001 3.561418e+001 1.300693e+000 2.041190e+000 1.829210e+000 2.542347e+000 2.048540e+000 2.309449e+000 2.625030e+000 2.422211e+000 2.273067e+000 2.322009e+000 2.071567e+000 1.754809e+000 2.269433e+000
<GCONST> 1.045826e+002
<TRANSP> 5
 0.000000e+000 1.000000e+000 0.000000e+000 0.000000e+000 0.000000e+000
 0.000000e+000 8.001350e-001 1.998650e-001 0.000000e+000 0.000000e+000
 0.000000e+000 0.000000e+000 8.001361e-001 1.998639e-001 0.000000e+000
 0.000000e+000 0.000000e+000 0.000000e+000 9.416444e-001 5.835566e-002
 0.000000e+000 0.000000e+000 0.000000e+000 0.000000e+000 0.000000e+000
<ENDHMM>
~h "r"
<BEGINHMM>
<NUMSTATES> 5
<STATE> 2
<MEAN> 25
 9.636366e-001 -5.643002e-001 -9.673166e-001 -5.170901e-001 3.486230e-003 -1.301273e-001 1.495316e-001 -1.039043e-002 -1.858592e-001 -1.827402e-001 6.523274e-002 -5.225839e-002 6.145959e-003 -1.878247e-003 -4.936387e-003 4.511753e-003 1.333772e-003 2.754650e-003 -3.812813e-003 9.722328e-005 -3.031792e-003 -1.338123e-003 2.622750e-004 -2.095698e-003 -9.097202e-003
<VARIANCE> 25
 9.565050e+001 7.447910e+001 5.443439e+001 6.668012e+001 4.586976e+001 5.730154e+001 5.594086e+001 5.125464e+001 4.646675e+001 5.434781e+001 4.078889e+001 3.416489e+001 1.179403e+000 1.900168e+000 1.577287e+000 1.995621e+000 1.897347e+000 2.143681e+000 2.345539e+000 2.318740e+000 2.176436e+000 2.189572e+000 1.950072e+000 1.691706e+000 1.656931e+000
<GCONST> 1.022341e+002
<STATE> 3
<MEAN> 25
 9.864373e-001 -5.712594e-001 -9.889835e-001 -4.940942e-001 1.259115e-002 -1.151621e-001 1.292558e-001 -1.115452e-002 -1.999628e-001 -1.856623e-001 6.701908e-002 -5.924407e-002 5.444387e-003 -1.074511e-003 -4.587089e-003 4.828732e-003 1.414935e-003 3.127160e-003 -4.545991e-003 -5.649905e-005 -3.344265e-003 -9.258544e-004 3.783528e-004 -1.686207e-003 -1.001932e-002
<VARIANCE> 25
 9.555884e+001 7.427276e+001 5.415770e+001 6.664516e+001 4.580231e+001 5.729119e+001 5.605442e+001 5.128115e+001 4.653543e+001 5.427587e+001 4.072819e+001 3.418787e+001 1.177593e+000 1.898059e+000 1.573221e+000 1.993066e+000 1.893897e+000 2.142380e+000 2.346616e+000 2.320101e+000 2.177391e+000 2.190268e+000 1.947857e+000 1.692284e+000 1.666543e+000
<GCONST> 1.022229e+002
<STATE> 4
<MEAN> 25
 1.127464e+000 -5.090246e-001 -9.798379e-001 -4.552656e-001 4.897236e-002 -4.967614e-002 7.888772e-002 -5.271102e-002 -2.594484e-001 -1.390221e-001 8.739909e-002 -6.633846e-002 -2.700278e-003 1.703607e-003 -1.112160e-003 6.159690e-003 2.022265e-003 5.299290e-003 -2.777228e-003 4.950952e-004 -1.309451e-003 1.517200e-003 6.608075e-004 6.696083e-004 -1.362822e-002
<VARIANCE> 25
 1.109526e+002 8.067549e+001 5.492967e+001 7.325526e+001 4.401423e+001 5.836249e+001 5.588401e+001 5.115197e+001 4.667102e+001 5.323494e+001 4.064717e+001 3.499240e+001 1.141859e+000 1.895549e+000 1.496249e+000 1.976375e+000 1.784235e+000 2.033411e+000 2.248640e+000 2.213463e+000 2.111783e+000 2.108802e+000 1.875223e+000 1.644757e+000 1.605542e+000
<GCONST> 1.020770e+002
<TRANSP> 5
 0.000000e+000 1.000000e+000 0.000000e+000 0.000000e+000 0.000000e+000
 0.000000e+000 8.052993e-001 1.947007e-001 0.000000e+000 0.000000e+000
 0.000000e+000 0.000000e+000 8.052999e-001 1.947001e-001 0.000000e+000
 0.000000e+000 0.000000e+000 0.000000e+000 9.460610e-001 5.393906e-002
 0.000000e+000 0.000000e+000 0.000000e+000 0.000000e+000 0.000000e+000
<ENDHMM>
~h "s"
<BEGINHMM>
<NUMSTATES> 5
<STATE> 2
<MEAN> 25
 -8.510386e-001 -3.699069e-001 -2.679242e-002 -3.507693e-001 -1.756256e-001 -6.426403e-003 1.351881e-001 2.731944e-001 1.221105e-001 3.049400e-001 3.963850e-001 1.244357e-001 7.258195e-003 -3.685168e-003 1.091034e-002 1.479105e-004 1.971700e-003 -4.875524e-005 3.397348e-003 1.086251e-003 2.730423e-003 -6.353192e-004 4.531847e-005 -1.081310e-004 8.165117e-003
<VARIANCE> 25
 1.020339e+002 7.137513e+001 7.139540e+001 7.419881e+001 5.154387e+001 5.683127e+001 6.143024e+001 5.030239e+001 4.918890e+001 5.419250e+001 4.372018e+001 3.416864e+001 1.714649e+000 2.053377e+000 1.867094e+000 2.128399e+000 1.952505e+000 2.339924e+000 2.570467e+000 2.365065e+000 2.291088e+000 2.286894e+000 2.009000e+000 1.705593e+000 1.787020e+000
<GCONST> 1.040619e+002
<STATE> 3
<MEAN> 25
 -8.063654e-001 -3.876083e-001 2.473704e-002 -3.511392e-001 -1.721381e-001 -7.414830e-003 1.473169e-001 2.769451e-001 1.327502e-001 2.959745e-001 3.968251e-001 1.195269e-001 8.184053e-003 -3.822263e-003 1.032384e-002 2.419356e-004 1.620067e-003 -2.607930e-004 2.178846e-003 6.923087e-004 2.492059e-003 -1.813024e-003 1.712873e-004 -1.013067e-003 8.343404e-003
<VARIANCE> 25
 1.011040e+002 7.130875e+001 7.155907e+001 7.410979e+001 5.174144e+001 5.709122e+001 6.138638e+001 5.028055e+001 4.927732e+001 5.430820e+001 4.364523e+001 3.410351e+001 1.728069e+000 2.060533e+000 1.874682e+000 2.133938e+000 1.953018e+000 2.346045e+000 2.574073e+000 2.366543e+000 2.290283e+000 2.294144e+000 2.009097e+000 1.706995e+000 1.775704e+000
<GCONST> 1.040806e+002
<STATE> 4
<MEAN> 25
 -4.415696e-001 -4.828941e-001 1.172423e-001 -4.776615e-001 -2.406705e-001 -8.912937e-002 5.360721e-002 2.461393e-001 1.687043e-001 1.939966e-001 3.627969e-001 3.043904e-002 1.098367e-002 -1.010848e-003 6.363629e-003 -1.620875e-003 -1.928562e-003 -2.307964e-003 -1.293151e-003 5.998656e-004 1.090010e-003 -4.604240e-003 -5.197091e-005 -1.469575e-003 8.154782e-003
<VARIANCE> 25
 1.105302e+002 7.858551e+001 7.380692e+001 8.038261e+001 5.176661e+001 5.834172e+001 6.240234e+001 5.039646e+001 4.962980e+001 5.401742e+001 4.421964e+001 3.519110e+001 1.681278e+000 2.059497e+000 1.832051e+000 2.129826e+000 1.876677e+000 2.279709e+000 2.510073e+000 2.315254e+000 2.246382e+000 2.239151e+000 2.003359e+000 1.677359e+000 1.722020e+000
<GCONST> 1.042029e+002
<TRANSP> 5
 0.000000e+000 1.000000e+000 0.000000e+000 0.000000e+000 0.000000e+000
 0.000000e+000 8.003889e-001 1.996111e-001 0.000000e+000 0.000000e+000
 0.000000e+000 0.000000e+000 8.003883e-001 1.996118e-001 0.000000e+000
 0.000000e+000 0.000000e+000 0.000000e+000 9.417454e-001 5.825461e-002
 0.000000e+000 0.000000e+000 0.000000e+000 0.000000e+000 0.000000e+000
<ENDHMM>
~h "t"
<BEGINHMM>
<NUMSTATES> 5
<STATE> 2
<MEAN> 25
 -3.010683e-002 3.496804e-001 4.434495e-001 3.619246e-002 -1.748076e-001 9.413962e-003 -1.349960e-001 -1.460108e-001 6.276655e-002 1.278070e-002 -9.507858e-002 -3.739600e-002 7.774856e-003 2.463464e-004 4.951137e-003 -1.187911e-003 9.723197e-004 -1.028176e-003 -4.415119e-003 -3.948728e-003 -8.127466e-004 -1.955007e-003 -2.928535e-003 -3.162617e-003 7.860799e-003
<VARIANCE> 25
 8.203320e+001 6.752020e+001 7.443958e+001 7.306703e+001 5.461860e+001 5.292064e+001 6.018239e+001 5.323716e+001 5.019049e+001 5.354900e+001 4.427788e+001 3.549213e+001 1.330382e+000 1.980937e+000 1.914791e+000 2.308251e+000 2.074144e+000 2.426660e+000 2.613941e+000 2.472110e+000 2.379558e+000 2.302791e+000 2.073370e+000 1.781728e+000 2.013584e+000
<GCONST> 1.041102e+002
<STATE> 3
<MEAN> 25
 8.851120e-003 3.523885e-001 4.649162e-001 2.897639e-002 -1.733985e-001 2.449237e-003 -1.587612e-001 -1.667883e-001 5.865195e-002 2.795006e-003 -1.075622e-001 -5.232901e-002 6.785026e-003 8.033949e-004 4.670969e-003 -8.071811e-004 3.638496e-004 -1.206084e-003 -4.604822e-003 -3.708754e-003 -7.887783e-004 -2.054901e-003 -2.338128e-003 -2.873527e-003 5.833623e-003
<VARIANCE> 25
 8.180328e+001 6.758881e+001 7.411299e+001 7.307952e+001 5.461921e+001 5.297776e+001 6.044950e+001 5.333499e+001 5.028728e+001 5.352994e+001 4.430641e+001 3.557030e+001 1.329326e+000 1.981113e+000 1.905519e+000 2.303348e+000 2.070482e+000 2.427448e+000 2.617249e+000 2.467368e+000 2.372753e+000 2.299564e+000 2.072531e+000 1.783393e+000 1.999076e+000
<GCONST> 1.040952e+002
<STATE> 4
<MEAN> 25
 1.957041e-001 3.686572e-001 5.202888e-001 6.087356e-003 -2.059697e-001 1.969651e-002 -2.352697e-001 -2.158749e-001 -1.882580e-002 -7.991791e-002 -9.405110e-002 -1.241413e-001 2.809271e-003 1.333188e-003 8.672873e-004 -4.397171e-004 -8.196014e-004 -3.745776e-004 -3.275281e-003 -3.992273e-003 3.265220e-004 -8.850985e-004 -9.510635e-004 -1.045847e-003 -2.357601e-007
<VARIANCE> 25
 9.249577e+001 7.267925e+001 7.658786e+001 8.052781e+001 5.521289e+001 5.219767e+001 6.151049e+001 5.406328e+001 5.167552e+001 5.267559e+001 4.646703e+001 3.607270e+001 1.281601e+000 1.988214e+000 1.822925e+000 2.252178e+000 1.965059e+000 2.329843e+000 2.530049e+000 2.394979e+000 2.331782e+000 2.231484e+000 2.054173e+000 1.738538e+000 1.933378e+000
<GCONST> 1.041483e+002
<TRANSP> 5
 0.000000e+000 1.000000e+000 0.000000e+000 0.000000e+000 0.000000e+000
 0.000000e+000 8.033288e-001 1.966712e-001 0.000000e+000 0.000000e+000
 0.000000e+000 0.000000e+000 8.033301e-001 1.966700e-001 0.000000e+000
 0.000000e+000 0.000000e+000 0.000000e+000 9.445639e-001 5.543608e-002
 0.000000e+000 0.000000e+000 0.000000e+000 0.000000e+000 0.000000e+000
<ENDHMM>
~h "y"
<BEGINHMM>
<NUMSTATES> 5
<STATE> 2
<MEAN> 25
 -3.489157e-001 2.197252e-001 6.188390e-001 -4.502617e-001 2.092043e-001 4.895324e-001 3.632305e-001 -5.636892e-001 1.549668e-001 3.983132e-001 4.753261e-001 8.840690e-001 -4.354135e-002 5.831739e-003 -4.469235e-003 1.576750e-002 8.222854e-003 2.704216e-002 2.852592e-002 2.334453e-002 1.122060e-002 2.715924e-002 2.203335e-002 8.777858e-003 -4.687062e-002
<VARIANCE> 25
 1.143955e+002 6.045421e+001 4.470923e+001 4.975426e+001 2.721705e+001 6.474020e+001 4.279778e+001 3.791928e+001 3.211951e+001 5.325414e+001 3.214369e+001 2.934640e+001 5.938956e-001 1.225528e+000 1.063494e+000 1.163047e+000 1.091637e+000 1.390173e+000 1.698328e+000 1.379545e+000 1.529392e+000 1.636990e+000 1.617768e+000 1.293965e+000 5.116476e-001
<GCONST> 9.380564e+001
<STATE> 3
<MEAN> 25
 -5.928265e-001 2.636835e-001 5.979674e-001 -3.607608e-001 2.547387e-001 6.392578e-001 5.183955e-001 -4.349104e-001 2.123102e-001 5.517897e-001 5.896060e-001 9.245506e-001 -4.335170e-002 7.927497e-003 -4.348390e-003 1.588230e-002 7.495510e-003 2.625322e-002 2.791594e-002 2.365870e-002 9.892125e-003 2.695437e-002 2.037263e-002 7.138774e-003 -4.773990e-002
<VARIANCE> 25
 1.130113e+002 5.912727e+001 4.368020e+001 4.814535e+001 2.654502e+001 6.396408e+001 4.144065e+001 3.783155e+001 3.163272e+001 5.259668e+001 3.146939e+001 2.892797e+001 5.879863e-001 1.196280e+000 1.036198e+000 1.134739e+000 1.069345e+000 1.363547e+000 1.648907e+000 1.366604e+000 1.506023e+000 1.608719e+000 1.583127e+000 1.273345e+000 5.040231e-001
<GCONST> 9.333099e+001
<STATE> 4
<MEAN> 25
 -1.183407e+000 4.488721e-001 4.590693e-001 -1.923665e-001 3.743063e-001 8.942175e-001 8.479410e-001 -1.732477e-001 7.899380e-002 7.312812e-001 8.146588e-001 1.053923e+000 -3.505793e-002 1.018451e-002 -2.360983e-003 1.390850e-002 6.883852e-003 1.890742e-002 2.042951e-002 2.039710e-002 6.920262e-003 2.315694e-002 1.324701e-002 1.706564e-003 -3.962318e-002
<VARIANCE> 25
 1.285937e+002 6.200312e+001 4.584798e+001 4.298621e+001 2.517178e+001 7.123029e+001 3.923507e+001 3.685886e+001 3.032409e+001 5.232114e+001 2.822834e+001 2.858297e+001 6.634060e-001 1.214151e+000 1.037905e+000 1.092661e+000 1.013962e+000 1.360707e+000 1.509060e+000 1.336061e+000 1.403060e+000 1.503883e+000 1.441911e+000 1.183680e+000 5.239244e-001
<GCONST> 9.291525e+001
<TRANSP> 5
 0.000000e+000 1.000000e+000 0.000000e+000 0.000000e+000 0.000000e+000
 0.000000e+000 8.172217e-001 1.827783e-001 0.000000e+000 0.000000e+000
 0.000000e+000 0.000000e+000 8.172215e-001 1.827786e-001 0.000000e+000
 0.000000e+000 0.000000e+000 0.000000e+000 9.549244e-001 4.507563e-002
 0.000000e+000 0.000000e+000 0.000000e+000 0.000000e+000 0.000000e+000
<ENDHMM>
~h "aa"
<BEGINHMM>
<NUMSTATES> 5
<STATE> 2
<MEAN> 25
 3.201904e-001 -6.403367e-001 -3.528445e-001 -2.194481e-001 3.043166e-001 -1.351250e-002 2.132928e-001 1.473335e-001 -5.762448e-002 -1.139899e-001 -2.612668e-002 -4.511811e-002 2.169754e-003 4.057829e-003 -1.764142e-005 1.917042e-003 -2.785068e-004 1.559214e-003 -3.816567e-004 -5.460611e-004 1.675069e-005 8.133856e-004 -4.458603e-004 -5.296656e-005 -8.983074e-003
<VARIANCE> 25
 8.772698e+001 7.623838e+001 6.366451e+001 7.111497e+001 4.833481e+001 5.427767e+001 5.745184e+001 5.043734e+001 4.862955e+001 5.435355e+001 4.289952e+001 3.428999e+001 1.276790e+000 2.024163e+000 1.714427e+000 2.134446e+000 1.949698e+000 2.183035e+000 2.452844e+000 2.306482e+000 2.205857e+000 2.200860e+000 2.014947e+000 1.699508e+000 1.940690e+000
<GCONST> 1.030924e+002
<STATE> 3
<MEAN> 25
 3.278230e-001 -6.176443e-001 -3.532043e-001 -2.095419e-001 3.019621e-001 -6.236559e-003 2.103219e-001 1.446281e-001 -5.649232e-002 -1.100235e-001 -2.848826e-002 -4.413386e-002 1.751343e-003 4.548783e-003 2.151786e-005 1.934830e-003 -6.046820e-004 1.474208e-003 -8.661543e-004 -5.212961e-004 8.663895e-005 8.453333e-004 -5.689603e-004 1.248604e-004 -9.640409e-003
<VARIANCE> 25
 8.760645e+001 7.613155e+001 6.366840e+001 7.120135e+001 4.838939e+001 5.427270e+001 5.743184e+001 5.041614e+001 4.862022e+001 5.434146e+001 4.289790e+001 3.427692e+001 1.273710e+000 2.022132e+000 1.712978e+000 2.135490e+000 1.949535e+000 2.182826e+000 2.452587e+000 2.306908e+000 2.205212e+000 2.200563e+000 2.013621e+000 1.699102e+000 1.932767e+000
<GCONST> 1.030811e+002
<STATE> 4
<MEAN> 25
 4.220432e-001 -5.679392e-001 -3.411623e-001 -2.568857e-001 2.787681e-001 7.521273e-003 1.332472e-001 1.454392e-001 -6.129764e-002 -5.297337e-002 -5.660144e-002 -7.907285e-002 -9.759773e-004 5.980880e-003 1.293565e-003 1.998384e-003 -1.507731e-003 1.383505e-003 -1.210888e-003 -7.665230e-004 4.392495e-004 9.815856e-004 -6.380260e-005 8.850778e-004 -1.039893e-002
<VARIANCE> 25
 1.008711e+002 8.334905e+001 6.584624e+001 7.867772e+001 4.693612e+001 5.470206e+001 5.779354e+001 5.030434e+001 4.870783e+001 5.368013e+001 4.325579e+001 3.522988e+001 1.230728e+000 2.011163e+000 1.641507e+000 2.111657e+000 1.838333e+000 2.082964e+000 2.343102e+000 2.235637e+000 2.155200e+000 2.128555e+000 1.967356e+000 1.649812e+000 1.851155e+000
<GCONST> 1.030246e+002
<TRANSP> 5
 0.000000e+000 1.000000e+000 0.000000e+000 0.000000e+000 0.000000e+000
 0.000000e+000 8.037242e-001 1.962758e-001 0.000000e+000 0.000000e+000
 0.000000e+000 0.000000e+000 8.037223e-001 1.962777e-001 0.000000e+000
 0.000000e+000 0.000000e+000 0.000000e+000 9.448329e-001 5.516711e-002
 0.000000e+000 0.000000e+000 0.000000e+000 0.000000e+000 0.000000e+000
<ENDHMM>
~h "eu"
<BEGINHMM>
<NUMSTATES> 5
<STATE> 2
<MEAN> 25
 -9.570779e-002 -5.767654e-001 3.570145e-001 -3.234632e-001 1.119592e-001 -2.242675e-001 -6.881815e-002 1.299632e-001 -7.904968e-002 -1.903302e-001 1.323128e-001 -5.517912e-002 3.764527e-004 -3.850373e-003 7.381083e-003 -3.362535e-003 4.406463e-003 -2.207034e-003 4.464951e-003 4.430200e-003 4.830190e-003 -4.422138e-003 -2.885463e-003 -9.323935e-004 9.537092e-003
<VARIANCE> 25
 9.181889e+001 7.420509e+001 7.446722e+001 7.960107e+001 5.276634e+001 5.687617e+001 6.664803e+001 5.454396e+001 5.357999e+001 5.926538e+001 4.542504e+001 3.536491e+001 1.643889e+000 2.204265e+000 1.953998e+000 2.372039e+000 2.136968e+000 2.398533e+000 2.755338e+000 2.571627e+000 2.478717e+000 2.445616e+000 2.154494e+000 1.786962e+000 1.996394e+000
<GCONST> 1.053660e+002
<STATE> 3
<MEAN> 25
 -9.106970e-002 -5.923327e-001 3.883182e-001 -3.401521e-001 1.293950e-001 -2.325134e-001 -4.920831e-002 1.485614e-001 -5.872379e-002 -2.088993e-001 1.219596e-001 -6.023998e-002 1.196420e-004 -2.837329e-003 6.385858e-003 -3.160773e-003 3.704097e-003 -1.922028e-003 4.355383e-003 3.950874e-003 4.576109e-003 -4.235075e-003 -2.447915e-003 -7.314458e-004 7.355015e-003
<VARIANCE> 25
 9.159789e+001 7.436309e+001 7.435609e+001 7.978401e+001 5.287899e+001 5.704875e+001 6.656364e+001 5.457170e+001 5.363702e+001 5.943221e+001 4.533377e+001 3.526882e+001 1.647763e+000 2.208369e+000 1.960875e+000 2.378747e+000 2.140686e+000 2.399814e+000 2.756062e+000 2.573833e+000 2.481522e+000 2.451315e+000 2.152351e+000 1.785639e+000 2.009824e+000
<GCONST> 1.053924e+002
<STATE> 4
<MEAN> 25
 7.261898e-002 -6.357338e-001 4.764850e-001 -3.845727e-001 1.333750e-001 -1.981862e-001 -1.259152e-001 1.868312e-001 -7.740146e-003 -1.126666e-001 1.025050e-001 -1.886692e-001 1.091060e-004 -1.308105e-003 1.532553e-003 -2.282142e-003 1.506915e-003 -1.697447e-004 2.538618e-003 2.035220e-003 2.467644e-003 -2.609252e-003 -9.656132e-004 -1.229287e-003 3.114633e-003
<VARIANCE> 25
 1.009926e+002 8.290599e+001 7.612755e+001 8.926469e+001 5.237233e+001 5.627467e+001 6.869129e+001 5.471307e+001 5.411796e+001 5.945337e+001 4.541286e+001 3.677657e+001 1.564906e+000 2.204496e+000 1.883786e+000 2.398264e+000 2.031199e+000 2.282622e+000 2.670954e+000 2.514860e+000 2.427094e+000 2.383193e+000 2.130653e+000 1.744464e+000 2.019988e+000
<GCONST> 1.054771e+002
<TRANSP> 5
 0.000000e+000 1.000000e+000 0.000000e+000 0.000000e+000 0.000000e+000
 0.000000e+000 7.984334e-001 2.015666e-001 0.000000e+000 0.000000e+000
 0.000000e+000 0.000000e+000 7.984358e-001 2.015642e-001 0.000000e+000
 0.000000e+000 0.000000e+000 0.000000e+000 9.400042e-001 5.999576e-002
 0.000000e+000 0.000000e+000 0.000000e+000 0.000000e+000 0.000000e+000
<ENDHMM>
~h "hh"
<BEGINHMM>
<NUMSTATES> 5
<STATE> 2
<MEAN> 25
 2.789780e-001 6.099843e-001 1.616007e-001 -2.249208e-001 -1.361271e-001 -2.578056e-002 -5.315384e-002 -2.305711e-001 9.966785e-002 1.632692e-001 -6.836002e-002 -7.840823e-002 2.445056e-005 3.217265e-003 -6.320715e-005 3.372662e-003 -1.537746e-003 3.663410e-003 2.921609e-003 4.215101e-003 -2.324400e-003 1.639031e-003 3.816925e-003 3.999670e-003 -1.331832e-002
<VARIANCE> 25
 8.357139e+001 6.596621e+001 6.765913e+001 7.517269e+001 5.411211e+001 5.377735e+001 6.338136e+001 5.541439e+001 5.119135e+001 5.349889e+001 4.702531e+001 3.528363e+001 1.326337e+000 1.981434e+000 1.839325e+000 2.269192e+000 2.096012e+000 2.404719e+000 2.639080e+000 2.426048e+000 2.353491e+000 2.225398e+000 2.116933e+000 1.792240e+000 1.784851e+000
<GCONST> 1.040031e+002
<STATE> 3
<MEAN> 25
 2.739077e-001 6.274439e-001 1.647021e-001 -2.087462e-001 -1.429629e-001 -9.844680e-003 -3.917170e-002 -2.074648e-001 8.765191e-002 1.713616e-001 -4.582614e-002 -5.783896e-002 -4.992794e-004 3.182072e-003 2.442797e-004 3.435623e-003 -1.869614e-003 3.663739e-003 2.330259e-003 4.533104e-003 -2.174991e-003 1.066480e-003 3.742973e-003 4.167132e-003 -1.546282e-002
<VARIANCE> 25
 8.337015e+001 6.590327e+001 6.776549e+001 7.519553e+001 5.396291e+001 5.366354e+001 6.320645e+001 5.514732e+001 5.113581e+001 5.348862e+001 4.692998e+001 3.523125e+001 1.328805e+000 1.976815e+000 1.832071e+000 2.259738e+000 2.086604e+000 2.385534e+000 2.627881e+000 2.417113e+000 2.348634e+000 2.220751e+000 2.112764e+000 1.788650e+000 1.776448e+000
<GCONST> 1.039425e+002
<STATE> 4
<MEAN> 25
 3.404417e-001 7.334813e-001 1.722795e-001 -2.178023e-001 -1.969702e-001 -6.075018e-002 -2.024213e-002 -2.382787e-001 7.114067e-003 6.755031e-002 1.428575e-003 -7.515829e-002 -3.379886e-003 3.277227e-003 2.029212e-003 3.969720e-003 -1.616463e-003 2.224955e-003 1.889387e-003 4.267162e-003 -1.352501e-003 9.513985e-004 3.587393e-003 3.187898e-003 -1.405209e-002
<VARIANCE> 25
 9.384254e+001 7.149580e+001 6.948130e+001 8.110320e+001 5.285870e+001 5.210770e+001 6.258956e+001 5.584190e+001 5.096174e+001 5.279930e+001 4.777884e+001 3.630211e+001 1.282170e+000 1.963880e+000 1.751321e+000 2.213426e+000 1.974410e+000 2.237502e+000 2.513291e+000 2.349832e+000 2.291203e+000 2.160195e+000 2.079882e+000 1.757796e+000 1.667197e+000
<GCONST> 1.037778e+002
<TRANSP> 5
 0.000000e+000 1.000000e+000 0.000000e+000 0.000000e+000 0.000000e+000
 0.000000e+000 8.006931e-001 1.993069e-001 0.000000e+000 0.000000e+000
 0.000000e+000 0.000000e+000 8.006950e-001 1.993050e-001 0.000000e+000
 0.000000e+000 0.000000e+000 0.000000e+000 9.418991e-001 5.810086e-002
 0.000000e+000 0.000000e+000 0.000000e+000 0.000000e+000 0.000000e+000
<ENDHMM>
~h "ih"
<BEGINHMM>
<NUMSTATES> 5
<STATE> 2
<MEAN> 25
 9.130827e-002 4.631708e-001 1.766474e+000 3.476137e-001 -2.745109e-001 -4.185972e-001 -7.372970e-001 -3.268528e-001 -2.475021e-001 -5.273727e-001 -1.539375e-001 -1.425664e-001 1.982456e-003 -4.409037e-003 -2.633318e-003 -1.413489e-003 -2.463420e-004 2.150842e-003 1.963926e-003 -6.857117e-004 4.649876e-004 1.139191e-003 7.014513e-004 -2.825688e-004 -2.839928e-003
<VARIANCE> 25
 7.250078e+001 7.367036e+001 9.869952e+001 7.815541e+001 5.725552e+001 5.389899e+001 6.704343e+001 5.341876e+001 5.231539e+001 5.619487e+001 4.735067e+001 3.620173e+001 1.270553e+000 2.033032e+000 2.103444e+000 2.454791e+000 2.104422e+000 2.371785e+000 2.678811e+000 2.438895e+000 2.341117e+000 2.301841e+000 2.133163e+000 1.794612e+000 2.010835e+000
<GCONST> 1.049323e+002
<STATE> 3
<MEAN> 25
 1.004017e-001 4.396161e-001 1.748639e+000 3.416308e-001 -2.761617e-001 -4.078647e-001 -7.252907e-001 -3.282906e-001 -2.445835e-001 -5.199720e-001 -1.499756e-001 -1.428081e-001 1.609620e-003 -4.540625e-003 -3.548850e-003 -1.111124e-003 -5.255849e-004 1.957587e-003 2.545442e-003 -2.189914e-004 4.275583e-004 1.554503e-003 8.032164e-004 4.044598e-005 -4.090455e-003
<VARIANCE> 25
 7.231306e+001 7.385720e+001 9.839060e+001 7.812711e+001 5.715727e+001 5.381538e+001 6.694704e+001 5.340020e+001 5.225495e+001 5.607660e+001 4.727822e+001 3.615916e+001 1.264515e+000 2.032479e+000 2.096690e+000 2.444897e+000 2.099324e+000 2.366763e+000 2.671097e+000 2.436401e+000 2.334278e+000 2.296278e+000 2.128850e+000 1.789971e+000 2.010889e+000
<GCONST> 1.048871e+002
<STATE> 4
<MEAN> 25
 2.152479e-001 3.096539e-001 1.755044e+000 3.049636e-001 -3.996477e-001 -3.464964e-001 -6.878136e-001 -2.793457e-001 -3.108879e-001 -5.514049e-001 -7.250170e-002 -2.130858e-001 8.993986e-004 -5.193966e-003 -7.189889e-003 -1.165255e-003 5.494696e-004 2.561673e-003 3.604996e-003 1.240007e-003 1.986472e-003 3.138839e-003 5.591772e-004 1.151616e-004 -4.198906e-003
<VARIANCE> 25
 8.162293e+001 7.800621e+001 1.060052e+002 8.416649e+001 5.889545e+001 5.211097e+001 6.705878e+001 5.403921e+001 5.264312e+001 5.476111e+001 4.837806e+001 3.645802e+001 1.209278e+000 1.993655e+000 2.041544e+000 2.369718e+000 1.996196e+000 2.257100e+000 2.542151e+000 2.385033e+000 2.289036e+000 2.219055e+000 2.086914e+000 1.732051e+000 1.969503e+000
<GCONST> 1.048203e+002
<TRANSP> 5
 0.000000e+000 1.000000e+000 0.000000e+000 0.000000e+000 0.000000e+000
 0.000000e+000 8.020640e-001 1.979360e-001 0.000000e+000 0.000000e+000
 0.000000e+000 0.000000e+000 8.020625e-001 1.979376e-001 0.000000e+000
 0.000000e+000 0.000000e+000 0.000000e+000 9.434812e-001 5.651877e-002
 0.000000e+000 0.000000e+000 0.000000e+000 0.000000e+000 0.000000e+000
<ENDHMM>
~h "jh"
<BEGINHMM>
<NUMSTATES> 5
<STATE> 2
<MEAN> 25
 -6.450510e-004 6.268447e-001 4.557321e-001 4.273122e-001 2.545367e-001 5.866054e-003 -3.137922e-001 -3.616347e-001 1.488993e-001 -6.472402e-005 -5.431342e-001 -2.198585e-001 4.038397e-003 -2.776248e-003 4.850932e-004 4.649671e-003 -1.616920e-003 9.217875e-004 2.906950e-003 1.698376e-003 9.990030e-004 2.750624e-003 3.605622e-003 -1.142840e-003 -9.523985e-003
<VARIANCE> 25
 8.871458e+001 6.146650e+001 6.278692e+001 5.792226e+001 4.422184e+001 5.731669e+001 5.767164e+001 5.196855e+001 4.836920e+001 5.169654e+001 4.468616e+001 3.299176e+001 1.551789e+000 2.040757e+000 1.777710e+000 2.056348e+000 2.084160e+000 2.448629e+000 2.461723e+000 2.290950e+000 2.243778e+000 2.158940e+000 1.975836e+000 1.689382e+000 1.644528e+000
<GCONST> 1.028024e+002
<STATE> 3
<MEAN> 25
 1.602976e-002 6.126836e-001 4.553021e-001 4.478070e-001 2.459029e-001 1.009642e-002 -2.966321e-001 -3.518007e-001 1.508147e-001 9.156469e-003 -5.204172e-001 -2.201414e-001 3.606450e-003 -3.152533e-003 -5.576516e-004 4.633488e-003 -1.688663e-003 1.602342e-003 2.832502e-003 2.795254e-003 4.041555e-004 2.110469e-003 5.273435e-003 -6.043244e-004 -8.903891e-003
<VARIANCE> 25
 8.835229e+001 6.135492e+001 6.280765e+001 5.781372e+001 4.446303e+001 5.743299e+001 5.769849e+001 5.202058e+001 4.825268e+001 5.168982e+001 4.445015e+001 3.287214e+001 1.554037e+000 2.037049e+000 1.775314e+000 2.062631e+000 2.092170e+000 2.442414e+000 2.469018e+000 2.289020e+000 2.237690e+000 2.157812e+000 1.978438e+000 1.689716e+000 1.627347e+000
<GCONST> 1.027849e+002
<STATE> 4
<MEAN> 25
 2.125682e-001 6.103186e-001 4.615026e-001 4.895918e-001 2.361943e-001 -2.749176e-002 -2.799708e-001 -3.878747e-001 1.550637e-001 -1.376908e-001 -4.254771e-001 -2.038428e-001 2.826448e-004 -3.046711e-003 -1.524022e-003 4.424620e-003 -1.707533e-003 2.173838e-003 4.404886e-003 3.910322e-003 2.165125e-004 9.627252e-004 6.219265e-003 2.349787e-003 -5.890256e-003
<VARIANCE> 25
 1.022136e+002 6.760813e+001 6.687770e+001 6.029931e+001 4.441739e+001 5.906517e+001 5.741942e+001 5.287961e+001 4.845876e+001 5.143636e+001 4.428598e+001 3.308305e+001 1.520333e+000 2.096672e+000 1.739310e+000 2.040301e+000 1.993710e+000 2.315152e+000 2.402012e+000 2.250720e+000 2.196647e+000 2.104450e+000 1.927938e+000 1.652664e+000 1.565899e+000
<GCONST> 1.028725e+002
<TRANSP> 5
 0.000000e+000 1.000000e+000 0.000000e+000 0.000000e+000 0.000000e+000
 0.000000e+000 8.060388e-001 1.939612e-001 0.000000e+000 0.000000e+000
 0.000000e+000 0.000000e+000 8.060382e-001 1.939619e-001 0.000000e+000
 0.000000e+000 0.000000e+000 0.000000e+000 9.466690e-001 5.333103e-002
 0.000000e+000 0.000000e+000 0.000000e+000 0.000000e+000 0.000000e+000
<ENDHMM>
~h "ng"
<BEGINHMM>
<NUMSTATES> 5
<STATE> 2
<MEAN> 25
 3.628407e-001 2.610543e-001 8.018810e-002 3.134064e-001 -3.318226e-002 1.768849e-001 -2.777835e-001 -1.276801e-001 -1.576597e-001 1.514405e-001 -1.470234e-001 -2.781060e-001 -8.732396e-003 -6.052859e-003 -1.480400e-003 2.127064e-003 1.627192e-003 5.749429e-003 3.741725e-003 4.714818e-003 4.188896e-003 5.393550e-003 -8.244829e-004 3.069655e-003 -1.602403e-002
<VARIANCE> 25
 8.909341e+001 7.068052e+001 6.618293e+001 6.877391e+001 4.971939e+001 5.249081e+001 6.219905e+001 5.483548e+001 5.297380e+001 5.507976e+001 4.382356e+001 3.626797e+001 1.186479e+000 1.869858e+000 1.818960e+000 2.120061e+000 2.071678e+000 2.230515e+000 2.625755e+000 2.481534e+000 2.369932e+000 2.291085e+000 2.065842e+000 1.725897e+000 1.703601e+000
<GCONST> 1.035167e+002
<STATE> 3
<MEAN> 25
 3.122863e-001 2.332047e-001 7.436737e-002 3.235856e-001 -2.587103e-002 2.055832e-001 -2.521975e-001 -1.024087e-001 -1.334729e-001 1.797691e-001 -1.508634e-001 -2.616518e-001 -9.344260e-003 -6.378600e-003 -1.523399e-003 1.687966e-003 1.472738e-003 5.051330e-003 4.708319e-003 4.067482e-003 4.973317e-003 5.598083e-003 -1.364136e-003 3.400970e-003 -1.474118e-002
<VARIANCE> 25
 8.898011e+001 7.037879e+001 6.600166e+001 6.848817e+001 4.950315e+001 5.238297e+001 6.190446e+001 5.455308e+001 5.276333e+001 5.484936e+001 4.368803e+001 3.606143e+001 1.187894e+000 1.868309e+000 1.811581e+000 2.106907e+000 2.063395e+000 2.224416e+000 2.623471e+000 2.470227e+000 2.362024e+000 2.281512e+000 2.056509e+000 1.715601e+000 1.683211e+000
<GCONST> 1.034188e+002
<STATE> 4
<MEAN> 25
 3.949637e-002 1.865621e-001 9.694253e-002 3.089179e-001 -1.047894e-002 2.784823e-001 -1.077056e-001 -7.076493e-002 -9.104797e-002 2.623746e-001 -1.503235e-001 -1.963939e-001 -1.053388e-002 -4.819336e-003 -9.030115e-004 5.743764e-004 8.519284e-004 2.565890e-003 5.871992e-003 4.081341e-003 5.650473e-003 4.490565e-003 -1.371656e-003 3.315142e-003 -1.039839e-002
<VARIANCE> 25
 1.033592e+002 7.490500e+001 6.776245e+001 7.457916e+001 4.850237e+001 5.119842e+001 6.069980e+001 5.388324e+001 5.232695e+001 5.352656e+001 4.389583e+001 3.671484e+001 1.152565e+000 1.868429e+000 1.718475e+000 2.057970e+000 1.933659e+000 2.107842e+000 2.486452e+000 2.373703e+000 2.289356e+000 2.188544e+000 1.999361e+000 1.650424e+000 1.622586e+000
<GCONST> 1.031620e+002
<TRANSP> 5
 0.000000e+000 1.000000e+000 0.000000e+000 0.000000e+000 0.000000e+000
 0.000000e+000 8.003138e-001 1.996861e-001 0.000000e+000 0.000000e+000
 0.000000e+000 0.000000e+000 8.003120e-001 1.996880e-001 0.000000e+000
 0.000000e+000 0.000000e+000 0.000000e+000 9.415705e-001 5.842948e-002
 0.000000e+000 0.000000e+000 0.000000e+000 0.000000e+000 0.000000e+000
<ENDHMM>
~h "ny"
<BEGINHMM>
<NUMSTATES> 5
<STATE> 2
<MEAN> 25
 4.864871e-001 -1.457071e-001 1.067959e+000 -4.654361e-001 -2.631343e-001 -2.929117e-001 -4.808796e-001 -1.970596e-001 -7.816044e-001 -4.639435e-001 1.098898e-001 -3.653980e-001 8.191370e-004 -9.482875e-003 8.526811e-003 -5.743925e-003 6.684289e-003 -3.664542e-003 1.855243e-003 -5.228553e-003 8.384162e-004 -3.674395e-003 -5.123039e-003 -3.367540e-004 2.247157e-002
<VARIANCE> 25
 7.160027e+001 7.350631e+001 8.364218e+001 8.064549e+001 5.399210e+001 5.574460e+001 6.607037e+001 5.413683e+001 5.768391e+001 5.480135e+001 5.472692e+001 3.779526e+001 1.281401e+000 2.096670e+000 2.135391e+000 2.486191e+000 2.103023e+000 2.393522e+000 2.721995e+000 2.359694e+000 2.345061e+000 2.243455e+000 2.224302e+000 1.818666e+000 1.842211e+000
<GCONST> 1.050197e+002
<STATE> 3
<MEAN> 25
 4.948306e-001 -1.883086e-001 1.102065e+000 -4.946474e-001 -2.325610e-001 -3.116772e-001 -4.748453e-001 -2.225567e-001 -7.833070e-001 -4.842782e-001 9.024308e-002 -3.667738e-001 5.871466e-004 -9.209118e-003 6.504302e-003 -4.997188e-003 6.891406e-003 -3.885527e-003 1.874769e-003 -5.169377e-003 1.402099e-004 -4.112251e-003 -4.311374e-003 3.092027e-004 2.251027e-002
<VARIANCE> 25
 7.108202e+001 7.382097e+001 8.325693e+001 8.064636e+001 5.387981e+001 5.593472e+001 6.607565e+001 5.393121e+001 5.755181e+001 5.480289e+001 5.512871e+001 3.777153e+001 1.272289e+000 2.103756e+000 2.142685e+000 2.485021e+000 2.101613e+000 2.405547e+000 2.719368e+000 2.357447e+000 2.335346e+000 2.243258e+000 2.231343e+000 1.826685e+000 1.836121e+000
<GCONST> 1.050157e+002
<STATE> 4
<MEAN> 25
 6.790930e-001 -2.923683e-001 1.150926e+000 -6.315569e-001 -3.363847e-001 -2.593270e-001 -4.504100e-001 -8.180604e-002 -9.985308e-001 -5.737554e-001 2.326901e-001 -3.638631e-001 2.129891e-003 -3.634129e-003 3.204066e-003 -3.356747e-003 2.543130e-003 -2.224365e-003 1.682098e-003 -4.416890e-003 -4.403630e-004 -3.562714e-003 -2.764977e-003 4.778864e-004 1.349559e-002
<VARIANCE> 25
 7.917311e+001 7.802386e+001 8.807383e+001 8.608860e+001 5.428036e+001 5.550741e+001 6.419719e+001 5.449143e+001 5.861420e+001 5.284520e+001 6.105782e+001 3.776173e+001 1.199397e+000 2.022862e+000 2.085074e+000 2.409784e+000 2.008177e+000 2.320104e+000 2.522079e+000 2.322592e+000 2.300851e+000 2.135077e+000 2.238206e+000 1.774726e+000 1.789450e+000
<GCONST> 1.049216e+002
<TRANSP> 5
 0.000000e+000 1.000000e+000 0.000000e+000 0.000000e+000 0.000000e+000
 0.000000e+000 8.022031e-001 1.977969e-001 0.000000e+000 0.000000e+000
 0.000000e+000 0.000000e+000 8.022018e-001 1.977982e-001 0.000000e+000
 0.000000e+000 0.000000e+000 0.000000e+000 9.440730e-001 5.592696e-002
 0.000000e+000 0.000000e+000 0.000000e+000 0.000000e+000 0.000000e+000
<ENDHMM>
~h "uw"
<BEGINHMM>
<NUMSTATES> 5
<STATE> 2
<MEAN> 25
 5.573303e-001 8.209548e-001 6.640927e-002 -3.521366e-001 -3.438091e-001 -1.448395e-001 -2.515243e-001 -4.365980e-001 -1.453606e-001 -6.720586e-002 -1.461461e-001 -1.177343e-001 5.069668e-003 2.295430e-003 7.480381e-004 4.559002e-003 -2.428145e-003 9.405315e-004 -2.701957e-003 5.633840e-004 -2.329236e-003 2.242668e-004 5.273100e-004 -1.784537e-003 -4.389583e-003
<VARIANCE> 25
 9.044160e+001 6.404178e+001 6.331560e+001 7.245352e+001 5.373227e+001 5.630534e+001 6.038675e+001 5.667124e+001 5.098455e+001 5.431512e+001 4.628908e+001 3.457324e+001 1.351213e+000 1.948552e+000 1.785533e+000 2.224687e+000 2.060973e+000 2.401552e+000 2.577128e+000 2.464952e+000 2.347994e+000 2.306139e+000 2.107540e+000 1.768133e+000 1.720348e+000
<GCONST> 1.038421e+002
<STATE> 3
<MEAN> 25
 5.780763e-001 8.292004e-001 6.806672e-002 -3.287995e-001 -3.527265e-001 -1.390346e-001 -2.629757e-001 -4.329662e-001 -1.552352e-001 -6.565432e-002 -1.421537e-001 -1.245825e-001 4.146795e-003 1.847469e-003 1.423194e-004 5.375185e-003 -2.177499e-003 1.789867e-003 -2.384094e-003 1.046345e-003 -1.913889e-003 6.139153e-004 1.031971e-003 -1.359376e-003 -6.668103e-003
<VARIANCE> 25
 9.044218e+001 6.404763e+001 6.335999e+001 7.238943e+001 5.369298e+001 5.637555e+001 6.053040e+001 5.673566e+001 5.102917e+001 5.434645e+001 4.627481e+001 3.461452e+001 1.343852e+000 1.946020e+000 1.781720e+000 2.220130e+000 2.058727e+000 2.397256e+000 2.576174e+000 2.462864e+000 2.347735e+000 2.300809e+000 2.106120e+000 1.768938e+000 1.725235e+000
<GCONST> 1.038335e+002
<STATE> 4
<MEAN> 25
 7.270963e-001 8.527504e-001 4.711298e-002 -2.585045e-001 -3.669851e-001 -9.742417e-002 -2.533639e-001 -5.156795e-001 -2.256611e-001 -1.694455e-001 -6.929602e-002 -1.055509e-001 -1.217394e-003 -9.985112e-004 -1.037309e-003 6.078445e-003 4.229849e-004 2.623677e-003 3.867042e-004 2.539182e-003 -2.496710e-004 1.948423e-003 1.850314e-003 3.762989e-004 -8.392962e-003
<VARIANCE> 25
 1.040810e+002 6.921336e+001 6.506664e+001 7.798560e+001 5.246226e+001 5.602888e+001 6.052092e+001 5.757757e+001 5.127262e+001 5.364782e+001 4.725464e+001 3.521250e+001 1.263514e+000 1.934079e+000 1.698761e+000 2.175175e+000 1.945437e+000 2.261321e+000 2.467087e+000 2.375773e+000 2.280548e+000 2.223763e+000 2.061581e+000 1.724984e+000 1.636213e+000
<GCONST> 1.036749e+002
<TRANSP> 5
 0.000000e+000 1.000000e+000 0.000000e+000 0.000000e+000 0.000000e+000
 0.000000e+000 8.029233e-001 1.970767e-001 0.000000e+000 0.000000e+000
 0.000000e+000 0.000000e+000 8.029233e-001 1.970767e-001 0.000000e+000
 0.000000e+000 0.000000e+000 0.000000e+000 9.441870e-001 5.581297e-002
 0.000000e+000 0.000000e+000 0.000000e+000 0.000000e+000 0.000000e+000
<ENDHMM>
~h "sil"
<BEGINHMM>
<NUMSTATES> 5
<STATE> 2
<MEAN> 25
 -9.000554e+000 1.978790e+000 -4.833842e+000 3.272088e+000 -5.983919e-001 2.991520e+000 2.784487e+000 2.548173e+000 3.176455e+000 4.136822e+000 1.785153e+000 2.673141e+000 9.147661e-002 6.216701e-003 9.812921e-003 4.519633e-004 -9.787100e-004 -3.696118e-003 -6.067390e-002 -5.070554e-002 -6.641106e-002 3.101388e-002 2.072193e-002 -7.224688e-002 5.679456e-002
<VARIANCE> 25
 6.731956e+001 1.259000e+001 2.519423e+001 2.080622e+001 2.827290e+001 2.630420e+001 2.011033e+001 1.672858e+001 2.230817e+001 1.691476e+001 1.816243e+001 2.092474e+001 3.486668e-001 3.412797e-001 4.758413e-001 5.434807e-001 7.877762e-001 8.562632e-001 9.847214e-001 1.079108e+000 1.136998e+000 1.118994e+000 9.782127e-001 1.040203e+000 1.053960e+000
<GCONST> 7.975122e+001
<STATE> 3
<MEAN> 25
 -8.573508e+000 1.911885e+000 -4.691624e+000 3.251495e+000 -6.162025e-001 2.952546e+000 2.633781e+000 2.458488e+000 3.051598e+000 4.019603e+000 1.668442e+000 2.660667e+000 8.288560e-002 -1.846277e-002 3.000317e-002 -4.537137e-003 -4.188289e-003 -6.922788e-003 -2.806293e-002 -1.794780e-002 -2.158763e-002 -3.275498e-002 -2.717258e-002 5.762866e-003 6.782067e-002
<VARIANCE> 25
 6.589578e+001 1.233149e+001 2.590400e+001 2.092625e+001 2.628968e+001 2.517395e+001 1.943671e+001 1.669835e+001 2.299082e+001 1.616992e+001 1.778706e+001 1.971419e+001 4.390908e-001 3.626686e-001 5.097385e-001 5.742647e-001 7.571335e-001 8.337474e-001 9.295633e-001 1.033476e+000 1.158601e+000 1.041258e+000 9.491179e-001 8.931509e-001 1.412982e+000
<GCONST> 7.980021e+001
<STATE> 4
<MEAN> 25
 -8.228539e+000 1.555665e+000 -3.791384e+000 3.106414e+000 1.570038e-001 2.040295e+000 2.822109e+000 2.169802e+000 2.886473e+000 3.148080e+000 1.046481e+000 2.794881e+000 8.239819e-002 -2.509602e-002 3.486972e-002 -2.307237e-002 8.330698e-003 -1.353927e-002 -1.667290e-002 -1.262942e-002 -1.526248e-002 -2.039770e-002 -1.243382e-002 -1.944581e-002 7.912778e-002
<VARIANCE> 25
 7.003168e+001 1.571207e+001 2.732420e+001 2.144784e+001 2.279723e+001 2.865599e+001 1.965363e+001 1.897058e+001 2.253547e+001 2.024562e+001 1.769648e+001 2.120412e+001 6.296656e-001 4.598641e-001 5.857468e-001 6.801793e-001 7.746449e-001 8.963377e-001 1.022822e+000 1.103641e+000 1.176402e+000 1.080023e+000 1.024616e+000 9.683781e-001 1.134515e+000
<GCONST> 8.173201e+001
<TRANSP> 5
 0.000000e+000 1.000000e+000 0.000000e+000 0.000000e+000 0.000000e+000
 0.000000e+000 8.027177e-001 1.972823e-001 0.000000e+000 0.000000e+000
 0.000000e+000 0.000000e+000 8.027171e-001 1.972828e-001 0.000000e+000
 0.000000e+000 0.000000e+000 0.000000e+000 9.437689e-001 5.623116e-002
 0.000000e+000 0.000000e+000 0.000000e+000 0.000000e+000 0.000000e+000
<ENDHMM>
