~o
<STREAMINFO> 1 25
<VECSIZE> 25<NULLD><MFCC_D_N_Z_0><DIAGC>
~h "b"
<BEGINHMM>
<NUMSTATES> 5
<STATE> 2
<MEAN> 25
 -3.650941e-001 -2.632512e-001 6.554365e-002 -1.934943e-001 1.104478e-001 -2.534255e-001 2.761755e-002 9.446996e-002 2.439847e-001 -3.904932e-002 -4.565177e-003 1.769189e-001 3.410760e-003 -3.399070e-004 7.462798e-003 2.291060e-003 3.181149e-003 -2.602286e-003 3.633137e-003 -2.692739e-003 -2.512963e-004 -1.286231e-003 -3.850318e-003 -1.966794e-003 9.735261e-003
<VARIANCE> 25
 9.833114e+001 7.418294e+001 6.826400e+001 7.123819e+001 4.957988e+001 5.638013e+001 6.127143e+001 4.979290e+001 4.691496e+001 5.575253e+001 4.420665e+001 3.475055e+001 1.520791e+000 2.114177e+000 1.819501e+000 2.232303e+000 1.967718e+000 2.337512e+000 2.646172e+000 2.389967e+000 2.319299e+000 2.290642e+000 2.072011e+000 1.782021e+000 1.644803e+000
<GCONST> 1.039103e+002
<STATE> 3
<MEAN> 25
 -3.366148e-001 -2.605868e-001 9.345977e-002 -1.861724e-001 1.226320e-001 -2.642827e-001 4.327334e-002 7.853521e-002 2.385702e-001 -4.596669e-002 -2.294343e-002 1.648101e-001 4.109299e-003 1.689110e-003 5.925450e-003 2.016266e-003 2.137359e-003 -1.921664e-003 3.743954e-003 -3.328200e-003 -1.210152e-003 -8.458361e-004 -3.126508e-003 -2.180912e-003 7.770230e-003
<VARIANCE> 25
 9.769547e+001 7.420499e+001 6.805527e+001 7.126561e+001 4.972178e+001 5.660340e+001 6.135947e+001 4.979298e+001 4.697307e+001 5.580856e+001 4.425389e+001 3.472110e+001 1.526540e+000 2.117840e+000 1.821757e+000 2.231974e+000 1.969252e+000 2.338982e+000 2.647069e+000 2.391253e+000 2.323124e+000 2.293720e+000 2.076057e+000 1.784855e+000 1.643382e+000
<GCONST> 1.039267e+002
<STATE> 4
<MEAN> 25
 -2.921819e-002 -2.230370e-001 1.443844e-001 -2.668729e-001 1.185950e-001 -3.404696e-001 -5.194392e-002 -6.686836e-002 1.820362e-001 -6.557029e-002 -7.157519e-002 3.378934e-002 6.050711e-003 2.622223e-003 1.106579e-003 1.986186e-004 2.547048e-004 -1.474188e-003 7.262006e-004 -3.227386e-003 -1.551654e-003 -1.613305e-003 -1.743928e-003 -1.509181e-003 4.919999e-003
<VARIANCE> 25
 1.059630e+002 8.187183e+001 6.938542e+001 7.897504e+001 4.822161e+001 5.720081e+001 6.197200e+001 4.907920e+001 4.716481e+001 5.710358e+001 4.454361e+001 3.691127e+001 1.421804e+000 2.099692e+000 1.738436e+000 2.152079e+000 1.849495e+000 2.184950e+000 2.503107e+000 2.288190e+000 2.261404e+000 2.222314e+000 2.040444e+000 1.739399e+000 1.601945e+000
<GCONST> 1.037774e+002
<TRANSP> 5
 0.000000e+000 1.000000e+000 0.000000e+000 0.000000e+000 0.000000e+000
 0.000000e+000 7.955179e-001 2.044821e-001 0.000000e+000 0.000000e+000
 0.000000e+000 0.000000e+000 7.955167e-001 2.044833e-001 0.000000e+000
 0.000000e+000 0.000000e+000 0.000000e+000 9.371317e-001 6.286827e-002
 0.000000e+000 0.000000e+000 0.000000e+000 0.000000e+000 0.000000e+000
<ENDHMM>
~h "d"
<BEGINHMM>
<NUMSTATES> 5
<STATE> 2
<MEAN> 25
 6.486992e-001 -3.132710e-001 -4.933732e-002 -1.966170e-001 9.170168e-004 -2.910275e-001 -1.947479e-001 -9.060258e-002 -2.808225e-001 -2.380334e-001 -1.464624e-001 -5.505965e-002 8.822990e-003 -2.779781e-003 2.910462e-003 -1.801742e-003 3.794551e-003 -1.754369e-003 1.322514e-003 3.285416e-003 1.938891e-003 -4.515482e-003 -4.893479e-003 -1.631165e-003 1.272928e-002
<VARIANCE> 25
 8.577042e+001 7.653255e+001 6.252630e+001 6.817884e+001 5.231828e+001 5.186861e+001 6.547851e+001 5.533729e+001 4.933642e+001 5.257439e+001 4.717998e+001 3.605676e+001 1.383557e+000 2.271349e+000 1.773114e+000 2.326092e+000 2.171873e+000 2.416602e+000 2.855634e+000 2.451657e+000 2.343329e+000 2.346667e+000 2.206609e+000 1.815833e+000 2.260198e+000
<GCONST> 1.045692e+002
<STATE> 3
<MEAN> 25
 6.891629e-001 -3.286939e-001 -3.862096e-002 -2.080970e-001 2.068465e-002 -2.956023e-001 -1.890392e-001 -7.434211e-002 -2.693268e-001 -2.568614e-001 -1.703086e-001 -6.334419e-002 8.676788e-003 -3.756120e-003 1.722488e-003 -2.783917e-003 3.907526e-003 -1.335924e-003 1.594553e-003 3.913549e-003 2.741809e-003 -4.815544e-003 -5.228785e-003 -1.230069e-003 1.233463e-002
<VARIANCE> 25
 8.560994e+001 7.683183e+001 6.254025e+001 6.821396e+001 5.239396e+001 5.198188e+001 6.538528e+001 5.547397e+001 4.939064e+001 5.279895e+001 4.725964e+001 3.602625e+001 1.383247e+000 2.283474e+000 1.771119e+000 2.319372e+000 2.175663e+000 2.423413e+000 2.857456e+000 2.460247e+000 2.348380e+000 2.350677e+000 2.211991e+000 1.816373e+000 2.275156e+000
<GCONST> 1.046058e+002
<STATE> 4
<MEAN> 25
 8.205401e-001 -4.252935e-001 -8.316322e-002 -3.030347e-001 6.436916e-002 -2.914224e-001 -2.954749e-001 -1.529526e-002 -7.215068e-002 -2.429727e-001 -2.663696e-001 -1.433792e-001 4.525436e-003 -2.701149e-003 -1.026794e-003 -2.141996e-003 3.833983e-003 9.244138e-004 1.447025e-003 3.610180e-003 3.113148e-003 -2.811713e-003 -3.957302e-003 -2.347221e-004 4.767214e-003
<VARIANCE> 25
 9.608530e+001 8.442776e+001 6.419324e+001 7.494458e+001 4.903882e+001 5.103219e+001 6.641114e+001 5.675756e+001 5.099604e+001 5.284200e+001 4.883231e+001 3.726470e+001 1.255488e+000 2.263179e+000 1.686893e+000 2.250399e+000 2.011060e+000 2.257034e+000 2.713356e+000 2.394716e+000 2.287529e+000 2.267242e+000 2.171356e+000 1.755957e+000 2.164577e+000
<GCONST> 1.044110e+002
<TRANSP> 5
 0.000000e+000 1.000000e+000 0.000000e+000 0.000000e+000 0.000000e+000
 0.000000e+000 7.972963e-001 2.027036e-001 0.000000e+000 0.000000e+000
 0.000000e+000 0.000000e+000 7.972961e-001 2.027039e-001 0.000000e+000
 0.000000e+000 0.000000e+000 0.000000e+000 9.389402e-001 6.105980e-002
 0.000000e+000 0.000000e+000 0.000000e+000 0.000000e+000 0.000000e+000
<ENDHMM>
~h "g"
<BEGINHMM>
<NUMSTATES> 5
<STATE> 2
<MEAN> 25
 -3.750851e-001 8.358956e-001 1.408228e+000 3.100659e-001 -1.725479e-001 -2.062252e-001 -4.930205e-001 -4.021765e-001 -9.460977e-002 -4.678481e-001 -2.731039e-001 4.299742e-002 2.788251e-003 3.131953e-003 1.272492e-002 3.889179e-003 2.045514e-003 -7.355011e-004 -1.471963e-003 -3.834693e-003 -2.073637e-004 -1.290476e-003 -1.651719e-003 -1.378346e-003 6.827423e-003
<VARIANCE> 25
 7.730771e+001 7.439092e+001 9.761686e+001 6.945480e+001 5.528138e+001 5.063060e+001 6.154005e+001 5.015689e+001 4.564682e+001 5.184919e+001 4.440855e+001 3.242966e+001 1.548508e+000 2.162457e+000 1.993851e+000 2.540510e+000 2.296254e+000 2.366771e+000 2.717939e+000 2.334000e+000 2.344575e+000 2.352731e+000 2.108607e+000 1.776334e+000 1.883292e+000
<GCONST> 1.044719e+002
<STATE> 3
<MEAN> 25
 -3.585578e-001 8.455320e-001 1.453704e+000 3.241207e-001 -1.639266e-001 -2.080631e-001 -5.003664e-001 -4.208741e-001 -1.009622e-001 -4.699929e-001 -2.777914e-001 3.349033e-002 2.398032e-003 2.494719e-003 9.718668e-003 3.037071e-003 1.513222e-003 -1.828904e-004 -1.487440e-003 -4.002405e-003 -1.064186e-003 -1.823996e-004 -7.887991e-004 -1.970460e-003 8.039378e-003
<VARIANCE> 25
 7.665331e+001 7.470832e+001 9.725846e+001 6.940431e+001 5.516397e+001 5.056990e+001 6.147116e+001 5.014264e+001 4.562222e+001 5.189499e+001 4.450431e+001 3.240666e+001 1.559939e+000 2.161543e+000 2.000236e+000 2.551301e+000 2.303597e+000 2.370560e+000 2.717707e+000 2.334452e+000 2.344659e+000 2.361512e+000 2.115697e+000 1.781452e+000 1.879878e+000
<GCONST> 1.044878e+002
<STATE> 4
<MEAN> 25
 -1.820636e-001 8.254179e-001 1.595619e+000 3.725768e-001 -2.804311e-001 -3.058593e-001 -4.486812e-001 -4.854709e-001 -1.985145e-001 -5.826349e-001 -2.120166e-001 -5.938525e-002 4.356767e-003 2.058159e-003 2.993929e-003 7.667107e-004 -9.737131e-004 -2.344314e-004 -2.295165e-003 -3.905697e-003 -2.355124e-003 -1.119313e-004 -3.191513e-004 -1.279096e-003 7.637799e-003
<VARIANCE> 25
 8.379276e+001 7.661623e+001 1.089111e+002 7.156738e+001 5.624121e+001 5.122777e+001 5.993148e+001 5.144616e+001 4.609075e+001 5.183403e+001 4.467028e+001 3.280101e+001 1.458659e+000 2.121963e+000 1.973984e+000 2.440425e+000 2.149629e+000 2.277024e+000 2.549639e+000 2.284964e+000 2.301457e+000 2.296910e+000 2.069899e+000 1.725577e+000 1.850501e+000
<GCONST> 1.043495e+002
<TRANSP> 5
 0.000000e+000 1.000000e+000 0.000000e+000 0.000000e+000 0.000000e+000
 0.000000e+000 7.979607e-001 2.020393e-001 0.000000e+000 0.000000e+000
 0.000000e+000 0.000000e+000 7.979611e-001 2.020390e-001 0.000000e+000
 0.000000e+000 0.000000e+000 0.000000e+000 9.391657e-001 6.083429e-002
 0.000000e+000 0.000000e+000 0.000000e+000 0.000000e+000 0.000000e+000
<ENDHMM>
~h "k"
<BEGINHMM>
<NUMSTATES> 5
<STATE> 2
<MEAN> 25
 8.370035e-001 -3.376040e-001 -6.850318e-002 -2.966362e-001 3.609238e-002 -1.370006e-001 -1.110798e-001 -1.451181e-001 -3.238550e-001 -2.802059e-001 -2.590548e-001 -3.114424e-001 3.648230e-003 9.691503e-003 5.939784e-003 -2.902594e-003 -3.799733e-003 1.863423e-003 -9.617303e-004 -3.858150e-003 1.001556e-003 1.784989e-003 -2.585659e-004 -3.542018e-003 -3.291204e-003
<VARIANCE> 25
 8.394881e+001 7.505152e+001 6.414482e+001 7.922461e+001 5.545669e+001 5.308786e+001 5.999082e+001 5.438229e+001 4.955058e+001 5.389762e+001 4.218962e+001 3.254615e+001 1.449219e+000 2.069380e+000 1.901076e+000 2.518919e+000 2.323878e+000 2.390956e+000 2.730356e+000 2.660183e+000 2.433516e+000 2.394700e+000 2.174153e+000 1.853331e+000 1.836699e+000
<GCONST> 1.045479e+002
<STATE> 3
<MEAN> 25
 8.579885e-001 -2.921930e-001 -4.516970e-002 -3.086823e-001 1.735852e-002 -1.299985e-001 -1.186121e-001 -1.622188e-001 -3.206907e-001 -2.740239e-001 -2.622778e-001 -3.297513e-001 3.218144e-003 1.045703e-002 5.162861e-003 -2.198784e-003 -3.953830e-003 1.627677e-003 -1.756855e-003 -3.626578e-003 4.803235e-004 1.889102e-003 1.058540e-004 -3.693671e-003 -4.707983e-003
<VARIANCE> 25
 8.376849e+001 7.493617e+001 6.411787e+001 7.925377e+001 5.542696e+001 5.305861e+001 6.008742e+001 5.449692e+001 4.965869e+001 5.390924e+001 4.219949e+001 3.254753e+001 1.454297e+000 2.066636e+000 1.905107e+000 2.522872e+000 2.323720e+000 2.390875e+000 2.736157e+000 2.662379e+000 2.438775e+000 2.403926e+000 2.170899e+000 1.856384e+000 1.837795e+000
<GCONST> 1.045649e+002
<STATE> 4
<MEAN> 25
 1.053655e+000 -2.235253e-001 1.438824e-002 -2.847691e-001 8.221697e-003 -6.356278e-002 -2.253934e-001 -2.141058e-001 -3.775346e-001 -2.444351e-001 -2.602748e-001 -3.764312e-001 2.851550e-003 8.493667e-003 1.769823e-003 4.815868e-005 -2.578359e-003 7.157182e-005 -2.434273e-003 -2.085372e-003 2.052413e-004 1.158539e-003 8.485323e-005 -3.011759e-003 -3.924227e-003
<VARIANCE> 25
 9.514874e+001 8.039363e+001 6.510045e+001 8.615357e+001 5.414754e+001 5.388721e+001 5.988589e+001 5.514978e+001 4.998016e+001 5.378202e+001 4.327533e+001 3.240040e+001 1.374258e+000 2.011516e+000 1.802535e+000 2.449036e+000 2.172037e+000 2.265143e+000 2.597997e+000 2.563840e+000 2.359666e+000 2.322848e+000 2.100302e+000 1.777439e+000 1.805341e+000
<GCONST> 1.043453e+002
<TRANSP> 5
 0.000000e+000 1.000000e+000 0.000000e+000 0.000000e+000 0.000000e+000
 0.000000e+000 7.957056e-001 2.042944e-001 0.000000e+000 0.000000e+000
 0.000000e+000 0.000000e+000 7.957056e-001 2.042945e-001 0.000000e+000
 0.000000e+000 0.000000e+000 0.000000e+000 9.375176e-001 6.248244e-002
 0.000000e+000 0.000000e+000 0.000000e+000 0.000000e+000 0.000000e+000
<ENDHMM>
~h "l"
<BEGINHMM>
<NUMSTATES> 5
<STATE> 2
<MEAN> 25
 3.861826e-001 -1.727836e-001 7.125290e-002 -5.980535e-001 3.108469e-002 -4.386353e-001 -6.734610e-002 -9.647270e-002 4.468317e-002 -3.681197e-001 -4.245909e-002 -1.005746e-001 -1.923839e-003 2.440389e-003 -5.214091e-003 7.056913e-003 3.120744e-003 5.944666e-003 3.469439e-003 4.328483e-003 2.449168e-003 2.437595e-003 -3.007369e-004 2.316031e-003 -1.920122e-002
<VARIANCE> 25
 9.718159e+001 7.416323e+001 6.919279e+001 7.709289e+001 5.434565e+001 5.875402e+001 6.617369e+001 5.416220e+001 5.288317e+001 5.687918e+001 4.606818e+001 3.501486e+001 1.709499e+000 2.243281e+000 1.970632e+000 2.449779e+000 2.219557e+000 2.591181e+000 2.928352e+000 2.593154e+000 2.527858e+000 2.420837e+000 2.203490e+000 1.869778e+000 1.820425e+000
<GCONST> 1.055812e+002
<STATE> 3
<MEAN> 25
 3.744780e-001 -1.594117e-001 4.864435e-002 -5.626067e-001 4.469761e-002 -4.083823e-001 -4.958233e-002 -7.539316e-002 5.604041e-002 -3.547039e-001 -4.390798e-002 -8.863186e-002 -1.835385e-003 2.602631e-003 -5.340562e-003 8.191304e-003 2.623188e-003 7.354205e-003 3.156671e-003 4.893008e-003 1.982847e-003 3.114906e-003 9.918605e-005 2.324411e-003 -2.233836e-002
<VARIANCE> 25
 9.707205e+001 7.400555e+001 6.897601e+001 7.697613e+001 5.428215e+001 5.849078e+001 6.586213e+001 5.396962e+001 5.265497e+001 5.678388e+001 4.594474e+001 3.487509e+001 1.699624e+000 2.233902e+000 1.958946e+000 2.439828e+000 2.212007e+000 2.580727e+000 2.915622e+000 2.579267e+000 2.515590e+000 2.413213e+000 2.195166e+000 1.863254e+000 1.834613e+000
<GCONST> 1.055020e+002
<STATE> 4
<MEAN> 25
 4.360641e-001 -2.074835e-001 4.427695e-002 -5.480452e-001 4.656519e-002 -2.468887e-001 -8.197945e-002 -6.990901e-002 8.447288e-003 -2.558908e-001 -3.477478e-002 -1.781479e-001 -4.385366e-003 3.768856e-003 -3.356417e-003 8.292694e-003 1.870542e-003 7.612206e-003 3.355821e-003 4.305275e-003 1.561850e-003 3.969009e-003 3.663325e-004 2.629684e-003 -2.358954e-002
<VARIANCE> 25
 1.063197e+002 7.998572e+001 7.040605e+001 8.395557e+001 5.260478e+001 5.802597e+001 6.582645e+001 5.385226e+001 5.177405e+001 5.651508e+001 4.614633e+001 3.589067e+001 1.540190e+000 2.148989e+000 1.844115e+000 2.359859e+000 2.063195e+000 2.386870e+000 2.726605e+000 2.469185e+000 2.403994e+000 2.319003e+000 2.131027e+000 1.789198e+000 1.778546e+000
<GCONST> 1.050716e+002
<TRANSP> 5
 0.000000e+000 1.000000e+000 0.000000e+000 0.000000e+000 0.000000e+000
 0.000000e+000 7.926381e-001 2.073619e-001 0.000000e+000 0.000000e+000
 0.000000e+000 0.000000e+000 7.926386e-001 2.073614e-001 0.000000e+000
 0.000000e+000 0.000000e+000 0.000000e+000 9.341758e-001 6.582414e-002
 0.000000e+000 0.000000e+000 0.000000e+000 0.000000e+000 0.000000e+000
<ENDHMM>
~h "m"
<BEGINHMM>
<NUMSTATES> 5
<STATE> 2
<MEAN> 25
 8.699448e-001 -6.496633e-001 -2.244485e-001 1.136600e-001 5.675890e-001 -1.657599e-001 1.854362e-002 8.335958e-002 -2.767711e-001 -5.371656e-001 -3.984907e-001 -3.401333e-001 -3.914800e-003 -1.667201e-003 9.673234e-005 6.874031e-004 3.125289e-003 -1.275033e-003 4.581476e-005 1.607977e-003 3.091873e-003 -5.854866e-004 -3.247468e-004 7.840340e-004 -5.358377e-003
<VARIANCE> 25
 8.634895e+001 7.591287e+001 6.627270e+001 7.148676e+001 5.280655e+001 5.212186e+001 6.219971e+001 5.393805e+001 5.148009e+001 5.625239e+001 4.329655e+001 3.580668e+001 1.602271e+000 2.223780e+000 1.962081e+000 2.539603e+000 2.318430e+000 2.443089e+000 2.764252e+000 2.583707e+000 2.440777e+000 2.414286e+000 2.149056e+000 1.833924e+000 2.211861e+000
<GCONST> 1.050697e+002
<STATE> 3
<MEAN> 25
 8.517028e-001 -6.560722e-001 -2.244659e-001 1.155375e-001 5.792950e-001 -1.716170e-001 1.775443e-002 8.767701e-002 -2.627904e-001 -5.381922e-001 -3.997136e-001 -3.358410e-001 -4.007655e-003 -4.098167e-004 5.342856e-004 4.037218e-004 1.800708e-003 -1.310897e-003 -1.535149e-004 7.646636e-004 2.679626e-003 2.447000e-004 4.045180e-004 9.354199e-004 -6.193478e-003
<VARIANCE> 25
 8.638099e+001 7.584339e+001 6.627903e+001 7.161234e+001 5.275669e+001 5.214866e+001 6.225713e+001 5.382366e+001 5.149532e+001 5.631545e+001 4.316742e+001 3.581366e+001 1.606416e+000 2.224663e+000 1.966863e+000 2.540874e+000 2.319083e+000 2.443363e+000 2.766870e+000 2.587485e+000 2.443648e+000 2.415306e+000 2.147580e+000 1.832630e+000 2.221107e+000
<GCONST> 1.050811e+002
<STATE> 4
<MEAN> 25
 8.117445e-001 -7.679719e-001 -2.233390e-001 6.993830e-002 5.733441e-001 -6.118352e-002 -3.376141e-002 7.733659e-002 -2.724801e-001 -3.294325e-001 -3.594683e-001 -3.280479e-001 -2.897427e-003 3.983761e-004 1.210183e-003 -5.530235e-004 1.250742e-004 1.099547e-004 -5.437733e-004 -5.518243e-004 2.306727e-003 1.266283e-003 9.438710e-004 9.295236e-004 -5.167947e-003
<VARIANCE> 25
 9.646374e+001 8.388921e+001 6.876415e+001 8.081817e+001 5.012654e+001 5.172114e+001 6.291289e+001 5.401214e+001 5.267731e+001 5.574984e+001 4.384004e+001 3.654927e+001 1.491298e+000 2.166400e+000 1.850533e+000 2.483808e+000 2.137942e+000 2.290324e+000 2.613465e+000 2.512107e+000 2.400653e+000 2.311522e+000 2.101450e+000 1.754011e+000 2.158175e+000
<GCONST> 1.048799e+002
<TRANSP> 5
 0.000000e+000 1.000000e+000 0.000000e+000 0.000000e+000 0.000000e+000
 0.000000e+000 7.955994e-001 2.044006e-001 0.000000e+000 0.000000e+000
 0.000000e+000 0.000000e+000 7.956011e-001 2.043989e-001 0.000000e+000
 0.000000e+000 0.000000e+000 0.000000e+000 9.374372e-001 6.256282e-002
 0.000000e+000 0.000000e+000 0.000000e+000 0.000000e+000 0.000000e+000
<ENDHMM>
~h "n"
<BEGINHMM>
<NUMSTATES> 5
<STATE> 2
<MEAN> 25
 5.881255e-001 1.888437e-001 3.576621e-001 3.388118e-001 -6.766482e-002 -1.708833e-001 -3.235458e-001 -1.845532e-001 -3.463435e-001 -2.470415e-001 -1.328743e-001 -1.673691e-001 5.302186e-003 5.351455e-003 5.933856e-003 2.017032e-003 -2.685157e-003 7.325548e-004 -4.645454e-003 -1.209476e-004 -1.821360e-003 -1.628853e-003 -1.237087e-003 -1.710692e-003 -3.951239e-003
<VARIANCE> 25
 8.283943e+001 7.124480e+001 6.910433e+001 7.431791e+001 5.404026e+001 5.329908e+001 6.456321e+001 5.642376e+001 5.003015e+001 5.477056e+001 4.360281e+001 3.395006e+001 1.513907e+000 2.115066e+000 1.946327e+000 2.563544e+000 2.321161e+000 2.484271e+000 2.893842e+000 2.621598e+000 2.472111e+000 2.439876e+000 2.157104e+000 1.860640e+000 2.130559e+000
<GCONST> 1.050485e+002
<STATE> 3
<MEAN> 25
 6.094172e-001 2.101804e-001 3.836892e-001 3.483807e-001 -7.937606e-002 -1.679750e-001 -3.428978e-001 -1.833997e-001 -3.528199e-001 -2.552719e-001 -1.391283e-001 -1.767168e-001 5.006650e-003 4.678225e-003 5.614899e-003 1.686703e-003 -2.537802e-003 3.096357e-004 -3.964550e-003 1.400175e-004 -1.334959e-003 -2.184396e-003 -1.699916e-003 -1.833797e-003 -2.943896e-003
<VARIANCE> 25
 8.268296e+001 7.136658e+001 6.935086e+001 7.448882e+001 5.419058e+001 5.338301e+001 6.470765e+001 5.654714e+001 5.007018e+001 5.471215e+001 4.362767e+001 3.401978e+001 1.498292e+000 2.112266e+000 1.946282e+000 2.563779e+000 2.322106e+000 2.483866e+000 2.890505e+000 2.621079e+000 2.468894e+000 2.436743e+000 2.156825e+000 1.859178e+000 2.121220e+000
<GCONST> 1.050447e+002
<STATE> 4
<MEAN> 25
 6.538849e-001 1.947546e-001 5.188935e-001 3.915852e-001 -1.155886e-001 -1.278452e-001 -3.682634e-001 -1.818548e-001 -3.906696e-001 -2.865239e-001 -1.607439e-001 -1.907004e-001 1.409674e-003 1.176562e-003 3.241575e-003 3.703901e-004 -1.336257e-003 -8.229463e-005 -1.803402e-003 1.264006e-003 7.652709e-004 -1.275365e-003 -1.596529e-003 -1.406649e-003 -2.482089e-003
<VARIANCE> 25
 9.219234e+001 7.740513e+001 7.361224e+001 8.167739e+001 5.448068e+001 5.221124e+001 6.538454e+001 5.739177e+001 5.136243e+001 5.425903e+001 4.485635e+001 3.508427e+001 1.366491e+000 2.050672e+000 1.864137e+000 2.471721e+000 2.173331e+000 2.337227e+000 2.726367e+000 2.545601e+000 2.390743e+000 2.343492e+000 2.109470e+000 1.790170e+000 2.024575e+000
<GCONST> 1.048767e+002
<TRANSP> 5
 0.000000e+000 1.000000e+000 0.000000e+000 0.000000e+000 0.000000e+000
 0.000000e+000 7.953780e-001 2.046219e-001 0.000000e+000 0.000000e+000
 0.000000e+000 0.000000e+000 7.953786e-001 2.046214e-001 0.000000e+000
 0.000000e+000 0.000000e+000 0.000000e+000 9.370391e-001 6.296091e-002
 0.000000e+000 0.000000e+000 0.000000e+000 0.000000e+000 0.000000e+000
<ENDHMM>
~h "p"
<BEGINHMM>
<NUMSTATES> 5
<STATE> 2
<MEAN> 25
 7.246223e-002 -4.174493e-001 -3.672837e-001 -2.393179e-001 1.694240e-001 1.476365e-001 6.596275e-002 4.718873e-002 1.478730e-001 2.319090e-002 9.123904e-002 6.218951e-002 1.328406e-003 9.159498e-004 7.651868e-003 5.991848e-005 8.120612e-004 -7.504525e-004 3.517330e-004 -3.344036e-003 3.431547e-003 5.255317e-003 6.962969e-004 -3.532815e-003 -2.202934e-003
<VARIANCE> 25
 8.525370e+001 7.163852e+001 6.673638e+001 7.776321e+001 5.552213e+001 5.021626e+001 6.265553e+001 5.289983e+001 4.679030e+001 5.213453e+001 4.233791e+001 3.368570e+001 1.566350e+000 2.151087e+000 1.932227e+000 2.634543e+000 2.248660e+000 2.536127e+000 2.875925e+000 2.482412e+000 2.364411e+000 2.399301e+000 2.141921e+000 1.823260e+000 2.257481e+000
<GCONST> 1.047810e+002
<STATE> 3
<MEAN> 25
 8.584191e-002 -4.133392e-001 -3.385470e-001 -2.392102e-001 1.695831e-001 1.407548e-001 6.694592e-002 3.290990e-002 1.566891e-001 4.504403e-002 9.371766e-002 4.442406e-002 1.572184e-003 1.035410e-003 5.750580e-003 2.035496e-004 6.832874e-004 -1.036393e-003 3.725007e-004 -3.278214e-003 2.150999e-003 5.276728e-003 5.445526e-004 -3.336582e-003 -2.566549e-003
<VARIANCE> 25
 8.458800e+001 7.148765e+001 6.683954e+001 7.785097e+001 5.550262e+001 5.024128e+001 6.269850e+001 5.287079e+001 4.667251e+001 5.215133e+001 4.221827e+001 3.350371e+001 1.566534e+000 2.144507e+000 1.929587e+000 2.638813e+000 2.249494e+000 2.534246e+000 2.876190e+000 2.482154e+000 2.360089e+000 2.395765e+000 2.143962e+000 1.823932e+000 2.254717e+000
<GCONST> 1.047573e+002
<STATE> 4
<MEAN> 25
 2.232977e-001 -5.084180e-001 -3.147191e-001 -2.842477e-001 1.180466e-001 1.362109e-001 4.759656e-002 9.184413e-002 1.219969e-001 7.017776e-002 5.103520e-002 -1.974807e-002 2.990488e-003 2.345852e-003 4.235472e-003 8.526393e-004 -2.528069e-003 -1.023476e-003 -2.033042e-006 -1.302327e-003 3.912108e-004 2.213497e-003 7.206423e-004 -1.801176e-003 -2.273728e-003
<VARIANCE> 25
 9.194593e+001 7.818287e+001 7.076395e+001 8.687483e+001 5.509748e+001 4.920924e+001 6.353989e+001 5.395917e+001 4.815840e+001 5.192317e+001 4.314462e+001 3.471642e+001 1.441177e+000 2.114340e+000 1.865947e+000 2.635478e+000 2.129985e+000 2.405022e+000 2.743125e+000 2.441562e+000 2.307682e+000 2.349430e+000 2.109978e+000 1.785482e+000 2.266401e+000
<GCONST> 1.048095e+002
<TRANSP> 5
 0.000000e+000 1.000000e+000 0.000000e+000 0.000000e+000 0.000000e+000
 0.000000e+000 7.942874e-001 2.057126e-001 0.000000e+000 0.000000e+000
 0.000000e+000 0.000000e+000 7.942904e-001 2.057097e-001 0.000000e+000
 0.000000e+000 0.000000e+000 0.000000e+000 9.360622e-001 6.393778e-002
 0.000000e+000 0.000000e+000 0.000000e+000 0.000000e+000 0.000000e+000
<ENDHMM>
~h "r"
<BEGINHMM>
<NUMSTATES> 5
<STATE> 2
<MEAN> 25
 1.017570e+000 -6.849427e-001 -9.654289e-001 -5.223628e-001 4.169383e-002 5.268021e-003 -7.215151e-003 6.106047e-002 -1.302775e-001 -2.959911e-001 -3.330559e-002 -1.212390e-001 8.400714e-003 -1.621020e-003 -4.474022e-003 5.806214e-003 8.153612e-004 4.298266e-003 -4.881441e-003 -1.496207e-003 -4.923725e-003 -1.348244e-003 -3.041974e-004 -1.979034e-003 -7.539293e-003
<VARIANCE> 25
 9.616462e+001 7.495661e+001 5.428217e+001 6.805345e+001 4.861445e+001 5.657080e+001 5.712354e+001 5.153963e+001 4.448032e+001 5.318395e+001 4.181725e+001 3.398236e+001 1.387646e+000 2.033688e+000 1.723053e+000 2.215927e+000 2.104623e+000 2.358047e+000 2.578835e+000 2.407422e+000 2.286732e+000 2.318375e+000 2.040398e+000 1.776810e+000 1.680632e+000
<GCONST> 1.032595e+002
<STATE> 3
<MEAN> 25
 1.048508e+000 -6.915755e-001 -9.855353e-001 -4.924644e-001 4.831258e-002 2.591174e-002 -3.015948e-002 5.350038e-002 -1.522279e-001 -2.988303e-001 -3.399334e-002 -1.265302e-001 6.831466e-003 -1.006786e-003 -4.093227e-003 6.541398e-003 7.328269e-004 4.450743e-003 -5.144242e-003 -1.465934e-003 -5.088320e-003 -7.777420e-004 -5.905797e-005 -1.226950e-003 -9.284342e-003
<VARIANCE> 25
 9.590257e+001 7.474235e+001 5.400228e+001 6.796583e+001 4.844612e+001 5.650518e+001 5.728139e+001 5.141306e+001 4.449009e+001 5.308908e+001 4.176987e+001 3.405715e+001 1.383129e+000 2.028748e+000 1.723115e+000 2.212116e+000 2.100208e+000 2.356345e+000 2.579937e+000 2.404680e+000 2.286308e+000 2.315781e+000 2.037959e+000 1.779233e+000 1.687733e+000
<GCONST> 1.032348e+002
<STATE> 4
<MEAN> 25
 1.172459e+000 -6.049398e-001 -9.909944e-001 -4.520952e-001 6.447449e-002 4.042437e-002 -3.052963e-002 -1.295994e-002 -2.284757e-001 -2.261449e-001 1.275572e-002 -1.059665e-001 -2.059591e-003 1.405966e-003 -1.159480e-003 7.637770e-003 1.717156e-003 5.448267e-003 -2.772418e-003 -3.712019e-004 -2.428757e-003 1.649006e-003 5.526159e-004 9.509212e-004 -1.385037e-002
<VARIANCE> 25
 1.089716e+002 8.017600e+001 5.469292e+001 7.317794e+001 4.593699e+001 5.763425e+001 5.683171e+001 5.114437e+001 4.524186e+001 5.255334e+001 4.138266e+001 3.482951e+001 1.280789e+000 1.980710e+000 1.612107e+000 2.124934e+000 1.937363e+000 2.193079e+000 2.421800e+000 2.281780e+000 2.191513e+000 2.200408e+000 1.946426e+000 1.712025e+000 1.629086e+000
<GCONST> 1.028034e+002
<TRANSP> 5
 0.000000e+000 1.000000e+000 0.000000e+000 0.000000e+000 0.000000e+000
 0.000000e+000 7.984964e-001 2.015036e-001 0.000000e+000 0.000000e+000
 0.000000e+000 0.000000e+000 7.984971e-001 2.015030e-001 0.000000e+000
 0.000000e+000 0.000000e+000 0.000000e+000 9.398774e-001 6.012256e-002
 0.000000e+000 0.000000e+000 0.000000e+000 0.000000e+000 0.000000e+000
<ENDHMM>
~h "s"
<BEGINHMM>
<NUMSTATES> 5
<STATE> 2
<MEAN> 25
 -8.765025e-001 -3.543963e-001 -1.643406e-001 -3.447263e-001 -1.034517e-001 -1.460740e-001 2.196033e-001 3.196860e-001 1.606934e-001 1.972252e-001 3.335973e-001 1.515483e-001 7.014592e-003 -4.137621e-003 9.010842e-003 -2.210969e-003 3.695743e-003 -1.498788e-005 2.844339e-003 -6.869068e-004 1.390137e-003 -1.162990e-003 1.676719e-003 2.588459e-004 8.885081e-003
<VARIANCE> 25
 1.060399e+002 7.078587e+001 6.894655e+001 7.324760e+001 5.251908e+001 5.650456e+001 6.482951e+001 5.043255e+001 4.747264e+001 5.324541e+001 4.456189e+001 3.349389e+001 1.951538e+000 2.169380e+000 1.879124e+000 2.277360e+000 2.094202e+000 2.496387e+000 2.826983e+000 2.458987e+000 2.377570e+000 2.376636e+000 2.080464e+000 1.780351e+000 1.787832e+000
<GCONST> 1.047408e+002
<STATE> 3
<MEAN> 25
 -8.365634e-001 -3.710606e-001 -1.214757e-001 -3.532650e-001 -8.988060e-002 -1.469478e-001 2.289529e-001 3.166960e-001 1.660370e-001 1.878320e-001 3.398560e-001 1.494358e-001 7.166915e-003 -3.399269e-003 8.836964e-003 -1.358676e-003 3.974544e-003 -3.527215e-004 1.693497e-003 -8.483903e-004 1.213704e-003 -1.971027e-003 1.520514e-003 -4.324536e-004 7.883068e-003
<VARIANCE> 25
 1.051291e+002 7.073399e+001 6.914558e+001 7.329957e+001 5.266020e+001 5.668718e+001 6.475171e+001 5.039471e+001 4.756544e+001 5.336592e+001 4.449102e+001 3.347099e+001 1.964032e+000 2.177505e+000 1.887330e+000 2.284956e+000 2.094541e+000 2.500736e+000 2.832209e+000 2.461654e+000 2.380700e+000 2.382841e+000 2.082442e+000 1.783127e+000 1.779446e+000
<GCONST> 1.047653e+002
<STATE> 4
<MEAN> 25
 -5.147538e-001 -4.594758e-001 5.153097e-003 -4.787180e-001 -1.511764e-001 -1.823837e-001 1.204348e-001 2.729343e-001 1.872206e-001 1.295186e-001 3.329991e-001 6.154762e-002 9.094551e-003 -1.649404e-004 5.996415e-003 -2.229537e-003 1.542292e-004 -2.401778e-003 -1.395380e-003 -7.488382e-005 4.029388e-004 -3.980102e-003 1.016179e-003 -1.219412e-003 6.757670e-003
<VARIANCE> 25
 1.121630e+002 7.723591e+001 7.192585e+001 7.922661e+001 5.242310e+001 5.791620e+001 6.456144e+001 5.046084e+001 4.840085e+001 5.337955e+001 4.472342e+001 3.463553e+001 1.855274e+000 2.141798e+000 1.846252e+000 2.238472e+000 1.984325e+000 2.393716e+000 2.699874e+000 2.391722e+000 2.317956e+000 2.306704e+000 2.058762e+000 1.734021e+000 1.731686e+000
<GCONST> 1.046913e+002
<TRANSP> 5
 0.000000e+000 1.000000e+000 0.000000e+000 0.000000e+000 0.000000e+000
 0.000000e+000 7.938208e-001 2.061792e-001 0.000000e+000 0.000000e+000
 0.000000e+000 0.000000e+000 7.938184e-001 2.061817e-001 0.000000e+000
 0.000000e+000 0.000000e+000 0.000000e+000 9.355286e-001 6.447138e-002
 0.000000e+000 0.000000e+000 0.000000e+000 0.000000e+000 0.000000e+000
<ENDHMM>
~h "t"
<BEGINHMM>
<NUMSTATES> 5
<STATE> 2
<MEAN> 25
 -6.192788e-002 3.602907e-001 4.642522e-001 4.984443e-002 -1.044110e-001 1.762570e-003 -1.047751e-001 -2.359054e-001 4.152736e-002 2.633623e-002 -4.417297e-002 -3.382630e-002 7.615616e-003 1.543608e-004 2.531703e-003 -1.293560e-003 8.058354e-004 -2.655124e-003 -3.292619e-003 -3.616697e-003 -2.341983e-004 -1.153989e-003 -9.627769e-004 -2.781157e-003 8.300276e-003
<VARIANCE> 25
 8.344503e+001 6.841112e+001 7.208177e+001 7.297316e+001 5.562502e+001 5.091426e+001 6.126713e+001 5.161669e+001 4.774738e+001 5.209891e+001 4.364929e+001 3.436002e+001 1.540404e+000 2.098401e+000 1.956716e+000 2.521168e+000 2.271750e+000 2.516418e+000 2.833930e+000 2.540291e+000 2.445343e+000 2.373918e+000 2.136779e+000 1.827995e+000 2.054574e+000
<GCONST> 1.046324e+002
<STATE> 3
<MEAN> 25
 -2.368286e-002 3.629428e-001 4.758214e-001 4.256920e-002 -1.041346e-001 -1.128604e-002 -1.245988e-001 -2.551796e-001 4.046287e-002 2.012094e-002 -4.836918e-002 -4.662937e-002 6.975811e-003 4.858458e-004 2.153851e-003 -9.334981e-004 2.258891e-004 -2.379995e-003 -3.566302e-003 -3.286323e-003 -1.007322e-005 -1.197629e-003 -5.253803e-004 -2.358796e-003 6.820111e-003
<VARIANCE> 25
 8.334783e+001 6.846288e+001 7.180987e+001 7.294861e+001 5.557642e+001 5.103710e+001 6.151050e+001 5.177658e+001 4.788091e+001 5.215653e+001 4.375800e+001 3.445058e+001 1.541814e+000 2.100819e+000 1.948403e+000 2.516237e+000 2.267426e+000 2.521576e+000 2.836320e+000 2.539817e+000 2.442973e+000 2.372439e+000 2.138625e+000 1.829842e+000 2.042884e+000
<GCONST> 1.046367e+002
<STATE> 4
<MEAN> 25
 1.644659e-001 3.790783e-001 5.182049e-001 1.181511e-002 -1.599606e-001 -3.075493e-003 -2.094841e-001 -2.777439e-001 -1.839530e-002 -6.060105e-002 -4.741681e-002 -1.138920e-001 3.623417e-003 1.011956e-003 -8.895695e-005 -5.350112e-004 -1.009905e-003 -7.030222e-004 -3.001418e-003 -3.605372e-003 6.928578e-004 -5.040835e-004 1.449381e-004 -8.383235e-004 1.428299e-003
<VARIANCE> 25
 9.230875e+001 7.266528e+001 7.472241e+001 7.955579e+001 5.574610e+001 5.105463e+001 6.217488e+001 5.304851e+001 4.993438e+001 5.193324e+001 4.595292e+001 3.530227e+001 1.435404e+000 2.073168e+000 1.861835e+000 2.404651e+000 2.110960e+000 2.409002e+000 2.693085e+000 2.457623e+000 2.390245e+000 2.291779e+000 2.104037e+000 1.777762e+000 1.973855e+000
<GCONST> 1.045609e+002
<TRANSP> 5
 0.000000e+000 1.000000e+000 0.000000e+000 0.000000e+000 0.000000e+000
 0.000000e+000 7.973455e-001 2.026545e-001 0.000000e+000 0.000000e+000
 0.000000e+000 0.000000e+000 7.973461e-001 2.026539e-001 0.000000e+000
 0.000000e+000 0.000000e+000 0.000000e+000 9.389403e-001 6.105969e-002
 0.000000e+000 0.000000e+000 0.000000e+000 0.000000e+000 0.000000e+000
<ENDHMM>
~h "y"
<BEGINHMM>
<NUMSTATES> 5
<STATE> 2
<MEAN> 25
 -3.623333e-001 2.808942e-001 6.835589e-001 -5.116193e-001 -3.568850e-001 8.100138e-001 6.025326e-001 -4.678276e-001 -9.755082e-002 6.409557e-001 2.481152e-001 6.589879e-001 -3.778266e-002 -6.278487e-003 -1.397241e-003 1.662290e-002 -4.341878e-003 2.783293e-002 2.192884e-002 2.197051e-002 8.899800e-003 2.853879e-002 1.571232e-002 1.081573e-002 -3.864572e-002
<VARIANCE> 25
 1.145209e+002 6.026808e+001 4.853989e+001 5.793660e+001 4.859780e+001 6.037502e+001 4.568996e+001 3.665336e+001 3.231323e+001 4.976973e+001 3.543182e+001 2.780893e+001 7.597823e-001 1.555555e+000 1.267971e+000 1.589331e+000 1.435437e+000 1.661033e+000 1.971489e+000 1.547186e+000 1.777477e+000 1.782914e+000 1.891875e+000 1.394144e+000 5.894302e-001
<GCONST> 9.685828e+001
<STATE> 3
<MEAN> 25
 -5.801245e-001 2.651662e-001 6.794761e-001 -4.154724e-001 -3.620799e-001 9.505015e-001 7.293648e-001 -3.517812e-001 -5.217770e-002 7.914264e-001 3.329143e-001 7.107775e-001 -3.921472e-002 -5.278162e-003 -8.019175e-004 1.787645e-002 -4.239455e-003 2.619657e-002 2.390063e-002 2.196923e-002 6.523034e-003 2.716417e-002 1.418296e-002 9.717390e-003 -4.084064e-002
<VARIANCE> 25
 1.131276e+002 5.926387e+001 4.792670e+001 5.647189e+001 4.919952e+001 5.944131e+001 4.412333e+001 3.643468e+001 3.185811e+001 4.934513e+001 3.485059e+001 2.733549e+001 7.413856e-001 1.533504e+000 1.249205e+000 1.555546e+000 1.418456e+000 1.626713e+000 1.928410e+000 1.541575e+000 1.755347e+000 1.766822e+000 1.854317e+000 1.368812e+000 5.783094e-001
<GCONST> 9.647758e+001
<STATE> 4
<MEAN> 25
 -1.127627e+000 3.537182e-001 5.391646e-001 -2.221836e-001 -6.114752e-002 1.067738e+000 9.627242e-001 -1.417491e-001 -7.657593e-002 8.707567e-001 6.158852e-001 9.252134e-001 -3.565421e-002 2.734638e-003 -9.363765e-004 1.672014e-002 3.757708e-003 1.825385e-002 2.035375e-002 1.906283e-002 4.456745e-003 2.148098e-002 1.116892e-002 3.512118e-003 -3.916579e-002
<VARIANCE> 25
 1.261603e+002 6.185819e+001 4.849536e+001 4.861712e+001 4.104519e+001 6.700568e+001 4.081133e+001 3.606232e+001 3.057399e+001 5.048079e+001 3.081718e+001 2.749436e+001 7.447243e-001 1.431374e+000 1.175965e+000 1.349685e+000 1.249624e+000 1.514203e+000 1.704688e+000 1.461984e+000 1.576231e+000 1.632000e+000 1.620248e+000 1.249841e+000 5.710146e-001
<GCONST> 9.513908e+001
<TRANSP> 5
 0.000000e+000 1.000000e+000 0.000000e+000 0.000000e+000 0.000000e+000
 0.000000e+000 8.082825e-001 1.917175e-001 0.000000e+000 0.000000e+000
 0.000000e+000 0.000000e+000 8.082824e-001 1.917176e-001 0.000000e+000
 0.000000e+000 0.000000e+000 0.000000e+000 9.480162e-001 5.198384e-002
 0.000000e+000 0.000000e+000 0.000000e+000 0.000000e+000 0.000000e+000
<ENDHMM>
~h "aa"
<BEGINHMM>
<NUMSTATES> 5
<STATE> 2
<MEAN> 25
 3.721908e-001 -6.743707e-001 -4.008384e-001 -1.979264e-001 2.974758e-001 2.398863e-002 1.800123e-001 1.803692e-001 -3.630560e-002 -1.647646e-001 -1.352010e-001 -5.740865e-002 1.471859e-003 3.255897e-003 6.705410e-004 1.913344e-003 -1.669947e-004 2.045568e-003 3.501810e-004 3.459924e-004 -5.269085e-004 6.447902e-004 -2.694464e-005 -1.139703e-004 -8.617870e-003
<VARIANCE> 25
 8.966910e+001 7.574824e+001 6.268177e+001 7.012638e+001 5.017880e+001 5.351634e+001 5.848887e+001 4.991582e+001 4.652755e+001 5.312114e+001 4.316327e+001 3.367912e+001 1.483145e+000 2.153995e+000 1.792696e+000 2.282717e+000 2.118963e+000 2.356505e+000 2.647155e+000 2.387197e+000 2.296401e+000 2.297469e+000 2.092313e+000 1.776038e+000 1.949143e+000
<GCONST> 1.037936e+002
<STATE> 3
<MEAN> 25
 3.771616e-001 -6.562198e-001 -3.981984e-001 -1.883816e-001 2.954772e-001 3.328075e-002 1.803655e-001 1.816153e-001 -3.764784e-002 -1.617862e-001 -1.356342e-001 -5.666246e-002 1.077065e-003 3.628119e-003 6.322923e-004 1.919948e-003 -6.025321e-004 2.002743e-003 2.150653e-005 4.087400e-004 -4.367933e-004 6.697911e-004 -6.407130e-005 2.030428e-004 -9.146995e-003
<VARIANCE> 25
 8.951665e+001 7.567334e+001 6.264386e+001 7.022455e+001 5.021166e+001 5.346239e+001 5.841013e+001 4.986913e+001 4.649006e+001 5.312803e+001 4.313819e+001 3.365595e+001 1.480339e+000 2.152225e+000 1.791465e+000 2.284425e+000 2.118804e+000 2.354284e+000 2.646686e+000 2.387811e+000 2.295099e+000 2.297303e+000 2.090961e+000 1.774912e+000 1.943285e+000
<GCONST> 1.037786e+002
<STATE> 4
<MEAN> 25
 4.490138e-001 -6.049657e-001 -3.742769e-001 -2.396890e-001 2.756710e-001 3.635347e-002 1.252002e-001 1.746453e-001 -4.922083e-002 -9.926201e-002 -1.273986e-001 -8.219796e-002 -1.082706e-003 5.305704e-003 1.624216e-003 2.015987e-003 -1.494582e-003 1.769809e-003 -6.255329e-004 -1.927830e-004 1.150625e-004 8.566002e-004 2.634404e-004 1.010225e-003 -9.957579e-003
<VARIANCE> 25
 1.004374e+002 8.221500e+001 6.486183e+001 7.712949e+001 4.835241e+001 5.404294e+001 5.833969e+001 4.991919e+001 4.721456e+001 5.296363e+001 4.338049e+001 3.467356e+001 1.375222e+000 2.101130e+000 1.703590e+000 2.217646e+000 1.966733e+000 2.209317e+000 2.487770e+000 2.300294e+000 2.221167e+000 2.203397e+000 2.025413e+000 1.706309e+000 1.870540e+000
<GCONST> 1.035269e+002
<TRANSP> 5
 0.000000e+000 1.000000e+000 0.000000e+000 0.000000e+000 0.000000e+000
 0.000000e+000 7.973888e-001 2.026112e-001 0.000000e+000 0.000000e+000
 0.000000e+000 0.000000e+000 7.973861e-001 2.026139e-001 0.000000e+000
 0.000000e+000 0.000000e+000 0.000000e+000 9.389551e-001 6.104498e-002
 0.000000e+000 0.000000e+000 0.000000e+000 0.000000e+000 0.000000e+000
<ENDHMM>
~h "eu"
<BEGINHMM>
<NUMSTATES> 5
<STATE> 2
<MEAN> 25
 -2.851604e-002 -4.128613e-001 2.789375e-001 -3.931802e-001 8.857567e-002 -4.196101e-001 -1.008111e-001 1.381669e-001 1.769924e-002 -2.820325e-001 5.872813e-002 -2.158229e-002 -1.293670e-003 -3.126386e-003 4.798120e-003 -1.205923e-003 5.841480e-003 -2.609336e-003 4.799946e-003 4.671086e-003 6.483687e-003 -4.493550e-003 -3.521631e-003 -2.599338e-004 9.227430e-003
<VARIANCE> 25
 9.489619e+001 7.347360e+001 7.227563e+001 7.775759e+001 5.324512e+001 5.717460e+001 6.908349e+001 5.449947e+001 5.185919e+001 5.718765e+001 4.479238e+001 3.486782e+001 1.858666e+000 2.300486e+000 1.991524e+000 2.525847e+000 2.256019e+000 2.578016e+000 3.005114e+000 2.632525e+000 2.557104e+000 2.499418e+000 2.197409e+000 1.854371e+000 2.005748e+000
<GCONST> 1.058868e+002
<STATE> 3
<MEAN> 25
 -3.129417e-002 -4.250571e-001 2.980545e-001 -4.001955e-001 1.128890e-001 -4.285549e-001 -7.996612e-002 1.580839e-001 4.506372e-002 -2.995301e-001 4.583959e-002 -2.419337e-002 -1.547160e-003 -2.296208e-003 3.822560e-003 -8.440757e-004 5.486538e-003 -1.989006e-003 4.630616e-003 4.304122e-003 6.221982e-003 -3.848343e-003 -2.991742e-003 -2.641990e-004 6.817755e-003
<VARIANCE> 25
 9.494336e+001 7.358671e+001 7.220474e+001 7.786230e+001 5.334702e+001 5.740648e+001 6.915757e+001 5.448895e+001 5.191504e+001 5.731643e+001 4.472484e+001 3.479137e+001 1.867068e+000 2.304003e+000 1.997556e+000 2.531242e+000 2.258215e+000 2.583389e+000 3.009761e+000 2.635876e+000 2.560802e+000 2.504672e+000 2.197210e+000 1.854485e+000 2.016015e+000
<GCONST> 1.059214e+002
<STATE> 4
<MEAN> 25
 9.159801e-002 -5.164773e-001 3.915304e-001 -4.181225e-001 1.375218e-001 -3.426453e-001 -1.373139e-001 1.972439e-001 7.101075e-002 -1.892997e-001 4.802773e-002 -1.479363e-001 -9.646351e-004 -1.210076e-003 1.969197e-004 -7.253326e-004 3.052586e-003 -4.073302e-004 2.942548e-003 2.685504e-003 3.706676e-003 -2.240273e-003 -1.249192e-003 -9.761033e-004 2.940302e-003
<VARIANCE> 25
 1.024576e+002 8.131659e+001 7.443090e+001 8.670216e+001 5.273075e+001 5.674860e+001 7.035881e+001 5.458205e+001 5.286065e+001 5.800060e+001 4.500592e+001 3.629733e+001 1.732090e+000 2.269938e+000 1.918751e+000 2.501613e+000 2.123736e+000 2.425807e+000 2.860073e+000 2.565378e+000 2.488740e+000 2.427860e+000 2.165149e+000 1.798511e+000 2.023241e+000
<GCONST> 1.058638e+002
<TRANSP> 5
 0.000000e+000 1.000000e+000 0.000000e+000 0.000000e+000 0.000000e+000
 0.000000e+000 7.922346e-001 2.077654e-001 0.000000e+000 0.000000e+000
 0.000000e+000 0.000000e+000 7.922378e-001 2.077622e-001 0.000000e+000
 0.000000e+000 0.000000e+000 0.000000e+000 9.340285e-001 6.597150e-002
 0.000000e+000 0.000000e+000 0.000000e+000 0.000000e+000 0.000000e+000
<ENDHMM>
~h "hh"
<BEGINHMM>
<NUMSTATES> 5
<STATE> 2
<MEAN> 25
 2.407838e-001 5.178185e-001 9.435453e-002 -2.233522e-001 -1.500484e-001 2.511935e-002 -6.235196e-002 -2.916330e-001 4.575045e-002 2.282523e-001 1.198839e-001 -5.358538e-002 -2.162289e-004 1.140315e-003 -3.495718e-005 3.975553e-003 -1.793487e-003 4.801436e-003 4.654456e-003 7.483750e-003 -1.923328e-003 4.488635e-004 2.517657e-004 3.889360e-003 -9.756999e-003
<VARIANCE> 25
 8.438302e+001 6.587505e+001 6.546844e+001 7.331139e+001 5.413253e+001 5.197270e+001 6.474171e+001 5.502179e+001 4.847421e+001 5.270942e+001 4.544160e+001 3.349144e+001 1.500668e+000 2.087226e+000 1.899391e+000 2.387282e+000 2.194850e+000 2.476869e+000 2.848220e+000 2.485778e+000 2.410204e+000 2.296246e+000 2.157356e+000 1.816799e+000 1.794959e+000
<GCONST> 1.043059e+002
<STATE> 3
<MEAN> 25
 2.360362e-001 5.254052e-001 9.554990e-002 -2.067574e-001 -1.586072e-001 4.673783e-002 -4.087237e-002 -2.551367e-001 3.532433e-002 2.308198e-001 1.255476e-001 -3.392393e-002 -4.817251e-004 8.829806e-004 -2.793272e-004 3.777959e-003 -2.059139e-003 5.011576e-003 4.740746e-003 8.172600e-003 -1.709152e-003 -7.395223e-005 9.696525e-005 4.199385e-003 -1.118609e-002
<VARIANCE> 25
 8.422084e+001 6.587943e+001 6.553935e+001 7.341788e+001 5.399941e+001 5.199603e+001 6.459622e+001 5.483612e+001 4.844070e+001 5.270082e+001 4.537826e+001 3.347902e+001 1.503310e+000 2.086666e+000 1.895826e+000 2.382369e+000 2.189107e+000 2.463060e+000 2.838624e+000 2.479060e+000 2.406462e+000 2.293101e+000 2.155954e+000 1.816152e+000 1.785867e+000
<GCONST> 1.042706e+002
<STATE> 4
<MEAN> 25
 3.144526e-001 6.416013e-001 1.142772e-001 -2.183648e-001 -2.105616e-001 -8.275090e-003 -1.388113e-002 -2.483139e-001 -2.128206e-002 1.141826e-001 9.866638e-002 -5.383272e-002 -2.915765e-003 1.559621e-003 1.127176e-003 3.919760e-003 -1.662981e-003 3.369061e-003 4.031830e-003 7.108057e-003 -1.014100e-003 1.649157e-004 1.224963e-003 3.668019e-003 -1.100148e-002
<VARIANCE> 25
 9.313409e+001 7.091571e+001 6.779019e+001 7.922448e+001 5.300779e+001 5.134729e+001 6.358258e+001 5.550592e+001 4.907808e+001 5.233035e+001 4.664228e+001 3.498803e+001 1.409527e+000 2.047404e+000 1.808267e+000 2.307864e+000 2.062900e+000 2.314098e+000 2.670787e+000 2.400733e+000 2.339339e+000 2.220455e+000 2.116740e+000 1.782963e+000 1.687150e+000
<GCONST> 1.040661e+002
<TRANSP> 5
 0.000000e+000 1.000000e+000 0.000000e+000 0.000000e+000 0.000000e+000
 0.000000e+000 7.946120e-001 2.053881e-001 0.000000e+000 0.000000e+000
 0.000000e+000 0.000000e+000 7.946129e-001 2.053871e-001 0.000000e+000
 0.000000e+000 0.000000e+000 0.000000e+000 9.360957e-001 6.390432e-002
 0.000000e+000 0.000000e+000 0.000000e+000 0.000000e+000 0.000000e+000
<ENDHMM>
~h "ih"
<BEGINHMM>
<NUMSTATES> 5
<STATE> 2
<MEAN> 25
 5.675813e-002 6.381481e-001 1.820743e+000 1.527245e-001 -4.111876e-001 -4.296321e-001 -6.998734e-001 -3.827061e-001 -2.180754e-001 -5.106429e-001 -1.357648e-001 -9.654800e-002 2.278482e-003 -3.973609e-003 -9.653318e-004 -1.162769e-003 -8.838591e-004 1.815292e-003 1.761757e-003 -1.491331e-003 1.113652e-003 1.391429e-003 -3.005907e-004 -2.779234e-004 -4.071343e-004
<VARIANCE> 25
 7.392630e+001 7.568375e+001 9.290382e+001 7.924342e+001 5.909377e+001 5.229320e+001 6.726942e+001 5.270981e+001 4.982084e+001 5.478992e+001 4.568425e+001 3.527760e+001 1.465081e+000 2.185714e+000 2.112044e+000 2.709802e+000 2.337163e+000 2.484778e+000 2.885772e+000 2.500503e+000 2.418650e+000 2.383119e+000 2.179368e+000 1.858105e+000 2.015309e+000
<GCONST> 1.054819e+002
<STATE> 3
<MEAN> 25
 6.776810e-002 6.169058e-001 1.810394e+000 1.475312e-001 -4.158853e-001 -4.198074e-001 -6.899949e-001 -3.876809e-001 -2.116238e-001 -5.032601e-001 -1.363880e-001 -9.718201e-002 2.367362e-003 -4.200481e-003 -1.969705e-003 -1.043882e-003 -1.227396e-003 1.933497e-003 2.050697e-003 -9.717998e-004 1.355643e-003 1.571602e-003 -3.198778e-004 -1.449783e-004 -1.105392e-003
<VARIANCE> 25
 7.377827e+001 7.587539e+001 9.269427e+001 7.922094e+001 5.908002e+001 5.225612e+001 6.721334e+001 5.275558e+001 4.979314e+001 5.471754e+001 4.566151e+001 3.526972e+001 1.460007e+000 2.186707e+000 2.107873e+000 2.698641e+000 2.332239e+000 2.482412e+000 2.878876e+000 2.499803e+000 2.414037e+000 2.378406e+000 2.176547e+000 1.855756e+000 2.015750e+000
<GCONST> 1.054553e+002
<STATE> 4
<MEAN> 25
 1.903382e-001 4.501938e-001 1.806726e+000 1.699857e-001 -4.880363e-001 -3.631802e-001 -6.755264e-001 -3.332816e-001 -2.702190e-001 -5.414234e-001 -7.940406e-002 -1.749167e-001 1.869381e-003 -5.348845e-003 -6.331328e-003 -9.663035e-004 6.266404e-005 2.767886e-003 3.054660e-003 7.961970e-004 2.599464e-003 2.922144e-003 -1.880830e-004 -2.963292e-005 -1.903786e-003
<VARIANCE> 25
 8.145506e+001 7.905584e+001 1.011943e+002 8.420470e+001 6.006060e+001 5.126046e+001 6.727205e+001 5.360706e+001 5.092825e+001 5.401993e+001 4.717966e+001 3.585083e+001 1.351639e+000 2.108413e+000 2.057585e+000 2.553698e+000 2.168548e+000 2.352293e+000 2.702379e+000 2.437984e+000 2.351902e+000 2.285943e+000 2.126637e+000 1.786214e+000 1.981586e+000
<GCONST> 1.052648e+002
<TRANSP> 5
 0.000000e+000 1.000000e+000 0.000000e+000 0.000000e+000 0.000000e+000
 0.000000e+000 7.962640e-001 2.037361e-001 0.000000e+000 0.000000e+000
 0.000000e+000 0.000000e+000 7.962644e-001 2.037356e-001 0.000000e+000
 0.000000e+000 0.000000e+000 0.000000e+000 9.378698e-001 6.213017e-002
 0.000000e+000 0.000000e+000 0.000000e+000 0.000000e+000 0.000000e+000
<ENDHMM>
~h "jh"
<BEGINHMM>
<NUMSTATES> 5
<STATE> 2
<MEAN> 25
 -5.858016e-002 5.307848e-001 4.387448e-001 5.372439e-001 1.320383e-001 -1.041041e-001 -2.665918e-001 -4.714311e-001 8.422899e-002 2.100435e-001 -2.388933e-001 -1.899450e-001 1.447869e-003 -1.663580e-003 1.034396e-003 4.492018e-003 -1.730941e-003 -1.816311e-003 2.390947e-003 1.510645e-003 4.854568e-004 4.757281e-003 4.873320e-003 8.644109e-004 -1.000038e-002
<VARIANCE> 25
 8.933360e+001 6.200435e+001 6.247997e+001 5.725052e+001 4.559575e+001 5.558787e+001 6.034697e+001 5.218194e+001 4.604663e+001 5.060885e+001 4.484708e+001 3.179489e+001 1.769738e+000 2.181524e+000 1.853372e+000 2.172403e+000 2.228587e+000 2.575514e+000 2.766998e+000 2.402475e+000 2.410282e+000 2.277601e+000 2.056978e+000 1.758991e+000 1.693562e+000
<GCONST> 1.035588e+002
<STATE> 3
<MEAN> 25
 -5.059059e-002 5.231258e-001 4.412726e-001 5.547730e-001 1.226975e-001 -1.119704e-001 -2.531740e-001 -4.607685e-001 8.576563e-002 2.254014e-001 -2.151945e-001 -1.835803e-001 1.510531e-003 -1.519133e-003 2.896362e-004 3.870471e-003 -2.006508e-003 -1.282710e-003 2.000282e-003 3.006623e-003 3.508334e-004 3.358759e-003 5.311243e-003 9.121278e-004 -8.792311e-003
<VARIANCE> 25
 8.906826e+001 6.173804e+001 6.239975e+001 5.706721e+001 4.560890e+001 5.568894e+001 6.030162e+001 5.227264e+001 4.596099e+001 5.063178e+001 4.470996e+001 3.168563e+001 1.772096e+000 2.177096e+000 1.846413e+000 2.179168e+000 2.232326e+000 2.569483e+000 2.774097e+000 2.399237e+000 2.405578e+000 2.277767e+000 2.056675e+000 1.758684e+000 1.683122e+000
<GCONST> 1.035330e+002
<STATE> 4
<MEAN> 25
 1.602380e-001 5.614097e-001 4.558556e-001 5.424066e-001 1.408287e-001 -1.278167e-001 -2.620587e-001 -4.572957e-001 1.114967e-001 1.611674e-002 -2.423957e-001 -1.792252e-001 -1.798133e-004 -1.784351e-003 -7.523363e-004 3.506692e-003 -2.033322e-003 3.412443e-004 3.700477e-003 4.530177e-003 1.583941e-004 6.109365e-004 4.784508e-003 2.478736e-003 -5.084496e-003
<VARIANCE> 25
 1.011296e+002 6.704447e+001 6.609309e+001 5.945462e+001 4.510794e+001 5.776583e+001 5.930890e+001 5.306202e+001 4.697118e+001 5.081836e+001 4.458503e+001 3.228159e+001 1.680929e+000 2.187788e+000 1.789996e+000 2.130777e+000 2.100669e+000 2.421393e+000 2.625195e+000 2.330377e+000 2.315574e+000 2.195886e+000 1.989127e+000 1.706127e+000 1.621583e+000
<GCONST> 1.034246e+002
<TRANSP> 5
 0.000000e+000 1.000000e+000 0.000000e+000 0.000000e+000 0.000000e+000
 0.000000e+000 7.993845e-001 2.006155e-001 0.000000e+000 0.000000e+000
 0.000000e+000 0.000000e+000 7.993845e-001 2.006155e-001 0.000000e+000
 0.000000e+000 0.000000e+000 0.000000e+000 9.406968e-001 5.930326e-002
 0.000000e+000 0.000000e+000 0.000000e+000 0.000000e+000 0.000000e+000
<ENDHMM>
~h "ng"
<BEGINHMM>
<NUMSTATES> 5
<STATE> 2
<MEAN> 25
 4.313011e-001 3.088390e-001 9.595409e-002 2.978283e-001 -5.689331e-002 2.230903e-001 -2.785795e-001 -2.221256e-001 -1.888690e-001 1.254995e-001 -2.090381e-001 -3.931255e-001 -8.550767e-003 -7.111045e-003 -1.977765e-003 1.943704e-003 1.556128e-003 4.397528e-003 2.361651e-003 5.181327e-003 4.238810e-003 4.855603e-003 2.085812e-004 3.106883e-003 -1.059545e-002
<VARIANCE> 25
 8.936108e+001 7.098510e+001 6.449237e+001 7.001871e+001 5.164545e+001 5.035483e+001 6.198366e+001 5.286004e+001 5.040231e+001 5.298457e+001 4.335507e+001 3.582345e+001 1.328169e+000 1.948655e+000 1.914265e+000 2.355925e+000 2.210473e+000 2.351513e+000 2.766002e+000 2.536457e+000 2.447828e+000 2.366173e+000 2.122422e+000 1.803925e+000 1.684280e+000
<GCONST> 1.039874e+002
<STATE> 3
<MEAN> 25
 3.814782e-001 2.757340e-001 8.816225e-002 3.079818e-001 -4.878416e-002 2.455727e-001 -2.603324e-001 -1.951273e-001 -1.652318e-001 1.512756e-001 -2.073999e-001 -3.765018e-001 -9.714568e-003 -7.305070e-003 -1.859664e-003 1.929454e-003 1.917472e-003 3.752444e-003 3.520562e-003 4.715701e-003 4.934447e-003 5.274235e-003 1.192465e-004 3.263519e-003 -1.021469e-002
<VARIANCE> 25
 8.940639e+001 7.073518e+001 6.428101e+001 6.978714e+001 5.154255e+001 5.041147e+001 6.198074e+001 5.273629e+001 5.024767e+001 5.285053e+001 4.326329e+001 3.566692e+001 1.331583e+000 1.948758e+000 1.904000e+000 2.340496e+000 2.205350e+000 2.351100e+000 2.766963e+000 2.529905e+000 2.441309e+000 2.359329e+000 2.114572e+000 1.797113e+000 1.669994e+000
<GCONST> 1.039268e+002
<STATE> 4
<MEAN> 25
 1.111127e-001 2.157584e-001 1.055600e-001 3.043464e-001 -2.042070e-002 2.902689e-001 -1.382225e-001 -1.399037e-001 -1.140906e-001 2.350842e-001 -1.798363e-001 -2.847347e-001 -1.175954e-002 -5.577256e-003 -1.034157e-003 1.552829e-003 1.784253e-003 2.035981e-003 5.691592e-003 4.763351e-003 5.488984e-003 4.750620e-003 1.493342e-004 3.266857e-003 -9.297566e-003
<VARIANCE> 25
 1.018520e+002 7.452200e+001 6.620547e+001 7.459391e+001 5.008604e+001 5.010476e+001 6.113645e+001 5.277747e+001 5.060913e+001 5.233505e+001 4.354134e+001 3.638061e+001 1.258080e+000 1.923470e+000 1.787970e+000 2.217715e+000 2.050658e+000 2.213496e+000 2.605231e+000 2.426340e+000 2.351464e+000 2.253897e+000 2.045728e+000 1.716920e+000 1.622777e+000
<GCONST> 1.035690e+002
<TRANSP> 5
 0.000000e+000 1.000000e+000 0.000000e+000 0.000000e+000 0.000000e+000
 0.000000e+000 7.936513e-001 2.063486e-001 0.000000e+000 0.000000e+000
 0.000000e+000 0.000000e+000 7.936495e-001 2.063505e-001 0.000000e+000
 0.000000e+000 0.000000e+000 0.000000e+000 9.351096e-001 6.489043e-002
 0.000000e+000 0.000000e+000 0.000000e+000 0.000000e+000 0.000000e+000
<ENDHMM>
~h "ny"
<BEGINHMM>
<NUMSTATES> 5
<STATE> 2
<MEAN> 25
 7.183461e-001 -7.000455e-002 1.065461e+000 -7.046186e-001 -5.449441e-001 -2.312389e-001 -4.258507e-001 -1.591228e-001 -7.390330e-001 -4.216104e-001 5.942374e-003 -4.266141e-001 -5.463488e-004 -6.389400e-003 1.111332e-002 -2.224296e-003 6.246399e-003 -3.087927e-003 4.134388e-003 -4.309755e-003 9.483161e-004 -3.149585e-003 -6.970550e-003 -3.521227e-003 1.841008e-002
<VARIANCE> 25
 7.127251e+001 7.513783e+001 7.981682e+001 8.246310e+001 5.476937e+001 5.388721e+001 6.679357e+001 5.314440e+001 5.429055e+001 5.332253e+001 5.121729e+001 3.782982e+001 1.386675e+000 2.237172e+000 2.115917e+000 2.746028e+000 2.240568e+000 2.517499e+000 2.885922e+000 2.439574e+000 2.414494e+000 2.348855e+000 2.263287e+000 1.935389e+000 1.788185e+000
<GCONST> 1.053965e+002
<STATE> 3
<MEAN> 25
 7.173765e-001 -9.853910e-002 1.109238e+000 -7.172130e-001 -5.169922e-001 -2.459608e-001 -4.101855e-001 -1.816576e-001 -7.406585e-001 -4.370431e-001 -1.925225e-002 -4.396437e-001 -1.450705e-003 -6.055741e-003 8.830361e-003 -1.112973e-003 6.441015e-003 -3.110424e-003 3.955623e-003 -4.792059e-003 -6.564650e-005 -2.985401e-003 -5.500176e-003 -2.404853e-003 1.774718e-002
<VARIANCE> 25
 7.079755e+001 7.543334e+001 7.945554e+001 8.252498e+001 5.476519e+001 5.394857e+001 6.674741e+001 5.284233e+001 5.415664e+001 5.329325e+001 5.153206e+001 3.784445e+001 1.382043e+000 2.242970e+000 2.122933e+000 2.743088e+000 2.240499e+000 2.526356e+000 2.880388e+000 2.433160e+000 2.403967e+000 2.342085e+000 2.268016e+000 1.940761e+000 1.781165e+000
<GCONST> 1.053822e+002
<STATE> 4
<MEAN> 25
 7.922872e-001 -1.988873e-001 1.176774e+000 -7.577990e-001 -5.186543e-001 -2.123173e-001 -3.942466e-001 -7.292607e-002 -9.440582e-001 -5.220070e-001 1.339058e-001 -4.308180e-001 3.206144e-005 -2.175176e-003 4.386909e-003 -1.280026e-003 2.953219e-003 -1.759203e-003 2.669052e-003 -4.715131e-003 -7.191594e-004 -2.801070e-003 -3.241164e-003 -8.502509e-004 1.137104e-002
<VARIANCE> 25
 7.796136e+001 7.870256e+001 8.471364e+001 8.673087e+001 5.487916e+001 5.407248e+001 6.483446e+001 5.349685e+001 5.604918e+001 5.201568e+001 5.782020e+001 3.789017e+001 1.292095e+000 2.131758e+000 2.081688e+000 2.598714e+000 2.116509e+000 2.411363e+000 2.657722e+000 2.376297e+000 2.349551e+000 2.209740e+000 2.261697e+000 1.856850e+000 1.757874e+000
<GCONST> 1.052082e+002
<TRANSP> 5
 0.000000e+000 1.000000e+000 0.000000e+000 0.000000e+000 0.000000e+000
 0.000000e+000 7.958840e-001 2.041160e-001 0.000000e+000 0.000000e+000
 0.000000e+000 0.000000e+000 7.958826e-001 2.041174e-001 0.000000e+000
 0.000000e+000 0.000000e+000 0.000000e+000 9.379549e-001 6.204505e-002
 0.000000e+000 0.000000e+000 0.000000e+000 0.000000e+000 0.000000e+000
<ENDHMM>
~h "uw"
<BEGINHMM>
<NUMSTATES> 5
<STATE> 2
<MEAN> 25
 4.749063e-001 7.472951e-001 3.568000e-002 -3.603221e-001 -3.158607e-001 -1.242100e-001 -2.488715e-001 -4.866100e-001 -1.583192e-001 3.968728e-002 3.793103e-002 -1.084877e-001 4.838542e-003 2.836867e-003 5.054290e-004 3.894484e-003 -1.218835e-003 5.686422e-004 -3.231656e-003 8.436576e-007 -2.197192e-003 7.258080e-004 1.256519e-003 -1.702585e-003 -3.518459e-003
<VARIANCE> 25
 9.136359e+001 6.449500e+001 6.194760e+001 7.224603e+001 5.473161e+001 5.440730e+001 6.209680e+001 5.540101e+001 4.858054e+001 5.247081e+001 4.547723e+001 3.347404e+001 1.562308e+000 2.071029e+000 1.849750e+000 2.403502e+000 2.218369e+000 2.511417e+000 2.809968e+000 2.526086e+000 2.439906e+000 2.371127e+000 2.168606e+000 1.822690e+000 1.740480e+000
<GCONST> 1.043760e+002
<STATE> 3
<MEAN> 25
 4.952024e-001 7.586849e-001 3.663821e-002 -3.408637e-001 -3.207157e-001 -1.203712e-001 -2.629933e-001 -4.850104e-001 -1.679261e-001 4.326434e-002 4.449645e-002 -1.152344e-001 4.247298e-003 2.657714e-003 1.035162e-004 4.541448e-003 -1.242624e-003 1.287964e-003 -3.052380e-003 6.362540e-004 -1.983052e-003 9.637383e-004 1.551555e-003 -1.320371e-003 -5.431180e-003
<VARIANCE> 25
 9.138120e+001 6.445086e+001 6.196288e+001 7.225361e+001 5.464941e+001 5.451536e+001 6.226332e+001 5.551191e+001 4.865763e+001 5.247007e+001 4.547899e+001 3.351727e+001 1.555383e+000 2.068726e+000 1.846743e+000 2.402206e+000 2.217610e+000 2.509633e+000 2.809445e+000 2.523671e+000 2.440660e+000 2.366389e+000 2.167840e+000 1.824130e+000 1.743887e+000
<GCONST> 1.043747e+002
<STATE> 4
<MEAN> 25
 6.690447e-001 8.125478e-001 2.673291e-002 -2.842077e-001 -3.495473e-001 -9.514891e-002 -2.666038e-001 -5.448132e-001 -2.298099e-001 -8.193574e-002 5.048737e-002 -1.048007e-001 -3.862350e-004 4.606840e-006 -8.140633e-004 5.473453e-003 3.476697e-004 2.278647e-003 -3.074933e-004 2.312933e-003 -5.803874e-004 2.063636e-003 1.923827e-003 2.634654e-004 -7.505450e-003
<VARIANCE> 25
 1.030287e+002 6.881784e+001 6.389500e+001 7.729865e+001 5.324317e+001 5.489765e+001 6.178194e+001 5.667918e+001 4.966586e+001 5.240739e+001 4.663296e+001 3.439690e+001 1.418028e+000 2.023142e+000 1.754400e+000 2.310810e+000 2.071176e+000 2.359236e+000 2.643912e+000 2.428879e+000 2.355580e+000 2.278704e+000 2.111321e+000 1.769198e+000 1.661121e+000
<GCONST> 1.041098e+002
<TRANSP> 5
 0.000000e+000 1.000000e+000 0.000000e+000 0.000000e+000 0.000000e+000
 0.000000e+000 7.964656e-001 2.035343e-001 0.000000e+000 0.000000e+000
 0.000000e+000 0.000000e+000 7.964634e-001 2.035367e-001 0.000000e+000
 0.000000e+000 0.000000e+000 0.000000e+000 9.381158e-001 6.188426e-002
 0.000000e+000 0.000000e+000 0.000000e+000 0.000000e+000 0.000000e+000
<ENDHMM>
~h "sil"
<BEGINHMM>
<NUMSTATES> 5
<STATE> 2
<MEAN> 25
 -9.125546e+000 1.580080e+000 -3.964486e+000 3.966533e+000 -1.503901e-001 3.234535e+000 3.041480e+000 2.596075e+000 2.510153e+000 4.274356e+000 2.055537e+000 2.481806e+000 8.944874e-002 4.524364e-004 4.270028e-003 5.364810e-003 3.244031e-004 -2.681704e-002 -6.370315e-002 -4.688426e-002 -5.095895e-002 2.260239e-002 4.908353e-003 -5.624463e-002 5.775938e-002
<VARIANCE> 25
 5.781939e+001 1.247227e+001 2.853843e+001 2.201580e+001 2.763196e+001 2.463330e+001 1.983174e+001 1.691922e+001 2.297906e+001 1.684444e+001 1.813715e+001 2.027408e+001 3.272229e-001 3.587422e-001 4.889307e-001 6.248187e-001 8.417615e-001 9.628874e-001 1.091604e+000 1.168379e+000 1.219317e+000 1.233112e+000 1.106032e+000 1.130399e+000 8.864605e-001
<GCONST> 8.039124e+001
<STATE> 3
<MEAN> 25
 -8.742253e+000 1.509236e+000 -3.833436e+000 3.970505e+000 -1.484805e-001 3.132962e+000 2.892514e+000 2.493134e+000 2.403877e+000 4.171603e+000 1.944076e+000 2.480744e+000 7.294705e-002 -1.674394e-002 2.846273e-002 -1.661446e-003 6.045667e-004 -2.059051e-002 -3.336492e-002 -2.575807e-002 -1.852131e-002 -2.779869e-002 -2.519806e-002 4.889277e-003 6.587887e-002
<VARIANCE> 25
 5.681000e+001 1.235258e+001 2.902950e+001 2.187687e+001 2.604353e+001 2.358551e+001 1.925441e+001 1.683876e+001 2.331371e+001 1.604273e+001 1.766432e+001 1.901242e+001 3.926969e-001 3.838918e-001 5.162290e-001 6.567876e-001 7.974141e-001 9.214386e-001 1.052317e+000 1.119027e+000 1.212364e+000 1.141586e+000 1.045784e+000 9.782532e-001 1.180058e+000
<GCONST> 8.029189e+001
<STATE> 4
<MEAN> 25
 -8.380785e+000 1.320696e+000 -3.277867e+000 3.614405e+000 4.092463e-001 2.227135e+000 2.962238e+000 2.185563e+000 2.469018e+000 3.354156e+000 1.314432e+000 2.652520e+000 7.072547e-002 -2.136216e-002 3.074120e-002 -2.370299e-002 6.757321e-003 -1.790423e-002 -2.089193e-002 -1.924099e-002 -1.398739e-002 -1.929225e-002 -9.932973e-003 -1.716115e-002 7.257703e-002
<VARIANCE> 25
 6.317213e+001 1.520552e+001 2.822302e+001 2.216692e+001 2.261412e+001 2.733569e+001 1.946505e+001 1.876081e+001 2.271806e+001 1.986621e+001 1.790974e+001 2.059571e+001 5.784388e-001 4.622848e-001 5.784939e-001 7.175205e-001 7.975903e-001 9.397711e-001 1.095972e+000 1.141116e+000 1.208246e+000 1.141176e+000 1.080363e+000 1.013373e+000 1.013213e+000
<GCONST> 8.176498e+001
<TRANSP> 5
 0.000000e+000 1.000000e+000 0.000000e+000 0.000000e+000 0.000000e+000
 0.000000e+000 7.964809e-001 2.035192e-001 0.000000e+000 0.000000e+000
 0.000000e+000 0.000000e+000 7.964795e-001 2.035205e-001 0.000000e+000
 0.000000e+000 0.000000e+000 0.000000e+000 9.378886e-001 6.211141e-002
 0.000000e+000 0.000000e+000 0.000000e+000 0.000000e+000 0.000000e+000
<ENDHMM>
