~o
<STREAMINFO> 1 25
<VECSIZE> 25<NULLD><MFCC_D_N_Z_0><DIAGC>
~h "b"
<BEGINHMM>
<NUMSTATES> 5
<STATE> 2
<MEAN> 25
 -1.247466e+000 4.657848e-001 -1.129121e+000 9.113528e-001 1.119884e+000 2.073909e-001 2.012923e+000 1.405111e-001 1.132209e+000 4.791707e-001 -2.610303e-001 4.693033e-001 -5.167937e-002 2.142168e-002 9.802068e-003 5.852385e-002 7.130754e-002 3.035279e-002 1.286169e-001 2.222823e-002 1.017388e-001 1.324225e-001 3.620807e-002 2.043922e-002 -1.060131e-001
<VARIANCE> 25
 7.420399e+001 6.179650e+001 5.750609e+001 5.351420e+001 3.778670e+001 5.629125e+001 5.023517e+001 3.966526e+001 4.234946e+001 4.951833e+001 4.102648e+001 2.942116e+001 1.208136e+000 1.563574e+000 1.802759e+000 1.749138e+000 1.575535e+000 2.020170e+000 2.040575e+000 1.949144e+000 2.014436e+000 1.935870e+000 1.998046e+000 1.660056e+000 1.031686e+000
<GCONST> 9.932735e+001
<STATE> 3
<MEAN> 25
 -1.142663e+000 5.415244e-001 -8.972373e-001 1.020404e+000 1.220718e+000 5.328251e-002 2.005817e+000 1.598187e-001 1.331507e+000 6.033759e-001 -2.815049e-001 4.045836e-001 6.672759e-002 7.053922e-002 7.691344e-002 4.855848e-002 2.495083e-002 -2.281553e-002 1.120919e-002 1.049786e-003 9.130123e-003 2.150111e-002 -2.910913e-002 -5.803904e-002 -2.172248e-002
<VARIANCE> 25
 7.725764e+001 6.645555e+001 5.839090e+001 5.641299e+001 3.752587e+001 5.619287e+001 4.750394e+001 3.871063e+001 4.078297e+001 4.927434e+001 4.048180e+001 2.872650e+001 1.337611e+000 1.704840e+000 1.806350e+000 1.645638e+000 1.502942e+000 1.926408e+000 1.859494e+000 1.862450e+000 1.871725e+000 1.915701e+000 1.916088e+000 1.562417e+000 1.053345e+000
<GCONST> 9.907006e+001
<STATE> 4
<MEAN> 25
 5.488462e-001 -1.965365e+000 -1.390236e+000 -8.018927e-001 1.116559e+000 -1.785218e+000 6.352838e-001 7.180555e-001 9.066126e-001 4.179281e-001 -4.324939e-001 -2.157049e-001 2.741905e-002 5.174860e-002 7.758433e-002 7.774590e-002 4.749482e-002 1.015819e-001 2.157965e-002 2.443856e-002 -4.132794e-002 9.417922e-003 -2.635624e-002 -4.230680e-002 -6.458849e-002
<VARIANCE> 25
 1.307725e+002 1.255840e+002 7.091763e+001 8.915101e+001 3.561368e+001 7.518780e+001 6.032816e+001 3.965260e+001 3.972143e+001 5.779599e+001 4.342402e+001 3.492129e+001 7.077579e-001 1.216249e+000 1.157962e+000 1.187550e+000 1.160609e+000 1.273151e+000 1.401731e+000 1.372761e+000 1.427666e+000 1.375689e+000 1.383840e+000 1.193507e+000 6.134888e-001
<GCONST> 9.704261e+001
<TRANSP> 5
 0.000000e+000 1.000000e+000 0.000000e+000 0.000000e+000 0.000000e+000
 0.000000e+000 6.280764e-001 3.719236e-001 0.000000e+000 0.000000e+000
 0.000000e+000 0.000000e+000 6.218624e-001 3.781375e-001 0.000000e+000
 0.000000e+000 0.000000e+000 0.000000e+000 8.058304e-001 1.941695e-001
 0.000000e+000 0.000000e+000 0.000000e+000 0.000000e+000 0.000000e+000
<ENDHMM>
~h "d"
<BEGINHMM>
<NUMSTATES> 5
<STATE> 2
<MEAN> 25
 2.931253e+000 -6.203855e-001 7.916847e-001 1.156699e+000 2.160144e+000 3.464535e-002 -9.417945e-001 -7.459248e-001 -1.932982e+000 -7.412879e-001 4.264041e-001 -3.835091e-001 2.982182e-001 -4.799514e-001 -7.241454e-002 -1.411585e-001 -4.049234e-003 -2.101699e-001 -3.465606e-001 2.037490e-001 -1.828697e-001 -2.448832e-001 6.612428e-002 -1.078712e-001 7.082290e-001
<VARIANCE> 25
 5.149655e+001 8.502440e+001 4.857584e+001 6.778773e+001 6.180355e+001 5.280678e+001 8.100435e+001 6.038404e+001 4.791376e+001 5.359050e+001 5.882290e+001 3.744802e+001 1.875156e+000 5.404770e+000 2.943117e+000 3.732059e+000 3.389830e+000 3.721226e+000 5.128832e+000 3.757357e+000 3.447082e+000 3.390859e+000 3.316050e+000 2.684262e+000 4.780645e+000
<GCONST> 1.109802e+002
<STATE> 3
<MEAN> 25
 4.007337e+000 -2.687047e+000 4.982969e-001 2.895424e-001 2.129948e+000 -7.742121e-001 -2.191500e+000 1.963759e-001 -2.692311e+000 -1.760839e+000 5.308463e-001 -5.427198e-001 1.965538e-001 -5.799239e-001 -1.750801e-001 -3.262879e-001 -7.936559e-002 -2.246097e-001 -2.369907e-001 2.653658e-001 -8.302043e-002 -2.206358e-001 4.992883e-002 1.100133e-002 6.198429e-001
<VARIANCE> 25
 4.929501e+001 8.205392e+001 4.714339e+001 6.886664e+001 6.966998e+001 5.837227e+001 9.190384e+001 6.745750e+001 5.343555e+001 6.189822e+001 6.988236e+001 4.045599e+001 1.476725e+000 5.117584e+000 2.405881e+000 3.707998e+000 3.651048e+000 3.843103e+000 5.781952e+000 3.762301e+000 3.673740e+000 3.820387e+000 3.610419e+000 2.861982e+000 4.698229e+000
<GCONST> 1.118874e+002
<STATE> 4
<MEAN> 25
 6.703101e+000 -7.545628e+000 6.740995e-001 -4.143844e+000 7.286054e-001 -6.808621e-001 -4.899258e+000 1.518057e+000 -2.519614e+000 -1.787857e+000 1.503909e+000 -2.600310e+000 -7.348415e-002 1.443427e-001 -1.215364e-001 1.039577e-001 2.661375e-003 8.204637e-002 2.461574e-001 -5.439985e-002 8.203228e-002 3.183939e-002 -5.643580e-002 3.647356e-002 -2.750425e-001
<VARIANCE> 25
 4.418461e+001 1.141282e+002 4.626597e+001 9.324088e+001 4.571721e+001 5.732026e+001 1.063186e+002 6.664760e+001 5.782270e+001 6.314229e+001 9.311062e+001 5.697079e+001 5.552765e-001 2.582477e+000 1.298621e+000 2.192144e+000 1.919401e+000 2.221452e+000 3.159082e+000 2.289879e+000 2.239679e+000 2.221814e+000 2.352294e+000 2.073811e+000 1.420143e+000
<GCONST> 1.047341e+002
<TRANSP> 5
 0.000000e+000 1.000000e+000 0.000000e+000 0.000000e+000 0.000000e+000
 0.000000e+000 6.694343e-001 3.305657e-001 0.000000e+000 0.000000e+000
 0.000000e+000 0.000000e+000 6.845196e-001 3.154804e-001 0.000000e+000
 0.000000e+000 0.000000e+000 0.000000e+000 8.602233e-001 1.397767e-001
 0.000000e+000 0.000000e+000 0.000000e+000 0.000000e+000 0.000000e+000
<ENDHMM>
~h "g"
<BEGINHMM>
<NUMSTATES> 5
<STATE> 2
<MEAN> 25
 -7.958833e-001 3.439990e+000 4.573605e+000 2.434718e+000 1.213079e+000 6.832464e-001 -5.789042e-003 -1.026244e+000 5.886725e-001 -4.321950e-003 -6.712344e-001 -6.733982e-001 4.462893e-002 1.231774e-001 3.847053e-001 1.597495e-001 7.274061e-002 2.864850e-002 3.979325e-002 -1.364843e-002 -1.084304e-001 -7.113354e-002 1.778421e-002 -1.413938e-001 1.936444e-001
<VARIANCE> 25
 4.483725e+001 6.630177e+001 9.437428e+001 5.178027e+001 4.704013e+001 4.075821e+001 4.768247e+001 3.855356e+001 4.098341e+001 4.147203e+001 3.846401e+001 2.970723e+001 2.532333e+000 3.505774e+000 3.106653e+000 2.971601e+000 2.520811e+000 2.192018e+000 2.809189e+000 2.365578e+000 2.446187e+000 2.574474e+000 2.084662e+000 1.763102e+000 2.189908e+000
<GCONST> 1.039283e+002
<STATE> 3
<MEAN> 25
 -7.163310e-001 3.558496e+000 6.051086e+000 2.505951e+000 1.159586e+000 5.363800e-001 -2.831936e-001 -8.867610e-001 2.657471e-001 -3.978626e-001 -4.323107e-001 -1.113011e+000 8.601062e-002 -2.042256e-002 3.371566e-001 -8.540643e-002 -1.096305e-001 -8.270662e-002 -1.048649e-001 8.969475e-002 -8.927284e-002 -1.087534e-001 4.482235e-002 -6.767339e-002 4.655872e-001
<VARIANCE> 25
 4.651007e+001 7.698984e+001 1.048312e+002 5.359387e+001 5.745929e+001 4.362998e+001 5.155303e+001 4.009800e+001 3.881697e+001 4.413656e+001 3.802610e+001 2.808452e+001 3.049099e+000 3.905005e+000 3.434296e+000 3.196155e+000 3.463222e+000 2.494509e+000 3.060340e+000 2.650861e+000 2.407846e+000 2.755352e+000 2.203829e+000 1.825813e+000 2.533717e+000
<GCONST> 1.059812e+002
<STATE> 4
<MEAN> 25
 1.277032e-001 2.727605e+000 1.261099e+001 1.895206e+000 -1.988775e+000 -2.259811e-001 -3.050833e+000 -3.181203e-001 2.664818e-001 -3.276776e+000 1.425285e-001 -1.132664e+000 1.250316e-001 -8.205308e-002 -7.555401e-002 -4.576757e-003 -1.039082e-001 -6.855334e-002 -8.272512e-002 3.719158e-002 -9.371959e-003 -3.578817e-002 -3.637291e-002 3.525855e-002 1.351846e-001
<VARIANCE> 25
 4.063722e+001 9.067659e+001 1.800085e+002 5.778262e+001 9.128054e+001 4.585954e+001 6.058131e+001 5.336089e+001 3.666857e+001 6.106152e+001 4.028877e+001 2.733896e+001 1.469982e+000 2.558336e+000 2.312289e+000 2.081266e+000 2.392717e+000 2.017839e+000 2.343619e+000 2.096415e+000 1.927307e+000 2.179281e+000 1.886441e+000 1.529424e+000 1.602536e+000
<GCONST> 1.035759e+002
<TRANSP> 5
 0.000000e+000 1.000000e+000 0.000000e+000 0.000000e+000 0.000000e+000
 0.000000e+000 6.463296e-001 3.536704e-001 0.000000e+000 0.000000e+000
 0.000000e+000 0.000000e+000 6.574206e-001 3.425794e-001 0.000000e+000
 0.000000e+000 0.000000e+000 0.000000e+000 8.274047e-001 1.725953e-001
 0.000000e+000 0.000000e+000 0.000000e+000 0.000000e+000 0.000000e+000
<ENDHMM>
~h "k"
<BEGINHMM>
<NUMSTATES> 5
<STATE> 2
<MEAN> 25
 2.312502e+000 -1.379270e+000 -1.764700e+000 -3.075676e-001 8.141690e-001 -6.402126e-001 1.375791e-001 -1.200784e+000 -1.522386e+000 -8.671383e-001 -6.996823e-001 -1.096190e+000 7.041699e-002 1.039864e-001 -1.770984e-001 -6.349156e-002 -3.322796e-002 4.977677e-002 8.461218e-002 4.155685e-002 -1.079012e-001 1.000863e-001 3.299831e-002 -5.687242e-002 -2.426671e-002
<VARIANCE> 25
 6.706036e+001 7.048333e+001 5.140870e+001 7.222697e+001 5.436761e+001 5.655495e+001 5.899087e+001 6.107577e+001 5.339091e+001 6.493776e+001 4.363558e+001 3.249959e+001 1.655272e+000 2.571868e+000 2.346534e+000 3.524744e+000 2.981936e+000 2.858098e+000 3.345025e+000 3.884932e+000 3.154032e+000 3.043978e+000 3.071226e+000 2.363358e+000 2.369349e+000
<GCONST> 1.076314e+002
<STATE> 3
<MEAN> 25
 2.654818e+000 -1.142190e+000 -2.042631e+000 -5.068156e-001 6.386893e-001 -7.335171e-001 7.074574e-002 -1.012526e+000 -1.890782e+000 -7.858013e-001 -6.406193e-001 -1.240425e+000 6.735633e-002 7.341865e-002 -5.134504e-002 -1.034023e-001 -4.878401e-002 -1.176810e-002 -1.616419e-003 5.501223e-002 -1.709373e-002 2.317822e-002 -2.764501e-002 -1.219702e-002 6.528524e-003
<VARIANCE> 25
 6.854095e+001 7.326759e+001 4.881305e+001 7.296012e+001 5.267772e+001 5.643594e+001 5.920312e+001 6.857673e+001 5.769488e+001 6.714448e+001 4.560669e+001 3.288351e+001 1.566333e+000 2.441460e+000 2.185212e+000 3.442120e+000 2.879959e+000 2.698543e+000 3.267847e+000 3.836202e+000 3.127921e+000 3.132184e+000 3.001301e+000 2.354488e+000 2.144193e+000
<GCONST> 1.074661e+002
<STATE> 4
<MEAN> 25
 4.671675e+000 -3.560350e+000 -1.245135e+000 -2.307187e+000 1.153148e+000 -4.593795e-001 -6.469672e-001 -8.157192e-001 -2.514495e+000 -8.783562e-001 -1.031210e+000 -2.032630e+000 -1.119792e-001 1.683587e-001 -2.883404e-003 5.261786e-002 -2.299895e-002 3.100936e-002 5.857033e-002 6.266724e-002 1.001360e-001 5.743998e-002 -3.589737e-002 2.390878e-002 -2.411391e-001
<VARIANCE> 25
 7.151794e+001 1.231569e+002 4.680949e+001 1.230040e+002 5.444850e+001 5.248450e+001 6.080508e+001 7.590871e+001 5.442133e+001 6.809683e+001 5.436885e+001 3.347596e+001 8.187981e-001 1.738392e+000 1.329754e+000 2.109767e+000 1.989741e+000 1.840080e+000 2.207976e+000 2.637577e+000 2.293228e+000 2.197834e+000 2.217586e+000 1.748263e+000 1.063163e+000
<GCONST> 1.032860e+002
<TRANSP> 5
 0.000000e+000 1.000000e+000 0.000000e+000 0.000000e+000 0.000000e+000
 0.000000e+000 6.324926e-001 3.675074e-001 0.000000e+000 0.000000e+000
 0.000000e+000 0.000000e+000 6.370656e-001 3.629344e-001 0.000000e+000
 0.000000e+000 0.000000e+000 0.000000e+000 7.894899e-001 2.105100e-001
 0.000000e+000 0.000000e+000 0.000000e+000 0.000000e+000 0.000000e+000
<ENDHMM>
~h "l"
<BEGINHMM>
<NUMSTATES> 5
<STATE> 2
<MEAN> 25
 4.952679e+000 -1.198199e+000 3.576182e-001 -3.133516e+000 -7.222244e-001 -3.209655e+000 -2.067107e+000 -4.732099e-001 -1.438081e+000 -3.719214e+000 -1.373804e+000 -6.440706e-001 2.984442e-001 -9.946401e-002 -1.567176e-001 -8.306741e-002 -1.495303e-002 -2.088525e-001 4.962774e-002 4.006485e-002 -1.724981e-001 -1.413818e-001 -3.160432e-002 3.084361e-003 3.702011e-001
<VARIANCE> 25
 7.287019e+001 7.911077e+001 6.317210e+001 8.951932e+001 7.966370e+001 8.632780e+001 8.431828e+001 8.037885e+001 9.560343e+001 8.097026e+001 6.667931e+001 4.604518e+001 2.361872e+000 4.342979e+000 3.575503e+000 3.931160e+000 4.266250e+000 4.758893e+000 5.237827e+000 4.991300e+000 4.628831e+000 4.004061e+000 3.528548e+000 2.911928e+000 2.858050e+000
<GCONST> 1.154328e+002
<STATE> 3
<MEAN> 25
 5.764819e+000 -1.616459e+000 -4.062405e-001 -3.341859e+000 -5.379834e-001 -3.484385e+000 -1.697506e+000 -1.954092e-001 -1.893541e+000 -3.842406e+000 -1.338542e+000 -4.016066e-001 1.459324e-001 -1.005152e-001 -2.431525e-001 -7.207450e-002 7.806495e-003 1.907542e-002 1.284727e-001 1.294739e-001 -1.344815e-001 7.433151e-003 8.152571e-002 1.807002e-002 1.947652e-001
<VARIANCE> 25
 6.657304e+001 8.327359e+001 6.289251e+001 8.791994e+001 8.538258e+001 8.343208e+001 8.013142e+001 7.683883e+001 9.798903e+001 7.917458e+001 7.098627e+001 4.907666e+001 2.080133e+000 3.496480e+000 3.047624e+000 3.491746e+000 3.888781e+000 4.321722e+000 4.520718e+000 4.206513e+000 4.566129e+000 3.948659e+000 3.335789e+000 2.944319e+000 2.237801e+000
<GCONST> 1.139923e+002
<STATE> 4
<MEAN> 25
 8.909260e+000 -4.780604e+000 -1.162816e+000 -5.652706e+000 -1.240360e+000 -3.092873e+000 -2.854435e+000 1.041695e+000 -2.316697e+000 -3.403966e+000 2.071565e-001 -1.349302e+000 -1.017125e-001 1.167993e-001 -1.141881e-001 1.522589e-001 3.853118e-003 1.254975e-001 1.854596e-001 2.148139e-003 1.115092e-002 9.278254e-002 4.532287e-002 3.150012e-002 -2.429304e-001
<VARIANCE> 25
 7.976826e+001 1.264933e+002 7.343294e+001 1.103314e+002 7.966784e+001 9.890678e+001 7.737709e+001 7.742966e+001 7.432932e+001 7.289220e+001 8.040946e+001 5.931468e+001 6.226988e-001 1.806203e+000 1.493761e+000 2.032208e+000 1.946238e+000 2.222791e+000 2.479784e+000 2.487648e+000 2.675250e+000 2.402461e+000 2.231869e+000 1.937265e+000 8.095226e-001
<GCONST> 1.065292e+002
<TRANSP> 5
 0.000000e+000 1.000000e+000 0.000000e+000 0.000000e+000 0.000000e+000
 0.000000e+000 7.201743e-001 2.798258e-001 0.000000e+000 0.000000e+000
 0.000000e+000 0.000000e+000 6.842821e-001 3.157179e-001 0.000000e+000
 0.000000e+000 0.000000e+000 0.000000e+000 8.137317e-001 1.862683e-001
 0.000000e+000 0.000000e+000 0.000000e+000 0.000000e+000 0.000000e+000
<ENDHMM>
~h "m"
<BEGINHMM>
<NUMSTATES> 5
<STATE> 2
<MEAN> 25
 4.074134e+000 -1.130186e+000 -1.224988e+000 6.655460e-001 2.642475e+000 1.585936e-001 1.033940e+000 -2.381806e-001 -7.846736e-001 -2.568196e+000 -1.662608e+000 -2.201571e+000 3.977191e-001 -2.229445e-001 -1.142901e-001 -4.969415e-002 2.503389e-001 -9.568413e-002 -2.229056e-002 -1.597798e-003 -1.094300e-001 -3.319920e-001 -2.115450e-001 -1.439261e-001 5.295590e-001
<VARIANCE> 25
 6.036351e+001 7.190608e+001 4.537960e+001 5.755062e+001 6.858245e+001 4.706503e+001 6.260243e+001 6.015247e+001 6.806423e+001 5.988785e+001 4.652306e+001 3.735427e+001 3.268311e+000 4.741127e+000 2.941885e+000 4.360927e+000 3.609437e+000 3.411998e+000 4.094661e+000 4.293776e+000 3.636589e+000 3.809640e+000 3.157498e+000 2.780934e+000 5.492550e+000
<GCONST> 1.114515e+002
<STATE> 3
<MEAN> 25
 4.563415e+000 -2.338050e+000 -1.821024e+000 1.449193e-001 3.566331e+000 -3.169542e-001 8.676332e-001 3.663640e-001 -6.730492e-001 -3.680707e+000 -2.245023e+000 -2.260548e+000 1.764920e-001 -4.044827e-001 -9.619297e-002 -1.966182e-001 4.609574e-002 -1.134690e-001 1.361202e-003 6.035550e-002 -8.220477e-002 -1.472431e-001 3.656889e-002 6.325210e-003 4.794247e-001
<VARIANCE> 25
 5.282963e+001 7.976617e+001 4.443118e+001 6.128585e+001 7.280539e+001 5.100425e+001 6.211062e+001 6.211617e+001 7.161081e+001 5.797323e+001 4.765536e+001 4.018334e+001 2.799651e+000 4.844368e+000 2.906205e+000 4.500538e+000 3.555453e+000 3.543701e+000 3.958888e+000 4.330234e+000 3.707984e+000 3.683937e+000 3.267702e+000 2.916004e+000 5.744538e+000
<GCONST> 1.117395e+002
<STATE> 4
<MEAN> 25
 6.311386e+000 -5.589804e+000 -8.641279e-001 -2.457680e+000 2.897878e+000 8.576541e-001 4.528033e-001 2.120490e-001 -2.420898e+000 -2.721341e+000 -1.160941e+000 -3.304970e+000 -1.766989e-001 8.886718e-002 1.114362e-002 9.106234e-002 -5.359803e-002 2.279982e-002 4.330988e-002 -3.125884e-002 5.589546e-002 1.518270e-001 4.644353e-002 9.910595e-002 -2.470889e-001
<VARIANCE> 25
 4.859144e+001 1.299292e+002 4.450875e+001 1.155952e+002 5.647865e+001 4.690951e+001 7.695886e+001 6.906933e+001 8.161495e+001 6.697411e+001 6.176076e+001 4.409528e+001 1.088441e+000 2.652966e+000 1.596045e+000 2.783314e+000 1.915371e+000 1.994704e+000 2.661516e+000 2.604773e+000 2.634899e+000 2.178551e+000 2.325798e+000 2.042349e+000 2.220919e+000
<GCONST> 1.061514e+002
<TRANSP> 5
 0.000000e+000 1.000000e+000 0.000000e+000 0.000000e+000 0.000000e+000
 0.000000e+000 7.405492e-001 2.594508e-001 0.000000e+000 0.000000e+000
 0.000000e+000 0.000000e+000 7.454098e-001 2.545902e-001 0.000000e+000
 0.000000e+000 0.000000e+000 0.000000e+000 8.297518e-001 1.702482e-001
 0.000000e+000 0.000000e+000 0.000000e+000 0.000000e+000 0.000000e+000
<ENDHMM>
~h "n"
<BEGINHMM>
<NUMSTATES> 5
<STATE> 2
<MEAN> 25
 3.906643e+000 1.955681e+000 1.509311e+000 1.100352e+000 -6.859029e-002 -1.042537e+000 -1.790022e+000 -2.137642e+000 -2.357776e+000 -1.920976e+000 -1.433974e+000 -1.679371e+000 3.645336e-001 1.886337e-001 2.181085e-001 1.333123e-001 -2.393182e-002 -2.103296e-002 -2.330450e-001 -2.576611e-001 -2.677306e-001 -9.592824e-002 -1.202146e-001 -1.006118e-001 3.250738e-001
<VARIANCE> 25
 5.678427e+001 6.225911e+001 6.052533e+001 7.023402e+001 6.479298e+001 5.777310e+001 7.247939e+001 9.103683e+001 6.582329e+001 8.154301e+001 4.729847e+001 3.751331e+001 2.781458e+000 4.429156e+000 3.784210e+000 4.765292e+000 4.224598e+000 4.251273e+000 5.343130e+000 5.298906e+000 4.291644e+000 4.757811e+000 3.460420e+000 2.798572e+000 4.668318e+000
<GCONST> 1.140265e+002
<STATE> 3
<MEAN> 25
 4.745618e+000 1.827532e+000 2.074173e+000 1.761548e+000 2.752524e-001 -1.227691e+000 -2.423354e+000 -2.777807e+000 -3.312466e+000 -2.280385e+000 -1.535350e+000 -1.789501e+000 9.287335e-002 -1.737066e-001 -1.240703e-002 3.450537e-002 3.859777e-002 2.144732e-002 -5.022256e-002 -2.583780e-002 -7.750727e-002 -3.833207e-002 1.439502e-003 5.974530e-003 2.604791e-001
<VARIANCE> 25
 5.112196e+001 6.928955e+001 6.184877e+001 7.109018e+001 6.494167e+001 5.977556e+001 7.669703e+001 1.053540e+002 6.934293e+001 8.299914e+001 5.050744e+001 4.020971e+001 2.287401e+000 4.445910e+000 3.488396e+000 4.355116e+000 3.926745e+000 4.209280e+000 5.088653e+000 5.427999e+000 4.401555e+000 4.552816e+000 3.716062e+000 3.032975e+000 3.815740e+000
<GCONST> 1.139664e+002
<STATE> 4
<MEAN> 25
 5.055178e+000 1.421863e+000 2.327718e+000 2.967150e+000 6.049205e-001 -7.390745e-001 -1.845221e+000 -3.831857e+000 -3.632936e+000 -1.421852e+000 -1.290395e+000 -1.998719e+000 -2.803766e-001 -1.970274e-002 -7.306416e-002 2.799135e-002 1.225138e-001 9.074160e-002 2.108270e-001 1.537792e-001 2.387634e-001 1.020447e-001 2.033924e-002 9.788363e-002 -2.376830e-001
<VARIANCE> 25
 5.369204e+001 9.538615e+001 6.435378e+001 8.640511e+001 6.203835e+001 4.908373e+001 8.173431e+001 1.141177e+002 6.934822e+001 7.299557e+001 6.127459e+001 4.055099e+001 8.949987e-001 2.251440e+000 1.990399e+000 2.476252e+000 2.296376e+000 2.407015e+000 3.049869e+000 3.700668e+000 2.797087e+000 2.850571e+000 2.721611e+000 2.135577e+000 1.268514e+000
<GCONST> 1.071240e+002
<TRANSP> 5
 0.000000e+000 1.000000e+000 0.000000e+000 0.000000e+000 0.000000e+000
 0.000000e+000 7.210763e-001 2.789237e-001 0.000000e+000 0.000000e+000
 0.000000e+000 0.000000e+000 7.148212e-001 2.851789e-001 0.000000e+000
 0.000000e+000 0.000000e+000 0.000000e+000 8.143150e-001 1.856851e-001
 0.000000e+000 0.000000e+000 0.000000e+000 0.000000e+000 0.000000e+000
<ENDHMM>
~h "p"
<BEGINHMM>
<NUMSTATES> 5
<STATE> 2
<MEAN> 25
 -7.031882e-001 -1.195243e+000 -3.100367e+000 -5.720944e-002 1.733951e+000 1.295637e+000 2.664296e+000 6.925394e-001 1.696985e+000 1.060232e+000 -2.394456e-001 7.052692e-001 3.430794e-001 -3.568052e-001 -1.584706e-001 -2.521365e-001 1.365414e-002 -1.165961e-001 -1.199203e-001 7.509926e-002 1.723064e-003 -4.174212e-002 1.665515e-002 4.353012e-004 6.810619e-001
<VARIANCE> 25
 5.562737e+001 5.835704e+001 4.564477e+001 5.312461e+001 5.934701e+001 4.667694e+001 4.614073e+001 4.233435e+001 3.811435e+001 3.727335e+001 3.570781e+001 2.705616e+001 3.959002e+000 3.656781e+000 3.156107e+000 3.974492e+000 4.080217e+000 3.826447e+000 4.219536e+000 3.666075e+000 3.128139e+000 3.239876e+000 3.019898e+000 2.346044e+000 7.062207e+000
<GCONST> 1.083792e+002
<STATE> 3
<MEAN> 25
 6.264324e-001 -2.300944e+000 -3.289829e+000 -9.390684e-001 1.439420e+000 6.958958e-001 1.790826e+000 9.380556e-001 1.620840e+000 7.252594e-001 -9.211607e-002 6.030757e-001 6.602419e-001 -4.106879e-001 -7.025024e-003 -3.640755e-001 -1.889243e-001 -3.171727e-001 -3.214671e-001 5.531824e-002 -1.861795e-001 -2.514462e-001 3.627361e-002 -1.330637e-001 1.099118e+000
<VARIANCE> 25
 5.960889e+001 5.970804e+001 5.184616e+001 5.944920e+001 7.411719e+001 5.361843e+001 5.167760e+001 4.478535e+001 4.048695e+001 4.308199e+001 3.506849e+001 2.670014e+001 4.194147e+000 4.079466e+000 3.819598e+000 5.179336e+000 4.956573e+000 4.284270e+000 4.724042e+000 4.204509e+000 3.290532e+000 3.672845e+000 3.057500e+000 2.431962e+000 7.905569e+000
<GCONST> 1.109329e+002
<STATE> 4
<MEAN> 25
 3.597549e+000 -6.046748e+000 -3.681870e+000 -4.310729e+000 2.160162e+000 5.355578e-001 1.438479e+000 1.392061e+000 3.736138e-001 -8.185842e-001 -3.270568e-001 7.469226e-003 1.750875e-001 -8.528998e-002 1.428116e-001 -1.249503e-001 -2.543160e-002 -1.541388e-001 -1.468807e-001 -6.306013e-002 -1.326348e-001 -1.922165e-001 -2.113012e-002 -4.040588e-002 3.257672e-001
<VARIANCE> 25
 5.844164e+001 8.504295e+001 5.721603e+001 9.930615e+001 9.122169e+001 5.085881e+001 6.179472e+001 5.554718e+001 4.227513e+001 6.353953e+001 4.254452e+001 3.032181e+001 1.915432e+000 3.496021e+000 2.558765e+000 4.421665e+000 3.451803e+000 3.115155e+000 3.541709e+000 3.189472e+000 2.627633e+000 3.044606e+000 2.548992e+000 2.164359e+000 4.935860e+000
<GCONST> 1.092559e+002
<TRANSP> 5
 0.000000e+000 1.000000e+000 0.000000e+000 0.000000e+000 0.000000e+000
 0.000000e+000 7.208245e-001 2.791755e-001 0.000000e+000 0.000000e+000
 0.000000e+000 0.000000e+000 7.201746e-001 2.798254e-001 0.000000e+000
 0.000000e+000 0.000000e+000 0.000000e+000 8.145969e-001 1.854031e-001
 0.000000e+000 0.000000e+000 0.000000e+000 0.000000e+000 0.000000e+000
<ENDHMM>
~h "r"
<BEGINHMM>
<NUMSTATES> 5
<STATE> 2
<MEAN> 25
 1.788705e+000 -2.274683e+000 -2.949327e+000 5.831256e-002 1.101652e+000 -4.866600e-001 1.185681e+000 7.960446e-001 -6.908985e-001 -9.092927e-001 5.068262e-001 7.215198e-001 -1.370849e-001 -7.092921e-002 -8.461422e-002 5.157348e-002 3.487946e-003 8.101162e-002 1.432209e-001 1.727173e-002 8.850751e-002 1.072780e-001 6.444090e-002 3.573017e-002 -1.560080e-001
<VARIANCE> 25
 7.760924e+001 6.360317e+001 3.673806e+001 3.903674e+001 3.497681e+001 4.940683e+001 4.299790e+001 3.652695e+001 3.656689e+001 4.913932e+001 4.020930e+001 2.941581e+001 5.346380e-001 9.961348e-001 8.936105e-001 1.151363e+000 1.766603e+000 1.713013e+000 1.706159e+000 1.682788e+000 1.626982e+000 1.655260e+000 1.579119e+000 1.377964e+000 6.043249e-001
<GCONST> 9.392795e+001
<STATE> 3
<MEAN> 25
 1.392925e+000 -2.197223e+000 -3.010958e+000 2.649398e-001 1.085290e+000 -1.370659e-001 1.362543e+000 9.312001e-001 -2.790586e-001 -6.292131e-001 5.117179e-001 6.724790e-001 -1.014524e-001 5.859026e-003 -1.614020e-002 6.126459e-002 -2.609230e-002 4.273928e-002 7.068442e-002 3.686187e-002 8.283924e-002 7.979681e-002 3.258476e-003 -2.530627e-002 -1.612992e-001
<VARIANCE> 25
 7.915713e+001 6.162878e+001 3.584440e+001 3.698664e+001 3.165080e+001 4.464565e+001 4.012235e+001 3.437365e+001 3.467245e+001 4.776546e+001 3.516204e+001 2.793225e+001 5.738606e-001 9.284865e-001 8.679577e-001 1.050113e+000 1.627014e+000 1.635664e+000 1.628884e+000 1.581646e+000 1.567121e+000 1.649434e+000 1.456341e+000 1.309726e+000 6.756713e-001
<GCONST> 9.282022e+001
<STATE> 4
<MEAN> 25
 -1.145426e-002 -1.601326e+000 -3.447380e+000 4.775462e-001 3.990424e-001 -9.546415e-001 1.697519e+000 1.594133e+000 3.004040e-001 2.091331e-001 6.397740e-001 9.894114e-001 -1.176032e-001 9.819295e-002 5.879119e-002 3.087783e-002 -9.358254e-003 6.873889e-002 3.377159e-002 -3.903394e-003 5.673618e-002 5.414127e-002 -2.564163e-002 -1.918677e-002 -1.774193e-001
<VARIANCE> 25
 1.365800e+002 6.810154e+001 4.603118e+001 3.306610e+001 2.304811e+001 6.650792e+001 3.040416e+001 3.085468e+001 2.752106e+001 3.721632e+001 2.448986e+001 2.373935e+001 4.199536e-001 8.208310e-001 7.055050e-001 8.399587e-001 1.023481e+000 1.133292e+000 1.200749e+000 1.192111e+000 1.187946e+000 1.180701e+000 1.088722e+000 1.034580e+000 4.658867e-001
<GCONST> 8.850076e+001
<TRANSP> 5
 0.000000e+000 1.000000e+000 0.000000e+000 0.000000e+000 0.000000e+000
 0.000000e+000 6.845675e-001 3.154325e-001 0.000000e+000 0.000000e+000
 0.000000e+000 0.000000e+000 6.866869e-001 3.133131e-001 0.000000e+000
 0.000000e+000 0.000000e+000 0.000000e+000 9.081429e-001 9.185715e-002
 0.000000e+000 0.000000e+000 0.000000e+000 0.000000e+000 0.000000e+000
<ENDHMM>
~h "s"
<BEGINHMM>
<NUMSTATES> 5
<STATE> 2
<MEAN> 25
 -5.366808e+000 -2.047830e-001 -1.737548e+000 1.525419e+000 7.133968e-001 1.360272e+000 3.987088e+000 -1.163524e-001 3.281942e-001 2.252191e+000 1.666314e+000 4.471039e-001 -7.427445e-001 5.570032e-002 1.778396e-001 -1.134924e-001 5.792331e-002 1.359744e-002 2.520458e-001 8.768127e-002 1.166651e-001 1.953720e-001 1.542091e-001 3.438871e-003 2.551484e-001
<VARIANCE> 25
 9.275081e+001 5.649057e+001 6.718433e+001 4.658861e+001 3.835621e+001 4.452342e+001 4.448641e+001 3.966282e+001 3.775473e+001 3.999797e+001 2.943233e+001 2.402252e+001 4.279281e+000 3.169607e+000 3.424052e+000 2.334503e+000 2.217326e+000 2.647681e+000 2.876563e+000 2.470760e+000 2.522258e+000 2.316375e+000 2.175146e+000 1.788041e+000 3.206371e+000
<GCONST> 1.040649e+002
<STATE> 3
<MEAN> 25
 -7.708517e+000 -3.399616e-001 -7.418602e-001 5.976030e-001 7.393404e-001 1.061327e+000 4.470152e+000 1.996641e-001 8.827529e-001 2.522053e+000 1.984932e+000 4.525603e-001 -3.812625e-001 -6.147472e-002 1.553951e-001 -2.009115e-001 -5.092150e-003 -8.894365e-002 4.591224e-004 1.234263e-001 1.019441e-001 2.473105e-003 3.794727e-002 -1.976911e-002 5.336316e-001
<VARIANCE> 25
 1.119447e+002 7.106716e+001 8.827187e+001 5.593289e+001 3.969571e+001 5.069419e+001 5.043922e+001 4.304377e+001 3.725709e+001 3.782505e+001 2.965815e+001 2.308275e+001 6.837120e+000 3.693744e+000 3.768479e+000 2.420601e+000 2.378076e+000 3.014277e+000 3.175923e+000 2.674048e+000 2.570850e+000 2.630646e+000 2.311369e+000 1.832437e+000 3.077803e+000
<GCONST> 1.065305e+002
<STATE> 4
<MEAN> 25
 -9.592638e+000 -2.047259e+000 8.245416e-001 -1.288023e+000 1.596017e-001 1.106707e+000 4.025404e+000 5.831861e-001 1.292986e+000 2.498732e+000 2.265385e+000 2.335016e-001 4.739831e-001 -6.703129e-003 -6.339648e-002 -5.025473e-002 -2.167368e-002 -7.427954e-002 -9.698850e-002 2.911183e-002 -2.634655e-002 -1.474106e-001 -1.026693e-001 -3.085197e-002 1.537295e-001
<VARIANCE> 25
 1.640553e+002 1.104199e+002 1.211838e+002 6.883597e+001 3.991098e+001 7.312819e+001 5.405928e+001 4.631340e+001 3.323883e+001 3.975167e+001 2.883135e+001 2.338389e+001 4.379089e+000 2.755263e+000 2.528349e+000 1.997822e+000 1.901206e+000 2.352003e+000 2.414264e+000 2.391406e+000 2.254577e+000 2.286029e+000 2.000518e+000 1.645595e+000 1.698112e+000
<GCONST> 1.050065e+002
<TRANSP> 5
 0.000000e+000 1.000000e+000 0.000000e+000 0.000000e+000 0.000000e+000
 0.000000e+000 7.130747e-001 2.869253e-001 0.000000e+000 0.000000e+000
 0.000000e+000 0.000000e+000 7.133595e-001 2.866404e-001 0.000000e+000
 0.000000e+000 0.000000e+000 0.000000e+000 8.496328e-001 1.503672e-001
 0.000000e+000 0.000000e+000 0.000000e+000 0.000000e+000 0.000000e+000
<ENDHMM>
~h "t"
<BEGINHMM>
<NUMSTATES> 5
<STATE> 2
<MEAN> 25
 -9.644578e-002 1.325036e+000 -8.282369e-002 1.474772e+000 9.596959e-001 3.603783e-001 8.128401e-001 -9.222074e-001 3.966633e-001 3.400956e-001 -7.206591e-001 -4.583502e-001 -3.176082e-002 6.829947e-002 1.716270e-001 -4.455967e-002 -9.558520e-002 -2.700990e-001 -2.793845e-002 3.019691e-002 8.550338e-002 4.055358e-002 -6.839960e-002 -1.142474e-001 2.106942e-001
<VARIANCE> 25
 5.733626e+001 4.972902e+001 6.047868e+001 5.408815e+001 5.209132e+001 5.181443e+001 5.825167e+001 4.572614e+001 4.530529e+001 4.851167e+001 4.383742e+001 3.538744e+001 2.675043e+000 3.148226e+000 3.013919e+000 3.073094e+000 3.149016e+000 4.689352e+000 4.828992e+000 3.783031e+000 3.704611e+000 3.666041e+000 2.987030e+000 2.646087e+000 5.027487e+000
<GCONST> 1.090708e+002
<STATE> 3
<MEAN> 25
 3.297158e-001 1.407394e+000 3.315583e-001 1.147012e+000 3.458454e-001 -7.745981e-001 6.989554e-002 -7.210853e-001 4.260555e-001 3.434688e-001 -8.012102e-001 -7.270175e-001 1.944586e-001 7.785796e-002 8.969277e-002 -1.499468e-001 -2.486559e-001 -2.363903e-001 -2.472156e-001 3.627277e-002 -1.080678e-001 -4.342035e-002 1.330151e-002 -1.200818e-001 3.131783e-001
<VARIANCE> 25
 6.096712e+001 5.096271e+001 6.372659e+001 5.455987e+001 5.814179e+001 6.258955e+001 6.998046e+001 4.943579e+001 4.847274e+001 5.302088e+001 4.169270e+001 3.877596e+001 3.203127e+000 3.480729e+000 3.005080e+000 3.224655e+000 3.350075e+000 5.049126e+000 5.544228e+000 4.155428e+000 3.895935e+000 3.659747e+000 3.043351e+000 2.868931e+000 4.203816e+000
<GCONST> 1.106385e+002
<STATE> 4
<MEAN> 25
 1.695413e+000 2.413175e+000 1.876180e+000 1.930456e-001 -1.907743e+000 -6.693696e-001 -5.046186e-001 -1.359534e+000 -4.034561e-001 1.059046e-001 -2.546029e-001 -1.334468e+000 -5.784930e-002 5.503568e-002 5.671374e-002 -6.034924e-002 -9.729531e-002 3.430411e-003 -1.753975e-002 -8.998270e-002 -2.404206e-002 3.743991e-002 2.833219e-002 -2.869682e-002 1.154033e-002
<VARIANCE> 25
 7.109302e+001 5.766829e+001 8.363776e+001 6.942286e+001 8.867639e+001 5.720187e+001 7.192475e+001 5.433145e+001 5.228405e+001 5.284090e+001 5.108160e+001 4.238913e+001 1.594247e+000 2.302626e+000 1.994356e+000 2.310393e+000 2.326323e+000 2.834295e+000 3.307099e+000 3.029604e+000 2.841026e+000 2.557710e+000 2.350436e+000 2.045820e+000 2.174460e+000
<GCONST> 1.066882e+002
<TRANSP> 5
 0.000000e+000 1.000000e+000 0.000000e+000 0.000000e+000 0.000000e+000
 0.000000e+000 6.457840e-001 3.542161e-001 0.000000e+000 0.000000e+000
 0.000000e+000 0.000000e+000 6.380790e-001 3.619210e-001 0.000000e+000
 0.000000e+000 0.000000e+000 0.000000e+000 7.082102e-001 2.917898e-001
 0.000000e+000 0.000000e+000 0.000000e+000 0.000000e+000 0.000000e+000
<ENDHMM>
~h "y"
<BEGINHMM>
<NUMSTATES> 5
<STATE> 2
<MEAN> 25
 3.056911e+000 7.206833e-001 1.243145e+000 1.980997e+000 1.213185e+000 1.299815e+000 -2.775309e+000 -5.255910e-001 -3.640675e-001 -1.953305e+000 -2.629097e-001 1.689432e-001 -3.447488e-001 1.505843e-001 7.060330e-002 -3.835280e-002 -8.971574e-002 9.378363e-002 1.052638e-001 -1.046034e-002 1.420312e-001 2.391824e-001 4.848877e-002 -3.033118e-002 -3.642319e-001
<VARIANCE> 25
 3.145354e+001 4.033775e+001 2.039494e+001 2.365053e+001 2.738298e+001 3.352313e+001 2.950827e+001 1.975869e+001 2.465602e+001 2.447351e+001 2.493027e+001 1.788289e+001 2.756456e-001 4.422736e-001 5.929180e-001 7.303230e-001 9.370316e-001 1.168475e+000 1.189032e+000 1.214039e+000 1.326806e+000 1.548389e+000 1.082767e+000 9.177432e-001 1.696839e-001
<GCONST> 8.142053e+001
<STATE> 3
<MEAN> 25
 3.844936e-001 1.887764e+000 1.394166e+000 2.467644e+000 1.097354e+000 1.564785e+000 -1.952803e+000 -5.751139e-001 4.428102e-001 -2.495580e-001 -2.279335e-001 -9.561641e-002 -3.474692e-001 2.171248e-002 -3.043264e-002 -3.438699e-002 2.747983e-002 1.262941e-001 1.767988e-001 5.772788e-002 1.218485e-001 2.301473e-001 4.731667e-002 -4.143645e-002 -2.921949e-001
<VARIANCE> 25
 3.133056e+001 2.730296e+001 1.881928e+001 1.871741e+001 1.874310e+001 3.283098e+001 2.593978e+001 1.967017e+001 2.162779e+001 2.506469e+001 2.584444e+001 1.826282e+001 2.560664e-001 4.823875e-001 6.230994e-001 8.172572e-001 8.348557e-001 1.137226e+000 1.307587e+000 1.445914e+000 1.446475e+000 1.599494e+000 1.300013e+000 9.553439e-001 2.203353e-001
<GCONST> 8.103408e+001
<STATE> 4
<MEAN> 25
 -1.341146e+000 6.762068e-001 5.935132e-001 1.451598e-001 3.231238e-001 1.003612e+000 2.861814e-001 -3.469519e-001 -5.073707e-002 5.088515e-001 9.893143e-002 -1.698226e-001 -1.724964e-002 -3.948317e-003 1.754844e-003 -2.371905e-003 1.490067e-003 -1.746745e-004 5.746435e-003 1.801254e-003 2.843251e-005 6.107016e-003 4.586364e-003 -1.306102e-003 -9.483702e-003
<VARIANCE> 25
 5.642154e+001 2.339623e+001 2.296976e+001 1.709661e+001 1.675014e+001 2.477646e+001 2.149998e+001 2.013737e+001 2.571580e+001 3.539906e+001 2.222941e+001 1.945775e+001 4.755211e-001 6.156154e-001 6.830029e-001 7.932414e-001 7.996691e-001 9.573117e-001 1.155532e+000 1.064029e+000 1.217525e+000 1.299427e+000 1.118621e+000 9.303830e-001 3.694649e-001
<GCONST> 8.168886e+001
<TRANSP> 5
 0.000000e+000 1.000000e+000 0.000000e+000 0.000000e+000 0.000000e+000
 0.000000e+000 8.380361e-001 1.619639e-001 0.000000e+000 0.000000e+000
 0.000000e+000 0.000000e+000 8.730415e-001 1.269585e-001 0.000000e+000
 0.000000e+000 0.000000e+000 0.000000e+000 9.966439e-001 3.356066e-003
 0.000000e+000 0.000000e+000 0.000000e+000 0.000000e+000 0.000000e+000
<ENDHMM>
~h "aa"
<BEGINHMM>
<NUMSTATES> 5
<STATE> 2
<MEAN> 25
 1.347565e+000 -2.798811e+000 -2.547280e+000 -7.879432e-002 1.917054e+000 -2.001932e-001 2.237038e+000 1.194968e+000 1.193713e-001 -7.265543e-001 -3.343193e-001 4.848100e-001 -1.171074e-001 -2.101636e-002 -1.876533e-002 6.002868e-002 5.737098e-002 1.170970e-001 9.037565e-002 4.028950e-002 1.036534e-001 8.302784e-002 4.129095e-002 7.443532e-002 -2.262732e-001
<VARIANCE> 25
 6.430455e+001 7.210230e+001 4.408791e+001 5.490597e+001 4.818781e+001 4.552908e+001 4.342778e+001 3.786209e+001 3.917510e+001 5.387567e+001 3.977594e+001 2.869673e+001 1.012952e+000 1.853954e+000 1.529088e+000 1.708820e+000 1.952953e+000 1.963091e+000 2.117816e+000 1.986844e+000 1.981100e+000 2.089404e+000 1.922580e+000 1.632319e+000 1.665250e+000
<GCONST> 9.941936e+001
<STATE> 3
<MEAN> 25
 7.844831e-001 -2.616098e+000 -2.486389e+000 1.479949e-001 1.972361e+000 2.158148e-001 2.278835e+000 1.254453e+000 4.230546e-001 -3.657592e-001 -9.569471e-002 7.322357e-001 -1.341669e-001 6.669027e-002 1.506049e-002 5.906519e-002 -2.209762e-002 7.954711e-002 8.798591e-004 -9.189702e-003 5.726555e-002 9.534766e-002 5.208039e-002 4.045735e-002 -2.684115e-001
<VARIANCE> 25
 6.402764e+001 6.821262e+001 4.042862e+001 5.266120e+001 4.212941e+001 4.255143e+001 4.154744e+001 3.528571e+001 3.749435e+001 5.093559e+001 3.705984e+001 2.720413e+001 9.337580e-001 1.651715e+000 1.394747e+000 1.587955e+000 1.761169e+000 1.861724e+000 1.963821e+000 1.814594e+000 1.851393e+000 1.950400e+000 1.816434e+000 1.556778e+000 1.563507e+000
<GCONST> 9.770178e+001
<STATE> 4
<MEAN> 25
 -6.077523e-001 -2.583720e+000 -2.417742e+000 -1.367038e-001 1.524493e+000 4.923889e-001 2.051593e+000 1.411426e+000 9.346191e-001 7.386333e-001 2.216847e-001 7.979803e-001 -1.102206e-001 1.766193e-001 6.995934e-002 8.578497e-002 -4.638729e-002 4.185431e-002 5.893164e-003 -5.611982e-002 -3.070232e-003 6.889784e-002 1.284030e-002 -2.740803e-002 -2.378000e-001
<VARIANCE> 25
 8.356445e+001 7.703229e+001 4.082731e+001 6.654118e+001 3.184914e+001 4.014788e+001 4.010749e+001 3.153477e+001 3.602604e+001 4.371733e+001 3.275508e+001 2.924706e+001 5.626650e-001 1.101959e+000 9.494603e-001 1.167571e+000 1.189151e+000 1.279587e+000 1.429431e+000 1.418642e+000 1.478365e+000 1.439502e+000 1.373189e+000 1.218127e+000 7.400324e-001
<GCONST> 9.286745e+001
<TRANSP> 5
 0.000000e+000 1.000000e+000 0.000000e+000 0.000000e+000 0.000000e+000
 0.000000e+000 6.641982e-001 3.358019e-001 0.000000e+000 0.000000e+000
 0.000000e+000 0.000000e+000 6.644370e-001 3.355630e-001 0.000000e+000
 0.000000e+000 0.000000e+000 0.000000e+000 8.423461e-001 1.576539e-001
 0.000000e+000 0.000000e+000 0.000000e+000 0.000000e+000 0.000000e+000
<ENDHMM>
~h "eu"
<BEGINHMM>
<NUMSTATES> 5
<STATE> 2
<MEAN> 25
 -1.763543e+000 6.886657e-001 1.294223e+000 1.879511e-001 7.257667e-001 -3.849819e-001 5.531304e-001 3.005927e-001 6.144837e-001 -1.355210e-001 4.146924e-001 -1.133771e-002 1.032372e+000 -2.505931e-001 3.549330e-001 -3.774254e-001 -1.049152e-001 -4.215347e-001 -6.461986e-001 -7.435924e-002 -2.857939e-001 -5.930907e-001 -1.326693e-001 -1.459587e-001 1.243997e+000
<VARIANCE> 25
 9.082846e+001 7.719453e+001 7.633276e+001 6.503369e+001 5.943997e+001 6.966718e+001 8.356232e+001 5.510081e+001 5.690832e+001 6.079151e+001 4.858398e+001 3.286602e+001 6.721977e+000 6.049082e+000 5.195660e+000 5.678362e+000 4.664608e+000 5.598761e+000 6.566971e+000 5.045507e+000 5.382609e+000 5.138852e+000 4.306967e+000 2.893363e+000 5.193064e+000
<GCONST> 1.169432e+002
<STATE> 3
<MEAN> 25
 1.568822e+000 -6.740338e-001 2.207425e+000 -1.337795e+000 3.276884e-001 -1.721590e+000 -1.736748e+000 3.025821e-001 -4.099518e-002 -2.231999e+000 -3.862863e-002 -3.112644e-001 1.078580e+000 -5.102437e-001 3.364946e-002 -4.622361e-001 -1.595430e-001 -3.697778e-001 -6.782072e-001 1.543593e-002 -2.321240e-001 -6.023486e-001 -9.594478e-002 -9.738114e-002 1.251874e+000
<VARIANCE> 25
 8.690979e+001 9.171127e+001 8.499984e+001 7.800388e+001 7.609425e+001 7.965962e+001 9.698417e+001 6.374453e+001 7.622367e+001 7.243382e+001 5.330246e+001 3.562046e+001 6.282987e+000 7.006801e+000 5.139123e+000 6.119773e+000 5.177854e+000 5.741553e+000 7.145718e+000 5.598602e+000 5.994123e+000 5.618886e+000 4.319583e+000 3.311934e+000 6.197830e+000
<GCONST> 1.196504e+002
<STATE> 4
<MEAN> 25
 5.849522e+000 -7.248807e+000 3.988394e+000 -8.066642e+000 7.678877e-001 1.196163e-001 -5.886979e+000 1.156299e+000 -6.285481e-001 -7.781737e-001 1.626995e+000 -2.821724e+000 1.372600e-001 -4.244850e-003 -1.316923e-001 -1.893494e-002 4.461651e-002 9.660183e-003 3.161389e-002 -6.028831e-002 -8.871941e-002 -5.178139e-002 -9.557472e-002 -3.790694e-002 6.988955e-002
<VARIANCE> 25
 8.374210e+001 1.434851e+002 8.807557e+001 1.289617e+002 6.693106e+001 7.461308e+001 1.075735e+002 6.940627e+001 8.877946e+001 1.004523e+002 7.858004e+001 5.253656e+001 1.925467e+000 4.534941e+000 2.413491e+000 3.768238e+000 2.705494e+000 2.860604e+000 4.137163e+000 3.471165e+000 3.629442e+000 3.280590e+000 3.143675e+000 2.404782e+000 2.788671e+000
<GCONST> 1.141452e+002
<TRANSP> 5
 0.000000e+000 1.000000e+000 0.000000e+000 0.000000e+000 0.000000e+000
 0.000000e+000 7.089742e-001 2.910258e-001 0.000000e+000 0.000000e+000
 0.000000e+000 0.000000e+000 7.281795e-001 2.718205e-001 0.000000e+000
 0.000000e+000 0.000000e+000 0.000000e+000 8.804631e-001 1.195369e-001
 0.000000e+000 0.000000e+000 0.000000e+000 0.000000e+000 0.000000e+000
<ENDHMM>
~h "hh"
<BEGINHMM>
<NUMSTATES> 5
<STATE> 2
<MEAN> 25
 8.170037e-001 1.235835e+000 -1.123628e+000 9.000915e-002 4.532650e-001 1.180205e+000 1.876927e+000 1.392502e-001 4.222498e-001 1.215881e+000 -6.933664e-001 -4.298911e-001 -3.363523e-002 2.077795e-001 -2.274554e-002 1.102585e-001 1.937750e-001 8.050674e-002 2.592585e-002 2.044376e-002 1.266187e-001 9.679502e-002 -1.073384e-001 6.507006e-002 -1.015943e-001
<VARIANCE> 25
 5.144074e+001 5.292562e+001 5.497831e+001 6.410447e+001 6.289635e+001 4.997042e+001 6.946928e+001 6.015119e+001 5.231628e+001 4.734704e+001 5.184697e+001 3.518311e+001 1.849989e+000 3.149075e+000 2.808569e+000 3.020857e+000 3.147134e+000 3.178631e+000 3.611286e+000 3.539450e+000 3.198071e+000 2.789026e+000 2.974303e+000 2.495270e+000 1.972636e+000
<GCONST> 1.073615e+002
<STATE> 3
<MEAN> 25
 5.376852e-001 1.399890e+000 -1.437793e+000 3.980940e-001 1.151925e+000 1.301219e+000 1.659886e+000 2.359205e-001 7.015976e-001 1.484469e+000 -6.553547e-001 1.812963e-001 -5.885329e-002 9.062879e-002 -3.955730e-002 5.343737e-002 4.776812e-002 -1.296954e-002 -7.818886e-002 -2.260212e-002 -7.675370e-003 3.144862e-002 5.836445e-002 1.568336e-001 -4.844008e-002
<VARIANCE> 25
 5.257118e+001 5.167942e+001 5.575142e+001 5.960562e+001 5.887247e+001 4.665499e+001 7.013139e+001 5.898592e+001 5.745127e+001 4.770791e+001 5.299494e+001 3.461515e+001 1.666864e+000 2.845575e+000 2.769290e+000 2.891422e+000 3.072750e+000 2.986774e+000 3.531177e+000 3.249698e+000 3.167474e+000 2.737174e+000 2.866740e+000 2.446691e+000 1.739030e+000
<GCONST> 1.065943e+002
<STATE> 4
<MEAN> 25
 5.876106e-002 1.354201e+000 -1.201291e+000 4.030996e-001 5.451005e-001 8.051732e-001 1.278040e+000 -4.101683e-001 3.053812e-001 1.470072e+000 -2.733100e-001 6.592175e-001 -1.315674e-001 4.932361e-002 8.397306e-003 5.883944e-002 -1.724780e-002 1.856261e-002 2.858685e-002 -3.354658e-002 2.648014e-002 -1.633390e-003 8.388208e-002 4.534255e-002 -1.497411e-001
<VARIANCE> 25
 6.160774e+001 5.830397e+001 5.380584e+001 5.979811e+001 5.444135e+001 4.168419e+001 6.235431e+001 5.969846e+001 6.264704e+001 4.631914e+001 5.678076e+001 3.488783e+001 7.779025e-001 1.453402e+000 1.493413e+000 1.684303e+000 1.757138e+000 1.804843e+000 2.195555e+000 2.257951e+000 2.251878e+000 2.018608e+000 2.178331e+000 1.718195e+000 6.874402e-001
<GCONST> 9.998298e+001
<TRANSP> 5
 0.000000e+000 1.000000e+000 0.000000e+000 0.000000e+000 0.000000e+000
 0.000000e+000 6.614581e-001 3.385419e-001 0.000000e+000 0.000000e+000
 0.000000e+000 0.000000e+000 6.505853e-001 3.494147e-001 0.000000e+000
 0.000000e+000 0.000000e+000 0.000000e+000 7.664138e-001 2.335862e-001
 0.000000e+000 0.000000e+000 0.000000e+000 0.000000e+000 0.000000e+000
<ENDHMM>
~h "ih"
<BEGINHMM>
<NUMSTATES> 5
<STATE> 2
<MEAN> 25
 1.627010e+000 1.643026e+000 8.720542e+000 2.521398e+000 -9.257477e-001 -3.742503e+000 -5.158289e+000 -6.043428e-001 -1.104728e+000 -3.542689e+000 -1.448161e+000 -1.135964e+000 4.179978e-002 5.240468e-002 6.550379e-001 -1.421062e-001 -1.367782e-001 -2.279371e-001 -5.692174e-001 -5.318594e-002 -5.073604e-002 -2.688518e-001 -1.194957e-001 -1.144312e-002 5.401680e-001
<VARIANCE> 25
 4.269390e+001 8.456455e+001 1.248420e+002 9.899449e+001 9.215740e+001 8.173940e+001 1.065406e+002 7.401843e+001 6.265505e+001 7.695001e+001 5.600568e+001 4.449233e+001 2.308586e+000 4.936472e+000 6.308414e+000 5.511450e+000 4.782184e+000 5.074072e+000 6.764959e+000 4.849380e+000 4.388723e+000 4.686462e+000 3.677587e+000 3.500237e+000 4.134827e+000
<GCONST> 1.174220e+002
<STATE> 3
<MEAN> 25
 1.457793e+000 2.046686e+000 9.026978e+000 1.615060e+000 -4.339486e-001 -3.353589e+000 -6.110538e+000 -1.477399e+000 -6.721796e-001 -3.443469e+000 -1.889287e+000 -7.519915e-001 6.130294e-002 -3.622507e-002 2.734236e-001 -2.444328e-001 -1.389871e-001 8.452605e-003 -2.951205e-001 -4.128943e-002 -8.582623e-003 -1.261182e-001 -2.628264e-004 8.710130e-002 2.663482e-001
<VARIANCE> 25
 4.008482e+001 9.383630e+001 1.212824e+002 1.175586e+002 1.056411e+002 7.483790e+001 1.055257e+002 7.190384e+001 6.244394e+001 7.026228e+001 5.713213e+001 4.997194e+001 1.815377e+000 4.678437e+000 5.334912e+000 4.934532e+000 4.349496e+000 4.557814e+000 6.263767e+000 4.189070e+000 3.985260e+000 3.887677e+000 3.587582e+000 3.282651e+000 3.352141e+000
<GCONST> 1.160776e+002
<STATE> 4
<MEAN> 25
 2.831828e+000 2.321198e+000 1.250468e+001 -4.109510e-001 -3.585529e+000 -2.424648e+000 -7.603931e+000 -1.990589e+000 -1.578320e+000 -4.921412e+000 -9.910722e-001 -1.178112e+000 4.683939e-002 3.845074e-002 -4.249994e-001 1.006104e-001 1.214706e-001 1.645668e-001 3.247707e-001 -6.188454e-002 -7.821731e-003 1.369584e-001 3.715892e-002 -2.654147e-002 -3.890387e-001
<VARIANCE> 25
 3.421238e+001 8.982669e+001 1.320113e+002 1.430468e+002 1.272230e+002 6.338097e+001 8.101461e+001 6.906028e+001 6.832996e+001 6.527111e+001 7.831655e+001 5.338613e+001 8.148170e-001 2.036362e+000 2.472896e+000 2.761995e+000 2.477269e+000 2.568638e+000 3.095633e+000 2.887067e+000 2.602598e+000 2.485908e+000 2.486633e+000 2.221251e+000 1.184109e+000
<GCONST> 1.084030e+002
<TRANSP> 5
 0.000000e+000 1.000000e+000 0.000000e+000 0.000000e+000 0.000000e+000
 0.000000e+000 7.960771e-001 2.039229e-001 0.000000e+000 0.000000e+000
 0.000000e+000 0.000000e+000 7.634026e-001 2.365974e-001 0.000000e+000
 0.000000e+000 0.000000e+000 0.000000e+000 9.050612e-001 9.493873e-002
 0.000000e+000 0.000000e+000 0.000000e+000 0.000000e+000 0.000000e+000
<ENDHMM>
~h "jh"
<BEGINHMM>
<NUMSTATES> 5
<STATE> 2
<MEAN> 25
 -1.372494e+000 3.803630e+000 2.116053e+000 1.879491e+000 1.190991e+000 1.450781e+000 8.334509e-001 -4.407673e-001 3.483050e-001 7.284474e-001 -8.395528e-001 -6.094978e-001 -5.880539e-001 -4.810294e-002 4.092403e-002 -6.554931e-002 2.555719e-001 -7.135227e-002 2.724664e-001 9.091821e-002 1.362343e-002 1.974214e-001 1.201172e-001 -1.841250e-002 8.292707e-003
<VARIANCE> 25
 6.740961e+001 3.776953e+001 4.955645e+001 3.132875e+001 3.349429e+001 3.819151e+001 4.194681e+001 3.344141e+001 3.731202e+001 3.476522e+001 3.425909e+001 2.454203e+001 4.013277e+000 1.720907e+000 1.942329e+000 2.276165e+000 3.090335e+000 2.991810e+000 2.582763e+000 2.004816e+000 2.427423e+000 1.990325e+000 1.606990e+000 1.440757e+000 2.285855e+000
<GCONST> 9.996813e+001
<STATE> 3
<MEAN> 25
 -3.154213e+000 3.245983e+000 1.963545e+000 1.422913e+000 1.459054e+000 8.571654e-001 1.605369e+000 1.502419e-001 3.148566e-001 1.383317e+000 -1.883575e-001 -5.558354e-001 -2.362006e-001 -1.508308e-001 -8.883952e-002 -1.300391e-001 -3.128446e-002 -1.938531e-001 1.374980e-001 1.351321e-001 -3.036868e-002 7.595128e-002 7.936778e-002 2.826768e-002 1.693128e-001
<VARIANCE> 25
 7.258817e+001 3.883706e+001 4.784447e+001 3.496992e+001 3.427561e+001 4.498637e+001 3.610645e+001 3.205619e+001 3.617632e+001 3.298340e+001 3.243553e+001 2.340885e+001 4.732730e+000 2.148917e+000 2.200103e+000 2.108485e+000 3.425878e+000 3.070776e+000 2.581569e+000 1.962182e+000 2.363313e+000 2.359433e+000 1.723706e+000 1.424261e+000 1.910000e+000
<GCONST> 1.005185e+002
<STATE> 4
<MEAN> 25
 -5.745727e+000 3.591527e+000 1.749840e+000 1.028763e+000 1.563360e+000 1.977784e+000 2.125838e+000 -2.478821e-001 3.888991e-001 2.227759e+000 1.482557e-001 -4.553990e-001 1.353331e-002 -1.473523e-001 -5.970766e-002 -5.745231e-002 -5.953818e-002 4.542711e-004 4.280242e-002 5.335374e-002 1.735011e-002 -1.502987e-002 1.004516e-003 2.926697e-002 1.289584e-002
<VARIANCE> 25
 7.215855e+001 3.205859e+001 3.697426e+001 2.881067e+001 2.202494e+001 4.056135e+001 2.669322e+001 2.976991e+001 2.925347e+001 2.797413e+001 2.368972e+001 2.012734e+001 1.886428e+000 1.599715e+000 1.266969e+000 1.075212e+000 1.706964e+000 1.632375e+000 1.635717e+000 1.514781e+000 1.568150e+000 1.726793e+000 1.340266e+000 1.118156e+000 8.458164e-001
<GCONST> 9.159064e+001
<TRANSP> 5
 0.000000e+000 1.000000e+000 0.000000e+000 0.000000e+000 0.000000e+000
 0.000000e+000 7.181830e-001 2.818170e-001 0.000000e+000 0.000000e+000
 0.000000e+000 0.000000e+000 7.214347e-001 2.785653e-001 0.000000e+000
 0.000000e+000 0.000000e+000 0.000000e+000 8.584395e-001 1.415605e-001
 0.000000e+000 0.000000e+000 0.000000e+000 0.000000e+000 0.000000e+000
<ENDHMM>
~h "ng"
<BEGINHMM>
<NUMSTATES> 5
<STATE> 2
<MEAN> 25
 3.066813e+000 4.266634e+000 1.379583e+000 3.134030e+000 1.253033e-003 -2.544848e-001 -7.545314e-001 -3.311275e+000 -1.840001e+000 -3.063982e-001 -2.141525e+000 -2.527109e+000 -4.324888e-001 8.850806e-002 -5.398400e-002 1.799322e-001 2.515244e-001 2.433222e-001 2.806885e-001 8.678643e-003 1.370272e-001 2.162312e-001 5.350638e-003 8.949576e-002 -4.878055e-001
<VARIANCE> 25
 6.221772e+001 4.043655e+001 4.034503e+001 3.848324e+001 4.489302e+001 4.325640e+001 6.755217e+001 6.240353e+001 5.795714e+001 5.023784e+001 4.262417e+001 4.475415e+001 6.552253e-001 1.426706e+000 2.008972e+000 1.820877e+000 2.104116e+000 2.413775e+000 2.647807e+000 2.876995e+000 2.558499e+000 2.830187e+000 2.481186e+000 2.110868e+000 4.554912e-001
<GCONST> 1.003073e+002
<STATE> 3
<MEAN> 25
 5.818861e-001 3.850139e+000 1.017363e+000 3.490747e+000 9.348623e-001 7.597728e-001 6.172282e-001 -2.324127e+000 -6.779733e-001 7.030021e-001 -1.473649e+000 -1.562838e+000 -4.746799e-001 -9.634126e-002 -1.122240e-001 2.627496e-002 1.146792e-001 2.069103e-001 3.053814e-001 1.370723e-001 1.919210e-001 2.439793e-001 1.598509e-001 1.850311e-001 -3.918493e-001
<VARIANCE> 25
 5.969969e+001 3.432782e+001 3.948721e+001 3.737015e+001 3.759008e+001 3.824204e+001 5.505768e+001 5.556149e+001 5.266232e+001 4.306226e+001 3.906083e+001 3.866896e+001 5.556898e-001 1.209558e+000 1.682452e+000 1.553511e+000 1.834350e+000 2.266792e+000 2.330456e+000 2.466568e+000 2.376999e+000 2.445441e+000 2.217728e+000 1.907064e+000 3.951264e-001
<GCONST> 9.722330e+001
<STATE> 4
<MEAN> 25
 -4.062978e+000 3.135377e+000 -4.153860e-001 3.820787e+000 1.441117e+000 1.121403e+000 2.635998e+000 -2.152582e-001 1.107432e+000 2.151581e+000 -1.407402e-001 5.266516e-001 -2.597581e-001 -1.003346e-001 -6.704888e-002 -4.299177e-002 6.320620e-003 5.448263e-002 1.101017e-001 1.261209e-001 1.235091e-001 1.129655e-001 1.154604e-001 9.841632e-002 -1.640150e-001
<VARIANCE> 25
 5.357874e+001 2.262420e+001 3.010962e+001 3.198124e+001 2.149103e+001 2.441047e+001 2.796987e+001 3.606825e+001 3.626391e+001 2.746407e+001 2.734598e+001 2.658246e+001 4.379888e-001 7.046746e-001 8.998278e-001 9.835230e-001 1.067326e+000 1.246976e+000 1.431209e+000 1.476129e+000 1.530014e+000 1.545885e+000 1.475633e+000 1.272433e+000 2.868475e-001
<GCONST> 8.656696e+001
<TRANSP> 5
 0.000000e+000 1.000000e+000 0.000000e+000 0.000000e+000 0.000000e+000
 0.000000e+000 7.000747e-001 2.999253e-001 0.000000e+000 0.000000e+000
 0.000000e+000 0.000000e+000 6.916873e-001 3.083127e-001 0.000000e+000
 0.000000e+000 0.000000e+000 0.000000e+000 8.789613e-001 1.210387e-001
 0.000000e+000 0.000000e+000 0.000000e+000 0.000000e+000 0.000000e+000
<ENDHMM>
~h "ny"
<BEGINHMM>
<NUMSTATES> 5
<STATE> 2
<MEAN> 25
 1.571928e+000 6.840394e-001 4.551019e+000 -1.075872e+000 1.234429e-001 -5.368721e-001 -1.986441e+000 -1.824448e+000 -1.248210e+000 1.038984e-001 8.537673e-002 -2.059727e+000 4.213334e-001 -1.194981e-001 7.313897e-001 -3.754859e-001 -1.874911e-001 -3.316897e-001 -5.340838e-001 -1.411140e-001 -4.247430e-001 -3.175170e-001 -5.256433e-002 -2.486637e-001 1.119369e+000
<VARIANCE> 25
 6.045540e+001 9.286198e+001 1.018991e+002 8.903864e+001 6.298484e+001 6.570639e+001 8.653864e+001 5.782082e+001 6.290451e+001 5.990469e+001 6.841589e+001 4.634050e+001 3.708927e+000 6.832071e+000 6.928544e+000 6.474768e+000 4.873235e+000 5.474616e+000 6.371789e+000 4.372178e+000 4.192148e+000 3.885707e+000 5.056063e+000 3.418769e+000 4.788815e+000
<GCONST> 1.176887e+002
<STATE> 3
<MEAN> 25
 3.133509e+000 -5.846288e-001 5.777040e+000 -1.653698e+000 -2.354416e-001 -2.234553e+000 -2.699672e+000 -1.932039e+000 -2.584832e+000 -1.325078e+000 -6.800818e-001 -2.633988e+000 3.144189e-001 -5.806788e-001 -3.263026e-002 -2.623259e-001 -3.295093e-002 -2.883495e-001 -1.683324e-001 1.162750e-001 -2.908937e-001 -2.905769e-001 1.174506e-001 -2.953556e-002 7.947826e-001
<VARIANCE> 25
 4.991193e+001 1.061001e+002 1.069781e+002 1.073298e+002 6.742214e+001 7.436649e+001 1.048166e+002 6.817883e+001 6.343799e+001 6.266035e+001 7.458177e+001 4.744250e+001 2.506462e+000 6.402453e+000 7.077410e+000 5.942116e+000 4.817048e+000 5.810968e+000 6.623557e+000 4.503580e+000 4.496703e+000 4.394989e+000 4.571975e+000 3.262742e+000 3.406558e+000
<GCONST> 1.178776e+002
<STATE> 4
<MEAN> 25
 6.127372e+000 -2.400094e+000 3.975118e+000 -4.819020e+000 -2.090572e+000 -7.844326e-001 -2.170598e+000 -1.153622e+000 -6.459996e+000 -3.735209e+000 2.553848e+000 -2.623684e+000 -5.702561e-002 6.660823e-002 -1.535877e-001 1.218999e-001 5.782290e-002 7.675828e-002 1.077493e-001 -9.169623e-003 7.023288e-002 3.176302e-002 -4.635070e-002 6.705563e-002 -2.167922e-001
<VARIANCE> 25
 4.287253e+001 1.126646e+002 1.041870e+002 1.088247e+002 8.179517e+001 8.764429e+001 9.566698e+001 8.840269e+001 7.240370e+001 6.561738e+001 1.181760e+002 6.269749e+001 7.530335e-001 2.542295e+000 2.837039e+000 2.607154e+000 2.491729e+000 3.018332e+000 3.011839e+000 2.746470e+000 2.695263e+000 2.427113e+000 3.223863e+000 2.403744e+000 1.020259e+000
<GCONST> 1.097892e+002
<TRANSP> 5
 0.000000e+000 1.000000e+000 0.000000e+000 0.000000e+000 0.000000e+000
 0.000000e+000 7.898761e-001 2.101239e-001 0.000000e+000 0.000000e+000
 0.000000e+000 0.000000e+000 8.010154e-001 1.989846e-001 0.000000e+000
 0.000000e+000 0.000000e+000 0.000000e+000 9.481449e-001 5.185509e-002
 0.000000e+000 0.000000e+000 0.000000e+000 0.000000e+000 0.000000e+000
<ENDHMM>
~h "uw"
<BEGINHMM>
<NUMSTATES> 5
<STATE> 2
<MEAN> 25
 5.242284e+000 3.285137e+000 4.207625e-001 -1.295224e+000 -3.024844e+000 -1.757204e+000 -2.224295e+000 -1.582314e+000 -2.006362e+000 -1.413016e+000 -1.300977e+000 -1.215627e+000 1.168916e-001 2.404248e-001 2.206911e-002 7.417155e-002 -1.733926e-001 -1.097474e-001 -1.421403e-001 -1.273437e-001 -2.111960e-002 -5.808870e-003 -7.256334e-002 -4.683360e-002 -7.712166e-002
<VARIANCE> 25
 6.153154e+001 5.480205e+001 5.529051e+001 6.102142e+001 7.961453e+001 7.785317e+001 7.864075e+001 7.967509e+001 6.279984e+001 6.620343e+001 5.480908e+001 4.081819e+001 1.660539e+000 2.492131e+000 2.484215e+000 2.907345e+000 3.570222e+000 4.421200e+000 4.158650e+000 4.139225e+000 3.803356e+000 3.597528e+000 3.075781e+000 2.465170e+000 1.633699e+000
<GCONST> 1.098496e+002
<STATE> 3
<MEAN> 25
 5.302420e+000 3.874022e+000 4.637243e-001 -9.430436e-001 -3.327099e+000 -1.991568e+000 -2.646954e+000 -1.860237e+000 -1.924356e+000 -1.324346e+000 -1.596678e+000 -1.369745e+000 -5.719785e-002 9.182412e-002 -5.140011e-003 8.054924e-002 1.913320e-002 3.833416e-002 3.794299e-002 -4.801748e-002 3.334356e-002 2.725033e-002 -1.983669e-002 2.803146e-002 -1.638014e-001
<VARIANCE> 25
 6.174427e+001 5.074791e+001 5.208111e+001 5.900756e+001 7.631831e+001 7.787547e+001 7.877363e+001 8.117585e+001 6.097691e+001 6.376610e+001 5.516355e+001 4.109456e+001 1.263722e+000 2.058539e+000 2.302640e+000 2.644449e+000 3.363649e+000 4.042836e+000 3.855196e+000 3.911608e+000 3.466475e+000 3.371856e+000 2.877911e+000 2.414517e+000 1.150768e+000
<GCONST> 1.080959e+002
<STATE> 4
<MEAN> 25
 5.030641e+000 4.599721e+000 4.863037e-001 -9.878908e-001 -3.405673e+000 -1.280972e+000 -1.747724e+000 -3.606574e+000 -2.866499e+000 -1.164385e+000 -5.176644e-001 -1.024634e+000 -3.020288e-001 -5.128124e-002 -3.046191e-004 1.644770e-001 1.974409e-001 1.022566e-001 1.981011e-001 4.674544e-002 1.244460e-001 1.038927e-001 1.788230e-002 2.983322e-002 -2.992464e-001
<VARIANCE> 25
 8.316329e+001 4.961150e+001 4.401496e+001 6.918616e+001 5.629778e+001 6.180069e+001 6.088935e+001 7.760766e+001 5.979435e+001 5.380226e+001 6.188350e+001 3.725228e+001 5.844336e-001 1.203632e+000 1.264991e+000 1.672709e+000 1.821003e+000 2.215444e+000 2.194630e+000 2.325559e+000 2.225703e+000 2.188039e+000 2.083624e+000 1.788145e+000 5.092283e-001
<GCONST> 1.003738e+002
<TRANSP> 5
 0.000000e+000 1.000000e+000 0.000000e+000 0.000000e+000 0.000000e+000
 0.000000e+000 6.829332e-001 3.170669e-001 0.000000e+000 0.000000e+000
 0.000000e+000 0.000000e+000 6.833411e-001 3.166589e-001 0.000000e+000
 0.000000e+000 0.000000e+000 0.000000e+000 8.525348e-001 1.474652e-001
 0.000000e+000 0.000000e+000 0.000000e+000 0.000000e+000 0.000000e+000
<ENDHMM>
~h "sil"
<BEGINHMM>
<NUMSTATES> 5
<STATE> 2
<MEAN> 25
 -8.906600e+000 1.598455e+000 -3.460542e+000 2.784822e+000 1.216831e+000 2.014913e+000 3.604443e+000 2.607952e+000 4.372492e+000 4.543298e+000 1.086171e+000 3.179506e+000 -2.788848e-003 -7.218136e-003 6.376467e-003 -1.115968e-002 -7.178989e-003 -5.918555e-003 -9.849273e-003 -3.218757e-003 5.682132e-004 1.369339e-002 6.727566e-003 -1.291554e-003 -4.385342e-003
<VARIANCE> 25
 3.741483e+001 8.078725e+000 2.360295e+001 1.983371e+001 1.595855e+001 1.911604e+001 1.250433e+001 1.511765e+001 1.690614e+001 1.364970e+001 1.734227e+001 1.555574e+001 1.064682e-001 1.829363e-001 2.898864e-001 4.029514e-001 5.487437e-001 6.484141e-001 7.686031e-001 8.641176e-001 9.132373e-001 8.746316e-001 8.369040e-001 8.070968e-001 6.323148e-002
<GCONST> 6.890208e+001
<STATE> 3
<MEAN> 25
 -4.504546e+000 1.129832e+000 -3.822142e+000 -4.722121e-002 -2.411066e+000 4.182328e+000 1.019218e-001 6.154625e-001 2.347983e+000 3.771748e+000 1.017159e+000 1.605780e+000 6.007783e-002 6.639862e-003 -3.735442e-002 2.077330e-002 -3.277034e-002 3.513040e-002 -3.516365e-002 5.519309e-003 -2.036125e-002 -1.682031e-002 -1.215174e-002 -9.942510e-003 -2.143605e-001
<VARIANCE> 25
 5.364036e+001 7.689014e+000 2.514549e+001 1.571548e+001 2.211223e+001 2.121656e+001 1.392146e+001 9.954751e+000 1.173805e+001 6.730820e+000 8.028121e+000 9.396794e+000 4.831867e-001 1.756826e-001 3.096551e-001 3.322187e-001 4.453043e-001 4.978526e-001 5.295807e-001 5.535811e-001 6.122872e-001 5.281776e-001 5.108943e-001 4.813116e-001 3.697475e+000
<GCONST> 6.902538e+001
<STATE> 4
<MEAN> 25
 -5.757202e-002 6.001086e-002 -1.740684e-001 1.184665e-002 -1.543198e-001 -3.335165e-002 5.290397e-002 -1.341868e-001 -1.210420e-001 -7.240234e-002 1.332928e-002 -1.519743e-002 1.696138e-003 -5.787080e-004 1.448082e-003 -1.954523e-004 -4.451132e-004 -4.528312e-005 3.397499e-004 1.882077e-004 -3.535907e-004 -8.420330e-004 -2.191097e-004 -7.184613e-004 5.245762e-004
<VARIANCE> 25
 1.086331e+002 7.801349e+001 6.703474e+001 8.734782e+001 4.370861e+001 5.416010e+001 5.518003e+001 5.273571e+001 4.803527e+001 5.123601e+001 4.310233e+001 3.515519e+001 1.091174e+000 1.716352e+000 1.452035e+000 2.131479e+000 1.614726e+000 1.951905e+000 2.086677e+000 2.129404e+000 2.070493e+000 2.011066e+000 1.870705e+000 1.558840e+000 1.643507e+000
<GCONST> 1.019342e+002
<TRANSP> 5
 0.000000e+000 1.000000e+000 0.000000e+000 0.000000e+000 0.000000e+000
 0.000000e+000 9.818861e-001 1.811386e-002 0.000000e+000 0.000000e+000
 0.000000e+000 0.000000e+000 9.541606e-001 4.583942e-002 0.000000e+000
 0.000000e+000 0.000000e+000 0.000000e+000 9.965681e-001 3.431934e-003
 0.000000e+000 0.000000e+000 0.000000e+000 0.000000e+000 0.000000e+000
<ENDHMM>
