~o
<STREAMINFO> 1 25
<VECSIZE> 25<NULLD><MFCC_D_N_Z_0><DIAGC>
~h "b"
<BEGINHMM>
<NUMSTATES> 5
<STATE> 2
<MEAN> 25
 -1.347391e+000 4.363566e-001 -6.785247e-001 1.164074e+000 1.385762e+000 4.882612e-002 1.625255e+000 1.374144e-001 8.920099e-001 4.860823e-001 -3.884639e-002 5.102262e-001 -6.490085e-002 5.291656e-002 3.354021e-002 1.024506e-001 8.366042e-002 7.563249e-002 1.936969e-001 3.985320e-002 6.291898e-002 1.612152e-001 2.698153e-002 -1.916411e-002 -1.188693e-001
<VARIANCE> 25
 7.843338e+001 6.011636e+001 5.133929e+001 4.881414e+001 3.792159e+001 5.349191e+001 5.212197e+001 3.935521e+001 3.978286e+001 4.757498e+001 4.102676e+001 2.930692e+001 1.538870e+000 1.876317e+000 1.850346e+000 1.771287e+000 1.758646e+000 2.290108e+000 2.409440e+000 2.236288e+000 2.168164e+000 2.155604e+000 2.095417e+000 1.744511e+000 1.121493e+000
<GCONST> 1.003886e+002
<STATE> 3
<MEAN> 25
 -1.289664e+000 5.985482e-001 -4.664807e-001 1.420371e+000 1.503042e+000 9.108456e-002 1.809711e+000 2.925971e-001 1.075273e+000 7.278440e-001 -5.839943e-002 3.265808e-001 9.170479e-002 1.100369e-001 8.610600e-002 6.861655e-002 -3.912470e-003 -2.424518e-003 3.436253e-002 -4.768084e-003 -1.271311e-002 5.539869e-002 -3.625835e-002 -9.173749e-002 -2.278958e-002
<VARIANCE> 25
 8.134671e+001 6.393523e+001 5.182207e+001 4.938635e+001 3.740215e+001 5.273938e+001 4.897456e+001 3.727301e+001 3.819180e+001 4.634483e+001 3.968845e+001 2.891377e+001 1.644690e+000 1.897213e+000 1.760088e+000 1.623664e+000 1.651291e+000 2.108542e+000 2.149467e+000 2.033731e+000 1.970215e+000 2.033399e+000 1.964588e+000 1.630573e+000 1.121268e+000
<GCONST> 9.954893e+001
<STATE> 4
<MEAN> 25
 -8.097519e-001 -8.551952e-001 -8.960746e-001 8.593369e-001 1.422383e+000 -1.004809e+000 1.169055e+000 1.107251e+000 1.294053e+000 8.515720e-001 -7.567820e-002 9.136182e-003 1.493758e-002 6.058383e-002 8.868020e-002 6.512079e-002 1.378803e-002 5.861988e-002 2.148215e-002 -2.142742e-003 -3.448467e-002 3.289423e-002 -4.136573e-002 -6.858301e-002 -6.830590e-002
<VARIANCE> 25
 1.118535e+002 9.884565e+001 6.134163e+001 6.539295e+001 3.316207e+001 6.217795e+001 5.179125e+001 3.402985e+001 3.595115e+001 4.884051e+001 3.662341e+001 3.214821e+001 7.224895e-001 1.132999e+000 1.091195e+000 1.146332e+000 1.141100e+000 1.321090e+000 1.470774e+000 1.409607e+000 1.428680e+000 1.466609e+000 1.403673e+000 1.217360e+000 5.646565e-001
<GCONST> 9.506933e+001
<TRANSP> 5
 0.000000e+000 1.000000e+000 0.000000e+000 0.000000e+000 0.000000e+000
 0.000000e+000 6.297455e-001 3.702545e-001 0.000000e+000 0.000000e+000
 0.000000e+000 0.000000e+000 6.276461e-001 3.723538e-001 0.000000e+000
 0.000000e+000 0.000000e+000 0.000000e+000 8.181036e-001 1.818964e-001
 0.000000e+000 0.000000e+000 0.000000e+000 0.000000e+000 0.000000e+000
<ENDHMM>
~h "d"
<BEGINHMM>
<NUMSTATES> 5
<STATE> 2
<MEAN> 25
 2.715353e+000 1.498095e-001 1.404742e+000 1.138428e+000 7.990107e-001 -5.082006e-001 1.211246e-001 -1.087053e-001 -1.977654e+000 -1.049224e+000 1.021285e-001 -3.815878e-001 2.789380e-001 -4.232855e-001 -1.442216e-002 -2.149146e-001 -1.032506e-001 -3.011936e-001 -3.251031e-001 1.472379e-001 -1.976618e-001 -2.664145e-001 5.608813e-002 -9.942941e-002 7.804567e-001
<VARIANCE> 25
 5.461745e+001 8.148789e+001 4.589052e+001 6.036367e+001 6.384514e+001 5.310637e+001 7.025204e+001 6.252222e+001 4.359509e+001 5.050030e+001 5.202662e+001 3.653606e+001 2.403730e+000 6.037585e+000 2.904601e+000 3.872465e+000 3.925902e+000 4.327870e+000 5.071148e+000 4.027936e+000 3.493133e+000 3.656334e+000 3.538431e+000 2.785010e+000 5.047724e+000
<GCONST> 1.114366e+002
<STATE> 3
<MEAN> 25
 3.943136e+000 -2.061137e+000 1.014673e+000 -1.855385e-001 2.422691e-001 -1.523455e+000 -1.269770e+000 9.557574e-001 -2.706840e+000 -2.286751e+000 3.858236e-002 -4.361982e-001 2.887528e-001 -6.573793e-001 -2.562817e-001 -3.949899e-001 -1.439336e-001 -1.909245e-001 -3.479887e-001 2.852484e-001 -1.010792e-001 -3.130839e-001 -1.827400e-002 7.673927e-002 7.748941e-001
<VARIANCE> 25
 4.922680e+001 8.200710e+001 4.567493e+001 6.371983e+001 7.185742e+001 6.091830e+001 8.806478e+001 7.516290e+001 4.698844e+001 5.874658e+001 6.237076e+001 3.834575e+001 2.029963e+000 5.745095e+000 2.596483e+000 3.813581e+000 4.095985e+000 4.659379e+000 6.105020e+000 4.420869e+000 3.778513e+000 4.185462e+000 4.043606e+000 3.065496e+000 4.957639e+000
<GCONST> 1.129837e+002
<STATE> 4
<MEAN> 25
 6.472472e+000 -6.859894e+000 2.920943e-001 -3.622571e+000 -1.538785e-001 -9.425998e-001 -3.699435e+000 1.929844e+000 -2.360615e+000 -3.024757e+000 4.883972e-001 -1.460623e+000 -6.555992e-002 1.077733e-001 -1.078874e-001 1.187200e-001 6.527629e-002 7.794514e-002 1.843646e-001 -9.885567e-002 1.047805e-001 2.890548e-002 -4.148686e-002 3.019397e-002 -2.944098e-001
<VARIANCE> 25
 4.457960e+001 1.110991e+002 4.534979e+001 7.940639e+001 4.557464e+001 5.202150e+001 9.888737e+001 7.006853e+001 5.451377e+001 6.607020e+001 9.097147e+001 5.745388e+001 5.848801e-001 2.323807e+000 1.260869e+000 2.023947e+000 1.925836e+000 2.227853e+000 3.030622e+000 2.445345e+000 2.162358e+000 2.143342e+000 2.248031e+000 2.065960e+000 1.324174e+000
<GCONST> 1.040618e+002
<TRANSP> 5
 0.000000e+000 1.000000e+000 0.000000e+000 0.000000e+000 0.000000e+000
 0.000000e+000 6.878696e-001 3.121303e-001 0.000000e+000 0.000000e+000
 0.000000e+000 0.000000e+000 7.058353e-001 2.941646e-001 0.000000e+000
 0.000000e+000 0.000000e+000 0.000000e+000 8.612110e-001 1.387890e-001
 0.000000e+000 0.000000e+000 0.000000e+000 0.000000e+000 0.000000e+000
<ENDHMM>
~h "g"
<BEGINHMM>
<NUMSTATES> 5
<STATE> 2
<MEAN> 25
 -1.181086e+000 3.645174e+000 3.909272e+000 2.248590e+000 9.515014e-001 -7.584812e-002 9.805486e-002 -1.380347e+000 3.805305e-001 1.149722e-001 -5.671754e-001 -1.158318e-001 5.320867e-002 -3.461532e-003 2.941526e-001 3.038666e-002 8.636650e-002 -4.264730e-002 6.047344e-002 -3.262663e-002 -1.613512e-001 9.155755e-003 -3.440985e-002 -1.631247e-001 3.195775e-001
<VARIANCE> 25
 5.077387e+001 7.167107e+001 8.253001e+001 6.029442e+001 5.113291e+001 4.397814e+001 4.964455e+001 4.026010e+001 3.978491e+001 4.100153e+001 3.748009e+001 2.802362e+001 3.457943e+000 4.504339e+000 3.714407e+000 4.563304e+000 3.414337e+000 2.970300e+000 3.408250e+000 2.844306e+000 3.015521e+000 3.117677e+000 2.469975e+000 2.079678e+000 3.125419e+000
<GCONST> 1.075121e+002
<STATE> 3
<MEAN> 25
 -1.021219e+000 3.337845e+000 4.997696e+000 1.507188e+000 7.169448e-001 -3.416732e-001 -1.993221e-001 -1.162496e+000 1.152062e-001 -1.276510e-001 -5.846719e-001 -5.719436e-001 1.535714e-001 -1.002398e-001 1.659303e-001 -3.478086e-001 -1.495322e-001 -5.904458e-002 -1.430385e-001 1.377235e-001 -8.959722e-002 -1.006359e-001 -2.599971e-002 -7.299951e-002 5.933338e-001
<VARIANCE> 25
 5.365633e+001 8.427133e+001 9.710737e+001 6.809659e+001 6.463481e+001 4.953185e+001 5.454860e+001 4.388851e+001 4.136860e+001 4.563438e+001 3.901197e+001 2.844349e+001 4.096674e+000 4.775291e+000 4.160195e+000 5.029934e+000 4.686822e+000 3.306611e+000 3.919354e+000 3.230034e+000 3.024256e+000 3.361912e+000 2.672695e+000 2.165854e+000 3.365097e+000
<GCONST> 1.101496e+002
<STATE> 4
<MEAN> 25
 -4.877143e-001 2.290885e+000 9.235332e+000 1.642544e+000 -6.734716e-001 -4.260632e-001 -2.276531e+000 -3.836366e-001 -3.027276e-002 -2.249813e+000 -3.085436e-001 -7.298679e-001 9.640227e-002 -7.211968e-002 -1.129377e-001 -3.670313e-003 -6.673687e-002 -5.942569e-002 -4.868941e-002 6.697092e-002 -6.617100e-003 -5.853647e-002 -3.428797e-002 1.485110e-002 1.030236e-001
<VARIANCE> 25
 4.791394e+001 8.546060e+001 1.760383e+002 6.504269e+001 7.860361e+001 4.483221e+001 6.300115e+001 5.155186e+001 3.967825e+001 6.070188e+001 3.906088e+001 2.806706e+001 1.409359e+000 2.370066e+000 2.218356e+000 2.412739e+000 2.416794e+000 2.074235e+000 2.390894e+000 2.151505e+000 2.084094e+000 2.203250e+000 1.967643e+000 1.578387e+000 1.501166e+000
<GCONST> 1.038469e+002
<TRANSP> 5
 0.000000e+000 1.000000e+000 0.000000e+000 0.000000e+000 0.000000e+000
 0.000000e+000 6.509660e-001 3.490339e-001 0.000000e+000 0.000000e+000
 0.000000e+000 0.000000e+000 6.651377e-001 3.348623e-001 0.000000e+000
 0.000000e+000 0.000000e+000 0.000000e+000 7.927216e-001 2.072784e-001
 0.000000e+000 0.000000e+000 0.000000e+000 0.000000e+000 0.000000e+000
<ENDHMM>
~h "k"
<BEGINHMM>
<NUMSTATES> 5
<STATE> 2
<MEAN> 25
 1.415187e+000 -1.344744e+000 -1.512090e+000 -8.172606e-001 4.192603e-001 -4.260119e-001 2.588741e-001 -3.422357e-001 -9.957035e-001 -3.401670e-001 -9.809996e-002 -1.042005e+000 3.060854e-001 2.016568e-002 -3.144174e-001 -2.750757e-001 -1.163902e-001 -4.759082e-002 3.155779e-002 1.211552e-001 -2.167899e-001 1.150021e-002 8.203336e-002 -9.890251e-002 2.617298e-001
<VARIANCE> 25
 6.644446e+001 7.147520e+001 6.247688e+001 8.630697e+001 6.625649e+001 5.507273e+001 5.714990e+001 5.654704e+001 4.616046e+001 5.891355e+001 4.120102e+001 3.253345e+001 2.715271e+000 3.112610e+000 3.713325e+000 5.473237e+000 4.374847e+000 3.431339e+000 3.770620e+000 4.377486e+000 3.360523e+000 3.492447e+000 3.145638e+000 2.615368e+000 3.055661e+000
<GCONST> 1.107430e+002
<STATE> 3
<MEAN> 25
 2.889276e+000 -9.035237e-001 -2.261290e+000 -1.850175e+000 -1.562414e-001 -7.303183e-001 -1.205401e-001 -1.217896e-001 -1.858896e+000 -5.377864e-001 -1.135025e-002 -1.365675e+000 3.188353e-001 6.685168e-002 -1.122966e-001 -1.354913e-001 -9.676194e-002 -3.773144e-002 -7.610520e-002 -2.103127e-002 -1.666264e-001 -5.219499e-002 -3.525259e-002 -2.074893e-002 2.151197e-001
<VARIANCE> 25
 6.924402e+001 7.495496e+001 6.219076e+001 9.339123e+001 6.847524e+001 5.661219e+001 6.122228e+001 6.335294e+001 5.047463e+001 6.198380e+001 4.320295e+001 3.379182e+001 2.555705e+000 2.818641e+000 3.303675e+000 4.872563e+000 4.136660e+000 3.229173e+000 3.776048e+000 4.408429e+000 3.378986e+000 3.515840e+000 3.071356e+000 2.668304e+000 2.510335e+000
<GCONST> 1.106852e+002
<STATE> 4
<MEAN> 25
 4.794915e+000 -2.658311e+000 -8.894247e-001 -2.332147e+000 6.089067e-001 -2.421478e-001 -8.005887e-001 -7.254564e-001 -2.844471e+000 -5.986016e-001 -4.439870e-001 -1.934093e+000 -1.230081e-001 1.191808e-001 8.655539e-003 1.056633e-001 3.541091e-002 8.390039e-002 7.699589e-002 1.711289e-002 8.791183e-002 6.851171e-002 -1.837536e-002 5.186159e-002 -2.403123e-001
<VARIANCE> 25
 7.814494e+001 1.219783e+002 4.988899e+001 1.289248e+002 6.465672e+001 5.083056e+001 6.141747e+001 6.633202e+001 5.011501e+001 6.288424e+001 4.967417e+001 3.370039e+001 8.575020e-001 1.595075e+000 1.395724e+000 1.984461e+000 2.197511e+000 1.986575e+000 2.190778e+000 2.531496e+000 2.149684e+000 2.191067e+000 2.146638e+000 1.786545e+000 8.913444e-001
<GCONST> 1.030646e+002
<TRANSP> 5
 0.000000e+000 1.000000e+000 0.000000e+000 0.000000e+000 0.000000e+000
 0.000000e+000 6.651614e-001 3.348386e-001 0.000000e+000 0.000000e+000
 0.000000e+000 0.000000e+000 6.701843e-001 3.298157e-001 0.000000e+000
 0.000000e+000 0.000000e+000 0.000000e+000 8.055511e-001 1.944489e-001
 0.000000e+000 0.000000e+000 0.000000e+000 0.000000e+000 0.000000e+000
<ENDHMM>
~h "l"
<BEGINHMM>
<NUMSTATES> 5
<STATE> 2
<MEAN> 25
 4.381604e+000 -3.190069e-001 -1.905690e-001 -2.795341e+000 -1.394753e+000 -4.221994e+000 -2.101402e+000 7.902560e-001 7.031016e-001 -2.571699e+000 -1.347637e+000 3.289444e-001 3.329511e-001 -9.820295e-002 -2.877901e-001 -1.479964e-001 3.890702e-002 -1.774577e-001 -1.338565e-002 -5.564792e-003 3.857329e-002 -1.976636e-001 -1.362640e-001 3.715363e-002 4.228320e-001
<VARIANCE> 25
 8.722247e+001 7.555968e+001 6.729466e+001 7.530490e+001 7.809145e+001 9.523059e+001 8.650967e+001 7.943436e+001 9.883809e+001 7.303608e+001 6.455121e+001 4.893100e+001 3.087937e+000 4.106138e+000 3.747288e+000 4.136045e+000 4.476555e+000 6.077543e+000 5.614302e+000 5.175783e+000 5.170185e+000 4.096379e+000 3.753006e+000 3.103295e+000 2.935608e+000
<GCONST> 1.165011e+002
<STATE> 3
<MEAN> 25
 5.739944e+000 -1.288549e+000 -1.573468e+000 -3.366492e+000 -8.329179e-001 -3.563266e+000 -1.899971e+000 6.354121e-001 4.472589e-001 -3.145870e+000 -1.958948e+000 5.162785e-001 2.448603e-001 -2.472396e-001 -3.047042e-001 -8.364867e-002 4.760304e-002 3.155183e-001 1.247252e-001 -5.608099e-002 -2.126856e-001 -5.777209e-002 -9.695940e-002 4.657583e-003 2.372740e-001
<VARIANCE> 25
 7.345677e+001 8.061494e+001 6.831467e+001 7.331127e+001 7.952762e+001 8.711792e+001 8.144376e+001 7.333916e+001 1.027701e+002 7.277009e+001 6.928118e+001 5.054872e+001 2.747175e+000 3.844647e+000 2.950584e+000 3.473517e+000 3.944145e+000 5.424920e+000 4.844848e+000 4.388376e+000 4.926375e+000 3.901007e+000 3.565598e+000 2.894704e+000 2.037147e+000
<GCONST> 1.145776e+002
<STATE> 4
<MEAN> 25
 8.033780e+000 -4.313722e+000 -1.980761e+000 -5.551973e+000 -7.294862e-001 -1.689906e+000 -2.399336e+000 7.249455e-001 -5.651790e-001 -3.045224e+000 -1.615922e+000 -3.630190e-001 -8.447184e-002 5.376967e-002 -5.540689e-002 1.319689e-001 4.365110e-002 1.987009e-001 1.538137e-001 -1.003238e-001 -3.274769e-002 7.069223e-002 1.613006e-002 3.012956e-002 -2.290504e-001
<VARIANCE> 25
 6.892825e+001 1.145376e+002 7.015520e+001 9.172775e+001 7.750837e+001 7.841228e+001 7.538996e+001 6.868233e+001 8.437975e+001 7.258817e+001 8.425834e+001 5.771945e+001 6.482341e-001 2.036536e+000 1.458394e+000 1.891101e+000 1.926955e+000 2.540974e+000 2.538332e+000 2.465589e+000 2.780593e+000 2.491748e+000 2.252799e+000 1.960745e+000 7.762688e-001
<GCONST> 1.060471e+002
<TRANSP> 5
 0.000000e+000 1.000000e+000 0.000000e+000 0.000000e+000 0.000000e+000
 0.000000e+000 7.347667e-001 2.652333e-001 0.000000e+000 0.000000e+000
 0.000000e+000 0.000000e+000 6.949592e-001 3.050408e-001 0.000000e+000
 0.000000e+000 0.000000e+000 0.000000e+000 8.044027e-001 1.955973e-001
 0.000000e+000 0.000000e+000 0.000000e+000 0.000000e+000 0.000000e+000
<ENDHMM>
~h "m"
<BEGINHMM>
<NUMSTATES> 5
<STATE> 2
<MEAN> 25
 4.338121e+000 -1.040705e+000 -1.181708e+000 3.268327e-001 3.282345e+000 -1.888968e-001 -2.656672e-001 2.622060e-002 -9.904999e-002 -2.031879e+000 -1.933426e+000 -2.619790e+000 4.360893e-001 -3.044206e-001 -1.834689e-001 -1.115286e-001 2.870905e-001 -6.905483e-002 -1.230552e-001 1.090627e-001 -7.008127e-002 -3.889779e-001 -2.377062e-001 -1.701951e-001 6.347939e-001
<VARIANCE> 25
 6.383540e+001 7.373711e+001 4.552906e+001 5.648132e+001 6.381775e+001 5.067839e+001 6.174107e+001 6.233217e+001 5.504168e+001 5.692451e+001 3.976620e+001 3.957594e+001 3.345346e+000 4.966005e+000 3.371555e+000 4.397233e+000 4.050555e+000 3.860088e+000 4.112638e+000 4.223334e+000 3.469048e+000 3.657026e+000 2.887285e+000 2.899185e+000 5.671072e+000
<GCONST> 1.115154e+002
<STATE> 3
<MEAN> 25
 4.971344e+000 -2.774201e+000 -1.997416e+000 -1.495765e-001 4.198343e+000 -3.801910e-001 -6.662564e-001 1.003228e+000 5.046547e-002 -3.472982e+000 -2.471132e+000 -2.792172e+000 2.282822e-001 -4.898717e-001 -1.648521e-001 -1.923486e-001 3.883276e-002 7.303466e-003 -4.611622e-002 1.294695e-001 -6.329269e-002 -2.279479e-001 -5.442783e-002 1.461381e-002 4.871475e-001
<VARIANCE> 25
 5.565889e+001 7.907523e+001 4.733100e+001 5.873017e+001 6.937779e+001 5.138594e+001 6.145422e+001 6.468473e+001 5.851323e+001 5.706517e+001 4.233059e+001 4.259104e+001 2.887291e+000 4.843884e+000 3.276514e+000 4.318817e+000 4.208112e+000 3.651270e+000 3.915591e+000 4.422031e+000 3.530321e+000 3.740731e+000 3.179303e+000 2.997857e+000 5.581060e+000
<GCONST> 1.117701e+002
<STATE> 4
<MEAN> 25
 6.863308e+000 -5.575272e+000 -1.256525e+000 -2.141579e+000 3.434714e+000 5.244588e-001 -1.304165e+000 5.757756e-001 -1.587976e+000 -3.523240e+000 -2.368184e+000 -3.447266e+000 -2.292054e-001 1.529102e-001 5.842841e-002 1.799887e-001 -5.088495e-002 3.843640e-002 1.125589e-001 -6.605905e-002 2.261430e-002 1.471017e-001 3.393861e-002 1.289154e-001 -3.690028e-001
<VARIANCE> 25
 4.265965e+001 1.199082e+002 4.603101e+001 9.808306e+001 5.448716e+001 4.308337e+001 7.025678e+001 6.508566e+001 7.113188e+001 6.500024e+001 5.486889e+001 4.519815e+001 9.171954e-001 2.419969e+000 1.591800e+000 2.398363e+000 1.941052e+000 1.849290e+000 2.339201e+000 2.582251e+000 2.417236e+000 2.170667e+000 2.117747e+000 1.953037e+000 1.722231e+000
<GCONST> 1.041804e+002
<TRANSP> 5
 0.000000e+000 1.000000e+000 0.000000e+000 0.000000e+000 0.000000e+000
 0.000000e+000 7.558509e-001 2.441491e-001 0.000000e+000 0.000000e+000
 0.000000e+000 0.000000e+000 7.612158e-001 2.387842e-001 0.000000e+000
 0.000000e+000 0.000000e+000 0.000000e+000 8.456742e-001 1.543258e-001
 0.000000e+000 0.000000e+000 0.000000e+000 0.000000e+000 0.000000e+000
<ENDHMM>
~h "n"
<BEGINHMM>
<NUMSTATES> 5
<STATE> 2
<MEAN> 25
 3.503979e+000 2.163545e+000 1.307843e+000 7.468154e-001 -3.216656e-001 -1.409640e+000 -1.769514e+000 -1.013798e+000 -1.580962e+000 -1.651359e+000 -9.277413e-001 -1.396966e+000 3.669392e-001 2.110911e-001 1.937502e-001 7.480609e-002 -8.420893e-002 -6.157532e-002 -1.856532e-001 -1.723260e-001 -1.773011e-001 -9.850365e-002 -1.365749e-001 -1.178775e-001 3.146010e-001
<VARIANCE> 25
 6.422270e+001 6.205556e+001 5.909572e+001 6.696198e+001 5.940855e+001 6.000140e+001 7.299326e+001 7.141911e+001 5.599617e+001 7.051939e+001 4.350277e+001 3.384529e+001 3.266813e+000 4.318878e+000 3.934932e+000 5.033386e+000 4.305819e+000 4.357069e+000 5.193053e+000 4.757509e+000 3.998036e+000 4.286061e+000 3.211248e+000 2.658101e+000 4.858862e+000
<GCONST> 1.131720e+002
<STATE> 3
<MEAN> 25
 4.677061e+000 2.198606e+000 1.955929e+000 9.985969e-001 -3.448214e-001 -1.669269e+000 -2.596732e+000 -1.394218e+000 -2.180809e+000 -2.028597e+000 -1.206667e+000 -1.674294e+000 1.384306e-001 -1.289161e-001 3.950648e-003 2.506884e-002 1.483244e-002 6.187768e-002 -6.391037e-002 -3.202507e-002 -6.459472e-002 -3.881645e-002 -2.749678e-002 -1.224995e-002 2.601223e-001
<VARIANCE> 25
 5.540965e+001 6.948711e+001 6.323550e+001 6.852294e+001 6.497263e+001 6.149043e+001 7.538658e+001 8.496752e+001 6.043699e+001 7.111441e+001 4.499348e+001 3.622784e+001 2.623837e+000 4.385611e+000 3.700845e+000 4.413759e+000 4.341156e+000 4.260338e+000 5.105048e+000 5.168282e+000 4.258858e+000 4.281102e+000 3.344460e+000 2.886090e+000 3.889874e+000
<GCONST> 1.133521e+002
<STATE> 4
<MEAN> 25
 4.912724e+000 2.473957e+000 2.608316e+000 2.621678e+000 -2.828809e-002 -1.048789e+000 -2.078695e+000 -3.499382e+000 -3.269695e+000 -1.233251e+000 -1.256080e+000 -2.002195e+000 -3.363864e-001 -2.660302e-002 -2.719761e-002 5.843624e-002 1.299850e-001 1.279629e-001 2.546372e-001 1.118838e-001 1.950893e-001 1.071336e-001 2.469538e-002 8.806013e-002 -2.835276e-001
<VARIANCE> 25
 5.315247e+001 8.403515e+001 6.096942e+001 7.862006e+001 6.052959e+001 4.829295e+001 7.550320e+001 1.110285e+002 6.764487e+001 6.604455e+001 5.267911e+001 3.738881e+001 8.553811e-001 2.021530e+000 1.882493e+000 2.261882e+000 2.299294e+000 2.331806e+000 2.825384e+000 3.413501e+000 2.691001e+000 2.702139e+000 2.473568e+000 2.033857e+000 1.110109e+000
<GCONST> 1.054770e+002
<TRANSP> 5
 0.000000e+000 1.000000e+000 0.000000e+000 0.000000e+000 0.000000e+000
 0.000000e+000 6.994642e-001 3.005358e-001 0.000000e+000 0.000000e+000
 0.000000e+000 0.000000e+000 6.953636e-001 3.046364e-001 0.000000e+000
 0.000000e+000 0.000000e+000 0.000000e+000 8.143972e-001 1.856027e-001
 0.000000e+000 0.000000e+000 0.000000e+000 0.000000e+000 0.000000e+000
<ENDHMM>
~h "p"
<BEGINHMM>
<NUMSTATES> 5
<STATE> 2
<MEAN> 25
 -1.404780e+000 -1.526484e+000 -2.255077e+000 3.771425e-001 2.028348e+000 1.553384e+000 2.448509e+000 3.113709e-001 1.353533e+000 1.327346e+000 8.086701e-002 4.174782e-001 3.590055e-001 -4.717223e-001 -2.296493e-001 -3.566592e-001 -8.339337e-002 -1.356097e-001 -7.444757e-002 8.083069e-002 6.165321e-002 -8.762294e-003 3.911903e-002 -4.644971e-002 7.113411e-001
<VARIANCE> 25
 5.686406e+001 5.773238e+001 4.511480e+001 5.417124e+001 5.422542e+001 4.667381e+001 4.603746e+001 3.817675e+001 3.519881e+001 3.595292e+001 3.415672e+001 2.570441e+001 4.001860e+000 3.927797e+000 3.095133e+000 4.231530e+000 3.975147e+000 4.042447e+000 3.937236e+000 3.327028e+000 3.001012e+000 2.965478e+000 3.012721e+000 2.330832e+000 6.765594e+000
<GCONST> 1.077972e+002
<STATE> 3
<MEAN> 25
 3.273323e-001 -3.053668e+000 -3.002673e+000 -1.045680e+000 1.530665e+000 8.664994e-001 1.782912e+000 5.799868e-001 1.428183e+000 9.720510e-001 -6.966655e-003 1.938019e-002 7.839533e-001 -5.505838e-001 -2.613961e-001 -4.548636e-001 -1.508356e-001 -2.081579e-001 -2.926107e-001 -2.556514e-003 -1.174244e-001 -2.154426e-001 -1.196542e-001 -1.645771e-001 1.154957e+000
<VARIANCE> 25
 6.552000e+001 6.390107e+001 4.864231e+001 6.290373e+001 6.675974e+001 5.184606e+001 4.903847e+001 4.123791e+001 3.618164e+001 4.053430e+001 3.546680e+001 2.612688e+001 4.840748e+000 4.488146e+000 3.795739e+000 5.347428e+000 4.635767e+000 4.631203e+000 4.349103e+000 3.836793e+000 3.176566e+000 3.271369e+000 3.448067e+000 2.416330e+000 7.532613e+000
<GCONST> 1.106469e+002
<STATE> 4
<MEAN> 25
 2.865847e+000 -6.389640e+000 -3.939599e+000 -3.570590e+000 2.462915e+000 1.069965e+000 1.467956e+000 7.590432e-001 7.495569e-001 -9.316108e-002 -6.667141e-001 -1.962278e-001 1.455538e-001 -6.211804e-002 6.140440e-002 -1.580652e-002 -4.800241e-003 -1.375339e-001 -1.035790e-001 -9.000487e-002 -9.129459e-002 -1.679378e-001 -5.832849e-002 7.696248e-003 2.547095e-001
<VARIANCE> 25
 7.052827e+001 8.725089e+001 5.285777e+001 9.879267e+001 7.912778e+001 4.727066e+001 5.444045e+001 4.785401e+001 3.741295e+001 5.923551e+001 4.134275e+001 2.914925e+001 1.782999e+000 2.993294e+000 2.180365e+000 3.559818e+000 2.861935e+000 2.938835e+000 2.939337e+000 2.623884e+000 2.347078e+000 2.504683e+000 2.369163e+000 1.906683e+000 4.407558e+000
<GCONST> 1.067812e+002
<TRANSP> 5
 0.000000e+000 1.000000e+000 0.000000e+000 0.000000e+000 0.000000e+000
 0.000000e+000 7.090603e-001 2.909397e-001 0.000000e+000 0.000000e+000
 0.000000e+000 0.000000e+000 7.074175e-001 2.925825e-001 0.000000e+000
 0.000000e+000 0.000000e+000 0.000000e+000 7.878776e-001 2.121224e-001
 0.000000e+000 0.000000e+000 0.000000e+000 0.000000e+000 0.000000e+000
<ENDHMM>
~h "r"
<BEGINHMM>
<NUMSTATES> 5
<STATE> 2
<MEAN> 25
 3.906580e+000 -4.613167e+000 -3.155156e+000 -1.001458e+000 1.985957e-001 6.937722e-001 -1.989507e-001 1.635467e+000 -2.445510e-001 -2.597887e+000 -1.529160e+000 5.574899e-001 -1.148378e-001 -1.329553e-001 -1.013817e-001 8.047065e-002 1.017690e-001 1.322388e-001 1.492441e-001 -3.183900e-003 4.326542e-002 3.860496e-004 2.867544e-002 4.932749e-002 -1.378324e-001
<VARIANCE> 25
 7.480222e+001 7.334511e+001 3.697680e+001 4.556268e+001 4.962913e+001 5.889822e+001 5.318979e+001 4.515813e+001 3.722833e+001 5.483134e+001 5.087427e+001 3.157105e+001 8.138304e-001 1.348683e+000 1.441753e+000 1.717257e+000 2.447901e+000 2.420125e+000 2.356856e+000 2.241511e+000 2.013629e+000 2.324412e+000 2.046015e+000 1.693103e+000 8.340358e-001
<GCONST> 9.980131e+001
<STATE> 3
<MEAN> 25
 3.629352e+000 -4.581627e+000 -3.355366e+000 -7.121764e-001 6.271738e-001 9.306368e-001 -1.077244e-001 1.443984e+000 -4.421422e-002 -2.656813e+000 -1.336595e+000 4.849905e-001 -9.776000e-002 -1.191279e-002 -6.900647e-002 8.881025e-002 9.954395e-002 1.953739e-002 6.449632e-002 -3.495404e-002 4.025499e-002 6.128243e-002 4.945587e-002 -4.880029e-002 -1.809105e-001
<VARIANCE> 25
 7.811108e+001 7.213427e+001 3.632357e+001 4.280648e+001 4.572945e+001 5.283820e+001 5.067037e+001 4.211412e+001 3.557446e+001 5.530220e+001 4.564911e+001 3.109385e+001 8.218901e-001 1.271104e+000 1.388897e+000 1.535956e+000 2.390251e+000 2.297217e+000 2.222806e+000 2.079039e+000 1.945235e+000 2.152994e+000 1.887883e+000 1.677327e+000 8.407571e-001
<GCONST> 9.867750e+001
<STATE> 4
<MEAN> 25
 9.017798e-001 -3.229186e+000 -3.653630e+000 -2.777379e-001 4.300263e-001 -3.717683e-001 7.765233e-001 1.425220e+000 3.949199e-001 -6.780497e-001 -1.501809e-001 7.967737e-001 -1.132834e-001 1.239147e-001 5.761575e-002 7.726399e-002 1.583308e-002 -4.832715e-003 6.043687e-002 -3.393298e-002 5.311298e-002 7.412741e-002 8.174370e-003 -3.978919e-002 -2.224349e-001
<VARIANCE> 25
 1.178266e+002 6.861784e+001 4.018275e+001 3.874451e+001 2.840312e+001 5.658791e+001 3.549960e+001 3.460926e+001 2.801310e+001 4.094537e+001 3.070708e+001 2.530458e+001 4.025084e-001 8.367072e-001 8.030389e-001 9.385847e-001 1.232442e+000 1.240154e+000 1.315905e+000 1.352092e+000 1.320080e+000 1.290065e+000 1.207576e+000 1.146805e+000 4.431951e-001
<GCONST> 9.016504e+001
<TRANSP> 5
 0.000000e+000 1.000000e+000 0.000000e+000 0.000000e+000 0.000000e+000
 0.000000e+000 6.637540e-001 3.362460e-001 0.000000e+000 0.000000e+000
 0.000000e+000 0.000000e+000 6.661885e-001 3.338115e-001 0.000000e+000
 0.000000e+000 0.000000e+000 0.000000e+000 8.978512e-001 1.021488e-001
 0.000000e+000 0.000000e+000 0.000000e+000 0.000000e+000 0.000000e+000
<ENDHMM>
~h "s"
<BEGINHMM>
<NUMSTATES> 5
<STATE> 2
<MEAN> 25
 -7.929254e+000 2.993916e-001 -2.053008e+000 1.745795e+000 2.067987e+000 -5.649003e-001 5.496931e+000 5.110592e-001 3.016575e-001 1.506297e+000 1.344414e+000 1.059877e-001 -9.493817e-001 2.333185e-001 1.051017e-003 -1.435118e-001 1.379369e-001 -1.935291e-001 4.242682e-001 1.974199e-001 1.336693e-001 2.097615e-001 2.387617e-001 -5.706618e-002 3.919815e-001
<VARIANCE> 25
 1.110871e+002 5.546766e+001 5.874129e+001 4.512196e+001 4.104762e+001 5.138857e+001 5.505753e+001 4.412748e+001 3.695375e+001 4.493266e+001 3.917416e+001 2.433735e+001 4.960920e+000 3.459676e+000 3.035490e+000 2.484447e+000 2.652724e+000 3.450753e+000 3.665739e+000 2.816743e+000 2.777555e+000 2.841022e+000 2.533023e+000 2.052360e+000 2.635080e+000
<GCONST> 1.063751e+002
<STATE> 3
<MEAN> 25
 -1.005376e+001 2.843947e-001 -2.166689e+000 4.602731e-001 2.095199e+000 -1.341964e+000 5.960053e+000 1.285588e+000 1.143377e+000 1.699192e+000 1.932837e+000 4.184586e-003 -1.986703e-002 -6.655067e-002 -6.017346e-002 -2.608096e-001 -2.714103e-002 -1.003944e-001 -1.445414e-001 6.939977e-002 8.351590e-002 -8.285807e-002 -7.951889e-003 -5.438962e-003 6.151962e-001
<VARIANCE> 25
 1.310310e+002 6.837955e+001 7.795218e+001 5.644742e+001 4.183141e+001 5.682000e+001 6.756709e+001 5.085659e+001 3.810314e+001 4.296128e+001 4.032666e+001 2.558717e+001 8.859495e+000 4.008264e+000 3.319021e+000 2.667084e+000 2.703929e+000 3.494616e+000 4.275568e+000 3.618424e+000 2.930563e+000 3.548850e+000 3.071370e+000 2.113685e+000 2.641114e+000
<GCONST> 1.096112e+002
<STATE> 4
<MEAN> 25
 -1.091596e+001 -1.018119e+000 -1.513250e-001 -7.041692e-001 1.292971e+000 3.263451e-001 4.983657e+000 8.530471e-001 1.561629e+000 2.437466e+000 2.371456e+000 1.883730e-001 4.434791e-001 -4.662428e-002 1.650084e-002 -5.977095e-002 -8.141894e-002 -3.026814e-002 -1.399651e-001 2.027323e-002 2.021721e-002 -6.838619e-002 -6.820681e-002 -1.630337e-002 3.358071e-002
<VARIANCE> 25
 1.523218e+002 9.712439e+001 1.051132e+002 7.071925e+001 3.862208e+001 6.236487e+001 6.543936e+001 4.631547e+001 3.425849e+001 3.965193e+001 3.579177e+001 2.537968e+001 3.587635e+000 2.277072e+000 1.990693e+000 1.880341e+000 1.844218e+000 2.324641e+000 2.501489e+000 2.491781e+000 2.248134e+000 2.300310e+000 2.039573e+000 1.718747e+000 1.443581e+000
<GCONST> 1.042623e+002
<TRANSP> 5
 0.000000e+000 1.000000e+000 0.000000e+000 0.000000e+000 0.000000e+000
 0.000000e+000 7.515001e-001 2.484999e-001 0.000000e+000 0.000000e+000
 0.000000e+000 0.000000e+000 7.487635e-001 2.512366e-001 0.000000e+000
 0.000000e+000 0.000000e+000 0.000000e+000 8.335519e-001 1.664480e-001
 0.000000e+000 0.000000e+000 0.000000e+000 0.000000e+000 0.000000e+000
<ENDHMM>
~h "t"
<BEGINHMM>
<NUMSTATES> 5
<STATE> 2
<MEAN> 25
 -9.180154e-001 1.188251e+000 8.361211e-001 1.813825e+000 1.172684e+000 4.328405e-001 1.048427e+000 -8.208231e-001 2.519933e-001 6.044986e-001 -1.779780e-001 -3.080501e-001 -6.569062e-002 -6.477404e-002 1.549725e-001 -2.229504e-001 -1.012272e-001 -2.357122e-001 -3.742460e-002 3.781076e-002 8.989436e-002 1.400548e-001 6.213955e-002 -1.258060e-001 3.469912e-001
<VARIANCE> 25
 6.112576e+001 5.107845e+001 5.860586e+001 5.691940e+001 5.004164e+001 4.547162e+001 5.491845e+001 4.130148e+001 4.062171e+001 4.449273e+001 4.124187e+001 3.136435e+001 2.951616e+000 3.322025e+000 2.996474e+000 4.099123e+000 3.474324e+000 4.358636e+000 4.993047e+000 3.576512e+000 3.626422e+000 3.347401e+000 2.912008e+000 2.561471e+000 5.354469e+000
<GCONST> 1.088021e+002
<STATE> 3
<MEAN> 25
 -2.981463e-001 9.784638e-001 1.090625e+000 7.217462e-001 4.150669e-001 -6.383427e-001 1.110389e-001 -7.410936e-001 1.917551e-001 7.301648e-001 3.595246e-002 -6.988350e-001 2.987722e-001 6.588103e-002 7.674511e-003 -3.376893e-001 -2.602940e-001 -2.329163e-001 -3.604992e-001 -4.631927e-002 -1.744973e-001 -3.461425e-002 8.776105e-002 -1.258394e-001 4.708838e-001
<VARIANCE> 25
 6.523657e+001 5.562868e+001 6.315904e+001 6.932005e+001 5.712017e+001 5.555018e+001 7.170103e+001 4.692664e+001 4.581392e+001 4.897787e+001 4.302461e+001 3.567129e+001 4.061025e+000 4.022905e+000 3.135606e+000 4.298385e+000 3.783351e+000 4.925388e+000 6.104841e+000 4.178541e+000 4.134633e+000 3.618972e+000 3.191577e+000 2.876937e+000 4.941748e+000
<GCONST> 1.118428e+002
<STATE> 4
<MEAN> 25
 9.237952e-001 2.166255e+000 1.487862e+000 6.178366e-003 -1.175715e+000 -3.607196e-001 -2.468437e-001 -1.154104e+000 -6.697839e-001 3.482717e-001 3.671067e-001 -1.034783e+000 -6.560625e-002 9.280409e-002 2.333051e-003 -3.605156e-002 -9.210496e-002 -2.157549e-003 1.130538e-002 -1.058373e-001 -4.228340e-002 4.583942e-002 3.960935e-002 1.213079e-002 -5.393634e-002
<VARIANCE> 25
 7.327791e+001 5.893903e+001 7.522279e+001 8.295397e+001 7.490977e+001 4.871362e+001 7.138909e+001 5.118598e+001 5.172549e+001 4.835922e+001 4.993527e+001 3.814840e+001 1.604535e+000 2.186559e+000 1.887382e+000 2.323522e+000 2.366071e+000 2.632418e+000 3.244139e+000 2.808638e+000 2.712107e+000 2.431623e+000 2.242680e+000 1.982010e+000 2.004182e+000
<GCONST> 1.056845e+002
<TRANSP> 5
 0.000000e+000 1.000000e+000 0.000000e+000 0.000000e+000 0.000000e+000
 0.000000e+000 6.502640e-001 3.497360e-001 0.000000e+000 0.000000e+000
 0.000000e+000 0.000000e+000 6.448516e-001 3.551484e-001 0.000000e+000
 0.000000e+000 0.000000e+000 0.000000e+000 7.212293e-001 2.787707e-001
 0.000000e+000 0.000000e+000 0.000000e+000 0.000000e+000 0.000000e+000
<ENDHMM>
~h "y"
<BEGINHMM>
<NUMSTATES> 5
<STATE> 2
<MEAN> 25
 1.073330e+000 1.887299e+000 1.261735e+000 2.554038e+000 1.535560e+000 2.077554e+000 1.122453e+000 5.820770e-001 -4.865418e-001 -9.435531e-001 -7.809628e-001 9.934525e-003 -6.233392e-001 2.045186e-001 4.302446e-001 9.304729e-002 -4.808736e-002 2.597769e-001 3.753916e-001 9.794593e-002 3.395576e-002 4.266191e-001 3.392783e-001 9.954708e-002 -5.394641e-001
<VARIANCE> 25
 5.288057e+001 4.463264e+001 2.572682e+001 2.183360e+001 5.396743e+001 3.658593e+001 5.295076e+001 2.241990e+001 3.224405e+001 2.318477e+001 2.383650e+001 3.180712e+001 3.683172e-001 6.853758e-001 9.590683e-001 8.251348e-001 1.212505e+000 1.357726e+000 1.639672e+000 1.230164e+000 1.095481e+000 1.109974e+000 1.182647e+000 1.625741e+000 2.473369e-001
<GCONST> 8.700129e+001
<STATE> 3
<MEAN> 25
 -8.416541e-001 2.368616e+000 2.002573e+000 2.719723e+000 1.694856e+000 2.502881e+000 1.489470e+000 5.427667e-001 -3.707881e-001 1.644684e-001 -1.942877e-001 -2.880480e-001 -5.213185e-001 1.495748e-001 2.055275e-001 3.282538e-002 4.667450e-002 8.900977e-002 6.526903e-002 -9.554731e-002 -1.560753e-002 2.744070e-001 1.275795e-001 -1.099961e-001 -4.531651e-001
<VARIANCE> 25
 5.103279e+001 4.121492e+001 2.098017e+001 1.821714e+001 4.382096e+001 2.936936e+001 3.930261e+001 1.915773e+001 2.467711e+001 1.980986e+001 2.272144e+001 2.811573e+001 3.085567e-001 4.986791e-001 8.531824e-001 7.191602e-001 1.311773e+000 1.179388e+000 1.347245e+000 1.063430e+000 1.116666e+000 1.226380e+000 1.056245e+000 1.379694e+000 1.934040e-001
<GCONST> 8.346375e+001
<STATE> 4
<MEAN> 25
 -1.668972e+000 7.616535e-001 7.640874e-001 2.789934e-001 3.018631e-001 1.112164e+000 3.959736e-001 -3.025713e-001 -4.317205e-002 6.298293e-001 2.173245e-001 -2.179706e-001 -3.435935e-002 -1.031578e-003 7.126466e-003 2.766737e-003 5.674090e-003 1.707058e-003 5.703222e-003 1.468966e-003 6.352478e-003 1.508758e-002 7.380015e-003 -2.742782e-003 -2.403364e-002
<VARIANCE> 25
 6.295723e+001 2.390012e+001 2.323995e+001 1.809908e+001 1.752258e+001 2.663859e+001 2.275141e+001 2.074188e+001 2.622981e+001 3.613369e+001 2.306546e+001 1.969777e+001 5.197305e-001 6.188293e-001 6.892685e-001 8.056951e-001 8.081829e-001 9.885839e-001 1.187844e+000 1.069666e+000 1.216876e+000 1.326123e+000 1.125625e+000 9.212446e-001 3.695867e-001
<GCONST> 8.239257e+001
<TRANSP> 5
 0.000000e+000 1.000000e+000 0.000000e+000 0.000000e+000 0.000000e+000
 0.000000e+000 6.332231e-001 3.667770e-001 0.000000e+000 0.000000e+000
 0.000000e+000 0.000000e+000 6.732415e-001 3.267585e-001 0.000000e+000
 0.000000e+000 0.000000e+000 0.000000e+000 9.948738e-001 5.126235e-003
 0.000000e+000 0.000000e+000 0.000000e+000 0.000000e+000 0.000000e+000
<ENDHMM>
~h "aa"
<BEGINHMM>
<NUMSTATES> 5
<STATE> 2
<MEAN> 25
 2.382288e+000 -3.800290e+000 -2.955294e+000 -2.912766e-001 1.952267e+000 2.215407e-001 1.568175e+000 1.107326e+000 3.220454e-001 -1.563888e+000 -1.678601e+000 4.256828e-001 -9.991092e-002 9.466358e-003 -1.290707e-002 9.427623e-002 1.085386e-001 1.050005e-001 9.207573e-002 4.862438e-002 5.842756e-002 4.345218e-002 2.413184e-002 5.324930e-002 -2.172673e-001
<VARIANCE> 25
 6.810006e+001 7.657616e+001 4.709748e+001 5.429088e+001 5.309026e+001 4.619618e+001 4.572469e+001 3.953598e+001 3.760503e+001 5.462053e+001 4.546450e+001 2.948080e+001 1.423852e+000 2.560566e+000 1.852418e+000 2.082574e+000 2.369868e+000 2.416421e+000 2.467491e+000 2.251613e+000 2.293049e+000 2.381541e+000 2.201794e+000 1.811887e+000 2.204759e+000
<GCONST> 1.024613e+002
<STATE> 3
<MEAN> 25
 1.845140e+000 -3.475582e+000 -2.861372e+000 -9.186109e-003 2.182008e+000 5.605752e-001 1.674266e+000 1.263631e+000 3.941691e-001 -1.341530e+000 -1.393143e+000 5.779223e-001 -1.602262e-001 9.500392e-002 3.134220e-002 8.128875e-002 8.687404e-003 8.039504e-002 2.570184e-002 1.842828e-002 1.122698e-002 8.275714e-002 8.303031e-002 2.619210e-002 -2.798043e-001
<VARIANCE> 25
 6.773234e+001 7.096206e+001 4.299475e+001 5.177229e+001 4.910298e+001 4.378151e+001 4.539246e+001 3.754198e+001 3.669573e+001 5.246192e+001 4.280332e+001 2.815445e+001 1.344705e+000 2.280067e+000 1.776504e+000 1.942386e+000 2.171781e+000 2.306082e+000 2.406678e+000 2.111935e+000 2.191577e+000 2.340634e+000 2.152635e+000 1.766590e+000 2.079635e+000
<GCONST> 1.012024e+002
<STATE> 4
<MEAN> 25
 -1.772723e-001 -2.876533e+000 -2.512301e+000 2.431331e-001 1.838160e+000 8.316638e-001 1.921856e+000 1.304650e+000 7.538648e-001 1.133163e-001 -4.512380e-001 7.101074e-001 -1.825304e-001 2.112517e-001 1.193650e-001 1.051520e-001 -4.308057e-002 1.750471e-002 4.209084e-002 -5.086023e-002 -8.864761e-003 1.023460e-001 6.898766e-002 -2.891485e-002 -3.034584e-001
<VARIANCE> 25
 8.316875e+001 7.296809e+001 4.150921e+001 6.024141e+001 3.484971e+001 3.863775e+001 4.104910e+001 3.126508e+001 3.452066e+001 4.607280e+001 3.780225e+001 2.832052e+001 5.970255e-001 1.216219e+000 1.052016e+000 1.223914e+000 1.312673e+000 1.433211e+000 1.551892e+000 1.513021e+000 1.585222e+000 1.625126e+000 1.482149e+000 1.307537e+000 7.476301e-001
<GCONST> 9.392776e+001
<TRANSP> 5
 0.000000e+000 1.000000e+000 0.000000e+000 0.000000e+000 0.000000e+000
 0.000000e+000 6.703574e-001 3.296426e-001 0.000000e+000 0.000000e+000
 0.000000e+000 0.000000e+000 6.695271e-001 3.304730e-001 0.000000e+000
 0.000000e+000 0.000000e+000 0.000000e+000 8.501875e-001 1.498125e-001
 0.000000e+000 0.000000e+000 0.000000e+000 0.000000e+000 0.000000e+000
<ENDHMM>
~h "eu"
<BEGINHMM>
<NUMSTATES> 5
<STATE> 2
<MEAN> 25
 -2.088971e+000 6.731135e-001 1.068065e+000 1.303425e-001 8.126687e-001 -1.743704e+000 2.289741e-001 8.474573e-001 8.994091e-001 1.460588e-001 5.273565e-001 -3.541160e-001 1.212488e+000 -1.999110e-001 1.907828e-001 -5.443355e-001 -1.682688e-001 -5.615539e-001 -8.235452e-001 4.284084e-002 -1.324316e-001 -6.321061e-001 -1.899248e-001 -1.855861e-001 1.325276e+000
<VARIANCE> 25
 1.017048e+002 7.667607e+001 7.109228e+001 6.614528e+001 5.502707e+001 7.905836e+001 9.389447e+001 5.691212e+001 5.445479e+001 5.608246e+001 4.577148e+001 3.399805e+001 7.453257e+000 6.087758e+000 5.089025e+000 5.995796e+000 4.535957e+000 5.949128e+000 7.474956e+000 5.171821e+000 5.433195e+000 4.900763e+000 4.169447e+000 3.134085e+000 5.095372e+000
<GCONST> 1.173638e+002
<STATE> 3
<MEAN> 25
 1.902766e+000 -2.460703e-001 1.377796e+000 -1.848577e+000 1.450817e-001 -3.292497e+000 -2.597582e+000 1.244951e+000 7.428431e-001 -2.118654e+000 -4.304954e-002 -5.124921e-001 1.270782e+000 -3.397583e-001 -5.051396e-002 -5.390753e-001 -1.980856e-001 -3.211415e-001 -8.943336e-001 1.078316e-001 -1.119041e-001 -6.252261e-001 -1.244143e-001 -1.353535e-002 1.179324e+000
<VARIANCE> 25
 9.316177e+001 8.537158e+001 8.005027e+001 7.614780e+001 6.959898e+001 9.005271e+001 1.059742e+002 6.640969e+001 7.240598e+001 6.581828e+001 5.036734e+001 3.823891e+001 7.040111e+000 6.559544e+000 4.873713e+000 6.148321e+000 4.910004e+000 5.994297e+000 8.232060e+000 5.741401e+000 5.946382e+000 5.305414e+000 4.222907e+000 3.527279e+000 5.723528e+000
<GCONST> 1.196457e+002
<STATE> 4
<MEAN> 25
 6.118720e+000 -5.995698e+000 3.494124e+000 -7.856671e+000 5.318008e-001 -6.903863e-001 -6.326517e+000 1.689235e+000 -1.769279e-001 -1.211214e+000 1.536359e+000 -2.234252e+000 1.453681e-001 4.675582e-002 -9.860501e-002 3.212884e-002 5.034823e-002 6.397793e-002 9.351303e-002 -7.321794e-002 -4.612696e-002 -1.361949e-002 -1.327588e-001 1.770830e-002 -2.587962e-002
<VARIANCE> 25
 7.821538e+001 1.375424e+002 8.867977e+001 1.168192e+002 6.243263e+001 7.883987e+001 1.024162e+002 7.223885e+001 9.216441e+001 9.468761e+001 7.614381e+001 5.792131e+001 1.751646e+000 3.641825e+000 2.283980e+000 3.237599e+000 2.506640e+000 2.747931e+000 3.824872e+000 3.322423e+000 3.318618e+000 2.990900e+000 2.898161e+000 2.359761e+000 2.342312e+000
<GCONST> 1.127471e+002
<TRANSP> 5
 0.000000e+000 1.000000e+000 0.000000e+000 0.000000e+000 0.000000e+000
 0.000000e+000 7.156375e-001 2.843624e-001 0.000000e+000 0.000000e+000
 0.000000e+000 0.000000e+000 7.389779e-001 2.610221e-001 0.000000e+000
 0.000000e+000 0.000000e+000 0.000000e+000 8.513341e-001 1.486659e-001
 0.000000e+000 0.000000e+000 0.000000e+000 0.000000e+000 0.000000e+000
<ENDHMM>
~h "hh"
<BEGINHMM>
<NUMSTATES> 5
<STATE> 2
<MEAN> 25
 3.910863e-001 2.419558e-001 -2.304226e+000 -1.124230e-001 1.012083e+000 1.599466e+000 1.762399e+000 -3.327590e-001 3.088148e-001 1.860931e+000 7.205024e-001 -6.550415e-002 -1.871266e-001 1.652456e-001 2.823427e-002 6.940537e-002 8.633868e-002 8.397508e-002 1.530599e-001 5.443982e-002 1.306873e-001 1.686513e-001 5.023014e-002 5.281002e-002 -2.616383e-001
<VARIANCE> 25
 5.253464e+001 4.729871e+001 5.353446e+001 5.581085e+001 5.130351e+001 4.362221e+001 6.525651e+001 5.515451e+001 4.687714e+001 4.585824e+001 4.541625e+001 2.920785e+001 1.478557e+000 2.368650e+000 2.297940e+000 2.434491e+000 2.696935e+000 2.574778e+000 3.259672e+000 3.006496e+000 2.886657e+000 2.555648e+000 2.433462e+000 2.099751e+000 1.338691e+000
<GCONST> 1.036490e+002
<STATE> 3
<MEAN> 25
 -2.697637e-001 5.344703e-001 -2.183737e+000 5.825800e-002 1.182718e+000 1.644811e+000 2.032875e+000 -1.159569e-002 5.962932e-001 2.194696e+000 8.468452e-001 2.865087e-001 -1.461487e-001 9.375152e-002 4.519564e-002 2.644532e-002 -4.377764e-002 -3.088985e-002 1.854393e-002 2.931482e-002 1.371759e-002 4.778596e-002 4.812539e-002 1.113666e-001 -1.419795e-001
<VARIANCE> 25
 5.365695e+001 4.550914e+001 5.384504e+001 5.567211e+001 4.760719e+001 4.083341e+001 6.154039e+001 5.253629e+001 4.809977e+001 4.477541e+001 4.434786e+001 2.863860e+001 1.466122e+000 2.291227e+000 2.364697e+000 2.494209e+000 2.627597e+000 2.586751e+000 3.271307e+000 2.852873e+000 2.853964e+000 2.548073e+000 2.434857e+000 2.096499e+000 1.332198e+000
<GCONST> 1.032658e+002
<STATE> 4
<MEAN> 25
 -1.464305e+000 6.983972e-001 -1.661238e+000 4.979579e-001 4.757346e-001 1.140790e+000 2.205778e+000 -1.346077e-001 5.081482e-001 2.323706e+000 9.332014e-001 8.207947e-001 -1.518934e-001 5.846570e-002 7.038824e-002 8.528314e-002 -2.055277e-002 -6.053732e-003 4.514087e-002 -1.409434e-002 5.161831e-003 -1.178335e-002 7.362539e-003 1.558623e-002 -1.637093e-001
<VARIANCE> 25
 5.810096e+001 4.642909e+001 5.173274e+001 5.825752e+001 4.415571e+001 3.718769e+001 5.191058e+001 5.218463e+001 5.193820e+001 4.153458e+001 4.632155e+001 2.764240e+001 7.210990e-001 1.264424e+000 1.409134e+000 1.590076e+000 1.652128e+000 1.695872e+000 1.989994e+000 2.028404e+000 2.052647e+000 1.960151e+000 2.009286e+000 1.577177e+000 5.520142e-001
<GCONST> 9.708897e+001
<TRANSP> 5
 0.000000e+000 1.000000e+000 0.000000e+000 0.000000e+000 0.000000e+000
 0.000000e+000 6.499344e-001 3.500656e-001 0.000000e+000 0.000000e+000
 0.000000e+000 0.000000e+000 6.496346e-001 3.503654e-001 0.000000e+000
 0.000000e+000 0.000000e+000 0.000000e+000 7.896658e-001 2.103342e-001
 0.000000e+000 0.000000e+000 0.000000e+000 0.000000e+000 0.000000e+000
<ENDHMM>
~h "ih"
<BEGINHMM>
<NUMSTATES> 5
<STATE> 2
<MEAN> 25
 9.315063e-001 3.240040e+000 8.371335e+000 1.460897e-001 -2.389517e+000 -2.227901e+000 -3.940601e+000 -1.761923e+000 -2.806516e-001 -1.937592e+000 -8.645625e-001 -8.662056e-001 1.169533e-001 1.597785e-001 7.636309e-001 -4.239082e-001 -3.878959e-001 -1.966042e-001 -6.676977e-001 -1.917099e-001 2.697764e-002 -2.905382e-001 -1.141626e-001 -4.022025e-003 6.865132e-001
<VARIANCE> 25
 5.156024e+001 9.246473e+001 9.651214e+001 1.138690e+002 1.008681e+002 6.923028e+001 1.003722e+002 6.703329e+001 5.781342e+001 6.564920e+001 4.868246e+001 4.042256e+001 3.029875e+000 5.779646e+000 5.763951e+000 7.041084e+000 6.096063e+000 4.849844e+000 7.272026e+000 4.864293e+000 4.384395e+000 4.709445e+000 3.622917e+000 3.399348e+000 4.459823e+000
<GCONST> 1.177652e+002
<STATE> 3
<MEAN> 25
 1.314306e+000 3.836202e+000 9.671124e+000 -1.264186e+000 -3.106699e+000 -2.386956e+000 -5.691297e+000 -2.460142e+000 1.726858e-001 -2.517922e+000 -1.381129e+000 -4.948811e-001 1.833541e-001 3.505152e-002 3.601719e-001 -3.087886e-001 -2.380756e-001 -8.127765e-002 -4.582532e-001 -1.917050e-004 -1.194712e-002 -2.246530e-001 -5.596004e-002 1.073917e-001 3.750955e-001
<VARIANCE> 25
 4.471404e+001 1.022614e+002 9.833788e+001 1.315001e+002 1.174450e+002 6.652940e+001 1.018972e+002 7.017168e+001 5.785983e+001 6.214322e+001 5.026532e+001 4.490544e+001 2.509630e+000 5.375464e+000 5.168159e+000 6.132719e+000 5.286939e+000 4.629586e+000 7.113428e+000 4.437143e+000 4.187886e+000 4.149117e+000 3.585489e+000 3.329798e+000 3.573760e+000
<GCONST> 1.169064e+002
<STATE> 4
<MEAN> 25
 3.010991e+000 3.667575e+000 1.277727e+001 -1.398941e+000 -4.803575e+000 -2.654321e+000 -7.673855e+000 -2.194350e+000 -1.166277e+000 -4.878647e+000 -1.159961e+000 -1.000853e+000 3.160318e-002 -1.437907e-002 -4.401518e-001 2.458979e-001 2.097663e-001 7.902265e-002 3.244108e-001 -4.527136e-002 -6.057192e-002 1.410857e-001 3.836881e-002 -3.588099e-002 -4.120673e-001
<VARIANCE> 25
 3.224713e+001 9.210947e+001 1.206191e+002 1.396281e+002 1.145862e+002 6.246027e+001 7.765495e+001 7.345183e+001 6.569111e+001 6.530871e+001 6.824393e+001 4.954443e+001 8.455448e-001 1.995600e+000 2.408480e+000 2.968352e+000 2.527206e+000 2.677680e+000 3.239084e+000 2.882969e+000 2.707012e+000 2.544253e+000 2.405720e+000 2.196605e+000 1.096159e+000
<GCONST> 1.080124e+002
<TRANSP> 5
 0.000000e+000 1.000000e+000 0.000000e+000 0.000000e+000 0.000000e+000
 0.000000e+000 7.926709e-001 2.073290e-001 0.000000e+000 0.000000e+000
 0.000000e+000 0.000000e+000 7.745247e-001 2.254753e-001 0.000000e+000
 0.000000e+000 0.000000e+000 0.000000e+000 9.089664e-001 9.103353e-002
 0.000000e+000 0.000000e+000 0.000000e+000 0.000000e+000 0.000000e+000
<ENDHMM>
~h "jh"
<BEGINHMM>
<NUMSTATES> 5
<STATE> 2
<MEAN> 25
 -1.176891e+000 4.003544e+000 3.559528e+000 2.116207e+000 2.682265e-001 -5.506883e-001 1.784661e-001 -1.850205e+000 -5.068041e-001 7.734291e-001 1.711225e-002 -7.870692e-001 -6.681218e-001 -1.535880e-001 5.259953e-002 -5.761517e-002 1.594316e-001 -1.254621e-001 3.913455e-001 1.206021e-001 8.571917e-002 1.601653e-001 1.352315e-001 -8.953145e-002 1.639363e-001
<VARIANCE> 25
 7.873825e+001 4.730272e+001 5.701775e+001 3.733344e+001 4.510180e+001 5.133275e+001 5.833410e+001 3.665902e+001 3.802453e+001 3.484355e+001 3.634478e+001 2.439807e+001 4.949282e+000 2.969024e+000 2.613889e+000 2.980808e+000 3.889386e+000 4.065681e+000 4.163178e+000 2.570484e+000 3.172606e+000 2.697083e+000 2.136131e+000 1.812479e+000 2.863144e+000
<GCONST> 1.056487e+002
<STATE> 3
<MEAN> 25
 -3.126807e+000 3.062701e+000 3.108564e+000 1.434695e+000 -1.607961e-002 -1.712564e+000 1.081766e+000 -1.218255e+000 -3.243424e-001 1.046183e+000 8.380953e-001 -1.113452e+000 -7.714160e-002 -2.298138e-001 -1.770800e-001 -1.377078e-001 -1.422281e-001 -2.272802e-001 4.924261e-002 1.240552e-001 9.965482e-003 1.591081e-002 7.284115e-002 -1.073227e-002 3.433258e-001
<VARIANCE> 25
 9.306711e+001 4.601395e+001 5.488983e+001 4.349156e+001 5.198335e+001 6.219746e+001 6.144550e+001 3.778872e+001 4.057849e+001 3.711414e+001 3.700307e+001 2.574388e+001 6.995542e+000 3.289396e+000 2.714158e+000 2.586052e+000 4.284859e+000 4.629725e+000 5.016781e+000 3.164433e+000 3.308711e+000 3.393004e+000 2.461606e+000 1.921636e+000 2.719015e+000
<GCONST> 1.079044e+002
<STATE> 4
<MEAN> 25
 -3.414948e+000 3.022291e+000 1.388187e+000 1.996573e+000 9.507396e-001 -1.965810e-001 1.350311e+000 -5.808867e-001 2.034772e-001 1.508588e+000 4.905358e-001 -9.805299e-002 -2.736841e-002 -2.002444e-001 -7.275747e-002 -2.707899e-002 -3.398161e-003 1.046184e-001 1.064039e-001 1.049091e-001 4.131594e-002 1.461711e-002 -1.074111e-002 5.059003e-002 -3.817138e-002
<VARIANCE> 25
 7.132168e+001 3.499713e+001 4.699999e+001 3.053527e+001 3.018587e+001 4.670469e+001 4.054203e+001 3.358363e+001 3.241355e+001 2.946736e+001 2.880690e+001 2.291010e+001 1.915338e+000 1.783076e+000 1.433089e+000 1.219157e+000 1.842803e+000 2.059730e+000 2.134117e+000 1.813475e+000 1.854484e+000 2.065954e+000 1.651787e+000 1.356093e+000 9.489774e-001
<GCONST> 9.543075e+001
<TRANSP> 5
 0.000000e+000 1.000000e+000 0.000000e+000 0.000000e+000 0.000000e+000
 0.000000e+000 7.280146e-001 2.719854e-001 0.000000e+000 0.000000e+000
 0.000000e+000 0.000000e+000 7.284411e-001 2.715589e-001 0.000000e+000
 0.000000e+000 0.000000e+000 0.000000e+000 8.205525e-001 1.794476e-001
 0.000000e+000 0.000000e+000 0.000000e+000 0.000000e+000 0.000000e+000
<ENDHMM>
~h "ng"
<BEGINHMM>
<NUMSTATES> 5
<STATE> 2
<MEAN> 25
 3.717569e+000 4.574162e+000 1.364222e+000 2.279685e+000 2.177573e-001 -9.236848e-001 -1.347702e+000 -3.826298e+000 -2.207528e+000 -8.010784e-001 -2.734678e+000 -3.787717e+000 -5.162439e-001 7.402574e-002 3.284990e-002 2.836251e-001 2.302928e-001 2.026536e-001 3.360351e-001 3.401918e-002 2.902266e-002 1.787174e-001 6.161736e-002 5.971529e-002 -5.417084e-001
<VARIANCE> 25
 5.761456e+001 4.459257e+001 4.159388e+001 4.398943e+001 5.007315e+001 3.955777e+001 6.686520e+001 5.061593e+001 5.053866e+001 4.547484e+001 4.099128e+001 4.465052e+001 6.420212e-001 1.438104e+000 1.942954e+000 1.910334e+000 2.194398e+000 2.291365e+000 2.508172e+000 2.670809e+000 2.606922e+000 2.617102e+000 2.435549e+000 2.206362e+000 4.019528e-001
<GCONST> 9.971949e+001
<STATE> 3
<MEAN> 25
 8.085960e-001 3.999520e+000 1.375552e+000 3.124064e+000 1.227376e+000 1.110216e-001 1.925908e-001 -2.821625e+000 -1.361208e+000 2.164496e-002 -1.951351e+000 -2.688679e+000 -5.965468e-001 -1.624551e-001 -4.733530e-002 1.528753e-001 1.552088e-001 2.363742e-001 3.725995e-001 1.982390e-001 1.736259e-001 2.453541e-001 2.083094e-001 2.267678e-001 -4.637978e-001
<VARIANCE> 25
 5.841961e+001 3.817762e+001 4.036074e+001 4.149603e+001 4.053243e+001 3.709561e+001 5.634778e+001 4.710503e+001 4.674178e+001 4.079011e+001 3.718444e+001 4.009929e+001 5.775582e-001 1.304349e+000 1.831758e+000 1.776242e+000 2.051425e+000 2.309121e+000 2.338564e+000 2.433780e+000 2.432018e+000 2.468698e+000 2.276665e+000 2.041076e+000 3.693845e-001
<GCONST> 9.766373e+001
<STATE> 4
<MEAN> 25
 -4.057531e+000 2.778674e+000 7.429025e-002 4.031285e+000 1.877095e+000 7.821119e-001 2.483895e+000 -7.709499e-001 4.696938e-001 1.740742e+000 -2.987870e-001 -1.815673e-001 -3.262699e-001 -1.420398e-001 -7.162902e-002 -1.222109e-003 1.103016e-002 8.687896e-002 1.620904e-001 1.674704e-001 1.430559e-001 1.593812e-001 1.673679e-001 1.566659e-001 -2.225167e-001
<VARIANCE> 25
 5.247523e+001 2.661309e+001 3.219125e+001 3.094210e+001 2.312013e+001 2.289576e+001 3.042534e+001 3.276014e+001 3.679755e+001 2.850275e+001 2.772557e+001 2.925646e+001 5.078222e-001 7.898237e-001 9.806027e-001 1.057356e+000 1.172101e+000 1.346909e+000 1.518851e+000 1.526253e+000 1.594240e+000 1.633773e+000 1.531634e+000 1.327884e+000 2.736749e-001
<GCONST> 8.771391e+001
<TRANSP> 5
 0.000000e+000 1.000000e+000 0.000000e+000 0.000000e+000 0.000000e+000
 0.000000e+000 7.175937e-001 2.824064e-001 0.000000e+000 0.000000e+000
 0.000000e+000 0.000000e+000 7.084632e-001 2.915368e-001 0.000000e+000
 0.000000e+000 0.000000e+000 0.000000e+000 8.866773e-001 1.133227e-001
 0.000000e+000 0.000000e+000 0.000000e+000 0.000000e+000 0.000000e+000
<ENDHMM>
~h "ny"
<BEGINHMM>
<NUMSTATES> 5
<STATE> 2
<MEAN> 25
 2.398352e+000 1.456283e+000 4.322938e+000 -2.684695e+000 -1.434804e+000 -5.587983e-001 -1.126233e+000 -9.976569e-001 -1.729999e+000 -1.252373e-001 8.782558e-002 -3.147230e+000 5.167181e-001 -5.973702e-002 6.368771e-001 -5.868459e-001 -3.526134e-001 -2.295130e-001 -4.370502e-001 -8.376741e-002 -3.827949e-001 -2.807145e-001 -8.077486e-002 -3.233040e-001 1.047343e+000
<VARIANCE> 25
 5.946303e+001 1.016720e+002 8.928340e+001 1.016896e+002 6.510192e+001 6.377296e+001 8.554492e+001 5.683204e+001 5.825373e+001 5.712415e+001 6.047897e+001 4.981092e+001 3.560097e+000 6.710252e+000 5.915442e+000 6.698271e+000 4.829596e+000 5.683003e+000 5.875950e+000 4.402625e+000 4.222052e+000 3.821143e+000 4.699276e+000 3.626205e+000 3.281226e+000
<GCONST> 1.169316e+002
<STATE> 3
<MEAN> 25
 3.824324e+000 -4.667574e-001 5.919897e+000 -3.951903e+000 -2.123673e+000 -1.223997e+000 -1.133532e+000 -9.483261e-001 -2.877514e+000 -1.536529e+000 -6.453894e-001 -3.822373e+000 2.385705e-001 -7.167612e-001 1.887570e-003 -1.655417e-001 -2.038329e-002 -9.228242e-002 -9.250163e-002 1.980963e-001 -2.638675e-001 -2.937445e-001 1.298985e-001 -1.079137e-002 7.898584e-001
<VARIANCE> 25
 4.308663e+001 1.135222e+002 8.989511e+001 1.130457e+002 7.196049e+001 6.950517e+001 1.008723e+002 6.504502e+001 5.794530e+001 6.128238e+001 6.060688e+001 5.767570e+001 2.334712e+000 6.207952e+000 5.941078e+000 6.294216e+000 4.617677e+000 5.539168e+000 6.015837e+000 4.529820e+000 4.204801e+000 4.131588e+000 4.335263e+000 3.672567e+000 2.696498e+000
<GCONST> 1.167658e+002
<STATE> 4
<MEAN> 25
 6.251246e+000 -2.298203e+000 4.076563e+000 -4.955314e+000 -2.437894e+000 -6.113341e-001 -1.556458e+000 -4.726551e-001 -6.198870e+000 -3.744601e+000 2.300682e+000 -3.094776e+000 -4.653663e-002 8.954886e-002 -1.525800e-001 1.677334e-001 6.127499e-002 5.294079e-002 7.122779e-002 -3.271897e-002 8.166511e-002 3.366859e-002 -6.829086e-002 1.108486e-001 -2.244168e-001
<VARIANCE> 25
 4.169911e+001 1.177040e+002 9.487785e+001 1.094421e+002 7.751139e+001 8.024751e+001 9.408163e+001 8.349088e+001 7.186091e+001 6.672183e+001 9.601543e+001 5.861119e+001 7.179887e-001 2.565688e+000 2.721374e+000 2.821436e+000 2.429411e+000 2.898516e+000 3.097467e+000 2.827751e+000 2.653789e+000 2.503560e+000 3.049296e+000 2.322422e+000 9.776388e-001
<GCONST> 1.091085e+002
<TRANSP> 5
 0.000000e+000 1.000000e+000 0.000000e+000 0.000000e+000 0.000000e+000
 0.000000e+000 7.940633e-001 2.059366e-001 0.000000e+000 0.000000e+000
 0.000000e+000 0.000000e+000 7.906941e-001 2.093059e-001 0.000000e+000
 0.000000e+000 0.000000e+000 0.000000e+000 9.397558e-001 6.024418e-002
 0.000000e+000 0.000000e+000 0.000000e+000 0.000000e+000 0.000000e+000
<ENDHMM>
~h "uw"
<BEGINHMM>
<NUMSTATES> 5
<STATE> 2
<MEAN> 25
 5.017827e+000 3.170308e+000 -1.531220e-001 -1.994810e+000 -2.971575e+000 -1.552920e+000 -2.641863e+000 -2.425415e+000 -1.998369e+000 -4.460950e-001 1.584788e-001 -8.122962e-001 1.492474e-001 2.612680e-001 3.307891e-002 9.079437e-002 -1.510501e-001 -9.534290e-002 -1.954005e-001 -2.176621e-001 -5.184305e-002 5.336248e-002 9.326029e-003 1.732559e-002 -5.841262e-002
<VARIANCE> 25
 6.787447e+001 5.496872e+001 5.628424e+001 7.126330e+001 7.199638e+001 6.777252e+001 8.501771e+001 6.933183e+001 5.808348e+001 5.523397e+001 5.266745e+001 3.624111e+001 2.326070e+000 3.002211e+000 2.570816e+000 3.377355e+000 3.688708e+000 4.299079e+000 5.154201e+000 4.037450e+000 3.911361e+000 3.502864e+000 3.186050e+000 2.473517e+000 1.671059e+000
<GCONST> 1.103696e+002
<STATE> 3
<MEAN> 25
 5.175864e+000 3.706460e+000 5.840264e-002 -1.644001e+000 -3.322856e+000 -1.699387e+000 -3.322706e+000 -2.863505e+000 -1.974229e+000 -2.180459e-001 6.627496e-002 -6.912239e-001 -5.023993e-003 1.000676e-001 1.773150e-002 8.165861e-002 -1.532134e-002 4.957870e-002 -1.402499e-002 -5.450495e-002 -5.728018e-003 1.428464e-002 -2.103198e-002 5.574359e-002 -1.189291e-001
<VARIANCE> 25
 6.738422e+001 5.118793e+001 5.267128e+001 6.756801e+001 7.124724e+001 6.743431e+001 8.629004e+001 7.126103e+001 5.734058e+001 5.441000e+001 5.400998e+001 3.663709e+001 1.834409e+000 2.483346e+000 2.545986e+000 3.209429e+000 3.502703e+000 4.012462e+000 4.763793e+000 3.874618e+000 3.689631e+000 3.430698e+000 3.078204e+000 2.457548e+000 1.223161e+000
<GCONST> 1.090458e+002
<STATE> 4
<MEAN> 25
 4.924629e+000 4.479644e+000 2.754983e-001 -1.740833e+000 -3.367992e+000 -1.061255e+000 -2.239251e+000 -4.011860e+000 -2.980446e+000 -3.928326e-001 7.109124e-001 -6.861446e-001 -3.262812e-001 -1.172199e-001 2.237616e-002 1.930593e-001 2.055420e-001 1.086569e-001 2.387894e-001 1.068539e-001 1.408324e-001 7.886438e-002 -4.260327e-002 5.211029e-003 -2.874166e-001
<VARIANCE> 25
 8.417271e+001 4.939164e+001 4.325777e+001 7.141792e+001 5.546980e+001 5.569727e+001 6.388181e+001 7.069205e+001 5.455807e+001 4.854860e+001 5.905018e+001 3.493162e+001 6.554762e-001 1.244804e+000 1.321466e+000 1.826687e+000 1.843820e+000 2.204245e+000 2.367615e+000 2.270005e+000 2.295840e+000 2.247867e+000 2.216919e+000 1.829290e+000 4.980378e-001
<GCONST> 1.003858e+002
<TRANSP> 5
 0.000000e+000 1.000000e+000 0.000000e+000 0.000000e+000 0.000000e+000
 0.000000e+000 6.817346e-001 3.182654e-001 0.000000e+000 0.000000e+000
 0.000000e+000 0.000000e+000 6.827850e-001 3.172150e-001 0.000000e+000
 0.000000e+000 0.000000e+000 0.000000e+000 8.593691e-001 1.406310e-001
 0.000000e+000 0.000000e+000 0.000000e+000 0.000000e+000 0.000000e+000
<ENDHMM>
~h "sil"
<BEGINHMM>
<NUMSTATES> 5
<STATE> 2
<MEAN> 25
 -7.953878e+000 9.928724e-001 -1.978985e+000 4.084357e+000 1.148531e+000 3.062829e+000 3.756330e+000 2.629695e+000 3.133178e+000 4.886330e+000 1.935271e+000 2.185353e+000 -1.148454e-003 -5.713030e-003 7.863191e-003 -2.803951e-003 -5.275089e-003 -6.386976e-003 -1.283017e-002 -4.032367e-003 -3.709973e-003 1.671544e-002 7.005308e-003 -1.030075e-003 -9.984045e-003
<VARIANCE> 25
 2.474948e+001 7.368465e+000 2.355804e+001 1.808079e+001 1.737944e+001 1.735776e+001 1.359537e+001 1.585954e+001 2.165840e+001 1.382659e+001 1.825221e+001 1.617070e+001 1.227142e-001 2.236837e-001 3.614495e-001 5.101379e-001 6.855261e-001 8.349789e-001 9.552101e-001 1.021786e+000 1.079790e+000 1.088736e+000 1.059878e+000 9.951145e-001 6.762361e-002
<GCONST> 7.133249e+001
<STATE> 3
<MEAN> 25
 -5.479644e+000 9.048302e-001 -3.280546e+000 4.634922e-001 -1.525176e+000 3.809815e+000 6.841489e-001 7.201711e-001 2.405214e+000 3.892506e+000 1.217487e+000 1.912604e+000 3.608308e-002 2.766035e-003 -2.998885e-002 1.358700e-002 -2.572368e-002 1.982141e-002 -2.902441e-002 2.276751e-003 -1.465390e-002 -1.723994e-002 -1.508692e-002 -5.147630e-003 -1.606540e-001
<VARIANCE> 25
 4.455143e+001 7.132361e+000 2.381548e+001 1.933958e+001 2.135628e+001 1.891492e+001 1.370615e+001 1.073737e+001 1.328513e+001 7.157618e+000 9.312062e+000 9.735225e+000 3.538319e-001 1.800862e-001 2.941352e-001 3.666300e-001 4.595735e-001 5.355823e-001 5.773243e-001 6.076577e-001 6.637527e-001 5.877467e-001 5.781558e-001 5.359038e-001 2.580704e+000
<GCONST> 6.930078e+001
<STATE> 4
<MEAN> 25
 -4.245747e-001 8.620150e-002 -3.525060e-001 1.071221e-001 -1.389376e-002 -1.245867e-001 1.843001e-001 -7.617178e-002 -5.845289e-002 -1.994454e-002 4.943575e-004 1.404701e-001 8.909971e-004 -3.531266e-004 1.841742e-003 -3.594783e-004 -6.447130e-004 3.475379e-004 -8.590011e-005 -1.310903e-004 -1.168189e-004 -7.929939e-004 2.433750e-004 -5.660424e-004 6.929711e-004
<VARIANCE> 25
 1.124992e+002 7.555775e+001 6.624796e+001 8.436200e+001 4.306049e+001 5.433996e+001 5.410292e+001 5.182722e+001 4.707017e+001 5.069300e+001 4.183076e+001 3.495645e+001 1.069561e+000 1.678541e+000 1.427193e+000 2.086474e+000 1.584864e+000 1.924710e+000 2.053025e+000 2.090663e+000 2.041794e+000 1.979710e+000 1.825667e+000 1.537261e+000 1.623807e+000
<GCONST> 1.015471e+002
<TRANSP> 5
 0.000000e+000 1.000000e+000 0.000000e+000 0.000000e+000 0.000000e+000
 0.000000e+000 9.787099e-001 2.129010e-002 0.000000e+000 0.000000e+000
 0.000000e+000 0.000000e+000 9.532212e-001 4.677884e-002 0.000000e+000
 0.000000e+000 0.000000e+000 0.000000e+000 9.960401e-001 3.959940e-003
 0.000000e+000 0.000000e+000 0.000000e+000 0.000000e+000 0.000000e+000
<ENDHMM>
